word,0,1,2,3,4,5,6,7,8,9,10,11,12,13,14,15,16,17,18,19,20,21,22,23,24,25,26,27,28,29,30,31,32,33,34,35,36,37,38,39,40,41,42,43,44,45,46,47,48,49,50,51,52,53,54,55,56,57,58,59,60,61,62,63,64,65,66,67,68,69,70,71,72,73,74,75,76,77,78,79,80,81,82,83,84,85,86,87,88,89,90,91,92,93,94,95,96,97,98,99,100,101,102,103,104,105,106,107,108,109,110,111,112,113,114,115,116,117,118,119,120,121,122,123,124,125,126,127,128,129,130,131,132,133,134,135,136,137,138,139,140,141,142,143,144,145,146,147,148,149,150,151,152,153,154,155,156,157,158,159,160,161,162,163,164,165,166,167,168,169,170,171,172,173,174,175,176,177,178,179,180,181,182,183,184,185,186,187,188,189,190,191,192,193,194,195,196,197,198,199,200,201,202,203,204,205,206,207,208,209,210,211,212,213,214,215,216,217,218,219,220,221,222,223,224,225,226,227,228,229,230,231,232,233,234,235,236,237,238,239,240,241,242,243,244,245,246,247,248,249,250,251,252,253,254,255,256,257,258,259,260,261,262,263,264,265,266,267,268,269,270,271,272,273,274,275,276,277,278,279,280,281,282,283,284,285,286,287,288,289,290,291,292,293,294,295,296,297,298,299,300,301,302,303,304,305,306,307,308,309,310,311,312,313,314,315,316,317,318,319,320,321,322,323,324,325,326,327,328,329,330,331,332,333,334,335,336,337,338,339,340,341,342,343,344,345,346,347,348,349,350,351,352,353,354,355,356,357,358,359,360,361,362,363,364,365,366,367,368,369,370,371,372,373,374,375,376,377,378,379,380,381,382,383,384,385,386,387,388,389,390,391,392,393,394,395,396,397,398,399
制造,0.63075697422,1.71133494377,0.247383996844,0.402662009001,2.47921895981,-1.27810096741,1.96422803402,-1.94636797905,2.46855688095,-1.05004501343,-1.34379303455,0.2482829988,-0.418947011232,0.136913001537,0.24200899899,-2.71771597862,-1.03838396072,-1.52089595795,-0.392291992903,-0.364858001471,-1.72281002998,-0.691384017467,0.525107979774,-1.52094197273,-0.464403003454,-0.217998996377,-0.58109498024,2.20199394226,-1.37615001202,1.23797595501,-0.822852015495,0.968697011471,-1.90450298786,-1.17331302166,0.252539992332,-0.862699985504,-0.368826985359,1.61796498299,0.272846996784,1.47997796535,-0.178868994117,-0.219124004245,-1.32684695721,-0.0540090017021,-0.341470986605,1.88283395767,-0.620096027851,-2.82219910622,1.30250394344,1.2665630579,0.209924995899,-1.47243797779,1.6092530489,0.640666007996,-1.25324201584,1.04876494408,0.797518014908,-1.50195395947,1.29316294193,0.897078990936,-1.52421998978,0.917307972908,-1.27807402611,0.428694009781,0.493559986353,-1.48658704758,-0.397500008345,-0.132073998451,-0.77290302515,0.683152019978,-1.28284394741,-1.06084394455,0.900313973427,2.57594799995,-0.669610023499,0.421442985535,1.13307404518,-1.46010494232,-0.345580995083,-2.21897006035,-0.148719996214,-0.0353030003607,-0.837121009827,-0.730177998543,-0.530241012573,0.0613150000572,1.29772901535,0.90087300539,1.14916300774,0.501935005188,0.163809001446,0.095260001719,0.139927998185,1.26461601257,-0.578361988068,0.644466996193,-0.347252994776,-0.287845999002,-0.628775000572,0.727602005005,1.47324502468,0.364134997129,-0.830848991871,0.837975978851,-0.794915020466,-0.817691981792,-0.751480996609,-2.16154789925,-0.0440719984472,-1.74755001068,0.358550012112,0.270686000586,-1.80559396744,-0.698707997799,0.586619973183,-0.545005977154,0.124897003174,-0.562810003757,-0.644877016544,-0.437070012093,-2.39182209969,0.0322780013084,0.699258029461,-2.24443602562,0.0370980016887,0.220173999667,-1.95016396046,-1.09564495087,-1.22780001163,0.727087020874,1.71043395996,0.0173230003566,-1.53651702404,0.152528002858,0.795261979103,0.259876012802,0.520705997944,1.05623805523,-0.260684996843,-1.08399403095,0.13618299365,0.3840470016,-0.299551993608,0.492971003056,-0.808547019958,0.301207005978,-0.108010001481,-0.166725993156,-1.32385003567,-1.64522504807,2.17280602455,0.839622020721,-0.350042998791,-1.46668899059,0.815029978752,0.642754971981,0.0525959990919,1.73721802235,-1.32686495781,0.766825020313,-0.765576004982,2.51767492294,0.269652992487,0.641246020794,0.0805109962821,-0.287396997213,-0.173824995756,-1.63407897949,-1.45557796955,-2.82439804077,0.493398010731,-1.50802397728,-0.242585003376,1.42958498001,-0.419405013323,-1.47687804699,1.01558101177,1.13591504097,0.877544999123,1.85752499104,1.30347394943,0.130716994405,-0.850517988205,-1.3316090107,-0.536000013351,1.47438800335,0.130587995052,-0.511214017868,-0.787721991539,-0.0157639998943,-1.37690794468,-0.725308001041,0.928511023521,-0.24456499517,0.590099990368,1.15787899494,2.02784705162,-1.10539197922,-1.77430295944,0.303312987089,0.364688009024,0.435644000769,-0.327221989632,0.880796015263,0.0376489982009,0.808884978294,-0.53111499548,0.813607990742,0.562144994736,0.805477976799,-0.233642995358,-0.42190399766,0.760573029518,-0.523317992687,-0.602931976318,1.55367803574,-1.9857519865,-1.26832902431,0.0739360004663,-2.09557008743,2.08804702759,-0.521345019341,1.51848101616,0.0926470011473,0.905560016632,-0.888660013676,-1.33432602882,1.06485295296,-0.441513001919,-1.95961403847,-1.42117905617,-1.06526398659,1.16611897945,-0.11336799711,2.11059904099,-1.14092302322,0.857706010342,0.172775998712,1.19607496262,-0.122359998524,0.882983982563,1.05815005302,1.24316394329,0.538107991219,1.1587280035,0.331577003002,1.92091405392,-0.824621975422,0.406486988068,-0.279469996691,0.38174200058,1.05576503277,-0.278692007065,-0.545782983303,-0.505011022091,-0.4671010077,-0.768638014793,1.15139102936,0.847456991673,1.73493695259,0.197935000062,0.832508027554,0.401071995497,0.138178005815,-1.25074005127,-1.2593909502,0.0493139997125,-0.27142599225,-0.936906993389,0.0280310008675,-0.920782029629,-0.0618790015578,-1.63694000244,1.27582800388,-0.804229021072,-0.0397990010679,-0.270702987909,0.0297630000859,0.607088983059,0.830690979958,0.507723987103,1.12917900085,1.03561103344,-1.25309801102,-2.07846188545,1.22438800335,0.179588004947,0.0103890001774,0.288028985262,-0.223219007254,-1.11755895615,-0.832418978214,-1.67046797276,-0.30370798707,-0.0102059999481,-0.087190002203,0.326848000288,0.154785007238,-1.6757119894,-0.223287001252,-0.149757996202,-0.358382999897,0.0114630004391,0.131991997361,0.641310989857,1.78389596939,0.10314399749,-0.589846014977,1.53360295296,1.03234100342,-0.73818898201,0.518752992153,0.745221018791,-0.58987402916,0.0625220015645,-1.15715694427,-0.775445997715,-1.73021602631,0.259330004454,0.308629006147,1.17030096054,-0.413462013006,2.50859999657,-0.880398988724,0.804395020008,-1.43665397167,-0.0186989996582,-0.43059399724,-0.781741023064,-1.1161570549,1.24644494057,-0.463663995266,-0.00187799998093,-0.111764997244,1.43235695362,-0.829235970974,-0.3748460114,0.322820007801,-1.0493439436,1.60275697708,-0.35732498765,0.544147014618,0.532043993473,0.0396090000868,0.745645999908,-2.7272799015,0.278194010258,0.215200006962,1.88869297504,-2.13574194908,-0.204095005989,0.0356080010533,1.47067797184,0.1035830006,-0.267168998718,-0.0322000011802,-0.213131994009,0.0368129983544,-0.139895007014,0.674390971661,0.289822012186,-1.02106404305,-0.642939984798,-0.495525985956,-1.42872595787,-0.331786990166,-2.1380879879,-1.06765496731,-1.17489695549,-0.108776003122,-0.475068986416,-0.652785003185,-0.566878020763,-1.3027869463,-0.344673007727,-0.656665980816,-1.14970898628,-0.318893998861,-0.764828026295,-0.296649992466,0.822458982468,-0.0934730023146,0.144520998001,-0.931451022625,0.29995200038,-0.56269299984,-0.444743990898,1.07469499111,0.535815000534,0.90755200386,0.736715018749,-0.406672000885,-0.83720099926,0.936510026455,1.02658200264,0.526714026928,-1.18421900272,0.369996011257,-1.35650098324,-0.436390995979
安装,0.161998003721,1.80902397633,1.28923499584,0.51880300045,1.97950196266,0.938587009907,0.762776970863,-2.07044696808,1.09025704861,1.437541008,-0.793853998184,-0.42978399992,-1.19671201706,-0.202747002244,-0.610964000225,-0.965023994446,0.438760995865,-2.42345905304,0.364715009928,-0.978936970234,-2.01470994949,-0.774928987026,0.933318018913,1.49131703377,-1.02264404297,1.65634000301,-2.19877004623,1.35851597786,-0.0885509997606,0.328399002552,-0.988838016987,-0.48049300909,-0.268258005381,-1.27297699451,1.36955797672,0.509546995163,-0.181475996971,-0.521039009094,-0.291644990444,2.26363301277,0.372561007738,-1.42321503162,-0.83156400919,1.32050096989,1.13604903221,0.526127994061,0.243530005217,-0.350555002689,-0.143021002412,-0.435741990805,0.295011997223,-0.872932970524,-1.54195904732,1.26955997944,-2.05473208427,0.473275989294,0.712121009827,-0.954083025455,-1.52122795582,0.50608497858,-1.65220296383,1.61847102642,-0.734700977802,-0.421290010214,-0.671117007732,1.57145404816,1.12033605576,-0.678978979588,0.920912027359,0.28542599082,-2.37432599068,-0.723137021065,1.05211305618,1.04458200932,-0.395873010159,4.40056800842,2.00012397766,-0.23081099987,-1.11776697636,1.2052179575,0.0277110002935,-0.713586986065,1.14135301113,-1.23245799541,0.852748990059,-1.11351597309,0.0622470006347,0.661267995834,1.25646603107,0.383350998163,1.1345770359,0.316253989935,1.13876795769,-0.697019994259,0.882251024246,-1.34381902218,-0.339736998081,2.75453495979,0.139294996858,0.890724003315,2.16196894646,0.270696014166,-1.13322198391,0.353899985552,-3.60522603989,-0.675803005695,1.57635903358,-0.45128300786,1.69333803654,1.65741705894,0.892758011818,-2.49469709396,-0.317108005285,-0.652606010437,-0.876555979252,0.65247297287,2.70468997955,-0.0455030016601,0.788362026215,2.54835796356,-0.577636003494,-1.03569602966,-0.211833000183,-0.464881002903,1.23389804363,1.75447595119,-0.619306027889,0.201609998941,-1.82817900181,1.58921897411,1.05178797245,-2.54973292351,-0.126616999507,1.93636703491,-1.65041804314,-0.294328004122,-0.982277989388,0.101443000138,1.32034301758,-0.158529996872,-0.127921000123,0.408600986004,0.1960940063,1.77441596985,0.0879129990935,-1.22324299812,-0.769389986992,-0.410869002342,0.705830991268,-1.87640702724,1.38921105862,-1.72462999821,0.26825299859,0.204925999045,1.77193701267,-0.146280005574,-0.443405002356,-0.72096902132,-1.20176804066,-0.434924006462,0.02517599985,-0.937870025635,-0.423590987921,0.609556019306,0.758387029171,0.733384013176,-0.106628000736,-1.02450096607,-0.468050986528,-1.7099159956,0.260318011045,0.416687011719,1.13175904751,1.17972898483,3.13407611847,0.272563010454,1.5285769701,-0.338348001242,1.60987794399,2.28636407852,-0.960680007935,-1.23357796669,-0.920328974724,-0.0547549985349,0.526928007603,0.764347016811,1.47767901421,-0.188949003816,0.459163993597,-1.60403096676,-0.500338971615,-0.873072981834,0.765214979649,-0.00506999995559,-1.82222497463,-0.0210149995983,1.08906900883,-0.581184983253,0.746196985245,-0.960987985134,-0.921983003616,-1.64072299004,-1.32403802872,0.164132997394,0.207383006811,0.836426973343,-0.2202450037,3.12996196747,-0.302109003067,2.42906093597,-0.285526007414,0.203537002206,-0.089726999402,-0.628067970276,1.63319504261,0.00817099958658,0.259588986635,0.271061003208,-1.19820904732,-1.88081395626,0.276630997658,0.83628898859,0.785138010979,0.0453200004995,1.09712505341,1.23097896576,1.38650500774,0.708573997021,-0.191982999444,-2.37515091896,0.155128002167,-1.95207297802,1.67323195934,-1.42416501045,1.6060359478,-1.28464603424,0.0497610010207,-0.524069011211,0.851998984814,-1.04712998867,0.784039020538,0.457042992115,0.933161020279,0.557923018932,0.751874029636,1.87026500702,0.15989600122,1.89555001259,1.1353110075,-0.888441026211,0.55906701088,2.03013300896,0.841273009777,0.20138899982,0.989512979984,-0.226365998387,0.0159179996699,1.99320805073,0.255394995213,1.0301990509,-1.48241698742,0.338712006807,-0.651710987091,0.27461001277,-0.595785975456,-1.53079795837,0.208985999227,0.362040013075,-0.710431993008,1.36927998066,0.197189003229,-1.53627300262,-0.717595994473,1.50609195232,-2.38591194153,0.743695020676,-1.46968400478,-1.60335505009,1.38482904434,-0.213442996144,-0.104500003159,1.12944698334,0.888320028782,-0.466129004955,-0.782877027988,0.667922019958,-2.02149510384,1.80196201801,1.71444296837,0.91194498539,-0.657712996006,1.52901697159,-0.573952972889,-1.81321597099,0.498683989048,0.824149012566,-0.530140995979,0.0534910000861,-1.1764550209,0.124462001026,-0.527979016304,-2.06062293053,-1.33623504639,0.0457510016859,0.403122007847,1.65008401871,-1.55287897587,0.554942011833,-0.467817008495,2.16115999222,-1.02660095692,-0.545533001423,1.49596095085,0.240566000342,0.72503298521,0.164436995983,-2.68649101257,-1.02920198441,1.28857004642,0.0432239994407,2.20565009117,-0.374855011702,-0.0180740002543,-0.120751999319,0.556150972843,-2.66814208031,0.875868976116,1.41599595547,-1.74151003361,-0.687076985836,0.89530402422,-0.280254989862,0.526453971863,1.14939904213,1.04618704319,-0.732322990894,0.56793397665,-0.0931570008397,0.24489299953,0.822955012321,0.27120500803,1.73997402191,-1.29926598072,0.268449991941,-0.155074998736,0.145894005895,-0.174189001322,1.03884100914,0.847860991955,-0.544335007668,-1.57061004639,1.80896699429,0.625407993793,-1.04874396324,1.32279002666,-0.675768017769,0.365884006023,1.09794795513,-1.61035001278,1.29526400566,-0.469981014729,0.286042004824,0.920975983143,0.668954014778,-0.795557975769,-1.86702895164,-0.597828984261,-1.77870798111,0.122078999877,-1.41751301289,-2.45852804184,0.276609003544,-1.2232350111,0.847550988197,0.0211239997298,-1.71794199944,-1.71223294735,-1.29841995239,-2.53686594963,0.150324001908,1.34749400616,0.233670994639,1.08511805534,0.474400013685,-0.600437998772,-2.49283909798,-0.371935993433,-0.014795999974,-2.48962497711,0.320937007666,-0.582795977592,-0.559454023838,-1.4432669878,-0.807309985161,2.22435903549,0.168998003006,-1.99075305462,1.59552896023,0.400609999895,-0.41397100687
主体,-0.930088996887,-0.496666014194,-0.830797970295,-0.502948999405,1.1992559433,0.197106003761,0.403576999903,-2.28561210632,1.74382603168,-0.0765860006213,0.66540902853,0.13608199358,-1.01383697987,1.22373402119,-0.0966150015593,-0.695716977119,-0.165179997683,-0.555420994759,-0.385944008827,-0.910574018955,-0.0934050008655,0.0801320001483,-0.561878979206,-0.738084971905,0.454077988863,1.01010799408,0.183761999011,0.263547003269,0.17360599339,0.817282021046,1.18502604961,0.566425025463,-0.561182975769,1.27371001244,1.61482298374,-1.46977996826,-0.397579014301,-1.69619905949,0.807232022285,0.890949010849,0.684536993504,-0.582243025303,-1.03252494335,-0.677124023438,-0.00636200001463,0.720743000507,0.692734003067,-1.24802398682,-0.360399007797,0.261200010777,1.09478700161,-0.0460349991918,0.973127007484,-0.191486999393,-2.28452205658,1.21738398075,1.16684794426,-1.01294100285,-0.936502993107,0.0983579978347,-0.807563006878,-1.16268897057,-0.755760014057,-1.51870501041,-1.11157798767,-0.874792993069,-0.328455001116,2.3034350872,0.448756992817,0.410353004932,-1.23011302948,0.359710991383,-0.0892240032554,1.26777994633,0.677375972271,-1.5712389946,2.02317810059,-1.03018498421,-0.461905986071,-0.428469002247,0.646615028381,-1.6845240593,-0.222267001867,0.607349991798,-0.163982003927,0.84012901783,-0.579244017601,0.0134330000728,0.739383995533,0.434098988771,-0.0458270013332,0.30867600441,-0.539762020111,0.05456700176,-0.11328099668,0.64634001255,1.27920794487,-1.06689095497,-0.430970996618,-0.375557005405,0.372137993574,0.226778000593,0.658863008022,0.654739975929,0.141754001379,-1.31831502914,1.22774505615,0.932761013508,0.075093999505,-0.928269982338,0.161873996258,-0.340135008097,-1.24611103535,-0.786078989506,-0.839854001999,0.0788829997182,-0.36577001214,-1.19424200058,0.105109997094,1.69880199432,1.32413196564,-0.864412009716,0.362340986729,-0.697887003422,-0.771120011806,-0.689387023449,-2.47922897339,-0.25414699316,0.568651020527,-1.29822695255,-0.900671005249,-1.15051996708,-0.936864972115,1.23945403099,-0.394753992558,0.595358014107,-0.0850810036063,1.26742005348,0.3098089993,-0.642733991146,2.09957003593,0.677555024624,0.718043982983,0.366852998734,-0.231593996286,-0.115613996983,0.456259995699,0.298990011215,-0.492518991232,0.471632003784,1.47852301598,-0.295864999294,-0.61254799366,1.2906910181,-0.502399981022,0.862432003021,-0.720848977566,-1.93454504013,-0.545521974564,0.936161994934,0.11228299886,-0.706570982933,0.668399989605,-0.859007000923,-0.274801999331,1.07669401169,1.11516594887,-0.532706022263,-0.536310017109,0.504787027836,-1.41483795643,0.289958000183,0.283814996481,1.17286896706,-0.462884008884,-0.791548013687,2.23695206642,-0.639373004436,-1.53799200058,0.231052994728,0.756047010422,-0.572071015835,0.123214997351,-0.464783996344,0.984610021114,-0.384609013796,1.39010798931,0.243851006031,0.597014009953,0.201846003532,0.102505996823,-1.16706299782,1.3212569952,1.11308598518,-1.20353496075,0.232835993171,1.32998299599,0.00781499966979,0.880490005016,-0.453018009663,-0.0652080029249,0.20301400125,0.134313002229,-1.06055104733,-0.661477029324,0.582013010979,0.163900002837,-0.606931984425,-1.01646196842,1.35602498055,-0.984363019466,-0.357289999723,1.79894804955,0.911777973175,0.615051984787,-0.580264985561,-0.369504004717,-1.03987395763,-0.241666004062,-0.3922739923,0.797075986862,-1.29316997528,1.08746004105,1.10240805149,-0.844263970852,-0.818488001823,-0.365864008665,-0.472065001726,-1.44822502136,1.0870000124,-0.605257987976,0.434994012117,0.148456007242,-1.30595600605,0.538478016853,-1.53223800659,-0.356985986233,-0.65191501379,0.380172997713,-0.0967620015144,1.85755598545,1.28638994694,-0.472404003143,0.893962025642,1.49484097958,-1.39183998108,0.616922974586,-1.39972198009,0.284913986921,-0.846023023129,0.405142009258,1.37918794155,0.740508973598,-1.49396300316,0.458626002073,1.50862205029,0.59602200985,0.0785330012441,0.698256015778,0.326833993196,0.836403012276,1.29970002174,-0.793314993382,0.702482998371,0.337060004473,-0.651908993721,-0.109117001295,-0.843529999256,0.509092986584,0.534555017948,-0.876196980476,-1.10554099083,-0.407658010721,0.659159004688,-2.44427490234,1.0404239893,-1.11826097965,0.102594003081,-1.28414702415,-0.139091998339,-0.493593990803,-0.179129004478,0.659325003624,0.600301027298,-0.661779999733,-0.804283022881,-0.0820280015469,-0.314283013344,-0.103263996542,-0.0648870021105,-0.0658140033484,-0.932115972042,-0.270704001188,-0.733349025249,0.207248002291,0.736501991749,-0.843913018703,0.710267007351,0.762081980705,0.229037001729,-0.371520996094,1.078379035,0.55621099472,0.983532011509,0.38095998764,0.162155002356,-0.0588909983635,-0.197163999081,-1.59914398193,-0.931765019894,-1.35556304455,-0.396196007729,-0.880750000477,1.18341100216,-1.06313097477,-0.0650599971414,-0.395271003246,-0.0686919987202,1.29367995262,0.249463006854,0.537065029144,0.0274470001459,-0.180086001754,0.642502009869,-0.205537006259,0.345598995686,-0.888095021248,-0.816321015358,-0.065486997366,-1.19955599308,-0.523647010326,1.16286599636,-0.272772997618,-0.0259019993246,0.391743004322,1.2668889761,-0.335483014584,0.108217999339,-0.768106997013,0.409478008747,1.32176804543,0.617717027664,-0.681756973267,1.84323596954,1.05608403683,0.0450839996338,-0.911906003952,1.65925502777,-0.559153020382,-0.182403996587,2.12505888939,-0.655750989914,-0.14483499527,0.859984993935,-1.67352497578,-1.46452796459,2.01373910904,1.37683403492,-0.866264998913,0.400150001049,-0.053357001394,0.0734129995108,-0.204554006457,0.854640007019,-0.19189299643,-0.948873996735,-0.351514995098,-1.94491505623,-0.193302005529,0.00248400005512,-0.813603997231,-1.02623701096,-1.00077700615,-0.446934998035,-1.50600302219,-0.329708009958,-0.0298519991338,-0.532402992249,-0.495415002108,-0.604233980179,0.754512012005,-0.180398002267,-1.46331596375,1.24847197533,2.73708605766,-0.421930998564,-0.281367987394,-0.84206700325,-1.12733602524,0.140782997012,-0.568940997124,0.913392007351,-0.416785985231,-0.214671999216,0.937525987625,-0.61955499649,1.15603196621,-0.392435997725,0.30542498827,0.745316028595
状态,-0.478480011225,-0.982650995255,0.633844017982,0.7592689991,1.14871001244,0.114730000496,1.4279589653,-2.47303199768,0.285409003496,0.463319003582,-1.22175705433,-0.525656998158,-2.23562192917,-1.36244702339,1.1327559948,-1.3874540329,-0.95890301466,0.207910999656,-0.0971919968724,-1.13235497475,-1.11455500126,1.73766696453,-1.31396794319,0.962734997272,0.670473992825,1.50435698032,-1.22279202938,1.08956599236,-0.38527199626,1.19697499275,-0.432233989239,-2.59858393669,-1.80827796459,-0.0665069967508,1.18517303467,0.807254016399,1.77419805527,0.511057019234,-0.381440013647,-0.027215000242,0.571676015854,-0.878497004509,-2.29375600815,-0.795099973679,-0.19917100668,-0.717517971992,0.546101987362,-0.189762994647,-0.301097005606,-0.810774981976,-0.524154007435,-3.55045390129,-0.377548009157,2.51999688148,0.628077983856,-1.8290220499,0.568518996239,-1.854591012,-0.168465003371,2.43246102333,1.99230599403,-0.195884004235,0.734987020493,-1.5243229866,-1.6685179472,-2.3635160923,0.0822570025921,-0.948601007462,1.09952902794,-0.458447992802,3.10972809792,0.253996014595,1.65182495117,1.79038202763,0.401028990746,-0.214597001672,1.7527589798,0.602006971836,0.253118991852,0.967966020107,0.173445001245,-1.66231000423,-0.300062000751,1.0210750103,-1.36575102806,0.0303390007466,-0.451893985271,0.122588999569,0.581408977509,-0.495386004448,0.0254629999399,1.41512095928,1.90770602226,1.10431003571,-0.856391012669,0.30242100358,-0.224720001221,1.52349305153,0.880886971951,0.478841990232,-0.429291009903,1.55762004852,0.234383001924,1.80781495571,0.407025009394,-0.33134201169,0.224352002144,1.22591400146,-0.017614999786,0.396943002939,2.52405905724,-1.27981102467,-1.585242033,0.481444001198,0.76236897707,-0.218059003353,1.29931402206,-1.83640897274,-1.03004598618,2.1706058979,1.3015049696,-0.909798979759,1.78326094151,-0.465202003717,0.749888002872,1.63606500626,1.26000499725,-1.6944309473,-0.105067998171,-0.875603020191,-0.843057990074,-0.30034199357,-0.596441984177,-0.471765011549,0.369370996952,-0.727135002613,0.95896500349,-2.01639795303,0.618157029152,-1.89486598969,0.200242996216,1.07418096066,-1.40496695042,-0.671051979065,0.216553002596,0.188314005733,-0.0465009994805,0.818010985851,0.0576229989529,-0.256653994322,0.694191992283,-0.991783022881,1.57729697227,0.980876982212,0.314500004053,-0.767341971397,-1.71453499794,0.589419007301,0.0150119997561,1.51556301117,-0.273667991161,-2.29002189636,1.99047505856,-2.79865598679,-1.21448302269,2.14121389389,0.562819004059,0.117600999773,-0.923007011414,-1.09167695045,1.53834998608,-2.48310494423,0.979731023312,0.977101027966,-0.248056992888,-0.171809002757,0.827706992626,1.00919997692,-0.382571995258,0.119851998985,1.12404799461,1.75433897972,0.0722120031714,0.12820699811,-1.33452904224,-0.622561991215,-0.525139987469,0.53557997942,-0.149795994163,-0.267632007599,1.64246702194,1.13836503029,0.361138999462,-0.648813009262,-0.143270999193,1.01163601875,-0.53366202116,-0.80179899931,0.167464002967,-1.3033260107,2.3410589695,-0.531705021858,-0.539987027645,-1.11970794201,-0.467204988003,0.380257993937,-2.07591605186,-1.96549701691,-2.45999789238,1.48631000519,-0.533541977406,-1.66707098484,-0.099310003221,-0.253381997347,0.265796005726,-0.440548986197,-1.01735901833,-0.144543007016,0.557632982731,-0.740141987801,-0.316507011652,-0.233371004462,1.72908401489,-1.25133001804,1.22445702553,-1.16061401367,-0.721364021301,-0.497568011284,-0.59530800581,1.66452002525,-0.374642014503,0.498522013426,0.0278859995306,-1.19906103611,3.01545906067,-0.256981998682,1.57413303852,-0.722877025604,0.142931997776,-2.01396608353,-1.44051098824,0.532751977444,-2.09076404572,-0.0985490009189,0.905731022358,0.139422997832,0.437831997871,-0.217134997249,0.66443002224,0.319166988134,-0.204789996147,1.74374997616,0.24628700316,0.495662003756,-1.84383702278,2.79581999779,1.08596694469,1.29177105427,0.745657026768,0.654681026936,-1.60624098778,-0.126406997442,0.718890011311,-0.0385829992592,0.0888080000877,0.0466729998589,1.12198996544,-0.130401998758,0.47379899025,0.32122901082,0.76709997654,-0.688877999783,-0.881976008415,1.06104004383,-2.00750589371,-1.53875398636,-0.334726989269,-0.355167001486,-0.600759983063,-0.385235011578,-0.81735098362,0.983771026134,-0.0825439989567,0.361095011234,-1.03738999367,-0.433030992746,-2.00005602837,0.739525020123,-1.13472104073,-1.18022298813,0.508105993271,-0.135597005486,0.0714579969645,-0.410120993853,0.602890014648,0.50330299139,0.411394000053,1.88283598423,-1.17182803154,-0.318190991879,-0.0719359964132,1.70465302467,-0.316588997841,0.3382999897,0.624692976475,0.314233005047,-0.200525000691,-2.09494996071,-0.0307010002434,1.0105689764,-0.0690210014582,-0.939185976982,-0.0623070001602,-0.531907021999,0.678957998753,-0.26523900032,-0.816455006599,0.825079977512,-0.740607023239,-1.26862597466,-1.15372598171,0.676185011864,-0.0898239985108,0.540373027325,-0.537743985653,1.22491395473,0.201415002346,-0.948081016541,-1.62741696835,0.186287999153,-0.800817012787,-0.898391008377,-0.839064002037,0.376006007195,1.7288299799,-0.482986986637,1.3816640377,0.0593030005693,-0.146882995963,0.0160780008882,-0.726411998272,2.22185397148,0.989198029041,-0.145778998733,-0.176210001111,-0.518827974796,0.167660996318,1.79301095009,1.09614396095,0.298694998026,2.51711702347,-0.506666004658,0.268191993237,2.33812403679,-1.16304600239,-0.817878007889,0.204763993621,1.6185669899,0.190834999084,-0.274816989899,-0.219096004963,0.029755000025,-2.53352403641,2.02245092392,-1.38552904129,-1.87222898006,-0.15437400341,0.715636014938,1.13050997257,1.16961598396,1.56419694424,1.4805970192,0.366914987564,0.984027981758,0.867547988892,0.417991012335,0.232277005911,-0.304580003023,-0.270428985357,1.02933597565,0.822740018368,0.377992987633,-1.41411495209,-0.135582000017,2.11322188377,0.359365999699,-0.883724987507,-0.16413000226,-1.42744803429,1.61357402802,0.110320001841,1.71793401241,-1.36782300472,-0.803988993168,-0.94782102108,-3.32287406921,1.12221300602,-0.257108986378,-0.556707978249,-0.755499005318
远离,0.953149020672,2.12901997566,-1.14369702339,-1.48803603649,0.941073000431,-0.274946004152,1.07080495358,-0.0859180018306,-0.667653024197,2.23099398613,1.15870201588,-1.44863295555,-0.464807987213,-0.402500987053,0.169415995479,0.361427992582,-0.634886980057,0.0246249996126,0.139074996114,-1.56219995022,0.903304994106,-0.28867700696,-1.295814991,-0.88382101059,4.22233915329,0.46602499485,-1.60591197014,-0.302275985479,-1.39551401138,-0.977311015129,-0.130103006959,-0.329955995083,-0.966289997101,-0.448008000851,-0.156821995974,0.0688989982009,0.348421990871,-0.69274097681,-1.24587094784,1.53203296661,-1.33629894257,0.728088974953,-0.0141359996051,-1.18664705753,0.191630005836,0.794188022614,0.508922994137,-0.939248025417,-0.0120970001444,-0.00658700009808,-0.136582002044,-0.449324011803,-0.265693992376,-0.85977101326,0.283681005239,-0.283003002405,0.342045009136,-0.333416998386,0.0451220013201,0.253838002682,-0.433315008879,0.617109000683,-0.621469974518,0.906027972698,-1.03845000267,0.971791982651,-1.00942194462,-1.3759200573,-0.389755010605,0.936212003231,1.19065201283,-0.814365983009,-0.689319014549,-0.882613003254,-1.51963698864,0.600687980652,0.944426000118,0.716206014156,1.60887801647,-0.856076002121,-0.143718004227,0.0972749963403,0.426302999258,-0.361306995153,0.6833999753,0.817488014698,0.36323800683,1.13548803329,0.839309990406,1.14661300182,0.715812981129,-1.21623003483,-0.843369007111,-1.7966760397,0.459087014198,-0.991177022457,-1.69515395164,1.24162304401,-0.610646009445,0.285064995289,1.41815805435,-1.16034901142,-0.116925999522,1.6015059948,-0.19825899601,-0.503526985645,-0.710052013397,0.103926002979,-0.529178023338,1.34633994102,-0.071321003139,-0.676234006882,-1.07735097408,0.176265999675,1.27215099335,-1.88732802868,0.197962000966,0.240957006812,-1.57233202457,0.742213010788,0.341466009617,-0.519577980042,0.778137981892,0.246016994119,-0.339361995459,0.298691987991,-0.610055029392,0.116705000401,0.47405898571,-0.953242003918,1.27815997601,-1.09007394314,-0.0782300010324,1.53879702091,0.0251589994878,1.03844404221,-0.420879989862,0.473681002855,-0.452558994293,0.147446006536,0.411224007607,1.86149799824,-2.15511608124,-1.41639494896,1.38312995434,-0.925894975662,0.655470013618,0.647831976414,-0.726836025715,-0.574795007706,-0.785495996475,-1.03550994396,-1.43066203594,1.59295904636,1.11667895317,0.998400986195,-0.0550919994712,-0.458247989416,-0.280414998531,-1.08737397194,-0.291909992695,-0.369845986366,-0.219981998205,0.736494004726,0.733222007751,-0.664686024189,1.30489802361,-0.00384499994107,-0.627231001854,0.396999001503,0.431457012892,-0.207129999995,1.26653802395,-0.35876300931,-0.512880980968,-2.02999401093,1.03492701054,0.959621012211,-0.28711399436,-0.260812997818,-0.686851978302,0.980365991592,1.70999205112,-0.893227994442,1.89710497856,1.38778996468,0.0311960000545,0.278163999319,0.296270012856,-0.216057002544,0.489484995604,0.0181019995362,0.933854997158,1.32436394691,0.637287974358,-0.429028987885,0.763457000256,0.0711620002985,0.952950000763,1.05203199387,0.718122005463,-0.933180987835,-0.274448990822,-0.57779198885,-0.656610012054,-0.042213998735,-0.956969976425,-0.480116009712,0.229807004333,2.08370089531,-1.08551001549,0.899304986,0.283066004515,-0.537706971169,1.02681100368,0.0398470014334,-0.0182419996709,1.04163396358,-0.389059990644,1.73219096661,0.176056995988,0.315627008677,-0.333656996489,-0.191039994359,-0.30138400197,-0.694281995296,-0.172257006168,-0.319272994995,1.5745869875,-0.631769001484,1.21032202244,0.428687989712,1.51346802711,0.189238995314,1.1956590414,0.92979902029,0.297066003084,-0.167065992951,0.0689679980278,1.3403249979,1.27932500839,-0.257364988327,0.499803006649,-1.53251898289,0.377806991339,0.146215006709,0.310593008995,-0.496365010738,-1.65170705318,0.676247000694,-0.0152059998363,0.973468005657,-1.4112149477,-0.437299996614,0.418123006821,1.11721301079,-0.251626998186,0.244800999761,-0.922397017479,0.508347988129,-1.44387805462,0.526336014271,-0.298415988684,0.386186987162,-0.304190009832,-0.613545000553,-1.09473395348,-0.993254005909,-0.320917010307,-0.118693999946,-0.486609995365,0.96510797739,-0.175972998142,-1.0050150156,0.394861012697,0.168917000294,0.455246001482,-0.631686985493,-0.877614021301,0.125718995929,2.08371806145,-0.344438999891,1.05654299259,2.25570201874,-0.0676840022206,-0.560131013393,-0.0711520016193,-0.295935988426,0.111994996667,-0.412856996059,0.16227799654,0.072272002697,-0.632351994514,-0.968854010105,1.89572799206,1.84412205219,0.333292990923,-0.471338003874,-0.309603005648,1.30629694462,-0.897082984447,0.415998995304,-0.588871002197,-0.0863299965858,0.770353019238,-0.637211024761,-0.994566977024,-0.209612995386,-0.0511489994824,0.130180999637,-0.726467013359,-0.366661995649,1.03033196926,-0.643693983555,-0.903881013393,-0.432722985744,0.565496981144,0.0730020031333,-0.316390991211,-0.808709025383,0.637199997902,0.816178977489,0.762642979622,0.914416015148,-0.0613059997559,-0.869638979435,-1.52170503139,-1.15564501286,0.499119997025,1.48739898205,-0.20241600275,-0.0186410006136,1.44417095184,1.20667600632,1.50847804546,0.55751901865,0.679942011833,-1.62978196144,-0.924655020237,0.972038984299,0.0431549996138,0.889427006245,0.964228987694,-1.11456394196,0.781612992287,-1.19033694267,-0.408836007118,-0.604339003563,1.72839796543,0.331616997719,-0.158338993788,-1.31209504604,-0.539656996727,-0.52391397953,-0.0639979988337,-1.05913197994,-0.757818996906,-0.86619502306,0.482192993164,0.939725995064,0.772799015045,0.00808199960738,0.104415997863,-0.180869996548,-0.481335997581,-2.20687508583,-0.169663995504,-0.25707000494,0.561125993729,0.89303702116,0.0208439994603,1.22960805893,0.420365989208,0.813812017441,0.327906996012,-1.00822603703,0.354351013899,0.0400540009141,-1.80673098564,-0.864380002022,-0.595053970814,1.11219096184,-1.29399597645,2.71610999107,1.10885703564,-0.0516440011561,-0.948314011097,0.460669010878,-0.523342013359,0.184008002281,2.42743611336,-0.0762659981847,0.468625992537,0.961238026619,0.786983013153,0.734685003757,0.848845005035,-0.0548049993813,-0.10871899873,-1.74245798588
部上,-0.0525909997523,-0.12530900538,0.0168970003724,0.00606000004336,-0.00348700000905,0.0438739992678,0.10629799962,-0.0648920014501,0.0209129992872,0.0454870015383,-0.0360409989953,-0.0112399999052,0.028655000031,-0.0415170006454,-0.0127560002729,0.00200499990024,0.0139450002462,0.0325260013342,-0.0811240002513,-0.054848998785,-0.0747319981456,0.0985480025411,0.10829000175,0.0572770014405,-0.0828090012074,-0.0695990025997,-0.0640280023217,0.00613299990073,0.0288650002331,-0.0696860030293,-0.000406000006478,-0.0489160008729,-0.0137740001082,-0.0229609999806,-0.00709100021049,0.0632930025458,0.0197459999472,0.00692800013348,0.0208969991654,-0.0100929997861,-0.0344009995461,-0.0586489997804,-0.00957600027323,-0.0128570003435,0.0381449982524,0.0232720002532,-0.0501529984176,-0.00517700007185,0.0107089998201,0.0270489994437,-0.0378750003874,0.0291750002652,-0.0334389992058,-0.128286004066,0.0631750002503,0.036791998893,-0.00849600043148,-0.0527059994638,0.0418579988182,0.0665600001812,0.0389470010996,-0.0252940002829,-0.0353999994695,-0.0581660009921,0.00629300018772,0.0469890013337,-0.0254650004208,0.000784999981988,0.0239039994776,-0.0164219997823,-0.0716710016131,-0.0407200008631,0.00688399979845,-0.00107300002128,0.0255330000073,-0.0497779995203,-0.00229600002058,-0.0765310004354,-0.0756469964981,0.0452740006149,-0.0141620002687,-0.0242340005934,-0.0317969992757,0.032430998981,-0.0115219997242,-0.0407980009913,-0.0158670004457,0.016520999372,-0.0262189991772,-0.0294100008905,-0.0201239995658,0.00218899990432,-0.0184550005943,0.0411689989269,0.033996000886,-0.0351900011301,-0.003395000007,0.0260739997029,-0.00944299995899,0.0148179996759,0.0819929987192,0.0860980004072,0.0366449989378,-0.00540800020099,0.0354180000722,0.0987629964948,-0.0217250008136,-0.0178200006485,0.029138000682,0.0835350006819,-0.0325840003788,0.0349459983408,0.0379519984126,0.0467419996858,0.0234910007566,0.054970998317,0.0337460003793,-0.018388999626,-0.0591199994087,0.0427539981902,0.107449002564,-0.0187710002065,0.0158910006285,0.063436999917,0.0167100001127,0.115547001362,0.039034999907,0.0123530002311,-0.0661970004439,-0.0828299969435,0.0786200016737,-0.0892999991775,-0.00918699987233,-0.0319890007377,-0.0982490032911,-0.0194669999182,0.0171670001,-0.0141080003232,-0.0150469997898,-0.0537660010159,0.0201379992068,0.071846999228,0.0233890004456,0.0122419996187,0.0165609996766,-0.0405910015106,-0.0119089996442,0.0257479995489,-0.0397729985416,0.0585950016975,-0.0203009992838,0.0160799995065,-0.0146310003474,-0.0512380003929,0.0026839999482,-0.0591339990497,0.0082550002262,0.00794100016356,-0.0303939990699,0.0399420000613,0.057838998735,-0.0403620004654,-0.0513000003994,-0.053530998528,-0.0703440010548,-0.0288459993899,0.0395260006189,0.00930100027472,0.00831099972129,-0.04410199821,0.0799100026488,-0.0232009999454,0.00225299992599,-0.0702200010419,0.0576030015945,0.00353199988604,0.000784999981988,0.0525810010731,-0.0106800002977,-0.0702660009265,-0.0645340010524,-0.0503939986229,0.015848999843,-0.00635199993849,-0.0143919996917,0.00769100012258,-0.0396789982915,-0.00311199994758,0.0608370006084,0.0365110002458,-0.00659799994901,-0.0109649999067,-0.0597140006721,0.0122990002856,0.0201779995114,0.0479429997504,0.00925699993968,-0.0316260010004,0.0354960002005,-0.00264999992214,-0.0410280004144,0.0192419998348,0.0870930030942,0.0295599997044,-0.0168030001223,-0.0251800008118,0.0965299978852,0.00650200014934,-0.0954610034823,0.0993259996176,0.0760959982872,0.0636160001159,0.0106629999354,0.0585910007358,0.0574680007994,0.00367200002074,0.0321229994297,0.000681000004988,0.0246370006353,0.0513219982386,0.0139140002429,-0.0106359999627,-0.0379129983485,-0.0484049990773,0.0237990003079,0.0610219985247,0.0144300004467,-0.107738003135,0.00716699985787,0.0114050004631,-0.0115440003574,0.0222169999033,-0.00931899994612,-0.0455660000443,-0.00139600003604,0.0536650009453,-0.0392370000482,-0.027710000053,0.0121910003945,0.0911320000887,0.0285580009222,0.0469760000706,0.0668810009956,-0.0292029995471,0.0860899984837,0.125003993511,0.0275560002774,0.0239119995385,0.0380470007658,0.0765900015831,-0.00367100001313,0.0501639991999,0.0593740008771,0.0287319999188,0.0265800002962,0.00187899998855,-0.00325100007467,-0.0258699990809,0.0042929998599,0.0404510013759,0.0498740002513,0.00792200025171,0.0163390003145,0.0578269995749,-0.04380299896,0.121086001396,-0.0216669999063,0.0189369991422,-0.0173269994557,-0.0408100001514,-0.0250540003181,0.0577340014279,-0.0334179997444,0.0378919988871,0.0707319974899,0.0274630002677,-0.0531399995089,-0.0107230003923,0.0395569987595,0.00345600000583,0.0127090001479,-0.0338939987123,0.0196000002325,-0.0280709993094,0.064473003149,-0.0539700016379,-0.00702999997884,-0.0133389998227,0.0134479999542,-0.0208400003612,0.0213869996369,-0.0141599997878,-0.0323179997504,0.00992699991912,0.0268760006875,-0.0473480001092,-0.0219630002975,0.00547000020742,0.0296749994159,0.061452999711,0.0809620022774,-0.0902120023966,0.0128039997071,0.0313969999552,0.0194669999182,-0.0296390000731,-0.000722999975551,-0.0151639999822,0.00408799992874,-0.0429240018129,-0.00879000034183,0.0031570000574,-0.0411630012095,0.0882970020175,0.0434649996459,0.0413170009851,0.0395779982209,-0.015666000545,-0.0172669999301,0.0122100003064,0.0633940026164,-0.00275400001556,-0.00670300005004,-0.0338229984045,-0.0348279997706,-0.0197379998863,-0.044224999845,-0.00608299998567,0.0155440000817,-0.0408030003309,0.0305920001119,-0.0221009999514,0.023700999096,0.0176350008696,0.11132799834,-0.0329269990325,-0.0396930016577,0.0182300005108,-0.0879250019789,0.0264619998634,0.00731999985874,-0.0383230000734,0.0507039986551,-0.00394200021401,0.0677289962769,-0.0769189968705,-0.0372820012271,-0.0296899992973,0.0623130016029,0.0694859996438,0.036084998399,0.084495998919,0.0602249987423,0.0193770006299,0.0153930000961,-0.0425349995494,-0.0339009985328,-0.069344997406,-0.0543899983168,-0.0753030031919,0.0107659995556,0.033860001713,-0.0100609995425,0.0873370021582,0.0834980010986,0.0268319994211,0.0407349988818,0.0223430003971,-0.0457249991596,0.0972660034895,0.0109320003539,0.00163299997803,0.0286940000951,0.0401149988174,0.0134960003197,0.0320720002055,0.00330400001258,0.0101399999112,0.0411579981446,0.0163490008563,0.0846659988165,-0.0891079977155,0.0200399998575,0.0332099981606,-0.057677000761,0.00685000000522,0.0758220031857,0.0112859997898,-0.00341199990362,0.00208200002089,-0.0463699996471,0.0366979986429,-0.0192300006747,-0.00911699980497,0.00886199995875,0.0930249989033,0.00722800008953,-0.0312680006027,0.0638239979744,-0.0210890006274
结合,0.0123789999634,0.975144982338,-0.81879901886,-0.262304991484,0.133518993855,0.727026998997,0.143635004759,0.0469949990511,1.30171000957,0.497339010239,-0.58189702034,-0.549288988113,-0.830069005489,-0.879221975803,-1.12493300438,-0.708271026611,-0.683516025543,-0.514030992985,0.958817005157,-0.468212008476,1.05699002743,-0.486595004797,0.840273022652,2.74374103546,0.138595998287,2.03788304329,0.576075017452,1.52296495438,-0.667989015579,0.499516993761,-0.0888329967856,-0.222224995494,0.293235003948,-0.642772972584,0.369715988636,-1.35972297192,-1.07399904728,-0.901292979717,0.0201990008354,0.340925991535,0.926694989204,-0.48038700223,0.11891400069,-1.55365300179,-1.31107699871,0.131606996059,0.0398200005293,-1.23068201542,0.0866400003433,0.866937994957,1.22093403339,-0.776194989681,-0.11029099673,-0.0292649995536,0.0938389971852,-0.313073009253,-0.53105199337,1.4104449749,0.407018989325,0.0721149966121,-1.50490701199,0.732765972614,-0.0338889993727,0.967204988003,-0.221661999822,-0.248435005546,-1.95355594158,0.205341994762,1.12191796303,0.999628007412,-0.826305985451,0.405683994293,1.02914595604,1.55471396446,-1.22775101662,0.83414298296,1.36154198647,-0.0371709987521,2.9466240406,-0.776319980621,-0.0447960011661,0.169934004545,0.842553019524,-1.68102300167,0.913577020168,1.10694801807,-0.255549013615,-0.097910001874,-0.712885975838,0.0561040006578,-0.920826017857,-0.4034050107,-0.530288994312,-0.306266009808,-0.489717006683,-0.0221149995923,0.665009975433,-0.799099028111,-1.20388102531,0.147303000093,-0.310247987509,1.14052295685,0.904204010963,1.64081799984,-0.469897001982,-2.96455311775,1.22993099689,-0.826556026936,-1.14902603626,-2.28347611427,-1.76070296764,-0.443468004465,-0.00442800018936,-0.359257012606,0.578927993774,1.16592502594,0.330054998398,-0.0321649983525,-0.701331019402,1.11827003956,-0.357607007027,-0.222859993577,1.67207503319,-0.890348017216,-1.62666296959,1.65901899338,-2.40657401085,1.94286704063,0.904874026775,0.239677995443,1.53910803795,-2.77518010139,0.299403995275,1.59529197216,0.594393014908,0.0498289987445,-0.66267901659,1.38609600067,1.35598301888,1.66991102695,-0.0798370018601,1.15496098995,0.353278011084,0.174336001277,-0.128189995885,-0.567524015903,1.0944839716,0.915078997612,0.380663990974,-1.51251399517,0.528765022755,-0.986129999161,1.60082399845,0.771959006786,0.923331022263,0.452809005976,0.803932011127,-0.183486998081,-0.414353996515,0.737236022949,0.35909101367,-0.0012309999438,1.28126204014,-0.230323001742,0.656069993973,0.172280997038,-0.176726996899,-0.0812439993024,-1.56164705753,1.09694194794,-1.73977100849,0.916814029217,0.937058985233,-0.613779008389,1.57513594627,-0.414202004671,1.72093105316,2.19742798805,-0.714345991611,-0.185066998005,-0.596821010113,0.0964070037007,1.08762097359,-0.060720000416,-1.34993803501,0.533689975739,0.696457982063,-0.261646002531,-1.18555605412,-0.0223249997944,-1.33800601959,-0.417822986841,0.954405009747,2.46769595146,-1.21088802814,0.253594011068,-0.14407800138,0.0799079984426,-0.585344016552,0.141240999103,0.867654979229,-2.53525996208,0.534812986851,0.438127011061,-1.5964820385,0.892785012722,1.12844097614,-0.523636996746,1.1075309515,0.816322028637,-0.191403999925,0.0246849991381,0.995513021946,-0.482766985893,0.372198998928,-0.290692001581,-1.28529202938,-0.930575013161,-0.873706996441,-0.900467991829,0.590878009796,-1.54611802101,1.15369200706,0.712307989597,-0.478377014399,-0.578794002533,-0.127347007394,-0.382934004068,-1.29772698879,-1.98358905315,-0.844832003117,0.223776996136,0.69196498394,-1.69133603573,0.652728974819,-1.20240700245,-0.20365999639,1.02280402184,0.185540005565,0.45571398735,1.07256102562,0.263895004988,0.0649890005589,1.03921401501,0.750971019268,-0.48965498805,0.202509999275,0.548381984234,0.852979004383,-0.643836975098,0.197364002466,-0.721301972866,-0.016249999404,-0.378078013659,-0.516112029552,1.70124197006,-0.266710013151,-0.682218015194,1.02061498165,0.462179005146,-0.0879679992795,0.461735993624,-1.02680397034,0.468270987272,-1.10391199589,0.86243802309,-0.52163797617,0.69204801321,1.25596094131,-0.270891994238,-0.871330022812,-0.726576983929,1.05412399769,0.616362988949,-0.537446022034,1.12150204182,-0.476790994406,-0.0731419995427,1.92682802677,-0.301342993975,1.34938299656,0.704888999462,0.679827988148,-0.732168972492,0.222541004419,0.262331008911,-0.580155014992,-1.6938149929,0.640326976776,1.25400400162,-1.96518397331,0.551998972893,0.0386569984257,0.520045995712,-0.14335000515,0.111565999687,0.000618999998551,0.666402995586,0.870899021626,0.695095002651,0.17334599793,0.254624009132,-1.93250095844,0.327273011208,0.470396012068,2.30980992317,-0.73257702589,0.933530986309,-0.0585570000112,1.51539099216,-2.67329406738,-0.0601379983127,0.938340008259,-0.319934993982,0.307660013437,-0.386002987623,-2.13035011292,0.0880130007863,1.04056298733,1.17198300362,0.365456998348,-0.956423997879,0.196823000908,0.344992995262,-0.274612993002,-0.319350987673,-0.49669200182,-1.72060894966,-0.532612025738,-0.391591012478,-0.68289899826,0.0184930004179,-0.769711017609,0.692339003086,0.397267013788,-0.0725720003247,0.431432008743,0.589003026485,-0.53585100174,1.18416905403,0.158502995968,0.445946007967,0.708827972412,-0.488297998905,0.275606006384,-0.0349770002067,0.996632993221,0.791860997677,0.583826005459,0.412932008505,0.875508010387,-0.998263001442,1.73902904987,1.27729105949,-0.392935007811,0.17081899941,0.848770976067,0.28374299407,-1.83237802982,0.714776992798,-0.457843005657,-1.53022801876,1.0817220211,0.515976011753,-0.973713994026,-0.623319983482,-1.73270499706,-1.00083196163,-0.973730027676,-1.78430104256,0.272130012512,-0.187764003873,-0.223840996623,0.859481990337,-0.0805130004883,-0.609340012074,-0.900734007359,-0.896714985371,0.799459993839,-0.818736970425,0.65099799633,1.35440194607,1.55581796169,1.50004196167,2.76016402245,0.151912003756,0.802757024765,-1.91454303265,-1.38897204399,-0.0131620001048,1.66772699356,1.15975701809,-0.784125983715,0.478567004204,0.491016000509,-0.472810000181,2.26491999626,-0.767934978008,-0.818938016891,-0.935066998005
部分,-1.21659600735,0.553735971451,1.19942700863,-0.252952992916,2.01499199867,0.787330985069,0.0115689998493,-0.0711409971118,0.565818011761,-0.452491998672,0.680032014847,0.928828001022,-1.61223602295,0.368241995573,-0.140461996198,-0.486775010824,-1.09776198864,0.03316700086,1.67592704296,-0.93515598774,-0.173207998276,-0.243857994676,0.895775020123,-0.00373600004241,2.28836894035,1.31753098965,0.4160400033,1.16248297691,-0.584891021252,1.14619398117,0.864771008492,-1.07601499557,-1.23340404034,-1.4323669672,-0.0237600002438,-1.03164505959,0.155935004354,-0.302861005068,-0.29023000598,1.5144200325,0.160487994552,0.780412018299,-0.210598006845,-0.243441998959,1.19792795181,0.323038995266,-0.179103001952,1.29977297783,0.477732002735,0.508603990078,0.839016020298,-0.579685986042,0.78526198864,0.910382986069,-0.725934028625,0.233190000057,1.95349895954,-1.02083301544,-0.444200009108,0.545699000359,0.159623995423,-0.502213001251,-0.775093972683,-1.24665904045,0.308297008276,0.137311995029,0.179853007197,1.62441694736,1.88984799385,-0.658083021641,-0.782311975956,-0.434249997139,0.996547996998,1.05504000187,-0.140569999814,0.422022998333,2.34048295021,-0.919777989388,1.18124198914,1.09972202778,1.40064096451,-1.04077601433,-0.573688983917,0.428811997175,1.18672299385,0.673789024353,0.434491991997,0.653517007828,1.10692095757,-1.89369797707,-0.00803000014275,0.867697000504,-2.07763195038,1.59099698067,-0.0330719985068,-1.27144098282,0.578308999538,0.247038006783,-0.280230998993,0.431672006845,0.0146669996902,0.226791992784,1.24963903427,1.49149096012,-2.48307394981,-0.132844001055,1.12558996677,0.551926970482,0.333568006754,0.533123016357,0.29467600584,-1.12312102318,-1.79805696011,-0.560778975487,-0.336111009121,2.54206204414,1.90295100212,-0.340599000454,0.827884018421,1.49566996098,-1.43541002274,-0.552622020245,-0.614643990993,-1.78076696396,-0.311664998531,1.17623400688,-0.865216016769,-1.39548194408,0.391514003277,-0.816713988781,0.478448003531,-1.54060399532,-0.930814981461,-0.396095007658,-0.284563988447,-0.30244499445,-0.758578002453,0.594119012356,-0.459491997957,0.432004988194,0.147641003132,-1.15263903141,-0.123782999814,-0.353291004896,-1.08733999729,-0.338414013386,-1.24020504951,1.61900496483,1.05056095123,-0.578068971634,-1.49896001816,0.93672901392,-0.0419140011072,0.109029002488,-1.61509001255,1.80571997166,-0.383850008249,-0.824976027012,-1.56778299809,0.687702000141,0.777702987194,-0.680594027042,1.25871694088,-0.900265991688,-0.0947960019112,0.723013997078,0.0869439989328,-0.331173986197,-1.89474904537,1.21208798885,-0.835049986839,-0.721638023853,0.0866380035877,1.04319000244,1.2461990118,-0.547412991524,1.5059980154,2.97510194778,1.13664698601,0.549733996391,0.429580003023,-0.724159002304,0.680739998817,-0.836317002773,0.915677011013,-0.181365996599,-0.468414992094,1.6582750082,-0.386577993631,1.10016596317,0.114628002048,-0.399742990732,1.87852299213,0.855328023434,-1.57862401009,-0.51492202282,1.99067103863,-1.0411939621,0.626978993416,0.122014001012,-0.525995016098,0.532977998257,-0.841898977757,-1.72815001011,-0.666431009769,1.914929986,-1.32344305515,-0.00431099999696,-1.97498500347,0.731518983841,-1.57524895668,1.14523804188,0.844857990742,0.339816987514,0.768819987774,-0.801913976669,0.224941000342,-0.353190988302,0.653990983963,-0.375946998596,1.23989295959,-0.499130994081,0.195050999522,1.08876502514,-0.190512999892,0.906939983368,0.747032999992,-0.1288869977,0.462332993746,1.04944694042,0.259223014116,-0.587440013885,1.03510701656,-1.85713005066,1.19140195847,-0.0102739995345,0.725449025631,-1.06185305119,-2.06076407433,0.896468997002,0.501457989216,1.4712729454,0.0969579964876,1.11528205872,0.221101000905,-1.58682799339,0.209186002612,-1.11200094223,0.0361989997327,0.38191100955,-0.128882005811,0.285338997841,0.376883000135,-1.60579204559,0.923304975033,2.0893099308,0.080338999629,-0.542786002159,0.438694000244,0.679018974304,1.6332269907,1.09057497978,1.26011705399,0.517683029175,-0.912912011147,-0.620230019093,0.932843029499,0.0642220005393,0.66304397583,-0.346469014883,0.279376000166,1.0322740078,-1.08974599838,1.42647004128,-0.690438985825,0.263794988394,-0.563510000706,0.700024008751,0.0452249981463,1.31659805775,0.787931025028,-1.17357599735,-0.661553025246,-0.571466982365,0.015461999923,0.0565369985998,-0.120655998588,-0.434540003538,-0.700323998928,-1.20844304562,0.937290012836,0.523796021938,-2.23282003403,-0.11589500308,-0.284586012363,0.246632993221,-0.373762995005,-0.28556099534,-1.11670899391,1.5050419569,-0.0967480018735,-0.630755007267,0.292416989803,1.41770100594,1.66416394711,-0.0746610015631,1.63031196594,-1.74722003937,-2.06795907021,0.137676998973,-0.403798997402,-0.53869998455,0.448507994413,0.474206000566,-0.283100992441,0.478038996458,-0.608685970306,0.174465000629,0.900609016418,-0.657106995583,-0.216231003404,0.20448499918,-0.94143897295,1.38407504559,-0.481160014868,0.472871005535,-0.54779702425,0.00754699995741,0.221129998565,-0.103942997754,1.21152997017,1.13556098938,0.300274014473,-0.159042999148,0.588990986347,1.28503096104,0.00129499996547,0.348506003618,-0.508589029312,0.127065002918,0.915027976036,1.06778597832,0.0144999995828,-0.0692010000348,1.19609999657,-0.205290004611,-0.553515017033,-0.524520993233,-0.316839009523,1.0752530098,1.75792503357,-0.0466680005193,0.420217990875,0.63251799345,-0.634932994843,-1.67668104172,-0.0997250005603,1.81379103661,-0.609903991222,0.550723016262,0.809864997864,-1.50065898895,0.269571006298,-0.849077999592,-0.395072996616,-1.09799098969,-0.527135014534,-1.47632598877,0.0686080008745,-1.05218696594,-0.280402004719,-1.00359404087,-0.182264000177,0.829572975636,0.379128992558,-1.39612400532,0.339735001326,1.69032001495,-1.12794995308,0.327930003405,1.29469895363,1.95014095306,0.300431996584,0.635960996151,2.15176010132,0.635330021381,-1.41625499725,-0.953710973263,-1.41704404354,0.80075097084,1.13980901241,1.80058300495,0.111400000751,-1.28771698475,1.24642205238,-0.786201000214,-0.1218990013,1.04522395134,1.40940201283,0.0620700009167
结构,-2.42835688591,1.7971559763,2.61451196671,-0.405829995871,2.17393493652,-0.321936994791,0.599795997143,-1.6702170372,0.377995014191,1.32747805119,-0.698747992516,0.107716999948,-1.2962770462,-0.435034990311,-0.697408974171,-0.431928992271,-1.14078295231,-1.79297494888,-0.347088009119,-1.0648560524,-0.0272519998252,-0.348084002733,0.0713900029659,0.646709024906,0.356077998877,1.45579099655,0.0667740032077,0.444025009871,-1.58606505394,1.22058200836,0.335258990526,-0.40721398592,-0.804570972919,0.456571996212,2.48971891403,-0.823823988438,-1.12971305847,-0.797637999058,-0.203920006752,-0.013582999818,0.679803013802,-0.214080005884,-0.840386986732,-0.41413500905,-0.293336004019,0.754859983921,-0.0514659993351,-2.13663601875,0.494320005178,-0.0538850016892,0.6842020154,-2.46908688545,1.10233700275,0.952587008476,-2.30595588684,1.11290097237,2.02344608307,0.438356995583,-1.39987003803,-0.182514995337,-0.450379997492,0.0237639993429,-0.368209987879,-0.328025013208,-1.57064700127,-1.79748702049,-2.31033396721,0.346033006907,1.13598299026,-0.760568022728,-0.465052008629,-0.399563997984,0.039404001087,1.92485797405,0.0876350030303,0.851423978806,1.01924204826,1.3123049736,-0.113711997867,0.701288998127,-1.19265794754,-2.56626605988,2.31007003784,0.661682009697,0.421148985624,1.2742279768,0.0248840004206,-1.32038199902,0.58992099762,-0.333449989557,0.536536991596,-0.485269010067,1.33403003216,-0.0436760000885,-0.142753005028,-0.72549200058,1.05154502392,-0.71778601408,-1.73489403725,0.535354018211,0.774892985821,-1.31073999405,0.536015987396,2.52102589607,-0.759218990803,-1.68054997921,1.90713405609,0.199277997017,0.386393994093,-1.87719595432,0.292881011963,-0.944337010384,0.661970019341,-0.555262029171,-0.122725002468,1.71340095997,0.952589988708,-1.21913504601,0.654906988144,1.04714095592,-0.816075026989,0.217647001147,1.27047395706,-2.02440810204,-1.39815497398,1.98313701153,-2.10503697395,-1.28587496281,1.67091298103,-0.680275022984,1.85187995434,-1.30558300018,-1.05832695961,0.310032010078,-0.534047007561,-1.78436899185,-0.407829999924,-0.112021997571,0.509638011456,-0.646955013275,2.39430999756,-0.882884025574,-0.654862999916,0.297320991755,0.647177994251,-0.104299001396,0.288049995899,0.303568005562,-0.216251000762,-0.51570802927,1.27024495602,-0.164730995893,-0.1211130023,0.454223006964,0.700429022312,1.54730904102,0.076861999929,0.11538399756,0.488575011492,2.52634000778,0.388453990221,-2.94801998138,0.348791003227,-1.86394703388,0.0980419963598,0.378641992807,-0.169044002891,-0.511548995972,-0.201734006405,0.581014990807,-0.0644309967756,-0.380407989025,0.723946988583,1.8931620121,0.761200010777,-0.317476987839,2.50127100945,1.52624797821,0.392500013113,1.63957798481,-0.178802996874,0.744632005692,0.875329017639,-0.504697024822,0.303490012884,1.09529304504,0.735707998276,-0.0271029993892,0.0549569986761,-0.327495992184,0.575838983059,-2.58888196945,1.54976701736,-0.1363620013,-0.121428996325,-0.464590013027,-0.446790009737,-0.330303013325,0.424448013306,-0.00610700016841,0.43192499876,1.41717505455,-0.832759022713,0.352721989155,-0.615989983082,1.49029898643,0.383891999722,0.614965975285,-0.707837998867,1.41202199459,-0.92421901226,-0.256274998188,1.14748001099,0.745069980621,1.0858540535,-1.14205694199,-0.908937990665,-0.391434013844,0.819562017918,-0.847102999687,0.139369994402,-0.0678799971938,1.31541705132,0.308447003365,-1.08625495434,-1.77766799927,-0.769470989704,-1.32678496838,-0.0862239971757,-0.575662016869,0.974083006382,-0.338093012571,0.290215998888,-0.230393007398,0.886793971062,-1.80847895145,-1.15656495094,-1.37339401245,1.05906605721,0.77088701725,0.951988995075,0.114508002996,-0.567654013634,1.66992795467,-0.758619010448,-0.621187984943,0.123896002769,0.444193005562,1.92571496964,-0.024244999513,-0.377517014742,1.02322900295,0.668663978577,-0.30887401104,-0.889585018158,0.691300988197,0.241087004542,-1.6612919569,2.25962400436,0.687561988831,1.12548398972,-0.0935650020838,0.00560100004077,1.2732219696,-0.149283006787,-0.324656009674,-1.12614798546,-0.144178003073,0.226665005088,-0.194169998169,-1.01255202293,-0.14130499959,-0.777918994427,2.17765188217,-2.65007805824,1.44175994396,-1.808604002,0.369639009237,0.467278003693,-1.36250495911,-0.68806797266,0.196605995297,0.236186996102,0.598609983921,-0.922173976898,0.573428988457,1.14671599865,-1.9857929945,-1.06248104572,0.0806490033865,0.17646099627,0.351292014122,-1.12906002998,-0.745510995388,-0.308097988367,-0.710385024548,0.404154986143,0.473174005747,0.3921880126,-1.13608300686,0.0160590000451,0.975856006145,-0.303501009941,-0.640564024448,0.668151974678,0.719110012054,-0.531316995621,-0.356837004423,-1.12821602821,-0.192860007286,-0.0993020012975,-1.17675900459,0.0683329999447,0.153469994664,0.751115977764,2.16758608818,-1.39037895203,-0.215825006366,0.547070980072,-0.090815000236,0.721624016762,-0.524070978165,-0.725346028805,-1.1400680542,0.421011000872,0.504842996597,-0.462754011154,-1.51936101913,0.092565998435,-1.67402994633,-0.73409897089,1.32639694214,1.04209601879,-0.156059995294,1.36061501503,0.591257989407,-0.461564004421,0.250575989485,-0.970574975014,0.192730993032,-0.106856003404,0.0996949970722,-0.0411860011518,-0.808879971504,-0.161006003618,1.85442101955,-2.09496498108,0.563489973545,0.578660011292,-1.11644804478,-0.300446003675,-1.82167303562,-1.02085995674,-0.77049601078,-0.248379006982,-1.26760494709,0.528766989708,1.20807802677,-1.78280699253,1.78174197674,0.110579997301,0.730836987495,-0.315486997366,1.6776150465,-0.535517990589,-2.9949669838,-1.32596695423,-0.80393499136,-0.0058410000056,-1.53379702568,-1.4695520401,-1.39049196243,-0.62253600359,0.373198002577,-1.36657094955,-0.0270370002836,0.0366810001433,0.147683992982,-1.53023004532,-0.968986988068,0.345452010632,1.12413597107,-1.18701696396,1.05708396435,2.07362294197,-0.883588016033,0.533590018749,-1.2218760252,-0.0787260010839,0.0395909994841,0.596129000187,0.466394007206,-0.248511999846,-0.142681002617,-0.397166013718,0.765344023705,0.94425702095,0.421954989433,1.59098303318,0.697004020214
重叠,-1.55901801586,0.654484987259,0.62376999855,0.207665994763,-0.0321500003338,-0.384779989719,0.471318989992,0.0895830020308,0.87300401926,0.237845003605,0.736091971397,-0.497346997261,-1.50382602215,0.225250005722,0.277541995049,-0.701721012592,0.649648010731,0.106459997594,1.88067495823,-0.560422003269,0.966584980488,-0.544979989529,-0.241869002581,0.144806995988,2.70943403244,1.73759794235,0.222179993987,0.680338025093,-1.00964605808,1.58700704575,1.41341304779,-0.212760001421,1.56523895264,0.635631978512,0.97503900528,-0.72323101759,0.54791200161,-2.04439210892,0.656872987747,0.719079971313,1.04598701,1.00167405605,-1.24985098839,-0.0110010001808,1.78090500832,-0.721689999104,0.73315101862,-0.837947010994,0.512634992599,0.19372099638,-0.27320599556,0.181962996721,0.0837090015411,0.450634986162,-0.234708994627,0.151703998446,1.44389295578,-0.457657009363,0.969974994659,-0.0104050002992,0.029550999403,-1.69775903225,-0.622058987617,-0.163181006908,-0.756951987743,0.00468100002035,-0.791073024273,-0.596741974354,1.05717504025,-1.19596505165,-0.322025001049,-0.341194987297,1.31933796406,0.123513996601,-0.505578994751,-0.241981998086,0.958815991879,0.595431983471,1.47564804554,-0.330471992493,1.10642004013,-1.30813801289,0.585072994232,-0.126984000206,1.26453697681,0.373088985682,-0.984480977058,0.74239897728,-0.32767701149,-0.311443001032,-1.03267395496,-0.416335999966,-1.89672899246,0.749076008797,0.0667340010405,-0.505312025547,0.785399973392,-0.227500006557,0.269670009613,0.0719299986959,-0.250194013119,-0.566762983799,-0.0442209988832,1.33632695675,-1.62174999714,-1.26329600811,0.684704005718,-0.739431977272,-0.939571022987,-1.0800139904,-0.281201988459,-1.12647998333,1.98622202873,-0.109407000244,1.36118304729,1.90524995327,0.175464004278,-0.684233009815,-1.07608103752,1.19056797028,-0.552905023098,-0.48592799902,1.8062980175,0.909961998463,0.133774995804,0.866850018501,-1.33988201618,-0.861692011356,0.901234984398,-1.45802497864,0.494455009699,-1.52781295776,0.0730549991131,0.345699995756,-0.02624299936,0.169367000461,-0.461883991957,-0.473623007536,2.05458688736,0.713760972023,0.399715006351,1.23703205585,-1.28985798359,0.279971003532,-0.0221560001373,-1.02593505383,1.16895794868,1.52302801609,0.173420995474,-2.04327511787,-0.33767798543,0.661010980606,0.105318002403,0.943946003914,1.63262295723,0.471783995628,-0.957284986973,-0.24084199965,-1.1453499794,0.994996011257,0.731085002422,-1.31821703911,0.900973975658,-0.486629009247,1.99608194828,0.476565003395,0.157784998417,-0.0704270005226,-0.593578994274,0.224170997739,-0.124295003712,0.858928024769,1.30662894249,-0.351072996855,1.83823895454,-1.06728696823,1.48674094677,1.94457399845,1.1084369421,0.377967000008,-0.688190996647,0.525213003159,0.170465007424,1.00082194805,-0.500406980515,0.434448987246,0.891665995121,0.681168019772,-0.0135749997571,0.738207995892,0.849831998348,0.374103009701,-0.884416997433,0.64263600111,0.246327996254,-0.00547099998221,-0.162551000714,0.310687988997,1.11396098137,-0.149366006255,-1.27907896042,-1.29966402054,-1.28031897545,0.415838986635,-1.8385310173,-0.536531984806,1.66521394253,0.47040399909,-0.829737007618,1.52662599087,-0.321301996708,0.696506977081,1.30868697166,0.354279994965,1.49633800983,-1.75709497929,0.36816701293,0.247005999088,-1.00068199635,-0.581130981445,-0.121178001165,1.10915899277,0.804803013802,1.79803097248,-0.789529025555,-1.3389749527,0.279195010662,-0.207616999745,-0.131124004722,-1.25697004795,-0.165994003415,-0.204061001539,0.531655013561,0.421117007732,0.641102015972,0.940316975117,-0.521215975285,0.172938004136,-0.0591229982674,1.1937789917,-1.21932995319,1.44667601585,-1.03713798523,0.575891971588,0.724103987217,-1.53820204735,0.614458024502,0.796968996525,0.757314026356,1.69372999668,-0.291307002306,1.38016700745,-0.123832002282,-0.129520997405,-0.476648002863,2.09008908272,-0.154984995723,-1.07187700272,1.39180803299,0.534524023533,-1.19364202023,1.32386302948,0.563439011574,0.271943002939,-1.45296502113,-0.887100994587,0.342353999615,-1.1906349659,-0.176556006074,0.610319018364,0.0995739996433,0.0632919967175,-0.86274600029,1.21305298805,0.511412024498,0.483579009771,-0.641914010048,1.35144996643,0.134453997016,-1.07139599323,0.114968001842,-0.540179014206,0.933905005455,-1.51508700848,0.0889640003443,-0.974344015121,0.222473993897,-1.37229204178,-0.12370300293,0.39170101285,0.713944017887,-0.0829550027847,-0.205227002501,-0.541270971298,1.29488503933,0.560391008854,0.767045974731,0.673924028873,-0.736158013344,0.605009973049,-0.438829988241,0.34960898757,-0.642838001251,0.167407006025,-0.783810019493,0.330536007881,-0.73457801342,0.507613003254,-2.0906059742,0.353554010391,-0.19581900537,-0.332911998034,0.912908017635,-2.30392789841,-0.471890002489,0.124977000058,-1.11030697823,-0.258255004883,2.00018501282,0.00251300004311,-0.287674993277,0.492722004652,-1.59788095951,0.426245003939,-0.451016008854,-0.113811001182,0.299461990595,-2.11113905907,-0.176054000854,-0.122481003404,-0.0594349987805,-0.005218999926,-1.30156004429,0.492850005627,0.0263720005751,-0.991248011589,0.113403998315,0.898355007172,0.257431000471,1.88526594639,0.165823996067,-0.173729002476,-0.960236012936,-1.96239101887,0.386687994003,-0.956409990788,-0.6629139781,1.26524996758,-0.422942012548,0.824998021126,1.58397901058,0.170635998249,1.08178305626,-0.131568998098,-0.131237000227,-0.134229004383,0.435945987701,-1.03234100342,-1.8781080246,0.0796480029821,0.279801011086,-1.86836504936,0.135322004557,-1.03716397285,0.406648993492,0.726260006428,-0.804418981075,-0.148824006319,-0.393202006817,-1.37762701511,0.602845013142,-0.438993006945,-1.21527802944,-0.347433000803,-0.743019998074,-0.757089018822,-0.276601999998,0.21347899735,0.145181000233,0.000709999992978,0.718528985977,1.40175104141,1.75917804241,0.25547298789,0.836501002312,-1.72209894657,0.386460989714,-1.90873503685,-0.815153002739,0.663603007793,1.07581305504,0.804750025272,0.359427988529,-0.424699008465,1.37624394894,0.222709998488,0.643712997437,-0.119333997369,0.0283720009029,0.0811069980264
步骤,-0.63037699461,-0.187397003174,0.36528301239,0.550333976746,1.51776504517,0.322957992554,0.614362001419,-0.00190799997654,-0.164291992784,-0.994166016579,-2.40047001839,-0.343061000109,-1.00496304035,-0.151712998748,-1.68767702579,-0.180123999715,-0.379453003407,-0.985961973667,-0.4640429914,-0.891396999359,-0.439608007669,0.305076003075,1.19659698009,1.16620600224,-0.0518710017204,0.443666011095,1.03002095222,1.57484602928,-1.86053001881,0.591058015823,0.405517995358,-0.67681401968,-0.82993799448,-1.58218705654,0.890272974968,-2.21930503845,-0.284691005945,-0.676531970501,-0.175641000271,0.994678020477,1.25423002243,0.732779026031,-1.34116303921,-0.139443993568,-0.312712013721,-0.825516998768,1.26458394527,-0.169098004699,-0.360161006451,0.442427992821,1.52526497841,-1.94974601269,1.58933901787,0.821238994598,-1.32126700878,-0.792482018471,0.708997011185,-0.72013002634,-0.989094018936,0.479102998972,0.210452005267,2.47775793076,-1.25994598866,-1.05547702312,1.38134503365,-0.818310022354,-0.20280200243,1.18672204018,2.19493198395,1.19465303421,-2.09684801102,0.927890002728,-0.690061986446,0.545104026794,-0.492779999971,-0.163550004363,1.92207098007,-0.955998003483,0.67627197504,0.304536014795,0.186485007405,-1.32989799976,0.146816000342,-0.0781639963388,-1.99213802814,0.604766011238,-0.468713998795,-0.440551996231,1.56990301609,-1.64398896694,0.543720006943,2.80411791801,-0.437512993813,0.840869009495,-1.1233279705,0.27182200551,-1.47859799862,-0.106894999743,0.181969001889,-0.186465993524,-0.813620984554,-1.59430003166,0.507287979126,1.12664198875,-0.654897987843,-0.914565980434,0.434668987989,2.78578591347,-1.82920897007,-1.10203695297,0.588338017464,-0.501353979111,-0.854260027409,-0.381835013628,-0.212969005108,2.75012993813,2.71620202065,-1.08735203743,0.841485023499,0.552003979683,0.780045986176,-1.10016202927,1.42059695721,-2.82441711426,-0.673048973083,1.36207199097,-1.2199280262,-0.735004007816,-0.39635398984,-0.0827059969306,-0.370871990919,0.291736006737,0.187906995416,1.38025903702,-0.762425005436,-0.105359002948,2.23118305206,2.37080407143,0.430867999792,-2.53203701973,0.692879974842,-0.668018996716,-0.180731996894,0.162419006228,-0.856117010117,0.701515972614,-0.224919006228,0.437400996685,-0.947282016277,-1.05360901356,1.34767103195,0.56930398941,1.14717900753,0.395830005407,0.825693011284,0.0370669998229,-1.30882704258,0.37884798646,-2.1677479744,-0.116846002638,1.12566995621,-1.7408080101,-0.953375995159,-2.1905939579,-0.629135012627,1.8387260437,-1.66252994537,1.46794605255,-0.726041972637,-0.0625829994678,-0.554993987083,-1.11835598946,-0.17484100163,0.449001014233,0.793253004551,0.953351020813,0.879922986031,1.43166100979,-0.888435006142,0.974735975266,-0.296609014273,0.143381997943,0.054538000375,-1.10777103901,-0.212785005569,-0.113036997616,-0.73348402977,-1.30294895172,0.811887025833,0.250032991171,1.70878100395,0.77731102705,0.70416200161,0.22052000463,0.948098003864,0.922140002251,-0.914892971516,-1.00322699547,0.668823003769,1.32229697704,0.201379999518,-0.594752013683,-1.08928596973,0.665199995041,-0.623937010765,1.77118802071,-0.348459988832,-0.550732016563,-0.0371840000153,0.145145997405,-1.58115303516,-1.41981005669,0.949366986752,-1.27947902679,1.80353605747,-0.377707004547,-1.21001803875,0.393474012613,0.885399997234,-1.01191401482,-0.322990000248,0.682650983334,0.14753100276,-0.242773994803,1.52306103706,-1.06242597103,-0.958133995533,-0.516650021076,0.442941009998,0.822579026222,-0.390190988779,1.16712605953,1.71337103844,-0.721331000328,1.05051195621,-0.0485659986734,2.64272499084,1.21504604816,-1.64198601246,-0.612201988697,-0.412705987692,1.71548700333,-0.0580400004983,1.73516404629,-0.21342100203,-0.907077014446,-1.9263689518,0.692641019821,0.550867021084,-1.37756001949,0.22627300024,1.13478696346,0.490305006504,-0.389883995056,-1.2492929697,-0.187918007374,0.352591007948,-1.17400705814,0.999464988708,1.39538896084,-0.365000993013,1.58856701851,1.17011296749,0.493883013725,-0.298871010542,-0.292488008738,-0.871487975121,-0.041384998709,0.576232016087,0.437191992998,0.114779002964,0.0970479995012,-0.837800979614,1.72417700291,-0.771524012089,-0.0363099984825,0.0181850008667,0.23129799962,2.50217199326,0.796845972538,0.0269690006971,0.726171970367,-0.901632010937,1.71330702305,1.10071396828,0.572269976139,0.232058003545,0.323929995298,-0.530263006687,0.142008006573,1.09886801243,1.39843201637,-2.16121792793,-1.4624119997,0.311618000269,-0.679004013538,0.513180017471,1.38656294346,-0.184503003955,1.02455401421,0.209499999881,-0.527908027172,-0.848182976246,1.16898405552,0.55438798666,0.300639986992,0.720705986023,0.0476710014045,-0.300484985113,1.00569999218,-0.0126860002056,-0.599363029003,-0.390459001064,-0.468731999397,0.607352018356,-0.648723006248,0.768950998783,0.997747004032,-0.665625989437,-0.427056014538,-1.79320597649,0.0283480007201,-0.863469004631,0.326519995928,0.389735013247,0.104574002326,-0.615366995335,0.0889090001583,1.187754035,-0.441397994757,0.962782025337,1.17735397816,0.267922997475,0.552217006683,-0.208930000663,-1.22043299675,-0.892696976662,1.40119898319,0.391966998577,1.01270997524,-0.508598029613,0.961696028709,0.627156972885,-0.67608499527,-0.817058026791,1.31336605549,-0.829149007797,1.18542695045,1.26686096191,-0.397410005331,-0.0859339982271,-1.35405099392,-0.251890003681,1.39385294914,0.275361001492,-1.75801897049,0.612864971161,0.329239994287,0.820433974266,0.702893018723,-1.07170200348,-0.931572020054,0.470732986927,-0.482820004225,-0.608403980732,-0.654334008694,-0.935423970222,-0.0780489966273,0.856661975384,-1.07979905605,-0.575442016125,0.879135012627,0.317007988691,0.45053601265,0.579514026642,-0.416346997023,-0.439628005028,-1.24147295952,-0.727155983448,0.747273027897,-0.647167026997,0.452899008989,2.03857707977,0.621994972229,-0.688278973103,-0.947371006012,0.486497998238,-1.45358395576,-0.412541002035,-0.56528198719,0.0724669992924,-0.109943002462,-0.508844971657,-2.01866602898,-1.93038094044,-0.632359981537,0.341870993376,-0.150151997805,-0.207775995135,1.25386297703
引到,-0.0511449985206,0.179958999157,-0.250995010138,0.0871469974518,0.0286660008132,-0.170766994357,0.0161320008337,-0.0416960008442,0.074482999742,0.24598300457,-0.0874409973621,-0.223582997918,-0.0976269990206,0.00583099992946,-0.125304996967,0.279911994934,0.0650189965963,-0.043343000114,0.0262380000204,-0.139618992805,-0.489762991667,0.0452480018139,0.0171419996768,0.232210993767,-0.177033007145,0.101135000587,-0.234629005194,0.171864002943,-0.288731992245,-0.0414609983563,-0.24646499753,-0.0908399969339,-0.0598490014672,-0.0027499999851,0.134156003594,-0.0518679991364,-0.102806001902,0.183919996023,0.0978370010853,0.0488229990005,0.0485749989748,0.128408998251,-0.288489997387,0.113003998995,0.14453099668,0.146391004324,0.0414419993758,0.150994002819,-0.25836199522,0.1935569942,-0.139520004392,-0.160350993276,-0.0450479984283,-0.0236050002277,0.0240870006382,-0.14206700027,-0.221897006035,-0.290327996016,0.154860004783,0.257607012987,-0.0843449980021,0.197576999664,-0.336751013994,-0.0741510018706,-0.226472005248,0.0274950005114,-0.151884004474,-0.0991550013423,-0.0520949997008,0.0662190020084,-0.0922100022435,-0.163462996483,-0.14604100585,0.0823429971933,0.0841780006886,-0.0715349987149,0.0423929989338,-0.134108006954,0.15089699626,0.226651996374,0.115611001849,-0.0314689986408,0.100827999413,0.133851006627,0.00975199975073,0.057514000684,0.112866997719,0.210534006357,-0.140037998557,-0.0323969982564,-0.0568870007992,0.360650986433,-0.00202700006776,-0.151332005858,0.0186310000718,0.121275000274,-0.331432014704,0.192751005292,0.0375880002975,-0.209607005119,0.19077500701,-0.242504999042,0.0776119977236,0.0197889991105,-0.170006006956,-0.236427992582,-0.021461000666,-0.391546994448,-0.149139001966,0.11125600338,-0.441159009933,0.091425999999,0.184453994036,0.00119400001131,0.0888950005174,0.0209250003099,0.305671006441,-0.159906998277,-0.103669002652,0.336241006851,-0.231865003705,0.0351620018482,-0.048967000097,0.229886993766,0.0262679997832,-0.144602999091,0.131225004792,-0.11223000288,-0.115111000836,-0.103276997805,-0.0297289993614,0.0185139998794,-0.0599809996784,-0.230418995023,-0.155650004745,0.180764004588,-0.259505987167,0.0266270004213,0.00224999990314,-0.0426869988441,0.0306850001216,0.423445999622,-0.12488900125,-0.167939007282,0.189256995916,-0.409184992313,0.0403679981828,-0.148772001266,-0.133019000292,-0.254505008459,0.101058997214,0.0548599995673,0.118951998651,0.417659014463,-0.0937450006604,0.0489760003984,0.128814995289,0.0623029991984,-0.0838010013103,0.136873006821,0.167939007282,0.461874991655,0.0302549991757,0.294838994741,0.201098993421,-0.132889002562,0.122519999743,0.152866005898,0.0964080020785,-0.0906760022044,0.0170600004494,0.249264001846,-0.287564992905,-0.0575160011649,0.260374009609,-0.0242909993976,-0.1144239977,0.0283550005406,-0.0522329993546,0.0966449975967,-0.208290994167,0.187591999769,0.0154699999839,0.111740998924,0.262986987829,0.212328001857,0.113586001098,0.12624900043,0.0433829985559,0.0941120013595,0.161359995604,0.288780003786,0.229238003492,0.1302369982,0.206959992647,0.0787789970636,-0.113142997026,-0.2252510041,0.177136003971,-0.197420999408,-0.119240999222,-0.0534139983356,-0.102835997939,0.17895899713,-0.315959990025,0.170532003045,0.356233000755,-0.107184998691,0.206373006105,-0.136876001954,-0.0906620025635,-0.0731839984655,0.0784239992499,-0.011269999668,0.0921619981527,-0.0908709987998,-0.00890299957246,0.090341001749,-0.0561099983752,0.152847006917,0.143208995461,-0.169326007366,-0.0597149990499,0.0254059992731,-0.238756999373,-0.277956008911,-0.0515919998288,-0.0403309985995,-0.27278599143,-0.249960005283,0.205430999398,0.0527589991689,-0.288055986166,0.0248060002923,0.217378005385,0.302592992783,0.307018011808,0.207837000489,-0.0887240022421,0.12493699789,0.1006610021,0.0784019976854,0.161045998335,0.0296359993517,-0.00148800003808,-0.0306909997016,-0.0446130000055,0.332511991262,-0.0835720002651,-0.0636869966984,0.0335710011423,0.0246489997953,-0.059468999505,-0.122804000974,-0.116230003536,-0.133084997535,-0.176841005683,0.0616369992495,0.197381004691,0.169988006353,-0.343012005091,-0.343275994062,-0.0786330029368,0.0509059987962,-0.00251000002027,-0.0744609981775,0.136492997408,-0.10932199657,0.114967003465,-0.0779289975762,0.0575009994209,0.0212350003421,0.152576997876,-0.0692540034652,-0.240512996912,0.220733001828,-0.0736719965935,-0.119304999709,0.131861001253,-0.0109000001103,0.0563579984009,-0.0719259977341,0.212604999542,0.0739969983697,0.0477139987051,0.120264001191,0.105253003538,0.046686001122,0.0741349980235,0.254615008831,-0.21998000145,-0.20264300704,0.207992002368,0.139173001051,0.215626001358,-0.0412719994783,-0.265307992697,0.0107019999996,0.34675899148,-0.07766199857,0.14804199338,-0.253298014402,-0.224478006363,-0.170504003763,0.0738100036979,-0.0616400018334,0.110579997301,-0.329037994146,0.0898500010371,0.206005007029,-0.0988930016756,-0.112708002329,0.0420319996774,0.243421003222,0.233722001314,-0.0263909995556,0.0360659994185,-0.0495130009949,0.144718006253,-0.091872997582,-0.00822899956256,0.0289880000055,-0.102614998817,-0.246708005667,-0.0514370016754,-0.15997299552,-0.230088993907,0.115464001894,-0.00153600005433,0.185608997941,-0.178492993116,-0.00754299992695,0.143402993679,0.520646989346,0.0563700012863,-0.0839610025287,-0.114165998995,0.128646999598,-0.00441299984232,-0.0111290002242,-0.13856600225,-0.0130599997938,0.291249990463,-0.189641997218,0.0235799998045,-0.107303999364,-0.119672998786,-0.107846997678,0.202686995268,0.186179995537,-0.0231069996953,-0.0207720007747,0.125947996974,-0.142340004444,0.279635995626,-0.1727720052,-0.102364003658,0.145070001483,-0.11902499944,0.233048006892,-0.0261940006167,-0.0424930006266,-0.174851998687,-0.0198679994792,0.171887993813,0.182740002871,-0.0624729990959,-0.145647004247,-0.00653199991211,0.169887006283,-0.368851989508,0.29096698761,-0.098603002727,0.324813008308,0.0368270017207,-0.17483599484,0.115273997188,0.166547998786,0.125847995281,-0.261431992054,-0.154048994184,-0.0245340000838,0.152226999402,0.38113000989,-0.0967129990458,0.221320003271,0.131768003106,0.358114987612,-0.100170999765,0.193467006087,-0.0816949978471,-0.290601998568,0.153880000114,-0.122772999108,0.256415009499,-0.0181070007384,-0.257542014122,0.000307999987854,-0.190031006932,-0.0712020024657
摊开,0.0737100020051,0.267004996538,-0.243311002851,0.29269400239,0.00251300004311,-0.102834999561,0.290996998549,-0.347429990768,-0.0353670008481,0.229305997491,-0.0894640013576,-0.265154987574,-0.112708002329,-0.0115550002083,0.0249179992825,-0.164136007428,0.147340998054,0.184791997075,0.044250998646,-0.0355589985847,-0.133462995291,0.114785000682,0.102741003036,0.149361997843,-0.00142800004687,-0.0326180011034,0.184867992997,0.18111500144,-0.138870999217,-0.121550999582,-0.175095006824,-0.25988098979,0.0166909992695,-0.139281004667,0.315901011229,0.00221999990754,0.0362210012972,0.169514000416,0.285569995642,0.174302995205,0.36207601428,-0.0950450003147,-0.340999007225,-0.149683997035,0.221175000072,0.145344004035,0.109907999635,0.0685240030289,-0.128417000175,-0.0967520028353,-0.0703509971499,-0.0690549984574,0.0802330002189,-0.129759997129,-0.214482992887,0.083026997745,0.0357800014317,-0.149187996984,0.130151003599,0.203990995884,0.126974999905,0.416076987982,-0.0406720004976,-0.0919049978256,0.00777099980041,0.476886987686,-0.114451996982,-0.128521993756,0.212484002113,0.0702690035105,-0.266144007444,-0.0853009968996,0.0145960003138,-0.108709000051,-0.0871189981699,0.169117003679,0.00827599968761,-0.0439179986715,-0.0289110001177,0.200435996056,-0.0195150002837,-0.25645801425,-0.134544998407,-0.127428993583,0.0554810017347,-0.156415998936,-0.0223960001022,0.142536997795,0.101300001144,0.112055003643,0.118238002062,0.252485007048,-0.106440998614,-0.0852240025997,-0.0221219994128,0.0478029996157,-0.139337003231,0.311125010252,0.124370001256,-0.481810003519,0.249999001622,-0.366937994957,0.232497006655,-0.209148004651,0.0516749992967,0.0544129982591,0.19357599318,-0.0735009983182,-0.260518014431,-0.320829004049,-0.158841997385,-0.269230008125,0.176899001002,0.0890630036592,0.0156839992851,0.183785006404,0.29876101017,-0.300420999527,0.133180007339,0.237408995628,0.24398599565,0.11029099673,0.0918520018458,-0.0806360021234,0.218407005072,-0.0487679988146,0.00811200030148,-0.0613229982555,-0.0369729995728,0.0300919990987,0.0151549996808,0.00544600002468,-0.0078250002116,-0.317999005318,-0.038816999644,0.051972001791,0.0219599995762,0.234974995255,0.137263000011,-0.216552004218,-0.105065003037,0.20263299346,-0.0179179999977,-0.160545006394,0.0788709968328,-0.0334459990263,-0.0908680036664,0.0914530009031,-0.212196007371,-0.0767910033464,0.00281199999154,-0.0525860004127,0.125406995416,0.108810000122,0.304033011198,0.164798006415,0.00791999977082,0.425617009401,-0.0468429997563,-0.0536129996181,0.0896909981966,0.0873439982533,-0.0472179986537,-0.0846820026636,0.242025002837,0.0593390017748,-0.0127969998866,0.0919800028205,-0.151407003403,-0.082800000906,-0.150574997067,-0.115795001388,0.0293320007622,0.223390996456,0.29501798749,-0.00984300021082,0.174046993256,0.14428499341,0.0225530005991,-0.0380860008299,-0.0914629995823,0.0223239995539,0.114734999835,0.121238999069,0.0491739995778,0.230102002621,0.0494159981608,0.140193998814,-0.0964090004563,-0.12209200114,0.348861008883,0.0804639980197,-0.218969002366,0.236205995083,0.0419679991901,-0.0130930002779,0.0420220009983,-0.0998369976878,-0.0122809996828,-0.0561930015683,-0.186260998249,-0.253096997738,-0.0331399999559,-0.115792997181,-0.349593013525,0.333288997412,0.232256993651,-0.335292994976,-0.0456469990313,-0.00946000032127,0.127742007375,-0.0112629998475,0.246484994888,-0.0573799982667,0.0869010016322,-0.0741650015116,0.222954005003,0.108323000371,0.0152629995719,-0.0671700015664,0.168114006519,0.165270000696,-0.0840839967132,0.00394299998879,-0.0323119983077,0.0477799996734,-0.147006005049,-0.0408169999719,-0.254543989897,-0.120393000543,0.293307989836,-0.0420630015433,0.269412010908,0.175983995199,-0.164129003882,-0.251563996077,0.0819429978728,0.116278000176,0.0746079981327,0.00532400002703,0.16945399344,0.0251160003245,0.18461099267,0.0960519984365,0.144446998835,-0.00541900005192,-0.161073997617,0.247177004814,0.0118239996955,-0.135102003813,0.0868519991636,0.0121309999377,-0.011266999878,0.0889530032873,-0.187864005566,-0.0337219983339,-0.0748369991779,0.140052005649,-0.0984570011497,0.144437000155,-0.157699003816,0.146934002638,0.0656170025468,0.199571996927,0.0684029981494,-0.0573670007288,0.122519999743,-0.178442001343,-0.240865007043,0.210429996252,0.171478003263,0.0490039996803,-0.0799089968204,-0.138712003827,0.0423579998314,0.019502999261,0.0385220013559,0.171975001693,0.238031998277,0.0957129970193,0.109839998186,0.16842199862,-0.00569400005043,0.24159899354,0.0565459989011,-0.0643270015717,-0.126734003425,-0.0978169962764,-0.0483630001545,0.0473710000515,-0.0278210006654,0.159602001309,-0.0771559998393,0.0397460013628,-0.0472379997373,-0.0838180035353,-0.0222360007465,-0.114632003009,-0.0169389992952,0.0989700034261,0.267987012863,-0.114079996943,-0.198648005724,-0.117046996951,0.0074869999662,0.355841010809,0.203156992793,-0.261409014463,0.0692080035806,0.255813002586,-0.213126003742,0.0460809990764,0.211897999048,0.127638995647,-0.0495770014822,0.138528004289,0.157988995314,0.130779996514,0.0685729980469,-0.0693909972906,-0.0749720036983,-0.187374994159,-0.104307003319,-0.113225996494,-0.0248509999365,0.00874700024724,-0.11658000201,-0.00303900009021,0.0190660003573,-0.0980779975653,-0.0894260033965,-0.110575996339,0.158704996109,0.0723600015044,-0.0953989997506,-0.0431409999728,0.282638013363,0.311913996935,0.158588007092,-0.264438003302,-0.223626002669,0.0395869985223,0.178056001663,-0.11334399879,0.180295005441,-0.222673997283,-0.0297730006278,-0.0966759994626,0.044346999377,-0.0534450002015,-0.064480997622,-0.0419550016522,0.0884149968624,0.0943889990449,0.0587479993701,-0.0323030017316,-0.0696510002017,0.23911100626,-0.141096994281,-0.0537699982524,-0.0767370015383,0.0567170009017,0.0884220004082,0.0108040003106,-0.0533059984446,0.104587003589,0.0146479997784,0.10282599926,-0.00947500020266,-0.20209300518,-0.0249940007925,-0.0736619979143,-0.171179994941,0.305216997862,0.11709599942,-0.111851997674,-0.216085001826,-0.165264993906,-0.204135000706,0.0667330026627,-0.025963999331,-0.0351019985974,0.054756000638,0.319858014584,-0.0698899999261,0.0482410006225,0.0203530006111,-0.0804179981351,-0.0336639992893,0.20460100472,0.227954998612,-0.123851001263,-0.0304550006986,-0.112241998315,-0.0540620014071,0.0657159984112,-0.0582149997354,0.222551003098,-0.181917995214,-0.192436993122
方式,-0.25109899044,1.09003305435,-0.223270997405,-0.653110980988,0.0260669998825,-0.116221003234,1.93091905117,-2.46792888641,0.641508996487,-0.20124399662,-0.949470996857,0.609764993191,-0.910583972931,-0.691232979298,-1.84702694416,-0.488891005516,-1.56493604183,-1.09186196327,0.44868299365,-1.28433704376,0.409141987562,0.490653991699,0.117128998041,-1.42050397396,1.37882697582,0.922676026821,2.05497789383,0.6363530159,-1.74985098839,0.235087007284,-0.857813000679,-2.0541009903,-1.72126197815,-0.423662006855,2.15196299553,-0.225630998611,1.20934402943,-0.584971010685,-0.937942028046,-1.03596198559,1.10756802559,-3.06511306763,-0.734185993671,-1.80184197426,-0.686576008797,-0.42338898778,0.837954998016,-1.32699096203,-1.43334305286,-0.0212060008198,0.170769006014,-2.91405510902,0.358520001173,0.379117012024,-1.79263901711,-0.73277002573,1.41692996025,-0.961172997952,-1.49131500721,1.07293999195,-0.437150001526,0.145117998123,-0.278129994869,-1.73673605919,0.495754003525,-1.80245304108,-0.943316996098,-0.563704013824,2.60498309135,0.191905006766,-1.00862503052,0.479068994522,-0.383509010077,2.4852309227,2.1978700161,-0.636370003223,1.86808800697,-0.200843006372,0.345364004374,-0.0866940021515,0.40485599637,-1.13363397121,-0.590842008591,-0.143751993775,-0.365886002779,0.398900002241,0.622642993927,0.670571982861,1.58477401733,-1.3261179924,-0.429145991802,0.133885994554,0.450702011585,2.48622608185,-0.640878021717,1.045312047,-0.267740994692,0.357028007507,-0.0275490004569,0.800171017647,-0.133129999042,-0.252166002989,1.03417301178,1.12541496754,-1.50662004948,-1.36215603352,1.04734396935,0.132638007402,-2.67816090584,-0.0204000007361,-0.0432550013065,-0.370593011379,-0.450289994478,0.649685025215,-0.84823602438,1.89301502705,1.39376699924,-0.896405994892,2.64052009583,0.826313018799,1.24943304062,-0.344949990511,2.11724996567,-2.38629603386,-0.0951989963651,0.323945999146,0.496268987656,-0.708236992359,2.6399409771,0.360392004251,1.28971600533,-0.613940000534,-1.04034996033,1.35920405388,1.36534297466,-0.679181993008,-0.221740007401,0.892041027546,-0.171771004796,-2.03665208817,0.15649099648,1.34019494057,-0.704515993595,-0.196182996035,1.15222001076,-0.368398994207,0.885879993439,-1.22218000889,0.453570991755,-0.277321994305,2.40067791939,-0.0619929991663,1.8942309618,2.65451407433,-0.215935006738,-0.359903991222,0.627041995525,1.00517702103,-0.577071011066,2.80795097351,0.915795981884,-1.64920794964,-0.812527000904,-2.0086081028,0.133163005114,3.4262111187,-2.04308509827,0.230237007141,-2.81063008308,0.300105988979,-1.28294098377,-1.46468496323,1.01665794849,1.35840594769,-1.36930096149,-0.66376298666,0.392688006163,1.25239300728,-1.12088000774,-0.30494299531,-0.424914002419,0.546975016594,0.821946024895,-1.91514599323,-2.31629300117,0.00201699999161,-0.096537001431,-0.167153000832,1.5414930582,-1.28028202057,-0.0971279963851,-0.311933010817,1.28253304958,0.893657982349,-0.0275630000979,0.0872709974647,-0.480502009392,-1.0741289854,0.905366003513,0.633897006512,-0.041195999831,-1.9298119545,-0.289584010839,-0.847521007061,-0.195222005248,3.79580307007,0.0200849995017,-1.77594304085,-1.73648703098,0.447528004646,-0.463887006044,-1.16321396828,0.775309026241,-1.01956295967,1.34421002865,1.44438505173,-0.560422003269,-1.04320800304,0.729246973991,-1.3165500164,0.66304397583,1.04059994221,0.0143959997222,0.185297995806,1.0954669714,-1.4065309763,-1.99100100994,0.454531997442,1.09284496307,-0.0192259997129,-0.377974003553,0.579071998596,1.42415499687,-2.04842090607,-0.339534014463,1.12817597389,-0.0509199984372,-0.897866010666,-1.80043900013,-3.11525988579,-0.0499689988792,1.55888700485,0.350887000561,0.408279985189,-1.07417201996,-1.15468096733,-1.11578094959,-1.59520494938,-0.0888200029731,-1.03498196602,-0.0133779998869,0.0666199997067,1.28102898598,-0.317550987005,0.183366000652,2.22069406509,0.425850987434,-0.362004011869,1.53083395958,-0.268893003464,-0.744581997395,2.89329195023,1.04049801826,-0.0658340007067,0.465249985456,-1.38227701187,0.152491003275,-0.0458000004292,1.361281991,-0.469958007336,-1.49633598328,-0.928149998188,0.284680008888,0.0997989997268,-0.0480130016804,0.347393989563,-0.433409005404,1.47164797783,-0.813614010811,1.3727170229,0.92148399353,1.72869694233,-0.643224000931,0.125110000372,-1.83506500721,0.303912013769,-0.911409974098,1.96681594849,0.486101001501,1.90436697006,0.924172997475,2.08703303337,1.71816194057,0.0151869999245,0.046767000109,-0.458351999521,0.810998022556,1.29094004631,-0.556702971458,-1.03472399712,-0.140331998467,0.849497020245,-0.681331992149,0.308948993683,1.08662295341,2.06313300133,-1.05421900749,1.4872790575,-0.0809729993343,0.559373021126,-2.74444198608,-1.53163504601,-0.592188000679,-1.38971102238,-0.113881997764,-0.376771003008,1.52053201199,1.01096200943,-0.21481500566,-1.30897498131,-0.127899006009,-0.933440029621,-0.448404014111,0.26351800561,0.710520029068,1.13499200344,-0.453328996897,0.992343008518,0.00809799972922,-0.395368993282,-0.741204023361,1.43300294876,0.261157006025,-0.620429992676,-0.614353001118,-1.16833996773,-0.394064992666,1.63701200485,-2.12279510498,-0.724201023579,-0.217935994267,-1.6595890522,1.01082503796,-0.338465988636,0.299730986357,0.721442997456,1.84862697124,0.620976984501,-0.286471009254,1.74651503563,1.07871901989,-1.17812097073,0.970535993576,1.13686394691,-1.31938695908,-1.24818694592,1.98767399788,1.08270001411,1.39247894287,0.594120979309,-0.47396299243,-0.495626986027,0.102301999927,0.953247010708,0.0634460002184,-1.37721395493,1.71857404709,-0.304203003645,1.17357397079,-1.01584303379,2.41363811493,0.86535102129,2.01191091537,-0.424254000187,1.59255003929,0.0777309983969,-0.984950006008,-0.633952021599,-1.70172798634,-0.243844002485,0.0857859998941,2.39515304565,0.846853017807,-1.12906801701,-0.338495999575,-1.09447097778,-1.07051301003,-1.21031904221,-1.89332699776,0.594681024551,0.503436982632,1.91299498081,0.300487995148,-0.534929990768,-0.283259004354,-0.174018993974,1.65555596352,-0.263141989708,1.07099604607,1.18768799305
部,-1.43509602547,-1.29297697544,2.56038808823,-1.80663204193,-0.141660004854,1.79035794735,-0.965072989464,-0.265009999275,2.44913196564,-1.98205697536,-0.0899010002613,-0.906445980072,-0.218280002475,-1.2242180109,-1.26901197433,0.852012991905,0.65315002203,1.4669239521,0.744858026505,-1.79078400135,0.238526001573,2.38981699944,-0.679005980492,0.73229598999,-0.065194003284,-0.618601977825,-0.23638600111,0.183392003179,0.425763010979,-0.324306994677,0.855548977852,-2.52115511894,0.567972004414,-1.30379605293,-1.0719230175,-2.47551703453,-0.179358005524,1.5177179575,0.160350993276,0.382158994675,0.029265999794,-0.385035991669,0.76232200861,0.777495980263,0.762282013893,0.892262995243,-0.665489017963,0.157465994358,0.0443550013006,-0.0317349992692,0.0163909997791,-0.384279996157,-0.780761003494,0.744258999825,2.55814909935,0.857607007027,-0.0530630014837,-1.38868498802,0.279255986214,1.17127895355,-0.717612981796,-0.261079013348,-0.69267898798,0.0714439973235,1.90591299534,-1.7168790102,-1.04308104515,1.04842102528,0.0814799964428,1.02538096905,-2.31654906273,-1.56599998474,-0.0132710002363,-0.212966993451,0.642412006855,1.45213103294,0.106954999268,0.569203972816,1.4608809948,0.478980988264,-0.12556399405,-0.725896000862,-0.416258007288,-0.0720990002155,-0.224785998464,-0.735800981522,0.20189499855,-2.57788205147,0.554706990719,-0.746932983398,0.153062000871,1.71204996109,-0.262208014727,2.27442908287,-0.768224000931,-0.621779024601,-1.45623898506,0.457293987274,-0.127891004086,0.53203099966,0.668663024902,-0.935559988022,-0.21057100594,-0.791966974735,-0.396095991135,1.36708498001,-0.987145006657,-0.278223991394,-1.09915602207,1.74630796909,0.944131970406,0.572974979877,-2.29095602036,-0.255080997944,0.847095012665,2.84223794937,0.921355009079,2.95780205727,-1.17121803761,-0.934282004833,0.808521986008,0.680813014507,0.528944015503,-0.487154990435,2.95705389977,-3.11508893967,-0.469904989004,1.57603704929,-0.18233500421,-1.85444498062,-1.33182704449,0.999854981899,0.402765989304,0.158050000668,1.06533503532,-0.0317460000515,-2.334815979,0.52087700367,0.386427998543,0.37578099966,1.02885305882,-1.47318005562,-2.01113295555,-0.00790899991989,-1.02196097374,-0.153864994645,0.404085993767,-1.03311002254,-0.265282005072,0.412494003773,0.349891006947,1.57860803604,-1.03536498547,0.25091201067,0.523154973984,1.30152904987,-0.102496996522,1.50874900818,-2.17853808403,-1.23278701305,0.508675992489,-1.23002696037,2.81133508682,1.66554701328,-0.31081199646,3.19412899017,1.15114998817,-1.2093590498,-2.61936092377,1.06098794937,-2.17301797867,0.0874629989266,0.0150509998202,-0.152523994446,-0.180777996778,1.17780196667,2.36009597778,-0.315351009369,-0.382476001978,0.720238983631,0.0300760008395,-1.03948104382,0.720807015896,-1.19721698761,-0.0627320036292,-0.332450002432,-0.429832011461,-2.06778001785,1.83090305328,-0.272570014,0.688033998013,-0.845785021782,1.57450294495,0.494435995817,-0.138293996453,-0.653248012066,2.03586792946,1.16522204876,-1.18400204182,-0.935198009014,0.286713004112,-1.35763299465,1.4526900053,-0.24324400723,1.69498300552,1.29973900318,-0.207332998514,-1.62748801708,-1.73565101624,0.32004699111,0.0223210006952,-1.22966098785,1.86420702934,0.781199991703,-0.496665000916,1.40062499046,-0.078221000731,-2.12168502808,0.670401990414,0.229728996754,-0.560334026814,0.579658985138,2.88626194,-0.147685006261,-1.47551202774,0.468778014183,0.192785993218,-2.37372088432,0.494758009911,0.276980996132,-1.14308702946,-0.998174011707,-0.00357900001109,-1.44365394115,0.621038973331,0.151399999857,2.72464108467,-0.530794024467,-0.0238160006702,-0.786779999733,-0.577253997326,1.20129001141,2.16263699532,-0.319606006145,0.00565499998629,0.497509002686,0.754400014877,-0.403162002563,2.04752397537,-0.562788009644,1.0779299736,-0.136499002576,-0.352822005749,-2.30253005028,1.72874701023,-0.334780007601,-0.640457987785,-1.54375195503,2.55605506897,1.6075489521,0.971322000027,-0.629692018032,-1.38592803478,0.475086987019,-0.890690982342,1.12277698517,1.33194696903,-0.068678997457,1.56799602509,0.805115997791,-1.89719796181,1.42304003239,-1.84886300564,-1.0638769865,0.620343029499,0.503436982632,-0.551732003689,0.506613016129,-0.136105000973,-1.21554994583,1.55366003513,0.871794998646,0.753176987171,-0.552690982819,0.255591005087,0.138511002064,0.355311006308,-2.38625693321,0.556236028671,-1.70605099201,0.258960008621,1.6799659729,-0.917432010174,0.598874986172,-0.185834005475,-1.81267094612,-0.290928989649,-1.31463003159,-0.124944999814,2.42008805275,1.10337400436,0.270866006613,0.426569014788,-0.25713300705,2.21529197693,-0.969307005405,0.230793997645,1.47888803482,-2.15699696541,0.836533010006,-1.20797300339,0.0568500012159,-2.30667304993,-1.2415510416,-3.20420908928,-0.58129799366,1.78106796741,0.681599974632,0.614099979401,1.07836902142,-0.107098996639,-0.0818149968982,2.68372511864,-0.901009976864,-0.239986002445,-2.22885894775,0.252831995487,-2.24104809761,1.88090205193,0.922742009163,1.21083700657,-0.0323729999363,1.54982495308,0.37655800581,0.325554996729,0.664825022221,0.527992010117,-0.924230992794,-1.22926902771,-1.41402494907,0.379961997271,0.983026981354,1.12664198875,0.713594019413,1.32423198223,1.11020898819,0.396414011717,0.447266995907,-0.833407998085,-0.361813008785,1.15730500221,0.63247102499,-0.493559002876,0.26983499527,0.260331004858,2.11330103874,-1.92225897312,-1.12912201881,0.371677011251,-1.01155495644,1.05890798569,-1.30178403854,-0.968748986721,1.02352595329,-1.25197398663,-1.09436798096,-0.0220880005509,-2.89771509171,-1.41591596603,1.94060397148,1.88476204872,-1.1242389679,1.38924098015,-1.21568405628,0.655834019184,0.106434002519,-1.71585702896,0.0203269999474,0.151206001639,0.823671996593,1.69514203072,-0.891198992729,0.499256998301,0.202668994665,1.57566404343,-2.14688706398,-0.306264013052,-0.220595002174,-1.20765304565,-0.817430019379,0.365750014782,2.25453805923,0.849416971207,-0.605776011944,0.485170006752,-0.995568990707,-0.862614989281,1.56374204159,0.691281974316,1.45399403572
只,0.712598979473,-0.0976879969239,0.986513972282,2.52986311913,-0.04456499964,0.249305993319,1.00082194805,-1.49696195126,0.195611000061,-1.28596198559,0.448805004358,-1.23068797588,-3.11774492264,-0.953489005566,0.696545004845,0.264115989208,-1.73436295986,-2.23444008827,-0.831291019917,-1.35919094086,-0.889720022678,-0.23982000351,-0.318617999554,-2.12351703644,-1.6088000536,0.992724001408,2.73546004295,1.20440602303,0.968962013721,0.417531996965,1.00268697739,-1.34828901291,1.55296301842,0.341269999743,-0.172176003456,0.201158002019,2.36556792259,0.305222004652,1.1986130476,0.254545986652,0.671428978443,0.461982011795,-2.11347007751,-0.311271011829,0.805507004261,-0.622403979301,0.245676994324,-0.331557005644,0.866153001785,0.533366978168,0.295204013586,-1.15043902397,-1.70279502869,-0.236509993672,-0.00321300001815,1.06636595726,1.62162995338,-0.540744006634,0.864715993404,0.217539995909,-0.733051002026,-0.665584981441,-0.680957973003,-0.411283999681,-0.626685976982,-0.430886000395,0.766399979591,0.756761014462,-0.177723005414,0.0527079999447,0.223177999258,0.126251995564,1.52838802338,0.1051120013,1.2457460165,1.76288998127,0.277588993311,-1.1477509737,1.41493201256,0.0878880023956,0.211204007268,-2.01364898682,0.399827003479,-0.406863003969,0.682551026344,-2.34054708481,-1.20241296291,0.388994991779,1.39537394047,-0.24320499599,2.06462788582,-0.314164012671,-0.268435001373,0.954329013824,0.515329003334,-1.34379005432,-1.57902598381,2.0641450882,0.796670019627,1.22582304478,-0.589486002922,0.78748100996,0.515597999096,1.04626095295,0.657069981098,-0.183994993567,-0.348980009556,0.841768026352,-0.691963970661,1.6935210228,0.58512198925,1.28065800667,0.295659005642,-0.263927012682,-0.219312995672,2.02454090118,3.34326910973,-0.987775027752,0.920364022255,0.0554910004139,-0.691170990467,-0.688053011894,0.541808009148,-1.22296500206,-0.193803995848,-1.0890840292,0.36661401391,-1.77756500244,0.154565006495,0.0273059997708,-0.47643199563,0.948431015015,0.0500679984689,0.465593010187,0.192460000515,-3.05132508278,-0.607451975346,1.77082598209,0.420599013567,1.16682398319,0.356956988573,1.04442298412,-1.28919899464,0.194556996226,1.59492397308,0.472496002913,-0.149773001671,0.120724998415,0.465759992599,-0.13991099596,0.200273007154,1.14405500889,-1.26863002777,1.31260597706,0.608915984631,0.0345249995589,-0.26092299819,0.339203000069,0.780780017376,-0.818624019623,-0.32656699419,-1.06171095371,1.21059298515,-0.674544990063,-1.07814502716,2.02130699158,-0.917289018631,1.46111297607,-0.455348014832,-0.76925098896,-0.108070001006,-0.407582998276,1.40804803371,1.58644604683,1.35463798046,1.66181099415,3.63586711884,2.48082900047,1.25955796242,-0.219323992729,1.36808300018,1.80911695957,0.126074001193,-0.143546998501,0.859426021576,-0.295359998941,0.688134014606,0.650013029575,-0.189137995243,0.456070005894,0.443800985813,-0.487697005272,1.49846899509,1.33858394623,1.39150702953,-1.18699097633,0.157756999135,-2.65430808067,0.0346960015595,0.26238399744,-0.461180001497,-0.0377480015159,-2.15099406242,-0.914093971252,-0.69462698698,-0.23306299746,-1.84149599075,-2.19057106972,-1.55050897598,0.611747026443,-1.7379720211,-2.06510710716,0.501848995686,-1.17157304287,1.04281401634,-2.01459598541,-0.902620017529,-1.23981297016,-0.995371997356,1.45204699039,-0.243410006166,0.62998098135,-0.581072986126,-0.288744002581,-0.913726985455,-0.109962001443,-0.599784016609,0.375023007393,2.45530509949,0.376666992903,1.17183196545,0.93952101469,1.95868301392,0.817345023155,-0.749929010868,1.53591501713,0.615697026253,0.259413987398,-0.473394006491,-0.531412005424,-1.9122749567,1.10859394073,-1.23906803131,-0.564545989037,2.09461092949,-0.0211249999702,-1.91025805473,-0.717218995094,-0.895624995232,0.108580000699,0.676429986954,0.294447988272,-0.512925982475,-0.741119027138,1.24269902706,-0.059252999723,-0.747438013554,-0.276306003332,-0.138008996844,0.410771012306,0.409262001514,0.890959024429,1.21175694466,0.610638976097,-2.18980789185,-1.21228194237,0.115681998432,-0.0640980005264,0.69637298584,1.51056694984,0.0208999998868,0.375328987837,-1.28796195984,1.88948202133,0.591547012329,1.20654201508,0.255475997925,1.86804294586,-1.82684695721,0.464031994343,0.421395003796,-0.492846995592,-0.439128011465,0.268126010895,0.190950006247,1.13145196438,-0.150396004319,-2.0225610733,2.9328289032,1.30751299858,-1.56334102154,3.50340104103,-0.52037101984,0.0227160006762,0.90209197998,-0.224627003074,1.5283370018,0.426081985235,-1.03676700592,0.864045977592,-0.720268011093,0.89121901989,-0.649082005024,0.308259010315,1.9139829874,-1.46441996098,-0.0233159996569,-1.70100295544,-1.86673796177,1.35179305077,-0.550797998905,-2.27172994614,0.599177002907,-0.70507401228,1.22229194641,0.430346995592,-0.0117779998109,-0.624328970909,0.918471992016,0.595180988312,0.53681397438,0.67937797308,0.66578400135,-0.463229000568,-1.82045602798,-0.815249979496,0.149081006646,0.898588001728,-0.376733988523,-1.80023097992,2.29372310638,-0.0631460025907,-1.33027303219,0.20032800734,-0.604004025459,1.98976302147,1.1399949789,1.86691904068,-1.60870599747,1.63893401623,-0.255762010813,2.54932689667,0.214851006866,-1.24100494385,1.15871202946,-0.365157008171,-1.4957460165,-1.3895200491,0.451496005058,-1.1370279789,2.01551389694,0.219990998507,1.42665696144,0.846576988697,-0.340613991022,1.20358598232,0.319766014814,2.38697910309,-1.2608679533,-0.182974994183,0.265491992235,0.389052987099,-1.12344503403,0.512290000916,0.513917982578,-1.06718504429,-0.0559750013053,-1.47297596931,1.56728196144,0.397017985582,1.04589998722,-0.108488000929,0.782988011837,0.89218300581,-2.31576395035,-0.485668003559,-0.036465998739,0.583539009094,-0.69956099987,0.862493991852,0.968330025673,-0.168301999569,0.479463994503,0.30442199111,2.27895593643,0.531400024891,-0.626743018627,1.06030499935,-0.46885201335,0.281158000231,-0.127938002348,1.57962405682,0.726315021515,-0.495166987181,-0.0449590012431,-0.162005007267,0.763332009315,0.344927996397,0.889074027538,-0.140738993883
