word,0,1,2,3,4,5,6,7,8,9,10,11,12,13,14,15,16,17,18,19,20,21,22,23,24,25,26,27,28,29,30,31,32,33,34,35,36,37,38,39,40,41,42,43,44,45,46,47,48,49,50,51,52,53,54,55,56,57,58,59,60,61,62,63,64,65,66,67,68,69,70,71,72,73,74,75,76,77,78,79,80,81,82,83,84,85,86,87,88,89,90,91,92,93,94,95,96,97,98,99,100,101,102,103,104,105,106,107,108,109,110,111,112,113,114,115,116,117,118,119,120,121,122,123,124,125,126,127,128,129,130,131,132,133,134,135,136,137,138,139,140,141,142,143,144,145,146,147,148,149,150,151,152,153,154,155,156,157,158,159,160,161,162,163,164,165,166,167,168,169,170,171,172,173,174,175,176,177,178,179,180,181,182,183,184,185,186,187,188,189,190,191,192,193,194,195,196,197,198,199,200,201,202,203,204,205,206,207,208,209,210,211,212,213,214,215,216,217,218,219,220,221,222,223,224,225,226,227,228,229,230,231,232,233,234,235,236,237,238,239,240,241,242,243,244,245,246,247,248,249,250,251,252,253,254,255,256,257,258,259,260,261,262,263,264,265,266,267,268,269,270,271,272,273,274,275,276,277,278,279,280,281,282,283,284,285,286,287,288,289,290,291,292,293,294,295,296,297,298,299,300,301,302,303,304,305,306,307,308,309,310,311,312,313,314,315,316,317,318,319,320,321,322,323,324,325,326,327,328,329,330,331,332,333,334,335,336,337,338,339,340,341,342,343,344,345,346,347,348,349,350,351,352,353,354,355,356,357,358,359,360,361,362,363,364,365,366,367,368,369,370,371,372,373,374,375,376,377,378,379,380,381,382,383,384,385,386,387,388,389,390,391,392,393,394,395,396,397,398,399
开,0.307319998741,0.719875991344,-0.399313002825,0.279029995203,0.522652983665,0.696868002415,0.614095985889,1.4428910017,1.29327297211,0.355581998825,-0.666199982166,-1.43033599854,-0.207574993372,1.69368803501,0.0542589984834,-0.44091001153,0.469067007303,-1.26887798309,-0.695429980755,0.223634004593,0.704585015774,-0.638948023319,0.320731014013,0.00357900001109,0.348632991314,-0.107133999467,-0.248772993684,-0.115835003555,-0.0379710011184,2.21302509308,-1.40181303024,1.16143095493,2.00309300423,1.744830966,-0.678534984589,-2.21145200729,0.0176769997925,-0.8729839921,1.94163894653,2.3507668972,-0.143320992589,-0.904824018478,-0.380991995335,0.660281002522,1.31387197971,0.566780984402,1.00402605534,-0.380809992552,-0.351750999689,1.36317801476,-1.99742901325,-1.84090697765,-1.19266700745,0.110873997211,-1.29509198666,0.537378013134,0.428984999657,0.183704003692,0.464774996042,-0.0311779994518,0.416287004948,0.156247004867,1.20190799236,-1.91160404682,-1.62978601456,0.306367993355,2.2167069912,-1.82267904282,0.72540897131,-0.398490011692,-1.92084503174,1.06150197983,0.164691001177,1.72270798683,0.612694978714,-0.722397983074,0.0737570002675,0.759663999081,0.893356978893,-0.320717006922,0.993134021759,-0.722564995289,-0.564054012299,-0.766116023064,0.841625988483,-1.56244504452,0.802681028843,0.478763014078,1.07426202297,1.51171600819,0.493344008923,-1.26467204094,1.41901302338,-0.121754996479,2.12629199028,0.602186977863,0.0814779996872,-0.125694006681,0.74176800251,-0.327372014523,0.535045027733,-2.01361608505,0.444317013025,0.386112987995,-1.7108039856,0.631110012531,1.32252204418,-1.39699399471,-0.152804002166,1.28893995285,-0.164489999413,-1.47081100941,-1.22049105167,-0.858081996441,1.74798905849,0.89828401804,0.854898989201,1.08985805511,-0.877951979637,0.466814994812,-0.13866199553,-0.910835027695,0.413336992264,-0.837679982185,-0.459740012884,0.339262992144,-0.973398983479,0.82955801487,-1.44764602184,-0.84078001976,1.19817602634,0.477019011974,-0.516148984432,0.902580022812,0.572888970375,0.220241993666,-0.000353000010364,0.318177998066,1.94882798195,0.235520005226,-0.773554980755,1.18922698498,-0.0313920006156,-2.72276711464,-0.608856022358,1.220064044,-2.40269804001,0.69249099493,0.708420991898,-1.33408498764,1.95840299129,-1.45379805565,0.877539992332,-0.430981010199,-2.07980394363,1.67737197876,1.1084779501,0.890927970409,1.49359405041,-1.98378396034,0.634148001671,1.72898304462,-0.630622982979,2.14195609093,-0.121780999005,1.60873794556,0.0997679978609,1.30315303802,-0.408659011126,-0.563902020454,-0.923768997192,0.722518980503,0.323015987873,-0.909925997257,0.842975020409,0.00659799994901,0.315766006708,-1.59695804119,-0.851258993149,0.91682100296,0.412173002958,-0.454526990652,0.265011012554,0.682144999504,1.19653904438,2.80005097389,-0.159683004022,0.631731987,-0.102372996509,0.873762011528,-0.449297010899,-0.687721014023,0.65085297823,-0.0324469991028,0.843487977982,-0.165168002248,-1.9360460043,-2.51527309418,-1.90693998337,-1.35502505302,-0.611980974674,1.4356149435,-1.3149009943,-0.574187994003,0.310752987862,-1.87268304825,-0.483034998178,-1.7514179945,-0.0764520019293,1.86896204948,1.46979701519,-0.135351002216,1.10907399654,0.704153001308,-0.945406019688,0.00686200009659,-0.560193002224,0.597917973995,-0.962764978409,-0.55167299509,0.102142997086,-1.74052798748,-0.247250005603,0.249856993556,-0.368301987648,-0.136221006513,-0.138938993216,-0.208331003785,-1.48846900463,-1.90874302387,1.08697497845,-0.401138007641,1.18646502495,0.169373005629,0.988358974457,-0.574522972107,-0.954510986805,0.376356989145,-2.12404298782,-0.78267198801,-1.51825594902,0.14364400506,-0.496829986572,0.778248012066,-0.90987598896,0.774210989475,0.117386996746,1.38068795204,0.360137999058,0.741208970547,0.393332004547,0.0221590008587,0.015829000622,-2.13739609718,1.43497598171,1.33020699024,-0.499433994293,2.54300308228,-0.472501993179,0.356790989637,-0.755454003811,0.370871990919,-0.164799004793,2.26846408844,-1.73802697659,-0.953649997711,-0.259763985872,-0.62085300684,-1.14449501038,0.640349984169,-1.39168000221,-0.363961994648,-0.368741005659,0.626803994179,-0.126205995679,-1.19136095047,-0.450302004814,0.177267998457,1.41283404827,0.80335098505,0.916948020458,0.67211997509,1.4436160326,2.59177994728,1.42634797096,2.40085411072,-2.67237496376,0.491447985172,-0.273550003767,0.743813991547,-1.5205719471,0.904111981392,0.271871000528,0.806756973267,-1.70981097221,0.3110049963,0.726098001003,0.815389990807,-0.264733999968,-2.54259395599,0.354799985886,1.68127298355,-1.55964195728,0.460438013077,0.0563660003245,-0.63720202446,-0.00157199997921,-1.20377004147,-0.482538998127,0.0457330010831,-2.51556801796,-0.107100002468,0.38084000349,0.470717996359,-1.92768001556,1.42289996147,-0.819751977921,-1.01188695431,-0.00707199983299,0.474366992712,1.22492599487,1.66639494896,-0.782221019268,0.719533026218,-0.940910995007,-1.48453903198,-0.335680007935,0.543676018715,-0.490108013153,1.19910597801,0.0422360002995,0.720840990543,1.20582294464,3.43144106865,-0.49857801199,0.250654011965,1.73189795017,-0.569216012955,-0.575163006783,0.925830006599,-0.555095016956,-1.09229004383,-0.0843430012465,-1.52764594555,0.621330976486,-2.01303100586,-0.799546003342,-0.581364989281,-1.46805596352,-1.47013294697,0.451644003391,-0.686342000961,-0.186440005898,-0.59730297327,-1.04529201984,1.99300205708,-0.170830994844,0.471940010786,2.39970302582,-0.894429028034,-0.59919500351,1.10200703144,0.330518007278,-0.443399012089,-0.308411002159,0.449849009514,1.15345704556,-0.881766021252,-0.6002420187,-0.152533993125,-0.0878520011902,-0.473755002022,-0.0794240012765,1.16090703011,1.09166502953,0.346619993448,-1.96688294411,1.68052005768,-0.704966008663,-0.388110995293,-0.0658089965582,-1.0287539959,0.764840006828,1.2652349472,1.28224396706,1.63489699364,0.412804991007,1.4820189476,-0.795657992363,-0.436334013939,1.30773794651,0.636259973049,-1.05639195442,2.35697889328,1.52417302132,-0.718779981136,-2.41807508469,0.63868701458,1.90685200691,-0.733016014099
围绕,0.363471001387,1.28270101547,-0.981543004513,-1.69205105305,-0.771400988102,-0.861943006516,1.18781197071,-1.55836796761,1.05148696899,-0.628585994244,-1.6436599493,0.311940997839,-2.26858901978,-0.216041997075,-2.24393010139,0.876819014549,-0.256044000387,1.83531904221,-0.824344992638,0.238664999604,-0.901324987411,-0.173414006829,-0.481449007988,1.62612104416,1.19297194481,-0.516310989857,-1.36797499657,-0.110218003392,1.45946502686,0.727834999561,-0.913679003716,0.75538700819,-0.973828971386,-0.267921000719,0.725755989552,-1.3184479475,-1.47622203827,-1.22625398636,0.378796011209,1.5643620491,-0.655143022537,-0.174889996648,-1.16239905357,-0.44712600112,-0.159097999334,0.346630990505,1.59908401966,-0.0451049990952,-1.0669490099,1.31600904465,0.0688429996371,-0.128435999155,-0.941572010517,-0.773706018925,-0.185093998909,-0.253803014755,1.94896304607,0.297192007303,0.94935297966,1.13309204578,-0.522769987583,-1.12614297867,0.504392981529,-0.190053001046,0.0374139994383,-0.381433993578,-1.5018709898,0.16151599586,-0.221643000841,0.311040997505,-1.5840870142,0.646402001381,0.574705004692,-0.0775540024042,1.01718497276,-0.368734002113,0.202910006046,-0.281397014856,0.986042022705,-0.544638991356,2.37191390991,-1.08575594425,0.789732992649,-0.0173860006034,0.0344070009887,1.90037202835,1.75812602043,-1.41721999645,0.612848997116,-0.381327003241,0.602793991566,-0.158464998007,-0.969421029091,0.353711009026,-0.179488003254,-0.723124027252,1.32071697712,-0.513287007809,0.977512001991,-1.32023596764,-1.48756098747,-0.306416988373,1.27935099602,0.75674200058,-0.784509003162,-0.439727991819,-0.579668998718,0.763791024685,-0.573814988136,0.418826013803,-0.835570991039,0.937354981899,1.07422399521,-0.677228987217,0.809233009815,-0.219006001949,0.923723995686,-1.83180499077,-1.25126302242,0.644266009331,-0.368625998497,-0.310914009809,0.181740000844,-0.705211997032,-0.18241199851,-0.232402995229,-3.13678503036,1.26399099827,-0.819455981255,-0.119815997779,-0.434056013823,0.880334019661,-0.323038011789,0.126000002027,-1.30302095413,0.826346993446,-0.633053004742,1.89011502266,0.189113005996,0.539987027645,-0.0692349970341,0.500494003296,-1.43369102478,-0.7030569911,-0.51011300087,-0.791562020779,0.0480399988592,0.206383004785,-0.820109009743,-1.42283797264,-0.3740260005,-0.981652975082,-0.0232170000672,0.930207014084,0.661310970783,1.12093603611,-1.00473999977,-0.629281997681,-0.842392027378,0.0559069998562,0.115134000778,-0.00405400013551,-0.0854239985347,-1.4978300333,0.325886011124,-0.584999024868,-0.260224997997,-0.309711009264,0.570599973202,0.959002017975,0.935392022133,-0.242724001408,0.0301740001887,0.510812997818,0.706255972385,-2.50879001617,0.663416028023,-0.349040001631,0.337121009827,0.449961006641,0.740644991398,0.105466000736,1.13407695293,-1.44449603558,-1.13853394985,1.37481999397,1.09098005295,0.194576993585,0.430685013533,1.22582399845,1.07707595825,-0.145190998912,0.821057975292,-0.351395010948,-0.437691003084,-1.43016803265,0.984367012978,0.688540995121,0.694775998592,1.53302204609,0.863898992538,0.25551700592,-1.89896404743,-0.901341021061,-0.384339004755,-0.957978010178,-0.098802998662,-1.15256595612,1.01700496674,1.85140502453,-0.535817027092,-1.73904001713,3.09661507607,1.03470802307,1.88713395596,-1.38456404209,0.293009012938,0.145767003298,-1.25106394291,-0.419301986694,0.662370979786,-0.27022600174,0.191624000669,1.07312297821,-1.24250805378,-0.26740899682,0.564580023289,-0.0245060008019,1.0007879734,-0.989340007305,-1.06315898895,-1.14299094677,1.14780604839,-1.04198002815,0.944624006748,-0.262876003981,-1.26183199883,-0.403432995081,-0.394910007715,2.07273411751,0.181765004992,-0.289184987545,1.21112501621,0.632165014744,2.44710898399,-0.572822988033,0.193676993251,0.321175992489,0.0702200010419,1.27507197857,-0.195401996374,1.22879004478,0.618999004364,0.439841002226,0.394432991743,0.168761000037,-0.0219609998167,-0.897347986698,-0.330668002367,2.0759909153,-0.387719988823,-0.00190300005488,0.864347994328,0.478918999434,-0.284570991993,-1.81721496582,1.32027602196,-1.43261301517,-0.0744469985366,0.0168079994619,0.881792008877,-0.24913200736,0.88796299696,-1.18721699715,-0.420666992664,-1.07791101933,-0.134450003505,-0.0714519992471,1.23543894291,-0.863905012608,0.33353099227,0.778267979622,0.699449002743,0.736176013947,-1.37803697586,-0.0954860001802,-0.839037001133,1.03838205338,-0.364385008812,1.1407699585,-0.576752007008,0.53635597229,-0.0815029963851,-0.0619519986212,0.733810007572,0.385847002268,-0.686522006989,-0.875379025936,-1.46608304977,-0.424652010202,-0.101544000208,-1.29638397694,0.904080986977,0.237983003259,-0.470100998878,0.212757006288,-0.728938996792,-0.585834980011,-0.911505997181,0.367605000734,-1.29197502136,-0.0910020023584,0.114808999002,-0.821788012981,-0.84854799509,0.53598600626,-1.33734405041,-0.857769012451,-0.0898310020566,-1.43581902981,1.09820902348,-1.27915298939,-1.1636480093,1.4424829483,-0.16239400208,1.15771305561,-1.37205195427,-1.75852000713,1.61896395683,0.543591022491,-0.750694990158,0.153585001826,1.55239605904,0.896974027157,1.56674599648,0.995570003986,0.103229001164,-0.170072004199,0.246943995357,0.911384999752,0.634986996651,0.222084000707,-0.757579028606,0.0802519991994,0.326898992062,-0.58916002512,-0.677501022816,1.3897600174,-0.988220989704,1.12860405445,-0.289983987808,0.424024999142,0.749900996685,-0.26316100359,0.820542991161,-0.25839099288,0.35503000021,0.447353988886,-1.96266198158,0.962801992893,-0.0298679992557,-1.87181198597,0.509714007378,0.596486985683,1.98745596409,0.17206299305,0.0700780004263,0.31490701437,-0.505060017109,0.472254008055,0.380082011223,0.509140014648,-2.45093607903,1.5202280283,-2.71733999252,0.21984000504,0.641288995743,-0.534536004066,0.538554012775,-1.81771600246,-1.29060101509,0.381491988897,-0.379373013973,1.31897497177,0.243048995733,0.376794993877,-0.394621014595,-0.240416005254,-0.610112011433,0.303723990917,0.461032986641,0.919903993607,0.945433974266,0.417986005545,-0.524398982525,0.846684992313,0.532640993595,0.898599028587,0.76606798172,-1.00695800781
驱动器,-0.942120015621,0.0454390011728,1.17180597782,-0.0195470005274,0.908208012581,0.931246995926,0.454730004072,-1.80875694752,1.20734500885,-1.05733597279,-1.3854650259,-0.623775005341,-0.6341329813,-0.101842999458,-0.2509739995,-1.0028090477,0.14833599329,-0.35703098774,0.0954689979553,-0.0957110002637,-1.23157703876,0.570333003998,-0.514038026333,0.933531999588,-0.304556012154,0.318192005157,0.255465000868,0.304091006517,-1.65820598602,0.0771799981594,-0.592839002609,-0.553211987019,0.065798997879,-0.667083024979,-0.143941000104,1.18174004555,0.190255999565,-0.550520002842,0.360908001661,-0.23024700582,0.727205991745,-0.214111000299,-0.630181014538,-0.208107993007,0.508413016796,0.140053004026,-0.854156017303,-0.208511993289,0.0953660011292,0.731209993362,0.56119197607,-0.330751985312,-0.200378999114,1.08794903755,-1.38820397854,-0.574299991131,0.741662979126,-0.636157989502,-0.331117987633,0.128395006061,-0.800257027149,-0.0385730005801,-0.455123007298,-0.569402992725,0.0921669974923,0.699670016766,-0.943677008152,-0.774948000908,0.0386850014329,-0.253663003445,-1.48824596405,-0.457540005445,1.52716505527,1.45855605602,-0.538420021534,0.747177004814,0.637359976768,-1.40425598621,0.290991008282,1.20020198822,0.036832999438,-1.41446995735,-0.257339000702,0.312927991152,0.620912015438,-0.822723984718,-1.00825500488,0.420475006104,0.846782982349,-0.105029001832,0.841969013214,0.601001977921,-0.462114989758,0.0409890003502,-0.0638270005584,-0.324389994144,-0.957036018372,1.32814097404,-0.00984300021082,-0.476815998554,0.031426999718,0.163549005985,0.0125709995627,0.0835689976811,0.904883027077,-1.07557499409,0.537382006645,-0.240201994777,0.779147028923,0.755537986755,0.223979994655,-1.21305000782,-0.171023994684,0.487177997828,-1.09175205231,1.32044899464,0.839811980724,-0.193666994572,0.676573991776,1.34056997299,0.380243986845,-1.51338303089,0.808104991913,-0.671064972878,-0.0902350023389,0.642431974411,-0.422841995955,0.0420119985938,-1.08028805256,1.19534802437,-0.713729977608,-1.13058400154,-0.794957995415,0.313618987799,-0.665355980396,-0.0641039982438,-0.29288199544,-1.22237896919,0.737165987492,-0.602028012276,0.154940992594,0.526018023491,0.342471003532,-0.549687981606,0.0859029963613,-1.08730101585,-0.364021986723,0.579455018044,-0.333018988371,-1.22621297836,0.70927298069,-0.306517988443,-0.645573019981,-0.827678024769,0.421346008778,-0.544398009777,0.253114014864,-0.505138993263,-0.396593987942,1.03656101227,-0.400207996368,-1.1025660038,-0.101911999285,-0.00574300019071,0.275929987431,-0.216619998217,-0.158016994596,-0.0695839971304,-0.73431801796,-0.790453970432,0.0161669999361,-1.72864603996,-0.72743999958,-0.18741799891,1.01627004147,0.963410019875,0.933021008968,0.192201003432,0.387158989906,0.756004989147,-0.880263984203,0.321215987206,-1.02179896832,-0.0870100036263,-1.1945309639,0.342958003283,0.374832987785,-0.68302500248,0.385057002306,-0.743737995625,0.117467001081,0.240261003375,-0.963995993137,0.799166023731,0.534727990627,-0.308723986149,0.253751993179,-0.465633004904,1.00154197216,0.0338970012963,0.462760001421,-0.309727996588,-0.426470994949,-0.258132010698,-0.952830970287,0.88918697834,0.261994987726,0.296339988708,-0.364987999201,0.620373010635,0.0518019981682,-0.340523988008,1.09172201157,-1.24156594276,1.18858098984,0.0962139964104,-0.0279290005565,-0.365942001343,0.176228001714,-0.726279973984,-1.15988600254,-0.638203978539,-0.49224999547,-0.623740971088,0.260149985552,-1.30517101288,1.1909610033,0.459279000759,-0.748416006565,0.485760003328,-0.284018993378,0.170320004225,0.684781014919,-1.04206705093,0.897336006165,-0.148150995374,0.424919992685,-0.565172970295,0.63419097662,-0.981247007847,-1.14886701107,0.317348986864,-0.494940012693,0.426313012838,-0.644019007683,0.503374993801,-0.603213012218,0.294620007277,0.984382987022,0.817323982716,0.0403059981763,0.359151005745,0.460417985916,-0.336777001619,-0.635716021061,-0.139269992709,0.0640809983015,0.181278005242,0.078087002039,0.628754973412,-0.962741017342,1.12110602856,0.0479569993913,-0.246772006154,-0.49345600605,-0.40161600709,0.529502987862,0.447843998671,-0.759271025658,-0.031387001276,0.396470010281,-2.05444788933,-0.422684013844,0.0169949997216,-0.407460004091,-0.657329976559,-0.958811998367,0.576327979565,-0.990630984306,0.354523003101,-0.770762979984,0.94067800045,0.704856991768,-0.264562010765,-0.0921249985695,0.61741399765,0.0706460028887,-0.126009002328,-0.513800978661,-0.660651981831,0.364612996578,-0.103238999844,-0.928919017315,-0.0599110014737,0.350921988487,0.421618998051,0.514802992344,-0.723300993443,0.260134994984,0.411038011312,0.480985999107,0.0848570019007,-0.360110014677,0.0325470007956,0.703643977642,0.860260009766,-0.139781996608,-0.0720190033317,-0.114074997604,0.0883520022035,-0.489358991385,-0.418359011412,-0.277759999037,-0.911266982555,0.760329008102,0.289456009865,-0.262041985989,0.161725997925,0.610332012177,0.34440600872,-0.710834026337,0.186182007194,-1.4530069828,-0.00677799992263,0.174913004041,-0.546850025654,0.672106027603,0.111286997795,-0.637290000916,-0.769593000412,1.6593619585,-0.872505009174,-0.792854011059,-0.330902010202,0.466066986322,-1.31163203716,-0.588115990162,1.08876204491,0.794403016567,-0.548819005489,-0.519227027893,0.593343019485,0.171005994081,0.319995999336,-0.167846992612,-0.559237003326,-0.917096018791,0.0556010007858,1.169968009,0.0757730007172,0.0556790009141,0.496001005173,0.261260986328,1.63271403313,-0.655888974667,-0.507606983185,1.71482205391,0.663796007633,-0.723125994205,0.481723994017,-0.122001998127,-0.137975007296,-1.75994002819,-0.188216999173,-0.0163059998304,0.423355013132,0.092390999198,-0.201277002692,0.243625000119,0.114402003586,0.132240995765,1.12364494801,1.33013594151,0.940523028374,0.691567003727,-0.430862009525,-1.157351017,-0.446438014507,-0.541603028774,0.556611001492,1.22944295406,-0.181360006332,0.74181497097,0.947718024254,-1.61914396286,-1.08548498154,-0.373012006283,0.045258000493,-1.03793799877,0.749862015247,-0.885326981544,0.242796003819,-0.326584011316,-0.155736997724,0.43919301033,-0.577163994312,-0.0142959998921,-1.06918501854,-0.451191008091,0.215231999755
移动,-1.33078300953,1.89442896843,0.245082005858,-0.493955999613,0.461475998163,0.37239998579,1.02003097534,0.473001986742,0.876938998699,0.735976994038,-1.29681098461,-1.13142704964,-0.443542003632,0.138217002153,-1.96253597736,-0.703445971012,-0.910039007664,-1.06727302074,-0.397787004709,-1.15389299393,-0.535050988197,1.28670096397,0.0697939991951,-0.055162999779,2.40518498421,0.817948997021,1.20960199833,-0.821191012859,-1.87679505348,-0.859212994576,-1.35127401352,0.181439995766,-0.496565997601,-0.283311009407,1.00597000122,0.169694006443,0.116410002112,-2.32793307304,0.345016986132,0.0172019992024,-0.829695999622,1.02861094475,-1.01915597916,1.31185400486,1.63294804096,-0.635909020901,0.670696020126,0.814746975899,-0.914987027645,0.0191190000623,-1.19364798069,-2.52836990356,-0.865064024925,1.09289801121,0.337197005749,1.13951194286,1.24203705788,-1.26114094257,-1.21790099144,-0.940241992474,-0.951111018658,1.25015294552,-1.26869904995,0.497720003128,-2.11352992058,0.0916230008006,-1.37870895863,-1.39977097511,0.276398003101,-1.73724997044,-1.49124002457,0.221149995923,1.78426396847,1.37266802788,0.357632994652,1.75135695934,2.63551902771,0.674244999886,-1.53460502625,1.14962494373,0.823924005032,-0.661481022835,-0.0223110001534,-0.923775017262,0.547371983528,-0.50169801712,-0.810245990753,1.67873799801,2.53367400169,-0.826811015606,0.850957989693,-0.20217500627,-1.22903096676,0.715950012207,-0.850009977818,-0.470753014088,-1.62217402458,1.73571205139,0.915332973003,0.999704003334,3.07147288322,0.915338993073,2.03391599655,1.43626201153,0.0909380018711,-2.42583799362,-0.680109024048,0.139145001769,0.0789759978652,-0.607573986053,-0.379936009645,-1.25479602814,0.455565005541,2.52696108818,0.787328004837,0.11128500104,-0.437943994999,1.38887095451,-0.503319978714,1.66041994095,2.16800403595,0.0900579988956,0.22135899961,0.237142995,-0.394391000271,0.696862995625,-0.647993028164,-1.52471005917,-0.538312971592,-0.650766015053,1.09900200367,-1.31640398502,-1.29342103004,0.0125829996541,-1.06140601635,3.46947598457,-0.542882978916,-1.93157196045,-0.673851013184,2.60034394264,1.0234940052,2.9094209671,-1.21075594425,0.173813998699,0.751184999943,-0.223493993282,-1.50826001167,0.952401995659,-0.880719006062,-0.560324013233,0.405209004879,-1.56231594086,0.289882004261,1.09089696407,2.21432900429,1.41551601887,-0.691003024578,-1.11995303631,-0.894465982914,-0.881222009659,0.0710920020938,-0.366214007139,0.266413003206,-0.960579991341,0.694769978523,0.945173978806,0.0307260006666,-0.17260800302,-1.29019904137,-0.161129996181,0.559131979942,0.564136981964,1.09726595879,-0.26167601347,0.238683000207,-0.81567299366,1.15784800053,1.00395298004,-0.829662024975,0.578971028328,-0.676075994968,1.77683997154,0.680320978165,0.6162520051,-0.0010300000431,1.68653798103,-0.998894989491,0.276268005371,-0.139400005341,-0.132809996605,-0.346796005964,0.138394996524,1.43144500256,-0.201172992587,0.0396520011127,-0.77994197607,1.96685004234,-0.431892991066,-0.807265996933,0.647804021835,0.662697017193,-0.792259991169,-0.536934018135,-2.44371294975,-2.02325797081,0.823637008667,-0.503522992134,-0.600499987602,-1.53715598583,2.28183102608,-1.3218100071,-0.840844988823,0.563511013985,-0.568771004677,0.184039995074,-0.944167017937,-1.278668046,-1.10080301762,-0.659241020679,-1.67824804783,0.395200014114,1.21362602711,0.184826001525,0.0601570010185,0.470685005188,-0.773850977421,1.51786196232,0.405054986477,0.879245996475,-0.844438016415,0.832261025906,-0.548519015312,-0.144655004144,-1.24554598331,1.05674397945,0.360693007708,-1.3495169878,1.23368299007,1.08444595337,-0.859000980854,-0.686001002789,-0.550341010094,1.73483502865,-1.22889995575,-0.786509990692,1.02999305725,-2.22454500198,-0.651935994625,-0.203344002366,1.06502401829,-0.915346026421,1.17972898483,1.7192209959,1.34033799171,1.47496795654,1.44143998623,0.200358003378,0.351805001497,0.652028024197,1.21514797211,-0.919111013412,-0.6596159935,-0.128410995007,-0.444427013397,-0.861622989178,-0.691354990005,0.17357699573,0.337859988213,-2.04769706726,-0.00622599991038,-0.548053979874,-0.622624993324,-1.17130899429,0.852602005005,0.202628001571,-0.503968000412,0.936658978462,0.0971549972892,0.44080799818,0.178380995989,1.79536402225,0.858761012554,1.22609305382,1.09190094471,-0.377970993519,-0.938996970654,0.08666100353,-2.15679907799,0.606626987457,-0.110326997936,-1.09479999542,0.511988997459,-0.857231974602,-1.66272604465,-0.139487996697,0.69377797842,0.0468759983778,0.660736978054,0.206472992897,-0.742727994919,0.71854197979,-0.0976620018482,-0.484535008669,1.26301896572,-0.584667980671,-0.0302530005574,-0.418788999319,0.0723000019789,0.0541270002723,0.402617990971,-1.23179399967,-2.01131010056,2.54821705818,-1.73594999313,-1.25045502186,0.71675401926,1.04626703262,-0.493730992079,-0.128937005997,-0.40186598897,0.305326998234,0.171256005764,-2.26140999794,-0.259941011667,0.727006018162,-0.210198000073,0.137355998158,-1.94680905342,-0.50273501873,1.86205303669,2.11781191826,0.213722005486,-1.02588105202,0.9648630023,0.715538978577,-1.4042570591,2.42799806595,1.54195904732,0.344833999872,-0.00958899967372,-0.165693998337,0.749481022358,1.76454102993,-1.58259701729,-0.0813879966736,-0.313452988863,-0.272273987532,1.03873097897,0.116980999708,0.593730986118,0.146944999695,-1.02490699291,1.47128498554,1.29349803925,-1.02340197563,-0.262930005789,1.92399704456,0.964425981045,-2.88922905922,0.670726001263,-1.42324697971,-0.875554978848,-0.71039801836,1.15205395222,-0.930167019367,-1.9417860508,-0.0175080001354,0.512609004974,0.88587898016,1.36249005795,-1.48442399502,1.20708298683,0.303245007992,0.936685025692,0.789188027382,0.126169994473,-0.378208011389,-1.10825395584,-1.87325000763,-0.365372985601,-1.32339394093,0.712134003639,2.37228608131,0.359804987907,0.508400022984,-3.03248095512,0.147933006287,-0.149922996759,-2.68777298927,-0.792905986309,2.02316093445,1.55479001999,-1.61717700958,-0.723022997379,2.89850711823,1.42612099648,-0.87435400486,1.522990942,-0.792966008186,0.973890006542
包括,-0.45458099246,0.164757996798,1.79915904999,-1.04949700832,0.733509004116,-0.782820999622,1.55502903461,0.660794019699,1.61958694458,-0.89761698246,0.535622000694,0.35279199481,-1.74530601501,-1.87399399281,0.167853996158,-1.00387001038,0.305721014738,-1.26508498192,0.240015000105,-1.57822299004,-0.263256013393,-0.918152987957,-0.410198003054,1.22108697891,2.20093798637,1.28687500954,0.667607009411,-0.836081981659,1.85371601582,0.544808983803,-1.48100399971,0.917953014374,-1.14600205421,-1.96656596661,0.953311979771,-0.30041500926,1.23065805435,-0.823512017727,-1.736956954,1.10004401207,0.61631000042,0.716252028942,-1.23382103443,-0.80795198679,1.15346395969,0.810011982918,0.159330993891,0.66695100069,-0.564612984657,-0.0291469991207,3.32593607903,-2.36165809631,0.8616309762,1.0287539959,0.046682998538,-1.57661497593,0.884683012962,-0.820316970348,-0.564092993736,1.03681397438,-0.371104985476,-1.69451105595,-0.961143016815,-0.364295989275,1.49793696404,-1.0467890501,0.293545007706,0.994126021862,0.571802973747,0.723227024078,-0.936886012554,0.921674013138,0.371354997158,-0.401280999184,-0.00771200004965,0.689547002316,1.58019697666,-0.714837014675,1.66086494923,-2.98004508018,0.240195006132,-1.89980697632,2.25126791,-0.238046005368,0.502623021603,0.565518021584,-0.0853070020676,-2.21869707108,0.220923006535,-0.717351019382,0.456472992897,-1.07067501545,-0.197669997811,0.110694997013,0.304879009724,-1.58364999294,2.15485191345,-0.491432994604,0.404356002808,0.416426986456,-0.315941005945,0.782885015011,-0.438149005175,1.05202901363,-2.2976269722,-2.66469597816,1.53348898888,-0.544652998447,0.0205060001463,-0.831881999969,-0.916168987751,1.42460298538,-1.14686894417,-0.269428998232,1.37158405781,2.41274309158,0.906876981258,0.312240988016,0.175301000476,-0.637138009071,-0.430447012186,-1.08631694317,0.951385974884,-1.15662896633,-1.15687298775,0.231864005327,-1.34062504768,-0.304652988911,0.488011002541,-0.816477000713,-0.0516530014575,-1.97015798092,-1.44315505028,0.0445979982615,0.862852990627,0.0676129981875,0.319023013115,-0.218733996153,0.254290997982,0.670490980148,1.28575205803,-0.0801850035787,0.164633005857,-0.273562014103,-1.2591329813,-0.292937010527,-0.157086998224,0.922022998333,1.58452701569,-1.22032296658,0.148820996284,0.6534730196,-2.0393679142,0.0603480003774,0.921579003334,0.998567998409,0.783999025822,0.95196801424,0.810815989971,-0.172591999173,0.497561007738,-2.43847894669,0.322001993656,1.52843701839,2.06227993965,0.242552995682,-1.35942101479,0.529434978962,-2.69018101692,1.42549800873,0.215532004833,-1.18721103668,-0.862232029438,1.12271499634,0.995172977448,0.102456003428,1.88078403473,-0.255524009466,0.278115004301,-0.617504000664,-0.024075999856,-0.295720994473,-0.526772975922,-1.73352503777,-1.01357400417,0.700094997883,-1.37312996387,1.12802600861,-0.795297980309,1.30646204948,0.748883008957,-1.38669705391,2.25542211533,0.225940003991,1.16594099998,-0.158812001348,1.01716899872,-0.115846000612,-0.998345971107,1.97673797607,-0.579613983631,-1.39214301109,-1.57517898083,-3.12755990028,-0.845227003098,-1.39766597748,0.214383006096,0.459859013557,-0.591390013695,-0.704195022583,-0.436646997929,0.625757992268,0.0283080004156,-1.20953798294,0.664031028748,0.068915002048,1.27981197834,0.00837600044906,-0.575942993164,-0.602973997593,0.226180002093,0.933906018734,-0.644033014774,0.444972991943,-0.768212974072,1.46541404724,0.508481025696,-0.906832993031,-0.159122005105,-0.415253996849,-0.607084989548,-1.975949049,1.71390104294,-1.27606701851,1.73988699913,0.337525010109,1.00392699242,0.876667976379,-1.65308201313,-0.211097002029,-0.983739972115,-0.0362740010023,0.0229870006442,-0.44423699379,-0.241473004222,-1.62508797646,0.31343999505,-0.423994988203,-0.0189789999276,-0.44366300106,0.757034003735,0.365139991045,-0.0738999992609,-1.11206996441,-1.16192305088,-0.320629000664,-1.2597630024,0.53752797842,-0.465131998062,0.544440984726,0.419093996286,0.463856011629,0.670464992523,-0.460119009018,-0.833801984787,-0.382362991571,2.18521809578,0.26867800951,-1.23650801182,-1.1147480011,0.732991993427,0.592454016209,-0.202702000737,0.813533008099,-0.106539003551,0.177596002817,-1.19238305092,1.75196099281,0.943477988243,-0.535651981831,0.558507978916,1.94003796577,0.85153901577,-0.693044006824,-0.577216982841,0.392235010862,1.05674302578,-0.630775988102,0.74019497633,0.509913980961,1.17580199242,1.82550597191,-1.17437505722,-1.27008104324,0.272271990776,0.219248995185,-1.13816094398,0.168464004993,-0.46457400918,1.19388699532,-1.39800798893,-0.00100199994631,-0.41308298707,0.356914997101,1.07615494728,-0.964807987213,-0.489504992962,0.664205014706,-0.546822011471,2.37935996056,-0.538571000099,-1.02659094334,1.98566901684,-0.77510201931,0.0225370004773,0.946175992489,-1.21878004074,1.57324898243,0.01832799986,0.902724981308,2.083081007,0.291148990393,-0.424068003893,2.19520306587,-0.750169992447,1.03171801567,0.0738869979978,-0.89485001564,-0.118777997792,1.16980195045,-0.124298997223,1.61822104454,-0.156580001116,0.307168006897,2.61532402039,0.467014998198,-0.682807028294,-0.458820998669,-0.330401986837,-1.25936794281,-1.04619801044,-0.290796995163,-0.279507011175,-1.34332501888,-0.627764999866,2.15378308296,2.02582907677,1.25430798531,-1.39620900154,1.12433302402,-1.06657505035,-0.652185976505,0.230636999011,-0.844760000706,0.0122959995642,-0.923538029194,0.647957980633,1.10619699955,-0.589318990707,1.28975200653,-1.05566096306,-0.451656997204,-0.372523993254,-0.500169992447,-0.701224029064,0.200872004032,-1.88276195526,-0.0383489988744,0.818098008633,0.56969499588,-2.27243709564,-1.01694703102,-0.596351981163,0.358373999596,-2.69290590286,-1.62794494629,-2.06400203705,0.929220974445,-0.877553999424,-2.22939395905,-0.593096017838,-0.592799007893,0.57443600893,-1.57796001434,3.57118201256,0.422749996185,-2.8557009697,0.679933011532,-1.67461001873,-0.000548999989405,0.78701198101,2.60092806816,0.774625003338,0.437391012907,0.762611985207,0.243417993188,0.965864002705,-0.330404996872,0.462238013744,-0.50283998251
二者,-0.544605016708,-0.916217982769,1.24323797226,0.52170997858,-1.0770150423,-0.423830986023,-0.0109219998121,-0.341785013676,0.533972978592,-0.0845939964056,0.185035005212,-0.0706949979067,-1.64624202251,0.00168400001712,-0.0733930021524,-0.303663998842,-0.27531298995,0.232914999127,0.686841011047,-2.12799692154,-0.303003996611,0.149384006858,0.0418320000172,-0.215003997087,0.532738983631,-1.25660395622,-1.01662898064,0.335889995098,-0.601386010647,0.468448996544,-0.530539989471,-1.08981597424,0.51464599371,-0.313587993383,-0.175684005022,-0.57972997427,0.442009985447,-0.978358983994,0.769532978535,0.550733983517,1.14996194839,-1.50129795074,-0.92240101099,-1.25678598881,0.123397998512,-1.07536494732,1.43930900097,-0.345481008291,0.502391993999,1.03609395027,1.06953203678,-0.868870973587,-0.597962021828,0.603649973869,0.493178993464,0.113600999117,0.272430986166,-0.558714985847,-0.61541301012,-1.0604569912,-0.547419011593,-0.433046996593,-1.10959899426,-0.927743017673,-1.4911659956,0.0823329985142,-0.980005025864,1.57586503029,0.441246002913,-0.583037018776,-0.355675011873,0.42910400033,-0.491531014442,1.30744302273,-0.963940024376,0.894288003445,1.31827402115,0.58104300499,2.12009596825,-1.06966102123,-0.253865003586,-0.822404980659,1.0346159935,0.762153983116,0.688731014729,0.178626000881,-0.64475697279,-0.0452230013907,0.572567999363,0.42268499732,0.0730620026588,0.285641014576,-0.895290970802,-0.297412991524,-1.34031605721,0.971211016178,-0.227099999785,0.719008982182,-1.81295800209,-0.364962011576,0.0444810017943,-0.114602997899,-1.04144501686,0.705789029598,-0.336822986603,-1.45047795773,0.555783987045,0.996025025845,-1.53023898602,0.213277995586,0.331930011511,-0.0559620000422,0.203502997756,0.714990973473,-0.616545021534,1.26691794395,0.22855900228,-1.02627301216,-0.135091006756,1.07003700733,1.44513201714,-1.378469944,-0.274908989668,-1.25625503063,0.168834999204,0.0833320021629,-1.27753198147,0.338546991348,0.281305998564,0.301360994577,0.0141740003601,1.33409297466,0.14913199842,0.919641971588,-0.46570700407,0.0442340001464,-0.0947630032897,0.0273289997131,0.401353001595,-0.796660006046,0.0232970006764,1.16150701046,-0.835470020771,1.12321805954,0.74754601717,-0.150962993503,-0.0236269999295,0.392315000296,0.171276003122,-1.1263320446,0.124482996762,0.873763024807,1.1331319809,0.795724987984,0.486932992935,0.91629999876,-0.0713479965925,-0.453902989626,-1.44902098179,0.830172002316,1.53736495972,0.0118490001187,0.334832012653,-0.785664975643,-0.66798299551,0.0646509975195,0.1309030056,-0.273889005184,-0.19016200304,-0.248319998384,-1.04805898666,0.320360004902,1.18642699718,-0.288605988026,0.828001022339,0.031823001802,0.966001987457,1.47138702869,-1.86862802505,0.510217010975,-0.566998004913,0.31298199296,0.373488992453,0.858982026577,0.765695989132,0.975709974766,0.485853999853,-0.150289997458,-0.359950989485,-0.332318007946,0.0631650015712,0.380010008812,1.76037502289,1.03918504715,-1.16350901127,-1.38350105286,0.143360003829,-0.410582989454,0.133408993483,-0.390549987555,-0.843339979649,-0.384050995111,0.363581001759,0.653657972813,-1.38814795017,1.75175905228,0.174963995814,0.934765994549,-0.0107110003009,0.766535997391,-0.327904999256,-0.407407999039,3.09285593033,-0.327809005976,1.17480194569,-1.22475302219,0.492509007454,0.15412299335,-0.670913994312,-1.05647194386,0.63797301054,-0.753929018974,0.396504998207,0.978132009506,-0.901284992695,-0.562816977501,0.31988298893,0.0334729999304,-0.748359978199,0.544463992119,-0.349429011345,1.42163300514,1.81833195686,-0.599093019962,1.22937595844,-1.80959904194,-0.143252000213,-0.0769120007753,-0.661534011364,-0.797978997231,0.462752997875,0.619387984276,-0.322129011154,-0.0897900015116,0.204481005669,-1.72248101234,-0.111372001469,-0.345227986574,0.37565600872,0.750110983849,-0.140983998775,-1.0264339447,0.896879017353,-1.12345600128,-0.989085972309,0.30283498764,0.872222006321,-0.59490197897,0.94682598114,0.39749199152,-0.705177009106,0.195271000266,-0.171838998795,-0.194032996893,-0.869515001774,-0.402083009481,-1.34485697746,-0.319766014814,1.62873399258,-0.197718992829,-1.29779994488,1.14254701138,-1.4193789959,0.616519987583,-0.588804006577,0.679735004902,-0.541428983212,-0.738511025906,0.526920974255,-0.735759973526,0.101898998022,0.00480799982324,0.898926973343,-1.12215602398,0.458613008261,-0.954895019531,-0.900403022766,-0.875975012779,0.755026996136,1.07314896584,1.8955450058,-0.811815023422,-0.799808979034,-0.336562007666,-0.131262004375,0.659124016762,0.771597027779,0.507754981518,-0.227539002895,-0.388377010822,0.00534800020978,1.07325005531,0.704934000969,0.682812988758,-0.929068982601,-0.23335300386,-0.184911996126,0.0619499981403,-1.63474905491,-0.133043006063,0.129617005587,0.995136976242,0.856671988964,-1.8461920023,-0.677869021893,1.45510900021,-0.28461098671,1.4053850174,1.49575805664,0.205379992723,-1.14094698429,0.27479699254,-0.772927999496,-0.462267011404,-1.33886301517,0.110991999507,-0.314060986042,0.742426991463,-0.343641996384,-1.36623203754,-0.0552130006254,0.0999130010605,0.465887993574,0.884670972824,0.538212001324,1.05811405182,0.728424012661,1.37143099308,-0.82722902298,0.517780005932,0.317061007023,0.264596998692,-0.378879010677,-0.825947999954,-0.601309001446,-0.989675998688,-0.462978988886,1.69528102875,0.657446980476,0.136823996902,-0.40142300725,-1.08805298805,1.07036805153,0.197121992707,-0.278257995844,-0.189623996615,-0.720016002655,0.161064997315,-0.411419004202,0.873594999313,1.19856405258,0.523249983788,-1.28256702423,-0.845799982548,-0.373201996088,-0.666213989258,-0.610616981983,-0.117482997477,0.233816996217,-0.361506998539,1.12653696537,-0.815295994282,1.00246500969,-0.180353999138,-0.29067799449,-1.02564299107,-1.08026397228,0.671553015709,0.115056999028,-0.524682998657,-0.095404997468,1.54110002518,0.858699023724,0.242451995611,-0.0752239972353,-1.52767205238,1.05174195766,-1.2981569767,0.385060012341,-0.635349988937,2.0794839859,-1.3606749773,0.583366990089,-0.914970993996,0.974563002586,-1.04411995411,0.255562007427,-0.780759990215,1.22990500927,-0.946179986
具有,-0.0681810006499,1.40470600128,2.58015298843,-0.417515993118,1.00962400436,-1.16817700863,1.30608701706,0.617208003998,-0.418976008892,0.680073976517,0.0320670008659,-0.412878006697,-0.458056002855,-1.79766905308,-0.482612013817,-0.850849986076,-2.08274888992,-1.79438197613,-0.0770839974284,-1.89013195038,-0.18320299685,1.71037101746,-0.515230000019,1.49715602398,1.35511505604,1.70045101643,0.843391001225,0.205026000738,-0.423913002014,0.0648590028286,-1.09362101555,0.0337539985776,-0.537654995918,1.05566394329,0.0166209992021,0.806357979774,-0.569635987282,-1.49469900131,-1.22647595406,1.73556303978,0.0558639988303,0.265271008015,0.105435997248,-2.35379004478,-0.376747995615,-0.36556199193,1.25548601151,-2.27157998085,1.02639400959,0.00692400010303,2.40711808205,2.47078704834,0.168236002326,0.261465996504,-0.577809989452,-0.711461007595,1.20865595341,-1.4975039959,-1.41725695133,0.847477018833,-0.984902024269,-1.34774005413,-0.193630993366,-0.443363010883,-2.12132501602,-1.61161196232,-0.036683999002,0.0770559981465,-1.23883497715,0.370943009853,0.356952011585,0.782513022423,0.139865994453,1.46712398529,-0.828422009945,-1.27127599716,1.79189300537,0.0404720008373,-0.571823000908,-1.20284795761,0.168824002147,0.45746999979,1.38751196861,0.675350010395,0.668947994709,-0.0208540000021,-0.198296993971,-1.33238601685,-0.342359006405,0.202732995152,0.675924003124,-0.0596310012043,0.792818009853,0.174928992987,-1.06169605255,0.60242497921,2.69266796112,-0.856046020985,-0.832304000854,-0.920239984989,0.240029007196,0.79019600153,0.500250995159,1.20982801914,-0.877777993679,-1.54953205585,0.789002001286,-0.0270620007068,-0.210247993469,-1.72801196575,0.124601997435,-0.0102399997413,-1.98794603348,0.560717999935,-0.582768976688,0.270738005638,1.57074296474,-2.07348608971,-0.341502994299,-0.572614014149,0.466809004545,-2.11353111267,0.257672011852,-1.0773639679,-1.49024105072,0.523836016655,-3.8909330368,0.0322370007634,0.614049017429,1.9462389946,0.432294994593,1.02524995804,-1.23026394844,0.811007976532,0.511888027191,-0.653074979782,0.123153999448,0.644003987312,0.620209991932,0.664552986622,-0.869156002998,-1.14205598831,-0.596728980541,-1.53448200226,0.8639960289,-2.00579190254,0.358027994633,1.05628097057,-0.402871996164,-1.20546996593,2.7305688858,0.258213013411,-0.436002999544,1.54279303551,1.13282501698,0.675576984882,0.61507499218,0.13313600421,-0.850395023823,1.10713100433,-0.0807140022516,-1.68908596039,1.18916904926,0.00458300020546,1.18081700802,-0.973964989185,-0.456936985254,-1.34860599041,-0.75123000145,-0.329811006784,-0.933367013931,-0.63809800148,-0.0689800009131,0.0177490003407,0.48097500205,0.82540500164,1.90796804428,2.58681893349,1.5687019825,2.3834810257,-2.55086803436,-0.167386993766,0.528226017952,-0.517509996891,-0.928963005543,-0.0507950000465,0.0726799964905,0.476684004068,-1.01190197468,0.669575989246,2.04224491119,-0.568099021912,1.69628596306,0.644079983234,-1.3272190094,-0.755998015404,0.0239199995995,1.02561295033,-0.916594982147,1.42628097534,-0.114302001894,-1.09185600281,-0.0769499987364,0.156933993101,-2.759567976,0.32309499383,-1.16582500935,0.308063000441,0.931065022945,1.64484596252,-1.01818299294,-0.313383996487,0.829441010952,-1.02109003067,1.40923297405,0.0107589997351,-0.743929982185,1.58135902882,-0.00687099993229,0.496219992638,0.294970989227,-0.580114006996,1.24730801582,0.16482399404,-2.8324201107,-2.68248391151,-0.340782999992,0.111527003348,-1.22633004189,-0.721207022667,-1.72058594227,-0.587580025196,0.447302997112,-3.02866101265,2.18809604645,-1.44568097591,0.390179991722,0.929045975208,1.12976002693,0.0662299990654,-0.653360009193,-0.0801040008664,1.08141100407,2.45656299591,0.0704040005803,0.708298027515,-2.02672290802,-0.61773699522,-0.941561996937,-2.54302310944,1.7059930563,0.749988019466,0.789391994476,-2.20186710358,-0.992626011372,-0.356705993414,-1.1988710165,-0.155992001295,0.778155982494,0.136042997241,1.02354300022,0.391003996134,0.450367003679,0.455379992723,-0.00685400003567,-1.35155105591,-1.85231101513,1.5436270237,-1.0235029459,-1.02440702915,-1.30442500114,0.203139007092,-1.23908400536,-0.316504001617,-0.590174019337,1.33123898506,-1.30481004715,-0.494785010815,-2.10413002968,0.325338989496,-0.327114999294,0.678718984127,1.29269099236,-0.818531990051,-0.57722902298,-0.975718975067,-0.473823010921,-1.84104895592,-0.951117992401,2.53559803963,0.138503998518,0.353875011206,0.318973004818,-0.825444996357,1.61142897606,-0.528271019459,0.152013003826,-0.402534008026,0.10733500123,-2.35540103912,-1.74005305767,1.45838999748,0.552447974682,-0.745907008648,-0.173974007368,-0.78741300106,0.289137989283,1.44880998135,1.35511898994,0.996173024178,0.924515008926,-1.22544896603,2.00497603416,-0.649911999702,-1.65961098671,1.28914701939,0.331835001707,-0.15159599483,-0.958675026894,-0.141911998391,-0.348701000214,-1.57021594048,-0.838141977787,0.846167981625,-0.327657997608,0.649896025658,-2.56881904602,-0.188077002764,-1.76996803284,-2.26689600945,1.33644902706,-1.19589698315,-1.27485001087,-1.55149805546,1.99730801582,-1.57301497459,0.634286999702,-0.307164013386,-0.54387897253,0.467918008566,0.0257360003889,1.5084810257,-0.249283999205,-2.2722389698,1.70656895638,1.08219504356,-0.675953984261,2.13902211189,-1.67171704769,0.783581972122,-0.240817993879,-0.773638010025,2.44632005692,2.29708909988,0.571361005306,-0.126895993948,0.937871992588,-0.770433008671,-1.28128004074,1.86798095703,1.48265504837,0.645736992359,-2.69974303246,-0.188534006476,2.70706701279,-0.138572007418,-2.07960009575,-0.427298992872,-0.662240028381,-0.1396510005,-0.28536298871,-2.02715992928,1.39363503456,1.65049695969,-0.0658790022135,-1.30796802044,-1.70810103416,-0.0225639995188,0.366820007563,0.160209998488,-0.21618899703,-0.970288991928,-1.24033105373,0.759651005268,1.81904995441,-1.63943505287,-0.373369991779,-1.52522802353,-2.56299090385,1.27070105076,2.01581597328,1.51417005062,0.541059970856,-0.962484002113,0.908342003822,-0.727864027023,1.95490598679,-0.627606987953,-0.308317005634,-0.275135993958
支承,-0.225407004356,0.137142002583,0.151062995195,0.00280499993823,0.231764003634,0.08157800138,0.287012994289,-0.357571989298,0.18452000618,0.349321007729,-0.292140990496,-0.210445001721,-0.152887001634,0.302017003298,-0.373284012079,-0.282759010792,-0.226631000638,-0.144308999181,-0.160796999931,-0.254803001881,-0.394519001245,0.0637689977884,-0.177007004619,0.150904998183,-0.0688180029392,0.1203270033,-0.013535999693,0.304185003042,-0.215122997761,0.0597979985178,-0.12842400372,-0.269093006849,0.0483039990067,-0.0715999975801,0.134063005447,0.117757998407,-0.0609209984541,-0.236524999142,0.202959001064,0.405665010214,0.431914001703,-0.238003000617,-0.256875008345,-0.273128002882,0.232374995947,0.108537003398,-0.0702499970794,0.161919996142,0.0715110003948,0.242110997438,0.403245985508,-0.24429500103,-0.110468998551,-0.0101269995794,-0.316987007856,0.289678007364,-0.00293199997395,-0.324010014534,-0.0833579972386,0.28409999609,-0.170247003436,0.0752390027046,-0.222232997417,-0.29638299346,-0.385715991259,0.149408996105,-0.208373993635,-0.0749259963632,0.139075994492,-0.0731569975615,-0.336616009474,0.0407910011709,0.101384997368,0.0849199965596,0.0068419999443,0.261418014765,0.0990599989891,0.026562999934,-0.0683640018106,0.194446995854,0.141555994749,-0.0784119963646,0.343277990818,0.0284770000726,0.290455013514,-0.43930798769,0.0613359995186,-0.0602549985051,-0.124173000455,0.0252630002797,0.076130002737,0.511382997036,-0.00794500019401,0.363927990198,0.00535000022501,0.192763000727,-0.114269003272,-0.00109799997881,-0.198212996125,-0.0482699982822,-0.0575359985232,-0.353074014187,0.102268002927,-0.0994959995151,0.0870219990611,-0.104033999145,0.306459009647,-0.0783710032701,0.175665006042,-0.0346370004117,-0.246349006891,-0.562884986401,0.38925999403,-0.408006995916,0.00256199995056,0.0853660032153,0.332688003778,-0.194269001484,-0.128177002072,0.273337990046,-0.0974669978023,0.133527994156,-0.104094997048,-0.208697006106,-0.0377830006182,0.217669993639,-0.312265008688,-0.068452000618,0.20134100318,0.125630006194,0.242905005813,-0.215389996767,-0.358981996775,0.208250001073,-0.111413002014,0.108529999852,-0.2504529953,0.00386200007051,0.119744002819,-0.21068200469,0.129251003265,0.0551600009203,0.00775599991903,-0.0194439999759,0.161726996303,-0.095164000988,-0.105375997722,-0.221578001976,-0.18916900456,-0.0209129992872,0.236706003547,-0.307383000851,0.0988110005856,0.2263019979,0.135119006038,0.0543290004134,0.26056599617,-0.258899986744,-0.221560001373,0.281592011452,-0.0456699989736,-0.114886000752,-0.0738229975104,-0.362937003374,-0.0685629993677,0.151668995619,0.338391005993,-0.242336004972,-0.313437014818,-0.104887001216,-0.267343014479,0.0845220014453,-0.135884001851,0.251462996006,0.335925996304,0.0533530004323,0.197301000357,0.00801800005138,0.26705300808,0.343567997217,-0.104440003633,0.1176360026,-0.1997590065,0.0291700009257,0.17644199729,0.396587014198,0.408654004335,-0.0697100013494,0.0960540026426,-0.085069000721,0.216508999467,0.220612004399,-0.0788550004363,0.251962006092,-0.17242500186,-0.138987004757,0.435954988003,0.0944830030203,0.175962999463,0.0182659998536,0.0277939997613,-0.0274090003222,-0.0518810003996,0.218030005693,-0.508858978748,0.234512999654,0.253737002611,0.101815000176,-0.250970005989,0.339379996061,0.177101999521,-0.38618299365,0.455473989248,0.148837998509,0.394553989172,0.0389619991183,0.00196700007655,0.0146249998361,0.0678590014577,-0.515938997269,0.204711005092,-0.16001200676,0.293531000614,-0.0666590034962,-0.179077997804,-0.358621001244,0.127459004521,-0.0741840004921,-0.035092998296,0.0272940006107,0.29848998785,0.0728000029922,-0.217556998134,-0.229124993086,-0.111164003611,-0.306450009346,-0.428716003895,-0.104675002396,-0.120304003358,0.0983659997582,-0.205013006926,0.284675002098,0.0741219967604,-0.000356000004103,0.0479350015521,-0.0838809981942,0.0201219990849,0.283311992884,-0.208009004593,0.107698999345,-0.347930014133,0.302859008312,0.383760005236,0.163939997554,-0.294299989939,0.358420997858,0.182532995939,0.0448470003903,0.379723012447,0.199630007148,0.0329140014946,0.200214996934,-0.0293339993805,0.0465789996088,-0.0741470009089,-0.398021996021,-0.212669998407,-0.139503002167,-0.11913099885,-0.132817000151,-0.00920499954373,-0.318636000156,-0.0402389988303,0.312642991543,0.0219020005316,0.20381000638,-0.359127014875,-0.215525001287,-0.0340359993279,-0.0616410002112,-0.0849360004067,0.197760000825,0.328179001808,0.27778801322,-0.117178998888,-0.360702991486,0.146434992552,0.0297519993037,-0.243992999196,0.0582089982927,0.144225999713,-0.0952479988337,0.295668005943,-0.322818994522,0.0238409992307,-0.354111999273,0.0397120006382,0.115461997688,0.378019988537,-0.104633003473,0.302684992552,-0.0776749998331,-0.0691630020738,-0.258116006851,0.25146099925,0.291027992964,-0.469002991915,-0.00333900004625,-0.277370989323,0.250916004181,-0.0769789963961,-0.124885998666,0.0746650025249,0.00343500007875,0.204190999269,0.267219007015,-0.268954992294,-0.363220989704,0.0456990003586,0.0232510007918,0.11310300231,-0.329607993364,-0.140613004565,0.00971600040793,0.136317998171,0.187434002757,-0.261442989111,-0.276111990213,0.257241010666,0.139993995428,0.0270799994469,-0.110813997686,-0.293480992317,-0.107518002391,0.093976996839,-0.245634004474,-0.25064599514,-0.0264139994979,0.120283998549,0.0469699986279,-0.0285209994763,-0.0740989968181,-0.124780997634,-0.252887010574,-0.139954000711,-0.000346999993781,-0.0464220009744,0.31863000989,-0.0575309991837,-0.196154996753,-0.420051008463,0.0705420002341,-0.143397003412,0.000380000012228,-0.0933360010386,-0.238745003939,0.516063988209,0.293219000101,0.0298599991947,0.569128990173,-0.391499996185,-0.0679609999061,-0.0455269999802,0.198678001761,-0.123443000019,-0.40585899353,0.126725003123,-0.164360001683,-0.108162999153,-0.0358619987965,-0.526556015015,-0.202365994453,-0.171051993966,0.101126998663,-0.386947989464,0.0748210027814,-0.447802007198,-0.265004992485,-0.242782995105,0.255041986704,-0.236615002155,0.15898899734,0.138037994504,0.170561999083,0.139117002487,-0.309210002422,0.12339399755,-0.182438001037,-0.239456996322,0.0770580023527,-0.133672997355,-0.201156005263,-0.0319840013981,-0.324943006039,0.171198993921,0.0518970005214,-0.0288219992071,-0.150507003069,0.0691239982843,0.157536998391
座椅,-0.908167004585,1.74710702896,2.14265704155,-0.363364994526,1.07706797123,-1.09357202053,2.3818860054,-0.551753997803,1.27295005322,0.810877025127,0.0754840001464,0.832044005394,-0.253468006849,-0.206456005573,-0.0794359967113,-0.926787018776,1.0619020462,0.920457005501,0.855011999607,-2.20037889481,-1.60841405392,-0.0190719999373,-0.86853402853,-0.544640004635,0.784662008286,2.24224901199,-1.13477396965,2.37518191338,0.338526010513,0.775457978249,-0.0909600034356,-0.267783999443,0.322883993387,-0.941776990891,0.980454981327,1.13571798801,-0.646341979504,-1.18460905552,-0.848215997219,0.00803000014275,1.01033997536,-1.5187189579,-1.36276304722,-0.22015799582,-0.0341220013797,0.517578005791,-0.22836099565,-0.00168600003235,0.488916009665,-0.128434002399,0.760740995407,1.17361998558,-0.636839985847,-0.802451014519,-2.62539505959,0.329753994942,0.486707001925,-0.76317602396,-1.00354504585,0.928099989891,-1.63644301891,-0.441560000181,-1.12329494953,-1.71352696419,-0.625597000122,1.80404400826,-0.021044999361,-0.334517985582,0.344972997904,1.63856494427,-0.895784974098,1.58673298359,0.49957498908,1.08317494392,0.501268982887,0.580053985119,-0.512732982635,0.703099012375,-0.0416620001197,1.58000004292,1.83945798874,-2.31287908554,0.859884023666,1.58344900608,1.36073100567,-2.21897292137,-1.95439696312,-0.363745003939,1.02651405334,-0.00490400008857,-0.547164022923,0.714736998081,0.269201993942,2.45090198517,-0.840869009495,1.28095901012,-0.960684001446,0.258688986301,-0.945958018303,0.192407995462,2.29304003716,-0.657334029675,0.462386995554,1.18837094307,-2.39318108559,-1.68947005272,1.99546897411,-0.853178977966,0.238269001245,1.17337405682,-0.171458005905,-2.36660408974,-0.495757013559,0.370734006166,0.661674976349,0.14875100553,0.184249997139,-2.342897892,0.0478169992566,2.31753802299,0.945396006107,-1.49180197716,-0.410133004189,0.5227419734,2.81606793404,-0.313376009464,-1.67770504951,-0.463544994593,0.712504029274,-1.27130496502,0.690469026566,-1.41963505745,-0.61384499073,0.891251027584,-2.12055206299,-1.67307794094,-0.23458699882,0.13567699492,-0.311863005161,-0.194928005338,0.946359992027,-1.17627096176,1.50235497952,1.45155596733,-0.105483002961,-2.00963497162,-0.939499020576,-0.142409995198,0.744844019413,-0.389185994864,0.665886998177,-1.20336401463,0.239133000374,-0.686711013317,1.18637001514,-0.895322978497,0.543206989765,-0.782905995846,-0.658077001572,-0.582610011101,-0.804094970226,-2.242882967,0.346471011639,-1.33800697327,0.580314993858,0.00150200002827,-0.0868899971247,-0.378434985876,-1.99193203449,0.276663988829,-1.35388505459,-1.38967597485,0.321354985237,-0.957184016705,2.78770399094,3.11714100838,1.08612298965,1.29043400288,1.27588701248,-0.104024998844,0.108897998929,-0.00680800015107,-1.2867269516,-0.229184001684,-1.59268498421,0.731108009815,-0.704010009766,1.16657400131,0.823522984982,0.370799005032,2.10971999168,-0.489210009575,-1.01393902302,-0.354889988899,-0.901825010777,0.277408987284,1.67294001579,-0.13163100183,-0.0511809997261,-1.26419997215,-1.22309303284,-1.80493795872,2.18766903877,-1.40463399887,0.960412979126,0.503247976303,-0.662531018257,0.327042996883,-0.324937999249,0.252709001303,1.21964395046,0.396299988031,-0.00399099988863,-0.787149012089,0.921661973,1.62940502167,-0.0172380004078,-0.197123005986,1.83354699612,-1.67756795883,1.37053394318,-0.0738150030375,0.825118005276,0.236801996827,0.881781995296,0.798255980015,1.08548605442,-0.593267977238,0.289034992456,-0.278447002172,-1.54246604443,0.0986389964819,0.690715014935,-0.840619981289,0.696645021439,-0.490316003561,-1.00430095196,-0.100787997246,0.455770999193,-0.835870027542,0.0670650005341,-0.103973001242,0.259719014168,1.46602201462,0.0354080013931,0.124958999455,0.399044007063,-0.820636987686,0.871978998184,0.433041989803,-1.5765119791,0.675015985966,1.85934698582,0.374635010958,0.93275898695,-0.434156000614,-0.04118200019,0.811743974686,2.43881297112,0.264541000128,0.601298987865,-0.468198001385,-0.725816011429,0.0397379994392,-0.188499003649,-3.18699097633,-0.225905001163,-0.533577978611,-2.0858631134,-0.650774002075,0.0792220011353,-2.35383605957,-0.130611002445,-0.385964006186,0.294909000397,0.869584023952,0.271580010653,0.241868004203,1.01682794094,0.445603996515,0.515654027462,1.61621201038,0.270471990108,-1.3931030035,-0.470331996679,-0.862002015114,0.736517012119,0.23120200634,0.847525000572,0.491793006659,-0.100634999573,1.98033797741,-0.226594999433,-0.423025995493,0.344457000494,-0.680517971516,0.144682005048,0.297392010689,0.888350009918,1.60576796532,0.465815007687,-0.807485997677,0.557340025902,-1.48318600655,1.59620201588,1.78253495693,-1.1207369566,-1.67008602619,-0.259514003992,1.03345799446,-2.20243191719,-0.79863101244,-0.0436189994216,-0.480078995228,-0.800527989864,1.58400201797,0.722979009151,0.110012002289,0.16632899642,0.906940996647,0.360462009907,0.881371974945,0.526584029198,-0.676244020462,0.485190987587,-0.353300005198,0.474312007427,-0.135279998183,0.202978000045,-0.164070993662,1.88899505138,0.373528003693,-1.12686300278,0.649084985256,-0.0494190007448,1.02516496181,-0.292508006096,1.78479301929,1.53290402889,0.377425998449,-1.94920504093,-0.262843996286,0.34012401104,0.308228999376,0.0492310002446,-0.0824100002646,-0.690652012825,0.614359974861,0.741369009018,-0.28848901391,0.117838002741,1.14832305908,-0.534869015217,0.247745007277,1.49612402916,0.680581986904,-0.471870988607,0.478024989367,0.545490980148,2.22150993347,-0.495029002428,-0.721180975437,-0.305029988289,0.0633289963007,-0.523223996162,-0.791029989719,1.38744997978,-2.1463971138,-0.752007007599,-0.110895998776,-0.300500005484,0.45047301054,1.57479798794,-0.431971013546,-1.49414896965,-0.695873022079,-1.04082500935,0.540154993534,-1.57091403008,2.22236394882,-0.812745988369,-0.952105998993,3.11507606506,1.18576598167,1.26236104965,-0.198004007339,-0.386388987303,-1.74365401268,-0.0228029992431,1.53211700916,-0.66194498539,1.0589350462,0.700616002083,-1.16167294979,1.30640900135,-0.328316003084,-1.8365470171,2.33638191223,2.09683299065,0.748265028
车辆,-1.22170698643,0.40252700448,1.76000094414,1.31590998173,0.0624129995704,1.68796205521,0.820315003395,-0.181292995811,1.5454980135,0.450466990471,-0.679275989532,0.732796013355,-1.40325200558,1.22540700436,0.73015999794,0.353431999683,-1.78323698044,-2.10352706909,2.39379405975,-1.43667495251,0.127608001232,-1.24063098431,-0.963186979294,-1.07081902027,0.760008990765,0.412072986364,-2.16988396645,0.533544003963,-1.65400397778,1.97462201118,-0.19486400485,-1.5894010067,-1.94733500481,0.667979001999,-0.866056978703,1.37707698345,2.03237605095,-0.910183012486,-2.30883002281,0.88733702898,-0.705379009247,-0.0619419999421,-1.48568201065,1.08094000816,0.210638001561,1.08513605595,-1.13516795635,0.578274011612,-0.934804022312,0.875571012497,0.625759005547,-0.723560988903,-0.609717011452,-0.534116029739,-1.03908002377,2.27695894241,-1.82092297077,-1.33651804924,-1.41119205952,1.25262403488,0.18323199451,-0.804211974144,-0.904688000679,-2.00904202461,-0.219009995461,2.04133796692,-2.25539708138,-1.68596994877,0.937336981297,-1.8654910326,-1.05938696861,-0.129574000835,0.332715988159,0.920747995377,0.267450004816,0.868830025196,1.79321599007,0.340112000704,-1.30863702297,0.768000006676,0.347568005323,-3.33919692039,0.953315973282,0.414196014404,-0.817698001862,0.185711994767,-1.79904699326,-1.20338094234,2.11189389229,-1.23968303204,0.765895009041,0.748435020447,-1.42326295376,1.02551698685,-0.617631018162,0.298604011536,-0.900942981243,0.694090008736,-0.559230983257,2.2516849041,0.755114972591,1.19624400139,-0.607734978199,0.141113996506,-1.67858099937,-1.5229049921,1.54865396023,-2.27912902832,0.581054985523,0.247817993164,0.173653006554,-0.737205982208,-2.17022299767,0.257367014885,1.64330005646,1.95713305473,0.23164999485,-1.79600703716,-1.31465899944,0.534416973591,-0.0417939983308,-0.66981202364,1.14639496803,-1.34561705589,0.547100007534,0.111773997545,-1.10513901711,-1.23125600815,0.230572998524,-1.30696499348,-0.326193004847,-2.88387203217,-1.57615995407,0.962503015995,-0.468863010406,-2.0241189003,-1.20255696774,0.931501984596,-0.397693008184,0.380917012691,3.73651599884,0.332127004862,-0.698666989803,0.140584006906,0.782248020172,-0.90671902895,-1.30896794796,-0.411545991898,-0.869893014431,1.07103705406,2.08907008171,-0.114716999233,-2.30660104752,-0.132293999195,0.271735012531,-0.745963990688,0.967697024345,0.404561012983,-0.451646000147,-0.515514016151,2.42663407326,0.0267750006169,-0.0842309966683,-1.55235505104,-2.57010889053,0.584291994572,-1.63589596748,-0.279125988483,0.514382004738,-0.613967001438,0.851957023144,-0.986003994942,1.14904594421,1.76085400581,1.13186502457,1.2998919487,-0.0340769998729,-0.0511169992387,-0.237471997738,0.424225986004,1.38192999363,1.21960902214,-0.247008994222,-0.168015003204,1.4341340065,1.75089395046,4.80000016978e-05,0.308310002089,-0.104341998696,-1.59481203556,-1.85867905617,1.05123996735,-0.837221026421,0.287663012743,-0.972540974617,1.64143395424,1.78187298775,-1.27244198322,1.59712696075,-0.122433997691,1.0709400177,-0.341035991907,-0.532489001751,-0.138465002179,1.07609605789,0.542952001095,-0.14930100739,0.436098992825,0.283307999372,-0.126953005791,-0.493624001741,0.472128987312,-0.870323002338,-0.567927002907,-0.266416013241,1.17770004272,-3.41066598892,-1.12644100189,0.141901001334,-1.51661801338,0.976612985134,-0.920985996723,1.45275604725,-0.376540988684,-0.260609000921,3.07641792297,0.154888004065,0.602625012398,3.96161603928,-1.22353804111,-0.986706972122,0.0994189977646,-0.173244997859,-1.77206802368,2.35775303841,-0.6229839921,1.18065500259,-1.75748300552,0.273245990276,-1.77536594868,-1.34163498878,1.03495895863,1.23550796509,0.722133994102,0.31263500452,-0.358309000731,0.628071010113,-1.63934695721,-0.107943996787,1.73462295532,0.727876007557,0.890208005905,-0.18521399796,0.488819003105,0.839460015297,0.469716995955,-1.09599304199,-0.0629409998655,2.40366601944,1.09276199341,0.511874973774,2.15436005592,0.629339993,0.201415002346,-1.31763505936,-1.68028402328,-0.642328977585,0.351121991873,-1.5652179718,-0.34520599246,-1.12769496441,-0.928754985332,-2.35054802895,1.38847994804,-0.851601004601,0.674070000648,0.115414001048,1.28990805149,-0.556096017361,1.45849001408,0.878700017929,0.977729976177,0.856706976891,-1.10388600826,-2.31577801704,-0.33768299222,-0.468035012484,1.84696900845,-0.322968989611,-0.0321759991348,0.667379021645,1.17729794979,0.0786510035396,-1.51488101482,1.19525003433,-1.29082596302,2.22902798653,-1.44311201572,0.20364099741,-0.709201991558,-0.908814013004,0.304980009794,-2.38825106621,-0.985040009022,0.53606402874,1.51065003872,-2.22043204308,-1.50455498695,-1.10472500324,-1.10570394993,-0.588522970676,-0.838885009289,1.33052003384,-0.318100005388,-1.33144104481,-1.0565199852,-0.247924998403,-0.974896013737,0.455799013376,-0.561196029186,-0.118156000972,2.28373289108,0.0954829975963,0.851082026958,-0.381415009499,0.432390987873,-0.405862987041,0.271759003401,0.388543009758,-0.574907004833,1.89564597607,0.648118019104,0.203584000468,-0.282404005527,0.517152011395,-0.587947010994,1.04943501949,0.285291999578,0.0540009997785,-1.60588502884,-1.57982897758,-1.41680800915,1.21631705761,-0.862047016621,1.19202303886,-2.46437096596,0.0241390001029,-0.00243999995291,0.532644987106,-1.70204997063,0.592055976391,-1.52358698845,-0.409606009722,-1.02798700333,-1.23600697517,0.0754560008645,0.988305985928,0.0544270016253,1.84341096878,1.28992903233,-0.0323599986732,-1.47302496433,-1.59719800949,-0.00847299955785,0.131009995937,-0.625483989716,0.197317004204,-1.60739302635,-2.33507490158,-0.642289996147,0.0218240004033,-0.135453000665,0.10261400044,-2.90187311172,0.45448499918,1.05259001255,-2.60490393639,-1.08782100677,-2.60753488541,2.39500188828,-2.38422489166,1.70553600788,2.13071107864,-2.02652192116,0.968012988567,-1.13405299187,-1.49502801895,0.0994869992137,-1.30994403362,3.17224001884,-0.459266990423,0.0939700007439,0.284188985825,-1.04577696323,1.34702694416,-0.874800026417,-1.07393801212,-0.772629022598,0.809557974339,-1.46578204632
包围,0.247312992811,0.816572010517,-0.515824973583,-0.115734003484,1.06728196144,-0.603184998035,1.47233903408,-1.22308397293,2.20895195007,-0.188093006611,-1.06756794453,-0.959150016308,-1.72027695179,0.396245986223,-0.40358299017,0.906751990318,0.324613004923,0.726894021034,0.723125994205,0.106085002422,-1.55378699303,1.28165400028,-1.29027199745,-1.04107797146,0.483963996172,1.75533902645,-1.4901920557,0.240902006626,0.164830997586,2.75009202957,-1.17098701,-0.618959009647,0.00436200015247,2.11764001846,0.143472000957,-0.206783995032,0.268058001995,-0.892709970474,0.387300997972,1.48636198044,-0.715660989285,1.02376198769,-0.45814499259,0.194003000855,-0.0239720009267,0.0974999964237,-0.420711010695,1.35331499577,0.135819002986,-0.116259001195,-2.08867907524,0.196149006486,-0.358884006739,0.82779699564,-0.689145982265,0.226715996861,-0.393691003323,-0.265181988478,0.0168680008501,0.998404026031,0.732052981853,-0.265718996525,-1.03313302994,-0.662118017673,0.0152860004455,-0.443385004997,-1.94338297844,-0.0921930000186,-0.273764997721,1.04786801338,1.67302596569,-2.07004308701,-0.134565994143,1.39224898815,1.78903603554,-0.39383199811,0.435656011105,-0.26277500391,-1.00722503662,0.0499430000782,1.5330350399,0.669745981693,0.997886002064,0.418231010437,1.08945703506,1.10715305805,0.0756499990821,0.922694981098,-0.170789003372,0.299273997545,0.537047028542,0.327286988497,1.17397105694,-0.550446987152,0.286648005247,-0.645079016685,0.336733996868,-0.348062992096,2.01064109802,0.421079993248,0.548412978649,-1.49243795872,2.47692394257,-0.273050993681,-2.9778649807,-1.64909398556,-1.0586220026,-0.832925975323,-1.39403796196,0.319976985455,-0.205836996436,-0.492186993361,-0.848497986794,-2.16763806343,1.68784701824,-0.285522013903,1.78708994389,-0.174233004451,-1.65029597282,0.647879004478,-1.72459602356,1.09610998631,1.58097696304,-0.339078992605,0.567205011845,-0.358765989542,1.38765203953,0.481871008873,-0.331723988056,-0.543820977211,-0.900291979313,-0.248705998063,-0.786503016949,0.475878000259,0.411123991013,1.20124101639,-1.50241005421,0.716723978519,-0.773283004761,0.0364160016179,0.64768999815,2.11576604843,-0.491163998842,-1.11239898205,0.314056992531,-1.97607302666,1.14704501629,0.734915018082,-0.958335995674,-1.69639503956,-1.77368497849,-1.20320904255,-1.5108679533,1.69444394112,0.647729992867,0.136570006609,-0.931815028191,-0.413852006197,0.763485014439,0.875829994678,0.420304000378,0.813481986523,0.428115993738,-1.33738803864,0.274241000414,-0.968666017056,0.928461015224,-0.461634993553,1.46530997753,0.76684898138,1.87002396584,1.88713300228,-0.219668999314,0.354788988829,2.18244600296,-0.36758300662,0.17895899713,-1.10786902905,0.504320979118,2.17909407616,0.198274001479,1.46484696865,0.393532007933,-0.375349998474,-1.37827801704,2.36827802658,1.17295897007,-0.485489010811,1.52089595795,-0.279821008444,0.777915000916,1.43127405643,2.60258889198,-0.126885995269,0.0229780003428,0.0482989996672,1.31993305683,0.718227028847,1.0793620348,-0.658317029476,-1.26249599457,1.28791105747,-0.759383022785,0.0206199996173,0.275752007961,-0.640430986881,1.68637800217,-1.44481801987,-1.13611996174,1.05147695541,-1.00031399727,-1.34782004356,0.792783021927,1.63282501698,1.46969401836,-0.0758860036731,0.787425994873,-0.731867015362,0.312162995338,-0.736826002598,1.25107395649,-0.848132014275,0.170922994614,0.135709002614,-1.59314501286,-0.486687004566,1.62017095089,-3.87431788445,-2.39191794395,-1.25320994854,1.97398197651,-0.264158010483,-0.691739022732,-0.404101997614,1.05133199692,0.749121010303,2.47930598259,-0.0826279968023,-0.295516014099,2.2583489418,-0.541796028614,-2.45334911346,2.48100209236,0.124476999044,0.453570008278,1.03450405598,0.809221982956,1.05457997322,0.575308024883,0.585551023483,1.52116000652,1.37760198116,0.0237099993974,-1.02604603767,-2.07624793053,0.430229991674,-0.370178997517,-0.291000008583,-0.933173000813,2.3321158886,0.63032501936,0.597262978554,0.0519150011241,0.940448999405,-0.481981009245,-1.02949595451,1.83974599838,-2.01958703995,0.841696977615,0.272229999304,-0.467516005039,1.67617201805,0.309408009052,-0.554660975933,-0.994271993637,0.833396017551,0.528724014759,-0.576291024685,1.47923696041,0.563347995281,1.43917894363,1.05014300346,0.391620010138,1.66544401646,1.02467298508,0.285782009363,-0.181402996182,-0.237428992987,0.882669985294,-0.883381009102,-1.35561597347,0.198580995202,0.182523995638,-1.53099298477,1.402099967,-0.244427993894,0.907199978828,-0.784421980381,0.314020991325,0.169514998794,-0.301863998175,0.070391997695,-1.53349602222,-0.0673979967833,-1.3360619545,-0.770053982735,1.02710604668,-0.934081017971,0.296465009451,0.644918978214,-1.22006094456,-1.50289094448,0.081234999001,-0.0894799977541,-0.944126009941,0.664856016636,-0.394551992416,-0.677293002605,0.460399001837,-1.80220103264,1.02386295795,-0.422767996788,-1.10825204849,0.0608800016344,-0.43545499444,-1.60441994667,0.24863499403,-1.59297001362,-0.239421993494,0.81631398201,-1.97559595108,0.998696982861,2.64719390869,2.17375588417,1.91844797134,-0.174386993051,1.33868205547,1.42239999771,-0.947566986084,1.70733201504,0.659888982773,-0.827740013599,0.282209992409,1.10559201241,-0.871860980988,-1.50470399857,-0.631787002087,-0.338925987482,-0.802429020405,-1.30102002621,-0.874301016331,0.989081978798,0.55710798502,-0.831088006496,2.56597805023,-1.54218304157,-0.463903993368,1.2943199873,-2.06694507599,0.392681002617,0.0859590023756,-0.445917993784,0.0688060000539,0.427148014307,2.73692989349,-1.18311595917,-2.61347389221,0.514177978039,-0.622762978077,-0.444516003132,-0.357638001442,1.04475402832,-3.36790299416,0.929410994053,-1.04124605656,-0.132319003344,-0.138054996729,0.354292988777,-0.212810993195,-0.274621993303,-1.32273602486,1.63737905025,-0.607904016972,1.81510794163,1.12385797501,0.808987975121,-1.26368296146,-0.130417004228,-1.40473198891,0.612793982029,0.734681010246,1.4228990078,1.6094969511,-1.04598200321,1.42532503605,-0.651575028896,-0.438187986612,0.0129049997777,-1.46042704582,0.265682011843
结构,-2.42835688591,1.7971559763,2.61451196671,-0.405829995871,2.17393493652,-0.321936994791,0.599795997143,-1.6702170372,0.377995014191,1.32747805119,-0.698747992516,0.107716999948,-1.2962770462,-0.435034990311,-0.697408974171,-0.431928992271,-1.14078295231,-1.79297494888,-0.347088009119,-1.0648560524,-0.0272519998252,-0.348084002733,0.0713900029659,0.646709024906,0.356077998877,1.45579099655,0.0667740032077,0.444025009871,-1.58606505394,1.22058200836,0.335258990526,-0.40721398592,-0.804570972919,0.456571996212,2.48971891403,-0.823823988438,-1.12971305847,-0.797637999058,-0.203920006752,-0.013582999818,0.679803013802,-0.214080005884,-0.840386986732,-0.41413500905,-0.293336004019,0.754859983921,-0.0514659993351,-2.13663601875,0.494320005178,-0.0538850016892,0.6842020154,-2.46908688545,1.10233700275,0.952587008476,-2.30595588684,1.11290097237,2.02344608307,0.438356995583,-1.39987003803,-0.182514995337,-0.450379997492,0.0237639993429,-0.368209987879,-0.328025013208,-1.57064700127,-1.79748702049,-2.31033396721,0.346033006907,1.13598299026,-0.760568022728,-0.465052008629,-0.399563997984,0.039404001087,1.92485797405,0.0876350030303,0.851423978806,1.01924204826,1.3123049736,-0.113711997867,0.701288998127,-1.19265794754,-2.56626605988,2.31007003784,0.661682009697,0.421148985624,1.2742279768,0.0248840004206,-1.32038199902,0.58992099762,-0.333449989557,0.536536991596,-0.485269010067,1.33403003216,-0.0436760000885,-0.142753005028,-0.72549200058,1.05154502392,-0.71778601408,-1.73489403725,0.535354018211,0.774892985821,-1.31073999405,0.536015987396,2.52102589607,-0.759218990803,-1.68054997921,1.90713405609,0.199277997017,0.386393994093,-1.87719595432,0.292881011963,-0.944337010384,0.661970019341,-0.555262029171,-0.122725002468,1.71340095997,0.952589988708,-1.21913504601,0.654906988144,1.04714095592,-0.816075026989,0.217647001147,1.27047395706,-2.02440810204,-1.39815497398,1.98313701153,-2.10503697395,-1.28587496281,1.67091298103,-0.680275022984,1.85187995434,-1.30558300018,-1.05832695961,0.310032010078,-0.534047007561,-1.78436899185,-0.407829999924,-0.112021997571,0.509638011456,-0.646955013275,2.39430999756,-0.882884025574,-0.654862999916,0.297320991755,0.647177994251,-0.104299001396,0.288049995899,0.303568005562,-0.216251000762,-0.51570802927,1.27024495602,-0.164730995893,-0.1211130023,0.454223006964,0.700429022312,1.54730904102,0.076861999929,0.11538399756,0.488575011492,2.52634000778,0.388453990221,-2.94801998138,0.348791003227,-1.86394703388,0.0980419963598,0.378641992807,-0.169044002891,-0.511548995972,-0.201734006405,0.581014990807,-0.0644309967756,-0.380407989025,0.723946988583,1.8931620121,0.761200010777,-0.317476987839,2.50127100945,1.52624797821,0.392500013113,1.63957798481,-0.178802996874,0.744632005692,0.875329017639,-0.504697024822,0.303490012884,1.09529304504,0.735707998276,-0.0271029993892,0.0549569986761,-0.327495992184,0.575838983059,-2.58888196945,1.54976701736,-0.1363620013,-0.121428996325,-0.464590013027,-0.446790009737,-0.330303013325,0.424448013306,-0.00610700016841,0.43192499876,1.41717505455,-0.832759022713,0.352721989155,-0.615989983082,1.49029898643,0.383891999722,0.614965975285,-0.707837998867,1.41202199459,-0.92421901226,-0.256274998188,1.14748001099,0.745069980621,1.0858540535,-1.14205694199,-0.908937990665,-0.391434013844,0.819562017918,-0.847102999687,0.139369994402,-0.0678799971938,1.31541705132,0.308447003365,-1.08625495434,-1.77766799927,-0.769470989704,-1.32678496838,-0.0862239971757,-0.575662016869,0.974083006382,-0.338093012571,0.290215998888,-0.230393007398,0.886793971062,-1.80847895145,-1.15656495094,-1.37339401245,1.05906605721,0.77088701725,0.951988995075,0.114508002996,-0.567654013634,1.66992795467,-0.758619010448,-0.621187984943,0.123896002769,0.444193005562,1.92571496964,-0.024244999513,-0.377517014742,1.02322900295,0.668663978577,-0.30887401104,-0.889585018158,0.691300988197,0.241087004542,-1.6612919569,2.25962400436,0.687561988831,1.12548398972,-0.0935650020838,0.00560100004077,1.2732219696,-0.149283006787,-0.324656009674,-1.12614798546,-0.144178003073,0.226665005088,-0.194169998169,-1.01255202293,-0.14130499959,-0.777918994427,2.17765188217,-2.65007805824,1.44175994396,-1.808604002,0.369639009237,0.467278003693,-1.36250495911,-0.68806797266,0.196605995297,0.236186996102,0.598609983921,-0.922173976898,0.573428988457,1.14671599865,-1.9857929945,-1.06248104572,0.0806490033865,0.17646099627,0.351292014122,-1.12906002998,-0.745510995388,-0.308097988367,-0.710385024548,0.404154986143,0.473174005747,0.3921880126,-1.13608300686,0.0160590000451,0.975856006145,-0.303501009941,-0.640564024448,0.668151974678,0.719110012054,-0.531316995621,-0.356837004423,-1.12821602821,-0.192860007286,-0.0993020012975,-1.17675900459,0.0683329999447,0.153469994664,0.751115977764,2.16758608818,-1.39037895203,-0.215825006366,0.547070980072,-0.090815000236,0.721624016762,-0.524070978165,-0.725346028805,-1.1400680542,0.421011000872,0.504842996597,-0.462754011154,-1.51936101913,0.092565998435,-1.67402994633,-0.73409897089,1.32639694214,1.04209601879,-0.156059995294,1.36061501503,0.591257989407,-0.461564004421,0.250575989485,-0.970574975014,0.192730993032,-0.106856003404,0.0996949970722,-0.0411860011518,-0.808879971504,-0.161006003618,1.85442101955,-2.09496498108,0.563489973545,0.578660011292,-1.11644804478,-0.300446003675,-1.82167303562,-1.02085995674,-0.77049601078,-0.248379006982,-1.26760494709,0.528766989708,1.20807802677,-1.78280699253,1.78174197674,0.110579997301,0.730836987495,-0.315486997366,1.6776150465,-0.535517990589,-2.9949669838,-1.32596695423,-0.80393499136,-0.0058410000056,-1.53379702568,-1.4695520401,-1.39049196243,-0.62253600359,0.373198002577,-1.36657094955,-0.0270370002836,0.0366810001433,0.147683992982,-1.53023004532,-0.968986988068,0.345452010632,1.12413597107,-1.18701696396,1.05708396435,2.07362294197,-0.883588016033,0.533590018749,-1.2218760252,-0.0787260010839,0.0395909994841,0.596129000187,0.466394007206,-0.248511999846,-0.142681002617,-0.397166013718,0.765344023705,0.94425702095,0.421954989433,1.59098303318,0.697004020214
头枕,-0.171599000692,0.240578994155,0.161494001746,0.00253800000064,0.336169987917,-0.109200000763,0.140844002366,0.0473310016096,0.196703001857,0.209782004356,-0.150635004044,0.187884002924,-0.128383994102,0.192580997944,-0.116890996695,-0.136427000165,-0.0170019995421,0.131272003055,0.103285998106,-0.18666100502,-0.297340989113,-0.0147080002353,-0.123519003391,-0.155357003212,-0.0613700002432,0.242272004485,-0.159733995795,0.362821996212,-0.0202149990946,0.0274069998413,-0.0379009991884,-0.0462259985507,0.0891479998827,-0.0659150034189,0.0846489965916,0.181251004338,-0.044376000762,-0.215444996953,0.0235779993236,0.0877230018377,0.181462004781,-0.243575006723,-0.133059993386,0.0175529997796,0.172894001007,0.00125199998729,0.131825000048,0.196649000049,-0.0159670002759,0.243367001414,0.27330198884,0.191125005484,-0.0989079996943,-0.0780439972878,-0.22670699656,0.190157994628,0.0683410018682,-0.190275996923,-0.177246004343,0.164139002562,-0.274553000927,0.0684510022402,-0.0208620000631,-0.215586006641,-0.406825006008,0.270413011312,-0.107629999518,-0.2382619977,0.190081998706,-0.0420750007033,-0.122074000537,0.139291003346,0.02933299914,0.0457439981401,0.168669000268,0.00896800030023,-0.0265420004725,0.053194001317,-0.0359870009124,0.383424013853,0.148912996054,-0.133406996727,0.184190005064,0.0818020030856,0.184193000197,-0.224867999554,-0.12493699789,0.0884459987283,-0.0370029993355,-0.0260669998825,0.0933699980378,0.114321999252,-0.00666800001636,0.34018099308,-0.00657999981195,0.0282150004059,-0.0669749975204,0.0419909991324,0.0115780001506,0.0256340000778,0.383473008871,-0.170248001814,0.0364560000598,0.0117220003158,-0.210456997156,-0.0451540015638,0.231016993523,-0.244001999497,0.230155006051,0.218487992883,0.036740001291,-0.317436993122,0.112504996359,0.00674299988896,0.0504640005529,0.160561993718,0.092675998807,-0.483597010374,0.0570340007544,0.450462013483,-0.0333070009947,-0.379234999418,-0.0633279979229,-0.094117000699,0.391809999943,0.0925349965692,-0.19181099534,-0.0117199998349,0.12603199482,-0.115429997444,0.018946999684,-0.240364998579,-0.218227997422,-0.0049379998818,-0.0942900031805,-0.124490000308,0.148356005549,-0.143922001123,0.011487999931,0.00151099998038,0.210738003254,-0.225507006049,0.151855006814,-0.0843769982457,0.221395999193,-0.12128700316,-0.0614139996469,0.029749000445,0.00447699986398,0.085858002305,-0.0868109986186,-0.147826999426,0.188436999917,-0.0539489984512,0.328911989927,-0.158105000854,0.0685900002718,-0.12609000504,-0.415836006403,-0.110811002553,-0.186897993088,-0.251908987761,-0.0423489995301,-0.217648997903,-0.0539419986308,0.0580330006778,0.0993790030479,-0.131283000112,-0.200996994972,0.086157001555,-0.234617993236,-0.138172000647,-0.00345600000583,-0.0995400026441,0.350275993347,0.321384996176,0.155924007297,0.0562460012734,0.398649007082,0.177006006241,-0.0910610035062,0.166520997882,-0.220265001059,-0.0654679983854,-0.159237995744,0.118231996894,0.15285000205,0.0743609964848,0.0597230009735,0.214435994625,0.232896000147,0.116700001061,-0.210939005017,0.00104300002567,-0.077936001122,-0.0443659983575,0.0807629972696,-0.191957995296,0.0953980013728,-0.215141996741,-0.089493997395,-0.187362998724,0.185734003782,-0.142305999994,-0.0101950000972,0.163982003927,0.0645010024309,0.0991320014,-0.0418110005558,0.0631380006671,0.085772998631,-0.0622269995511,-0.0369520001113,-0.0222260002047,0.176158994436,-0.0490910001099,0.151439994574,-0.0129669997841,0.119407996535,-0.327169001102,0.122382998466,-0.0247159991413,0.1230949983,0.0890540033579,0.239426001906,0.097769998014,0.22769099474,-0.181517004967,-0.0185829997063,0.0531210005283,-0.240574002266,0.0620790012181,0.0569740012288,-0.191381007433,0.0134789999574,-0.207361996174,-0.307900011539,0.0489309988916,0.0999779999256,0.00210899999365,-0.0980769991875,0.0665830001235,0.19628700614,0.388720005751,-0.152105003595,0.00961800012738,0.135545000434,0.0850289985538,-0.0662029981613,0.0375530011952,-0.281358987093,0.106780000031,0.269320011139,0.0998219996691,-0.122051000595,0.0168120004237,-0.0957110002637,0.112044997513,0.385437011719,0.104253001511,-0.230880007148,-0.0518019981682,-0.0260949991643,0.00843400042504,0.133561000228,-0.433221012354,0.138159006834,0.0646290034056,-0.223747998476,0.0723360031843,0.0407459996641,-0.237169995904,0.111561000347,0.00396700017154,0.0115550002083,-0.000992999994196,-0.060433998704,-0.092243000865,-0.0223699994385,-0.225997000933,0.239406004548,0.251964002848,0.131946995854,0.257438004017,-0.144234001637,-0.164097994566,0.130430996418,0.0525729991496,0.103239998221,0.0140699995682,-0.00653399992734,0.280889004469,-0.165169999003,-0.0914580002427,-0.145146995783,-0.111904002726,0.0893659964204,-0.0630690008402,0.255279004574,-0.0988999977708,-0.0258140005171,-0.0536810010672,0.0872659981251,-0.0944589972496,0.139474004507,0.199202001095,-0.327060997486,-0.29534599185,-0.127119004726,0.229422003031,-0.290499001741,-0.104541003704,0.107955999672,0.0475739985704,-0.105953000486,0.301429003477,0.0333099998534,-0.0135690001771,0.110762998462,0.0773650035262,0.0789220035076,0.169045999646,0.00639100000262,-0.0295930001885,0.0774450004101,0.101594001055,-0.000804000010248,0.17511099577,0.025891000405,0.0650790035725,0.309572011232,0.0188710000366,-0.0544210001826,0.0211529992521,-0.0515320003033,0.0235840007663,0.175978004932,0.227001994848,0.0685760006309,0.224451005459,-0.104391999543,0.0261850003153,-0.0485720001161,0.0123129999265,0.0791729986668,0.00878799986094,-0.0962970033288,-0.00742000015453,0.068815998733,-0.0627869963646,-0.0909570008516,0.140589997172,-0.349693000317,-0.0306010004133,-0.101239003241,0.190739005804,0.1524399966,0.0675759986043,0.00549799995497,0.2137439996,-0.150337994099,0.17070800066,0.0116079999134,-0.112071998417,-0.0288600008935,-0.268399000168,0.176394999027,-0.199300006032,-0.327282011509,-0.132441997528,-0.241686999798,0.0820939987898,-0.0384970009327,-0.0572919994593,-0.159144997597,-0.00502299983054,-0.174448996782,-1.49999996211e-05,-0.202891007066,0.144830003381,-0.353264003992,-0.104096002877,0.301301985979,0.288628995419,-0.0491469986737,-0.303732991219,0.0594259984791,-0.200864002109,0.00324300001375,-0.0205220002681,-0.0561829991639,0.0345899984241,0.0638270005584,-0.117932997644,0.314949005842,0.0735360011458,-0.122373998165,0.151998996735,0.294102013111,0.0223810002208
间隔,-1.74942302704,0.809269011021,0.331247001886,0.513162016869,0.221111997962,0.611748993397,1.3716930151,-0.280137985945,1.55651700497,-1.46057701111,0.0638360008597,0.136254996061,-0.768594026566,-1.33284902573,-0.566128015518,0.931815028191,-0.331402003765,-0.644017994404,1.2326849699,-1.77687394619,-0.208863005042,0.999144971371,-1.53718495369,-0.802399992943,0.867913007736,1.42040503025,0.581821978092,0.15091599524,-1.36090898514,0.385628014803,0.323161005974,-0.662651002407,0.267401009798,1.65468800068,1.41603302956,0.207912996411,0.809790015221,-0.978671014309,-0.00388299999759,-0.0756990015507,-0.203106999397,1.40163195133,-1.48118197918,-0.987139999866,0.679282009602,-0.621262013912,1.51969301701,-0.000165999997989,0.363173991442,1.26702702045,-0.92619997263,0.0831660032272,-1.17442405224,0.682475984097,-0.404844999313,-0.415214985609,0.747097015381,-1.57904005051,-1.39752697945,-1.17331802845,-0.207068994641,0.0870750024915,-0.0859730020165,-0.538209021091,-0.779402971268,0.549816012383,-0.589174985886,0.0681710019708,1.08619403839,-1.09380197525,-0.977728009224,-1.47243201733,0.0626100003719,1.53806400299,0.358880013227,0.0824970006943,1.09282302856,0.537039995193,-0.880711019039,3.42296290398,2.06133794785,-1.68955898285,-1.0450810194,-0.683502018452,1.18363702297,-1.31938397884,0.958027005196,-0.642934978008,1.59647095203,0.234294995666,1.15459704399,0.238848000765,0.188729003072,-0.201001003385,0.21012699604,0.412241011858,0.68094098568,1.83431005478,-0.598110020161,-0.0469329990447,-0.0279099997133,-0.512319028378,-0.78449600935,0.665902018547,-0.417477011681,-1.01957297325,1.34196996689,-0.607526004314,-1.23421895504,-0.514729976654,0.237239003181,-0.459751993418,-0.750481009483,-1.88416099548,0.134185999632,1.61180400848,1.10291194916,-0.193391993642,-0.967648983002,0.45277300477,0.124857001007,-1.84963095188,0.102576002479,-0.420105010271,0.803942978382,-0.202471002936,-0.261159002781,0.537319004536,0.339266002178,-1.56627702713,0.174343004823,0.784789025784,0.32630699873,-0.791415989399,-0.731680989265,-0.272662997246,-0.625262975693,1.68309998512,1.5470379591,-0.0860499963164,1.121950984,0.0781679973006,-0.78275001049,0.0167139992118,-0.617170989513,-0.703620970249,-0.473125010729,0.590622007847,-0.537226974964,-2.25527000427,2.40501308441,0.120793998241,0.13358399272,0.846356987953,0.0486730001867,-0.0346900001168,0.265100002289,-0.259611010551,0.237932994962,0.185129001737,-0.480349004269,-1.23617005348,0.647912025452,-3.23571300507,0.737506985664,0.562940001488,1.30077505112,-0.00735400011763,-0.948433995247,-0.880429983139,-0.230232000351,1.02492594719,0.85187202692,-0.659403026104,1.07243204117,0.153781995177,1.45301103592,-0.814921021461,0.135527998209,1.00197100639,-1.19534194469,0.079264998436,0.502220988274,0.127655997872,-0.457599014044,-1.00382196903,0.373263001442,0.957183003426,0.363038003445,1.06339097023,1.83697903156,-0.246591001749,0.507077991962,-1.25378298759,0.248279005289,0.930204987526,0.388363003731,-0.573849976063,0.402379989624,0.980970025063,1.44111001492,0.055367000401,-0.354916989803,1.79778802395,1.07110702991,-0.211796998978,-0.722920000553,0.683064997196,0.0931920036674,1.9196460247,-0.394012987614,-1.85944902897,0.183491006494,-0.227245002985,0.425482988358,0.440064013004,0.135125994682,-0.622673988342,-0.841889023781,-0.945442020893,1.03057396412,0.318879008293,0.326025992632,0.280467987061,0.476126998663,-1.26045000553,0.323536008596,-0.100034996867,1.24540197849,-0.457284986973,-0.494764000177,1.51988399029,1.27917802334,0.566627979279,-0.460323989391,0.0985480025411,-0.58196502924,1.04236900806,0.643346011639,-0.182733997703,-1.61756300926,0.08690200001,0.345286011696,1.12758994102,0.263278007507,-2.17652988434,0.228042006493,-0.0618389993906,-0.369506001472,-0.822817027569,0.366259008646,0.967630982399,1.49442601204,0.236879006028,-0.0408609993756,1.69694304466,0.919044017792,-0.364620000124,0.365985989571,1.72699403763,-0.592570006847,0.241742998362,2.33901405334,-0.517888009548,-0.76600497961,-1.50228095055,-0.91215801239,0.755060970783,-0.534907996655,-0.548516988754,0.301095992327,-1.37501597404,-0.758190989494,1.59585595131,-0.323143005371,0.51097202301,0.699526011944,0.226638004184,0.39805701375,-0.337886989117,0.798627018929,0.230966001749,-0.10165400058,-0.650157988071,0.57112300396,-0.15481300652,-0.697817027569,-0.341529995203,-0.988713979721,0.448967009783,0.101775996387,-0.526241004467,-0.486220985651,-1.16696095467,1.21803498268,-0.581740021706,0.00369699997827,-0.64515298605,-0.616544008255,0.7392359972,-0.78196400404,-1.76524400711,0.398083001375,-0.338279992342,0.317176014185,0.863056004047,-2.91574001312,0.56917899847,-2.01756691933,2.10467195511,-1.92420303822,-0.414249002934,0.312144994736,-2.06287789345,-1.2655570507,1.75197303295,0.413087010384,-0.483987003565,0.120669998229,0.208792999387,0.530979990959,-1.01598501205,-0.684849977493,1.02540194988,0.748705029488,0.178994998336,-0.408387988806,-0.162512004375,0.927608013153,0.783712983131,-0.203690007329,0.0946580022573,-1.13290596008,1.11789405346,-0.659541010857,0.851454973221,1.33086705208,-0.526373028755,-0.360911011696,1.3262720108,-0.486945003271,0.748651981354,-0.427017986774,-0.611503005028,-1.2408759594,-0.196491003036,0.832620024681,1.40875101089,0.235688999295,-1.68651604652,0.155948996544,0.161865994334,0.502129018307,-0.002431999892,-0.917980015278,-0.63680100441,0.757327973843,-0.770532011986,0.211548000574,0.285984992981,-0.120645001531,-1.75638496876,0.638845026493,-0.407918006182,0.140349000692,0.484755009413,1.16175794601,0.691393971443,0.302240014076,-0.823503017426,0.504070997238,0.340985000134,0.523980021477,1.08850097656,-1.89942896366,0.541400015354,-1.95558595657,-0.277408003807,-0.972938001156,0.187562003732,-0.0701970010996,1.42715394497,1.75112605095,-0.57404500246,-0.312813013792,-0.392571985722,0.536750018597,-2.54068994522,-0.550931990147,-0.0732389986515,0.00566700007766,1.00334298611,0.546688020229,-1.51718199253,0.567458987236,-1.44171702862,0.51971000433,0.438181012869,0.640039026737,-1.03666603565
位置,-1.06968998909,0.61625701189,0.189460992813,1.74242901802,0.870073974133,0.456375986338,0.680631995201,-0.820259988308,1.55599403381,-0.552281975746,-0.867689013481,-0.416752010584,-0.715537011623,-1.2947319746,-0.703195989132,0.353078991175,0.319146007299,0.239508002996,1.35524904728,-0.706157028675,0.666904985905,1.1117130518,-1.60679197311,0.0417479984462,0.823454976082,0.299721002579,-1.06883203983,-1.08475005627,-2.1822040081,0.336903989315,0.115455001593,-1.05245494843,0.0987640023232,0.962879002094,1.35252594948,0.703647017479,-0.349974989891,-1.53962004185,-0.174456000328,1.31812405586,0.230693995953,0.867644011974,-1.00996005535,-0.800598025322,0.647307991982,-0.973517000675,-1.07515597343,0.99117898941,-0.492320001125,2.26396799088,0.661446988583,-1.33185601234,-0.457489013672,0.641978025436,0.139166995883,-0.5700340271,1.38353896141,-2.60434103012,-0.619809985161,-0.0849559977651,-0.90386402607,0.935653984547,-1.9135030508,-0.93926602602,-0.826591014862,-0.40492400527,0.0894350036979,-0.189882993698,1.7087110281,-1.23688304424,-0.210582002997,0.960120975971,-0.863910973072,0.927366018295,-0.848847985268,-0.488447993994,0.936029016972,1.1145260334,-0.616348028183,-0.430536001921,1.92445099354,-2.99988007545,1.15549504757,-0.771184980869,-1.5073299408,-0.306495994329,0.0371050015092,-0.298640996218,1.24292302132,0.860194027424,2.07514190674,-1.0725209713,0.214126005769,-0.435465991497,-0.663911998272,-1.37071800232,-0.673741996288,-0.234396994114,-1.05299401283,0.752093970776,0.672869026661,-2.24974393845,-0.492199987173,-0.0177190005779,-0.19036899507,-1.38983798027,1.22088503838,0.835982978344,-0.315053999424,0.732600986958,1.69473195076,-0.762449026108,0.0569429993629,0.245583996177,-0.148484006524,0.43451499939,1.93182003498,-0.890681028366,-0.323375999928,1.43999397755,0.721796989441,0.321368992329,-0.613331973553,-0.604833006859,-1.09717595577,-0.372794002295,-1.07378804684,-2.66413092613,0.464204013348,-1.32133495808,0.726037979126,0.423254996538,-1.14471304417,0.32278200984,-1.15354704857,-0.343939989805,0.647346019745,-0.364358991385,-0.374906986952,0.12342300266,0.721099019051,1.2149939537,0.0738810002804,-1.1220510006,-1.83698403835,-1.16519403458,-1.81572198868,-0.652499973774,-1.64618194103,-0.298377007246,0.895483016968,1.13064098358,-0.41393199563,0.405113011599,0.350556999445,0.25658801198,-0.784900009632,-0.528069972992,-0.342007011175,-0.720973014832,-0.122422002256,-2.20169591904,0.0602990016341,-3.05990505219,0.070055000484,0.521418988705,-1.21042895317,-0.853609025478,0.306674987078,-0.951313972473,0.0966089963913,-1.94554102421,0.942088007927,-0.335893988609,0.112466000021,0.964482009411,1.80136799812,1.27091002464,1.02726101875,2.73288393021,-1.92463600636,1.47364699841,1.59249103069,-1.08846199512,2.06701207161,0.173103004694,2.25839591026,-0.976893007755,0.962381005287,0.205798998475,2.08821105957,1.99462294579,1.58199799061,0.329551011324,0.688512027264,-0.296979010105,-7.00000018696e-05,0.323024988174,0.151227995753,-0.139101997018,1.70921504498,0.742092013359,-0.552811026573,-0.434567987919,0.312795996666,-0.111346997321,-0.686282992363,1.02328205109,-2.88941693306,1.04517602921,-0.695361018181,-0.674188017845,1.28946101665,-0.294643998146,-0.869049012661,-0.771382987499,-0.407402008772,0.639567017555,0.95461499691,-0.383637994528,0.341271996498,0.863537013531,2.16013908386,0.00618899986148,-0.490469008684,-0.119749002159,1.28517603874,0.00153100001626,0.310030996799,-0.716394007206,-1.39045596123,0.658119022846,-0.982694983482,-0.317764997482,1.90577697754,0.0645750015974,0.187080994248,0.645357012749,-0.939813971519,-0.545005023479,-0.94067299366,0.924655020237,-0.812536001205,-0.128112003207,0.270909994841,1.85642504692,0.572154998779,-1.05544805527,0.071984000504,0.502269983292,-1.21023905277,0.667622983456,-1.36215698719,-0.377750992775,-0.598385989666,1.01562094688,-0.804572999477,-0.888073027134,1.03566396236,-0.228686004877,0.829784989357,0.440268009901,-0.126269996166,-0.108240000904,-0.367796987295,-0.705579996109,0.259759008884,0.215305998921,-1.67940795422,-0.610579013824,-1.17844104767,-1.38966798782,0.400588005781,-0.106349997222,-1.57471597195,-1.52846801281,1.87401401997,1.6709009409,0.611962974072,-1.01572501659,1.79022800922,1.55124402046,-1.15378701687,1.17625105381,-0.605388998985,-0.394730001688,-0.182072997093,0.0818829983473,0.335987001657,0.431481003761,-0.342498004436,1.10037302971,0.66657602787,-0.0755420029163,-0.122207999229,0.457399994135,-0.640959024429,2.2686150074,0.803773999214,0.568208992481,0.966461002827,-0.593735992908,-1.30386805534,1.02776694298,2.12280392647,-0.248410001397,-2.22145700455,-1.12865900993,-1.15952003002,2.45276498795,-0.687160015106,-1.9545429945,0.973026990891,-1.54214298725,-0.529551029205,1.62462496758,0.333108007908,2.58639907837,-0.22730499506,-0.31606900692,0.754168987274,1.92276704311,-0.417849987745,1.17314898968,0.573804974556,-0.158636003733,0.719106972218,-2.05538606644,-1.02122604847,1.55372595787,-0.792271971703,-0.761627972126,-0.195106998086,-0.204331994057,2.5613451004,1.18702101707,0.738215982914,0.839838027954,-0.724461019039,1.06201803684,0.936514019966,2.58530211449,1.1126459837,0.858730971813,1.42369103432,0.849102973938,-0.761451005936,1.97376096249,1.30350100994,-0.759809017181,0.553577005863,0.322775989771,-0.0636719986796,-0.137773007154,-1.81375396252,0.241612002254,0.952584028244,-0.0344580002129,-0.271768003702,-0.691667973995,-1.16723704338,-0.285966008902,-0.443399012089,0.254357010126,-0.234469994903,-2.8644990921,-0.240587994456,0.67646998167,0.97264200449,-2.0735309124,0.519910991192,0.045380000025,-0.324645012617,1.12499499321,-0.130638003349,-1.23764503002,0.581526994705,2.41755199432,-0.935154974461,0.797903001308,-1.12347602844,2.3550798893,0.390157997608,1.48368501663,1.30427098274,-2.46846008301,-0.78126502037,0.926436007023,-0.898661017418,1.04352295399,0.336885988712,-1.26189494133,-0.492197006941,1.3179949522,0.538529992104,-1.96264696121,0.820868015289,1.27085697651,1.77710294724,0.056522000581
旋转,0.182238996029,2.06784796715,-0.182043999434,0.449856996536,1.49113595486,0.832659006119,0.591645002365,-0.661289989948,0.990095973015,0.802309989929,-2.36146593094,-1.53158903122,-0.946635007858,0.768306016922,-2.39007592201,-0.175092995167,1.86070203781,0.0331350006163,0.270489007235,-1.90556204319,-0.0192610006779,0.459888011217,0.534959971905,0.101288996637,1.32621896267,-0.624284029007,0.194974005222,-0.72691398859,-1.16938602924,-0.807272970676,-1.44806802273,0.46651700139,-0.184584006667,-0.749480009079,1.65039503574,1.93112397194,-1.18538594246,-2.15480303764,0.654857993126,-0.510792016983,1.50171995163,0.936892986298,-2.14806699753,-0.796175003052,1.44340097904,-0.451038986444,0.435586988926,-0.801908016205,1.59528303146,1.19303202629,0.822673976421,-0.447481989861,-1.70926296711,1.13577103615,-0.736238002777,0.193330004811,1.00245797634,-1.01341605186,-1.04874801636,0.402563989162,-1.21727097034,1.09125196934,-1.0122770071,0.152695998549,-1.19600594044,1.23471999168,-0.684033989906,-0.747552990913,1.7876149416,0.884961009026,-1.79178094864,1.49689900875,0.822387993336,1.76678705215,-0.438888013363,2.06221199036,0.782617986202,-0.672110974789,-0.190079003572,0.650054991245,2.19086003304,0.216250002384,0.723760008812,1.00931096077,0.367137998343,0.273817002773,0.528024971485,0.674546003342,1.06499803066,0.904101014137,0.959056019783,0.308393001556,-1.26802396774,0.832324028015,-0.127639994025,-0.62862598896,-1.94505703449,1.92038404942,-0.451375991106,1.3939909935,1.55103504658,-1.80391395092,0.6524310112,1.73526000977,1.7177759409,-1.19120502472,0.0953129976988,0.556240975857,0.388792008162,-1.17649996281,-1.22368001938,-1.70715999603,1.41443705559,-0.469417989254,-0.937475979328,0.715018987656,0.30510699749,-0.219198003411,-1.31340205669,0.539610981941,-0.139718994498,0.42971599102,1.78726601601,-0.799392998219,-0.53863298893,1.42844605446,-0.479656010866,0.0053969998844,0.0719439983368,0.187022000551,0.689289987087,-0.558230996132,0.273066014051,0.895322978497,-2.81608009338,0.29931101203,0.29629099369,-0.0680240020156,-0.221654996276,0.96071600914,0.564368009567,0.0595490001142,-1.26307296753,-1.12181997299,1.10347294807,-1.57376003265,0.155883997679,0.143391996622,-1.70439994335,-2.94281411171,0.821657001972,-0.939728975296,1.79656898975,1.08727300167,0.361227989197,-0.242208003998,0.50129699707,-1.80324697495,0.319793999195,1.09859800339,0.308851003647,-0.458505988121,0.324050009251,-2.32005810738,1.63879704475,-0.709788024426,-0.318955987692,0.757077991962,-0.595647990704,-0.871519982815,0.215091004968,-0.556041002274,-0.423364013433,-1.00298297405,0.632879972458,-0.592725992203,-0.143331006169,0.922626972198,0.435346990824,1.47500801086,-0.787706971169,2.47068691254,0.227044001222,-0.580965995789,-0.489749014378,1.26312601566,0.815716981888,0.93678599596,0.587970972061,0.770654022694,0.83647698164,-0.871903002262,0.335110992193,0.159234002233,0.485839009285,-0.430139005184,1.33643102646,-1.12931799889,0.334495991468,-0.737487018108,0.379620999098,1.03164100647,-0.706300020218,-0.452737987041,-2.0106151104,0.785890996456,-0.770103991032,-1.08807694912,-1.01797604561,0.877559006214,0.0368070006371,-1.63054394722,0.809742987156,-1.55336499214,1.35655105114,0.488009989262,0.212099000812,0.784197986126,-1.87176394463,-0.632180988789,0.249865993857,0.80886298418,0.601589024067,0.455796986818,0.15519399941,-0.674098014832,-0.0109559996054,-0.447050988674,-0.109407000244,-0.347362011671,2.23663806915,1.29050505161,0.085879996419,0.189683005214,0.252745985985,0.586463987827,-2.57817792892,0.117320999503,0.570110976696,-0.540136992931,-1.55966496468,1.13200902939,0.164339005947,0.722815990448,0.626231014729,-0.046020001173,-0.0267450008541,1.63784503937,-0.826394975185,0.900463998318,-0.0397239997983,0.46233099699,1.50986599922,1.20019996166,-0.122100003064,0.0727860033512,-0.667502999306,0.507183015347,-0.0381029993296,2.93921995163,-0.693430006504,-0.585305988789,0.665684998035,0.252478986979,-0.26461198926,-2.08458995819,-0.460979998112,-0.396966993809,-1.39468502998,-0.886119008064,1.31717598438,-2.11363601685,0.460774987936,0.144345000386,-1.16137897968,-0.134614005685,-1.45165002346,-0.194359004498,0.342988014221,1.62012600899,1.7733310461,1.4781370163,1.48954999447,0.469253003597,-0.787078976631,-0.937372982502,-1.06312501431,-0.218030005693,-0.00465499982238,0.726279973984,-1.55162394047,1.00852394104,-1.27683699131,0.371340990067,0.0307149998844,0.147478997707,-0.564657986164,-0.696124017239,-0.588074028492,-1.07185399532,-0.177094995975,0.234897002578,0.0645309984684,0.342972993851,0.319032013416,0.98591697216,-1.30397701263,0.136618003249,-1.56541597843,0.668537974358,-1.07412302494,-2.0546040535,0.693446993828,-0.768980026245,-1.03795301914,1.24466598034,-0.528571009636,-0.135032996535,-1.04616999626,-0.54057598114,-0.149090006948,-1.16148602962,-1.51804804802,1.09241700172,-0.405257999897,-0.397648006678,0.0870169997215,-1.97284305096,0.427213013172,1.42376196384,1.31162500381,-0.291496992111,-0.64639300108,1.01533997059,0.721747994423,-1.71129202843,0.63588899374,1.21395099163,0.58603900671,1.53519499302,-1.28046894073,1.24115300179,-0.328173995018,-0.679021000862,-0.045611999929,-1.02508795261,0.0756369978189,0.00698899989948,1.15207397938,0.102505996823,0.0395070016384,1.11222398281,1.67318701744,1.95213103294,-1.01880502701,0.673328995705,1.81673705578,1.09253096581,-0.424506992102,-0.0250860005617,-0.228560000658,-0.371859997511,0.0844099968672,1.67632198334,-0.426299005747,-1.63581204414,0.663230001926,1.00312995911,0.647683024406,1.02873003483,-1.48944795132,1.71385705471,-0.175604999065,0.535906016827,-2.30767297745,-1.32746303082,-2.04465889931,-1.90679895878,-1.91689097881,0.97088098526,-0.464677989483,-0.0888929963112,1.03601801395,1.55567598343,0.768177986145,-1.36783897877,0.484939992428,-0.870995998383,-2.79120111465,-0.569977998734,0.313452005386,0.144552007318,-0.570196986198,-1.12475395203,0.388094007969,0.543308019638,-2.03258895874,-0.18231600523,0.793654978275,0.0765359997749
