word,0,1,2,3,4,5,6,7,8,9,10,11,12,13,14,15,16,17,18,19,20,21,22,23,24,25,26,27,28,29,30,31,32,33,34,35,36,37,38,39,40,41,42,43,44,45,46,47,48,49,50,51,52,53,54,55,56,57,58,59,60,61,62,63,64,65,66,67,68,69,70,71,72,73,74,75,76,77,78,79,80,81,82,83,84,85,86,87,88,89,90,91,92,93,94,95,96,97,98,99,100,101,102,103,104,105,106,107,108,109,110,111,112,113,114,115,116,117,118,119,120,121,122,123,124,125,126,127,128,129,130,131,132,133,134,135,136,137,138,139,140,141,142,143,144,145,146,147,148,149,150,151,152,153,154,155,156,157,158,159,160,161,162,163,164,165,166,167,168,169,170,171,172,173,174,175,176,177,178,179,180,181,182,183,184,185,186,187,188,189,190,191,192,193,194,195,196,197,198,199,200,201,202,203,204,205,206,207,208,209,210,211,212,213,214,215,216,217,218,219,220,221,222,223,224,225,226,227,228,229,230,231,232,233,234,235,236,237,238,239,240,241,242,243,244,245,246,247,248,249,250,251,252,253,254,255,256,257,258,259,260,261,262,263,264,265,266,267,268,269,270,271,272,273,274,275,276,277,278,279,280,281,282,283,284,285,286,287,288,289,290,291,292,293,294,295,296,297,298,299,300,301,302,303,304,305,306,307,308,309,310,311,312,313,314,315,316,317,318,319,320,321,322,323,324,325,326,327,328,329,330,331,332,333,334,335,336,337,338,339,340,341,342,343,344,345,346,347,348,349,350,351,352,353,354,355,356,357,358,359,360,361,362,363,364,365,366,367,368,369,370,371,372,373,374,375,376,377,378,379,380,381,382,383,384,385,386,387,388,389,390,391,392,393,394,395,396,397,398,399
重启,0.574832975864,0.290847986937,-0.617398023605,0.495723992586,-0.192089006305,-0.532985985279,0.101636998355,0.181413993239,0.734111011028,-0.119226999581,0.40336099267,-0.609870016575,0.183539003134,0.31205201149,1.52728199959,-0.948651015759,-0.421804010868,0.0831269994378,0.144293993711,-0.257881999016,0.20544500649,0.146009996533,0.195473000407,0.508229970932,0.136601001024,0.800019025803,-0.518968999386,-0.296474993229,0.456806987524,-0.386458009481,0.614239990711,-0.0264599993825,-1.0058079958,-0.663066983223,1.18615794182,-0.198135003448,0.429116994143,-1.40977501869,-0.496897995472,0.251513004303,0.579243004322,0.519073009491,0.86688798666,0.442681014538,-0.107741996646,0.354654014111,-0.111648000777,-1.08309102058,0.110643997788,-1.81020796299,-1.56379199028,-0.171482995152,-0.719905972481,1.21041405201,0.313724994659,0.153228998184,-0.960543990135,0.730915009975,0.916692018509,-0.221972003579,-0.448110997677,0.285959988832,-0.527786016464,0.930658996105,0.141705006361,-0.0345060005784,0.441742002964,0.0895100012422,-0.30699801445,0.44417399168,0.256065994501,-0.651147007942,0.830996990204,0.297439992428,-0.759589016438,0.834848999977,0.467397004366,-0.200581997633,0.541015982628,-0.189009994268,-0.510626971722,-0.277249991894,-0.373492985964,-1.14358794689,-0.415984988213,-0.103114001453,0.384763002396,1.05542898178,-0.469274014235,-0.113131001592,1.22152900696,0.19406299293,0.388273000717,-0.644518017769,-0.878718018532,-1.61802399158,-1.04720795155,0.685272991657,-0.0172460004687,-0.973841011524,1.96070098877,0.715813994408,0.443120002747,0.214536994696,-0.772705972195,-0.473908007145,0.806999027729,0.52140301466,-0.342844009399,-0.0637990012765,-0.361169010401,-1.09203696251,-0.235792994499,0.211665004492,-0.464291006327,0.668413996696,-0.103334002197,0.381817013025,-0.165507003665,-1.2709300518,-0.468073993921,-0.956541001797,1.55316698551,-0.073398001492,0.551236987114,-0.341641992331,-1.84309196472,0.491301000118,-0.246316000819,0.667846024036,-0.316109985113,-0.88414901495,0.73872500658,-0.16503700614,0.763952970505,0.228770002723,-0.130780994892,0.150777995586,0.473470985889,0.026427000761,-0.074634000659,-0.0753870010376,0.172426998615,-0.405075997114,0.176924005151,0.014511000365,-0.198980003595,1.4094799757,1.01628398895,-0.875712990761,-0.210004001856,-0.109534002841,0.705972015858,0.294746011496,0.303171008825,1.39360702038,-0.224506005645,1.21011602879,-0.733709990978,-0.811923980713,-1.03244996071,0.0656469985843,-0.147284001112,0.0927509963512,-0.266164988279,1.83747494221,1.45139801502,0.0497439987957,0.225863993168,-0.0473879985511,0.0682990029454,-0.72411698103,0.755442976952,0.764576971531,0.531976997852,-0.494801014662,1.40347099304,0.000178000002052,-1.513422966,0.813106000423,-0.112891003489,-0.261485993862,0.196676999331,0.187512993813,0.310434997082,0.46550899744,0.068740002811,0.19666300714,-0.213864997029,-0.497238010168,-0.812714993954,0.417398005724,-0.455926001072,0.464392006397,-1.08547103405,0.666158020496,0.65215998888,0.227818995714,0.769159972668,1.03644895554,0.695303976536,-1.29308998585,-0.241696000099,0.470640003681,0.768283009529,-0.218118995428,-0.377287000418,-0.0207529999316,0.944202005863,0.816025972366,0.159255996346,0.38356000185,-1.05578804016,-1.44890296459,1.44565701485,0.209647998214,0.37837100029,-0.585892021656,-0.258450001478,0.0192709993571,-0.236693993211,-0.548189997673,-0.403459012508,-0.72580999136,1.770835042,1.037981987,0.254667013884,0.836730003357,-0.750176012516,0.135023996234,0.0218759998679,-0.213360995054,0.523277997971,0.275301009417,0.994431018829,0.277352005243,-0.831668019295,-0.463185995817,0.952175974846,0.00992100033909,0.48389801383,-1.07198297977,-0.33814701438,-0.0770960003138,-0.310997992754,0.00838899984956,-0.568266987801,0.367904007435,0.989175021648,-0.364203006029,0.84309399128,0.383264988661,-0.515922009945,-1.20999801159,0.0262909997255,0.681230008602,0.0115620000288,0.199239999056,-0.0870369970798,0.892094016075,-1.68677699566,0.212403997779,0.271921008825,0.633391976357,-0.388577997684,0.562797009945,0.214772000909,0.250162005424,0.426497995853,0.637158989906,0.226569995284,0.0972260013223,-1.02903103828,0.709210991859,-0.592049002647,-0.432453006506,-1.05176103115,0.064161002636,0.253080993891,0.657052993774,-0.68296200037,0.627816975117,-1.15828299522,-0.649679005146,0.236939996481,-0.0787969976664,-0.139446005225,0.735298991203,-0.200177997351,0.0904709994793,-0.178251996636,0.258127987385,-0.0512989982963,0.0472490005195,0.856032013893,0.611292004585,0.112030997872,-0.193121999502,-1.16497898102,-0.351612985134,-0.294939994812,1.33612596989,-0.109295003116,1.46214401722,0.182904005051,0.841055989265,0.467568993568,-1.00310194492,0.236100003123,-0.44236600399,-0.352901011705,-1.16733694077,-0.41509398818,-0.236787006259,0.593044996262,-0.909018993378,-0.552743017673,-0.83352202177,0.43892800808,-0.696295022964,0.401495993137,-0.780542016029,0.494040995836,1.38026595116,-0.598590016365,-0.0611910000443,0.0511270016432,-0.000616999983322,0.13696500659,0.122111000121,-0.16822899878,-0.116745002568,-0.331905990839,0.380216985941,0.39986500144,-0.296644985676,0.331395000219,1.11220800877,0.503023982048,-0.110592000186,0.0457799993455,0.585936009884,-0.474691003561,0.345649987459,-0.332224994898,-0.509171009064,-0.916994988918,0.64018702507,0.204107001424,-1.16720998287,0.618399977684,0.742033004761,-0.851797997952,0.424174010754,-0.275103002787,-0.518463015556,0.455040991306,0.835409998894,-0.0318310000002,-0.452832013369,1.22277200222,-1.27824902534,0.541532993317,0.071328997612,-0.0343150012195,-0.486900985241,-0.678638994694,-0.143066003919,0.515065014362,0.0344050005078,-0.250335007906,0.00792500004172,-0.383664011955,-0.776875972748,0.481025993824,0.309794008732,-0.545615017414,-0.475021004677,-1.33383905888,-0.60949999094,0.237187996507,-0.0707689970732,0.776575982571,-0.0401329994202,-0.719579994678,0.265208005905,-0.322003990412,-0.632007002831,-0.78889298439,-1.34092998505,0.436794996262,0.0325700007379,-0.131310999393,-0.106241002679,1.26582801342,-0.161219000816,-0.276699006557,0.923713028431,-0.121592998505,0.781830012798
手动,0.431941002607,1.86783802509,0.795787990093,0.356830000877,0.850233018398,0.525765001774,1.35174703598,-0.992698013783,1.57659494877,0.969964027405,-1.00438201427,0.371342003345,-1.44444096088,0.406246006489,-1.34835100174,-0.722407996655,-0.402529001236,-0.351534992456,0.0842759981751,-1.90216803551,-1.72668802738,-0.19218300283,0.52717602253,-1.1866710186,0.397635996342,1.24647498131,-0.909274995327,1.65295100212,-1.04501605034,0.420323997736,0.432161003351,-0.666719973087,-0.132227003574,-1.13497197628,0.663582980633,1.99616599083,0.710290014744,-1.82765901089,-0.266391992569,-0.672488987446,1.23213994503,-1.16961205006,-0.99151301384,-0.920233011246,1.4550549984,-0.519725978374,0.0277810003608,-0.254853010178,-0.0148609997705,-0.640998005867,0.402691990137,0.234500005841,-0.329715996981,1.54333400726,-1.83255004883,-0.247291997075,0.651951014996,-0.186470001936,-1.32639801502,0.371434986591,-0.178085997701,0.808319985867,-0.186060994864,-0.942957997322,-0.735902011395,0.784597992897,-0.329109996557,-0.940335988998,0.233158007264,1.15560400486,-2.53824210167,1.64263594151,0.403656989336,0.234228998423,-0.0456410013139,0.743438005447,0.261390000582,-0.230531007051,0.157223001122,0.244205996394,-0.71511298418,-0.846310019493,-0.0939669981599,0.00848899967968,0.0615519993007,-1.56103694439,-0.666831970215,0.744696974754,0.780394017696,-1.02496004105,1.81888604164,1.07395803928,-0.199143007398,1.14610302448,-0.495305985212,0.364275991917,-1.50316798687,1.11213803291,-0.393072992563,0.279058009386,1.37342596054,0.178986996412,-0.0638379976153,0.253001987934,-1.15413796902,-1.02804195881,-0.245138004422,-0.561994016171,0.362890988588,0.534079015255,-0.519582986832,-2.2131819725,-0.748953998089,1.195291996,-2.32632994652,0.962660014629,0.348419994116,-0.355984985828,0.488247007132,0.646829009056,-0.884868979454,-1.17846798897,0.663096010685,-1.78580904007,1.26993298531,1.07788598537,0.197188004851,-0.666396975517,-0.179676994681,0.351700991392,-0.385486006737,-0.981546998024,0.346572011709,0.96198797226,-0.667798995972,-0.932834982872,-1.64833903313,-0.247881993651,1.28464102745,-0.246261000633,-0.646516978741,-0.0804079994559,0.781903982162,-0.0945319980383,0.481680005789,-1.28212702274,-0.108988001943,-0.911055982113,-0.390361011028,-0.348993003368,0.747927010059,0.84633898735,0.82339400053,0.874427974224,-0.215168997645,0.0434149987996,-0.352811008692,-0.187517002225,-0.924521028996,-0.0717879980803,-0.423543006182,-1.25769495964,-0.720117986202,-0.587400972843,-0.621410012245,1.05980503559,-0.214779004455,-0.735574007034,-1.93771600723,-0.71393597126,-0.100502997637,-2.05462193489,0.156434997916,0.0489009991288,0.911804974079,1.44954895973,1.66249203682,0.1879529953,0.585882008076,1.95778894424,-0.535902023315,-0.279487013817,-0.332639992237,-0.0976539999247,-1.15693199635,-0.650390028954,0.42278701067,0.675333023071,0.891198992729,-0.726550996304,0.956025004387,-0.822022974491,0.135975003242,-0.447344005108,-0.867671012878,0.128132000566,1.45158398151,-1.00900995731,0.896134018898,-0.196780994534,0.10538200289,-1.02724897861,0.107488997281,-0.0995109975338,-0.466140985489,0.867624998093,-0.0271780006588,-0.0266340002418,-0.41688901186,1.36228096485,0.487987995148,0.534597992897,-0.436744987965,-1.27748596668,0.85003298521,0.866734981537,-0.304524004459,-0.729835987091,1.0897500515,-2.35073208809,-0.851323008537,0.420320987701,0.66511797905,0.422049999237,1.78483498096,-0.777577996254,0.495086997747,-0.403192996979,0.39380800724,0.0639500021935,0.108727999032,0.951170027256,0.382842987776,-1.06119000912,0.739162027836,-0.78136497736,0.440620988607,0.122809000313,0.556547999382,-0.954752027988,-0.617053985596,0.86347001791,-0.425962001085,0.836117982864,-0.408591985703,-0.45636099577,0.459302008152,0.121173001826,0.748463988304,0.564173996449,-0.38271099329,0.772493004799,0.608942985535,0.434798002243,-0.827455997467,0.27881398797,-1.09303104877,0.339289993048,0.61566901207,0.622686028481,0.970007002354,1.92390501499,-0.375106990337,0.561640977859,-0.280597001314,-1.94235002995,0.930974006653,0.259054988623,-2.20898199081,0.275364995003,0.127858996391,-1.52968204021,-0.816865980625,1.53627800941,-0.284550994635,-1.06351602077,-0.69404900074,-0.223974004388,-0.188261002302,0.62111800909,-0.400034993887,1.97983002663,0.443812996149,-0.262923002243,-1.01790499687,0.236619994044,-0.62721401453,0.596171021461,1.82625997066,0.243807002902,0.0761239975691,1.95843100548,-0.74998998642,-1.02199804783,0.0757879987359,-0.243494004011,0.944446027279,-0.503814995289,1.24159705639,-0.730714023113,-0.529624998569,-0.0875580012798,0.0771249979734,0.752929985523,1.14972305298,-0.294131010771,-1.07576799393,0.209002003074,0.177717998624,0.991890013218,-0.350807994604,-0.466526001692,1.14227604866,-0.553984999657,0.152452006936,1.00822603703,0.158939003944,-0.13915400207,0.833401978016,-0.0357719995081,0.206319004297,-0.0218909997493,-1.86384999752,0.618327975273,-0.0789019986987,-0.782405018806,-0.378394007683,-0.0270060002804,-0.26819100976,0.0329589992762,0.990531027317,-0.594191014767,-0.928052008152,0.148157998919,-0.310308009386,-0.921472012997,-0.557202994823,1.31786704063,0.11681599915,0.520308971405,-0.425866991282,-0.213844001293,-0.202785000205,0.748585999012,-0.206774994731,-0.449663996696,-0.91688400507,0.371035993099,2.13665008545,-0.736877024174,0.102687999606,0.360112011433,-0.784152984619,0.58932197094,-0.142134994268,0.354680985212,0.454210013151,0.960597991943,-0.731597006321,0.456997990608,-1.47113394737,0.484598994255,-0.30903300643,0.316127985716,-1.53339195251,-0.925650000572,0.119001999497,-0.0643780007958,0.475371003151,-1.09990894794,-0.537181973457,0.562214016914,0.161541000009,-0.516119003296,0.615460991859,-1.51444900036,-1.81297898293,-0.575757026672,-2.63080906868,0.366396993399,-0.162522003055,-0.210232004523,2.09836196899,0.276906996965,-0.926472008228,-1.80987596512,0.0186340007931,-0.610249996185,-1.4318779707,1.52322304249,-0.764330983162,-0.606193006039,-0.0323470011353,-0.391705989838,-0.351280003786,-1.07208704948,-0.217160001397,-0.390161007643,1.7339810133,0.727953970432
行驶,-1.12767899036,0.297488987446,2.01956796646,0.996921002865,-0.157508999109,1.38365805149,0.975072026253,0.676440000534,0.329219013453,1.17627596855,-1.85496795177,-1.38080096245,1.07294797897,0.716012001038,1.8616540432,-0.318226009607,-1.87548196316,-0.632318019867,2.42789697647,-0.943413972855,0.865824997425,-0.807923018932,0.217818006873,-0.335458993912,2.55407500267,0.647032976151,-1.86965203285,-0.747237980366,-0.389252990484,1.40404105186,0.642540991306,-0.00158699997701,-0.0463920012116,0.698993980885,-0.919616997242,-0.553493976593,0.391326010227,-1.60414397717,-1.17892503738,3.2784049511,-0.776684999466,1.01242697239,-2.65428495407,0.747564971447,2.14252710342,0.916311979294,0.307958990335,0.250808000565,0.303353011608,1.45885205269,0.521164000034,0.062922000885,0.00812300015241,0.718168020248,0.366833001375,0.125744998455,-1.24220204353,-0.697063028812,0.153944000602,0.468903005123,1.04165494442,0.712927997112,-0.67179197073,-0.0110680004582,-1.35245501995,1.46235501766,-0.23208899796,-1.10641801357,-0.203593999147,-2.29406809807,-3.99576592445,-0.0109999999404,1.01515805721,1.98158597946,0.0346050001681,-0.185105994344,1.1635979414,1.03691899776,0.728910028934,1.12538003922,1.82670199871,-0.878169000149,-0.881780982018,-1.1214029789,0.0282790008932,-1.12487101555,0.981454014778,0.109149999917,1.53998696804,0.452937990427,3.32366490364,0.364315003157,-2.70592999458,0.916756987572,-0.382863998413,-0.544633984566,-2.29531908035,0.900458991528,1.51354002953,0.402419000864,1.69604098797,0.490155011415,0.210805997252,-1.15085601807,-1.88605296612,-0.0445640012622,0.00842600036412,-1.12079298496,0.750985980034,2.38478899002,0.128112003207,-1.82528197765,-0.310259014368,-0.446855992079,-0.00307200010866,0.970337986946,1.20769798756,-0.457107007504,-1.05822598934,1.42111897469,-0.124537996948,-0.0041060000658,-0.204123005271,0.654453992844,1.78261995316,0.35794699192,0.265801995993,0.0276529993862,-1.03319203854,0.0746290013194,0.429791986942,-2.02927207947,0.600232005119,2.51395893097,1.06172394753,-1.19143402576,0.158601999283,0.205907002091,1.40578901768,-0.392244011164,2.60502004623,0.427022993565,-1.00251805782,1.50556099415,0.520456016064,-0.0682429969311,-1.88840603828,-0.714085996151,1.03550899029,-1.62156295776,0.683040976524,-1.66530799866,-1.82284402847,-0.573683023453,0.699294984341,-0.216474995017,0.561495006084,-0.991419970989,0.423637002707,-0.750971019268,0.96421700716,-0.170057997108,-0.270464986563,-1.41654503345,0.083273999393,1.27702403069,-0.0314240008593,-0.111123003066,0.0558950006962,-0.236058995128,0.0124199995771,0.43014600873,1.66824400425,0.76057600975,0.424474000931,0.654908001423,0.676505982876,0.462832987309,0.564436018467,2.25007605553,0.0545749999583,-0.327403008938,0.840541005135,0.39651799202,1.28765296936,2.62153697014,-0.950173020363,-0.236705005169,-0.358417004347,0.675099015236,-2.1974439621,0.301504999399,-2.13019800186,-1.23046803474,-1.02302503586,-0.77347099781,1.66451394558,-1.91657495499,1.15390598774,-0.882146000862,0.0196299999952,0.754693984985,-0.935949981213,1.36711001396,0.0831390023232,-0.819867014885,0.291426002979,0.720026016235,0.242211997509,0.89393299818,-0.281282991171,1.43893694878,0.0403309985995,-2.15525698662,-0.137106999755,1.54033505917,-2.65690493584,-0.702443003654,-1.38888704777,-0.474417001009,0.813498020172,0.787666976452,-1.22516202927,-1.25277101994,1.34059500694,2.19596290588,1.33035802841,0.318177014589,1.5115929842,-1.62787795067,0.273202002048,-0.0922489985824,0.183519005775,1.13732302189,0.912912011147,1.00477194786,0.792841017246,-1.00411403179,0.0755669996142,1.49023604393,-1.45080304146,1.55940902233,-0.383646011353,0.754733979702,-0.188220992684,-0.522593021393,-0.138447999954,0.59840297699,0.0273359995335,1.09795498848,-0.371948987246,1.88301205635,1.29315400124,-0.0474920012057,-0.00375699996948,1.29111504555,1.03173601627,-0.530573010445,1.9154419899,1.44946300983,-0.224858999252,0.231516003609,0.550044000149,1.25259399414,-1.34426105022,-1.93022501469,-2.69249391556,-1.76628303528,-0.673038005829,-1.96939599514,-0.522235989571,-0.496450990438,-1.91636502743,0.319420993328,0.76752102375,-0.611434996128,-0.105979003012,0.422235012054,-0.344631999731,0.277943998575,0.435386002064,0.823469996452,-0.910238027573,-1.24737596512,-1.26662003994,-2.06481289864,-1.27384996414,1.32584702969,0.443924993277,-1.6488250494,-0.859614014626,-0.0486110001802,0.897756993771,-1.98732602596,0.853887975216,-0.884693026543,-0.298368006945,-0.322447001934,-1.03071200848,-1.73130404949,-0.253755003214,0.189662992954,-0.341057002544,0.761716008186,0.621999979019,2.13123488426,-1.13433694839,0.518330991268,0.241189002991,-0.111385002732,-1.0176179409,-1.11594295502,2.15527105331,-0.368541002274,-1.87871098518,0.364528000355,-0.764515995979,-2.89071297646,-0.693940997124,0.303806990385,0.923882007599,-0.951184988022,-0.617706000805,0.498107999563,1.27208805084,1.31794404984,0.19779600203,0.460990011692,-1.09992802143,-0.582765996456,1.57550299168,-0.251468986273,-0.518126010895,0.329513013363,-0.158363997936,2.18050408363,0.31068199873,0.89419901371,-1.72157394886,1.77169299126,-0.698449015617,-0.693867981434,-0.896559000015,-0.965510010719,0.733564972878,-0.784916996956,-1.59088003635,1.25211596489,0.594143986702,-0.261721998453,0.880719006062,0.196795001626,-1.06909298897,0.192191004753,-1.16478300095,2.43832206726,0.310609996319,-0.209365993738,0.500159978867,1.35878205299,-0.619109988213,-0.575734972954,-1.58369803429,0.705465972424,1.77391898632,-1.48352003098,0.0104280002415,-1.24793803692,-1.29957997799,-0.423797994852,-0.0748519971967,1.30384397507,-0.972491025925,-2.37816596031,0.316982001066,-0.861482024193,-0.930769026279,-1.40942597389,-1.93143701553,1.25655996799,0.130314007401,0.998757004738,1.88828504086,-0.683139026165,2.09482002258,-2.32017588615,-0.202820003033,-1.56932294369,-1.13252604008,2.33707809448,2.45344805717,2.11263489723,-1.17450404167,-2.39195203781,0.0713810026646,-0.94820100069,-1.40381503105,-0.13999299705,1.14010500908,-0.196977004409
模式,1.01452505589,-1.10340797901,1.38277602196,-0.588900029659,0.829916000366,-0.959820985794,2.14203810692,-1.11747002602,0.127203002572,0.459966987371,-2.22510194778,-0.255948007107,-1.1158490181,-0.583562016487,-1.78616797924,0.515711009502,-1.74670600891,-0.143598005176,-0.208018004894,-0.461266011,0.282121986151,0.853091001511,-1.02539694309,1.6843919754,1.20105397701,1.06566095352,1.31339597702,1.79164898396,-1.22055399418,0.0849969983101,1.00083100796,-0.960590004921,-1.93490195274,-1.29232394695,1.43738305569,0.717764019966,2.46271800995,0.921325981617,-0.316913992167,-0.917330980301,-0.222016006708,-1.59901499748,-1.85735297203,-0.0934719964862,1.45135605335,0.72885197401,0.37250700593,-0.281547009945,-2.15547704697,0.329856008291,-0.234528005123,-1.5594650507,0.081416003406,1.79019796848,0.438176006079,-0.756498992443,0.3195990026,-1.33302295208,-0.437276989222,-1.78990697861,-0.741806983948,-1.38502001762,-0.353967010975,-0.617762029171,-1.13693201542,-0.898126006126,-1.82346904278,0.304886013269,0.152430996299,-0.282023012638,-2.77878594398,0.337069988251,0.860731005669,1.58712697029,1.9893399477,0.0658690035343,0.934001028538,-0.263327002525,-0.506838977337,-0.520841002464,-0.40664100647,-2.4453959465,-0.0365669988096,-0.135151997209,0.450893998146,1.18782794476,-0.850907027721,0.1601369977,2.23949289322,-1.44247305393,0.714577972889,-0.200365006924,0.0809630006552,1.18827104568,0.902235984802,-0.894460976124,-0.513710975647,0.991245985031,1.29426801205,1.2203810215,1.40194702148,0.784060001373,2.28696107864,0.24325799942,-1.28253400326,-2.00292205811,0.372433006763,-0.717245995998,-1.79537296295,1.06194996834,-1.13339996338,-0.833998024464,-0.0908249989152,-0.440149009228,-1.47299098969,0.421559005976,1.31552302837,-0.971975982189,-0.356831014156,0.450740993023,1.45439100266,-2.77621603012,0.261146008968,-2.2476708889,0.017976000905,0.593549013138,-0.329681009054,-0.303858011961,-1.44755399227,0.571160018444,-0.239331007004,1.31364095211,0.374743014574,0.488671988249,-1.01045203209,-0.184253007174,-2.06156802177,-0.34325799346,0.902490019798,-0.383455008268,-0.259124994278,0.202977001667,-0.972368001938,-0.762989997864,1.38946795464,0.349637001753,1.62916505337,-0.888996005058,0.290621995926,0.646499991417,0.595203995705,0.16348400712,-0.122412003577,0.675195991993,0.987882971764,-0.0928779989481,0.129434004426,0.421434998512,-0.643896996975,2.31616401672,-0.410241991282,-2.16376304626,0.805931985378,-0.53202599287,-1.203799963,2.86186504364,-0.933937013149,-1.05756103992,-1.63853299618,-0.0766950026155,-0.3615449965,-1.55100500584,-0.182513996959,-0.917216002941,-0.640480995178,1.37861502171,0.342097997665,0.502376019955,-0.829439997673,-0.14713999629,-0.603793978691,0.12603700161,-0.0705130025744,-1.43725097179,-2.60913109779,-1.10251104832,-0.0956320017576,-0.804126977921,1.41290199757,-0.521910011768,1.1522769928,-1.4690489769,0.494688987732,-0.410216987133,-3.00133109093,-0.784906983376,0.898564994335,-1.69416594505,0.475030988455,0.468286991119,1.6837849617,-1.58725595474,-0.467375010252,-0.558812975883,-1.35585999489,3.06039500237,0.568709015846,-0.604028999805,-1.81826198101,1.69070398808,0.528780996799,0.312642008066,-1.21473801136,-1.05684399605,0.424879997969,0.00435499986634,-0.697055995464,0.736597001553,0.211657002568,-1.1161210537,-0.988651990891,-0.189376994967,0.942130982876,0.00902399979532,2.33739805222,-2.1500210762,-0.333703994751,-0.0569459982216,-0.490027010441,-0.270309001207,1.0228689909,1.54727900028,1.63501894474,-2.54643106461,1.57277405262,-0.739081025124,1.40413999557,-1.30343604088,0.836968004704,-2.52228498459,0.0493250004947,-0.376267999411,-0.255398005247,1.17104899883,0.485094994307,-2.36150288582,-1.03439998627,0.0726099982858,-0.903397977352,0.166438996792,-1.92390298843,2.40401601791,0.314301013947,-0.457286000252,0.0395199991763,4.32560586929,-0.3065969944,-0.304612010717,0.874934017658,0.753728985786,0.603923976421,1.80717802048,0.153099000454,1.56255495548,0.852922976017,-0.906131029129,0.0979679971933,1.28351604939,0.76220202446,0.394374996424,1.31185305119,-0.983345985413,0.167652994394,0.279186993837,-1.05582201481,0.287155985832,-1.77418601513,-0.468820989132,1.35175895691,0.657512009144,-1.71946799755,1.38171696663,0.632215023041,-0.0742129981518,-2.51912093163,-0.198280006647,-2.7517080307,0.778982996941,0.0218720007688,0.285376995802,-0.793304026127,2.6971039772,-0.242559999228,0.582029998302,0.45354399085,0.123251996934,1.32050395012,1.80402696133,0.878916978836,-0.553340017796,-2.4475209713,1.0602799654,-0.791621983051,-0.268209010363,-0.0710840001702,0.287432998419,-1.05157494545,-0.419651985168,0.523500025272,0.828024983406,-1.66092801094,-1.88201403618,0.290951013565,0.755299985409,-1.41857504845,-0.0803600028157,-0.419627994299,0.614926993847,0.844622015953,-0.491286993027,-0.484140008688,-1.6784529686,-0.408277988434,0.535825014114,0.186291992664,0.992358982563,-0.7231580019,-0.0956849977374,-1.4622399807,-0.363285988569,-1.37287604809,1.28572404385,-0.599114000797,0.30105099082,1.49614298344,-1.26257801056,-0.562987983227,1.01607501507,-1.7171779871,0.947327971458,-1.78606700897,-0.221209004521,-0.0511349998415,1.71484303474,-1.13617897034,0.708571016788,1.14500701427,0.0176999997348,-0.0273199994117,-0.519253015518,1.35546994209,-1.63711905479,-0.268642991781,2.14628410339,0.173121005297,-0.549535989761,0.137808993459,1.16891694069,-0.191147997975,0.898904025555,-0.100244000554,-0.541626989841,-1.31672298908,0.339442014694,0.00160499999765,-1.77091801167,0.350167989731,-0.543646991253,1.6923160553,-0.456340998411,1.37178599834,0.240838006139,-0.918178021908,0.429250985384,0.403106987476,1.06556403637,1.52942299843,-0.362464994192,-2.988312006,-0.731562972069,1.8874720335,0.716145992279,1.48093700409,-1.05081105232,-0.671607017517,-0.819890022278,-0.619965016842,-1.85512697697,-1.16874599457,0.540683984756,-0.410887986422,2.57212090492,0.652604997158,0.5015630126,-0.250835001469,-1.11023497581,1.24391400814,-0.349348008633,2.44097995758,0.0386440008879
信号,0.080664999783,0.425112992525,-0.542874991894,1.36512100697,0.862091004848,0.250654995441,1.1234010458,-1.81978797913,-0.161125004292,-0.878140985966,-1.21439695358,-0.224417999387,-0.0752430036664,-1.77799904346,0.521288990974,-0.96293002367,-1.59760594368,-0.350728988647,-0.372265994549,-0.307677000761,-1.46494102478,-1.41977596283,-0.800357997417,-0.250162988901,1.5296690464,-0.367386013269,-0.748939990997,0.421745985746,-0.837180972099,1.66954302788,0.831679999828,-0.848932981491,1.4017829895,0.580609977245,-1.97179496288,0.831359982491,1.38639998436,-1.45074999332,-0.620142996311,0.341939002275,-1.39573204517,1.15102803707,-1.29899001122,0.547680020332,-1.73790597916,-0.342202991247,-1.99451899529,1.56208598614,1.37026798725,0.174278005958,0.133405998349,-3.07296705246,-1.1391479969,-1.0383399725,-1.77458095551,0.495974987745,0.149600997567,-0.231434002519,-2.43530011177,-1.28572499752,0.629288971424,0.619611024857,-0.90970402956,-0.496078014374,0.138664007187,-0.253755986691,-1.63625705242,-0.247565999627,-0.127935007215,-1.87386596203,-1.08370804787,-2.25869202614,1.78929400444,3.16059708595,0.487251013517,2.55029702187,2.45449709892,0.767054975033,-0.0411369986832,1.16580295563,0.986657977104,-1.77108097076,0.633320987225,-0.801671028137,-1.13245296478,-1.2191940546,-1.00268399715,0.63058000803,2.80666804314,-0.360395997763,-0.248976007104,-0.941594004631,-0.762115001678,-0.604349970818,0.880326986313,-1.43114101887,-1.29174399376,3.02267193794,0.717646002769,0.384353995323,-0.0915480032563,0.00418899999931,0.727692008018,1.02269995213,0.791474997997,-2.93673801422,-1.17929804325,-1.86415100098,-0.16016100347,0.341679990292,0.143389001489,-2.24779105186,-1.70680296421,-0.296532988548,-1.9745080471,1.49085605145,2.48926401138,0.355744987726,0.217825993896,0.433797001839,1.97699201107,0.177307993174,-0.464502006769,-2.4559431076,0.871016025543,1.12597501278,-0.479835003614,-2.15216898918,-0.689633011818,-0.948073029518,0.36129501462,-2.03073310852,-2.42663502693,2.30441308022,-0.176003992558,-0.0837310031056,0.154631003737,0.887673974037,0.34582400322,-0.514340996742,-0.109857000411,1.39224696159,0.122052997351,0.0225089993328,-0.40877699852,-0.929827988148,-2.1637840271,3.03324198723,-1.55063199997,-1.3621519804,0.369163006544,0.225458994508,-0.862185001373,0.328509986401,-1.07920598984,-1.47766697407,-2.54738211632,-0.568853974342,-1.20517599583,0.145160004497,-1.17522501945,-3.10109496117,-0.264239013195,-1.81622695923,-0.168135002255,0.150562003255,-1.78296196461,2.13629293442,0.959792017937,-1.60138702393,-0.535638988018,-1.93287098408,-0.745644986629,-0.0462130010128,1.21699404716,-0.636871993542,1.68092596531,0.299441993237,1.14508104324,0.220125004649,-0.36611700058,0.492821991444,0.0886830016971,-0.34663900733,-0.721915006638,0.744181990623,1.25473105907,-0.905182003975,0.416482001543,-2.06667399406,1.08948302269,1.99470496178,0.382077991962,0.0169769991189,0.436740994453,2.28829908371,0.187056005001,-0.0772510021925,0.0342539995909,0.641664028168,-0.254833012819,-0.158381998539,-1.64240598679,1.43401098251,-0.950914978981,0.384371995926,0.465393990278,3.46103906631,0.0249039996415,1.13608598709,0.786970019341,1.37229704857,2.26507902145,-0.816066980362,-0.545818984509,-0.466255992651,-1.13360595703,-1.65234696865,1.91419994831,0.558396995068,0.438753008842,-0.368712991476,0.822250008583,-0.393068999052,1.22441494465,-1.95719301701,0.120627999306,-0.145717993379,0.971239984035,-0.176118001342,1.57910203934,-0.81690299511,0.49276599288,0.182438999414,0.787398993969,1.03926002979,-0.285097002983,-0.106320001185,-0.724641025066,-1.49486398697,-0.268323004246,-0.0510249994695,-1.55006098747,0.425143003464,-0.85676497221,1.37119102478,-2.38060188293,0.277859002352,0.653532028198,-0.214840993285,-0.11295799911,1.89226698875,0.701403021812,-1.61762905121,-0.51424998045,2.52815294266,0.772040009499,-0.056329999119,2.00876688957,2.63681006432,-1.0172239542,-1.46030294895,2.6473441124,0.555276989937,-0.253800004721,-0.982123970985,-0.0396700017154,0.250842988491,0.926917016506,-1.39584195614,-1.33866500854,0.191596001387,-0.882034003735,1.4173129797,1.5427210331,1.04316997528,-3.47920608521,1.62426805496,-0.442766010761,0.555211007595,-2.62554192543,-1.72189104557,0.303465992212,-0.41231200099,-0.891210019588,0.331194996834,0.577431976795,0.121209003031,0.246669992805,0.400454998016,1.30944299698,-1.07451200485,0.216348007321,-0.119882002473,1.82131004333,-1.88797998428,0.539119005203,1.02096199989,1.27471399307,2.52043890953,-0.226643994451,0.861620008945,-0.401372998953,1.58234298229,0.391283005476,-1.50064098835,0.908336997032,-0.939895987511,-2.26303100586,2.19423389435,0.473636001348,0.358835011721,2.18014192581,-1.19071102142,-1.0113979578,-0.0247840005904,1.70783495903,0.55187702179,0.58537197113,-0.0374890007079,-2.95524907112,-0.0340929999948,-1.33151698112,0.810711026192,0.167676001787,-0.541390001774,0.161013007164,-2.67531490326,-0.0510520003736,-2.16020989418,1.50302195549,-0.85438400507,0.0701240003109,-1.92953598499,0.0236959997565,-0.687175989151,-1.63213503361,1.66631805897,0.00338399992324,1.08944702148,1.04928398132,-0.219708994031,-0.32824999094,-1.93293297291,-1.64736902714,0.0374340005219,-0.559149026871,-0.345739006996,0.319200009108,-1.00678801537,-0.916733980179,1.97277605534,-0.106159999967,1.0835570097,0.0234779994935,-1.52497696877,-0.0669739991426,-0.810387015343,-0.443244993687,-0.17492300272,1.18199300766,1.0038369894,-1.10983896255,1.75122594833,-0.14793600142,-0.882974028587,0.833510994911,2.18051409721,-1.40380096436,-1.56328296661,-1.37170696259,-0.0583520010114,1.33173000813,1.82241201401,-0.301964014769,-1.13074994087,1.14261102676,-2.04015398026,-2.7118999958,0.866008996964,-1.40353798866,0.212436005473,2.88111209869,-0.230459004641,0.919782996178,-2.86670994759,-0.484088003635,0.0627899989486,-2.7156059742,-0.177231997252,0.29739099741,-0.553313970566,-3.01716089249,-2.289675951,-0.10345800221,-1.42079603672,0.297058999538,-1.64910900593,1.16449999809,-2.59421205521
条件,-1.01995694637,3.219217062,0.917137980461,-0.296880990267,2.03815889359,-0.497810006142,0.950655996799,-0.603722989559,-0.0847380012274,0.200149998069,-1.08980500698,0.51693302393,-0.178249999881,0.137025997043,-1.57956898212,-0.483826011419,-1.3356590271,0.801810026169,-0.486775994301,-2.71027302742,0.139666005969,-0.695864021778,-0.699777007103,-0.46237000823,0.929543972015,0.944091975689,0.730790019035,1.53463304043,0.557901978493,0.564315974712,0.34964799881,-2.10678100586,-0.0523350015283,0.958187997341,0.130016997457,-1.3868689537,1.21573495865,-0.735302984715,-0.303761005402,0.69489300251,0.336490005255,0.458056986332,-0.737924993038,-0.588577985764,0.124347001314,-0.932294011116,0.227048993111,-1.30212605,1.08659398556,-2.09805607796,0.408187001944,-1.05089902878,-1.08894002438,1.34906196594,-0.401304006577,-0.117050997913,0.434956014156,-0.257782012224,-0.575250983238,0.692853987217,1.13989901543,0.925644993782,0.575262010098,-3.2018020153,0.720457971096,-4.17530584335,0.602074980736,1.17584097385,0.452587991953,-0.317506998777,-0.446348011494,0.914512991905,0.315095990896,1.86986196041,-0.0374150015414,0.24502299726,3.2772500515,0.792174994946,0.433443009853,-0.235018000007,0.560883998871,-0.166759997606,0.673000991344,0.28981000185,-0.342523992062,0.0690879970789,-0.657491028309,-1.18663203716,1.80159401894,1.12184202671,-1.02226495743,1.4509780407,1.47722494602,0.922631025314,-1.98320603371,2.00058794022,0.345825999975,0.0136869996786,-0.613416016102,1.12757599354,-0.15440300107,-0.222123995423,0.217318996787,0.147257998586,0.14794999361,-0.618216991425,2.81049895287,0.118629001081,-1.13777804375,1.28822994232,1.4223870039,0.214010998607,-1.46169304848,-1.42877495289,-0.446590006351,0.301138997078,1.62950098515,-0.725836992264,0.559795975685,1.22631502151,1.07558000088,-3.28698205948,0.68394702673,-2.03644299507,-0.312229990959,-0.371933013201,-0.854613006115,-0.558835983276,0.7757999897,0.743932008743,0.200279995799,0.120993003249,-0.661719977856,0.857949972153,1.11968994141,0.57443100214,-0.447800993919,1.35640096664,-0.980265974998,-2.70224404335,-1.18110895157,-1.53931498528,-1.80918204784,-1.1457669735,-0.218397006392,-1.16230297089,-0.615301012993,-0.368149995804,0.299510985613,-0.586538016796,0.882489979267,0.775999009609,0.377431005239,1.07751095295,2.20162391663,-2.26204490662,-1.02076601982,1.32132899761,-1.78508102894,1.74765098095,1.74342501163,-1.907943964,0.937098026276,-1.70213103294,-1.10068798065,2.31335496902,-2.09426689148,0.709657013416,-1.50673902035,0.218627005816,0.64860200882,0.0271729994565,1.43890094757,0.44787299633,0.0638049989939,0.914976000786,-0.449268013239,0.357196003199,-1.47941303253,-0.664012014866,-0.24750199914,0.195223003626,0.611858010292,1.30629897118,-0.427565991879,1.28042900562,-1.51187300682,-2.61831307411,-1.06637001038,-2.14719605446,0.140498995781,-0.751371026039,-0.536291003227,1.06049704552,1.1115809679,1.61549901962,-1.26731801033,-2.29157400131,1.64075899124,-1.1749509573,-0.0663229972124,1.02854204178,-1.33547604084,-0.574059009552,0.432532995939,0.971180021763,-0.984335005283,0.858120977879,-1.09789502621,0.0366449989378,-2.02166795731,-0.630665004253,0.41033500433,-1.27709305286,2.43325996399,0.226319998503,0.330859005451,0.470479011536,0.0252589993179,1.95628595352,-0.934449970722,2.01787209511,1.35829997063,-0.674067020416,0.975799024105,-0.965767025948,-0.409633994102,-0.195976004004,1.86391997337,0.203874006867,0.185672000051,0.805850982666,3.08471608162,-0.103147998452,3.03689789772,-0.111919000745,2.00543689728,2.21421194077,-0.113876998425,-0.491319000721,-0.469103008509,0.233639001846,-0.700607001781,1.26475203037,-0.86098498106,-0.000654999981634,-0.80868601799,-0.681752979755,0.885923981667,-0.407315999269,-1.59208297729,1.77025604248,-0.184543997049,0.40589800477,-0.615893006325,1.72191202641,-0.504581987858,0.982810020447,0.116998001933,0.21146799624,-0.0181220006198,-0.560833990574,0.0321779996157,1.16325199604,-1.11537599564,-0.834828019142,0.324919998646,1.05040097237,-0.177579000592,0.468143999577,-0.897724986076,2.1294798851,0.449634999037,1.58449804783,-0.92914801836,0.396212011576,-0.184566006064,-0.75377202034,0.442441999912,-0.0569740012288,-0.398458003998,0.838635981083,-0.72994697094,1.17340600491,-0.440683990717,0.431499987841,-1.15204596519,1.52476596832,-0.662265002728,1.6083830595,0.33234500885,0.889360010624,0.787015974522,-0.709644019604,1.1410779953,-0.551234006882,1.49024701118,1.24040794373,0.222304999828,-0.403043985367,-0.638386011124,0.255333989859,0.988524973392,0.560634970665,0.218831002712,-1.76061797142,1.1444029808,0.0812169983983,-1.34197902679,-1.00758397579,-1.25879597664,-1.18515598774,0.759535014629,0.302165001631,1.74075901508,-0.915283024311,-0.298680007458,1.65820503235,0.303986996412,-0.485944002867,-0.829976975918,-0.373034000397,0.223378002644,1.67404103279,-0.212457001209,1.59869897366,-1.83668804169,0.579106986523,-1.50280594826,1.46143400669,1.14073801041,0.508341014385,-0.528214991093,0.72184997797,1.15801095963,0.0696879997849,1.435125947,-0.0634720027447,-1.8859629631,1.38713598251,-0.210326999426,1.18024194241,0.930459976196,0.256487995386,-0.495757997036,1.678647995,2.60258197784,0.0825499966741,1.09703099728,-1.45093905926,1.52621197701,-0.108572997153,0.643356978893,0.417362004519,-0.683166980743,-1.13359999657,1.56917798519,1.21022796631,-0.229014992714,0.600477993488,-0.325332999229,-1.49853694439,0.179000005126,-0.189059004188,-0.3799290061,-1.72047197819,-1.35589396954,0.15988099575,0.335981011391,-0.303274005651,0.618911981583,0.186350002885,-0.66997897625,1.58699095249,-0.736815989017,1.86769795418,2.27840805054,-0.377517998219,-0.305438011885,1.69782197475,1.06245005131,0.933417022228,-1.99243795872,-0.870612025261,1.20707595348,-0.507497012615,0.167786002159,-0.463780999184,-1.5476180315,0.768467009068,1.50145304203,1.38337600231,0.721418023109,-0.543500006199,-0.156599000096,-1.238945961,0.905601978302,-1.34857499599,0.717626988888,-0.079172000289
继续,0.798510015011,2.25025606155,-1.04518294334,-0.17336499691,0.151430994272,0.0112100001425,1.23759794235,1.00536704063,0.581879019737,-0.475080013275,1.35956704617,-0.390024989843,-0.393456012011,-0.387872993946,0.366021990776,-0.3592210114,0.48622700572,0.417656987906,-0.853778004646,-0.35214099288,-0.662716984749,-1.03655898571,0.518895983696,-1.32858896255,2.05264091492,-1.0931019783,1.0198789835,-0.961830019951,1.00796794891,-0.39650401473,-0.563091993332,-1.02294194698,-1.24289500713,0.940671026707,0.37093898654,0.421954989433,-1.71048700809,-0.162706002593,-0.92451697588,0.98197299242,0.100473001599,0.462152004242,-0.622143983841,-0.171860992908,0.289817988873,-0.804096996784,-0.294286996126,0.130070000887,0.231791004539,0.0319360010326,-0.692269027233,-0.155395001173,-0.646910011768,0.37048599124,1.07145905495,-0.0854739993811,1.23684704304,-1.26502597332,0.329766988754,-0.328756988049,0.285762995481,1.45717704296,-0.58752399683,0.105359002948,0.446949005127,-0.801398992538,-0.931419014931,0.438793987036,-0.499927997589,1.09466195107,0.446759998798,0.290087014437,0.0914859995246,-0.318221002817,0.589223027229,0.331216990948,1.83609199524,-1.46871900558,-0.0103949997574,-0.646484017372,0.972684979439,-0.846638977528,-0.564761996269,-0.308777987957,-0.737671971321,-1.46689105034,0.220627993345,-0.431517004967,0.821160972118,-2.38574194908,1.10404205322,0.590399980545,-0.236713007092,-1.47253203392,0.283964008093,-2.77218198776,-0.643015027046,1.05150103569,-0.754512012005,0.542782008648,0.513543009758,0.0407590009272,1.32450997829,0.636370003223,-0.401014000177,-0.840749979019,0.742926001549,-0.469395011663,-1.72642600536,1.74022305012,-0.149453997612,0.454066991806,-1.06769704819,1.22973501682,0.28636598587,-0.148950994015,0.895327985287,0.691861987114,0.505930006504,0.0339689999819,-0.476617991924,-0.439985990524,2.09798693657,-0.815388023853,0.618910014629,-0.949551999569,-0.195016995072,-0.90125900507,0.294519007206,-0.0372299998999,-0.671106994152,-1.2606600523,1.0470969677,-0.169504001737,-0.293390989304,-0.699297010899,-0.605765998363,2.4248290062,-0.27739700675,-0.458732008934,1.08464205265,1.83886098862,-1.70911300182,-2.1063079834,1.98176801205,-0.210480004549,-0.413827985525,-1.36532199383,0.459455013275,-0.228157997131,-0.646238982677,-1.19028902054,0.107872001827,0.89790302515,1.85379695892,-0.337000995874,-0.467303007841,0.0562120005488,-2.12623095512,-0.24019600451,0.430339992046,-2.73530197144,-0.407438009977,0.0536909997463,-1.28455996513,3.04610490799,-0.270781993866,0.281392008066,1.33185100555,1.67276799679,-0.208171993494,-0.995643973351,2.53442907333,0.17049600184,0.172036007047,-0.759828984737,0.187426999211,0.785252988338,-0.25188100338,-0.766350984573,1.549077034,-0.295850992203,1.11314702034,-0.0940229967237,0.561053991318,-0.743116021156,1.12330698967,1.45342099667,-0.680335998535,0.200500994921,-0.165902003646,0.974548995495,-0.0147970002145,1.40728795528,-1.34327399731,-0.416449010372,0.47179800272,-1.47511398792,-0.178660005331,0.724247992039,1.74250805378,-3.81034493446,-0.984277009964,-1.69274199009,0.0567580014467,1.14841294289,-1.26802098751,0.268635988235,0.218658000231,0.122506000102,-0.88724899292,0.472101986408,-0.0446389988065,-0.148265004158,0.917563974857,-0.587583005428,0.602720022202,-1.91691398621,0.345719993114,-1.02961695194,-1.91088700294,-1.68657398224,1.43724298477,-0.263467997313,0.951583981514,-0.00109899998643,0.732856988907,-0.796262025833,1.27184796333,0.397679001093,-0.965803980827,1.9412740469,1.55610096455,-0.259220987558,1.46159803867,-0.877632975578,-1.44589304924,-0.521453976631,-0.497390002012,-0.219677001238,1.77303302288,-1.46398305893,0.487825989723,-0.788595974445,0.354014009237,-1.79190003872,-1.57871198654,-1.0301990509,-0.769814014435,0.639001011848,1.26711797714,1.5947779417,-0.444806993008,-2.34917902946,-0.0108169997111,2.73299789429,-1.90472996235,-0.274251013994,0.690047025681,1.08057200909,0.67039000988,0.609704017639,2.72574090958,-0.463571995497,0.545983016491,-1.1251039505,0.264730006456,-1.15058803558,1.04722201824,0.311363011599,0.492356002331,-0.266790002584,-0.374816000462,0.162973001599,0.308818012476,-1.2579690218,1.93404400349,-0.776885986328,-0.112942002714,0.634612977505,-0.967603981495,1.33321094513,-0.440149009228,0.114184997976,-0.920916974545,-1.00131905079,-1.02196705341,1.02462494373,0.83259999752,0.264337986708,0.127671003342,0.967594027519,-0.438176989555,0.362524986267,0.41354700923,1.52021896839,0.59841299057,1.85756504536,-0.232801005244,-1.43285596371,-0.581537008286,2.33508992195,0.467444986105,-0.171801999211,0.501791000366,1.0182299614,1.56680297852,-1.2392179966,-0.672244012356,-0.290075987577,0.124140001833,-1.58124101162,0.0864190012217,-0.683427989483,-0.174179002643,-1.31965601444,0.238762006164,-0.450619995594,0.20059299469,-2.82169699669,-0.832154989243,-3.42494606972,0.942674994469,0.594752013683,-0.59701102972,2.15144300461,0.698882997036,0.64393901825,0.920619010925,-0.312022000551,-0.168522998691,0.364059001207,0.100653998554,1.05925905704,-2.03014588356,-0.283582985401,-0.430467993021,0.279756009579,0.0454940013587,0.523180007935,-0.430377006531,1.97646701336,0.780510008335,-0.609197020531,-0.266162008047,-0.049281001091,-0.0441079996526,-0.652324020863,0.768966972828,0.0194119997323,2.21729302406,-0.633440971375,-0.40057900548,0.702233016491,-0.854250013828,-0.272958010435,-1.16274905205,1.17917704582,1.3728530407,-1.75097501278,-2.05819392204,-1.38249504566,-0.160395994782,0.934607028961,-2.07225608826,-2.73474407196,0.689947009087,0.29386100173,1.1559150219,-0.700237989426,-0.493041992188,1.18630194664,-0.381462007761,1.0144790411,0.168089002371,0.563494026661,-1.88372898102,0.333166986704,-1.2242269516,-0.204281002283,-0.145456001163,0.185010999441,0.61864900589,0.0770350024104,1.50907099247,0.206266999245,-0.424915999174,1.13236200809,-1.50510799885,0.375070989132,1.17822599411,2.37887191772,0.541804015636,0.920988976955,-0.651280999184,-0.415068000555,0.181599006057,2.54994606972,1.12296199799,1.10557496548
过程,-0.00867899972945,0.0555399991572,-0.400395005941,1.50377297401,0.310746014118,-0.132927000523,1.10550498962,-0.739507973194,-0.99904102087,-0.427576005459,-1.28004801273,0.533555984497,-1.10996901989,-0.771031975746,-0.592020988464,-0.457107007504,-0.314581990242,-2.4766190052,-1.2102060318,-0.356584995985,0.875214993954,0.191432997584,1.47130703926,0.973935008049,0.631749987602,-0.137766003609,1.11022102833,0.78085398674,-0.705249011517,1.67465496063,0.938341021538,-0.130379006267,-0.873179972172,-0.866707026958,0.0195289999247,0.0978820025921,-0.700233995914,-0.221973001957,-0.977545022964,-1.12519001961,1.21090805531,-0.454499989748,-0.00738100009039,0.807547986507,0.758143007755,-0.747911989689,1.13790094852,-0.888795018196,-0.0202699992806,0.379076004028,0.146550998092,-3.32178211212,1.69354403019,1.02000904083,0.0202520005405,-1.29943501949,0.931248009205,-0.0682549998164,-1.50743305683,2.32098889351,0.532851994038,-0.476007014513,-1.06733500957,-0.587372004986,-0.487194985151,-2.01588106155,-0.809215009212,0.480738013983,0.0923470035195,0.936209022999,0.826140999794,0.678364992142,-0.913289010525,0.143581002951,-0.142009004951,-0.0864849984646,2.83286809921,-0.174147993326,-1.63701105118,0.424647986889,0.906117022038,-0.853519022465,-1.12343895435,0.946658015251,-1.16562199593,1.38788700104,0.774740993977,-2.15512990952,1.1141409874,-2.06518292427,1.50052297115,1.28420102596,1.16721200943,1.54871594906,-1.2835149765,-0.735616981983,-0.133061006665,0.816712975502,-0.738236010075,-0.5877789855,-1.17379796505,-0.119999997318,1.74530005455,1.61302495003,-1.04073405266,-2.22317194939,-0.50254201889,1.42805302143,-1.3087259531,-1.09728896618,0.257647007704,0.906841993332,-1.12578594685,-1.96824598312,0.830042004585,3.70031905174,1.69116604328,-0.651683986187,1.77487695217,0.734955012798,0.100579999387,-2.13420009613,1.34398901463,-2.02773690224,-0.73293697834,0.222342997789,-0.962908029556,-1.29573202133,-1.02741098404,0.303791999817,-0.693742990494,1.2382349968,0.529743015766,0.921926021576,-0.900492012501,0.596427977085,0.790844976902,0.970070004463,1.57653903961,-1.18990600109,-1.74877202511,0.662002027035,-1.02022504807,-0.578896999359,0.134469002485,0.50441801548,0.431585997343,0.225494995713,-1.43882596493,-0.539372980595,-0.41155898571,1.91396296024,0.841360986233,0.415858000517,1.01850700378,-1.31919801235,-0.849222004414,0.989827990532,-0.133532002568,-0.53979498148,1.36288797855,-1.48306500912,-0.695693016052,-3.51047205925,0.386287003756,1.4486540556,-1.76490604877,1.5809160471,-0.350816994905,1.5226650238,-0.21151599288,-1.63990294933,0.478020995855,1.67289698124,0.245386004448,-1.67920196056,-0.804192006588,1.37123501301,-0.493734002113,0.190593004227,0.430251002312,-0.846163988113,0.71434700489,-1.69354903698,-0.938440978527,-0.921802997589,-1.74515998363,-0.168414995074,-0.704630970955,-0.416545987129,0.612981021404,0.212834000587,3.28780698776,0.0548410005867,0.256460011005,0.86359000206,-0.282748997211,-0.616008996964,-0.145548000932,0.646583974361,0.913882017136,-0.458458989859,-0.763962984085,0.63233602047,-0.0121060004458,1.08786094189,-1.09290599823,-1.51349902153,0.783267974854,0.942781984806,0.250508993864,-1.45006895065,-0.824971020222,-1.45463502407,1.37183701992,0.00371100008488,-1.51895499229,-0.921235024929,1.08656799793,-0.70797097683,-1.85529303551,-1.69422101974,1.21946299076,0.309179008007,0.178411006927,0.518603026867,-2.34008097649,-0.498430997133,1.11749601364,-0.133805006742,1.09239900112,0.561303019524,1.6673489809,-0.388792008162,1.79538404942,0.0656080022454,0.162879005075,-0.255162000656,-0.0607770010829,-0.222183004022,0.363640010357,0.317597985268,-0.000502999988385,1.07740104198,-1.00079894066,-1.23544299603,-2.48732495308,-0.121650002897,-0.412106007338,-2.54290795326,0.437357008457,1.48697602749,1.0471650362,-2.02708697319,-0.971862971783,-0.461686998606,-1.40055501461,-0.446747988462,2.59653902054,1.28877902031,-0.306914001703,0.170482993126,0.853766977787,-0.927654981613,-0.347526013851,-2.40967011452,-0.391992002726,0.848594009876,1.75915205479,0.688556015491,-0.535790979862,0.929912984371,-1.4412330389,0.0943569988012,-1.08630096912,0.225483000278,-0.63344502449,0.605446994305,0.915624976158,0.986819028854,0.084454998374,2.59024810791,-1.88844203949,3.90731406212,0.283796995878,1.42189097404,0.149832993746,-0.4876550138,0.754164993763,0.881287992001,1.88056898117,0.330949991941,0.00701399985701,0.453595012426,0.882058978081,1.29606604576,0.818556010723,0.0563529990613,-0.0307260006666,0.742200016975,-0.482381999493,-0.563466012478,-0.115690000355,-0.566366016865,-0.0683469995856,-0.65942800045,0.177494004369,1.77376496792,-0.504122972488,-0.555671989918,-0.296236008406,-0.828657984734,1.96465802193,0.132015004754,-0.123425997794,0.268922001123,1.44189500809,-0.999207019806,1.59038197994,-0.533991992474,0.661770999432,-2.11498689651,0.528643012047,1.18253195286,-1.42221701145,0.308665007353,0.427809000015,-0.037879999727,-0.110550001264,0.384799003601,0.110808998346,0.976061999798,0.205593004823,0.884164988995,-0.304616004229,0.0782980024815,0.861600995064,0.151276007295,-2.91892409325,-0.218087002635,0.422152012587,0.617196977139,-0.204183995724,-0.801536023617,-0.279280006886,0.114610001445,0.403448998928,1.29801702499,0.503096997738,-0.506009995937,0.450118005276,-0.818367004395,0.988766014576,1.96731603146,-0.294407993555,-2.52869105339,0.178146004677,2.02869510651,0.911656022072,1.32192397118,-0.382196992636,-0.81893402338,-1.85783994198,1.41347897053,-0.435178995132,-2.15371608734,0.256722003222,0.153050005436,1.67901003361,-0.210337996483,0.855709016323,-0.280324995518,0.219075992703,-1.16114795208,-0.818903982639,0.417506992817,-0.210262998939,-1.32094097137,-1.08360099792,0.0462840013206,0.112097002566,0.917086005211,2.36297607422,0.488864004612,-0.572651028633,-1.27950501442,-0.723555028439,-0.591578006744,-1.33009397984,-1.48595094681,-0.564474999905,0.15594099462,1.04150104523,-0.894953012466,-1.59151101112,-0.348798006773,2.33083605766,0.656710982323,0.954459011555,1.41019201279
内燃机,0.183834001422,0.775837004185,0.491333007812,-0.0169099997729,0.441056013107,-0.0114430002868,0.847787022591,-1.1654009819,0.165039002895,0.391407996416,-1.3072630167,0.0183150004596,-0.59583902359,0.306183993816,-0.731859028339,-0.668357014656,-0.49495100975,-0.696457982063,-0.306865990162,-0.92387598753,-0.398272007704,-0.718163013458,0.61085999012,-0.234704002738,-0.20343400538,0.0681210011244,-0.878098011017,1.20609903336,-0.989576995373,0.27895000577,0.00342900003307,-0.583503007889,-0.503475010395,-0.31606400013,0.39853399992,-0.657325029373,-0.0720369964838,0.361355990171,0.121905997396,0.758817017078,0.629172980785,-0.41379699111,-0.592752993107,-0.409835010767,0.496197998524,-0.412032008171,-0.376556992531,-0.651525020599,0.307125985622,0.612040996552,0.993035018444,-0.843429982662,-0.080067999661,0.440775990486,-0.383552998304,-0.397715002298,-0.522625029087,-0.373333990574,-0.626205027103,0.250836014748,0.146859005094,0.382108002901,-0.243100002408,-0.544053018093,-0.40191501379,-0.265345007181,-0.331420987844,0.45879599452,0.177848994732,-0.421368986368,-0.660551011562,-0.198140993714,0.471727997065,0.974197983742,-0.201644003391,0.764575004578,0.378352999687,-0.640543997288,-0.665789008141,-0.392172992229,-1.03645598888,-0.457150995731,-0.140614002943,0.357176989317,0.0156609993428,-0.409453004599,-0.363234013319,0.00975499954075,-0.410012990236,-0.639747023582,0.38466501236,0.941547989845,-0.497097998857,0.997893989086,-0.209271997213,-0.0625670030713,-0.578076004982,0.395218014717,-1.10384404659,-0.175429999828,0.0380159988999,0.358330994844,-0.325985014439,0.516848027706,-0.942053973675,-0.372516989708,0.0420599989593,-0.285237014294,0.266869008541,-0.0577830001712,0.144867002964,-0.828822016716,-0.237469002604,-0.287829011679,0.10826600343,-0.0187299996614,0.0646559968591,-0.0494690015912,-0.216859996319,0.168237999082,-0.716787993908,-0.79389500618,0.571642994881,-0.730418026447,0.823440015316,0.488135010004,-0.571416974068,-0.310952007771,0.426414996386,1.0714110136,0.0359520018101,-0.144399002194,-0.511111021042,0.285207986832,0.390379011631,-0.320791006088,-0.63237798214,0.144116997719,-0.357304006815,-0.643096983433,0.494134008884,-0.831333994865,-0.670994997025,0.760002970695,-0.183979004622,0.368339002132,-1.17211103439,-0.0185499992222,0.516047000885,-0.32996198535,1.02793002129,0.279962986708,-0.974941015244,-0.52736800909,0.571359992027,-0.206222996116,0.64452201128,-0.0722509995103,-0.380234986544,0.0137299997732,0.462020009756,0.600019991398,-1.52031803131,0.0864010006189,0.211484998465,0.102418996394,-0.413206994534,-0.399890005589,-0.570434987545,-0.111164003611,-0.0447349995375,-0.879490017891,0.603541970253,0.185080006719,0.952467024326,0.632878005505,-0.542016029358,0.107800997794,0.352284997702,0.193009003997,-0.659578025341,0.271773010492,-0.572588026524,-0.109044998884,-0.780255973339,-1.04062998295,0.113045997918,0.595700025558,-0.154192999005,0.0478140003979,-0.569932997227,-0.575689971447,-0.649949014187,0.261633008718,0.31887999177,0.249867007136,0.590512990952,-0.72414201498,0.148609995842,0.342494010925,0.491046994925,0.178581997752,-0.149819001555,0.0625189989805,-0.147961005569,0.493499010801,-0.256597012281,0.331142008305,0.231082007289,0.60222697258,-0.0351289995015,-0.212202996016,0.295226991177,-1.0331619978,-0.150249004364,1.18236804008,-1.32949697971,-0.581903994083,0.210823997855,-0.696915984154,-0.596320986748,-0.705467998981,1.18692803383,0.214836001396,0.654181003571,-0.046264000237,-0.351570993662,-0.494762986898,1.23921895027,-0.581978023052,0.214583992958,0.227353006601,0.499821990728,-0.755419015884,0.700407028198,0.0336860008538,-0.280930012465,-0.110127002001,0.921522021294,0.352068006992,-0.70240598917,0.898190975189,-0.00587400002405,0.405689001083,-0.0632520020008,-0.0996790006757,0.0645819976926,0.0410499982536,0.187012001872,0.57178401947,-0.420771002769,0.437810003757,1.02581501007,0.0882140025496,-0.371504992247,0.490869998932,-1.45791304111,-0.117655001581,1.22234904766,1.1725859642,0.633998990059,-0.0605619996786,-0.0436940006912,-0.206330001354,-0.735871970654,-1.28898096085,0.175159007311,-0.033263001591,-1.42245495319,0.186803996563,-0.668958008289,-0.631740987301,-0.203106999397,0.499567002058,-0.218331992626,-0.104235999286,-1.10639405251,0.0522579997778,0.499776989222,0.142516002059,0.197098001838,1.34901297092,-0.0854709967971,-1.00875794888,-1.12249195576,-0.250391989946,0.413103997707,-0.488638997078,-0.0957259982824,0.400000989437,0.203291997313,0.948761999607,-0.403510004282,-0.357903987169,0.627990007401,-0.274911999702,-0.216697007418,-0.461840003729,-0.653483986855,-0.13989199698,-0.607508003712,0.211024001241,-0.179275006056,0.0551169998944,1.05391705036,-0.246576994658,-0.665304005146,-0.267123013735,0.076700001955,0.505760014057,-0.497554987669,-0.116274997592,-0.212477996945,-0.344812989235,0.386837989092,0.139125004411,-0.977366983891,-0.591700971127,0.101153999567,-0.079031996429,-0.0894260033965,-0.646236002445,-0.170131996274,-0.941054999828,0.138476997614,0.81741297245,0.0139480000362,-0.456339985132,-0.388747006655,0.558032989502,1.06667900085,-1.05493998528,0.0410469993949,-1.00554704666,-0.190908998251,0.32326900959,-0.365292012691,-0.00493700010702,0.0766199976206,-0.651214003563,-0.197705999017,-0.389872997999,0.407588005066,-0.294627010822,-0.294243007898,-0.93171197176,-0.304865986109,-0.186697006226,0.474694013596,-0.147457003593,-0.065486997366,0.259900987148,-0.171287000179,0.87233299017,-0.500416994095,-0.0902649983764,0.257555007935,-0.247243002057,0.563341021538,0.9235060215,-1.07016003132,0.234698995948,-0.325690001249,0.369192004204,-0.849214017391,-0.42602699995,-0.82403999567,-0.594114005566,-1.2811909914,-0.204349994659,-0.301869988441,0.345775008202,0.342453986406,-0.434215009212,-0.203685000539,-0.179545998573,-1.38349199295,-0.898881018162,-1.23344898224,-0.0308459997177,-0.135263994336,-0.016896000132,0.878341972828,-0.0642189979553,-0.120985999703,-1.14104795456,0.205371007323,-0.677389025688,-0.492321014404,0.0807159990072,-0.560383975506,-0.952874004841,-0.621775984764,-0.53493398428,-0.265312999487,-0.463986009359,-0.0752260014415,-0.17769600451,0.770959973335,-0.289622008801
状态,-0.478480011225,-0.982650995255,0.633844017982,0.7592689991,1.14871001244,0.114730000496,1.4279589653,-2.47303199768,0.285409003496,0.463319003582,-1.22175705433,-0.525656998158,-2.23562192917,-1.36244702339,1.1327559948,-1.3874540329,-0.95890301466,0.207910999656,-0.0971919968724,-1.13235497475,-1.11455500126,1.73766696453,-1.31396794319,0.962734997272,0.670473992825,1.50435698032,-1.22279202938,1.08956599236,-0.38527199626,1.19697499275,-0.432233989239,-2.59858393669,-1.80827796459,-0.0665069967508,1.18517303467,0.807254016399,1.77419805527,0.511057019234,-0.381440013647,-0.027215000242,0.571676015854,-0.878497004509,-2.29375600815,-0.795099973679,-0.19917100668,-0.717517971992,0.546101987362,-0.189762994647,-0.301097005606,-0.810774981976,-0.524154007435,-3.55045390129,-0.377548009157,2.51999688148,0.628077983856,-1.8290220499,0.568518996239,-1.854591012,-0.168465003371,2.43246102333,1.99230599403,-0.195884004235,0.734987020493,-1.5243229866,-1.6685179472,-2.3635160923,0.0822570025921,-0.948601007462,1.09952902794,-0.458447992802,3.10972809792,0.253996014595,1.65182495117,1.79038202763,0.401028990746,-0.214597001672,1.7527589798,0.602006971836,0.253118991852,0.967966020107,0.173445001245,-1.66231000423,-0.300062000751,1.0210750103,-1.36575102806,0.0303390007466,-0.451893985271,0.122588999569,0.581408977509,-0.495386004448,0.0254629999399,1.41512095928,1.90770602226,1.10431003571,-0.856391012669,0.30242100358,-0.224720001221,1.52349305153,0.880886971951,0.478841990232,-0.429291009903,1.55762004852,0.234383001924,1.80781495571,0.407025009394,-0.33134201169,0.224352002144,1.22591400146,-0.017614999786,0.396943002939,2.52405905724,-1.27981102467,-1.585242033,0.481444001198,0.76236897707,-0.218059003353,1.29931402206,-1.83640897274,-1.03004598618,2.1706058979,1.3015049696,-0.909798979759,1.78326094151,-0.465202003717,0.749888002872,1.63606500626,1.26000499725,-1.6944309473,-0.105067998171,-0.875603020191,-0.843057990074,-0.30034199357,-0.596441984177,-0.471765011549,0.369370996952,-0.727135002613,0.95896500349,-2.01639795303,0.618157029152,-1.89486598969,0.200242996216,1.07418096066,-1.40496695042,-0.671051979065,0.216553002596,0.188314005733,-0.0465009994805,0.818010985851,0.0576229989529,-0.256653994322,0.694191992283,-0.991783022881,1.57729697227,0.980876982212,0.314500004053,-0.767341971397,-1.71453499794,0.589419007301,0.0150119997561,1.51556301117,-0.273667991161,-2.29002189636,1.99047505856,-2.79865598679,-1.21448302269,2.14121389389,0.562819004059,0.117600999773,-0.923007011414,-1.09167695045,1.53834998608,-2.48310494423,0.979731023312,0.977101027966,-0.248056992888,-0.171809002757,0.827706992626,1.00919997692,-0.382571995258,0.119851998985,1.12404799461,1.75433897972,0.0722120031714,0.12820699811,-1.33452904224,-0.622561991215,-0.525139987469,0.53557997942,-0.149795994163,-0.267632007599,1.64246702194,1.13836503029,0.361138999462,-0.648813009262,-0.143270999193,1.01163601875,-0.53366202116,-0.80179899931,0.167464002967,-1.3033260107,2.3410589695,-0.531705021858,-0.539987027645,-1.11970794201,-0.467204988003,0.380257993937,-2.07591605186,-1.96549701691,-2.45999789238,1.48631000519,-0.533541977406,-1.66707098484,-0.099310003221,-0.253381997347,0.265796005726,-0.440548986197,-1.01735901833,-0.144543007016,0.557632982731,-0.740141987801,-0.316507011652,-0.233371004462,1.72908401489,-1.25133001804,1.22445702553,-1.16061401367,-0.721364021301,-0.497568011284,-0.59530800581,1.66452002525,-0.374642014503,0.498522013426,0.0278859995306,-1.19906103611,3.01545906067,-0.256981998682,1.57413303852,-0.722877025604,0.142931997776,-2.01396608353,-1.44051098824,0.532751977444,-2.09076404572,-0.0985490009189,0.905731022358,0.139422997832,0.437831997871,-0.217134997249,0.66443002224,0.319166988134,-0.204789996147,1.74374997616,0.24628700316,0.495662003756,-1.84383702278,2.79581999779,1.08596694469,1.29177105427,0.745657026768,0.654681026936,-1.60624098778,-0.126406997442,0.718890011311,-0.0385829992592,0.0888080000877,0.0466729998589,1.12198996544,-0.130401998758,0.47379899025,0.32122901082,0.76709997654,-0.688877999783,-0.881976008415,1.06104004383,-2.00750589371,-1.53875398636,-0.334726989269,-0.355167001486,-0.600759983063,-0.385235011578,-0.81735098362,0.983771026134,-0.0825439989567,0.361095011234,-1.03738999367,-0.433030992746,-2.00005602837,0.739525020123,-1.13472104073,-1.18022298813,0.508105993271,-0.135597005486,0.0714579969645,-0.410120993853,0.602890014648,0.50330299139,0.411394000053,1.88283598423,-1.17182803154,-0.318190991879,-0.0719359964132,1.70465302467,-0.316588997841,0.3382999897,0.624692976475,0.314233005047,-0.200525000691,-2.09494996071,-0.0307010002434,1.0105689764,-0.0690210014582,-0.939185976982,-0.0623070001602,-0.531907021999,0.678957998753,-0.26523900032,-0.816455006599,0.825079977512,-0.740607023239,-1.26862597466,-1.15372598171,0.676185011864,-0.0898239985108,0.540373027325,-0.537743985653,1.22491395473,0.201415002346,-0.948081016541,-1.62741696835,0.186287999153,-0.800817012787,-0.898391008377,-0.839064002037,0.376006007195,1.7288299799,-0.482986986637,1.3816640377,0.0593030005693,-0.146882995963,0.0160780008882,-0.726411998272,2.22185397148,0.989198029041,-0.145778998733,-0.176210001111,-0.518827974796,0.167660996318,1.79301095009,1.09614396095,0.298694998026,2.51711702347,-0.506666004658,0.268191993237,2.33812403679,-1.16304600239,-0.817878007889,0.204763993621,1.6185669899,0.190834999084,-0.274816989899,-0.219096004963,0.029755000025,-2.53352403641,2.02245092392,-1.38552904129,-1.87222898006,-0.15437400341,0.715636014938,1.13050997257,1.16961598396,1.56419694424,1.4805970192,0.366914987564,0.984027981758,0.867547988892,0.417991012335,0.232277005911,-0.304580003023,-0.270428985357,1.02933597565,0.822740018368,0.377992987633,-1.41411495209,-0.135582000017,2.11322188377,0.359365999699,-0.883724987507,-0.16413000226,-1.42744803429,1.61357402802,0.110320001841,1.71793401241,-1.36782300472,-0.803988993168,-0.94782102108,-3.32287406921,1.12221300602,-0.257108986378,-0.556707978249,-0.755499005318
开启,1.18117296696,-0.118787996471,-0.713653981686,-0.176382005215,1.12921798229,-0.25561401248,-0.099705003202,-0.357744008303,0.872534990311,0.10804399848,-0.301867008209,-2.54361009598,-0.483747988939,1.0593650341,1.31281304359,-0.437514007092,0.229563996196,-0.619527995586,0.568015992641,0.0130000002682,-0.0418009981513,0.385105997324,-0.275384008884,1.33082294464,0.73262399435,3.57810401917,-0.448632001877,0.928120970726,-0.0645029991865,0.287955999374,-1.42660403252,0.540506005287,-0.878405988216,-1.45652794838,-0.0758949965239,0.837817013264,0.562129974365,-1.7768599987,0.260268002748,0.477079987526,-0.583082020283,1.0154709816,0.859881997108,-2.32359099388,-0.00919700041413,-0.21356600523,0.197276994586,-0.716009020805,-0.266718000174,-1.04147195816,-0.710932016373,0.0489029996097,-0.862358987331,0.42813500762,-0.63221102953,-0.15297499299,-0.322290986776,-0.874593019485,1.48772704601,1.05518698692,-0.902253985405,0.905035018921,-1.59819602966,-0.165928006172,-1.14637303352,1.38760197163,-0.615864992142,-0.592216014862,1.32626903057,1.54209196568,-1.03991103172,-0.685386002064,0.446097999811,0.679365992546,0.0257970001549,0.498737990856,1.4053529501,0.785028994083,0.842755973339,-0.015075000003,-0.766205012798,-1.0740660429,-1.65123999119,-0.637556016445,0.500905990601,-0.565541028976,0.894717991352,1.7347689867,0.148701995611,2.09234595299,-0.396766006947,-0.0945739969611,0.959142029285,0.249295994639,0.811538994312,-0.220753997564,-0.315795004368,0.998907983303,0.416664004326,-1.093577981,1.54041302204,-0.206793993711,1.24542701244,0.10655400157,-0.473226010799,-0.444642007351,0.803146004677,-1.0183570385,0.304318010807,0.0941950008273,-0.206354007125,-0.440750002861,-1.32583296299,0.970045983791,-1.66717004776,0.959848999977,0.290789991617,-1.23633897305,-0.6976749897,-1.15209698677,-0.672816991806,-1.26858603954,1.12510001659,0.0207490008324,0.1236160025,-0.25638499856,-0.964486002922,1.04210698605,-0.993314027786,0.102438002825,-1.54144704342,-1.62894403934,-0.834692001343,-1.72040402889,-1.49670505524,1.09137403965,-0.937763988972,-0.260601997375,0.909541010857,1.10265505314,-0.663583993912,1.44117999077,0.146628007293,-1.41900801659,0.342245995998,0.454142004251,-1.29272699356,0.611765980721,0.833487987518,-1.28588998318,2.3310239315,-0.95352101326,0.594705998898,0.0156129999086,1.74341499805,1.43882000446,0.855490982533,1.10410702229,-2.23071289062,-0.588708996773,0.00537999998778,0.285367995501,0.514572024345,0.630922019482,0.240479007363,1.15106499195,1.4556800127,0.667738974094,-0.443782001734,-1.08778500557,0.101028002799,-0.176281005144,-0.579777002335,-0.588181018829,0.36216801405,-0.672832012177,1.44878900051,1.15997004509,-0.404520988464,0.151976004243,0.220385998487,-0.594592988491,0.760008990765,-0.387710005045,-0.377867996693,-0.089174002409,1.64453196526,0.688925027847,-0.467664986849,-1.4820510149,-1.86976504326,1.27907299995,-0.223290994763,-1.08049702644,-1.68539404869,0.392711013556,2.17515397072,-1.84487605095,0.458375006914,1.01875495911,-0.0791150033474,-2.45912599564,-0.446029990911,0.733722984791,-0.0470159985125,1.1800249815,-1.04300701618,-0.25369399786,0.197415992618,0.843656003475,1.54393005371,0.901885986328,0.321287989616,-1.37519001961,1.12355101109,1.93681299686,-0.808947980404,0.602729976177,0.619572997093,0.231949001551,-1.9159450531,-0.496650010347,1.0113799572,-0.128070995212,0.98222899437,0.730587005615,1.8983399868,0.880191028118,-2.80326199532,-0.637748003006,-0.0240139998496,0.135849997401,0.303844004869,-0.244826003909,0.892524003983,0.237829998136,-0.00391300022602,0.411567002535,0.226087003946,-0.766005992889,-0.119992002845,-0.985130012035,-0.792590975761,0.0916260033846,-0.0946180000901,1.02250301838,0.593729019165,0.364486008883,0.257313013077,-0.879462003708,-0.312934994698,-0.551596999168,-0.11239399761,-1.1843739748,-0.298121988773,1.79349398613,-0.381855010986,1.14808702469,-0.106576003134,1.52507197857,-2.17034101486,1.39706599712,-0.0802609995008,-0.183967992663,-0.222810000181,-1.03186500072,-0.0639839991927,0.738909006119,-0.115377001464,0.998439013958,1.06313800812,-1.54386603832,-0.0250700004399,0.771633982658,-0.0585110001266,-0.228431001306,0.555896997452,-0.277355998755,0.808889985085,0.0738940015435,-1.36831700802,0.969201028347,1.34132397175,-0.599223971367,1.0513420105,1.28025496006,0.40713301301,0.0924270004034,0.402666985989,1.13328802586,-1.21829795837,0.359079986811,0.192743003368,0.602198004723,1.26785099506,0.917490005493,-0.412838995457,1.40195298195,-1.74314594269,-0.857612013817,-0.540338993073,0.0171160008758,0.671851992607,0.661680996418,2.49535989761,0.193705007434,-0.675679028034,-0.209518998861,-0.223902001977,0.356236994267,-2.11953902245,-0.0942979976535,1.14435398579,-0.102237001061,0.0277600008994,1.11240100861,-0.878849983215,-1.71042501926,-0.571349978447,-0.755294978619,-0.301144003868,-1.09178805351,0.616617023945,0.757745981216,-1.03770303726,-0.616137981415,0.0140340002254,0.493849009275,-0.0249850004911,1.06680095196,-0.353583008051,0.931330025196,0.0295809991658,0.94839400053,1.07858395576,-0.935338020325,0.0731400027871,1.53532600403,-1.12463104725,-1.02489900589,0.462889999151,1.73546004295,0.980578005314,-0.646431028843,1.13908994198,-0.0311650000513,-1.80840301514,0.758193016052,1.13289701939,-0.448069006205,0.960470020771,-0.404163002968,0.0719420015812,1.21778297424,0.538760006428,0.577234983444,-0.23839700222,1.31305396557,0.845333993435,1.27589702606,-0.501389980316,-1.05473601818,0.549842000008,0.185322999954,-0.312905013561,-0.558762013912,0.397487998009,0.522073984146,0.53727799654,-1.67279005051,-0.239006996155,2.40545511246,-1.64277005196,0.485895007849,1.15762495995,0.818337023258,-0.746694028378,-0.822131991386,-1.19856500626,-1.24766802788,0.615568995476,-0.952313005924,0.384460002184,1.10877501965,-0.302316009998,0.0235409997404,-0.349290013313,-1.1784620285,-2.17132306099,0.433679997921,1.21652197838,1.38021802902,-0.492449998856,1.66278600693,1.76823401451,-0.058761999011,0.296099990606,0.0952960029244,0.248993992805,-0.488106012344
具有,-0.0681810006499,1.40470600128,2.58015298843,-0.417515993118,1.00962400436,-1.16817700863,1.30608701706,0.617208003998,-0.418976008892,0.680073976517,0.0320670008659,-0.412878006697,-0.458056002855,-1.79766905308,-0.482612013817,-0.850849986076,-2.08274888992,-1.79438197613,-0.0770839974284,-1.89013195038,-0.18320299685,1.71037101746,-0.515230000019,1.49715602398,1.35511505604,1.70045101643,0.843391001225,0.205026000738,-0.423913002014,0.0648590028286,-1.09362101555,0.0337539985776,-0.537654995918,1.05566394329,0.0166209992021,0.806357979774,-0.569635987282,-1.49469900131,-1.22647595406,1.73556303978,0.0558639988303,0.265271008015,0.105435997248,-2.35379004478,-0.376747995615,-0.36556199193,1.25548601151,-2.27157998085,1.02639400959,0.00692400010303,2.40711808205,2.47078704834,0.168236002326,0.261465996504,-0.577809989452,-0.711461007595,1.20865595341,-1.4975039959,-1.41725695133,0.847477018833,-0.984902024269,-1.34774005413,-0.193630993366,-0.443363010883,-2.12132501602,-1.61161196232,-0.036683999002,0.0770559981465,-1.23883497715,0.370943009853,0.356952011585,0.782513022423,0.139865994453,1.46712398529,-0.828422009945,-1.27127599716,1.79189300537,0.0404720008373,-0.571823000908,-1.20284795761,0.168824002147,0.45746999979,1.38751196861,0.675350010395,0.668947994709,-0.0208540000021,-0.198296993971,-1.33238601685,-0.342359006405,0.202732995152,0.675924003124,-0.0596310012043,0.792818009853,0.174928992987,-1.06169605255,0.60242497921,2.69266796112,-0.856046020985,-0.832304000854,-0.920239984989,0.240029007196,0.79019600153,0.500250995159,1.20982801914,-0.877777993679,-1.54953205585,0.789002001286,-0.0270620007068,-0.210247993469,-1.72801196575,0.124601997435,-0.0102399997413,-1.98794603348,0.560717999935,-0.582768976688,0.270738005638,1.57074296474,-2.07348608971,-0.341502994299,-0.572614014149,0.466809004545,-2.11353111267,0.257672011852,-1.0773639679,-1.49024105072,0.523836016655,-3.8909330368,0.0322370007634,0.614049017429,1.9462389946,0.432294994593,1.02524995804,-1.23026394844,0.811007976532,0.511888027191,-0.653074979782,0.123153999448,0.644003987312,0.620209991932,0.664552986622,-0.869156002998,-1.14205598831,-0.596728980541,-1.53448200226,0.8639960289,-2.00579190254,0.358027994633,1.05628097057,-0.402871996164,-1.20546996593,2.7305688858,0.258213013411,-0.436002999544,1.54279303551,1.13282501698,0.675576984882,0.61507499218,0.13313600421,-0.850395023823,1.10713100433,-0.0807140022516,-1.68908596039,1.18916904926,0.00458300020546,1.18081700802,-0.973964989185,-0.456936985254,-1.34860599041,-0.75123000145,-0.329811006784,-0.933367013931,-0.63809800148,-0.0689800009131,0.0177490003407,0.48097500205,0.82540500164,1.90796804428,2.58681893349,1.5687019825,2.3834810257,-2.55086803436,-0.167386993766,0.528226017952,-0.517509996891,-0.928963005543,-0.0507950000465,0.0726799964905,0.476684004068,-1.01190197468,0.669575989246,2.04224491119,-0.568099021912,1.69628596306,0.644079983234,-1.3272190094,-0.755998015404,0.0239199995995,1.02561295033,-0.916594982147,1.42628097534,-0.114302001894,-1.09185600281,-0.0769499987364,0.156933993101,-2.759567976,0.32309499383,-1.16582500935,0.308063000441,0.931065022945,1.64484596252,-1.01818299294,-0.313383996487,0.829441010952,-1.02109003067,1.40923297405,0.0107589997351,-0.743929982185,1.58135902882,-0.00687099993229,0.496219992638,0.294970989227,-0.580114006996,1.24730801582,0.16482399404,-2.8324201107,-2.68248391151,-0.340782999992,0.111527003348,-1.22633004189,-0.721207022667,-1.72058594227,-0.587580025196,0.447302997112,-3.02866101265,2.18809604645,-1.44568097591,0.390179991722,0.929045975208,1.12976002693,0.0662299990654,-0.653360009193,-0.0801040008664,1.08141100407,2.45656299591,0.0704040005803,0.708298027515,-2.02672290802,-0.61773699522,-0.941561996937,-2.54302310944,1.7059930563,0.749988019466,0.789391994476,-2.20186710358,-0.992626011372,-0.356705993414,-1.1988710165,-0.155992001295,0.778155982494,0.136042997241,1.02354300022,0.391003996134,0.450367003679,0.455379992723,-0.00685400003567,-1.35155105591,-1.85231101513,1.5436270237,-1.0235029459,-1.02440702915,-1.30442500114,0.203139007092,-1.23908400536,-0.316504001617,-0.590174019337,1.33123898506,-1.30481004715,-0.494785010815,-2.10413002968,0.325338989496,-0.327114999294,0.678718984127,1.29269099236,-0.818531990051,-0.57722902298,-0.975718975067,-0.473823010921,-1.84104895592,-0.951117992401,2.53559803963,0.138503998518,0.353875011206,0.318973004818,-0.825444996357,1.61142897606,-0.528271019459,0.152013003826,-0.402534008026,0.10733500123,-2.35540103912,-1.74005305767,1.45838999748,0.552447974682,-0.745907008648,-0.173974007368,-0.78741300106,0.289137989283,1.44880998135,1.35511898994,0.996173024178,0.924515008926,-1.22544896603,2.00497603416,-0.649911999702,-1.65961098671,1.28914701939,0.331835001707,-0.15159599483,-0.958675026894,-0.141911998391,-0.348701000214,-1.57021594048,-0.838141977787,0.846167981625,-0.327657997608,0.649896025658,-2.56881904602,-0.188077002764,-1.76996803284,-2.26689600945,1.33644902706,-1.19589698315,-1.27485001087,-1.55149805546,1.99730801582,-1.57301497459,0.634286999702,-0.307164013386,-0.54387897253,0.467918008566,0.0257360003889,1.5084810257,-0.249283999205,-2.2722389698,1.70656895638,1.08219504356,-0.675953984261,2.13902211189,-1.67171704769,0.783581972122,-0.240817993879,-0.773638010025,2.44632005692,2.29708909988,0.571361005306,-0.126895993948,0.937871992588,-0.770433008671,-1.28128004074,1.86798095703,1.48265504837,0.645736992359,-2.69974303246,-0.188534006476,2.70706701279,-0.138572007418,-2.07960009575,-0.427298992872,-0.662240028381,-0.1396510005,-0.28536298871,-2.02715992928,1.39363503456,1.65049695969,-0.0658790022135,-1.30796802044,-1.70810103416,-0.0225639995188,0.366820007563,0.160209998488,-0.21618899703,-0.970288991928,-1.24033105373,0.759651005268,1.81904995441,-1.63943505287,-0.373369991779,-1.52522802353,-2.56299090385,1.27070105076,2.01581597328,1.51417005062,0.541059970856,-0.962484002113,0.908342003822,-0.727864027023,1.95490598679,-0.627606987953,-0.308317005634,-0.275135993958
速度,-1.57200300694,1.80353498459,1.01860499382,0.969099998474,0.413834989071,0.493651002645,0.455273985863,-2.88158392906,1.69862794876,-0.161155998707,-2.5762219429,0.538160979748,-2.52009296417,-0.233801007271,-2.30578398705,-0.863236010075,-2.33120393753,1.25445199013,1.32175397873,-1.14902698994,-0.399437993765,2.00496888161,-0.763176977634,-0.518635988235,0.696523010731,1.75202095509,-0.791994988918,1.82712304592,-0.952610015869,-0.600526988506,-0.958407998085,-0.211742997169,1.48083305359,1.97293305397,1.58793604374,1.19315302372,-0.643092989922,-0.428555995226,0.186665996909,0.442862987518,0.0644420012832,0.0488930009305,-0.73956900835,-0.172805994749,-0.0441670008004,-0.335631012917,-1.19000697136,-1.18225800991,0.199909999967,-2.25303411484,-0.286920011044,-2.04327511787,-1.3098000288,1.55830097198,0.126589000225,-2.13313102722,0.603173017502,-2.11355209351,-0.864796996117,-0.735660016537,-0.239462003112,0.642507016659,-0.948297977448,0.133219003677,-0.591280996799,-0.990135014057,-0.184864997864,0.587033987045,-0.96736997366,-1.01185405254,1.12581694126,-0.494877994061,-0.664168000221,2.28758597374,0.66507101059,0.20135499537,1.92801201344,0.751791000366,-0.109834000468,1.06309294701,1.85319495201,0.0610239990056,-1.40219497681,-1.39451503754,-0.141767993569,-0.872310996056,1.307543993,-0.497996002436,2.57825994492,-1.12530994415,1.95956504345,-0.511106014252,-0.661158025265,-0.192092001438,-0.653430998325,-1.09929203987,-1.93456304073,1.69180905819,-0.449703991413,1.56219804287,0.972118973732,0.961494028568,1.05287599564,0.896966993809,0.515264987946,-1.54763996601,1.02986598015,1.71583902836,-0.0710040032864,-1.50133299828,-0.535538971424,-1.42734897137,0.365808993578,0.360776990652,-0.918367981911,2.19263291359,2.03406500816,0.857671976089,-0.600073993206,0.807606995106,1.54839897156,0.545855998993,-1.86810302734,-0.957997024059,0.63874399662,0.743707001209,0.272742003202,-0.949307024479,0.538124024868,0.160083994269,-0.378015011549,-1.01663804054,-0.0925439968705,1.40086305141,-0.596024990082,0.658499002457,-1.52863800526,-0.549529016018,-0.321992993355,-0.687285006046,1.32759797573,1.97043204308,-0.44735199213,-2.66884493828,0.452749997377,0.630922973156,-2.30685591698,-0.381608009338,-0.851252019405,-2.21414709091,0.0751570016146,0.443201005459,-0.689934015274,1.92643499374,1.88593399525,-0.773397982121,0.535806000233,-1.48916602135,1.33129096031,2.06370091438,-0.565775990486,-0.287571012974,-0.188339993358,-0.362177997828,0.794664025307,1.30550897121,-1.60061895847,-0.735476016998,-0.072605997324,0.40494799614,-0.865998983383,-1.1878349781,1.21334695816,0.381480008364,0.462027996778,0.712359011173,1.57568800449,0.206778004766,1.28163099289,0.405487000942,-0.710061013699,1.35327100754,-0.641404986382,-1.20204496384,-0.248852998018,0.232657000422,-0.443181008101,-1.36769294739,1.19654905796,-0.156663000584,-0.13612100482,-0.502631008625,0.167217999697,0.862176001072,-0.467191010714,-0.713329970837,0.384620994329,-2.11828589439,-1.34121894836,-1.22078597546,3.77998304367,1.22821998596,-0.913720011711,-0.935711979866,-1.84282100201,1.52967000008,0.252943009138,1.23379898071,-1.04961204529,0.726795017719,0.200470000505,0.306470006704,-0.458784997463,-1.91095101833,0.591108977795,-0.0997759997845,-3.089605093,-0.675312995911,-1.45282399654,-0.772767007351,0.827555000782,-0.468968003988,1.40973103046,-0.359219014645,1.45493900776,-0.428521007299,0.629482984543,0.37503400445,1.35552704334,0.643065989017,-1.04625499249,2.36799502373,0.363424986601,-1.20204496384,2.14730501175,-0.0842150002718,-0.684409022331,0.844505012035,0.0243490003049,-1.79518294334,-3.69404292107,0.572444975376,0.140899002552,-0.640491008759,-1.49072003365,0.400193989277,-0.265998989344,-0.354238003492,-1.18881201744,0.77133500576,1.74198698997,1.98088097572,0.0291489996016,-0.115840002894,1.58322095871,1.39404499531,-1.84309196472,0.194137006998,1.66447401047,1.69487202168,-1.78405499458,-1.69746899605,2.82903003693,-0.0329059995711,1.1393250227,-2.57999801636,-0.0452030003071,1.87214004993,0.211189001799,-0.81307297945,-1.06933796406,-2.0707719326,-1.76229405403,0.27156201005,0.132404997945,0.671971023083,-1.71421694756,-1.24603796005,0.125670000911,1.02982294559,1.36573803425,1.98073601723,-0.351352006197,1.24501097202,-1.27984404564,-0.910999000072,0.235894992948,-1.25294196606,-0.42823600769,0.700498998165,0.835168004036,1.36330294609,-2.2052500248,0.131568998098,1.99449801445,1.42971301079,1.9697240591,0.204047992826,-1.78051698208,-1.03546202183,-2.43281888962,1.08118605614,-1.7259850502,-0.903491973877,-0.0592160001397,1.28187799454,-0.306971997023,2.06539392471,-0.452585995197,2.85152602196,-2.11254906654,0.059441998601,1.24455904961,-0.828553020954,0.509649991989,1.37736999989,2.01168608665,-0.56082201004,-0.773302018642,0.168062001467,-0.530326008797,-0.850760996342,0.874445021152,0.996828019619,0.344936013222,-0.777567028999,-0.772732973099,-0.858687996864,-0.602030992508,-0.393427997828,-0.0422750003636,-0.462341010571,-1.9691439867,-0.664749026299,1.49524497986,-0.528798997402,1.18238699436,0.321810990572,-1.16000795364,0.975241005421,-0.719841003418,-0.8551030159,1.71079599857,-1.30095899105,0.911023974419,-0.168757006526,0.582414984703,1.51140999794,-0.121680997312,-0.085257999599,0.848104000092,-0.119182996452,-0.735203027725,0.507946014404,-1.59816598892,-1.68727898598,2.35547208786,1.0436040163,-0.0652540028095,-0.204219996929,1.07963097095,-2.16207790375,-2.29183292389,1.47535395622,-0.787398993969,-1.43535399437,-0.137599006295,-0.489477008581,0.116705998778,1.7008689642,0.803296029568,1.15329504013,2.79700803757,-0.77314299345,-0.220125004649,0.0338510014117,-1.51878201962,-0.487641990185,-3.72328710556,0.10673700273,0.332515001297,1.1238130331,0.854041993618,0.323386013508,-0.260993987322,-1.57116699219,-0.734387993813,-1.29243695736,-1.41646897793,-0.931245028973,-0.568341970444,0.100638002157,0.874089002609,-1.50116097927,-0.108779996634,-0.543062984943,1.1951379776,-0.472297996283,0.233651995659,1.54004597664
方法,1.54761195183,0.990827023983,-0.327183008194,-0.37197598815,0.574606001377,0.293484985828,1.74005103111,-1.73856496811,-0.0923060029745,-1.08626294136,-2.00998902321,0.43620300293,-1.30073702335,-0.680037021637,-1.89868402481,-0.888455986977,-1.55064499378,-1.83553504944,-0.87161898613,-0.49763700366,1.3505179882,1.02813196182,0.977367997169,-0.685593008995,0.981594026089,0.820297002792,-0.019767999649,2.17246794701,-2.09062290192,0.921054005623,0.0531889982522,-1.72384095192,-1.80375099182,-0.0368960015476,1.05803000927,0.513715028763,0.650527000427,1.22783398628,-0.924503982067,0.231599003077,1.83044195175,-2.6031999588,-1.4868940115,-1.67331600189,-0.577297985554,-0.290039002895,0.916206002235,-1.91453301907,-0.3222900033,0.493548989296,-0.826098024845,-2.12019491196,0.119576998055,1.542937994,-1.59610402584,-2.09980797768,0.542051017284,-0.872945010662,-2.17070007324,-0.066049002111,0.592622995377,1.34450495243,-0.589577019215,-0.267865985632,0.706530988216,-1.27283394337,-0.9070789814,-1.12302398682,2.38728499413,0.135851994157,-1.40821802616,-0.114087000489,-0.309055000544,0.962167024612,0.749007999897,-0.971318006516,0.58653897047,0.451445996761,0.850805997849,-0.341628998518,-1.58161902428,-2.21019506454,-0.605367004871,-0.331061005592,-1.52958703041,1.44328403473,0.0525689981878,-1.52260696888,0.904465019703,-0.291063010693,-0.172297000885,0.830762028694,0.145985007286,1.28119003773,-0.951587021351,0.355823993683,-1.0988420248,0.43156298995,0.260545998812,0.507539987564,-0.556213021278,-0.377310991287,-0.335669994354,1.00732302666,-0.170641005039,-1.3868650198,-0.118118003011,0.918187975883,-0.971476018429,-0.142236992717,0.361952990294,-0.883086025715,0.642141997814,0.736922979355,-0.372038006783,2.4302508831,2.32259202003,-0.169682994485,2.13776397705,0.169532001019,1.81692302227,-0.857820987701,1.99147200584,-2.60075306892,-0.121767997742,1.94680595398,-1.22329103947,-0.314671009779,0.665113985538,0.226511999965,1.38485896587,0.885002970695,-1.09799695015,-0.258805006742,1.46639502048,0.149580001831,1.0413210392,0.864571988583,-0.439484000206,-1.37609601021,0.763579010963,-0.30814999342,-1.46359395981,0.272450000048,0.249119997025,-0.522796988487,0.986819982529,-1.36593294144,0.125927999616,-0.716952979565,1.81337594986,0.981096982956,1.33755195141,1.01201295853,0.269383013248,-0.621971011162,0.496942996979,1.27003598213,-0.540296971798,0.657710015774,0.965520977974,-1.52994799614,-1.63346099854,-1.13900303841,-0.340979009867,1.92535495758,-2.30301904678,0.669050991535,-2.27888607979,0.297719985247,-0.0883340016007,-0.803472995758,0.223496004939,1.22509002686,-0.249011993408,-0.475497990847,-0.527503013611,1.61718297005,-1.45383894444,-0.720791995525,-0.20125900209,1.33176398277,0.663972973824,-1.33441197872,-0.281639993191,-0.209653005004,-0.786939024925,-0.477647989988,0.293839007616,-1.04095602036,0.699070990086,-1.11076700687,1.50137996674,1.8093149662,-0.230093002319,0.133323997259,-1.08081698418,-0.737069010735,1.02973401546,0.759046018124,-1.20186305046,-0.468582987785,-2.13765501976,-1.18064403534,-1.27724504471,1.6062489748,0.357784986496,-0.628992974758,0.071465998888,-0.655480980873,-1.00976800919,-0.964860022068,0.0797849968076,-1.9012080431,1.64193201065,1.7102919817,-0.900614023209,0.383547991514,1.33508002758,-1.61486303806,0.595861971378,1.53740799427,0.0717620030046,0.616515994072,0.683772027493,-1.26189398766,-1.46575701237,0.736559987068,0.0272470004857,0.145538002253,-0.368102014065,0.793444991112,1.58785998821,-1.25904095173,0.393613010645,0.627433001995,1.37518894672,0.512313008308,-1.7506300211,-2.25076889992,-0.468176007271,2.17766308784,0.265704989433,-0.0733819976449,-2.29048609734,-1.94903504848,-1.08475804329,-0.355147987604,0.970629990101,-2.08790588379,-0.413760006428,0.33570098877,0.0489999987185,-0.800921976566,-1.18220996857,-0.168350994587,-0.684412002563,-0.794950008392,0.735409021378,2.28644299507,-1.1421649456,0.889887988567,0.668744981289,-1.20581102371,0.873309016228,-0.940289974213,-1.03489005566,0.00443500000983,1.43162500858,0.253740012646,-1.43924701214,1.01075601578,-0.173849999905,1.13378703594,0.18248899281,0.192969992757,-0.471195012331,0.934554994106,0.157490998507,0.700745999813,0.562454998493,-0.541743993759,-0.640058994293,1.39147102833,-1.0099350214,2.17286992073,0.484661012888,0.343795001507,0.182265996933,1.82270395756,0.175562992692,1.14155101776,0.502645015717,0.23024199903,0.866262018681,0.527486026287,2.06319999695,0.970663011074,-0.0840649977326,-0.843645989895,0.133939996362,0.608680009842,-2.18127608299,-0.166582003236,1.08671104908,0.32932600379,-0.267794013023,0.296517014503,-0.664412021637,1.57327699661,-1.22599995136,-1.11412394047,-1.24516499043,-1.86934995651,0.187838003039,-0.787149012089,1.81553697586,1.18633401394,0.724014997482,0.292082995176,-1.32906103134,-0.222615003586,-1.20019102097,0.194634005427,-0.187589004636,1.46550500393,-1.16720199585,0.886389017105,1.51330196857,-1.89611399174,-1.31618404388,1.29877495766,0.75888299942,0.454356014729,0.126384004951,-1.59117805958,0.061005000025,0.986874997616,-0.50569498539,-0.0356089994311,1.1082919836,-0.403710007668,0.985382974148,-0.959599018097,-0.243862003088,1.17414605618,1.11503303051,-0.8060759902,0.898936986923,1.22664499283,0.212603002787,-2.25270795822,1.09353494644,1.29007601738,0.601167023182,-1.58521699905,1.83563494682,0.838518977165,1.48637604713,0.45227599144,-0.140091001987,-0.129343003035,0.561307013035,2.02209591866,-0.292959004641,-1.5379639864,-0.273252010345,-0.0861750021577,0.693979024887,-0.783508002758,1.10660195351,0.758957982063,1.51381003857,0.498144000769,0.777746021748,0.0813810005784,-0.723968982697,-0.374352991581,-2.23366093636,0.248604997993,0.936631977558,0.806483983994,1.06753504276,-1.04903495312,-0.113255999982,-1.26670002937,-0.053072001785,-0.198826998472,-0.183047994971,0.608470976353,-0.615639984608,0.733832001686,-1.13778102398,-0.36121198535,-1.31007504463,-0.667675018311,1.60183000565,-0.779781997204,0.811806976795,0.956007003784
运行,-1.1606849432,-0.656525015831,-0.075255997479,-0.532723009586,0.0464730001986,1.20705294609,1.26445996761,-0.397816985846,0.582304000854,-0.979681015015,-0.567331016064,-1.09222996235,0.746940970421,-0.479604005814,1.29258704185,0.619828999043,-1.38786697388,0.970212996006,-1.10525894165,-2.357847929,-1.40844595432,-0.618166983128,0.588549017906,1.6623159647,2.04786109924,-0.0303499996662,-0.496632993221,0.575631976128,-1.28241801262,1.64940202236,1.62282001972,0.76755297184,0.558974027634,1.38577997684,-0.770676016808,-0.227011993527,0.800027012825,-0.70741301775,-0.895051002502,2.78232002258,0.605969011784,1.19626700878,-1.79579102993,0.937907993793,0.221428006887,1.04507398605,0.823130011559,1.17285001278,-0.742648005486,-1.3043179512,-0.631228029728,-2.04962611198,-0.402240008116,0.522256016731,-0.321945995092,0.744719982147,1.1529020071,0.862375020981,-0.96492099762,-0.289844989777,1.09711396694,-0.808803975582,-1.20535600185,-0.619063973427,-2.46575403214,0.202858000994,-0.454650998116,1.70346605778,-0.703960001469,-1.00161004066,-2.34996294975,-1.49999904633,1.82911002636,2.21653795242,-0.38550901413,0.0952219963074,2.08089399338,1.71557605267,-0.571569025517,2.14657998085,0.0817949995399,-1.7942609787,-0.803575992584,-2.86515307426,-0.552411019802,-0.867260992527,1.79551398754,1.96686899662,0.984613001347,0.268110007048,1.0914529562,-0.433003991842,-2.80281710625,-1.40539205074,-0.503073990345,-1.0464309454,-0.453925013542,2.45623707771,-0.877126991749,1.92231094837,1.26228094101,0.849157989025,-0.15685300529,-0.236370995641,-0.689234018326,0.218425005674,0.323035985231,-1.15470600128,1.00119102001,-0.282934993505,0.660982012749,-2.72453188896,-1.19754195213,-0.217759996653,-0.757104992867,1.51332604885,0.347912013531,1.1600869894,-0.383004009724,0.81476598978,1.32153904438,0.0936300009489,-1.52123403549,0.695918977261,0.772189021111,1.49788200855,-0.725004017353,1.17730200291,-2.33388400078,1.36409199238,-1.31908905506,-3.16762304306,0.283149003983,0.197415992618,1.41433703899,0.557534992695,-0.600094974041,0.337604999542,1.2802489996,-0.333745002747,1.52179801464,0.293805003166,-0.168301001191,0.595323979855,0.119358003139,-1.39197599888,-0.156428992748,1.25164198875,0.304199010134,-2.47467803955,3.04365801811,-1.83220601082,-0.944589018822,-0.836256027222,1.76239800453,0.411864995956,0.0204499997199,0.73619300127,1.37977004051,0.130742996931,-0.288938999176,-1.36778795719,-0.245450004935,-1.12462604046,0.148971006274,0.878207981586,0.982378005981,0.812596023083,-0.365108013153,-1.72299599648,0.363155990839,-0.237626999617,1.20580005646,0.302428007126,2.31230592728,0.460552990437,1.12870204449,0.593782007694,-0.0833690017462,3.4103770256,-1.48870205879,0.0777200013399,0.603371024132,-1.3273370266,1.25828504562,2.60424208641,-0.00101899995934,0.0600080005825,-1.05171203613,-0.862622022629,-1.52153098583,-1.12020003796,-2.52310490608,-0.234154000878,-0.774628996849,0.755514979362,1.64428496361,-1.62653005123,0.6077439785,0.913748025894,1.12296199799,0.413246005774,-0.850396990776,1.84629201889,-0.348318010569,1.64583897591,0.509498000145,3.33392596245,-0.144126996398,1.25650799274,0.44939699769,-0.177328005433,1.72884905338,-0.91188198328,0.789740979671,-0.631790995598,-1.97572100163,-0.213187992573,-1.51351499557,-0.237679004669,0.265836000443,0.828185975552,-0.491149008274,-1.00902795792,1.94737005234,0.312797993422,0.16788700223,0.431663990021,0.681960999966,-0.281058996916,1.03690397739,-0.873965978622,0.816253006458,0.414438992739,1.18812394142,0.51269698143,-0.444732993841,0.0560010001063,0.242021992803,1.23825705051,-1.12224900723,0.396122008562,0.801500976086,-0.183083996177,-0.154100000858,-0.163844004273,0.918601989746,0.262950986624,0.699720025063,1.58277201653,-0.786216020584,2.58009696007,0.482818007469,0.663820981979,0.305013000965,0.896818995476,1.39231300354,0.0264219995588,0.868367016315,2.32353901863,0.47425198555,0.340395003557,-0.0662420019507,-0.221651002765,-1.43947505951,-2.17547392845,-1.08422505856,-1.87314200401,0.40109500289,-0.189591005445,0.496306985617,-0.0429380014539,-1.17206394672,1.49922096729,-1.86005198956,-0.927956998348,0.0579960010946,0.0785780027509,0.504960000515,1.96262300014,-0.577234983444,2.17247605324,0.631965994835,-0.665329992771,-0.959281980991,0.699470996857,-2.11561894417,0.168442994356,0.368317008018,-0.449095994234,-0.414553999901,-0.507799983025,-1.50161898136,-3.04912400246,1.08372998238,-0.889683008194,0.51133698225,1.71916103363,-0.480387985706,-1.00751805305,-0.619560003281,1.65800702572,-1.49876105785,-0.495272994041,-0.282278001308,1.21435201168,-2.27821111679,1.58212995529,0.703665018082,1.34661102295,-1.85202896595,-0.900391995907,-1.029556036,-1.39736402035,0.265215009451,0.255457997322,-1.45652794838,-1.70279800892,0.10157699883,0.407256990671,1.62706494331,-0.752211987972,-2.27156496048,1.18069696426,-0.914228022099,1.59861695766,1.38789999485,-0.711068987846,0.166255995631,-0.904269993305,1.04020297527,-0.867973029613,-0.611138999462,2.2976129055,0.896371006966,0.360935986042,0.674158990383,-0.671123027802,-0.0839660018682,0.865935027599,0.784654974937,0.168547004461,-1.0067139864,-0.604215979576,-0.604308009148,-0.202557995915,0.0990829989314,2.23381090164,0.424008995295,-0.235640004277,-1.76376605034,0.503108978271,-0.425316005945,-0.844963014126,-0.750038981438,-0.367107987404,1.27967703342,-0.0893789976835,-1.4265910387,1.45406997204,-0.700179994106,-0.451763004065,-1.46575498581,0.862798988819,1.11599195004,-1.24439501762,-0.702037990093,-0.760067999363,-1.16280198097,0.700142025948,-0.557235002518,1.28506195545,1.28574895859,-0.428929001093,-0.995214998722,-0.120300002396,-2.68519592285,-1.9374409914,-1.89324498177,1.18246996403,2.05717611313,0.18479500711,1.93403494358,-1.61573004723,0.142792999744,-1.27335894108,-1.27916502953,-0.431410014629,0.408578008413,0.314175993204,1.20744597912,2.6649389267,-1.79811298847,-2.24244999886,0.331117004156,-2.18775010109,-0.174630999565,-0.985993981361,1.07571899891,-1.23454201221
无,-0.576893985271,0.322046995163,1.77209305763,0.0278840009123,1.84014201164,-0.346603989601,1.86688899994,0.159627005458,-0.572169005871,2.41768407822,2.10088992119,-0.749997973442,0.39381301403,-0.417418986559,0.075015000999,0.0452469997108,-1.32057404518,0.495723992586,-0.879902005196,-2.3760778904,0.566851973534,1.72814595699,0.667164981365,-0.80418497324,-0.405427008867,1.75016903877,0.8373259902,-0.00761599978432,0.264797985554,1.67091596127,-0.677838981152,-2.39414811134,-1.24666404724,-0.561693012714,0.632273972034,-1.11611199379,0.662195026875,0.460067987442,-0.280948996544,0.523095011711,0.568674981594,-0.951072990894,1.48995995522,-2.53271603584,-0.392852991819,-0.270509004593,0.329840004444,-1.08533501625,0.346287995577,0.259526997805,0.261332005262,-0.782128989697,-0.66226798296,0.831108987331,0.831516981125,1.09938299656,-0.742285013199,-1.08385801315,1.18703401089,0.897875010967,-1.44138300419,0.460716992617,1.14859497547,0.343010991812,1.87764704227,1.46681702137,0.446817994118,0.748086988926,-0.747723996639,-1.74706399441,1.03498995304,-0.964267015457,-1.14301800728,0.206477001309,0.850588023663,-0.485846996307,-0.247918993235,0.661261975765,1.92179000378,0.562605023384,0.748656988144,-2.9288918972,1.99104404449,1.94206500053,-0.128018006682,0.0332279987633,-1.33720505238,-1.42671298981,2.23925495148,-0.883176028728,1.7966760397,-2.42543888092,-0.081890001893,-1.80250298977,0.700448989868,0.607468008995,-0.0286999996752,0.628341972828,-0.774676978588,-1.62128305435,0.451092988253,1.66969799995,0.292793005705,-1.32668399811,0.398129999638,-0.742862999439,2.01429390907,0.14101600647,1.40009105206,-0.276858985424,0.114730998874,1.49296605587,-1.06808698177,-1.45128202438,1.72430002689,-1.5615259409,-0.241704002023,-3.62986397743,-0.785530984402,2.21703004837,1.20276403427,-1.30190300941,-0.773581027985,-1.32982301712,-0.666031002998,-0.0428850017488,-1.3457570076,1.92326796055,0.46826300025,0.341598004103,1.34078097343,2.34640598297,-2.38670396805,1.59858298302,-0.407200008631,-1.08274900913,0.651351988316,-0.0539649985731,0.368950009346,1.27517199516,-2.43728494644,-0.227397993207,-2.47532200813,-2.8838660717,1.56731104851,-1.40742897987,-0.479164004326,1.66637301445,-1.03205001354,-1.98572397232,-0.306887000799,0.66007900238,-1.33765494823,1.46714496613,1.99339497089,0.657755017281,-0.883556008339,-0.00762300007045,-0.678719997406,1.17426502705,-0.37158998847,1.80983901024,-0.515344977379,-0.0830980017781,-2.09737896919,-0.0990960001945,1.75006902218,-1.68751895428,-0.92750197649,0.118510000408,-0.471881985664,-3.22588205338,3.52277994156,0.157481998205,0.676008999348,1.55782198906,3.3699669838,1.59456896782,-0.860337018967,0.862657010555,-0.38797301054,-1.18530702591,0.74551898241,-0.265686005354,-0.142979994416,0.192665994167,0.0756890028715,1.15541696548,0.330936014652,-0.306475013494,0.322959005833,-0.436886996031,2.98565196991,0.233215004206,-0.993062973022,-0.56108802557,0.50487101078,0.358464002609,-1.37800896168,1.73557305336,-0.0547770000994,-0.63855099678,0.288787007332,-0.76770401001,1.28261899948,0.309350013733,-0.576783001423,-0.890776991844,-0.551461994648,0.29778701067,-0.231306999922,0.525960028172,1.87584996223,-0.137133002281,2.25434589386,-1.5698299408,-0.682667970657,-0.516514003277,-0.215458005667,0.0498740002513,-0.128685995936,0.179137006402,-2.63675403595,-2.31780695915,0.391038000584,-0.627134025097,1.28467595577,-0.467922002077,1.17271304131,0.731755971909,-1.05974805355,0.474184006453,-0.0369610004127,0.102591000497,1.16110897064,-2.15954589844,0.622431993484,-0.0364469997585,-0.0688999965787,1.61180901527,0.62129098177,-0.615525007248,1.47631502151,-0.190040007234,-1.26303005219,0.316799998283,-0.463295996189,0.686841011047,0.265065014362,1.35888600349,-0.610571026802,-3.1062541008,1.30269801617,-0.196049004793,-2.97661495209,0.91184002161,0.2851369977,-0.772660970688,1.3285690546,-2.16670107841,-0.776839971542,2.0233259201,1.05218803883,1.27745604515,0.63712400198,-0.65331697464,-0.249917000532,1.20446801186,-1.20145797729,-0.00678500020877,-2.33052611351,-0.257562994957,-1.36024296284,0.406197994947,1.66534698009,1.58012902737,-0.117913000286,0.874294996262,-1.84707200527,0.510994970798,0.834833979607,-2.02467489243,1.10144603252,-0.578233003616,0.868897974491,-0.674254000187,-0.491452991962,0.429192006588,-0.120940998197,-0.943247973919,1.15952205658,0.330112010241,-0.610199987888,-1.01781201363,1.89599204063,-0.587189018726,0.2607640028,-0.403445005417,0.937285006046,-2.28015708923,-0.815622985363,2.55439400673,0.241157993674,-0.241559997201,1.56227397919,-0.276098996401,-0.394391000271,0.889388024807,0.841202974319,-0.989763975143,-0.745122015476,0.337484002113,1.02581000328,-1.00777697563,-1.35722100735,1.45547401905,-0.851445019245,0.947228014469,-0.711004018784,-1.891051054,-1.44585394859,0.112934999168,-0.999467015266,0.332765996456,-0.613551974297,-0.0757109969854,0.508265018463,2.60321497917,-0.63153898716,-2.54449701309,0.0401169992983,-1.467689991,-0.511978983879,-0.214168995619,-1.21838998795,-0.842534005642,0.673160970211,1.09413695335,-0.475704997778,0.325361996889,0.989966988564,1.83399605751,0.460334986448,-1.46269798279,0.184191003442,-2.7048099041,1.88712596893,1.3463139534,-1.22354197502,-0.603851020336,0.82306599617,-3.20191693306,1.63192999363,1.76593399048,-1.7869310379,0.331010013819,-0.401558995247,1.49239802361,0.717817008495,2.6176199913,3.03774690628,0.268474012613,1.31711399555,-0.130242004991,0.227752000093,-0.998184025288,-0.528487980366,-0.835344970226,-0.896035015583,-0.365395009518,1.40295600891,0.669176995754,0.193682998419,0.432161003351,-0.834527015686,-2.15862798691,-0.470948010683,-0.515200972557,-2.49270606041,0.683555006981,2.29355311394,0.421537011862,0.07651899755,1.63724994659,1.50597000122,-1.17216396332,-1.43982994556,0.294117003679,-1.32173097134,1.64918994904,1.52328205109,0.336528003216,-1.19838404655,0.0612850002944,2.73247790337,-1.36321794987,-2.80073809624,-0.441367000341,1.80210900307,0.410407006741
