word,0,1,2,3,4,5,6,7,8,9,10,11,12,13,14,15,16,17,18,19,20,21,22,23,24,25,26,27,28,29,30,31,32,33,34,35,36,37,38,39,40,41,42,43,44,45,46,47,48,49,50,51,52,53,54,55,56,57,58,59,60,61,62,63,64,65,66,67,68,69,70,71,72,73,74,75,76,77,78,79,80,81,82,83,84,85,86,87,88,89,90,91,92,93,94,95,96,97,98,99,100,101,102,103,104,105,106,107,108,109,110,111,112,113,114,115,116,117,118,119,120,121,122,123,124,125,126,127,128,129,130,131,132,133,134,135,136,137,138,139,140,141,142,143,144,145,146,147,148,149,150,151,152,153,154,155,156,157,158,159,160,161,162,163,164,165,166,167,168,169,170,171,172,173,174,175,176,177,178,179,180,181,182,183,184,185,186,187,188,189,190,191,192,193,194,195,196,197,198,199,200,201,202,203,204,205,206,207,208,209,210,211,212,213,214,215,216,217,218,219,220,221,222,223,224,225,226,227,228,229,230,231,232,233,234,235,236,237,238,239,240,241,242,243,244,245,246,247,248,249,250,251,252,253,254,255,256,257,258,259,260,261,262,263,264,265,266,267,268,269,270,271,272,273,274,275,276,277,278,279,280,281,282,283,284,285,286,287,288,289,290,291,292,293,294,295,296,297,298,299,300,301,302,303,304,305,306,307,308,309,310,311,312,313,314,315,316,317,318,319,320,321,322,323,324,325,326,327,328,329,330,331,332,333,334,335,336,337,338,339,340,341,342,343,344,345,346,347,348,349,350,351,352,353,354,355,356,357,358,359,360,361,362,363,364,365,366,367,368,369,370,371,372,373,374,375,376,377,378,379,380,381,382,383,384,385,386,387,388,389,390,391,392,393,394,395,396,397,398,399
分隔,-1.83757901192,1.84215402603,-1.04154205322,-0.367042005062,0.482217013836,-0.0450140014291,1.92358100414,-0.409393012524,0.900488972664,0.486396998167,0.0548049993813,0.0576720014215,-1.05463695526,-0.707131028175,0.502295970917,0.193425998092,-0.270682990551,0.219491004944,1.4636169672,-0.879477977753,-0.606306016445,0.368537008762,-1.46226799488,0.868021011353,1.47470200062,1.21083498001,-0.411828994751,0.520188987255,-1.11385202408,1.10929894447,-0.488413989544,0.00054400000954,1.29205405712,-0.377202987671,1.26772296429,-0.123158998787,0.0416410006583,-0.572769999504,0.982573986053,1.04717898369,-0.637879014015,0.281423985958,-1.23770701885,-1.70317494869,1.19030201435,0.120024003088,1.14717304707,0.260621011257,-0.267259985209,1.21573901176,-0.963620007038,0.192772001028,-1.52340602875,-0.528406977654,-0.352973014116,0.511343002319,0.794386029243,-1.7766109705,0.27706900239,-0.330244988203,-0.664563000202,-0.571045994759,-1.25987803936,-0.347705990076,0.487978994846,0.432038992643,-1.23741602898,0.0313070006669,0.565684020519,-0.706556022167,-0.306454986334,-1.29139602184,0.139880001545,0.871716022491,-0.164440006018,-0.264708012342,0.0427069999278,0.491786986589,0.0682659968734,0.469080001116,2.58462095261,-0.998279988766,-0.290419012308,0.49598801136,1.35740602016,0.150821000338,-0.0584550015628,-0.7478479743,0.782077014446,1.55735695362,-0.330733001232,-0.850584983826,-1.00024795532,-0.962365984917,0.240263000131,-0.486467987299,-0.688436985016,-0.87098801136,0.837031006813,-1.91349494457,0.18788599968,-2.23852205276,0.613896012306,1.2653850317,-0.748423993587,-1.39333999157,0.280521005392,-1.97655701637,-1.5094050169,0.438412994146,-0.5630890131,-2.02902388573,-0.215091004968,-0.114854998887,1.02521300316,0.289945989847,0.41078299284,-0.94643497467,-0.562157988548,1.41426205635,-0.110850997269,0.935970008373,0.831421971321,0.185911998153,-1.120890975,-1.58431899548,-1.74272704124,-0.449021995068,-1.38409805298,-0.821676015854,0.895345985889,-1.50174200535,-0.0686070024967,0.565358996391,-0.399287998676,-0.0453439988196,-0.72412699461,0.00325100007467,1.19625401497,0.719581007957,-0.746271014214,1.18067097664,-1.43104994297,-0.115411996841,0.814397990704,-1.45814597607,-0.0150389997289,-0.101988002658,-0.957610011101,-1.19077503681,0.412472993135,0.60294598341,-0.410804003477,1.65096497536,0.517373025417,0.565908014774,0.0756729990244,0.59693300724,-0.0794719979167,2.03490400314,1.11277103424,-0.0704609975219,0.91616499424,-1.00430095196,0.658876001835,0.110945001245,0.203700006008,-0.565798997879,0.0853260010481,0.0241969991475,0.129346996546,1.28900694847,1.09513497353,0.76304602623,0.705061018467,-0.333061993122,0.921721994877,-0.211807996035,0.184429004788,0.92822599411,0.186847999692,0.54006499052,0.573761999607,0.629531979561,-0.459324985743,1.05502796173,1.10191702843,0.755285978317,0.27606099844,-0.010161999613,1.73883104324,1.04458999634,0.00742400018498,0.743411004543,0.635601997375,-0.265628010035,0.649024009705,-0.384972006083,2.39220905304,-0.4425149858,-0.762380003929,-1.07069194317,-1.30734598637,0.404015004635,0.0024759999942,1.25695705414,0.948819994926,0.19970099628,-0.109932996333,1.18089699745,0.486773997545,-0.506430983543,2.2755548954,-0.311096996069,0.627709984779,0.509214997292,0.523988008499,-0.867563009262,-0.231189996004,-0.978996992111,1.09631705284,-0.250119000673,-0.055337999016,1.42148995399,-0.509729981422,-0.134739995003,0.684772014618,-0.487832009792,-0.0284209996462,0.296341985464,0.807099997997,0.0273529998958,-0.504598021507,0.598574995995,-0.278715014458,0.167539000511,-0.0742309987545,-0.386119991541,-0.295623987913,1.53384494781,-0.0880250036716,0.695268988609,-0.233373999596,-0.482491999865,1.45141804218,-1.97215998173,1.04499101639,-0.284611999989,0.668677985668,1.50740003586,-0.451106011868,0.657236993313,-0.051220998168,-0.553873002529,0.390044987202,1.21365296841,0.603570997715,-1.51697194576,1.06541001797,1.14973795414,0.621317028999,0.748701989651,0.270577996969,0.914758980274,-1.88602805138,-0.815288007259,-0.344076007605,-0.487304985523,1.84107005596,0.239592000842,0.80438798666,-1.45250999928,-1.08982002735,0.951326012611,-0.0118909999728,1.47160696983,0.210114002228,0.778591990471,1.01819694042,-1.17083895206,0.221138000488,-1.21946001053,0.864259004593,-0.288069993258,-0.321720987558,-0.429731994867,0.442571014166,0.60456597805,0.00429200008512,1.79319405556,0.157397001982,-0.349047005177,0.818143010139,-0.982807993889,1.16090500355,0.356898009777,-0.284025013447,-0.238904997706,1.15515804291,1.23446798325,0.448442012072,-0.570491015911,0.128080993891,1.27384996414,-0.428613990545,0.039848998189,-1.25873303413,-0.538281023502,-1.60161304474,0.51777100563,-1.41949605942,0.770112991333,0.674022018909,-1.12864601612,-0.0651900023222,1.20075404644,-2.17668509483,-0.253158003092,1.04357302189,-0.733771979809,0.184679999948,0.110821999609,-1.24242794514,1.69767701626,0.355969011784,-0.290998011827,-1.26497101784,-1.19523394108,0.488480985165,-0.254002004862,-0.166440993547,0.0713419988751,0.778762996197,1.3670129776,0.637633979321,0.520030021667,-1.05326998234,-0.365299999714,-0.00316799990833,1.13183200359,0.673636972904,-0.620012998581,0.0667070001364,-0.620261013508,-0.0282990001142,-1.49338102341,-0.0210790000856,0.455330997705,2.20232510567,0.663743972778,1.53783404827,1.32154297829,0.299134999514,-0.509975016117,0.138054996729,-0.783203005791,-0.821071028709,0.835690021515,-0.480738997459,1.41846597195,-0.637529015541,-1.37770795822,0.546095013618,0.179534003139,0.312651991844,0.679902970791,0.357519000769,-0.321774989367,-0.979309976101,-1.02391195297,-0.134142994881,1.47017502785,-0.917248010635,1.3815510273,-0.57152402401,-0.768368005753,-1.92677903175,-0.144878998399,-1.31024205685,-0.815348029137,-0.28749999404,1.48970901966,1.49528503418,0.736660003662,1.91995799541,-1.04502999783,0.347496002913,-1.32685494423,-1.1533370018,1.07258498669,-0.204890996218,1.29961204529,-0.890192985535,-1.29638195038,0.664156019688,-0.468825012445,1.50204694271,0.0494889989495,0.435057997704,-0.114630997181
下,-0.177151992917,-1.69198596478,-2.08713293076,0.944195985794,-0.708854019642,0.456335991621,-0.639824986458,-0.957363009453,1.09864401817,1.40892398357,-0.387759000063,-0.938455998898,0.894336998463,-0.864046990871,-0.198118001223,-1.08999705315,-1.92924797535,-1.24481499195,-0.59705799818,-1.23743104935,-1.18381202221,0.794543981552,-0.0083189997822,-0.226052001119,0.687810003757,-1.55546295643,0.317465990782,1.49007499218,-0.261269986629,0.994642972946,1.94464504719,0.640730023384,-0.770398020744,2.0429110527,-0.110380001366,0.922996997833,0.113107003272,0.205526992679,-2.82136702538,1.89452302456,3.32875490189,0.698167026043,-0.873862981796,-0.58448600769,-0.581237018108,0.893419981003,-0.922176003456,0.995657026768,-1.12635600567,2.25751304626,2.02398300171,-1.78280103207,0.0932089984417,-0.0398330017924,0.0612320005894,-0.274904996157,0.310786992311,-0.530215024948,1.03887605667,2.72055792809,-1.19953894615,0.247078999877,1.23760998249,0.414350986481,-1.14496195316,0.228598996997,-1.35456597805,-0.169807001948,0.832197010517,1.93600296974,2.06778001785,0.103858999908,-0.61331897974,2.02387309074,-0.334181010723,0.734863996506,-0.332659989595,-1.38512694836,1.40679502487,-1.61243605614,-1.11354899406,-2.40010094643,0.930015027523,1.98360002041,-0.749872982502,-2.00952601433,1.14649200439,0.896368980408,-1.41559302807,0.646767020226,-0.242310002446,1.04111397266,-0.807256996632,-1.42269694805,-0.0991519987583,0.731622993946,2.13618206978,1.25740695,-0.720605015755,0.618525981903,-2.23406100273,-0.565240979195,0.971101999283,-1.59139800072,-1.32988595963,-0.551948010921,-1.23621296883,-0.790661990643,-2.32007908821,1.05289804935,0.0502530001104,0.720089972019,-0.368364006281,-0.102972999215,-1.27992105484,2.13889503479,3.24248695374,-0.633369028568,1.46749794483,0.45931199193,0.27561300993,-0.232710003853,0.947714984417,0.045745998621,-0.248649999499,1.1833820343,-0.218764007092,0.101649999619,-1.45873200893,-1.13663303852,1.98477602005,-1.07700705528,1.43760895729,-0.198335006833,-1.01847803593,-0.03395299986,-1.56923794746,0.900044023991,-0.37273401022,1.61596703529,-0.260468006134,-2.34917593002,0.105260998011,-0.905351996422,0.921850979328,-0.538927972317,-0.688171982765,2.20952510834,-1.17125999928,-1.24927902222,-1.4170819521,0.194316998124,1.38921403885,-0.339843988419,1.37675702572,-2.76567602158,-1.59099805355,-0.220063999295,-1.13695001602,-1.1515610218,0.809409976006,-1.33267295361,-0.405575990677,-1.49041497707,0.508355021477,3.89326310158,0.38553699851,-0.690907001495,-1.94396603107,2.85845398903,-2.20428609848,-0.181425005198,1.27848005295,1.12695598602,-1.15279698372,1.13596594334,0.0206489991397,1.18373596668,0.634985983372,1.86012995243,0.991277992725,0.332480013371,0.180346995592,-0.360204994678,0.140037000179,2.63815808296,1.12659394741,-0.26134198904,0.318201005459,-1.72667598724,-0.00948700029403,1.26458001137,3.01194596291,0.342485994101,1.52651894093,0.85865598917,-0.365951001644,-1.40462398529,-0.0688780024648,1.16212999821,-1.03851401806,0.604605972767,-0.844945013523,-1.19195699692,-0.133138999343,0.343964993954,-2.33540606499,0.226615995169,-1.52457296848,3.0722990036,1.2427200079,-0.125264003873,-1.12336802483,-2.26367998123,2.84671497345,-0.344126999378,2.46301102638,-0.0336260013282,-0.392486006021,-0.195777997375,-1.61545097828,0.770986020565,0.116593003273,-1.41812396049,0.636255979538,-1.16265404224,-1.11037099361,-0.875633001328,0.0243699997663,-1.40822505951,-0.606890976429,0.624018013477,0.673636972904,-1.87606501579,0.081605002284,0.516528010368,1.29147803783,0.0490459986031,-0.0236629992723,-0.443946987391,-0.215945005417,-1.23235499859,2.69667696953,-1.83564901352,2.32637405396,1.33492100239,1.14535200596,0.905119001865,-0.184304997325,0.707165002823,0.975138008595,5.06782102585,0.585910022259,1.25623297691,-0.934481024742,-0.112586997449,-0.698623001575,-1.48758995533,0.578720986843,1.64111995697,2.04105305672,1.68291401863,0.848793983459,-0.0217829998583,-1.26642501354,1.16666996479,-1.07508099079,0.110679000616,-1.12069404125,0.544659972191,1.14286804199,-1.69309794903,-0.713940024376,0.286096990108,-1.77691102028,-1.17423295975,0.96621799469,-0.740315973759,0.80278301239,0.187506005168,0.0716340020299,0.97910797596,-0.967276990414,0.0745259970427,0.860424995422,0.261723011732,-4.44738721848,-3.40809798241,2.86366391182,1.39577794075,0.917034983635,0.771076977253,-0.228807002306,-1.15954899788,0.609099984169,1.45891094208,0.634908974171,0.800562024117,-1.2172139883,-0.292212992907,1.1575499773,0.597461998463,1.97449398041,0.91460198164,-0.37280100584,0.178586006165,0.458662986755,0.407839000225,-0.687608003616,0.0526780001819,-0.782820999622,-0.487251013517,0.280066996813,-1.03609097004,0.130817994475,0.768110990524,0.631923019886,1.48318099976,0.523229002953,-1.21155905724,0.758045017719,-1.61973798275,0.701026022434,-0.401421010494,1.35868501663,-0.825379014015,1.38575196266,1.16316795349,-1.73200297356,0.0238790009171,0.961093008518,1.02978098392,-1.29049599171,0.665359020233,-0.820365011692,-2.18468403816,-0.334084004164,0.980069994926,-3.98383998871,0.872865974903,1.49729502201,1.46779799461,2.14794397354,-0.950878977776,0.513378024101,-1.91630399227,0.754900991917,0.832765996456,-0.641210019588,-0.521933972836,1.85564494133,0.903090000153,-0.407898008823,0.23223400116,-0.374660998583,-4.55788612366,-1.55403494835,1.89321100712,-0.556829988956,-0.404866993427,-0.843684017658,-0.88356000185,-1.13383197784,2.36927390099,1.76691997051,0.315434008837,1.13449001312,-0.446197003126,-0.342123985291,-0.808694005013,-0.169398993254,-0.257034987211,-1.88924598694,2.05441308022,0.276468992233,-0.640724003315,-2.88252902031,0.0012229999993,-1.46148204803,0.50953400135,0.835738003254,-3.2305328846,-0.331382989883,-0.20215600729,2.63491106033,0.160587996244,2.04942893982,0.514998972416,-1.64782297611,0.831591010094,0.502824008465,0.490069001913,0.500800013542,1.22618198395,-0.273622006178,-0.371504992247,0.0729139968753,0.306708008051,0.509238004684,1.49932098389
后,0.603210985661,0.0347060002387,-0.785624980927,0.494157999754,-1.26350796223,-0.575152993202,2.64691305161,0.870805025101,1.3299369812,0.253230988979,-0.0204569995403,0.934725999832,-0.191836997867,0.517759025097,-0.673139989376,-0.576493024826,-1.56474304199,-2.21556401253,-2.01284909248,-2.14451503754,-1.69842505455,-2.66473698616,1.33543097973,-1.51089894772,1.54261100292,1.76147794724,0.845257997513,0.469505012035,-0.351853996515,1.86782300472,1.31449198723,-1.50147294998,0.483696997166,2.35928702354,0.600040018559,1.8148419857,-0.300199002028,-1.69428694248,0.865104019642,-1.41154098511,0.956963002682,0.522508025169,0.333532989025,0.606504976749,0.161902993917,1.30918598175,0.678290009499,0.577345013618,0.33889400959,0.276129007339,0.692786991596,-0.137932002544,0.942435026169,0.578170001507,-1.65305495262,-0.658437013626,1.09236598015,-0.402756005526,0.0911509990692,3.60482692719,2.0443611145,0.378010988235,-1.46362102032,-0.975645005703,-0.528737008572,-1.51622700691,1.51104295254,1.17877602577,0.408661007881,1.46140599251,-1.2531260252,-0.34530299902,-0.123360998929,-0.181835994124,3.34637308121,0.0315839983523,0.62046200037,-2.19285202026,2.09758806229,-0.0385910011828,1.08900904655,-2.18403196335,-0.799256026745,1.73781704903,-1.63619196415,-1.41359496117,-3.09298992157,-0.625872015953,-0.795469999313,-1.3972530365,0.830874979496,0.700950980186,0.53650200367,1.17748296261,-1.76544296741,-1.90922701359,0.474566996098,1.7215950489,0.973812997341,-0.157897993922,-1.24840795994,-1.36280703545,-0.615781009197,0.428030997515,-2.48583507538,0.783878982067,-0.530287027359,-1.3346170187,-1.11798405647,0.527666985989,0.476805001497,1.15726602077,-2.21915388107,-2.12250995636,1.08374798298,1.26669597626,3.52744603157,-1.76097202301,0.777809977531,0.983877003193,-1.84730601311,-0.412364006042,1.49676299095,-3.51971507072,-0.556240022182,-0.925643026829,3.34719610214,0.16301099956,-0.0459650009871,0.395314991474,-0.382766991854,-0.70357298851,-0.230561003089,3.02608299255,-0.599134027958,-0.0271429996938,-0.398936986923,0.990373015404,0.30357798934,1.7313079834,0.122867003083,-0.605457007885,-2.31857800484,-2.26835894585,-0.20022200048,-2.15050792694,-1.76349103451,0.707310020924,1.38350999355,1.08449602127,2.57494592667,1.76738405228,1.47926294804,-0.489652991295,0.322719991207,0.976212978363,-1.44745194912,0.644068002701,-1.16589796543,2.19568300247,0.188703000546,0.0877809971571,1.17155301571,-2.01095104218,-1.69431698322,4.34569978714,0.217218995094,1.27699196339,-0.23782800138,2.5730919838,-1.00124299526,-0.0930769965053,2.22368788719,1.76483094692,-0.919637024403,1.03564596176,1.88502395153,2.0766620636,-1.33113801479,1.22081196308,0.625045001507,0.368667006493,0.0833719968796,0.863148987293,-1.99380302429,-0.558542013168,-0.708558022976,2.36400389671,-2.27570009232,-1.80773901939,0.869234979153,2.12317204475,2.51707410812,-1.62506902218,3.03367400169,0.214984998107,-0.245753005147,-0.820199012756,0.309466004372,0.876654982567,2.48081111908,0.770839989185,-0.0791369974613,-0.312968999147,0.412124991417,0.822840988636,-2.10882592201,-2.58200907707,0.352239996195,-2.01827597618,2.55144309998,-0.378760010004,0.0738319978118,-0.071754001081,0.632861018181,2.15830588341,-0.872416973114,-2.69245100021,0.580556988716,-0.236038997769,0.0154139995575,-0.654304027557,2.52684497833,0.686267971992,-1.23981797695,0.047281999141,-0.988022983074,0.168362006545,0.556134998798,1.38182902336,-2.96793103218,1.8086810112,0.142085000873,-0.773801982403,1.49226903915,1.59448695183,0.517005980015,0.680790007114,0.686294972897,-0.43153399229,-0.710056006908,-0.896338999271,-0.507426023483,-0.422405987978,0.50382900238,1.97771501541,0.539036989212,-0.525830984116,-0.759881019592,0.546425998211,2.01007795334,2.26830005646,0.701309978962,-1.21295404434,0.121017999947,2.45992088318,-0.499063998461,-2.1731801033,1.09198701382,2.45194005966,0.186299994588,0.601225972176,0.787558972836,-0.411577999592,0.362731993198,0.0565459989011,-1.64237201214,-1.99497199059,-0.795789003372,-1.14559602737,0.753611028194,1.15181005001,0.183023005724,-0.499363005161,-2.52635192871,-1.72194302082,2.11275792122,-0.528693020344,0.176563993096,-0.768311023712,-0.815719008446,1.06368196011,-1.54218196869,0.922774970531,0.581542015076,1.47887897491,-0.781907021999,1.23827803135,1.09250998497,-0.0100149996579,-0.0523950010538,1.84949994087,-1.73537003994,1.04930198193,-0.33188700676,1.04789495468,0.533146977425,2.4515080452,0.211678996682,0.574667990208,0.839742004871,-0.866403996944,1.32858896255,2.92145490646,0.66370600462,-0.180169999599,2.92573308945,0.0583579987288,-0.599123001099,1.64739096165,0.207671001554,-0.495117992163,0.542833983898,0.260082989931,0.561344027519,-0.0348640009761,1.4849640131,1.96251797676,0.497233986855,-2.10367488861,1.769947052,0.0264490004629,-0.36058101058,1.11618196964,-1.72266304493,-0.385150998831,-0.0157459992915,-2.2307510376,0.605859994888,0.588126003742,2.10681390762,-0.688789010048,0.356242001057,1.14965498447,-0.981537997723,0.173343002796,3.68177008629,-0.381969988346,-1.38900196552,1.38178896904,0.966270983219,0.688124001026,0.532065987587,1.44563996792,-0.27931201458,0.0963620021939,0.399682998657,1.04618704319,0.998041987419,0.203115001321,3.42424511909,-1.3360439539,-1.04951095581,1.14394795895,-0.324674010277,-1.75751304626,-1.24423694611,1.27235102654,0.605310976505,-0.442956000566,0.0536490008235,-3.18103194237,0.614953994751,0.525174975395,1.5757600069,-1.85876297951,0.856288015842,-0.338380992413,1.63842594624,1.69497895241,-0.536189973354,0.669264018536,-0.170626997948,1.52422297001,-0.227938994765,1.51888597012,0.123373001814,-0.10967399925,-1.78425002098,0.630774974823,0.721310973167,0.307188987732,0.499289989471,-2.39683103561,1.33934295177,-0.419124990702,0.917824983597,-0.368023991585,-0.965664982796,-1.33966100216,0.80374699831,0.237022995949,-0.0380759984255,-0.277119994164,-0.933099985123,-0.454623997211,0.441679000854,1.46221995354,-0.901385009289,0.53845500946
主体,-0.930088996887,-0.496666014194,-0.830797970295,-0.502948999405,1.1992559433,0.197106003761,0.403576999903,-2.28561210632,1.74382603168,-0.0765860006213,0.66540902853,0.13608199358,-1.01383697987,1.22373402119,-0.0966150015593,-0.695716977119,-0.165179997683,-0.555420994759,-0.385944008827,-0.910574018955,-0.0934050008655,0.0801320001483,-0.561878979206,-0.738084971905,0.454077988863,1.01010799408,0.183761999011,0.263547003269,0.17360599339,0.817282021046,1.18502604961,0.566425025463,-0.561182975769,1.27371001244,1.61482298374,-1.46977996826,-0.397579014301,-1.69619905949,0.807232022285,0.890949010849,0.684536993504,-0.582243025303,-1.03252494335,-0.677124023438,-0.00636200001463,0.720743000507,0.692734003067,-1.24802398682,-0.360399007797,0.261200010777,1.09478700161,-0.0460349991918,0.973127007484,-0.191486999393,-2.28452205658,1.21738398075,1.16684794426,-1.01294100285,-0.936502993107,0.0983579978347,-0.807563006878,-1.16268897057,-0.755760014057,-1.51870501041,-1.11157798767,-0.874792993069,-0.328455001116,2.3034350872,0.448756992817,0.410353004932,-1.23011302948,0.359710991383,-0.0892240032554,1.26777994633,0.677375972271,-1.5712389946,2.02317810059,-1.03018498421,-0.461905986071,-0.428469002247,0.646615028381,-1.6845240593,-0.222267001867,0.607349991798,-0.163982003927,0.84012901783,-0.579244017601,0.0134330000728,0.739383995533,0.434098988771,-0.0458270013332,0.30867600441,-0.539762020111,0.05456700176,-0.11328099668,0.64634001255,1.27920794487,-1.06689095497,-0.430970996618,-0.375557005405,0.372137993574,0.226778000593,0.658863008022,0.654739975929,0.141754001379,-1.31831502914,1.22774505615,0.932761013508,0.075093999505,-0.928269982338,0.161873996258,-0.340135008097,-1.24611103535,-0.786078989506,-0.839854001999,0.0788829997182,-0.36577001214,-1.19424200058,0.105109997094,1.69880199432,1.32413196564,-0.864412009716,0.362340986729,-0.697887003422,-0.771120011806,-0.689387023449,-2.47922897339,-0.25414699316,0.568651020527,-1.29822695255,-0.900671005249,-1.15051996708,-0.936864972115,1.23945403099,-0.394753992558,0.595358014107,-0.0850810036063,1.26742005348,0.3098089993,-0.642733991146,2.09957003593,0.677555024624,0.718043982983,0.366852998734,-0.231593996286,-0.115613996983,0.456259995699,0.298990011215,-0.492518991232,0.471632003784,1.47852301598,-0.295864999294,-0.61254799366,1.2906910181,-0.502399981022,0.862432003021,-0.720848977566,-1.93454504013,-0.545521974564,0.936161994934,0.11228299886,-0.706570982933,0.668399989605,-0.859007000923,-0.274801999331,1.07669401169,1.11516594887,-0.532706022263,-0.536310017109,0.504787027836,-1.41483795643,0.289958000183,0.283814996481,1.17286896706,-0.462884008884,-0.791548013687,2.23695206642,-0.639373004436,-1.53799200058,0.231052994728,0.756047010422,-0.572071015835,0.123214997351,-0.464783996344,0.984610021114,-0.384609013796,1.39010798931,0.243851006031,0.597014009953,0.201846003532,0.102505996823,-1.16706299782,1.3212569952,1.11308598518,-1.20353496075,0.232835993171,1.32998299599,0.00781499966979,0.880490005016,-0.453018009663,-0.0652080029249,0.20301400125,0.134313002229,-1.06055104733,-0.661477029324,0.582013010979,0.163900002837,-0.606931984425,-1.01646196842,1.35602498055,-0.984363019466,-0.357289999723,1.79894804955,0.911777973175,0.615051984787,-0.580264985561,-0.369504004717,-1.03987395763,-0.241666004062,-0.3922739923,0.797075986862,-1.29316997528,1.08746004105,1.10240805149,-0.844263970852,-0.818488001823,-0.365864008665,-0.472065001726,-1.44822502136,1.0870000124,-0.605257987976,0.434994012117,0.148456007242,-1.30595600605,0.538478016853,-1.53223800659,-0.356985986233,-0.65191501379,0.380172997713,-0.0967620015144,1.85755598545,1.28638994694,-0.472404003143,0.893962025642,1.49484097958,-1.39183998108,0.616922974586,-1.39972198009,0.284913986921,-0.846023023129,0.405142009258,1.37918794155,0.740508973598,-1.49396300316,0.458626002073,1.50862205029,0.59602200985,0.0785330012441,0.698256015778,0.326833993196,0.836403012276,1.29970002174,-0.793314993382,0.702482998371,0.337060004473,-0.651908993721,-0.109117001295,-0.843529999256,0.509092986584,0.534555017948,-0.876196980476,-1.10554099083,-0.407658010721,0.659159004688,-2.44427490234,1.0404239893,-1.11826097965,0.102594003081,-1.28414702415,-0.139091998339,-0.493593990803,-0.179129004478,0.659325003624,0.600301027298,-0.661779999733,-0.804283022881,-0.0820280015469,-0.314283013344,-0.103263996542,-0.0648870021105,-0.0658140033484,-0.932115972042,-0.270704001188,-0.733349025249,0.207248002291,0.736501991749,-0.843913018703,0.710267007351,0.762081980705,0.229037001729,-0.371520996094,1.078379035,0.55621099472,0.983532011509,0.38095998764,0.162155002356,-0.0588909983635,-0.197163999081,-1.59914398193,-0.931765019894,-1.35556304455,-0.396196007729,-0.880750000477,1.18341100216,-1.06313097477,-0.0650599971414,-0.395271003246,-0.0686919987202,1.29367995262,0.249463006854,0.537065029144,0.0274470001459,-0.180086001754,0.642502009869,-0.205537006259,0.345598995686,-0.888095021248,-0.816321015358,-0.065486997366,-1.19955599308,-0.523647010326,1.16286599636,-0.272772997618,-0.0259019993246,0.391743004322,1.2668889761,-0.335483014584,0.108217999339,-0.768106997013,0.409478008747,1.32176804543,0.617717027664,-0.681756973267,1.84323596954,1.05608403683,0.0450839996338,-0.911906003952,1.65925502777,-0.559153020382,-0.182403996587,2.12505888939,-0.655750989914,-0.14483499527,0.859984993935,-1.67352497578,-1.46452796459,2.01373910904,1.37683403492,-0.866264998913,0.400150001049,-0.053357001394,0.0734129995108,-0.204554006457,0.854640007019,-0.19189299643,-0.948873996735,-0.351514995098,-1.94491505623,-0.193302005529,0.00248400005512,-0.813603997231,-1.02623701096,-1.00077700615,-0.446934998035,-1.50600302219,-0.329708009958,-0.0298519991338,-0.532402992249,-0.495415002108,-0.604233980179,0.754512012005,-0.180398002267,-1.46331596375,1.24847197533,2.73708605766,-0.421930998564,-0.281367987394,-0.84206700325,-1.12733602524,0.140782997012,-0.568940997124,0.913392007351,-0.416785985231,-0.214671999216,0.937525987625,-0.61955499649,1.15603196621,-0.392435997725,0.30542498827,0.745316028595
室,-1.46240794659,-0.225788995624,0.770394027233,-1.07372605801,0.0694380030036,0.334598004818,2.05688691139,-0.547042012215,2.59327602386,-1.04608094692,1.02373898029,0.230425998569,1.34539401531,-1.81758594513,-1.60653805733,0.0603009983897,1.88911402225,0.450729995966,-0.345189988613,-0.488420009613,0.0963170006871,1.54841697216,-1.9379440546,-0.90222299099,-1.34658801556,1.26929497719,-0.886016011238,0.299616992474,0.768653988838,-0.493669986725,0.211692005396,0.234913006425,-0.811053991318,-0.0451700016856,2.80299901962,-0.208021000028,-0.67543900013,1.10518205166,0.271398991346,0.953365981579,1.21541500092,-0.461605995893,0.459169000387,1.05281698704,0.666554987431,-0.42125800252,0.683611989021,2.66294407845,-0.0182339996099,0.949452996254,-0.0408000014722,0.0254239998758,-1.59673202038,-0.147325992584,-0.673735022545,0.512710988522,-1.51522099972,1.55332005024,0.820719003677,3.25739407539,-1.2296179533,0.0434620007873,-0.91605001688,0.221656993032,1.33840095997,0.77314800024,-1.07984399796,0.73477602005,0.211631000042,-1.47050595284,-0.269127994776,-1.40110504627,-1.24829900265,-0.343919992447,0.693243026733,1.68708205223,-1.23406302929,0.845252990723,-0.871571004391,2.37217593193,0.266167014837,0.456844985485,-0.889540970325,1.64652597904,0.176537007093,-0.535667002201,-1.78148603439,-2.49337100983,1.83494496346,-1.20084297657,0.116034001112,-0.581263005733,1.86862301826,0.820128977299,-0.451041996479,-0.837719023228,1.3326510191,0.675670027733,-0.0941020026803,0.291148990393,-0.392313987017,-1.23984396458,0.881479024887,2.53406000137,-1.40622198582,-0.888031005859,0.893047988415,-1.01006400585,-0.397300004959,-0.0602470003068,0.944289982319,-0.293049991131,-3.24596691132,0.58124601841,0.201241999865,0.98899102211,2.12055397034,-0.97022998333,-0.550144970417,1.15504300594,-0.782854020596,-1.66297197342,0.920518994331,-0.956969976425,2.14458394051,-1.42729604244,-2.09400200844,-0.735006988049,0.353031992912,-0.328025996685,-1.59636104107,-1.06493699551,0.109310999513,1.72422003746,-0.115331999958,-1.78530597687,-0.895199000835,0.859821021557,0.301355004311,-0.625612974167,0.7236109972,-0.772651970387,0.0269530005753,0.475378006697,-0.367850989103,-0.59013402462,-0.839060008526,0.0179660003632,0.152902007103,1.11003005505,1.1307990551,-0.911686003208,-0.182003006339,-1.29522299767,-0.664525985718,0.558417975903,-0.666014015675,1.44180500507,-1.55244195461,-1.6517970562,-0.229090005159,-1.08168804646,1.00270795822,-1.25186598301,-1.79987299442,-1.30346500874,0.801369011402,-0.872151970863,1.37646496296,0.218713000417,-4.06968212128,-0.0247389990836,0.125855997205,-0.566177010536,-0.697660028934,-1.80810594559,0.455332994461,-0.448316991329,-0.20673699677,0.0185470003635,-0.805536985397,-0.460844010115,-0.100676000118,-1.30334401131,0.194113001227,-0.113863997161,-1.13594305515,1.45184898376,-0.855552017689,-0.647108972073,1.97097396851,1.84159398079,1.71551394463,0.796419024467,-0.465523988008,0.382234990597,2.38761997223,-0.30646198988,-1.03612196445,0.556504011154,1.11378002167,-1.09945297241,-0.379649013281,-0.0969429984689,2.36405897141,1.33238601685,-0.0285730008036,-0.689332008362,-0.286574006081,-0.245676994324,0.333766996861,-1.18085002899,0.9342700243,-0.852838993073,0.245128005743,0.540746986866,0.982227981091,-1.97479498386,0.897139012814,1.31074404716,0.400757014751,-0.316321998835,0.628338992596,0.16628600657,3.9580309391,1.40452301502,-1.43102002144,-1.10059797764,-0.563476026058,0.216327995062,-1.68630099297,-2.87896490097,0.947745978832,-1.02781903744,0.721567988396,-1.42559504509,0.782935976982,0.292450994253,-2.25890398026,-1.02945399284,-0.325500994921,1.46982395649,2.14480495453,1.52265799046,-2.35094308853,2.11499500275,-0.123264998198,0.664249002934,0.059716001153,-0.6209679842,-1.42888104916,1.21584296227,-1.07002604008,-0.375380009413,0.59452599287,-0.467703014612,0.352959007025,-0.109439998865,2.41266298294,-0.243717998266,0.358550995588,-0.488943994045,0.0734950006008,2.17970108986,0.768948972225,-1.68798899651,0.0701529979706,2.13632893562,1.04611802101,0.660398006439,0.453779995441,-2.91455507278,-0.877120018005,-0.0241620000452,-1.53864395618,0.967136979103,0.422490000725,-1.6027610302,0.912873029709,-1.0719820261,2.06338191032,0.194186002016,-0.449407011271,-1.92504298687,0.925682008266,1.32905697823,0.475174993277,-0.555387973785,-0.397756993771,1.17201399803,0.86772698164,1.34628200531,-2.01202011108,-0.13898999989,0.703710973263,-1.77175295353,-1.11197900772,1.81048595905,0.67380797863,-0.162471994758,1.37717604637,-0.0231710001826,0.298184007406,-0.315492987633,1.77546405792,-1.99610900879,-1.46096301079,1.3525749445,-1.83265399933,-0.970242023468,-1.65609097481,1.92988705635,0.348149001598,-0.930777013302,-1.90099000931,2.28735089302,0.922070026398,0.79907399416,1.00942695141,-1.30321002007,-1.15361702442,0.0147310001776,-0.27650898695,-0.275139003992,-2.05735898018,0.228370994329,0.554727017879,-0.645051002502,0.972588002682,0.877967000008,1.83140099049,0.607860982418,1.17697000504,0.597572982311,-1.28031599522,-0.135773003101,-1.45509600639,-1.26175498962,-0.213551998138,-0.520839989185,-0.00602099997923,1.3404610157,-1.22394895554,0.59302598238,0.36103400588,-0.849825978279,0.104323998094,-0.395891994238,0.131229996681,3.7846930027,0.252094000578,0.563283026218,0.928178012371,1.03966999054,0.154217004776,-0.796389997005,0.3111500144,-0.441134005785,0.660130977631,0.156170994043,-0.318208009005,0.693554997444,-0.279729008675,0.304181993008,-1.80052399635,0.025598000735,2.41654610634,-0.7991309762,-0.0194470006973,0.0960419997573,-0.988588988781,-0.793487012386,1.27432000637,1.59694600105,-0.849170029163,-0.0899169966578,0.263758003712,0.129839003086,-0.0701820030808,0.599994003773,-2.36184310913,0.796827971935,0.914300978184,-0.0499770008028,0.392594009638,1.29042196274,0.522152006626,-0.777906000614,-2.32557988167,-0.723435997963,1.53862595558,1.16763198376,1.28533804417,2.56599497795,-0.61681997776,0.319682985544,1.00063705444,2.67229700089,0.878952026367,0.713936984539
侧,0.0335550010204,-0.612897992134,0.210811004043,-0.309543013573,-0.0889620035887,1.01467394829,-0.580008983612,-0.664211988449,0.371722012758,0.198979005218,-0.377368986607,-1.32227694988,-0.0622519999743,-0.454311013222,-0.199373006821,0.602832973003,0.880613029003,0.248211994767,0.978286981583,-0.498237997293,-1.47988498211,0.842334985733,-1.07225000858,-0.413583993912,0.314455002546,-0.284997999668,0.00363900000229,1.01555097103,-0.168190002441,0.134718000889,-1.53085696697,-0.269841998816,0.905990004539,1.19565999508,-0.00161100004334,0.762476027012,0.233997002244,-2.21722793579,0.625729978085,0.901675999165,1.06018805504,-1.11254096031,-1.50353598595,0.0738700032234,1.24502801895,-0.687662005424,-0.060123000294,0.0671150013804,0.246333003044,1.36280798912,-0.184975996614,-0.216382995248,-0.662811994553,-0.639734983444,-1.75595796108,0.142814993858,1.19213402271,-0.870052993298,0.511430025101,1.16981196404,-1.04369699955,-0.282182991505,-0.287086009979,-2.63520002365,-0.0916280001402,0.907254993916,-0.71595197916,1.07407999039,-0.249964997172,0.841620981693,0.0908610001206,-0.336901009083,0.65508300066,0.835277974606,1.26843202114,0.0942289978266,-0.570136010647,1.20490503311,0.202070996165,1.0853869915,-0.134893000126,-0.0718289986253,-1.43122196198,-0.458880990744,0.156500995159,-0.833929002285,-0.688418984413,0.736567020416,0.332314997911,-0.799040019512,-0.0485870018601,0.35353499651,0.333377987146,0.719886004925,-0.0518160015345,0.324414998293,-0.0712409988046,0.736582994461,-0.261184990406,1.34993600845,-0.0545330010355,-1.76088500023,0.539463996887,-0.475306987762,0.364730000496,-0.867362976074,1.31867897511,-0.379451990128,0.371681004763,0.470169007778,-0.280447006226,0.0635240003467,0.553586006165,-0.883145987988,0.56442797184,0.260632991791,0.259353011847,-1.04492497444,-0.303357005119,0.973329007626,-0.522454977036,0.277236998081,0.398838996887,-0.134112998843,0.800707995892,0.020535999909,-0.520474016666,-1.51995503902,0.788854002953,-1.93393194675,1.52396094799,-0.389463990927,0.147597998381,0.529473006725,-1.24336004257,0.888598978519,-0.0846759974957,-0.516447007656,0.174872994423,0.132140994072,0.252021998167,-0.0227390006185,-1.09020197392,0.0702750012279,-0.685826003551,-0.481380999088,-0.882287025452,0.732832014561,-0.870899021626,1.19292902946,-0.117537997663,0.388491004705,-1.26381504536,-0.483675003052,0.811241984367,-0.882704973221,0.596836984158,-1.45246899128,-1.41696703434,-1.04723095894,-0.335424989462,-1.47891294956,0.00062100001378,0.0903809964657,-1.39735400677,0.512426018715,0.890389978886,0.143695995212,-2.07237410545,-0.178944006562,0.529654979706,-0.675553023815,0.861863970757,1.00600302219,0.723179996014,0.923843979836,-0.0990049988031,-0.242550000548,0.586823999882,1.32776296139,-0.627852976322,0.411480009556,-0.0562009997666,0.575227975845,0.845551013947,0.235844001174,0.143255993724,-0.0755639970303,0.770774006844,-0.0621469989419,0.31884598732,1.27240395546,1.04311203957,-0.719424009323,-0.687020003796,0.229450002313,0.74118500948,-0.768634974957,1.48068797588,-0.352982014418,-1.16650903225,-0.38776499033,-0.894325017929,-0.640874028206,0.226815998554,0.386765986681,-0.298862010241,0.437115997076,-1.46372902393,-0.18592299521,1.12290000916,-0.889623999596,0.919526994228,-0.096537001431,-0.0889609977603,-0.23225800693,0.196131005883,-0.104653999209,0.442544996738,-0.327491998672,0.613283991814,1.92421901226,-0.324443995953,0.0965349972248,0.395135998726,0.491066008806,0.675270020962,-0.888783991337,0.254272013903,-0.329861998558,-0.679261982441,0.141377002001,0.109466999769,-1.27757704258,0.665684998035,0.160575002432,0.0132969999686,0.666839003563,-0.757086992264,-0.292055994272,0.209174007177,1.14427101612,0.720265984535,0.923976004124,0.737200975418,1.23570394516,-0.541905999184,0.197384998202,-1.16002202034,1.60688900948,-1.18819594383,0.660481989384,0.82312899828,-0.0787720009685,0.39467599988,1.09433495998,0.0202430002391,-0.348396986723,0.998079001904,0.219582006335,0.602514028549,0.453552007675,-0.481402009726,-0.366005003452,-0.206443995237,-0.54188400507,-1.25963199139,-0.025836000219,0.0567429997027,-0.180888995528,-0.324934989214,-0.0623929984868,0.0204579997808,-0.20809699595,-0.63888001442,1.66031801701,-0.535259008408,-0.234556004405,-0.888414978981,-0.233161002398,0.968679010868,-0.256826996803,0.0990829989314,0.894681990147,-0.986482977867,0.0556179992855,-0.346648991108,-0.167355000973,1.10421597958,-0.865554988384,0.884618997574,0.256009995937,0.986967027187,-0.297304004431,-1.40240597725,-0.926207005978,-0.750941991806,0.337837994099,1.13669204712,0.300953000784,1.00805294514,-1.1787430048,-0.0151660004631,-0.743674993515,0.821736991405,1.40972399712,-1.47905898094,-0.381788998842,-0.898760974407,0.204779997468,-0.0180089995265,-0.320266991854,0.915998995304,0.123207002878,-1.3167129755,2.02478599548,0.0243939999491,0.717961013317,0.636822998524,0.264313995838,-0.273158013821,0.0651440024376,-1.11431896687,0.0562550015748,0.97677397728,0.284361988306,-0.689459979534,-0.275245010853,-0.832647025585,1.26134598255,1.15278303623,-0.0231519993395,-0.469018012285,1.6575729847,0.111809000373,0.666462004185,-0.81456297636,1.40407502651,-1.03452301025,1.09444105625,0.547251999378,0.274524986744,-0.619799017906,-0.326362013817,1.08362197876,-0.953881978989,-0.93342602253,-0.0665019974113,0.11408200115,0.752568006516,-0.470663011074,0.28626999259,0.186315000057,-0.13246999681,-0.560000002384,-0.689888000488,0.370858997107,0.823077976704,0.215406000614,-0.255627989769,-1.9858109951,-0.663501977921,-1.25627696514,1.12349903584,1.29965603352,-1.55670702457,1.38576996326,-1.8393009901,-0.789439976215,0.174886003137,-0.506370007992,-0.0747689977288,-0.726145029068,0.758341014385,-0.0573569983244,-0.222792997956,-0.0585619993508,0.280582994223,-1.16086196899,0.668309986591,-0.896272003651,-0.711673974991,-0.0740550011396,0.36336800456,0.21638199687,-1.18426597118,1.01509094238,-0.664140999317,-1.07004499435,0.788392007351,-0.0453209988773,0.491183012724,0.253984004259,0.0455660000443,0.968599021435,-0.218566000462,-0.158548995852,-0.165464997292,1.85071098804,1.10637795925
具有,-0.0681810006499,1.40470600128,2.58015298843,-0.417515993118,1.00962400436,-1.16817700863,1.30608701706,0.617208003998,-0.418976008892,0.680073976517,0.0320670008659,-0.412878006697,-0.458056002855,-1.79766905308,-0.482612013817,-0.850849986076,-2.08274888992,-1.79438197613,-0.0770839974284,-1.89013195038,-0.18320299685,1.71037101746,-0.515230000019,1.49715602398,1.35511505604,1.70045101643,0.843391001225,0.205026000738,-0.423913002014,0.0648590028286,-1.09362101555,0.0337539985776,-0.537654995918,1.05566394329,0.0166209992021,0.806357979774,-0.569635987282,-1.49469900131,-1.22647595406,1.73556303978,0.0558639988303,0.265271008015,0.105435997248,-2.35379004478,-0.376747995615,-0.36556199193,1.25548601151,-2.27157998085,1.02639400959,0.00692400010303,2.40711808205,2.47078704834,0.168236002326,0.261465996504,-0.577809989452,-0.711461007595,1.20865595341,-1.4975039959,-1.41725695133,0.847477018833,-0.984902024269,-1.34774005413,-0.193630993366,-0.443363010883,-2.12132501602,-1.61161196232,-0.036683999002,0.0770559981465,-1.23883497715,0.370943009853,0.356952011585,0.782513022423,0.139865994453,1.46712398529,-0.828422009945,-1.27127599716,1.79189300537,0.0404720008373,-0.571823000908,-1.20284795761,0.168824002147,0.45746999979,1.38751196861,0.675350010395,0.668947994709,-0.0208540000021,-0.198296993971,-1.33238601685,-0.342359006405,0.202732995152,0.675924003124,-0.0596310012043,0.792818009853,0.174928992987,-1.06169605255,0.60242497921,2.69266796112,-0.856046020985,-0.832304000854,-0.920239984989,0.240029007196,0.79019600153,0.500250995159,1.20982801914,-0.877777993679,-1.54953205585,0.789002001286,-0.0270620007068,-0.210247993469,-1.72801196575,0.124601997435,-0.0102399997413,-1.98794603348,0.560717999935,-0.582768976688,0.270738005638,1.57074296474,-2.07348608971,-0.341502994299,-0.572614014149,0.466809004545,-2.11353111267,0.257672011852,-1.0773639679,-1.49024105072,0.523836016655,-3.8909330368,0.0322370007634,0.614049017429,1.9462389946,0.432294994593,1.02524995804,-1.23026394844,0.811007976532,0.511888027191,-0.653074979782,0.123153999448,0.644003987312,0.620209991932,0.664552986622,-0.869156002998,-1.14205598831,-0.596728980541,-1.53448200226,0.8639960289,-2.00579190254,0.358027994633,1.05628097057,-0.402871996164,-1.20546996593,2.7305688858,0.258213013411,-0.436002999544,1.54279303551,1.13282501698,0.675576984882,0.61507499218,0.13313600421,-0.850395023823,1.10713100433,-0.0807140022516,-1.68908596039,1.18916904926,0.00458300020546,1.18081700802,-0.973964989185,-0.456936985254,-1.34860599041,-0.75123000145,-0.329811006784,-0.933367013931,-0.63809800148,-0.0689800009131,0.0177490003407,0.48097500205,0.82540500164,1.90796804428,2.58681893349,1.5687019825,2.3834810257,-2.55086803436,-0.167386993766,0.528226017952,-0.517509996891,-0.928963005543,-0.0507950000465,0.0726799964905,0.476684004068,-1.01190197468,0.669575989246,2.04224491119,-0.568099021912,1.69628596306,0.644079983234,-1.3272190094,-0.755998015404,0.0239199995995,1.02561295033,-0.916594982147,1.42628097534,-0.114302001894,-1.09185600281,-0.0769499987364,0.156933993101,-2.759567976,0.32309499383,-1.16582500935,0.308063000441,0.931065022945,1.64484596252,-1.01818299294,-0.313383996487,0.829441010952,-1.02109003067,1.40923297405,0.0107589997351,-0.743929982185,1.58135902882,-0.00687099993229,0.496219992638,0.294970989227,-0.580114006996,1.24730801582,0.16482399404,-2.8324201107,-2.68248391151,-0.340782999992,0.111527003348,-1.22633004189,-0.721207022667,-1.72058594227,-0.587580025196,0.447302997112,-3.02866101265,2.18809604645,-1.44568097591,0.390179991722,0.929045975208,1.12976002693,0.0662299990654,-0.653360009193,-0.0801040008664,1.08141100407,2.45656299591,0.0704040005803,0.708298027515,-2.02672290802,-0.61773699522,-0.941561996937,-2.54302310944,1.7059930563,0.749988019466,0.789391994476,-2.20186710358,-0.992626011372,-0.356705993414,-1.1988710165,-0.155992001295,0.778155982494,0.136042997241,1.02354300022,0.391003996134,0.450367003679,0.455379992723,-0.00685400003567,-1.35155105591,-1.85231101513,1.5436270237,-1.0235029459,-1.02440702915,-1.30442500114,0.203139007092,-1.23908400536,-0.316504001617,-0.590174019337,1.33123898506,-1.30481004715,-0.494785010815,-2.10413002968,0.325338989496,-0.327114999294,0.678718984127,1.29269099236,-0.818531990051,-0.57722902298,-0.975718975067,-0.473823010921,-1.84104895592,-0.951117992401,2.53559803963,0.138503998518,0.353875011206,0.318973004818,-0.825444996357,1.61142897606,-0.528271019459,0.152013003826,-0.402534008026,0.10733500123,-2.35540103912,-1.74005305767,1.45838999748,0.552447974682,-0.745907008648,-0.173974007368,-0.78741300106,0.289137989283,1.44880998135,1.35511898994,0.996173024178,0.924515008926,-1.22544896603,2.00497603416,-0.649911999702,-1.65961098671,1.28914701939,0.331835001707,-0.15159599483,-0.958675026894,-0.141911998391,-0.348701000214,-1.57021594048,-0.838141977787,0.846167981625,-0.327657997608,0.649896025658,-2.56881904602,-0.188077002764,-1.76996803284,-2.26689600945,1.33644902706,-1.19589698315,-1.27485001087,-1.55149805546,1.99730801582,-1.57301497459,0.634286999702,-0.307164013386,-0.54387897253,0.467918008566,0.0257360003889,1.5084810257,-0.249283999205,-2.2722389698,1.70656895638,1.08219504356,-0.675953984261,2.13902211189,-1.67171704769,0.783581972122,-0.240817993879,-0.773638010025,2.44632005692,2.29708909988,0.571361005306,-0.126895993948,0.937871992588,-0.770433008671,-1.28128004074,1.86798095703,1.48265504837,0.645736992359,-2.69974303246,-0.188534006476,2.70706701279,-0.138572007418,-2.07960009575,-0.427298992872,-0.662240028381,-0.1396510005,-0.28536298871,-2.02715992928,1.39363503456,1.65049695969,-0.0658790022135,-1.30796802044,-1.70810103416,-0.0225639995188,0.366820007563,0.160209998488,-0.21618899703,-0.970288991928,-1.24033105373,0.759651005268,1.81904995441,-1.63943505287,-0.373369991779,-1.52522802353,-2.56299090385,1.27070105076,2.01581597328,1.51417005062,0.541059970856,-0.962484002113,0.908342003822,-0.727864027023,1.95490598679,-0.627606987953,-0.308317005634,-0.275135993958
结合,0.0123789999634,0.975144982338,-0.81879901886,-0.262304991484,0.133518993855,0.727026998997,0.143635004759,0.0469949990511,1.30171000957,0.497339010239,-0.58189702034,-0.549288988113,-0.830069005489,-0.879221975803,-1.12493300438,-0.708271026611,-0.683516025543,-0.514030992985,0.958817005157,-0.468212008476,1.05699002743,-0.486595004797,0.840273022652,2.74374103546,0.138595998287,2.03788304329,0.576075017452,1.52296495438,-0.667989015579,0.499516993761,-0.0888329967856,-0.222224995494,0.293235003948,-0.642772972584,0.369715988636,-1.35972297192,-1.07399904728,-0.901292979717,0.0201990008354,0.340925991535,0.926694989204,-0.48038700223,0.11891400069,-1.55365300179,-1.31107699871,0.131606996059,0.0398200005293,-1.23068201542,0.0866400003433,0.866937994957,1.22093403339,-0.776194989681,-0.11029099673,-0.0292649995536,0.0938389971852,-0.313073009253,-0.53105199337,1.4104449749,0.407018989325,0.0721149966121,-1.50490701199,0.732765972614,-0.0338889993727,0.967204988003,-0.221661999822,-0.248435005546,-1.95355594158,0.205341994762,1.12191796303,0.999628007412,-0.826305985451,0.405683994293,1.02914595604,1.55471396446,-1.22775101662,0.83414298296,1.36154198647,-0.0371709987521,2.9466240406,-0.776319980621,-0.0447960011661,0.169934004545,0.842553019524,-1.68102300167,0.913577020168,1.10694801807,-0.255549013615,-0.097910001874,-0.712885975838,0.0561040006578,-0.920826017857,-0.4034050107,-0.530288994312,-0.306266009808,-0.489717006683,-0.0221149995923,0.665009975433,-0.799099028111,-1.20388102531,0.147303000093,-0.310247987509,1.14052295685,0.904204010963,1.64081799984,-0.469897001982,-2.96455311775,1.22993099689,-0.826556026936,-1.14902603626,-2.28347611427,-1.76070296764,-0.443468004465,-0.00442800018936,-0.359257012606,0.578927993774,1.16592502594,0.330054998398,-0.0321649983525,-0.701331019402,1.11827003956,-0.357607007027,-0.222859993577,1.67207503319,-0.890348017216,-1.62666296959,1.65901899338,-2.40657401085,1.94286704063,0.904874026775,0.239677995443,1.53910803795,-2.77518010139,0.299403995275,1.59529197216,0.594393014908,0.0498289987445,-0.66267901659,1.38609600067,1.35598301888,1.66991102695,-0.0798370018601,1.15496098995,0.353278011084,0.174336001277,-0.128189995885,-0.567524015903,1.0944839716,0.915078997612,0.380663990974,-1.51251399517,0.528765022755,-0.986129999161,1.60082399845,0.771959006786,0.923331022263,0.452809005976,0.803932011127,-0.183486998081,-0.414353996515,0.737236022949,0.35909101367,-0.0012309999438,1.28126204014,-0.230323001742,0.656069993973,0.172280997038,-0.176726996899,-0.0812439993024,-1.56164705753,1.09694194794,-1.73977100849,0.916814029217,0.937058985233,-0.613779008389,1.57513594627,-0.414202004671,1.72093105316,2.19742798805,-0.714345991611,-0.185066998005,-0.596821010113,0.0964070037007,1.08762097359,-0.060720000416,-1.34993803501,0.533689975739,0.696457982063,-0.261646002531,-1.18555605412,-0.0223249997944,-1.33800601959,-0.417822986841,0.954405009747,2.46769595146,-1.21088802814,0.253594011068,-0.14407800138,0.0799079984426,-0.585344016552,0.141240999103,0.867654979229,-2.53525996208,0.534812986851,0.438127011061,-1.5964820385,0.892785012722,1.12844097614,-0.523636996746,1.1075309515,0.816322028637,-0.191403999925,0.0246849991381,0.995513021946,-0.482766985893,0.372198998928,-0.290692001581,-1.28529202938,-0.930575013161,-0.873706996441,-0.900467991829,0.590878009796,-1.54611802101,1.15369200706,0.712307989597,-0.478377014399,-0.578794002533,-0.127347007394,-0.382934004068,-1.29772698879,-1.98358905315,-0.844832003117,0.223776996136,0.69196498394,-1.69133603573,0.652728974819,-1.20240700245,-0.20365999639,1.02280402184,0.185540005565,0.45571398735,1.07256102562,0.263895004988,0.0649890005589,1.03921401501,0.750971019268,-0.48965498805,0.202509999275,0.548381984234,0.852979004383,-0.643836975098,0.197364002466,-0.721301972866,-0.016249999404,-0.378078013659,-0.516112029552,1.70124197006,-0.266710013151,-0.682218015194,1.02061498165,0.462179005146,-0.0879679992795,0.461735993624,-1.02680397034,0.468270987272,-1.10391199589,0.86243802309,-0.52163797617,0.69204801321,1.25596094131,-0.270891994238,-0.871330022812,-0.726576983929,1.05412399769,0.616362988949,-0.537446022034,1.12150204182,-0.476790994406,-0.0731419995427,1.92682802677,-0.301342993975,1.34938299656,0.704888999462,0.679827988148,-0.732168972492,0.222541004419,0.262331008911,-0.580155014992,-1.6938149929,0.640326976776,1.25400400162,-1.96518397331,0.551998972893,0.0386569984257,0.520045995712,-0.14335000515,0.111565999687,0.000618999998551,0.666402995586,0.870899021626,0.695095002651,0.17334599793,0.254624009132,-1.93250095844,0.327273011208,0.470396012068,2.30980992317,-0.73257702589,0.933530986309,-0.0585570000112,1.51539099216,-2.67329406738,-0.0601379983127,0.938340008259,-0.319934993982,0.307660013437,-0.386002987623,-2.13035011292,0.0880130007863,1.04056298733,1.17198300362,0.365456998348,-0.956423997879,0.196823000908,0.344992995262,-0.274612993002,-0.319350987673,-0.49669200182,-1.72060894966,-0.532612025738,-0.391591012478,-0.68289899826,0.0184930004179,-0.769711017609,0.692339003086,0.397267013788,-0.0725720003247,0.431432008743,0.589003026485,-0.53585100174,1.18416905403,0.158502995968,0.445946007967,0.708827972412,-0.488297998905,0.275606006384,-0.0349770002067,0.996632993221,0.791860997677,0.583826005459,0.412932008505,0.875508010387,-0.998263001442,1.73902904987,1.27729105949,-0.392935007811,0.17081899941,0.848770976067,0.28374299407,-1.83237802982,0.714776992798,-0.457843005657,-1.53022801876,1.0817220211,0.515976011753,-0.973713994026,-0.623319983482,-1.73270499706,-1.00083196163,-0.973730027676,-1.78430104256,0.272130012512,-0.187764003873,-0.223840996623,0.859481990337,-0.0805130004883,-0.609340012074,-0.900734007359,-0.896714985371,0.799459993839,-0.818736970425,0.65099799633,1.35440194607,1.55581796169,1.50004196167,2.76016402245,0.151912003756,0.802757024765,-1.91454303265,-1.38897204399,-0.0131620001048,1.66772699356,1.15975701809,-0.784125983715,0.478567004204,0.491016000509,-0.472810000181,2.26491999626,-0.767934978008,-0.818938016891,-0.935066998005
形成,-1.33765101433,-0.852340996265,1.21706902981,0.745437979698,2.51623606682,-0.763049006462,-0.00713599985465,-0.805037975311,-0.459425985813,0.182733997703,-0.985347986221,-0.724747002125,-0.551599025726,-0.642139017582,1.09913694859,-0.553667008877,0.187039002776,-0.284536987543,-0.424454003572,-1.95978999138,1.10906004906,0.248539999127,0.633462011814,1.1485350132,0.510466992855,2.44437599182,-0.657436013222,0.850211024284,-0.202408000827,2.94768095016,-1.24319398403,-0.701725006104,-0.888647973537,0.187267005444,-0.556694984436,-1.30376601219,-1.45821797848,-1.02303802967,-1.47438895702,1.17479097843,-0.698789000511,1.74045503139,-0.0073520001024,-1.31247603893,0.625886976719,2.28167200089,-0.124961003661,-1.41681003571,-0.332679986954,0.387571007013,-0.35572001338,-0.928791999817,-0.328871995211,-1.93856704235,-0.435802996159,1.4556299448,0.930262029171,0.309455990791,0.175337001681,-0.331957995892,-0.873404026031,-0.995872020721,-1.46332204342,-0.334439009428,-0.551061987877,-2.3887720108,-3.04621601105,0.515266001225,-0.41195499897,-0.577418982983,-0.958647012711,-1.24883699417,0.661284983158,2.11216902733,-0.280941009521,-1.21850097179,3.23804092407,0.871219992638,1.95181703568,-0.89508998394,0.378416001797,1.41630005836,-1.02680897713,-0.0420159995556,1.47565197945,-0.27619600296,1.63903701305,0.753480017185,0.587279975414,0.409442991018,-0.569522976875,-0.757584989071,-0.342103004456,0.254559010267,-1.76327204704,-0.402976989746,0.6913869977,0.576735019684,0.318441003561,-0.0285110007972,1.54679894447,1.33811199665,-0.608779013157,2.48551988602,-0.430408000946,-2.62864208221,0.982219994068,0.277458012104,-1.26419401169,-1.68635702133,-1.0088609457,0.171519994736,0.55374699831,-0.184792995453,1.3732739687,2.04344201088,2.7179069519,0.757570028305,-2.06161808968,1.46441304684,-0.985967993736,0.0918940007687,-0.161917001009,0.125073999166,-0.694809019566,0.244503006339,-2.97366189957,-1.2601749897,-0.155619993806,-0.797437012196,1.69832205772,0.696467995644,-1.03102004528,1.36257505417,-0.853668987751,1.62874603271,-0.413993000984,1.22348594666,-0.222927004099,0.100877001882,2.20971798897,2.41215705872,-1.73285794258,-0.236564993858,0.596145987511,-1.45985996723,-1.26563704014,1.70570099354,-1.54562902451,-1.4207149744,1.8717559576,-0.509414970875,0.879176020622,0.573369026184,2.52792000771,0.189144000411,1.09951496124,-1.33199501038,-0.979677021503,1.63081300259,0.892104029655,-0.351536005735,0.535444021225,-1.57328295708,1.81842803955,-0.168420001864,-0.00142500002403,-0.656736016273,-0.889090001583,-0.366535007954,1.35442996025,1.05675601959,0.386308014393,-0.619352996349,1.08746695518,-1.195333004,0.474853992462,0.246883004904,-0.480401992798,1.64239704609,-0.819128990173,1.15546000004,1.38508605957,-0.802891016006,1.62582504749,1.27313697338,1.49651896954,1.14828002453,0.805751025677,0.315737009048,-0.528236985207,0.618631005287,1.36966097355,-0.255095988512,-0.550895988941,-0.780183017254,-0.817258000374,0.63045501709,1.78448295593,0.947646975517,-0.491010010242,-1.08761894703,-1.06221103668,0.382378995419,-0.99554002285,0.809575974941,0.0386720001698,-0.383415997028,-2.58932995796,1.95692396164,0.865150988102,-0.674398005009,2.71839404106,0.311908006668,2.38208794594,0.173635005951,-1.40250194073,-2.76734495163,-0.0746529996395,-0.692321002483,0.757094025612,-1.36079597473,1.76056396961,-0.346201986074,-2.64935898781,-0.536270976067,0.0993539988995,-2.35131406784,-2.8357899189,-3.15162992477,0.465932011604,-0.154928997159,1.64783000946,0.602371990681,0.96173197031,0.139980003238,-0.217397004366,0.625810027122,0.99703001976,-0.241384997964,-0.368705004454,-1.0921599865,-0.260354012251,0.263334006071,0.109081998467,-1.22901105881,-0.826240003109,1.32410800457,0.198744997382,0.100109003484,0.507660984993,0.645009994507,0.846059024334,-0.0512959994376,-0.379913002253,1.3188740015,0.756830990314,1.15503299236,3.04852890968,1.41395294666,0.398916989565,0.748973011971,-1.44282698631,-1.46360003948,-1.47940194607,1.56355404854,-1.35745096207,-0.535687029362,-0.216378003359,0.101878002286,-1.4797719717,-0.385993987322,0.58290797472,1.54723501205,-1.89541900158,0.911921024323,0.632681012154,-0.102504000068,0.642189025879,-1.21600401402,0.909717023373,1.04940199852,0.781167984009,1.26138305664,0.414884001017,-0.703976988792,-1.32905900478,-2.17116594315,-0.208315998316,-0.398063004017,-1.0358300209,-0.953090012074,-0.340994000435,0.558221995831,1.22718298435,0.583733022213,0.432177007198,0.652481019497,-0.299892008305,0.544955015182,-1.37549197674,-0.127636000514,0.452288985252,0.0659819990396,1.03429198265,1.05187499523,-0.339107990265,-0.080668002367,0.793428003788,0.202929005027,-1.85387504101,-0.860906004906,2.50135803223,-0.923620998859,-1.14913094044,2.5553920269,-2.60267496109,0.606085002422,0.712655007839,-0.136969000101,-0.571680009365,-0.223336994648,-1.09413504601,-0.100175999105,-0.183213993907,-0.728089988232,-0.662198007107,-0.182697996497,0.136847004294,-0.793026983738,-1.78578698635,0.764515995979,-0.911916971207,-0.376222014427,2.95185089111,0.665024995804,-0.749561011791,0.821551978588,-3.03872203827,0.517512977123,0.0294259991497,1.97414195538,2.12248110771,-2.34583997726,1.44480800629,-0.228933006525,-0.338750988245,1.03658795357,0.243509992957,0.0515629984438,-0.338669002056,-0.106858998537,1.4546200037,0.526737987995,1.23645198345,-1.40633702278,-1.52427101135,1.48399496078,-0.838773012161,1.63343095779,-0.117409996688,0.27798101306,1.4345279932,-0.529883980751,0.446094989777,-3.25934290886,-1.83467400074,0.609070003033,-0.265904009342,-1.90826702118,-1.35698497295,-0.64665800333,-1.85301196575,0.662946999073,-1.91928398609,-2.10385990143,-2.35674405098,-1.19866204262,-0.181933000684,-2.08576607704,-0.289389997721,-0.597536027431,-0.691186010838,0.452158987522,1.14540100098,-0.184112995863,-0.151470005512,-2.32722210884,1.04573202133,-0.209665000439,3.57374691963,-0.644951999187,-0.418873012066,1.43987894058,0.245766997337,0.23762999475,0.868162989616,-0.826941013336,-1.39129698277,-1.38210201263
结合部,-0.520923018456,0.21038800478,-0.330356001854,-0.109508998692,-0.0679209977388,-0.316278010607,-0.166289001703,-0.0668279975653,-0.00874199997634,0.120805002749,0.348381996155,0.0734509974718,0.16461700201,-0.195907995105,0.0622639991343,0.0660620033741,-0.237513005733,0.417158991098,-0.105029001832,-0.0047889999114,-0.0208439994603,-0.133619993925,-0.138688996434,0.225253999233,0.184093996882,-0.133855998516,0.0271630007774,0.18248899281,0.00940699968487,0.309379994869,0.411826997995,-0.0879639983177,0.163518995047,0.247222006321,-0.0234810002148,-0.110169999301,0.450861990452,0.180940002203,0.18793399632,0.1386000067,-0.0670420005918,0.0304489992559,0.22821199894,0.495112985373,0.0955979973078,0.0625870004296,0.121885001659,0.297226011753,0.375443994999,0.0297759994864,0.148772001266,-0.0454710014164,-0.0583879984915,-0.184219002724,0.215451002121,0.201382994652,-0.028539000079,-0.0128819998354,0.0465379990637,-0.371886998415,0.220192998648,-0.102421998978,-0.326164990664,-0.215160995722,-0.230878993869,-0.105420999229,-0.257151007652,0.319759994745,-0.324887007475,-0.601302027702,-0.00788000039756,-0.20412799716,-0.193418994546,0.193784996867,-0.0455060005188,-0.397076994181,0.545064985752,-0.136866003275,0.116775996983,0.135725006461,-0.298157989979,-0.105420000851,-0.00257500004955,0.308349996805,-0.0860970020294,0.0217099990696,-0.261195987463,-0.00625099986792,-0.167970001698,-0.0726979970932,0.0436940006912,0.105590999126,-0.294191002846,0.275729000568,-0.0382849983871,0.239970996976,-0.175114005804,-0.0727479979396,0.0386869981885,0.0749230012298,0.363274008036,0.0939029976726,0.258388012648,0.157702997327,-0.40238699317,-0.176906004548,0.145466998219,0.123566001654,0.0587869994342,0.0326539985836,-0.309592992067,-0.267964988947,-0.0978199988604,-0.0460290014744,0.18972299993,0.0112920003012,0.0460099987686,0.247326999903,-0.456211000681,0.34192699194,-0.0746710002422,0.0617399998009,-0.349077999592,-0.19331599772,0.103788003325,0.0586550012231,-0.25129699707,-0.232822999358,0.16712500155,-0.520605027676,-0.153826996684,-0.273849010468,-0.0271339993924,-0.0736489966512,0.0416309982538,0.547096014023,-0.0303930006921,-0.0470370016992,-0.329398006201,-0.104146003723,0.324833989143,0.0803399980068,-0.221993997693,0.371737003326,0.165667995811,0.0591219998896,-0.125208005309,-0.0212839990854,0.111959002912,-0.0803859978914,0.386741995811,0.00225699995644,-0.00699899997562,-0.0259969998151,-0.252137988806,-0.0730430036783,-0.0770540013909,0.0619000010192,0.238730996847,-0.0814760029316,0.0516190007329,0.217960000038,-0.12981300056,-0.227311000228,0.225943997502,-0.11230699718,0.370642989874,-0.217858999968,-0.319736987352,0.0429779998958,0.232039004564,0.387142002583,0.0925420001149,-0.135507002473,0.0929460003972,0.19231300056,-0.0270690005273,-0.104570999742,0.181725993752,0.0888810008764,-0.254447996616,0.43971401453,0.194645002484,0.133585005999,0.182605996728,0.0175689999014,0.499520987272,-0.247124001384,0.0539829991758,0.320872008801,-0.0782990008593,0.0347350016236,0.0935560017824,0.321954995394,-0.200080007315,-0.139837995172,0.147952005267,0.279514998198,-0.143848001957,-0.200792998075,-0.0204089991748,-0.0795110017061,-0.168614000082,0.137621000409,0.0614020004869,0.0565980002284,0.00577099993825,0.21664300561,-0.000120999997307,0.313872009516,-0.252029001713,-0.151438996196,0.329230993986,0.0220619998872,0.296443998814,-0.0534819997847,0.209264993668,-0.457581013441,0.293929994106,-0.25187599659,0.224080994725,-0.0710180029273,0.0416160002351,-0.0639009997249,-0.458270013332,-0.274834990501,-0.0409439988434,-0.408073991537,-0.148037001491,0.308301985264,-0.105455003679,-0.0165999997407,-0.082796998322,0.013845000416,0.0304869990796,0.0601870007813,-0.448953986168,-0.129774004221,-0.201080992818,0.229532003403,-0.141378000379,-0.0302610006183,-0.112198002636,0.649572014809,0.327587008476,-0.426207005978,0.448918014765,-0.0342629998922,-0.249700993299,0.186654999852,-0.227008998394,0.217235997319,-0.338658004999,0.129653006792,-0.118496000767,0.181002005935,-0.256291985512,-0.0918399989605,0.623507022858,0.0113679999486,0.0325150005519,0.0342100001872,-0.147612005472,0.13660299778,-0.16020399332,-0.300458014011,-0.45632699132,-0.192646995187,0.543291985989,0.218622997403,-0.165922999382,-0.309578001499,-0.0870790034533,0.161419004202,0.0923549979925,0.400467008352,-0.154669001698,0.214753001928,-0.119663000107,-0.170377999544,0.110797002912,-0.0318339988589,0.0433150008321,0.254074990749,-0.394187986851,-0.137677997351,0.0262320004404,-0.257717013359,-0.152799993753,0.223478004336,-0.200451001525,-0.0985279977322,0.25558000803,-0.144806995988,0.0817440003157,-0.156820997596,0.281626999378,-0.0699570029974,0.433706998825,0.0834470018744,0.179989993572,-0.0246019996703,-0.023918999359,0.00139999995008,-0.0941030010581,-0.151056006551,-0.182946994901,-0.0923279970884,-0.206466004252,-0.0708459988236,-0.407536000013,-0.0076879998669,0.0422369986773,0.00688399979845,-0.201647996902,-0.026303999126,-0.120260998607,0.174083992839,0.0991159975529,0.166989997029,0.280405014753,0.210934996605,-0.173002004623,-0.0702499970794,0.132294997573,0.229447007179,-0.376327008009,-0.484369009733,-0.0880730003119,0.139936998487,-0.431964993477,-0.202347993851,-0.211915001273,-0.184875994921,0.511188983917,0.233039006591,0.0241219997406,-0.0857219994068,-0.224334001541,0.312914997339,-0.250196009874,0.0122480001301,0.0113509995863,-0.0303019993007,0.00109799997881,-0.0834039971232,0.0908230021596,-0.18780399859,-0.302606999874,-0.0387310013175,-0.0597329996526,-0.390022993088,-0.0375749990344,-0.182862997055,-0.00971100013703,-0.401041001081,0.0224009994417,-0.119355000556,0.350513994694,0.151300996542,-0.215862005949,-0.176860004663,-0.0512560009956,0.12587299943,0.115941002965,0.0377510003746,-0.100203000009,-0.138038992882,-0.406563997269,-0.208982005715,0.131816998124,-0.169385999441,-0.401697993279,0.127923995256,-0.565841019154,-0.1601369977,-0.0659670010209,-0.0715719982982,0.0675249993801,-0.302096009254,-0.0583930015564,0.34764200449,0.277758985758,0.337496012449,0.402186006308,-0.0585069991648,0.0553480014205,-0.210280999541,-0.201501995325,-0.0979970023036,0.178222998977,0.0713689997792,-0.146109998226,-0.0832540020347,-0.35003298521,-0.107064001262,0.584098994732,0.0798679962754,0.175723999739,-0.0786330029368
膨胀,-0.392598986626,0.636559009552,0.275808990002,0.675581991673,1.43132901192,-0.17923399806,0.659403979778,-0.0211789999157,0.666190981865,0.318919986486,-0.424418002367,-0.999725997448,-1.78028798103,-0.222632005811,0.610900998116,-0.999202013016,0.421546012163,0.239513993263,0.705184996128,-1.48714101315,0.501056015491,1.24207794666,0.68541097641,-1.63793897629,2.60296201706,1.3966729641,-0.405171006918,0.627295970917,-0.927031993866,0.820526003838,-0.128764003515,-0.590565025806,-1.7830029726,0.96258699894,0.836368024349,1.13346004486,-0.597923994064,-0.044987000525,0.257804006338,0.192229002714,1.69111895561,1.07891798019,-2.02060699463,-0.233453005552,0.325738012791,1.21854805946,-0.26321798563,-2.17636799812,0.618984997272,-0.970350027084,-1.96954298019,0.629374980927,1.63467001915,0.334318995476,0.368205994368,-0.0927560031414,-0.0340070016682,-1.22320795059,-0.318206012249,-0.314411014318,0.500018000603,0.969326019287,-1.35678505898,0.864369988441,-1.21792697906,-2.88108301163,-1.05196404457,-0.546505987644,0.296858012676,-0.720349013805,-0.369960993528,-1.30557501316,-0.243806004524,1.47039401531,-1.05786204338,0.881640970707,0.123869001865,-0.0372040010989,0.616034984589,0.726401984692,-0.372361004353,1.12062597275,0.661799013615,0.383275985718,1.73274302483,-0.44959500432,0.840286016464,0.325165003538,0.326649993658,-0.622817993164,0.668235003948,0.12014400214,-0.257389008999,-0.748061001301,0.47746399045,-0.706658005714,-0.991473972797,0.818184018135,-0.864521980286,-0.0827300027013,2.22794008255,-0.436614006758,-0.321415007114,1.33045899868,0.901430010796,-2.70224094391,-0.241659000516,0.961470007896,-0.0862699970603,-1.05476200581,0.670763015747,-0.750808000565,0.411408007145,-1.16704201698,-0.294409990311,0.763309001923,0.290906012058,1.47572600842,-1.11730599403,1.37365102768,-0.972815990448,-0.245357006788,1.41817700863,0.0777140036225,0.641717016697,2.19829297066,-0.856500029564,-0.108920998871,-1.03666901588,0.00425900006667,-0.405423998833,1.47304201126,-0.369762003422,-0.137520998716,-0.316226005554,-0.00462599983439,-0.387605011463,-0.248349994421,1.1176700592,0.691592991352,0.826793015003,0.0663959980011,-0.885286986828,-1.01179504395,1.45176398754,0.129267007113,0.306695997715,1.27191603184,-1.00637197495,-1.65402901173,0.119585998356,-0.705186009407,0.223397001624,0.53884100914,1.33402299881,0.195672005415,-0.0207969993353,0.761009991169,-0.726764023304,1.22017002106,-0.977989971638,0.302163004875,-0.3071179986,-1.33136796951,0.723101973534,-0.0850130021572,1.35176801682,-0.412719994783,-0.985494971275,0.741225004196,0.00751199992374,-0.948092997074,1.22759997845,0.118311002851,0.631465017796,0.339132010937,-0.0570840016007,1.68667304516,1.03091394901,0.418880999088,-1.66915905476,1.85187602043,1.74877798557,-1.30026400089,-0.956423997879,0.686299026012,-1.20076501369,0.889663994312,-0.317479014397,0.200170993805,0.625760018826,-0.260473012924,1.84210300446,0.32142201066,1.14386498928,-0.912187993526,-0.177806004882,0.0407540015876,0.652307987213,1.72085905075,1.307041049,0.256276011467,-1.09062898159,-0.13483799994,-0.927245974541,0.498771011829,-0.672841012478,-0.435263007879,-0.861227989197,1.17899596691,-1.01728796959,-0.0352610014379,0.674548983574,-0.706004977226,1.40179800987,-0.664045989513,-0.548840999603,-0.862920999527,-0.630766987801,-0.496419012547,-0.197255000472,0.314808994532,1.44773697853,0.0788170024753,-0.474402010441,-1.43979597092,-0.878542006016,-0.0790679976344,-0.311286002398,-1.32334494591,-0.597175002098,0.386595010757,0.000975999981165,-0.935153007507,1.70270800591,0.199379995465,-0.726709008217,1.04430603981,0.971943020821,1.72872304916,-0.648113012314,1.10575997829,0.229717001319,1.23275399208,-0.489652007818,-0.576555013657,1.40692996979,0.826651990414,-0.788802981377,0.449404001236,1.16127502918,1.76103901863,-0.89333999157,-0.493366986513,-1.27686500549,1.39194595814,0.837791025639,-0.0103010004386,0.48687300086,1.72480094433,-0.306980997324,-0.960411012173,0.2778840065,-0.686304986477,-1.23760402203,-0.659238994122,-0.190505996346,-0.242790997028,0.198696002364,0.0238949991763,-0.148546993732,-0.513373017311,-0.872956991196,-0.372420996428,-0.548790991306,-0.374586999416,-0.621290028095,-0.953655004501,-0.47892999649,0.187709003687,0.821871995926,0.937259972095,-0.901510000229,0.765181005001,-0.103546999395,-0.0880170017481,-0.421624004841,-1.68599402905,-0.0753939971328,0.381857007742,-0.167526006699,-0.557982027531,-1.5460640192,0.692324995995,1.29177594185,0.11927100271,-0.174310997128,0.667560994625,-1.08574795723,-0.201446995139,-0.706930994987,-0.393644988537,0.0522070005536,0.398108989,0.404164999723,-0.282552987337,0.663720011711,-0.523513972759,-0.0433779992163,-0.306010007858,-0.643441975117,-0.771709024906,0.620931982994,-0.688142001629,-1.09389901161,0.21201300621,-0.62660998106,-0.743158996105,0.778434991837,-0.42673099041,-0.173086002469,-0.622856020927,-0.575412988663,0.439025998116,-0.591946005821,0.636838972569,-0.911711990833,-0.855311989784,0.394594997168,0.796877026558,-0.411915004253,-0.46835398674,-0.0183760002255,0.540419995785,1.9866540432,-0.645802974701,1.5906380415,0.21201300621,0.113049000502,0.259175002575,1.131731987,0.805307984352,1.50413894653,-0.923620998859,1.43513703346,-0.444929003716,-0.820249974728,0.382795006037,-0.313237994909,-0.845384001732,-0.434843987226,-0.423868000507,0.416523009539,1.05944502354,-0.498059988022,-0.578395009041,0.0484029985964,0.73918402195,0.000190999999177,0.321002006531,-0.600525975227,-0.333833992481,-0.442016988993,0.669650018215,-1.10167598724,-0.736495018005,0.444992989302,-0.167732000351,0.223963007331,0.216996997595,-0.445681989193,-0.398566007614,0.59328097105,0.929854989052,-1.79938197136,-1.21176898479,-0.775147020817,-0.964726984501,-0.225631996989,-0.672640025616,-1.19092702866,-0.291559994221,0.110321998596,1.84241497517,-1.12839996815,0.401690989733,-0.959949970245,-1.67507898808,-0.250005990267,-1.16466701031,0.0265309996903,-0.443810999393,-0.197561994195,0.186585992575,0.0493520013988,0.327726006508,-1.18867504597,-0.06741899997,-0.745379984379,-0.484126001596
部分,-1.21659600735,0.553735971451,1.19942700863,-0.252952992916,2.01499199867,0.787330985069,0.0115689998493,-0.0711409971118,0.565818011761,-0.452491998672,0.680032014847,0.928828001022,-1.61223602295,0.368241995573,-0.140461996198,-0.486775010824,-1.09776198864,0.03316700086,1.67592704296,-0.93515598774,-0.173207998276,-0.243857994676,0.895775020123,-0.00373600004241,2.28836894035,1.31753098965,0.4160400033,1.16248297691,-0.584891021252,1.14619398117,0.864771008492,-1.07601499557,-1.23340404034,-1.4323669672,-0.0237600002438,-1.03164505959,0.155935004354,-0.302861005068,-0.29023000598,1.5144200325,0.160487994552,0.780412018299,-0.210598006845,-0.243441998959,1.19792795181,0.323038995266,-0.179103001952,1.29977297783,0.477732002735,0.508603990078,0.839016020298,-0.579685986042,0.78526198864,0.910382986069,-0.725934028625,0.233190000057,1.95349895954,-1.02083301544,-0.444200009108,0.545699000359,0.159623995423,-0.502213001251,-0.775093972683,-1.24665904045,0.308297008276,0.137311995029,0.179853007197,1.62441694736,1.88984799385,-0.658083021641,-0.782311975956,-0.434249997139,0.996547996998,1.05504000187,-0.140569999814,0.422022998333,2.34048295021,-0.919777989388,1.18124198914,1.09972202778,1.40064096451,-1.04077601433,-0.573688983917,0.428811997175,1.18672299385,0.673789024353,0.434491991997,0.653517007828,1.10692095757,-1.89369797707,-0.00803000014275,0.867697000504,-2.07763195038,1.59099698067,-0.0330719985068,-1.27144098282,0.578308999538,0.247038006783,-0.280230998993,0.431672006845,0.0146669996902,0.226791992784,1.24963903427,1.49149096012,-2.48307394981,-0.132844001055,1.12558996677,0.551926970482,0.333568006754,0.533123016357,0.29467600584,-1.12312102318,-1.79805696011,-0.560778975487,-0.336111009121,2.54206204414,1.90295100212,-0.340599000454,0.827884018421,1.49566996098,-1.43541002274,-0.552622020245,-0.614643990993,-1.78076696396,-0.311664998531,1.17623400688,-0.865216016769,-1.39548194408,0.391514003277,-0.816713988781,0.478448003531,-1.54060399532,-0.930814981461,-0.396095007658,-0.284563988447,-0.30244499445,-0.758578002453,0.594119012356,-0.459491997957,0.432004988194,0.147641003132,-1.15263903141,-0.123782999814,-0.353291004896,-1.08733999729,-0.338414013386,-1.24020504951,1.61900496483,1.05056095123,-0.578068971634,-1.49896001816,0.93672901392,-0.0419140011072,0.109029002488,-1.61509001255,1.80571997166,-0.383850008249,-0.824976027012,-1.56778299809,0.687702000141,0.777702987194,-0.680594027042,1.25871694088,-0.900265991688,-0.0947960019112,0.723013997078,0.0869439989328,-0.331173986197,-1.89474904537,1.21208798885,-0.835049986839,-0.721638023853,0.0866380035877,1.04319000244,1.2461990118,-0.547412991524,1.5059980154,2.97510194778,1.13664698601,0.549733996391,0.429580003023,-0.724159002304,0.680739998817,-0.836317002773,0.915677011013,-0.181365996599,-0.468414992094,1.6582750082,-0.386577993631,1.10016596317,0.114628002048,-0.399742990732,1.87852299213,0.855328023434,-1.57862401009,-0.51492202282,1.99067103863,-1.0411939621,0.626978993416,0.122014001012,-0.525995016098,0.532977998257,-0.841898977757,-1.72815001011,-0.666431009769,1.914929986,-1.32344305515,-0.00431099999696,-1.97498500347,0.731518983841,-1.57524895668,1.14523804188,0.844857990742,0.339816987514,0.768819987774,-0.801913976669,0.224941000342,-0.353190988302,0.653990983963,-0.375946998596,1.23989295959,-0.499130994081,0.195050999522,1.08876502514,-0.190512999892,0.906939983368,0.747032999992,-0.1288869977,0.462332993746,1.04944694042,0.259223014116,-0.587440013885,1.03510701656,-1.85713005066,1.19140195847,-0.0102739995345,0.725449025631,-1.06185305119,-2.06076407433,0.896468997002,0.501457989216,1.4712729454,0.0969579964876,1.11528205872,0.221101000905,-1.58682799339,0.209186002612,-1.11200094223,0.0361989997327,0.38191100955,-0.128882005811,0.285338997841,0.376883000135,-1.60579204559,0.923304975033,2.0893099308,0.080338999629,-0.542786002159,0.438694000244,0.679018974304,1.6332269907,1.09057497978,1.26011705399,0.517683029175,-0.912912011147,-0.620230019093,0.932843029499,0.0642220005393,0.66304397583,-0.346469014883,0.279376000166,1.0322740078,-1.08974599838,1.42647004128,-0.690438985825,0.263794988394,-0.563510000706,0.700024008751,0.0452249981463,1.31659805775,0.787931025028,-1.17357599735,-0.661553025246,-0.571466982365,0.015461999923,0.0565369985998,-0.120655998588,-0.434540003538,-0.700323998928,-1.20844304562,0.937290012836,0.523796021938,-2.23282003403,-0.11589500308,-0.284586012363,0.246632993221,-0.373762995005,-0.28556099534,-1.11670899391,1.5050419569,-0.0967480018735,-0.630755007267,0.292416989803,1.41770100594,1.66416394711,-0.0746610015631,1.63031196594,-1.74722003937,-2.06795907021,0.137676998973,-0.403798997402,-0.53869998455,0.448507994413,0.474206000566,-0.283100992441,0.478038996458,-0.608685970306,0.174465000629,0.900609016418,-0.657106995583,-0.216231003404,0.20448499918,-0.94143897295,1.38407504559,-0.481160014868,0.472871005535,-0.54779702425,0.00754699995741,0.221129998565,-0.103942997754,1.21152997017,1.13556098938,0.300274014473,-0.159042999148,0.588990986347,1.28503096104,0.00129499996547,0.348506003618,-0.508589029312,0.127065002918,0.915027976036,1.06778597832,0.0144999995828,-0.0692010000348,1.19609999657,-0.205290004611,-0.553515017033,-0.524520993233,-0.316839009523,1.0752530098,1.75792503357,-0.0466680005193,0.420217990875,0.63251799345,-0.634932994843,-1.67668104172,-0.0997250005603,1.81379103661,-0.609903991222,0.550723016262,0.809864997864,-1.50065898895,0.269571006298,-0.849077999592,-0.395072996616,-1.09799098969,-0.527135014534,-1.47632598877,0.0686080008745,-1.05218696594,-0.280402004719,-1.00359404087,-0.182264000177,0.829572975636,0.379128992558,-1.39612400532,0.339735001326,1.69032001495,-1.12794995308,0.327930003405,1.29469895363,1.95014095306,0.300431996584,0.635960996151,2.15176010132,0.635330021381,-1.41625499725,-0.953710973263,-1.41704404354,0.80075097084,1.13980901241,1.80058300495,0.111400000751,-1.28771698475,1.24642205238,-0.786201000214,-0.1218990013,1.04522395134,1.40940201283,0.0620700009167
结构,-2.42835688591,1.7971559763,2.61451196671,-0.405829995871,2.17393493652,-0.321936994791,0.599795997143,-1.6702170372,0.377995014191,1.32747805119,-0.698747992516,0.107716999948,-1.2962770462,-0.435034990311,-0.697408974171,-0.431928992271,-1.14078295231,-1.79297494888,-0.347088009119,-1.0648560524,-0.0272519998252,-0.348084002733,0.0713900029659,0.646709024906,0.356077998877,1.45579099655,0.0667740032077,0.444025009871,-1.58606505394,1.22058200836,0.335258990526,-0.40721398592,-0.804570972919,0.456571996212,2.48971891403,-0.823823988438,-1.12971305847,-0.797637999058,-0.203920006752,-0.013582999818,0.679803013802,-0.214080005884,-0.840386986732,-0.41413500905,-0.293336004019,0.754859983921,-0.0514659993351,-2.13663601875,0.494320005178,-0.0538850016892,0.6842020154,-2.46908688545,1.10233700275,0.952587008476,-2.30595588684,1.11290097237,2.02344608307,0.438356995583,-1.39987003803,-0.182514995337,-0.450379997492,0.0237639993429,-0.368209987879,-0.328025013208,-1.57064700127,-1.79748702049,-2.31033396721,0.346033006907,1.13598299026,-0.760568022728,-0.465052008629,-0.399563997984,0.039404001087,1.92485797405,0.0876350030303,0.851423978806,1.01924204826,1.3123049736,-0.113711997867,0.701288998127,-1.19265794754,-2.56626605988,2.31007003784,0.661682009697,0.421148985624,1.2742279768,0.0248840004206,-1.32038199902,0.58992099762,-0.333449989557,0.536536991596,-0.485269010067,1.33403003216,-0.0436760000885,-0.142753005028,-0.72549200058,1.05154502392,-0.71778601408,-1.73489403725,0.535354018211,0.774892985821,-1.31073999405,0.536015987396,2.52102589607,-0.759218990803,-1.68054997921,1.90713405609,0.199277997017,0.386393994093,-1.87719595432,0.292881011963,-0.944337010384,0.661970019341,-0.555262029171,-0.122725002468,1.71340095997,0.952589988708,-1.21913504601,0.654906988144,1.04714095592,-0.816075026989,0.217647001147,1.27047395706,-2.02440810204,-1.39815497398,1.98313701153,-2.10503697395,-1.28587496281,1.67091298103,-0.680275022984,1.85187995434,-1.30558300018,-1.05832695961,0.310032010078,-0.534047007561,-1.78436899185,-0.407829999924,-0.112021997571,0.509638011456,-0.646955013275,2.39430999756,-0.882884025574,-0.654862999916,0.297320991755,0.647177994251,-0.104299001396,0.288049995899,0.303568005562,-0.216251000762,-0.51570802927,1.27024495602,-0.164730995893,-0.1211130023,0.454223006964,0.700429022312,1.54730904102,0.076861999929,0.11538399756,0.488575011492,2.52634000778,0.388453990221,-2.94801998138,0.348791003227,-1.86394703388,0.0980419963598,0.378641992807,-0.169044002891,-0.511548995972,-0.201734006405,0.581014990807,-0.0644309967756,-0.380407989025,0.723946988583,1.8931620121,0.761200010777,-0.317476987839,2.50127100945,1.52624797821,0.392500013113,1.63957798481,-0.178802996874,0.744632005692,0.875329017639,-0.504697024822,0.303490012884,1.09529304504,0.735707998276,-0.0271029993892,0.0549569986761,-0.327495992184,0.575838983059,-2.58888196945,1.54976701736,-0.1363620013,-0.121428996325,-0.464590013027,-0.446790009737,-0.330303013325,0.424448013306,-0.00610700016841,0.43192499876,1.41717505455,-0.832759022713,0.352721989155,-0.615989983082,1.49029898643,0.383891999722,0.614965975285,-0.707837998867,1.41202199459,-0.92421901226,-0.256274998188,1.14748001099,0.745069980621,1.0858540535,-1.14205694199,-0.908937990665,-0.391434013844,0.819562017918,-0.847102999687,0.139369994402,-0.0678799971938,1.31541705132,0.308447003365,-1.08625495434,-1.77766799927,-0.769470989704,-1.32678496838,-0.0862239971757,-0.575662016869,0.974083006382,-0.338093012571,0.290215998888,-0.230393007398,0.886793971062,-1.80847895145,-1.15656495094,-1.37339401245,1.05906605721,0.77088701725,0.951988995075,0.114508002996,-0.567654013634,1.66992795467,-0.758619010448,-0.621187984943,0.123896002769,0.444193005562,1.92571496964,-0.024244999513,-0.377517014742,1.02322900295,0.668663978577,-0.30887401104,-0.889585018158,0.691300988197,0.241087004542,-1.6612919569,2.25962400436,0.687561988831,1.12548398972,-0.0935650020838,0.00560100004077,1.2732219696,-0.149283006787,-0.324656009674,-1.12614798546,-0.144178003073,0.226665005088,-0.194169998169,-1.01255202293,-0.14130499959,-0.777918994427,2.17765188217,-2.65007805824,1.44175994396,-1.808604002,0.369639009237,0.467278003693,-1.36250495911,-0.68806797266,0.196605995297,0.236186996102,0.598609983921,-0.922173976898,0.573428988457,1.14671599865,-1.9857929945,-1.06248104572,0.0806490033865,0.17646099627,0.351292014122,-1.12906002998,-0.745510995388,-0.308097988367,-0.710385024548,0.404154986143,0.473174005747,0.3921880126,-1.13608300686,0.0160590000451,0.975856006145,-0.303501009941,-0.640564024448,0.668151974678,0.719110012054,-0.531316995621,-0.356837004423,-1.12821602821,-0.192860007286,-0.0993020012975,-1.17675900459,0.0683329999447,0.153469994664,0.751115977764,2.16758608818,-1.39037895203,-0.215825006366,0.547070980072,-0.090815000236,0.721624016762,-0.524070978165,-0.725346028805,-1.1400680542,0.421011000872,0.504842996597,-0.462754011154,-1.51936101913,0.092565998435,-1.67402994633,-0.73409897089,1.32639694214,1.04209601879,-0.156059995294,1.36061501503,0.591257989407,-0.461564004421,0.250575989485,-0.970574975014,0.192730993032,-0.106856003404,0.0996949970722,-0.0411860011518,-0.808879971504,-0.161006003618,1.85442101955,-2.09496498108,0.563489973545,0.578660011292,-1.11644804478,-0.300446003675,-1.82167303562,-1.02085995674,-0.77049601078,-0.248379006982,-1.26760494709,0.528766989708,1.20807802677,-1.78280699253,1.78174197674,0.110579997301,0.730836987495,-0.315486997366,1.6776150465,-0.535517990589,-2.9949669838,-1.32596695423,-0.80393499136,-0.0058410000056,-1.53379702568,-1.4695520401,-1.39049196243,-0.62253600359,0.373198002577,-1.36657094955,-0.0270370002836,0.0366810001433,0.147683992982,-1.53023004532,-0.968986988068,0.345452010632,1.12413597107,-1.18701696396,1.05708396435,2.07362294197,-0.883588016033,0.533590018749,-1.2218760252,-0.0787260010839,0.0395909994841,0.596129000187,0.466394007206,-0.248511999846,-0.142681002617,-0.397166013718,0.765344023705,0.94425702095,0.421954989433,1.59098303318,0.697004020214
前,0.480910003185,0.799623012543,0.796675026417,2.33265709877,-1.553352952,1.39594805241,-1.24240899086,-1.22604501247,1.32115197182,-0.0858500003815,-1.22280597687,-0.278883993626,-0.51136302948,-0.595260024071,0.223812997341,0.0775799974799,0.981831014156,-2.07307004929,-0.350565999746,-0.153180003166,-1.0410670042,-1.22649800777,-0.771314024925,-0.0215339995921,0.0636449977756,-0.150321006775,0.842239022255,-0.531293988228,0.776796996593,1.22265601158,0.724887013435,-1.31563699245,1.31319999695,1.5303260088,0.150442004204,0.743151009083,0.36455398798,-1.55462300777,1.1648119688,-0.626622974873,0.469788014889,-0.902724027634,0.54323798418,0.274390012026,1.16397798061,0.251569986343,1.14936304092,0.356954008341,-1.55976200104,1.73494398594,0.335126012564,-0.309087008238,0.735511004925,0.712782979012,-0.017186999321,-0.302172988653,1.69957304001,1.40897798538,0.315836012363,3.0771780014,-0.198631003499,-2.02068591118,0.620131015778,-0.227696999907,-1.51093101501,0.188574001193,0.891340017319,1.67498803139,-0.279035001993,0.935293018818,0.646297991276,-0.631352007389,-1.67960500717,0.0869899988174,0.354907989502,-2.19697093964,-0.46742400527,-0.139693006873,0.662954986095,1.61339402199,0.624451994896,-0.751573979855,-1.06880998611,0.552664995193,-1.47835302353,-3.79637694359,-1.5255600214,-0.633256018162,0.484412014484,-0.793343007565,1.77984297276,0.342157006264,-0.0839530006051,0.963220000267,-2.66402196884,-0.814787983894,0.570581018925,0.403373986483,-0.503565013409,0.609736979008,-3.14202594757,-0.968643009663,-2.17847490311,0.513139009476,-2.73539590836,-1.27387499809,-0.745953977108,-1.69980096817,-2.0204269886,-0.134588003159,-1.18183898926,0.665775001049,-1.04840004444,-0.731477975845,0.261653989553,0.920868992805,1.71750295162,-0.293538987637,-0.702575981617,-0.0188170000911,-1.14282298088,-0.355926990509,2.56246805191,-2.65635991096,-0.0622240006924,1.46563196182,-0.0940840020776,-0.484611988068,-1.23368597031,0.662054002285,-1.54758298397,0.674436986446,-0.492830991745,0.809675991535,-0.998871028423,0.69215297699,0.576399981976,-0.197716996074,-0.200081005692,-0.164352998137,-1.05342197418,-0.781867027283,-2.00787711143,0.140555992723,-1.65802204609,-1.3070089817,-0.362879991531,1.37665200233,0.178329005837,1.4085739851,1.49104595184,0.177300006151,0.729099988937,0.765577018261,-1.09542500973,1.82919502258,-1.75258600712,0.162616997957,-1.53723502159,0.746131002903,0.596063971519,-1.20161294937,0.880877017975,-1.94278895855,0.0582699999213,2.11079907417,0.793205022812,0.929448008537,-1.5438580513,2.63169789314,2.39451694489,0.132935002446,2.3527200222,1.0082000494,0.0543159991503,1.71968698502,2.31528496742,-0.117348998785,-0.446240991354,1.05464303493,-0.0958589985967,-1.0427069664,0.21293400228,1.49550104141,0.714581012726,-0.842799007893,1.76764500141,2.46406197548,0.477272987366,-2.49716210365,1.71989500523,0.588981986046,1.61090302467,-1.75857305527,0.499350994825,-0.60522800684,-1.74113094807,-0.0875919982791,-0.7286850214,0.603438973427,0.419162988663,1.41947805882,0.0481889992952,0.545943021774,0.592527985573,0.014185000211,-2.01381707191,-0.166084006429,0.469704002142,0.0329179987311,-1.23422801495,0.275077998638,0.458882987499,1.30716502666,0.232071995735,0.095205001533,1.13452601433,-0.74693697691,-0.185940995812,-0.298146009445,0.684351980686,0.217255994678,1.54444801807,0.49344098568,0.290006995201,1.07476103306,0.18391700089,0.863231003284,1.48599994183,1.78076398373,-1.10331296921,0.74294501543,0.747325003147,0.898061990738,0.913016021252,-0.985014975071,-0.0837809965014,1.70945298672,-0.0947910025716,-1.75019800663,-0.905573010445,-1.65846705437,0.201006993651,-1.86740899086,0.621501028538,1.42792797089,-0.418330013752,-0.634127020836,-1.05768299103,0.914604008198,2.51863408089,1.03650200367,1.03939700127,-1.16497802734,-0.0351269990206,1.39324700832,1.13488304615,-1.18942499161,-0.273869991302,-0.812587976456,0.635187983513,1.73590600491,-1.28883695602,0.0583060011268,0.862980008125,-0.689122021198,1.08973002434,-0.590932011604,-0.671010017395,-0.913389027119,-0.524523973465,1.11286902428,-0.498420000076,-1.68230605125,-1.93063294888,-1.60311305523,2.38572597504,-0.460487008095,0.0955540016294,-0.296891987324,-1.18114304543,0.256422996521,-2.39792299271,-2.05857300758,-0.710291028023,0.169807001948,1.30336797237,-0.103091999888,0.0377810001373,0.592123985291,0.819383025169,2.25439691544,-1.98501598835,0.374724000692,0.612628996372,-1.18543696404,-0.899833977222,0.886452972889,-1.24503004551,2.6758620739,0.509177029133,-2.23089694977,-0.0808150023222,2.12000799179,0.519021987915,0.0130160003901,-0.136585995555,-0.777841985226,-0.725983977318,1.8821439743,-0.250750988722,0.142544999719,1.50808799267,0.199278995395,-1.32905101776,1.82836103439,1.22541797161,1.2121629715,0.636237025261,-1.02152097225,2.09145092964,0.0777200013399,1.0904020071,1.14835894108,-0.132127001882,-0.594466984272,-1.25911200047,-0.20675599575,-0.0148729998618,1.56549298763,0.606706023216,-0.545404970646,0.973923027515,-0.471538990736,-0.196220993996,-0.257310003042,0.431564003229,0.869513988495,-0.573306024075,0.269311010838,1.97236204147,1.26585900784,0.0623999983072,1.50837004185,-0.0204719994217,-0.0657669976354,1.15992498398,1.65066003799,1.46561300755,0.791365981102,2.11919903755,-1.85322403908,-1.64735400677,1.41905903816,-0.269753009081,0.106132000685,0.169990003109,0.351213008165,-0.567951023579,-0.178136005998,0.311183989048,-2.72794890404,1.23117005825,1.0087120533,1.80307996273,-0.712949991226,0.462572008371,-0.243798002601,0.696675002575,-0.452951014042,-1.26740503311,0.920464992523,-0.448152005672,0.417562991381,-0.867008984089,-1.02773499489,-1.0305980444,-0.719965994358,-1.08628201485,-1.39478099346,0.644513010979,-0.725072979927,1.77024197578,-1.98684501648,0.834450006485,-0.260773986578,-1.24708199501,-1.09672498703,-0.987982988358,-0.111630998552,0.922881007195,0.0824690014124,-1.26350402832,-0.766546010971,-0.116536997259,-1.11538696289,-0.176074996591,0.890928983688,0.727858006954,-1.8306440115
相交,-0.859730005264,-0.55912399292,-1.02277100086,0.902252972126,-0.810329020023,0.277211010456,0.793757975101,0.317716002464,0.28043499589,-0.227246001363,-0.118652001023,-1.19982302189,-0.0804739966989,-0.109012998641,0.0221319999546,-0.112172998488,-0.164710000157,-0.424382001162,1.78862202168,-0.251109987497,0.928604006767,0.487498998642,-0.273604005575,1.78404200077,2.02402591705,0.630868017673,-0.738615989685,-0.569635987282,-0.974416971207,0.0943470001221,0.0664179995656,0.617514014244,1.15365099907,0.123568996787,0.22330699861,-0.291952997446,-0.329012989998,-1.70863604546,1.03611004353,1.16905200481,-0.268373012543,-0.83494502306,-1.94130694866,0.408910006285,1.50566005707,-0.92653298378,0.391182988882,0.120192997158,0.692893028259,2.172123909,0.183833003044,-0.419595003128,-0.841633975506,0.659624993801,-0.714579999447,0.847329974174,1.21384096146,0.700744986534,-0.129653006792,-0.312005013227,-0.169735997915,0.169632002711,0.503139019012,-0.285566002131,0.0901089981198,-0.40242099762,-0.639917016029,0.548385977745,0.480618000031,-0.478987008333,-1.39365899563,0.183994993567,-0.775095999241,2.30533790588,-0.119285002351,-0.928842008114,1.67244803905,0.873616993427,1.65233302116,0.835285007954,0.978442013264,-1.14853596687,0.694894015789,0.141443997622,0.0858879983425,0.623422980309,-0.870685994625,-0.509778022766,0.0812039971352,0.536423027515,0.894092023373,-0.963604986668,-1.98778402805,0.891336023808,-0.654560983181,0.137364000082,-0.689924001694,-0.600642025471,0.0301649998873,-0.890284001827,0.433429002762,-1.25366997719,0.184095993638,-0.0225370004773,0.69157999754,-0.906022012234,0.99552500248,-0.647041976452,-0.937699019909,-0.256058007479,-0.434787005186,-1.33545696735,1.52346694469,-0.745948016644,0.972477018833,0.555212974548,1.10742104053,-0.899540007114,-0.579267978668,1.0845990181,0.965560019016,0.58598202467,0.831722974777,0.568009972572,0.759724974632,0.66298699379,-0.0738649964333,-1.33174800873,0.343486011028,-0.582032978535,1.58968997002,0.0401940010488,0.481339007616,-0.215969994664,-0.657389998436,0.805303990841,0.192744001746,-0.224838003516,0.932721018791,-0.0236130002886,0.541083991528,0.779542982578,-1.35295605659,1.59775900841,0.896438002586,-0.534940004349,0.784402012825,0.256527990103,-0.757176995277,-1.0762629509,0.204881995916,0.465782999992,-0.64256298542,1.00758898258,1.6419210434,0.244547992945,-0.262208014727,-0.634508013725,0.0792760029435,0.593972027302,-0.239520996809,-1.39072394371,2.10735011101,0.183145999908,0.531657993793,-0.579837024212,-0.628714025021,-0.210504993796,-0.762860000134,-0.804728984833,0.42810600996,1.1321259737,0.591440975666,-0.415618985891,1.11101996899,-0.519142985344,0.635397017002,0.923982024193,0.249980002642,0.534705996513,-0.834191024303,0.468865007162,0.214007005095,1.64366900921,-0.350546985865,0.940617024899,0.544483006001,-0.520931005478,-0.439274996519,-0.265998989344,0.811443984509,0.357526987791,0.850983023643,-0.143593996763,0.718236029148,-0.530856013298,1.00869905949,0.0717419981956,1.36194205284,-0.90230602026,-0.862030982971,-1.08763694763,-1.35290598869,-0.801043987274,-2.77704000473,-0.37536200881,0.758745014668,0.714298009872,0.00665399990976,0.0462540015578,0.728332996368,-0.587042987347,1.26041197777,-0.148427993059,1.20437598228,-1.03354203701,1.78289198875,-0.0398010015488,-1.6241799593,-0.515919983387,1.38183796406,-0.333036005497,0.813588023186,0.140880003572,-2.05181002617,-1.01845002174,0.931834995747,0.307462990284,0.104166001081,-0.789965987206,1.05146205425,0.731070995331,0.889883995056,1.51659297943,0.797967016697,1.14329504967,-0.890738010406,0.190051004291,-1.29384195805,1.20098602772,-1.14258503914,1.09221100807,0.840038001537,0.745513021946,-0.245236992836,-1.90688800812,0.190963000059,2.16819000244,-0.500835001469,0.625415980816,0.219986006618,0.433108985424,0.0100149996579,0.61183899641,-0.794566988945,1.39839804173,0.490896999836,0.379047006369,1.44332897663,-0.634326994419,-0.590799987316,0.992554008961,-0.0351850017905,-0.296225994825,-0.0304179992527,-0.193092003465,-2.02015209198,-0.070624999702,1.78658604622,-0.16113999486,1.03095304966,0.622174978256,-1.34014701843,0.0166629999876,0.8731970191,-0.00174600002356,0.212283998728,-0.555262029171,0.352708995342,-1.78790903091,0.633862018585,0.134844005108,1.06864094734,-0.115498997271,-0.282683998346,-0.942903995514,0.0977390035987,-0.178777992725,-0.644649028778,0.63795799017,0.901601016521,-1.12571704388,0.130100995302,-0.206300005317,-0.328996986151,-0.236744999886,0.796793997288,0.340777009726,0.323642998934,-0.105595000088,0.277635991573,-0.986711025238,-1.36085605621,1.09576499462,0.672837972641,0.489174008369,-1.83168399334,-0.954747021198,-1.33193397522,0.727584004402,0.0668819993734,-0.196483001113,0.67524600029,-0.177707999945,0.090162999928,0.837143003941,-1.32796394825,0.264584004879,1.35337805748,-0.362075001001,1.16432094574,-0.5953130126,-2.52395892143,1.2042850256,-0.332628011703,1.46124196053,-0.845393002033,-0.2209199965,0.826929986477,0.286879986525,-0.816886007786,-0.749328017235,-0.887634992599,0.854960978031,-0.0482399985194,-0.0573789998889,0.112262003124,0.756137013435,-0.0923620015383,1.90962004662,-0.50985699892,-0.291316002607,-0.129271000624,-0.552995026112,-0.644603013992,-1.85280203819,-0.068108998239,1.47199094296,0.556163012981,0.549075007439,0.226061999798,0.207968994975,-0.504914999008,-1.39557301998,-0.0962160006166,-0.753996014595,-0.786400020123,0.010764000006,-1.38233196735,-0.597487986088,-0.205994993448,-0.73877799511,-0.352010011673,-0.490734010935,0.394708991051,-1.4453779459,-0.828486979008,-0.202865004539,0.142239004374,-0.271367013454,0.487134993076,0.95415699482,-1.92349505424,1.22602701187,-0.474918007851,-0.539026975632,-1.23932003975,-0.258484989405,0.660175979137,0.576434016228,0.0243360009044,0.38447201252,0.112742997706,1.91065204144,1.16485798359,-2.29082894325,1.79435002804,-0.721409022808,-1.21470201015,-1.23130500317,0.301236003637,0.492146998644,-0.431169986725,-1.65767204762,0.469132989645,-0.0455060005188,0.778048992157,-1.53770899773,-0.1617089957,-1.5363830328
设置,-2.83986401558,0.43039599061,-0.350692987442,0.244232997298,0.494396001101,-1.11717700958,-1.66927504539,-1.63723897934,1.6250629425,0.57060199976,-0.784723997116,-1.64186704159,0.490195006132,-0.114635996521,0.775834023952,-1.15298199654,-0.5712479949,-0.897098004818,1.45044696331,-1.4628289938,-0.00744199985638,-0.088927000761,-0.18945799768,0.644783973694,-0.171874001622,2.25645494461,-0.939043998718,1.55915999413,-0.105783000588,0.888230979443,-0.469655007124,-0.127791002393,0.297986000776,-0.398458003998,0.512308001518,-1.70758199692,-0.090451002121,-0.933048009872,-1.22755503654,2.39157009125,-0.397805005312,-1.89806103706,0.247017994523,-0.37150400877,1.07316803932,1.36571800709,0.332998991013,-0.402453005314,-0.327107012272,0.895955979824,-1.06305003166,-0.096400000155,-0.334758996964,0.955994009972,-1.19751095772,1.14733803272,0.956633985043,-0.762174010277,0.295738011599,1.31847405434,-0.861021995544,-0.985454022884,-0.651151001453,-0.0723749995232,-1.08808004856,0.139735996723,-0.906468987465,0.994611024857,-0.614256024361,-1.24361896515,-1.29961705208,-0.561466991901,-0.228302001953,2.82127809525,-0.512313008308,0.34351798892,-0.0918980017304,1.65754699707,-0.162000000477,1.07516300678,0.42132499814,-1.39898705482,-0.653641998768,0.140047997236,-0.12429600209,-0.0793860033154,-1.49278497696,-0.261961013079,0.00405299989507,1.41936397552,-0.905834019184,-2.3106610775,0.343470990658,0.136773005128,1.33926904202,-0.225638002157,-0.740279018879,0.208147004247,0.0231580007821,0.457042992115,2.44493293762,-0.973519027233,0.265664994717,1.25799000263,-2.02758097649,-1.58170902729,1.25103998184,-0.766242980957,0.721306025982,0.903670012951,0.830838024616,-1.7279510498,-1.22281205654,0.130217000842,0.969196975231,-0.939503014088,1.42313694954,-0.549690008163,0.487875014544,2.25215196609,0.135789006948,-0.238488003612,-0.967574000359,0.00555100012571,0.701340019703,-0.167679995298,-1.56447994709,-0.241173997521,-1.76773905754,0.932407975197,-0.171241000295,-1.31256699562,0.14983099699,0.799508988857,-1.79463899136,-0.802152991295,-1.69403600693,0.0118429996073,0.505406022072,0.266764998436,-0.550659000874,-0.730094015598,-0.187966004014,1.32061398029,0.570836007595,-0.75964897871,-0.418588012457,0.690891981125,1.16164195538,-1.752581954,1.89386701584,-0.00806900020689,0.501329004765,-0.385722994804,1.40370702744,0.241936996579,0.587176024914,0.909361004829,-1.62637805939,-0.40680000186,0.785196006298,-1.23805904388,1.04174995422,0.665166974068,-0.166114002466,1.24918103218,0.323563992977,-2.04984307289,-0.326433002949,0.11967600137,-0.392428010702,0.310595005751,-0.529003024101,0.968986988068,0.665211975574,0.434652000666,1.58402204514,-1.20848500729,-0.742989003658,1.67110896111,-1.2741060257,-0.212963998318,0.927321016788,0.715070009232,0.52527397871,1.3336199522,1.65291595459,0.663093984127,1.74119305611,-0.607587993145,-0.81023901701,-0.449488997459,3.14071702957,-0.296449005604,-0.636232018471,0.0385919995606,1.70982301235,-0.616446018219,-0.0227830000222,1.7255589962,0.139700993896,-1.86140298843,-1.61132097244,2.32238006592,-0.819625020027,1.20493400097,-0.142763003707,2.96589708328,-0.178448006511,0.652460992336,0.0787559971213,0.863937973976,1.38664698601,2.09762001038,0.808656990528,0.279516011477,0.379812985659,0.0374879986048,-0.49741101265,-2.70103001595,-0.223207995296,1.04318499565,0.642719984055,-0.765082001686,0.716866016388,1.51579403877,1.88542795181,-1.7435400486,-1.3960750103,-1.15058302879,-0.696493983269,-0.962969005108,1.73177301884,-0.716210007668,1.35208904743,0.453671008348,0.0780230015516,-0.0856560021639,-1.38843297958,-1.68556702137,0.544390976429,0.574320971966,1.01952898502,0.750091016293,-1.11892700195,1.74470198154,0.133860006928,1.229164958,0.585582017899,-2.47781896591,1.63364303112,1.59638404846,-0.715295016766,0.397904992104,0.279706001282,0.544396996498,0.965952992439,0.763872981071,1.41435694695,0.828773021698,-0.431259989738,1.7578150034,-1.35382294655,0.567062020302,-1.20203495026,-1.50940299034,-1.66851103306,0.17448399961,-1.29067504406,-0.491524994373,-0.377456009388,-0.541065990925,0.286449998617,1.25669002533,-1.27325296402,1.8902310133,-0.805269002914,0.000529000011738,1.60820794106,-1.77185702324,0.508639991283,1.53044402599,1.12736594677,-1.15402400494,1.22484397888,0.472683995962,-0.888050973415,1.57817101479,1.79632294178,-1.19834601879,-1.50446105003,0.999626994133,0.553887009621,-1.50630199909,0.859838008881,-0.372653990984,-0.739228010178,0.200512006879,-0.595220029354,0.108657002449,-1.41498303413,-1.17193698883,-0.146657004952,1.03455400467,1.02467894554,0.104339003563,-1.48345196247,0.123894996941,-1.03251099586,-0.326734006405,-1.10873401165,-1.50502705574,1.06249499321,-1.17558205128,-1.46175205708,-0.785350978374,-1.34408605099,0.988187015057,0.940954983234,-0.76742297411,-0.432567000389,1.04065394402,-1.78916800022,0.551891982555,0.262591987848,-0.66849398613,0.813242018223,-0.386202991009,-0.513768017292,-2.10778188705,1.53821396828,1.07716298103,-0.255028009415,0.813655972481,0.890013992786,-0.303193002939,0.0116609996185,0.301003009081,-2.2781829834,1.10817599297,0.412638992071,3.7561879158,-0.6551399827,-0.0775279998779,1.0846619606,0.430220991373,0.432222008705,-0.66177302599,-0.453213006258,-0.911195993423,0.148733004928,-0.129642993212,1.40576696396,-1.61511003971,0.668003022671,0.71731197834,-0.17308999598,0.838828027248,-0.966261982918,-0.0781100019813,-0.127573996782,-0.745369017124,1.55885899067,-1.85944902897,0.6890630126,-1.75951695442,-0.603118002415,-0.342280000448,-1.51953995228,0.23402300477,-3.33007192612,0.907135009766,-3.09181189537,-0.0601149983704,-0.347644001245,-2.1406109333,-1.59202802181,-1.02663600445,-1.89817404747,-0.215217992663,-0.125596001744,0.62544298172,0.951319992542,-0.316561996937,0.914526998997,-0.362780988216,-0.0500469990075,0.289602994919,-1.88419401646,1.43147194386,-1.51358699799,0.336398005486,0.112343996763,-0.0829730033875,1.99476802349,0.0579320006073,0.110473997891,0.790895998478,2.19277906418,-1.61206400394
