word,0,1,2,3,4,5,6,7,8,9,10,11,12,13,14,15,16,17,18,19,20,21,22,23,24,25,26,27,28,29,30,31,32,33,34,35,36,37,38,39,40,41,42,43,44,45,46,47,48,49,50,51,52,53,54,55,56,57,58,59,60,61,62,63,64,65,66,67,68,69,70,71,72,73,74,75,76,77,78,79,80,81,82,83,84,85,86,87,88,89,90,91,92,93,94,95,96,97,98,99,100,101,102,103,104,105,106,107,108,109,110,111,112,113,114,115,116,117,118,119,120,121,122,123,124,125,126,127,128,129,130,131,132,133,134,135,136,137,138,139,140,141,142,143,144,145,146,147,148,149,150,151,152,153,154,155,156,157,158,159,160,161,162,163,164,165,166,167,168,169,170,171,172,173,174,175,176,177,178,179,180,181,182,183,184,185,186,187,188,189,190,191,192,193,194,195,196,197,198,199,200,201,202,203,204,205,206,207,208,209,210,211,212,213,214,215,216,217,218,219,220,221,222,223,224,225,226,227,228,229,230,231,232,233,234,235,236,237,238,239,240,241,242,243,244,245,246,247,248,249,250,251,252,253,254,255,256,257,258,259,260,261,262,263,264,265,266,267,268,269,270,271,272,273,274,275,276,277,278,279,280,281,282,283,284,285,286,287,288,289,290,291,292,293,294,295,296,297,298,299,300,301,302,303,304,305,306,307,308,309,310,311,312,313,314,315,316,317,318,319,320,321,322,323,324,325,326,327,328,329,330,331,332,333,334,335,336,337,338,339,340,341,342,343,344,345,346,347,348,349,350,351,352,353,354,355,356,357,358,359,360,361,362,363,364,365,366,367,368,369,370,371,372,373,374,375,376,377,378,379,380,381,382,383,384,385,386,387,388,389,390,391,392,393,394,395,396,397,398,399
椅背,-0.218795999885,0.4876550138,0.520762979984,0.150179997087,0.289876013994,-0.213374003768,0.243423998356,-0.318796992302,0.330008000135,0.451139003038,-0.312711000443,0.148752003908,-0.312815994024,-0.102371998131,-0.0268460009247,-0.145638003945,0.229004994035,0.268150985241,0.143821001053,-0.655018985271,-0.349229007959,0.311158001423,-0.185752004385,-0.267944008112,0.303508996964,0.125744000077,-0.255849003792,0.242064997554,-0.205386996269,0.168001994491,-0.121673002839,-0.382773995399,0.301337987185,-0.0512840002775,0.431517988443,0.670428991318,0.0747909992933,-0.148416996002,0.113151997328,-0.00163399998564,0.446978002787,-0.381415992975,-0.514519989491,-0.341910004616,0.329944998026,0.0725530013442,0.173886999488,0.214726001024,0.107289999723,0.0734080001712,-0.0400100015104,0.144954994321,-0.214071005583,-0.0871670022607,-0.479757994413,0.0223239995539,0.171075001359,-0.286455988884,-0.202784001827,0.632565975189,-0.341111004353,-0.0537829995155,0.0534680001438,-0.299032002687,-0.428418010473,0.604236006737,-0.0121619999409,-0.535736978054,0.126000002027,-0.0987280011177,-0.5462859869,0.330220997334,0.194415003061,0.124641001225,0.285867989063,0.27386701107,-0.0425509996712,-0.140306994319,-0.0889799967408,0.459143012762,0.45208799839,-0.170212000608,0.198971003294,0.136941000819,0.285196006298,-0.811268985271,-0.234357997775,0.190988004208,0.131433993578,-0.028878999874,0.32009100914,0.506263017654,0.156954005361,0.482071012259,0.0193119999021,-0.0212409999222,-0.315367013216,-0.0447360016406,-0.12635999918,-0.274930000305,0.620245993137,-0.352364003658,0.0473590008914,0.046875,-0.360785990953,0.246154993773,0.395098000765,-0.359730005264,-0.0408499985933,0.127975001931,0.11543200165,-0.674251019955,-0.0568270012736,-0.479218989611,-0.219400003552,0.144757002592,0.398984998465,-0.541702985764,0.11984500289,0.49277600646,-0.00119900004938,-0.39567899704,-0.00591999990866,-0.0106610003859,0.55568999052,0.222194999456,-0.032568000257,0.0127820000052,0.103638000786,-0.37574800849,0.271019011736,-0.53450602293,-0.196264997125,0.09752599895,-0.526260972023,-0.46391299367,-0.10119099915,-0.0304589997977,0.0261770002544,-0.244449004531,0.138698995113,-0.334533005953,0.0645470023155,-0.0198539998382,0.0320749990642,-0.587970018387,-0.175730004907,-0.137408003211,-0.455062001944,-0.32592600584,0.0975160002708,-0.608560979366,0.0905509963632,-0.0205700006336,0.185201004148,-0.236178994179,0.116232000291,-0.490709990263,-0.242451995611,0.338021993637,-0.127348005772,-0.479420006275,-0.174941003323,-0.275736987591,0.0389729999006,0.0773579999804,0.277759999037,-0.217225000262,-0.479335010052,-0.122446000576,-0.383204996586,-0.0135409999639,-0.113116003573,0.0462410002947,0.314303994179,0.324461996555,0.237638995051,0.241322994232,0.50493901968,0.375483006239,-0.0186989996582,0.155592992902,-0.321166008711,-0.0540880002081,-0.457367986441,0.289222002029,0.121251001954,0.308816999197,0.0540309995413,0.353850990534,0.243151992559,0.146239995956,-0.256128013134,-0.0112990001217,-0.188302993774,-0.141626998782,0.26028200984,-0.272460997105,0.0752490013838,-0.22549700737,-0.0651549994946,-0.410964995623,-0.0444860011339,-0.159942001104,-0.0544099994004,0.141700997949,0.0267350003123,0.0932300016284,-0.182809993625,0.157517001033,0.178561002016,-0.0716750025749,-0.0601399987936,-0.114710003138,0.41166099906,0.418945014477,0.168458998203,0.0872609987855,0.184260994196,-0.373360991478,0.397015988827,0.0731479972601,-0.150717005134,0.160346001387,0.0306889992207,0.189266994596,0.314067006111,-0.180014997721,0.109847001731,0.00502400007099,-0.281783998013,0.117891997099,0.0183090008795,-0.125040993094,-0.0559130012989,-0.0032689999789,-0.509505987167,-0.235670000315,0.347429990768,-0.163105994463,-0.120293997228,0.226014003158,0.00591999990866,0.304174005985,-0.0279249995947,0.0658629983664,-0.089740999043,0.0987079963088,0.0884289965034,-0.0882019996643,-0.396225005388,0.234788000584,0.535184979439,0.252355009317,-0.0347050018609,0.0657960027456,0.133082002401,0.48285600543,0.412032008171,-0.0948129966855,-0.139080002904,-0.339554995298,0.36329600215,0.201298996806,-0.131393998861,-0.567815005779,-0.0253299996257,0.126890003681,-0.701949000359,-0.0352369993925,0.0427929982543,-0.541024029255,0.0130340000615,-0.0874280035496,-0.00120900000911,0.50355899334,-0.133520007133,-0.121510997415,-0.00771699985489,0.181215003133,0.434581011534,0.383870005608,0.449878007174,0.0610390007496,-0.322387993336,-0.292369008064,0.105394996703,-0.291631996632,0.0982189998031,0.0828789994121,-0.036669999361,0.445176005363,0.2307099998,0.000167000005604,0.0496269986033,-0.464565992355,0.0136010004207,-0.146753996611,0.485468000174,0.0813250020146,-0.0819109976292,-0.264701008797,0.307630002499,-0.457590997219,0.303829014301,0.55179899931,-0.289902001619,-0.28490999341,-0.0722360014915,0.117894999683,-0.571806013584,-0.23408100009,0.122483000159,-0.0341870002449,-0.224158003926,0.514869987965,-0.0491099990904,-0.00525300018489,0.160341992974,0.24904499948,0.193788006902,0.266223013401,-0.039482999593,-0.246463999152,0.226201996207,-0.096959002316,0.157262995839,0.0637689977884,0.276850998402,-0.075159996748,0.429412007332,0.106969997287,-0.397612988949,0.321121007204,-0.336750000715,-0.16451600194,0.414582014084,0.372610002756,0.283491998911,0.462980985641,-0.414763987064,-0.111138999462,0.164359003305,-0.133632004261,0.0921899974346,0.34534201026,-0.0623739995062,0.234041005373,0.330222994089,-0.125769004226,-0.348666995764,0.199878007174,-0.126077994704,0.0029490001034,-0.00419700006023,0.212689995766,0.146320000291,0.238359004259,-0.0731479972601,0.44135800004,-0.178789004683,0.158849000931,0.0258440002799,-0.0219620000571,-0.335525006056,-0.177305996418,0.39178198576,-0.165849000216,-0.317595988512,0.0303109996021,-0.280851006508,0.148690000176,0.28871101141,-0.170693993568,-0.270245999098,-0.27201500535,-0.218741998076,0.348868012428,-0.502564013004,0.616320014,-0.260497003794,-0.130393996835,0.410955011845,0.228162005544,-0.0326259993017,-0.393923014402,0.118796996772,-0.399066001177,-0.175713002682,0.386169999838,-0.225954994559,0.379352986813,0.382815986872,-0.0820889994502,0.516707003117,0.0542160011828,-0.599062025547,0.382117986679,0.38521900773,0.0272010006011
地向,0.409942001104,-0.0567849986255,0.23177100718,-0.0444389991462,0.109982997179,0.216606006026,0.299291014671,0.510608971119,-0.0413209982216,1.67194902897,-0.0555340014398,-0.101282000542,-0.216673001647,-0.138790994883,0.620817005634,0.311010986567,0.539972007275,-0.991753995419,-0.0618389993906,0.0276859998703,-0.0427329987288,0.497260987759,0.0834029987454,-0.120507001877,0.462379008532,-0.140875995159,0.218603000045,0.438124001026,-0.223910003901,0.601009011269,-0.0954089984298,-0.246134996414,-0.164739996195,0.106554999948,0.146329000592,0.913985013962,-0.17383299768,-0.416554987431,-0.425150990486,-0.503211975098,0.117109999061,-0.35947099328,-0.712028026581,-0.25632199645,-1.03444695473,-0.00760099990293,-0.187324002385,0.230753004551,0.335988998413,-0.488180011511,-0.646535992622,-0.607024013996,0.0786589980125,-0.432262986898,0.118926003575,-1.11541700363,0.507632017136,-0.195702001452,-1.16963994503,1.05364501476,-0.246408998966,0.94011002779,-0.01640499942,-0.427556008101,-0.330379009247,0.142977997661,-0.766834020615,-0.236440002918,-0.167471006513,0.993528008461,0.751542985439,-0.231041997671,0.181647002697,0.0761590003967,-0.369479000568,-0.54835498333,0.928528010845,-0.271245986223,0.586472988129,-0.182004004717,0.0614890009165,1.63650000095,0.668168008327,-0.327661007643,0.334931999445,-0.0285979993641,1.28710603714,1.00601601601,-0.529725015163,-0.26474198699,1.13159203529,0.121622003615,1.25181794167,-0.401567012072,0.111914999783,0.091710999608,-0.389858990908,0.0607439987361,0.179500997066,-0.688004970551,0.504252970219,-0.382039010525,-0.0203220006078,0.999197006226,-0.426851987839,0.829284012318,-0.616401016712,1.15106296539,-0.971812009811,-0.0553949996829,-0.513256013393,-0.256446003914,-0.00165400002152,-0.266708999872,1.00974595547,-0.515392005444,0.589882016182,-0.0309970006347,-0.283517986536,-0.629339993,0.0788690000772,0.53876298666,0.403035998344,0.31826800108,0.0440489985049,0.204955995083,0.0972729995847,0.622295975685,0.0393449999392,-1.02070701122,0.302217006683,0.0501109994948,-0.144053995609,0.342795997858,0.0147390002385,0.301907002926,0.114169999957,-0.222441002727,0.00243599992245,-0.145141005516,-0.336066007614,0.455269008875,-1.07299399376,-1.46588897705,0.982863008976,0.135793998837,0.114734001458,0.189555004239,-1.14224994183,-0.442173987627,-0.243071004748,-1.12385094166,-0.610062003136,0.280514001846,1.06169497967,0.0643400028348,0.0727109983563,0.117861002684,-0.350903004408,-0.226511999965,0.467996001244,-0.00643600011244,-0.163936004043,0.225638002157,-0.309756994247,-0.524767994881,-0.572647988796,0.155576005578,0.599229991436,0.0401370003819,0.44475799799,0.355197012424,-0.426023989916,-0.0727920010686,0.175594002008,-0.380652010441,-0.39851000905,0.653436005116,0.766048014164,0.736707985401,0.508924007416,0.165097996593,0.711991012096,-1.1660670042,-0.733047008514,0.886649012566,-0.318489998579,-0.319297999144,0.0105590000749,-0.690916001797,0.99956202507,-0.110311999917,1.08869600296,0.758297979832,0.159597992897,-0.996308982372,0.114840999246,0.0211929995567,0.0182150006294,-0.723324000835,0.140973001719,0.304623007774,-0.207241997123,0.0452819988132,-0.11317999661,0.477079987526,0.176562994719,-0.150985002518,0.31469899416,0.299221009016,-0.70624601841,0.692977011204,0.271748006344,-0.00381399993785,0.792617022991,-0.0300459992141,0.731751024723,0.187702000141,-0.367603003979,0.345025002956,-0.00482999999076,0.436136990786,0.165599003434,-0.0072260000743,0.517334997654,-0.123448997736,-0.371219009161,0.165319994092,-0.0219269990921,-0.428656995296,0.147073999047,0.155168995261,-0.143224000931,0.441235989332,-0.561803996563,-0.0304489992559,-0.467763990164,0.198442995548,0.953867018223,-0.267798990011,-0.348426997662,0.0392029993236,0.188528001308,-0.323116987944,-0.399636000395,0.220405995846,-0.123770996928,0.101250000298,-0.528886973858,-0.642942011356,0.117477998137,0.88304400444,-0.528168976307,-0.483446985483,-0.737285017967,0.62105101347,0.218481004238,0.0618660002947,-0.612425982952,-0.210226997733,-0.844819009304,-0.986120998859,0.341569006443,-0.235466003418,0.11953599751,0.313226997852,0.118648000062,-0.338640004396,0.154128998518,0.102724999189,-0.394158989191,0.0973049998283,0.386285990477,-0.812960028648,0.62189501524,0.048707999289,1.24735200405,-0.143888995051,-0.673862993717,0.570491015911,0.0550879985094,0.565186023712,0.213357999921,1.01733601093,0.570828020573,0.160574004054,0.101089000702,0.085666000843,0.483278006315,-0.147589996457,0.333431005478,-0.500685989857,0.853186011314,0.118735998869,0.515344977379,-0.50933098793,0.774832010269,0.333366990089,-0.0822120010853,-1.32316303253,0.358013987541,0.170800998807,0.0224280003458,-0.454447001219,0.789978027344,0.0846270024776,0.0580740012228,0.398472011089,0.705892980099,0.494830995798,-0.326115995646,0.0821250006557,0.794202983379,0.657648980618,-0.200681999326,-0.16049900651,0.191548004746,-0.0823990032077,-1.146723032,-1.01958501339,-0.115717001259,0.214292004704,0.114433996379,0.804674983025,-0.760209977627,0.366510987282,-0.449072986841,-0.128786996007,0.487435996532,0.104999996722,-0.54575997591,0.245616003871,0.632587015629,1.54366600513,-0.340972006321,-0.763906002045,0.168913006783,0.374035000801,-0.659373998642,0.422461986542,-0.119177997112,-0.33992099762,1.08798694611,-0.376843005419,0.289934009314,0.105723999441,-0.0345150008798,-0.0853699967265,-0.104863002896,-0.998093008995,-0.63848900795,0.845670998096,-0.521216988564,0.988043010235,-0.310180991888,-0.207702994347,0.416565001011,-0.862522006035,0.180419996381,-0.32089099288,0.12742100656,0.33840200305,-0.0790579989552,0.308169990778,-0.152498006821,-0.971837997437,0.575168013573,0.801946997643,0.28037199378,1.53090894222,0.5488910079,0.487614989281,-0.0287849996239,0.324607014656,0.543169975281,0.344058007002,0.60923397541,-0.865962028503,-0.170552998781,0.293522000313,-0.21481500566,-0.607582986355,-0.284534990788,0.514970004559,0.0372759997845,0.335909992456,-0.739784002304,0.782187998295,-1.16187703609,0.0759949982166,0.0443140007555,1.23062598705,1.05801594257,-0.013532999903,0.256572008133,0.119168996811,-0.459333002567,-0.0394949987531,-0.554993987083,-0.284943014383
机动,-1.23493003845,0.223067000508,1.06425797939,-1.0913310051,-0.55880600214,-0.351518005133,-0.199909999967,-1.06834995747,1.45932602882,-0.10910499841,-0.505679011345,-0.830783009529,0.0491730012,-0.607652008533,-0.358886986971,0.830887019634,1.22649002075,-1.29859101772,-1.62589097023,-0.495252996683,-0.23246499896,0.370902985334,-0.0822810009122,-1.41236197948,-1.94249296188,-1.17802703381,-1.02652001381,-0.346610993147,-0.211803004146,-0.316767007113,-0.171287998557,-2.19842195511,0.631224989891,0.234273999929,-0.476844996214,0.0374439992011,-0.298748999834,-0.16893799603,0.736662983894,-0.320618003607,-0.287364006042,-1.36267399788,0.69352799654,1.38462603092,-0.274533003569,0.907019019127,0.0660860016942,-0.388139009476,0.335622996092,-0.400658011436,-0.296438008547,-0.00225999997929,0.0384539999068,-0.10644800216,-1.37049305439,0.844246983528,-0.0227470006794,0.78481400013,0.282546013594,0.842263996601,-0.556958973408,-1.08294904232,-1.24515902996,1.16204202175,0.580395996571,-0.890293002129,2.20373797417,-1.2132999897,-0.402635991573,-0.734907984734,-1.0522069931,0.077651001513,-0.19013799727,0.584591984749,-1.95626497269,2.03165102005,-1.36833798885,0.975453019142,-0.73943901062,1.24117994308,0.332800000906,-1.21812295914,1.50136399269,0.232771992683,1.01720404625,0.120770998299,-0.738592028618,-0.971017003059,0.507824003696,-0.792042016983,1.40614497662,-0.351689994335,0.766828000546,1.63957905769,-0.21942999959,-0.216857001185,-1.67334294319,0.762019991875,1.39211404324,-0.819077014923,1.4777610302,0.117293998599,0.840062975883,0.098195001483,-0.981831014156,0.893818974495,-0.297717005014,-0.54008102417,0.156644999981,1.86002004147,0.580350995064,1.33841395378,-0.84470897913,0.790940999985,-0.609953999519,1.09600400925,-0.593829989433,-0.544031977654,-0.175298005342,1.12441194057,0.259972006083,-0.949786007404,0.385255008936,-0.420733988285,0.230528995395,-1.06884002686,0.285261005163,-0.00508699985221,-0.935688018799,1.17131698132,-0.323902010918,-1.28403103352,0.0147590003908,2.87163209915,-0.00952500011772,1.17317605019,-0.154789999127,0.756873011589,-0.636868000031,0.342334985733,0.297592014074,0.377573013306,-1.69848096371,-0.372132986784,-0.192690998316,-0.621869027615,-0.00745199993253,2.06742191315,-0.38530600071,0.266723006964,-0.0198979992419,-1.79484605789,0.0767429992557,0.974180996418,-1.44513499737,0.103063002229,1.37073302269,-0.615109026432,-0.343172997236,-0.915266990662,-1.11590003967,-1.05578804016,-0.622201025486,0.0836640000343,1.69285702705,-1.11535203457,0.31471401453,-1.18709897995,-0.190274998546,-0.275296986103,-0.0461769998074,-0.308867990971,1.00203204155,-1.35903894901,-0.807884991169,-0.769218027592,-0.153889998794,-1.20292103291,-0.953522980213,1.81411802769,-0.398887008429,-0.321009010077,0.544202029705,-1.04425001144,-1.33565700054,1.74211895466,1.1483579874,-0.0748850032687,-1.31191194057,-0.166216999292,-1.24809896946,0.18064199388,0.524977982044,0.617918014526,-0.241190999746,-1.10441803932,1.82809305191,2.21819400787,-1.00616800785,-0.575667977333,1.31472098827,1.20522105694,0.734979987144,-0.39235201478,0.651777029037,-0.888458013535,-0.0169070009142,-0.238455995917,-0.125456005335,-0.226175993681,-0.653313994408,-1.06966197491,-0.401650011539,-2.43548893929,-0.0195070002228,0.204923003912,0.166875004768,0.994370996952,-1.47908103466,-0.355558991432,1.12250602245,-1.30941295624,-1.93557596207,0.657909989357,1.40419399738,-0.727903008461,0.297345995903,-1.13014805317,1.73517394066,-1.76677596569,-0.352791011333,-0.0761229991913,-0.944607973099,-2.31997299194,0.267071992159,1.34281599522,-0.760919988155,0.0567869991064,-0.452881008387,0.160697996616,-0.0133689995855,-0.777324974537,-0.74022102356,-0.507430970669,-0.997583985329,1.64228498936,0.927546024323,0.6997590065,0.842948973179,-0.758466005325,0.456946998835,-1.33111894131,-0.325803011656,0.897489011288,0.281379014254,-0.477485001087,0.524646997452,0.876392006874,1.67503702641,-1.51018202305,2.00582909584,-0.661199986935,1.53272199631,0.780821025372,-2.18065905571,0.363231003284,-2.04565501213,-0.510589003563,-0.774416983128,-1.03900003433,1.50826203823,-1.16972005367,0.227694004774,0.998369991779,-3.06734395027,0.628139019012,-0.340638995171,-1.73531103134,-0.974303007126,0.141652002931,1.27143895626,-0.304210007191,0.321209996939,-2.56421589851,-0.993044018745,0.0136559996754,0.233182996511,0.900453984737,-0.696412980556,-0.788671016693,1.34791302681,-0.162542998791,-0.419218987226,0.632082998753,1.19300496578,0.136736005545,0.082470998168,0.978178977966,-0.474418997765,-0.980939984322,-1.69865298271,-0.145892992616,-2.01792502403,-1.16696894169,1.1187390089,2.21522092819,0.755930006504,-1.39010703564,-1.16089200974,-0.844947993755,-0.597687005997,-0.676976025105,-1.30027699471,-0.865926027298,-0.709734022617,0.640972018242,-0.196409001946,0.203773006797,-0.0412710011005,-0.803062975407,-1.92954695225,-0.294566005468,-1.61482799053,-0.583990991116,-0.75098502636,-1.73168003559,0.384101986885,-1.18139600754,0.742708981037,1.96937704086,1.36375701427,-0.68562400341,-1.15562605858,-1.25218498707,0.383249014616,-0.649196028709,-0.736003994942,-0.201006993651,1.258425951,-3.23840093613,1.12753999233,-1.2257579565,0.669808983803,0.504841983318,-1.9489480257,-0.669921994209,0.715879976749,-0.66638302803,0.226131007075,-0.739144980907,-0.900689005852,0.196779996157,2.16001296043,0.502324998379,0.0511620007455,-0.65456199646,3.61668300629,-0.154379993677,1.49939501286,-1.21990799904,0.238253995776,0.360403001308,1.07452702522,0.109580002725,-2.27142810822,0.741005003452,-0.380207002163,-0.861496984959,-0.764963984489,2.22146606445,0.267230987549,-0.000195000000531,-0.716786980629,0.418812990189,-0.354018002748,1.20287501812,-0.346935003996,-0.216544002295,-2.48833703995,-0.246871992946,0.118056997657,1.70282495022,0.0774540007114,-0.502236008644,1.54815804958,-0.947853028774,-1.09699594975,-1.88249599934,-1.57614600658,0.261341005564,0.851215004921,3.22255396843,1.29927194118,-0.617684006691,0.21316100657,-0.941156983376,-1.2889380455,0.402622997761,-1.7156649828,2.14457988739
枢轴,-0.338869005442,0.0550480000675,0.149271994829,0.0160809997469,0.264393985271,0.0549409985542,0.100615002215,-0.0261419992894,0.11404299736,0.0876630023122,-0.0674929991364,-0.119473002851,-0.299270004034,0.0778300017118,-0.399161010981,-0.21617500484,0.0333909988403,-0.0529030002654,-0.0732159987092,-0.138919994235,-0.154934003949,-0.135358005762,-0.0922920033336,0.0343450009823,-0.159774005413,-0.0057149999775,-0.20052999258,0.230173006654,-0.108598999679,0.195024996996,-0.290596991777,-0.112525001168,-0.141637995839,-0.0682919993997,0.0650409981608,0.117544002831,-0.0277629997581,0.1057099998,0.287135988474,-0.114054001868,0.0801929980516,-0.241692006588,-0.268267989159,0.123833999038,0.166896000504,0.102519996464,-0.0569889992476,0.0104240002111,0.0987000018358,0.250916987658,0.0393280014396,0.0265379995108,-0.00979799963534,0.0659240037203,-0.210966005921,0.104910999537,0.0563139989972,-0.0928409993649,-0.0535419993103,0.233522996306,-0.170698001981,0.19366300106,-0.253324985504,-0.14459399879,-0.107670001686,0.0601820014417,-0.111420996487,-0.076374001801,0.323276996613,-0.128330007195,-0.391629010439,-0.0319680012763,0.0793839991093,0.172486007214,-0.0464919991791,0.145900994539,0.244261994958,-0.0481860004365,-0.130793005228,0.190547004342,0.0788709968328,0.0484939999878,0.0136249996722,0.0208000000566,-0.0290029998869,-0.100823998451,-0.0835700035095,-0.185403004289,0.0711219981313,-0.115665003657,-0.0242679994553,0.245723992586,0.0936350002885,0.326494008303,-0.0376660004258,0.102159999311,0.00699000013992,0.0219160001725,-0.0850730016828,0.152225002646,0.0780460014939,-0.0916690006852,-0.0150960003957,0.187043994665,-0.085247002542,0.112216003239,0.0681099966168,-0.0853250026703,0.011145000346,0.00732500012964,-0.256693005562,-0.335038006306,0.12007600069,-0.287339985371,-0.148432999849,-0.0369659997523,-0.0183910001069,0.0481059998274,0.0354319997132,0.357573986053,0.00477600004524,-0.054170999676,-0.0666939988732,-0.118908002973,0.12813000381,0.142260998487,-0.0136179998517,-0.168916001916,0.0927010029554,-0.0620630010962,0.210253998637,-0.0970330014825,-0.379786014557,0.144418001175,-0.224974006414,0.021862000227,0.0232950001955,-0.11045999825,0.0288890004158,0.0237520001829,0.127667993307,-0.202589005232,0.0262860003859,0.228376999497,0.225468993187,0.0765509977937,-0.0187180005014,-0.0233619995415,-0.0414710007608,-0.0939470008016,0.161524996161,-0.16347900033,0.101402997971,-0.022738000378,0.0215089991689,-0.13612100482,0.0721779987216,-0.122530996799,-0.2479069978,0.138022005558,-0.12133000046,-0.295625001192,-0.066238000989,-0.154393002391,-0.142932996154,-0.0636560022831,0.265733987093,-0.123493999243,-0.266696989536,-0.31544598937,0.100882999599,-0.130888000131,0.0029579999391,-0.0283889994025,0.0731170028448,0.364255994558,-0.0613140016794,0.0819030031562,0.0343099981546,0.296966999769,-0.170482993126,0.346448004246,-0.105301998556,-0.0747800022364,0.104381002486,0.000441999989562,0.177956998348,0.0465000011027,0.142434999347,-0.0470630005002,0.163176998496,0.18206499517,0.16117399931,0.0826580002904,-0.157144993544,-0.0382619984448,0.270384013653,0.0480219982564,0.0191200003028,0.171966999769,-0.0136500000954,0.0160690005869,-0.0869759991765,0.230406999588,-0.14098200202,0.0713580027223,0.339547008276,-0.00433999998495,-0.250797003508,0.308210998774,0.10753300041,-0.254940003157,0.350681990385,0.0678490027785,0.178047001362,-0.0316479988396,0.043180000037,-0.0891899988055,0.174637004733,-0.202228993177,0.0083670001477,-0.00820299983025,0.0631299987435,0.0770180001855,-0.124021999538,-0.181123003364,0.17958599329,-0.263150006533,0.213811993599,0.0962399989367,0.0940629988909,0.163170993328,-0.0933509990573,-0.220531001687,0.0256939996034,0.0203820001334,-0.266447991133,-0.16054700315,-0.0309260003269,0.0269430000335,-0.0896729975939,0.229300007224,-0.0046250000596,0.217562004924,0.0601049996912,0.0862630009651,0.0557020008564,0.221458002925,-0.302356988192,0.154044002295,-0.173466995358,0.102558001876,0.304358005524,0.304118007421,-0.268815994263,0.181073993444,0.0734570026398,0.102121002972,0.172255992889,0.164829999208,0.112641997635,-0.15125900507,-0.102002002299,0.0101260002702,0.0125550003722,-0.440430998802,-0.179208993912,0.145205006003,-0.10206899792,0.0774900019169,-0.0564280003309,-0.140217006207,-0.0455010011792,0.0610830001533,-0.102711997926,0.257858991623,-0.16934800148,-0.265383005142,0.158066004515,-0.0581660009921,0.0237249992788,0.134775996208,0.128573000431,0.0460369996727,-0.206885993481,0.0516589991748,-0.12809099257,-0.303178012371,-0.234730005264,0.0972749963403,0.0951320007443,0.0231940001249,0.00101100001484,-0.218342006207,0.108599998057,-0.141938000917,0.0789190009236,0.0993279963732,0.35979399085,-0.122170001268,0.0538059994578,0.000303000007989,-0.0418250001967,-0.185863003135,0.12804299593,0.158433005214,-0.420563012362,-0.0621530003846,-0.360707014799,-0.0138539997861,-0.15391600132,-0.192634999752,-0.00415500020608,-0.246813997626,-0.00014600000577,0.110017001629,-0.0850910022855,0.00227300007828,0.116810999811,0.322252988815,0.258174985647,-0.149829000235,-0.210995003581,-0.249595999718,-0.0668570026755,0.0210079997778,0.0113460002467,-0.353413999081,0.246564999223,0.153073996305,0.147674992681,-0.0172959994525,-0.12430100143,-0.082618996501,0.248131006956,-0.102843001485,-0.271028995514,0.132145002484,0.00946800038218,-0.0440800003707,0.00326399994083,0.0597949996591,0.0937400013208,0.00791000016034,-0.037050999701,-0.19970600307,-0.144053995609,0.188870996237,0.0197550002486,-0.0795150026679,-0.0280610006303,0.0712520033121,-0.160016000271,-0.183318004012,-0.0136789996177,-0.105342999101,0.108961999416,0.238069996238,0.151387006044,0.258655995131,-0.0555279999971,-0.12932099402,0.109797999263,0.24791200459,-0.291727006435,-0.343807011843,0.075203999877,-0.158609002829,-0.0678199976683,0.0577879995108,-0.271887004375,-0.174062997103,-0.201123997569,0.0829100012779,-0.480832993984,-0.0198599994183,-0.265944987535,-0.0555789992213,-0.217709004879,0.311264008284,-0.0290719997138,-0.086191996932,0.230110004544,0.11439999938,-0.381442993879,-0.0688989982009,0.0939870029688,-0.050110001117,-0.14275200665,-0.0272300001234,0.0406600013375,-0.312660008669,-0.061507999897,-0.118294999003,-0.166746005416,-0.0442159995437,-0.020264999941,0.0897290036082,0.114840000868,0.0310740005225
相对,-0.838786005974,3.1468091011,1.52754402161,1.51629400253,-0.0679759979248,0.257679998875,1.82857596874,-1.22615396976,-0.558672010899,0.355654001236,-0.121164001524,-0.45007699728,-2.27408099174,-0.637194991112,0.226284995675,-0.804957985878,-0.0125460000709,0.456286013126,-0.0320350006223,-0.932144999504,-1.09830594063,0.30341398716,0.0861190035939,-0.312353998423,2.18180608749,0.255481004715,0.359288990498,0.402473002672,-0.363398998976,1.2370890379,1.15185701847,-0.148206993937,0.5383669734,-1.45937001705,0.607940971851,-0.588729023933,0.116567999125,-0.0837109982967,-0.392675995827,1.71696400642,-0.641308009624,-0.110523998737,-0.738102972507,0.499668002129,0.782248020172,-0.00693800020963,-0.357389986515,-1.35817301273,0.470245987177,1.04705500603,0.478309005499,0.220556005836,0.275220006704,0.781831979752,-1.00182294846,-0.245599001646,0.940539002419,0.460065990686,-1.69710505009,1.28315103054,0.0493459999561,-1.27613401413,1.64789199829,-1.00044000149,-1.19548094273,0.293356001377,-0.90417599678,0.626012027264,1.66117596626,0.885329008102,0.362029999495,-0.957058012486,0.54460299015,1.35278296471,-0.863192021847,-0.524326980114,2.76214504242,-0.777621984482,2.30042099953,0.155368998647,-1.25617194176,1.11338794231,-0.598514974117,0.319296002388,1.60514605045,0.952262997627,1.58225595951,-0.472481995821,0.70292699337,-1.38779401779,0.365660995245,-1.62038302422,-1.74235904217,2.02192902565,0.419739991426,-1.44496405125,-1.44950294495,1.96324801445,0.548094987869,0.402482002974,0.184167996049,2.15180492401,-0.378066003323,0.865580022335,0.181771993637,-0.704096972942,1.27521896362,1.32071304321,-0.524649977684,-0.398416996002,2.61984395981,-0.641586005688,1.06387996674,-0.810851991177,1.50569200516,1.19052696228,0.495644986629,0.106526002288,-0.152740001678,-0.707346022129,0.778452992439,-1.00879502296,-0.451700985432,0.0808740034699,0.133719995618,0.29759401083,-1.38562202454,-0.805326998234,2.41973400116,0.566931009293,0.531017005444,0.0486529991031,-0.840833008289,1.78812503815,2.22459101677,0.090204000473,0.814593970776,0.254617005587,0.727729022503,0.314583003521,1.3552069664,-0.983044981956,-1.16931402683,-0.728219985962,-0.567413985729,-0.83240801096,-0.207789003849,0.102297998965,-1.45660495758,0.250955998898,1.57442903519,-1.09097504616,-0.456939995289,0.499514013529,2.73106098175,0.0970399975777,0.355987995863,-0.322461009026,-0.240366995335,-1.29575097561,-0.610014975071,-1.96102297306,1.39925396442,-1.10501503944,-0.280840992928,0.736845016479,-1.80107200146,-0.966009020805,-1.83092403412,0.255192995071,-0.369571000338,-1.17763197422,1.37598705292,1.95934903622,-0.194279000163,0.653029978275,1.17602097988,0.823472976685,-0.0294509995729,1.35156404972,0.224868997931,1.26954400539,1.46894097328,0.18381999433,0.266000002623,0.398968011141,0.231121003628,0.615786015987,-0.894922018051,1.09879899025,0.421523988247,-0.475850999355,2.76507306099,1.37962698936,1.18552196026,-0.440005004406,-0.301710993052,0.267286986113,1.05997896194,-0.619475007057,-0.822798013687,-0.57522302866,-1.06246399879,-0.71123200655,-0.776809990406,2.28211402893,-0.391290992498,1.26949799061,-0.297899007797,1.00293803215,-0.107052996755,-1.2710609436,1.10496795177,-1.10775995255,1.54653501511,1.27624094486,0.0122250001878,1.27246797085,-2.20604705811,0.95617800951,-1.33806097507,1.05017101765,2.10920906067,0.9822229743,-0.855901002884,-0.794220983982,0.0149259995669,0.0119260000065,-1.98237705231,-1.38956594467,-1.197955966,-0.207049995661,-0.440750986338,-0.891664028168,1.98926198483,0.487670987844,-1.00083303452,-1.18645298481,-0.923493027687,2.19609689713,-0.0614879988134,-0.0488229990005,0.227630004287,0.851706027985,-0.564792990685,-1.04111194611,0.0107479998842,-1.32689499855,-1.48459601402,-0.0598439984024,-1.46226298809,0.944922983646,0.573525011539,0.619621992111,0.0171799995005,0.414144992828,0.274232000113,-0.23880200088,1.63670802116,0.661269009113,0.421169012785,0.0940990000963,-0.750455021858,1.34340703487,-0.952310979366,-1.4778380394,-2.42915606499,1.17585599422,0.337484002113,0.177285000682,1.33262002468,-0.245988994837,-0.578404009342,0.608961999416,1.22330594063,1.49228799343,-0.321137011051,-1.13397502899,-1.11932599545,-0.639986991882,-0.232975006104,-2.06499791145,0.403425991535,-0.0780860036612,1.16181004047,0.202813997865,-0.646112024784,-1.1123650074,1.37300097942,0.0171269997954,-1.36419904232,-1.00526094437,-0.938489019871,-1.94252800941,2.10179591179,0.38458698988,0.184636995196,1.28700900078,-0.470393002033,-2.32884097099,-2.17248106003,-0.434918999672,-1.23570394516,0.611895978451,-0.169844001532,0.251401007175,-0.691781997681,0.0503300018609,-1.60267198086,1.2791390419,-0.5542730093,-0.463919997215,0.864832997322,-0.356316000223,-0.934449970722,2.29117798805,-1.28787600994,0.694944024086,1.85092401505,1.20316696167,-0.511318981647,0.349157005548,-1.57153594494,0.136188000441,-0.741820991039,-0.578806996346,-1.61244797707,0.282949000597,-0.583442986012,0.320389002562,0.251628994942,-0.207268998027,-1.20521700382,-0.625585973263,1.91501498222,0.237540006638,0.091769002378,-0.453424006701,-0.423994988203,1.29478800297,0.852370023727,2.27156805992,1.70952701569,1.09564304352,0.812044024467,0.333027005196,0.676635980606,2.26332092285,0.423272997141,-1.86955595016,0.813117980957,-0.48787599802,0.831129014492,-0.435690999031,-0.278447985649,-0.327755987644,0.180879995227,-0.0538179986179,-1.56833600998,-0.604426026344,1.56063902378,-2.2027349472,0.125829994678,-1.37668299675,1.6695330143,-1.97594201565,-0.517916977406,-0.864866018295,0.35883000493,-1.69625997543,-0.699778974056,0.871659994125,-0.0932480022311,-0.328557997942,-1.08032596111,-2.02045607567,-0.782881975174,0.404186993837,-0.541845977306,-0.277774006128,0.333360999823,1.77498495579,0.919323980808,0.176039993763,2.03453707695,-1.32843196392,1.60656094551,0.62914198637,-0.302475005388,0.54358202219,2.34534096718,0.901292026043,0.544764995575,0.026822000742,1.85853803158,-0.568809986115,1.94288599491,-0.668327987194,2.23113298416,-0.340678989887
自动,-0.664996981621,1.0481710434,-2.28858399391,0.345757991076,2.13010001183,0.633188009262,0.338454991579,-0.170646995306,-0.605397999287,0.0928739979863,0.688955008984,0.55686300993,-0.0436370000243,0.892588973045,-0.232931002975,0.315369993448,0.569666981697,-1.27652096748,-0.161664992571,-2.73547911644,-0.571662008762,0.0444080010056,1.22976994514,-1.22176003456,-0.938365995884,1.16276597977,-0.125798001885,1.52153599262,1.30210900307,0.101709000766,0.117463000119,-1.69477498531,-0.376455008984,-0.134343996644,0.306695997715,2.7688999176,1.12126302719,-1.06552898884,-0.956845998764,-1.90578305721,-1.16332101822,-0.301885992289,-0.959164977074,-0.801298975945,1.16333496571,0.385497003794,0.356409013271,-1.09759700298,0.365886986256,-0.218013003469,1.02636694908,-1.98019695282,0.0198199991137,1.84756100178,-0.812403023243,0.287281990051,0.876101016998,-1.39588105679,-1.74809801579,1.74446499348,-0.00183500000276,0.126375004649,-0.161576002836,-1.18363702297,1.11996197701,0.623166024685,-0.726091980934,0.00304399989545,0.0946689993143,-0.0254030004144,-1.84385097027,1.9240039587,-0.581255018711,-0.474480003119,0.574602007866,1.25084400177,0.187564998865,-0.590290009975,-0.250200003386,0.256639003754,-0.165024995804,-1.35879504681,-1.46515500546,0.692716002464,0.442934989929,-0.203712001443,-1.25388801098,-0.157765999436,1.00562298298,0.601522982121,-1.42615199089,0.23788100481,0.808667004108,0.688251972198,0.0664080008864,-0.269576013088,-2.80644392967,1.36445295811,-1.08868503571,1.70445895195,1.33436203003,1.05959999561,-0.212227001786,-0.406038999557,-0.868332028389,-0.106907002628,0.537038981915,-0.946947991848,0.592317998409,0.30656298995,-0.102269999683,-1.43727695942,-0.4327929914,0.399486988783,-0.618508994579,0.79563999176,-0.937907993793,-1.02881205082,0.739395976067,-0.0804719999433,-1.4516710043,-0.650206029415,-0.174419999123,-1.65071702003,0.82800000906,0.739140987396,1.69326198101,0.218154996634,-1.09324705601,1.21714103222,-2.18586397171,-2.04406309128,0.553758025169,1.08732497692,-0.694108009338,0.338037997484,-0.155956998467,0.494827985764,0.570784986019,0.947755992413,-0.990257024765,0.0410719998181,-0.128839999437,-1.64454805851,-0.339132010937,-2.17726111412,0.135406002402,-1.08471703529,0.882773995399,-2.12202596664,-0.743043005466,-1.12414395809,1.15646994114,0.0208720006049,0.987967014313,0.0536959990859,0.579701006413,0.891775012016,-1.00577199459,1.02338898182,-0.245222002268,-2.70122790337,1.12670004368,0.0389380007982,-1.3271420002,1.02866995335,-0.754526019096,-0.273095011711,-1.13852500916,-1.41828095913,-0.745240986347,-0.959250986576,1.8810750246,0.506778001785,0.182372003794,1.39903795719,2.89701104164,1.25959503651,0.790957987309,2.54461407661,-2.72491908073,0.28809300065,0.00669700000435,0.181296005845,0.66747802496,-0.19970099628,0.474422991276,0.733448028564,-0.759684979916,-1.18506896496,2.381939888,-0.276695996523,1.41446101665,-0.0396110005677,0.703761994839,0.566586971283,0.169916003942,-0.748293995857,0.619956970215,-1.05412399769,-0.351316988468,-0.613506019115,-1.0425349474,-0.769869983196,0.0722590014338,1.77988100052,-1.15994596481,-0.390188008547,-0.203155994415,1.84799802303,0.146757006645,0.771651983261,-0.492846995592,-0.379777997732,0.992003977299,0.754104971886,0.313436001539,-1.29404103756,0.891449987888,-1.42890095711,-0.919485986233,0.34713101387,0.580139994621,0.255836993456,2.87060189247,-0.493405014277,0.00689599988982,1.31950700283,-0.473881989717,0.565454006195,0.133172005415,-0.406248003244,-1.15157794952,0.511283993721,1.6744389534,-0.483388990164,0.751794993877,-0.771854996681,-0.50538700819,-1.6631770134,-0.96603500843,-0.0450589992106,-0.999248027802,0.663697004318,-1.85350000858,-0.236763000488,-0.168320998549,-0.302163988352,0.829190015793,0.923578977585,-0.354882001877,0.880185008049,1.32073199749,-0.280310988426,-0.611617982388,1.01575601101,-0.293280005455,-0.0232219994068,0.539309978485,3.11762404442,0.557976007462,1.58638000488,-0.307677000761,-0.184863999486,0.68095600605,-3.35383892059,1.56737196445,-0.340461999178,-2.23596096039,-0.39766100049,1.39353203773,-0.828981995583,-0.0868209972978,-0.042810998857,0.188982993364,-1.06512498856,-1.2451390028,1.6617859602,0.280779004097,0.111662998796,0.410614013672,-0.147618994117,0.615456998348,-0.612986981869,-0.79708302021,0.300453007221,-0.692426979542,0.818112015724,1.39249801636,0.741640985012,-1.87364399433,1.48483097553,-0.678606987,-1.0377869606,0.406832009554,0.555851995945,0.639385998249,1.57932603359,2.36029696465,-1.43331503868,0.950577974319,0.0517829991877,-0.221336007118,-0.00578700006008,-0.467175006866,-1.75712394714,1.67749094963,-0.432011991739,-1.0993540287,-0.0178069993854,-2.98481202126,0.357448995113,1.15186500549,-1.69612598419,0.696868002415,-0.198688000441,-0.25602799654,-0.347070008516,0.610481023788,-0.887893974781,0.651651978493,1.31461501122,-0.584944009781,1.38722705841,0.448341995478,-0.292988985777,0.758449018002,-0.624283015728,1.12284004688,-0.52872800827,0.970727980137,0.213742002845,-1.84766697884,0.187035992742,-0.732270002365,-1.2730089426,-1.24670803547,1.43544602394,-1.07992196083,-0.657581984997,-1.38391494751,0.280979990959,0.503697991371,1.42503499985,0.139806002378,-0.0275219995528,-0.106582000852,1.11459004879,0.23040099442,-0.187215000391,0.268067002296,0.0304690003395,-0.285474002361,0.74558198452,-0.771544992924,0.568192005157,2.24454808235,2.30463910103,-1.45039200783,-0.263514012098,-0.597725987434,0.848102986813,0.00600200006738,-0.507699012756,-1.6232919693,-0.751461029053,-0.270173996687,-1.30348300934,-0.317674994469,-0.093739002943,-1.10115003586,0.332491010427,0.663010001183,0.341637998819,1.13041198254,-0.440066993237,-1.69586598873,-1.38449001312,0.127247005701,0.899039983749,-1.47209095955,0.3271510005,2.11864089966,1.12379395962,-0.902163982391,-0.455942004919,-0.29335001111,0.670958995819,-3.17730808258,0.494733005762,-1.01810002327,0.612887024879,0.238223001361,-1.02404105663,-0.67713701725,-1.98276996613,-0.0973759964108,-0.271485000849,0.357885986567,0.779031991959
化,0.288693010807,0.320160001516,0.544638991356,-1.80436205864,0.636629998684,-0.00396399991587,-0.635725975037,0.351895004511,-0.223443001509,0.533581972122,-0.210151001811,-1.3657989502,1.40164899826,-0.935101985931,1.08228802681,-0.216177001595,0.22082400322,-0.402740985155,1.39917504787,-1.83484697342,1.4979070425,0.693620979786,0.668640017509,1.38718605042,3.26468706131,1.50683796406,-0.305034011602,-0.515004992485,-0.357973009348,1.10850894451,0.981480002403,-0.659668028355,-1.60865700245,-0.991631984711,1.18861997128,-1.54905796051,-0.000197999994271,-2.27153301239,0.558432996273,0.452475011349,1.4132399559,0.399872004986,0.442048996687,-0.367354989052,-1.17751502991,1.42613697052,-0.660337984562,-1.6275550127,-0.188008993864,-1.77582705021,-0.973334014416,0.0520719997585,3.33869099617,0.858819007874,0.113303996623,0.705439984798,-0.329970002174,-0.482656985521,-0.0712030008435,-0.470986008644,-0.624651014805,-1.19584798813,-0.909534990788,0.277631998062,-1.45475494862,-1.46089303493,-0.926410019398,-0.173492997885,-0.293893009424,-0.4445309937,-0.562089025974,-2.41153502464,2.378895998,-0.29088100791,-1.27122998238,-0.0740109980106,-0.955511987209,-1.05041694641,2.86485695839,0.498815000057,0.480589985847,-0.45545399189,0.053015999496,0.60627001524,-0.142543002963,-0.0777800008655,0.84329199791,0.652230978012,2.41449999809,-1.80311203003,-1.73911297321,2.42530107498,-0.41249999404,0.647009015083,0.469732999802,-0.252959996462,-0.185459002852,-0.743429005146,-0.346769988537,-1.31303203106,1.31457805634,1.90608000755,1.10070800781,2.63475108147,0.829473972321,-0.0482579991221,1.81723594666,-0.149780005217,-0.410932004452,-0.920235991478,1.74635505676,-3.80186390877,-0.008066999726,-0.294615000486,0.592899978161,2.76415896416,1.49433100224,0.0183290001005,0.48538801074,1.31976497173,-0.0249070003629,1.04612994194,0.752703011036,-2.65029001236,-0.154684007168,0.295931994915,-2.53035211563,0.616936981678,-0.632445991039,-1.02258503437,0.66261702776,-3.20278811455,-1.47259604931,-0.736814975739,1.38818001747,-2.45219707489,-1.53379702568,0.800683021545,-1.34248995781,0.805316984653,-0.0659170001745,-0.243085995317,0.687785983086,0.734384000301,-0.175813004375,-1.71408903599,1.40690505505,0.371919989586,-0.5281239748,-1.63785898685,-0.183761000633,0.673179984093,2.13119697571,-0.591552019119,-0.853459000587,0.983321011066,-0.666786015034,1.2485229969,-0.746901988983,1.00148105621,-0.401809990406,1.24310696125,-0.000846999988426,0.235016003251,-0.774649977684,1.2971559763,0.024940000847,-1.16270303726,0.863834023476,0.112382002175,-2.14526391029,-1.91118204594,1.03233098984,1.11641001701,1.24761295319,-0.910634994507,2.23137688637,0.312685996294,-2.85237503052,0.758525013924,-1.45243597031,0.397772014141,1.25005197525,-0.925369977951,-1.78978800774,-0.90883898735,0.932963013649,1.85269999504,2.15164208412,1.06766402721,0.541131973267,-1.58085000515,0.20565700531,-0.248321995139,-1.67692005634,1.29826700687,0.924706995487,-0.0561459995806,1.13835000992,-0.310119003057,-0.392625004053,-0.135720998049,-0.399536013603,1.39046001434,-1.10554301739,1.05020594597,0.324075996876,-1.12035298347,0.300148993731,3.33543896675,-1.53696095943,-1.50289201736,1.77538895607,-1.37319099903,2.66589999199,0.277303993702,-0.653546988964,0.124371998012,-1.36983203888,0.316596001387,0.956605017185,-2.22286009789,0.385278999805,0.678050994873,-0.224298000336,-0.253971993923,0.129255995154,0.676497995853,-0.983282029629,-1.28259801865,0.224154993892,1.61481797695,-0.0261760000139,-2.07818293571,1.71307003498,0.68167501688,1.44835698605,-0.201362997293,-1.13062596321,-0.738273024559,0.907391011715,-0.65513497591,0.375883996487,1.22190701962,-1.29515695572,1.15738594532,-0.393730014563,2.3661210537,-0.206863000989,0.713347017765,-0.701771974564,2.63595199585,-1.34464895725,-0.684516012669,0.331223994493,1.94236195087,-0.0884220004082,-0.593052983284,-0.384346991777,0.365586012602,-0.253751993179,-0.00993900001049,-0.838003993034,1.22597801685,-2.04706907272,-0.714254975319,-1.24443602562,0.771566987038,0.108070001006,-0.448747009039,-2.18288493156,-0.943540990353,-2.70691490173,0.103721000254,-0.919129014015,2.58737301826,0.298418998718,-0.280135005713,-0.520681977272,0.39672601223,1.42811095715,-0.227597996593,-1.37075400352,0.677727997303,-0.994166970253,-0.132082998753,-0.153169006109,0.985143005848,0.787784993649,-1.62095999718,0.187021002173,-0.229308992624,0.503615021706,0.0792419984937,1.74107503891,-0.822798013687,-0.0560469999909,1.86208701134,-0.476516008377,0.823189973831,1.591802001,-0.513655006886,-1.41501605511,0.117403000593,0.194077000022,0.0682120025158,0.521179974079,0.723300993443,0.141350999475,1.57556605339,-0.978694021702,1.23637104034,0.420096993446,-0.109350003302,-1.24496197701,-0.227636992931,0.432397007942,-0.230857998133,-1.28341901302,-1.70922899246,0.0966809988022,0.199735999107,0.335204988718,-0.688166975975,-0.665180981159,1.13535499573,0.992582023144,-0.806905984879,-1.94255304337,-0.521636009216,-0.486016988754,0.149354994297,-0.186781004071,-0.744722008705,-0.131504997611,-1.01485097408,0.812620997429,0.86118799448,-0.955910980701,-0.969841003418,1.48404705524,-0.219515994191,-0.271279990673,-0.606445014477,0.257849991322,-1.28270697594,-0.491715013981,-1.93272697926,0.481195002794,1.0650960207,0.58861798048,1.22139394283,1.15615999699,0.752626001835,1.07322800159,-0.723223984241,2.99833106995,1.08317101002,-1.78798604012,0.428734987974,0.837706029415,0.693057000637,1.10373795033,-0.522365987301,1.42256605625,-2.04427599907,-0.952319979668,-0.882206976414,-1.19729602337,2.36222290993,0.667486011982,0.370301008224,0.734583973885,-0.147561997175,1.16714596748,-1.35159099102,-0.0273589994758,-1.6471580267,-0.770339012146,-0.40826100111,1.41876494884,0.24485899508,0.85913002491,-0.136528000236,2.46347999573,1.8212980032,-0.275022000074,-0.433380007744,-0.34998100996,-2.09826493263,1.73560500145,1.35050702095,-0.601065993309,0.301510989666,-0.160021007061,-1.61333394051,0.387937992811,-0.536482989788,-2.18907499313,0.157594993711
悬挂,1.6240350008,0.952794015408,1.1402759552,0.43500700593,-0.0676959976554,-0.118533998728,0.500542998314,-0.974547982216,1.29182398319,1.50341105461,-0.989776015282,-1.53926301003,-1.42432701588,-0.932120978832,-0.176969006658,-1.86831700802,-0.667001008987,-1.12467396259,-0.354155004025,-0.943787992001,-2.02157211304,0.45289298892,-1.97732400894,-0.637274026871,0.769518017769,-0.473565995693,-1.20147001743,0.838612020016,0.406985998154,0.103247001767,0.0713960006833,-0.864250004292,0.207550004125,0.384797006845,-1.12384605408,0.0722419992089,-0.787995994091,-1.12860298157,-2.27637290955,1.81666004658,-0.681008994579,1.5120639801,-2.4159860611,-0.766546010971,1.07376301289,-0.0784699991345,-0.712348997593,0.979631006718,-0.27151799202,2.02383589745,-0.504827976227,-2.37769389153,-1.22408699989,0.733563005924,-1.60872495174,-0.182804003358,0.652402997017,0.0849770009518,-1.03103995323,2.08888792992,0.130320996046,0.507079005241,1.39904296398,-1.84858000278,-0.900996983051,1.39397704601,-0.323935985565,-1.26396501064,1.69948005676,1.74881803989,-1.42963600159,-0.659538984299,1.09700202942,1.82073998451,-0.332347005606,2.31032705307,-0.681706011295,-0.422944992781,-0.580358028412,0.290349006653,1.81492602825,0.0648669973016,0.683131992817,-0.532361984253,0.991172015667,-2.94969797134,1.30382597446,-0.508765995502,0.676043987274,0.0452710017562,0.399257004261,1.16752099991,-1.54559898376,0.553013980389,-0.420349985361,0.56736600399,1.0717099905,0.677806019783,-0.0576669983566,0.309439003468,0.302713006735,-0.837288975716,-0.679520010948,0.120979003608,-1.5725389719,-0.802075028419,0.396405994892,-1.3788779974,1.42193996906,-0.735835015774,-1.30256295204,-0.818089008331,-1.6830329895,-1.46836996078,1.35428905487,0.0313219986856,1.10899496078,-0.700282990932,0.397509992123,1.47429800034,0.706004023552,0.603039979935,-0.900106012821,-0.438973993063,0.0179249998182,-0.906940996647,-3.22612094879,0.527885019779,-0.897472023964,0.775035977364,2.2696390152,-0.190505996346,-2.03578805923,1.97796797752,-1.85968995094,-1.44018495083,-0.316816002131,0.187666997313,2.06025505066,-0.458508998156,-1.60687196255,0.740086019039,-0.448320001364,1.20957994461,1.26166796684,-0.886617004871,-1.53141200542,0.745063006878,-0.20318800211,-0.486526995897,0.173476994038,-2.95156407356,-0.374260991812,1.41628098488,-0.28844499588,-0.183044999838,-0.0211280006915,-0.768123984337,-1.595739007,-0.49873098731,-0.151620998979,-0.782528996468,-0.366412013769,0.133312001824,0.0148470001295,1.15739405155,0.104000002146,-0.59213000536,0.451337993145,-0.459672987461,-2.00816392899,0.984061002731,-0.346801996231,0.422529011965,-0.156156003475,0.351594001055,0.41837400198,0.944680988789,0.488691985607,1.37570405006,-0.614926993847,0.739212989807,0.128168001771,0.430124998093,-0.412759006023,1.32026004791,1.16437101364,1.63310599327,-0.7919459939,-0.86203199625,-0.0612029992044,0.31519600749,0.519894003868,0.683219015598,0.213664993644,0.469549000263,1.51802301407,-0.196037992835,0.74247699976,-1.74738800526,-2.25895810127,-1.29572403431,0.00831300020218,0.0118880001828,-1.54398095608,-0.0205799993128,-0.767831027508,2.72824501991,0.408823996782,0.80561798811,0.698548018932,0.821236014366,2.98888611794,-0.0396060012281,-0.656126022339,0.0640790015459,-1.09699594975,0.55031901598,0.290378004313,0.218448996544,0.248692005873,1.18066799641,0.920617997646,1.27036297321,-0.333712995052,0.255971997976,1.77918195724,0.487940013409,-0.558878004551,-0.312844991684,2.18847489357,-0.964945018291,-0.19570800662,-0.548651993275,-0.74908798933,-0.0379749983549,-1.95967495441,-0.182072997093,-0.443648010492,-0.757184028625,0.348432004452,0.239511996508,0.277087986469,0.899828016758,1.09706103802,0.575443983078,-0.17552100122,1.6558150053,1.383720994,-0.355879992247,0.0834010019898,0.932852983475,1.89316797256,0.42013001442,0.188877999783,1.71375703812,1.54764401913,-0.459630012512,0.407234013081,1.52794802189,-0.535099029541,-0.976320028305,0.251055985689,1.10519397259,-0.6946849823,-1.95045304298,0.17696300149,-0.465353012085,-1.88586997986,-0.589663028717,-1.53027701378,0.587956011295,0.472712010145,-0.315380007029,-0.393992006779,0.0675849989057,-1.47262501717,-0.096736997366,-0.272765994072,-0.187781006098,0.583673000336,0.206477001309,0.442932993174,-0.159675002098,-1.31665205956,-1.88575196266,0.683888971806,-1.13192200661,1.69511795044,1.17136704922,-0.419077992439,0.317763000727,-0.912374973297,-1.00943696499,1.264950037,-1.30355000496,-0.112574003637,0.586902976036,-0.222301006317,-1.48432600498,-1.44851398468,-0.982279002666,2.15975403786,-0.47134500742,0.908276021481,0.926613986492,-0.434632986784,0.152077004313,0.901664972305,1.60482001305,-0.0861250013113,-1.09945905209,2.11039495468,0.836050987244,-2.07147097588,1.53101503849,-2.38631796837,0.0778850018978,0.419216990471,-2.17499804497,0.389445990324,0.189544007182,-0.101664997637,-0.71998000145,-0.554584026337,0.571798026562,0.216624006629,0.96617102623,-0.295852005482,-1.96847105026,-0.414077013731,0.389117002487,0.499895989895,1.38532304764,0.0930830016732,0.648209989071,0.729547023773,-1.44444704056,0.377909988165,0.865226984024,0.492724001408,-0.922863006592,-2.06112003326,0.85969799757,-1.3586230278,0.255066007376,-1.43600594997,1.91338300705,1.19854402542,-1.02180695534,-0.133160993457,1.59637999535,-1.34773504734,-0.89988297224,0.423595011234,-0.592580974102,0.253439992666,0.988520026207,-0.911822021008,0.496603012085,-1.10519301891,0.146670997143,0.384108990431,0.653950989246,0.157000005245,-1.86663997173,-0.18187199533,0.670143008232,-1.20327496529,-1.27578699589,-2.27969098091,-0.400981009007,-0.118070997298,0.318902999163,-1.45771598816,0.957647979259,-1.23893296719,-2.01551604271,-3.01326394081,-0.0992780029774,-2.70057606697,0.679756999016,-0.0652040019631,-0.0753149986267,1.75209105015,-0.654272019863,-0.0694660022855,-0.534765005112,-1.76583898067,0.414662986994,-0.705009996891,-0.89051002264,-0.532616972923,-0.826412975788,1.90411901474,1.06063902378,-1.71323299408,0.0146399997175,0.406067997217,-3.20110106468
包括,-0.45458099246,0.164757996798,1.79915904999,-1.04949700832,0.733509004116,-0.782820999622,1.55502903461,0.660794019699,1.61958694458,-0.89761698246,0.535622000694,0.35279199481,-1.74530601501,-1.87399399281,0.167853996158,-1.00387001038,0.305721014738,-1.26508498192,0.240015000105,-1.57822299004,-0.263256013393,-0.918152987957,-0.410198003054,1.22108697891,2.20093798637,1.28687500954,0.667607009411,-0.836081981659,1.85371601582,0.544808983803,-1.48100399971,0.917953014374,-1.14600205421,-1.96656596661,0.953311979771,-0.30041500926,1.23065805435,-0.823512017727,-1.736956954,1.10004401207,0.61631000042,0.716252028942,-1.23382103443,-0.80795198679,1.15346395969,0.810011982918,0.159330993891,0.66695100069,-0.564612984657,-0.0291469991207,3.32593607903,-2.36165809631,0.8616309762,1.0287539959,0.046682998538,-1.57661497593,0.884683012962,-0.820316970348,-0.564092993736,1.03681397438,-0.371104985476,-1.69451105595,-0.961143016815,-0.364295989275,1.49793696404,-1.0467890501,0.293545007706,0.994126021862,0.571802973747,0.723227024078,-0.936886012554,0.921674013138,0.371354997158,-0.401280999184,-0.00771200004965,0.689547002316,1.58019697666,-0.714837014675,1.66086494923,-2.98004508018,0.240195006132,-1.89980697632,2.25126791,-0.238046005368,0.502623021603,0.565518021584,-0.0853070020676,-2.21869707108,0.220923006535,-0.717351019382,0.456472992897,-1.07067501545,-0.197669997811,0.110694997013,0.304879009724,-1.58364999294,2.15485191345,-0.491432994604,0.404356002808,0.416426986456,-0.315941005945,0.782885015011,-0.438149005175,1.05202901363,-2.2976269722,-2.66469597816,1.53348898888,-0.544652998447,0.0205060001463,-0.831881999969,-0.916168987751,1.42460298538,-1.14686894417,-0.269428998232,1.37158405781,2.41274309158,0.906876981258,0.312240988016,0.175301000476,-0.637138009071,-0.430447012186,-1.08631694317,0.951385974884,-1.15662896633,-1.15687298775,0.231864005327,-1.34062504768,-0.304652988911,0.488011002541,-0.816477000713,-0.0516530014575,-1.97015798092,-1.44315505028,0.0445979982615,0.862852990627,0.0676129981875,0.319023013115,-0.218733996153,0.254290997982,0.670490980148,1.28575205803,-0.0801850035787,0.164633005857,-0.273562014103,-1.2591329813,-0.292937010527,-0.157086998224,0.922022998333,1.58452701569,-1.22032296658,0.148820996284,0.6534730196,-2.0393679142,0.0603480003774,0.921579003334,0.998567998409,0.783999025822,0.95196801424,0.810815989971,-0.172591999173,0.497561007738,-2.43847894669,0.322001993656,1.52843701839,2.06227993965,0.242552995682,-1.35942101479,0.529434978962,-2.69018101692,1.42549800873,0.215532004833,-1.18721103668,-0.862232029438,1.12271499634,0.995172977448,0.102456003428,1.88078403473,-0.255524009466,0.278115004301,-0.617504000664,-0.024075999856,-0.295720994473,-0.526772975922,-1.73352503777,-1.01357400417,0.700094997883,-1.37312996387,1.12802600861,-0.795297980309,1.30646204948,0.748883008957,-1.38669705391,2.25542211533,0.225940003991,1.16594099998,-0.158812001348,1.01716899872,-0.115846000612,-0.998345971107,1.97673797607,-0.579613983631,-1.39214301109,-1.57517898083,-3.12755990028,-0.845227003098,-1.39766597748,0.214383006096,0.459859013557,-0.591390013695,-0.704195022583,-0.436646997929,0.625757992268,0.0283080004156,-1.20953798294,0.664031028748,0.068915002048,1.27981197834,0.00837600044906,-0.575942993164,-0.602973997593,0.226180002093,0.933906018734,-0.644033014774,0.444972991943,-0.768212974072,1.46541404724,0.508481025696,-0.906832993031,-0.159122005105,-0.415253996849,-0.607084989548,-1.975949049,1.71390104294,-1.27606701851,1.73988699913,0.337525010109,1.00392699242,0.876667976379,-1.65308201313,-0.211097002029,-0.983739972115,-0.0362740010023,0.0229870006442,-0.44423699379,-0.241473004222,-1.62508797646,0.31343999505,-0.423994988203,-0.0189789999276,-0.44366300106,0.757034003735,0.365139991045,-0.0738999992609,-1.11206996441,-1.16192305088,-0.320629000664,-1.2597630024,0.53752797842,-0.465131998062,0.544440984726,0.419093996286,0.463856011629,0.670464992523,-0.460119009018,-0.833801984787,-0.382362991571,2.18521809578,0.26867800951,-1.23650801182,-1.1147480011,0.732991993427,0.592454016209,-0.202702000737,0.813533008099,-0.106539003551,0.177596002817,-1.19238305092,1.75196099281,0.943477988243,-0.535651981831,0.558507978916,1.94003796577,0.85153901577,-0.693044006824,-0.577216982841,0.392235010862,1.05674302578,-0.630775988102,0.74019497633,0.509913980961,1.17580199242,1.82550597191,-1.17437505722,-1.27008104324,0.272271990776,0.219248995185,-1.13816094398,0.168464004993,-0.46457400918,1.19388699532,-1.39800798893,-0.00100199994631,-0.41308298707,0.356914997101,1.07615494728,-0.964807987213,-0.489504992962,0.664205014706,-0.546822011471,2.37935996056,-0.538571000099,-1.02659094334,1.98566901684,-0.77510201931,0.0225370004773,0.946175992489,-1.21878004074,1.57324898243,0.01832799986,0.902724981308,2.083081007,0.291148990393,-0.424068003893,2.19520306587,-0.750169992447,1.03171801567,0.0738869979978,-0.89485001564,-0.118777997792,1.16980195045,-0.124298997223,1.61822104454,-0.156580001116,0.307168006897,2.61532402039,0.467014998198,-0.682807028294,-0.458820998669,-0.330401986837,-1.25936794281,-1.04619801044,-0.290796995163,-0.279507011175,-1.34332501888,-0.627764999866,2.15378308296,2.02582907677,1.25430798531,-1.39620900154,1.12433302402,-1.06657505035,-0.652185976505,0.230636999011,-0.844760000706,0.0122959995642,-0.923538029194,0.647957980633,1.10619699955,-0.589318990707,1.28975200653,-1.05566096306,-0.451656997204,-0.372523993254,-0.500169992447,-0.701224029064,0.200872004032,-1.88276195526,-0.0383489988744,0.818098008633,0.56969499588,-2.27243709564,-1.01694703102,-0.596351981163,0.358373999596,-2.69290590286,-1.62794494629,-2.06400203705,0.929220974445,-0.877553999424,-2.22939395905,-0.593096017838,-0.592799007893,0.57443600893,-1.57796001434,3.57118201256,0.422749996185,-2.8557009697,0.679933011532,-1.67461001873,-0.000548999989405,0.78701198101,2.60092806816,0.774625003338,0.437391012907,0.762611985207,0.243417993188,0.965864002705,-0.330404996872,0.462238013744,-0.50283998251
侧,0.0335550010204,-0.612897992134,0.210811004043,-0.309543013573,-0.0889620035887,1.01467394829,-0.580008983612,-0.664211988449,0.371722012758,0.198979005218,-0.377368986607,-1.32227694988,-0.0622519999743,-0.454311013222,-0.199373006821,0.602832973003,0.880613029003,0.248211994767,0.978286981583,-0.498237997293,-1.47988498211,0.842334985733,-1.07225000858,-0.413583993912,0.314455002546,-0.284997999668,0.00363900000229,1.01555097103,-0.168190002441,0.134718000889,-1.53085696697,-0.269841998816,0.905990004539,1.19565999508,-0.00161100004334,0.762476027012,0.233997002244,-2.21722793579,0.625729978085,0.901675999165,1.06018805504,-1.11254096031,-1.50353598595,0.0738700032234,1.24502801895,-0.687662005424,-0.060123000294,0.0671150013804,0.246333003044,1.36280798912,-0.184975996614,-0.216382995248,-0.662811994553,-0.639734983444,-1.75595796108,0.142814993858,1.19213402271,-0.870052993298,0.511430025101,1.16981196404,-1.04369699955,-0.282182991505,-0.287086009979,-2.63520002365,-0.0916280001402,0.907254993916,-0.71595197916,1.07407999039,-0.249964997172,0.841620981693,0.0908610001206,-0.336901009083,0.65508300066,0.835277974606,1.26843202114,0.0942289978266,-0.570136010647,1.20490503311,0.202070996165,1.0853869915,-0.134893000126,-0.0718289986253,-1.43122196198,-0.458880990744,0.156500995159,-0.833929002285,-0.688418984413,0.736567020416,0.332314997911,-0.799040019512,-0.0485870018601,0.35353499651,0.333377987146,0.719886004925,-0.0518160015345,0.324414998293,-0.0712409988046,0.736582994461,-0.261184990406,1.34993600845,-0.0545330010355,-1.76088500023,0.539463996887,-0.475306987762,0.364730000496,-0.867362976074,1.31867897511,-0.379451990128,0.371681004763,0.470169007778,-0.280447006226,0.0635240003467,0.553586006165,-0.883145987988,0.56442797184,0.260632991791,0.259353011847,-1.04492497444,-0.303357005119,0.973329007626,-0.522454977036,0.277236998081,0.398838996887,-0.134112998843,0.800707995892,0.020535999909,-0.520474016666,-1.51995503902,0.788854002953,-1.93393194675,1.52396094799,-0.389463990927,0.147597998381,0.529473006725,-1.24336004257,0.888598978519,-0.0846759974957,-0.516447007656,0.174872994423,0.132140994072,0.252021998167,-0.0227390006185,-1.09020197392,0.0702750012279,-0.685826003551,-0.481380999088,-0.882287025452,0.732832014561,-0.870899021626,1.19292902946,-0.117537997663,0.388491004705,-1.26381504536,-0.483675003052,0.811241984367,-0.882704973221,0.596836984158,-1.45246899128,-1.41696703434,-1.04723095894,-0.335424989462,-1.47891294956,0.00062100001378,0.0903809964657,-1.39735400677,0.512426018715,0.890389978886,0.143695995212,-2.07237410545,-0.178944006562,0.529654979706,-0.675553023815,0.861863970757,1.00600302219,0.723179996014,0.923843979836,-0.0990049988031,-0.242550000548,0.586823999882,1.32776296139,-0.627852976322,0.411480009556,-0.0562009997666,0.575227975845,0.845551013947,0.235844001174,0.143255993724,-0.0755639970303,0.770774006844,-0.0621469989419,0.31884598732,1.27240395546,1.04311203957,-0.719424009323,-0.687020003796,0.229450002313,0.74118500948,-0.768634974957,1.48068797588,-0.352982014418,-1.16650903225,-0.38776499033,-0.894325017929,-0.640874028206,0.226815998554,0.386765986681,-0.298862010241,0.437115997076,-1.46372902393,-0.18592299521,1.12290000916,-0.889623999596,0.919526994228,-0.096537001431,-0.0889609977603,-0.23225800693,0.196131005883,-0.104653999209,0.442544996738,-0.327491998672,0.613283991814,1.92421901226,-0.324443995953,0.0965349972248,0.395135998726,0.491066008806,0.675270020962,-0.888783991337,0.254272013903,-0.329861998558,-0.679261982441,0.141377002001,0.109466999769,-1.27757704258,0.665684998035,0.160575002432,0.0132969999686,0.666839003563,-0.757086992264,-0.292055994272,0.209174007177,1.14427101612,0.720265984535,0.923976004124,0.737200975418,1.23570394516,-0.541905999184,0.197384998202,-1.16002202034,1.60688900948,-1.18819594383,0.660481989384,0.82312899828,-0.0787720009685,0.39467599988,1.09433495998,0.0202430002391,-0.348396986723,0.998079001904,0.219582006335,0.602514028549,0.453552007675,-0.481402009726,-0.366005003452,-0.206443995237,-0.54188400507,-1.25963199139,-0.025836000219,0.0567429997027,-0.180888995528,-0.324934989214,-0.0623929984868,0.0204579997808,-0.20809699595,-0.63888001442,1.66031801701,-0.535259008408,-0.234556004405,-0.888414978981,-0.233161002398,0.968679010868,-0.256826996803,0.0990829989314,0.894681990147,-0.986482977867,0.0556179992855,-0.346648991108,-0.167355000973,1.10421597958,-0.865554988384,0.884618997574,0.256009995937,0.986967027187,-0.297304004431,-1.40240597725,-0.926207005978,-0.750941991806,0.337837994099,1.13669204712,0.300953000784,1.00805294514,-1.1787430048,-0.0151660004631,-0.743674993515,0.821736991405,1.40972399712,-1.47905898094,-0.381788998842,-0.898760974407,0.204779997468,-0.0180089995265,-0.320266991854,0.915998995304,0.123207002878,-1.3167129755,2.02478599548,0.0243939999491,0.717961013317,0.636822998524,0.264313995838,-0.273158013821,0.0651440024376,-1.11431896687,0.0562550015748,0.97677397728,0.284361988306,-0.689459979534,-0.275245010853,-0.832647025585,1.26134598255,1.15278303623,-0.0231519993395,-0.469018012285,1.6575729847,0.111809000373,0.666462004185,-0.81456297636,1.40407502651,-1.03452301025,1.09444105625,0.547251999378,0.274524986744,-0.619799017906,-0.326362013817,1.08362197876,-0.953881978989,-0.93342602253,-0.0665019974113,0.11408200115,0.752568006516,-0.470663011074,0.28626999259,0.186315000057,-0.13246999681,-0.560000002384,-0.689888000488,0.370858997107,0.823077976704,0.215406000614,-0.255627989769,-1.9858109951,-0.663501977921,-1.25627696514,1.12349903584,1.29965603352,-1.55670702457,1.38576996326,-1.8393009901,-0.789439976215,0.174886003137,-0.506370007992,-0.0747689977288,-0.726145029068,0.758341014385,-0.0573569983244,-0.222792997956,-0.0585619993508,0.280582994223,-1.16086196899,0.668309986591,-0.896272003651,-0.711673974991,-0.0740550011396,0.36336800456,0.21638199687,-1.18426597118,1.01509094238,-0.664140999317,-1.07004499435,0.788392007351,-0.0453209988773,0.491183012724,0.253984004259,0.0455660000443,0.968599021435,-0.218566000462,-0.158548995852,-0.165464997292,1.85071098804,1.10637795925
部向,-0.0307689998299,0.0620610006154,-0.0637580007315,0.0409430004656,-0.0226509999484,-0.0251800008118,0.0392550006509,0.0186810009181,0.0432990007102,-0.0369359999895,0.0247349999845,-0.0456559993327,0.0417760014534,-0.0183160007,0.0759380012751,0.0153949996457,0.0833740010858,-0.0429779998958,-0.0327990017831,-0.0104240002111,-0.0629940032959,0.000742000003811,-0.0191399995238,0.0221980009228,-0.0141319995746,-0.0444400012493,0.00227800011635,0.0531090013683,0.0154990004376,0.0621029995382,-0.0402209982276,-0.0793289989233,-0.0314819999039,-0.073257997632,-0.0489180013537,0.00642100023106,0.0335879996419,-0.0116560002789,0.0446970015764,-0.0240770000964,-0.0479359999299,0.00451199989766,0.00651599979028,0.0531519986689,0.0236540008336,0.0702380016446,-0.0570469982922,0.0211919993162,0.00991200003773,-0.0323030017316,0.0635040029883,0.00310300011188,0.010374000296,-0.0171460006386,0.0219049993902,0.0146439997479,-0.0432280004025,-0.0572890006006,-0.0151819996536,0.0301959998906,0.00391300022602,-0.0069769998081,0.0153810000047,-0.0997160002589,-0.00996599998325,0.0210820008069,0.00401100004092,-0.0108359996229,0.0199469998479,0.0248869992793,-0.0672060027719,0.0123739996925,0.026894999668,0.0637530013919,-0.0244950000197,-0.0716800019145,0.0850970000029,0.00846699997783,0.0282339993864,0.0593720003963,-0.000564999994822,0.0832910016179,0.0491890013218,0.0237939991057,-0.0479810014367,-0.00974499993026,-0.0583939999342,0.0307759996504,-0.0480539985001,-0.015506000258,0.0498719997704,0.0579460002482,0.0147569999099,0.0409579984844,-0.110802002251,0.0427169986069,0.0104160001501,0.0820230022073,0.0391199998558,-0.023730000481,0.0297049991786,0.00479899998754,0.068452000618,-0.00258100009523,-0.0583229996264,-0.00396500015631,0.0855199992657,0.0381360016763,0.0148790003732,0.00292299990542,-0.0827400013804,-0.0845659971237,-0.015069000423,-0.0531079992652,0.0505199991167,0.0238419994712,0.0179719999433,0.0227049998939,-0.0426930002868,0.0186330005527,-0.0255820006132,-0.0126529997215,-0.037565998733,-0.0209950003773,0.0744649991393,0.0261909998953,-0.00673499982804,0.0144189996645,0.0371109992266,-0.0389759987593,-0.0119169997051,-0.031849000603,-0.070525996387,0.0556479990482,-0.00994999986142,0.0159809999168,-0.0718379989266,-0.00335299992003,-0.0275970008224,0.00172599998768,0.0283979997039,0.0133539997041,-0.0335210002959,-0.0541890002787,0.0540250018239,-0.0345200002193,-0.000704000005499,0.0396680012345,-0.0206039994955,-0.0997679978609,0.0890929996967,0.000325000000885,-0.0410959981382,0.0154839996248,0.0246910005808,-0.0241969991475,-0.00912300031632,0.0342079997063,-0.0313589982688,0.00933500006795,0.0192360002548,0.00690500019118,-0.00295199989341,0.0246380008757,-0.0148620000109,-0.0204039998353,-0.00607000011951,-0.00412299996242,-0.0877140015364,-0.00445700017735,0.00453899987042,-0.00400099996477,0.018225999549,0.049658998847,0.00853199977428,0.0228300001472,0.0429349988699,-0.0930579975247,0.0344030000269,0.0731569975615,-0.00261400011368,0.064995996654,0.00971399992704,0.023675000295,-0.0423410013318,0.0594649985433,0.130909994245,-0.0874449983239,0.0393930003047,-0.0108570000157,0.043044000864,0.0746869966388,0.0453180000186,0.0340409986675,0.0393170006573,-0.0545190013945,0.00709899980575,0.0228989999741,0.00570899993181,-0.00353699992411,0.00691499980167,0.000134000001708,-0.0563459992409,0.002831999911,0.0186020005494,0.0145680001006,0.0490400008857,-0.0358080007136,-0.081945002079,-0.0414480008185,0.00526600005105,-0.00521800015122,0.124456003308,0.0368949994445,0.0349840000272,-0.0469119995832,0.0537329986691,-0.0465889982879,0.00442400015891,-0.0275500006974,-0.0260480009019,0.033381998539,-0.0170799996704,-0.010540000163,-0.0469340011477,-0.0355230011046,0.00719500007108,-0.052216000855,0.013414000161,0.00124799995683,-0.0656699985266,-0.0260099992156,-0.0213600005955,-0.098222002387,0.0260359998792,-0.038952998817,0.0137419998646,0.0492770001292,-0.0460800006986,-0.00685099978,0.0354270003736,-0.0249220002443,0.0567139983177,0.0539209991693,-0.00654600001872,-0.0728230029345,0.0515419989824,0.0470749996603,-0.0561619997025,0.00591100007296,-0.0409709997475,0.0864659994841,-0.0287839993834,-0.0196150001138,-0.0296800006181,0.0529129989445,-0.0519209988415,-0.000415999995312,0.0196380000561,0.0476839989424,0.00369099993259,0.0302559994161,0.0582970008254,-0.0181920006871,0.0459510013461,-0.0244939997792,-0.02817199938,0.00454800017178,0.0534849986434,0.0494280010462,-0.0563159994781,-0.0557099990547,-0.041411999613,-0.0336139984429,0.033029999584,0.0248160008341,0.0153959998861,0.0270099993795,-0.00854600034654,-0.0217620003968,0.051601998508,-0.0092169996351,-0.00118899997324,0.0162310004234,0.0464989989996,-0.0333440005779,0.0100060002878,0.0544110015035,0.00782200042158,0.0349790006876,0.0274909995496,-0.0110609997064,-0.0193240009248,-0.0458699986339,0.0366850011051,-0.0180810000747,0.0545249991119,0.0375199988484,-0.031957000494,0.0272710006684,0.071998000145,-0.00616799993441,-0.0615249983966,0.0133579997346,0.0557439997792,-0.0109799997881,0.00187999999616,-0.0195450000465,-0.0536330007017,-0.023144999519,-0.0411049984396,-0.0547990016639,0.0164010003209,0.032161001116,-0.0472510010004,0.0271589998156,-0.0454789996147,0.0163139998913,-0.0371069982648,0.0183240007609,-0.0149760004133,-0.0212960001081,-0.0186470001936,0.0579060018063,0.0126090003178,-0.0194669999182,0.044987000525,-0.00713900011033,0.016440000385,-0.0437299981713,-0.00331100006588,-0.0531679987907,-0.00908499956131,0.00224600010552,0.0748620033264,-0.0148040000349,0.0171569995582,0.0891169980168,1.49999996211e-05,-0.0244309995323,-0.0437330007553,-0.0141000002623,0.033544998616,-0.00822500046343,-0.00819400046021,-0.00389500008896,-0.032065000385,-0.0119690001011,-0.0455319993198,-0.00800599996001,-0.0367680005729,-0.0476620011032,-0.0797709971666,0.0495590008795,-0.0176989994943,-0.0344399996102,0.0776719972491,-0.00857600010931,0.0128420004621,0.03664400056,0.024360999465,-0.0242650005966,-0.0746510028839,0.00937500037253,-0.00737799983472,-0.115704998374,0.0154200000688,-0.0529769994318,-0.0637990012765,0.00403100019321,0.0166040007025,0.0290910005569,0.00546000013128,-0.00728899985552,-0.0154600003734,0.0598159991205,-0.0411439985037,-0.0282780006528,-0.0696590021253,0.0490680001676,-0.0450860001147,0.051357999444,-0.0393219999969,0.0269479993731,0.0341439992189,-0.0653589963913,-0.0315600000322,0.0209010001272,-0.105297997594,0.00446399999782,0.0449340008199,0.0173509996384,-0.00148600002285,-0.0669410005212,0.00496899988502,-0.0222260002047,0.0318679995835,-0.0406720004976,-0.00420700013638,0.022743999958
支承,-0.225407004356,0.137142002583,0.151062995195,0.00280499993823,0.231764003634,0.08157800138,0.287012994289,-0.357571989298,0.18452000618,0.349321007729,-0.292140990496,-0.210445001721,-0.152887001634,0.302017003298,-0.373284012079,-0.282759010792,-0.226631000638,-0.144308999181,-0.160796999931,-0.254803001881,-0.394519001245,0.0637689977884,-0.177007004619,0.150904998183,-0.0688180029392,0.1203270033,-0.013535999693,0.304185003042,-0.215122997761,0.0597979985178,-0.12842400372,-0.269093006849,0.0483039990067,-0.0715999975801,0.134063005447,0.117757998407,-0.0609209984541,-0.236524999142,0.202959001064,0.405665010214,0.431914001703,-0.238003000617,-0.256875008345,-0.273128002882,0.232374995947,0.108537003398,-0.0702499970794,0.161919996142,0.0715110003948,0.242110997438,0.403245985508,-0.24429500103,-0.110468998551,-0.0101269995794,-0.316987007856,0.289678007364,-0.00293199997395,-0.324010014534,-0.0833579972386,0.28409999609,-0.170247003436,0.0752390027046,-0.222232997417,-0.29638299346,-0.385715991259,0.149408996105,-0.208373993635,-0.0749259963632,0.139075994492,-0.0731569975615,-0.336616009474,0.0407910011709,0.101384997368,0.0849199965596,0.0068419999443,0.261418014765,0.0990599989891,0.026562999934,-0.0683640018106,0.194446995854,0.141555994749,-0.0784119963646,0.343277990818,0.0284770000726,0.290455013514,-0.43930798769,0.0613359995186,-0.0602549985051,-0.124173000455,0.0252630002797,0.076130002737,0.511382997036,-0.00794500019401,0.363927990198,0.00535000022501,0.192763000727,-0.114269003272,-0.00109799997881,-0.198212996125,-0.0482699982822,-0.0575359985232,-0.353074014187,0.102268002927,-0.0994959995151,0.0870219990611,-0.104033999145,0.306459009647,-0.0783710032701,0.175665006042,-0.0346370004117,-0.246349006891,-0.562884986401,0.38925999403,-0.408006995916,0.00256199995056,0.0853660032153,0.332688003778,-0.194269001484,-0.128177002072,0.273337990046,-0.0974669978023,0.133527994156,-0.104094997048,-0.208697006106,-0.0377830006182,0.217669993639,-0.312265008688,-0.068452000618,0.20134100318,0.125630006194,0.242905005813,-0.215389996767,-0.358981996775,0.208250001073,-0.111413002014,0.108529999852,-0.2504529953,0.00386200007051,0.119744002819,-0.21068200469,0.129251003265,0.0551600009203,0.00775599991903,-0.0194439999759,0.161726996303,-0.095164000988,-0.105375997722,-0.221578001976,-0.18916900456,-0.0209129992872,0.236706003547,-0.307383000851,0.0988110005856,0.2263019979,0.135119006038,0.0543290004134,0.26056599617,-0.258899986744,-0.221560001373,0.281592011452,-0.0456699989736,-0.114886000752,-0.0738229975104,-0.362937003374,-0.0685629993677,0.151668995619,0.338391005993,-0.242336004972,-0.313437014818,-0.104887001216,-0.267343014479,0.0845220014453,-0.135884001851,0.251462996006,0.335925996304,0.0533530004323,0.197301000357,0.00801800005138,0.26705300808,0.343567997217,-0.104440003633,0.1176360026,-0.1997590065,0.0291700009257,0.17644199729,0.396587014198,0.408654004335,-0.0697100013494,0.0960540026426,-0.085069000721,0.216508999467,0.220612004399,-0.0788550004363,0.251962006092,-0.17242500186,-0.138987004757,0.435954988003,0.0944830030203,0.175962999463,0.0182659998536,0.0277939997613,-0.0274090003222,-0.0518810003996,0.218030005693,-0.508858978748,0.234512999654,0.253737002611,0.101815000176,-0.250970005989,0.339379996061,0.177101999521,-0.38618299365,0.455473989248,0.148837998509,0.394553989172,0.0389619991183,0.00196700007655,0.0146249998361,0.0678590014577,-0.515938997269,0.204711005092,-0.16001200676,0.293531000614,-0.0666590034962,-0.179077997804,-0.358621001244,0.127459004521,-0.0741840004921,-0.035092998296,0.0272940006107,0.29848998785,0.0728000029922,-0.217556998134,-0.229124993086,-0.111164003611,-0.306450009346,-0.428716003895,-0.104675002396,-0.120304003358,0.0983659997582,-0.205013006926,0.284675002098,0.0741219967604,-0.000356000004103,0.0479350015521,-0.0838809981942,0.0201219990849,0.283311992884,-0.208009004593,0.107698999345,-0.347930014133,0.302859008312,0.383760005236,0.163939997554,-0.294299989939,0.358420997858,0.182532995939,0.0448470003903,0.379723012447,0.199630007148,0.0329140014946,0.200214996934,-0.0293339993805,0.0465789996088,-0.0741470009089,-0.398021996021,-0.212669998407,-0.139503002167,-0.11913099885,-0.132817000151,-0.00920499954373,-0.318636000156,-0.0402389988303,0.312642991543,0.0219020005316,0.20381000638,-0.359127014875,-0.215525001287,-0.0340359993279,-0.0616410002112,-0.0849360004067,0.197760000825,0.328179001808,0.27778801322,-0.117178998888,-0.360702991486,0.146434992552,0.0297519993037,-0.243992999196,0.0582089982927,0.144225999713,-0.0952479988337,0.295668005943,-0.322818994522,0.0238409992307,-0.354111999273,0.0397120006382,0.115461997688,0.378019988537,-0.104633003473,0.302684992552,-0.0776749998331,-0.0691630020738,-0.258116006851,0.25146099925,0.291027992964,-0.469002991915,-0.00333900004625,-0.277370989323,0.250916004181,-0.0769789963961,-0.124885998666,0.0746650025249,0.00343500007875,0.204190999269,0.267219007015,-0.268954992294,-0.363220989704,0.0456990003586,0.0232510007918,0.11310300231,-0.329607993364,-0.140613004565,0.00971600040793,0.136317998171,0.187434002757,-0.261442989111,-0.276111990213,0.257241010666,0.139993995428,0.0270799994469,-0.110813997686,-0.293480992317,-0.107518002391,0.093976996839,-0.245634004474,-0.25064599514,-0.0264139994979,0.120283998549,0.0469699986279,-0.0285209994763,-0.0740989968181,-0.124780997634,-0.252887010574,-0.139954000711,-0.000346999993781,-0.0464220009744,0.31863000989,-0.0575309991837,-0.196154996753,-0.420051008463,0.0705420002341,-0.143397003412,0.000380000012228,-0.0933360010386,-0.238745003939,0.516063988209,0.293219000101,0.0298599991947,0.569128990173,-0.391499996185,-0.0679609999061,-0.0455269999802,0.198678001761,-0.123443000019,-0.40585899353,0.126725003123,-0.164360001683,-0.108162999153,-0.0358619987965,-0.526556015015,-0.202365994453,-0.171051993966,0.101126998663,-0.386947989464,0.0748210027814,-0.447802007198,-0.265004992485,-0.242782995105,0.255041986704,-0.236615002155,0.15898899734,0.138037994504,0.170561999083,0.139117002487,-0.309210002422,0.12339399755,-0.182438001037,-0.239456996322,0.0770580023527,-0.133672997355,-0.201156005263,-0.0319840013981,-0.324943006039,0.171198993921,0.0518970005214,-0.0288219992071,-0.150507003069,0.0691239982843,0.157536998391
座椅,-0.908167004585,1.74710702896,2.14265704155,-0.363364994526,1.07706797123,-1.09357202053,2.3818860054,-0.551753997803,1.27295005322,0.810877025127,0.0754840001464,0.832044005394,-0.253468006849,-0.206456005573,-0.0794359967113,-0.926787018776,1.0619020462,0.920457005501,0.855011999607,-2.20037889481,-1.60841405392,-0.0190719999373,-0.86853402853,-0.544640004635,0.784662008286,2.24224901199,-1.13477396965,2.37518191338,0.338526010513,0.775457978249,-0.0909600034356,-0.267783999443,0.322883993387,-0.941776990891,0.980454981327,1.13571798801,-0.646341979504,-1.18460905552,-0.848215997219,0.00803000014275,1.01033997536,-1.5187189579,-1.36276304722,-0.22015799582,-0.0341220013797,0.517578005791,-0.22836099565,-0.00168600003235,0.488916009665,-0.128434002399,0.760740995407,1.17361998558,-0.636839985847,-0.802451014519,-2.62539505959,0.329753994942,0.486707001925,-0.76317602396,-1.00354504585,0.928099989891,-1.63644301891,-0.441560000181,-1.12329494953,-1.71352696419,-0.625597000122,1.80404400826,-0.021044999361,-0.334517985582,0.344972997904,1.63856494427,-0.895784974098,1.58673298359,0.49957498908,1.08317494392,0.501268982887,0.580053985119,-0.512732982635,0.703099012375,-0.0416620001197,1.58000004292,1.83945798874,-2.31287908554,0.859884023666,1.58344900608,1.36073100567,-2.21897292137,-1.95439696312,-0.363745003939,1.02651405334,-0.00490400008857,-0.547164022923,0.714736998081,0.269201993942,2.45090198517,-0.840869009495,1.28095901012,-0.960684001446,0.258688986301,-0.945958018303,0.192407995462,2.29304003716,-0.657334029675,0.462386995554,1.18837094307,-2.39318108559,-1.68947005272,1.99546897411,-0.853178977966,0.238269001245,1.17337405682,-0.171458005905,-2.36660408974,-0.495757013559,0.370734006166,0.661674976349,0.14875100553,0.184249997139,-2.342897892,0.0478169992566,2.31753802299,0.945396006107,-1.49180197716,-0.410133004189,0.5227419734,2.81606793404,-0.313376009464,-1.67770504951,-0.463544994593,0.712504029274,-1.27130496502,0.690469026566,-1.41963505745,-0.61384499073,0.891251027584,-2.12055206299,-1.67307794094,-0.23458699882,0.13567699492,-0.311863005161,-0.194928005338,0.946359992027,-1.17627096176,1.50235497952,1.45155596733,-0.105483002961,-2.00963497162,-0.939499020576,-0.142409995198,0.744844019413,-0.389185994864,0.665886998177,-1.20336401463,0.239133000374,-0.686711013317,1.18637001514,-0.895322978497,0.543206989765,-0.782905995846,-0.658077001572,-0.582610011101,-0.804094970226,-2.242882967,0.346471011639,-1.33800697327,0.580314993858,0.00150200002827,-0.0868899971247,-0.378434985876,-1.99193203449,0.276663988829,-1.35388505459,-1.38967597485,0.321354985237,-0.957184016705,2.78770399094,3.11714100838,1.08612298965,1.29043400288,1.27588701248,-0.104024998844,0.108897998929,-0.00680800015107,-1.2867269516,-0.229184001684,-1.59268498421,0.731108009815,-0.704010009766,1.16657400131,0.823522984982,0.370799005032,2.10971999168,-0.489210009575,-1.01393902302,-0.354889988899,-0.901825010777,0.277408987284,1.67294001579,-0.13163100183,-0.0511809997261,-1.26419997215,-1.22309303284,-1.80493795872,2.18766903877,-1.40463399887,0.960412979126,0.503247976303,-0.662531018257,0.327042996883,-0.324937999249,0.252709001303,1.21964395046,0.396299988031,-0.00399099988863,-0.787149012089,0.921661973,1.62940502167,-0.0172380004078,-0.197123005986,1.83354699612,-1.67756795883,1.37053394318,-0.0738150030375,0.825118005276,0.236801996827,0.881781995296,0.798255980015,1.08548605442,-0.593267977238,0.289034992456,-0.278447002172,-1.54246604443,0.0986389964819,0.690715014935,-0.840619981289,0.696645021439,-0.490316003561,-1.00430095196,-0.100787997246,0.455770999193,-0.835870027542,0.0670650005341,-0.103973001242,0.259719014168,1.46602201462,0.0354080013931,0.124958999455,0.399044007063,-0.820636987686,0.871978998184,0.433041989803,-1.5765119791,0.675015985966,1.85934698582,0.374635010958,0.93275898695,-0.434156000614,-0.04118200019,0.811743974686,2.43881297112,0.264541000128,0.601298987865,-0.468198001385,-0.725816011429,0.0397379994392,-0.188499003649,-3.18699097633,-0.225905001163,-0.533577978611,-2.0858631134,-0.650774002075,0.0792220011353,-2.35383605957,-0.130611002445,-0.385964006186,0.294909000397,0.869584023952,0.271580010653,0.241868004203,1.01682794094,0.445603996515,0.515654027462,1.61621201038,0.270471990108,-1.3931030035,-0.470331996679,-0.862002015114,0.736517012119,0.23120200634,0.847525000572,0.491793006659,-0.100634999573,1.98033797741,-0.226594999433,-0.423025995493,0.344457000494,-0.680517971516,0.144682005048,0.297392010689,0.888350009918,1.60576796532,0.465815007687,-0.807485997677,0.557340025902,-1.48318600655,1.59620201588,1.78253495693,-1.1207369566,-1.67008602619,-0.259514003992,1.03345799446,-2.20243191719,-0.79863101244,-0.0436189994216,-0.480078995228,-0.800527989864,1.58400201797,0.722979009151,0.110012002289,0.16632899642,0.906940996647,0.360462009907,0.881371974945,0.526584029198,-0.676244020462,0.485190987587,-0.353300005198,0.474312007427,-0.135279998183,0.202978000045,-0.164070993662,1.88899505138,0.373528003693,-1.12686300278,0.649084985256,-0.0494190007448,1.02516496181,-0.292508006096,1.78479301929,1.53290402889,0.377425998449,-1.94920504093,-0.262843996286,0.34012401104,0.308228999376,0.0492310002446,-0.0824100002646,-0.690652012825,0.614359974861,0.741369009018,-0.28848901391,0.117838002741,1.14832305908,-0.534869015217,0.247745007277,1.49612402916,0.680581986904,-0.471870988607,0.478024989367,0.545490980148,2.22150993347,-0.495029002428,-0.721180975437,-0.305029988289,0.0633289963007,-0.523223996162,-0.791029989719,1.38744997978,-2.1463971138,-0.752007007599,-0.110895998776,-0.300500005484,0.45047301054,1.57479798794,-0.431971013546,-1.49414896965,-0.695873022079,-1.04082500935,0.540154993534,-1.57091403008,2.22236394882,-0.812745988369,-0.952105998993,3.11507606506,1.18576598167,1.26236104965,-0.198004007339,-0.386388987303,-1.74365401268,-0.0228029992431,1.53211700916,-0.66194498539,1.0589350462,0.700616002083,-1.16167294979,1.30640900135,-0.328316003084,-1.8365470171,2.33638191223,2.09683299065,0.748265028
车辆,-1.22170698643,0.40252700448,1.76000094414,1.31590998173,0.0624129995704,1.68796205521,0.820315003395,-0.181292995811,1.5454980135,0.450466990471,-0.679275989532,0.732796013355,-1.40325200558,1.22540700436,0.73015999794,0.353431999683,-1.78323698044,-2.10352706909,2.39379405975,-1.43667495251,0.127608001232,-1.24063098431,-0.963186979294,-1.07081902027,0.760008990765,0.412072986364,-2.16988396645,0.533544003963,-1.65400397778,1.97462201118,-0.19486400485,-1.5894010067,-1.94733500481,0.667979001999,-0.866056978703,1.37707698345,2.03237605095,-0.910183012486,-2.30883002281,0.88733702898,-0.705379009247,-0.0619419999421,-1.48568201065,1.08094000816,0.210638001561,1.08513605595,-1.13516795635,0.578274011612,-0.934804022312,0.875571012497,0.625759005547,-0.723560988903,-0.609717011452,-0.534116029739,-1.03908002377,2.27695894241,-1.82092297077,-1.33651804924,-1.41119205952,1.25262403488,0.18323199451,-0.804211974144,-0.904688000679,-2.00904202461,-0.219009995461,2.04133796692,-2.25539708138,-1.68596994877,0.937336981297,-1.8654910326,-1.05938696861,-0.129574000835,0.332715988159,0.920747995377,0.267450004816,0.868830025196,1.79321599007,0.340112000704,-1.30863702297,0.768000006676,0.347568005323,-3.33919692039,0.953315973282,0.414196014404,-0.817698001862,0.185711994767,-1.79904699326,-1.20338094234,2.11189389229,-1.23968303204,0.765895009041,0.748435020447,-1.42326295376,1.02551698685,-0.617631018162,0.298604011536,-0.900942981243,0.694090008736,-0.559230983257,2.2516849041,0.755114972591,1.19624400139,-0.607734978199,0.141113996506,-1.67858099937,-1.5229049921,1.54865396023,-2.27912902832,0.581054985523,0.247817993164,0.173653006554,-0.737205982208,-2.17022299767,0.257367014885,1.64330005646,1.95713305473,0.23164999485,-1.79600703716,-1.31465899944,0.534416973591,-0.0417939983308,-0.66981202364,1.14639496803,-1.34561705589,0.547100007534,0.111773997545,-1.10513901711,-1.23125600815,0.230572998524,-1.30696499348,-0.326193004847,-2.88387203217,-1.57615995407,0.962503015995,-0.468863010406,-2.0241189003,-1.20255696774,0.931501984596,-0.397693008184,0.380917012691,3.73651599884,0.332127004862,-0.698666989803,0.140584006906,0.782248020172,-0.90671902895,-1.30896794796,-0.411545991898,-0.869893014431,1.07103705406,2.08907008171,-0.114716999233,-2.30660104752,-0.132293999195,0.271735012531,-0.745963990688,0.967697024345,0.404561012983,-0.451646000147,-0.515514016151,2.42663407326,0.0267750006169,-0.0842309966683,-1.55235505104,-2.57010889053,0.584291994572,-1.63589596748,-0.279125988483,0.514382004738,-0.613967001438,0.851957023144,-0.986003994942,1.14904594421,1.76085400581,1.13186502457,1.2998919487,-0.0340769998729,-0.0511169992387,-0.237471997738,0.424225986004,1.38192999363,1.21960902214,-0.247008994222,-0.168015003204,1.4341340065,1.75089395046,4.80000016978e-05,0.308310002089,-0.104341998696,-1.59481203556,-1.85867905617,1.05123996735,-0.837221026421,0.287663012743,-0.972540974617,1.64143395424,1.78187298775,-1.27244198322,1.59712696075,-0.122433997691,1.0709400177,-0.341035991907,-0.532489001751,-0.138465002179,1.07609605789,0.542952001095,-0.14930100739,0.436098992825,0.283307999372,-0.126953005791,-0.493624001741,0.472128987312,-0.870323002338,-0.567927002907,-0.266416013241,1.17770004272,-3.41066598892,-1.12644100189,0.141901001334,-1.51661801338,0.976612985134,-0.920985996723,1.45275604725,-0.376540988684,-0.260609000921,3.07641792297,0.154888004065,0.602625012398,3.96161603928,-1.22353804111,-0.986706972122,0.0994189977646,-0.173244997859,-1.77206802368,2.35775303841,-0.6229839921,1.18065500259,-1.75748300552,0.273245990276,-1.77536594868,-1.34163498878,1.03495895863,1.23550796509,0.722133994102,0.31263500452,-0.358309000731,0.628071010113,-1.63934695721,-0.107943996787,1.73462295532,0.727876007557,0.890208005905,-0.18521399796,0.488819003105,0.839460015297,0.469716995955,-1.09599304199,-0.0629409998655,2.40366601944,1.09276199341,0.511874973774,2.15436005592,0.629339993,0.201415002346,-1.31763505936,-1.68028402328,-0.642328977585,0.351121991873,-1.5652179718,-0.34520599246,-1.12769496441,-0.928754985332,-2.35054802895,1.38847994804,-0.851601004601,0.674070000648,0.115414001048,1.28990805149,-0.556096017361,1.45849001408,0.878700017929,0.977729976177,0.856706976891,-1.10388600826,-2.31577801704,-0.33768299222,-0.468035012484,1.84696900845,-0.322968989611,-0.0321759991348,0.667379021645,1.17729794979,0.0786510035396,-1.51488101482,1.19525003433,-1.29082596302,2.22902798653,-1.44311201572,0.20364099741,-0.709201991558,-0.908814013004,0.304980009794,-2.38825106621,-0.985040009022,0.53606402874,1.51065003872,-2.22043204308,-1.50455498695,-1.10472500324,-1.10570394993,-0.588522970676,-0.838885009289,1.33052003384,-0.318100005388,-1.33144104481,-1.0565199852,-0.247924998403,-0.974896013737,0.455799013376,-0.561196029186,-0.118156000972,2.28373289108,0.0954829975963,0.851082026958,-0.381415009499,0.432390987873,-0.405862987041,0.271759003401,0.388543009758,-0.574907004833,1.89564597607,0.648118019104,0.203584000468,-0.282404005527,0.517152011395,-0.587947010994,1.04943501949,0.285291999578,0.0540009997785,-1.60588502884,-1.57982897758,-1.41680800915,1.21631705761,-0.862047016621,1.19202303886,-2.46437096596,0.0241390001029,-0.00243999995291,0.532644987106,-1.70204997063,0.592055976391,-1.52358698845,-0.409606009722,-1.02798700333,-1.23600697517,0.0754560008645,0.988305985928,0.0544270016253,1.84341096878,1.28992903233,-0.0323599986732,-1.47302496433,-1.59719800949,-0.00847299955785,0.131009995937,-0.625483989716,0.197317004204,-1.60739302635,-2.33507490158,-0.642289996147,0.0218240004033,-0.135453000665,0.10261400044,-2.90187311172,0.45448499918,1.05259001255,-2.60490393639,-1.08782100677,-2.60753488541,2.39500188828,-2.38422489166,1.70553600788,2.13071107864,-2.02652192116,0.968012988567,-1.13405299187,-1.49502801895,0.0994869992137,-1.30994403362,3.17224001884,-0.459266990423,0.0939700007439,0.284188985825,-1.04577696323,1.34702694416,-0.874800026417,-1.07393801212,-0.772629022598,0.809557974339,-1.46578204632
组件,-1.21789801121,1.5603749752,0.676846027374,0.24658100307,1.43148303032,0.857107996941,1.44469094276,-1.61855101585,1.00634801388,0.73695898056,-0.490779012442,0.403479993343,-1.07115900517,-0.0773259997368,-0.892790973186,-0.623531997204,1.16940903664,-1.81331694126,-0.311273992062,-0.820033013821,-1.34707295895,0.307846993208,0.201287001371,1.62056195736,-0.308768004179,-0.00293900002725,-0.943719983101,1.87460696697,-1.22651600838,0.455783993006,-0.623008012772,0.241012006998,-0.984372019768,-1.81963205338,0.684839010239,0.711113989353,-0.337918013334,-0.945155978203,0.724307000637,-0.20331299305,0.834990978241,-1.84124994278,-1.06735694408,-0.0920630022883,0.047026000917,0.307265013456,-0.701654016972,-0.240239992738,-0.129814997315,-0.401508003473,2.2638669014,-1.2666349411,-0.55389302969,1.01827597618,-0.914912998676,1.05993497372,1.3464679718,0.0317259989679,-1.93993103504,1.00404798985,-0.767004013062,0.0471840016544,-1.60226500034,-0.709227979183,-0.56691801548,-0.556770980358,0.5304890275,0.299113988876,0.227274999022,-0.142173007131,-2.5213739872,1.13355195522,1.12591505051,1.65605294704,0.690639019012,1.27924501896,1.91834902763,-1.30702698231,-0.44462698698,-0.0675280019641,-0.574030995369,-0.669950008392,0.750542998314,0.268000006676,0.0457050018013,0.0883150026202,-0.57164400816,0.669534027576,0.977375984192,-0.970040977001,0.525533020496,0.531329989433,0.431701987982,0.00103499996476,0.191801995039,-0.582309007645,0.161320000887,0.667765974998,-0.814186990261,-0.448287010193,0.765851020813,0.38183298707,-0.280528992414,1.37678897381,-1.43011200428,-0.862426996231,1.23713302612,0.364942997694,0.505939006805,-0.647777974606,1.08555603027,-1.14446401596,-0.423673003912,0.0953880026937,-0.878731012344,1.75821495056,1.02868199348,-0.736814975739,1.10362803936,0.752412974834,-0.4261290133,-1.94045603275,0.221033006907,-0.936133980751,-0.481613010168,1.0018889904,-0.914009988308,-0.30835801363,-1.22239995003,-0.0371830016375,-0.562434971333,-1.31345200539,-0.90092498064,0.873763978481,-0.748170018196,-1.61311399937,-1.49804699421,0.340573012829,0.693032026291,0.134968996048,0.88746201992,-0.596053004265,0.741528987885,1.03601300716,-0.938517987728,-0.718156993389,0.727162003517,-0.364010989666,0.346201986074,-1.55452394485,-0.0195499993861,0.607578992844,-0.235483005643,-0.386577993631,0.401531010866,0.0255720000714,-1.12112605572,-0.497776001692,-0.848984003067,1.08653998375,-0.750908970833,-1.80464398861,-0.197125002742,-0.761448025703,0.00371999992058,0.764549970627,-0.981734991074,-0.250292003155,-0.67926299572,-0.770455002785,-0.404765993357,-1.32233405113,-0.236698001623,0.577588021755,1.86486005783,0.954123973846,1.23946201801,0.655225992203,-0.300574988127,1.29781997204,-0.496351003647,-1.39214205742,-1.25501596928,-0.935023009777,-1.02527701855,0.88101297617,-0.547259986401,0.983219981194,-0.0575070008636,-1.15513694286,0.073830999434,-0.344339996576,-0.058235000819,0.850033998489,0.69449698925,0.238086998463,0.7375010252,-1.30597698689,0.876967012882,0.58279299736,0.430635005236,-0.840474009514,-0.312772989273,-1.92889201641,0.590864002705,0.838824987411,-0.0830589979887,0.756295979023,-0.0540830008686,0.957444012165,-0.604149997234,-0.781441986561,0.735858976841,-1.02010905743,1.34733200073,0.0723769962788,-1.00802397728,0.428544014692,0.448951005936,-1.40907394886,-0.269232988358,0.40849301219,0.934459984303,-0.36892798543,0.308656990528,-1.43009698391,0.44846200943,-0.891717016697,-0.655012011528,-0.167144998908,0.264117002487,0.39550998807,0.476803988218,-1.02343797684,1.27753198147,-0.704019010067,1.23656904697,-0.756244003773,0.602190971375,0.431407988071,-0.0800530016422,0.877174973488,0.176547005773,0.78041601181,-0.162370994687,0.341789007187,0.651372015476,0.603552997112,1.03116798401,-0.422374993563,-0.362663000822,1.08858299255,0.812591016293,-0.385942995548,-0.110045000911,-0.662810027599,0.197398006916,0.0690879970789,0.910106003284,0.352227002382,0.786967992783,0.163001999259,0.351918011904,0.406628012657,-0.690083026886,-1.71130299568,1.21070301533,-0.67848098278,0.265058994293,0.710734009743,1.37770795822,-0.870639026165,-0.601114988327,0.147431999445,-1.44674301147,-0.86261099577,-1.29039204121,0.629126012325,0.606261014938,-0.284166008234,0.0842560008168,0.971253991127,0.600314021111,0.813193023205,-0.474424004555,0.921371996403,-0.388226002455,-0.0467340014875,-0.375335991383,0.411579996347,-0.425514012575,0.757417023182,-1.96702504158,-0.718051016331,0.254649013281,-1.26598000526,0.427311003208,-0.500499010086,-0.634769976139,-0.102775000036,0.303342998028,-0.0930069983006,-0.3222219944,0.646466970444,0.469844996929,0.543511986732,-1.20273399353,-1.25785803795,-0.484521001577,1.72533404827,-1.02751302719,-1.90365695953,0.0396739989519,-1.28840494156,0.193082004786,0.224169000983,-1.56729400158,-0.599682986736,0.566576004028,0.686223983765,0.014972999692,0.940227985382,-1.00387895107,-0.231084004045,0.555352985859,0.325275987387,0.378208011389,0.172326996922,0.250573992729,0.169418007135,1.29249095917,-0.48940500617,-0.983428001404,-0.441554009914,1.73435103893,-0.829535007477,-0.250153005123,0.208984002471,0.812592983246,-0.885837972164,-0.744558990002,-0.734646975994,-0.158296003938,-0.446395009756,-0.469467997551,0.238432005048,-0.657868027687,1.04774999619,0.600808024406,-0.593659996986,-0.751850008965,0.731467008591,0.103028997779,-0.629293978214,-0.0440060012043,-0.691468000412,1.91633105278,1.37533199787,-0.701086997986,1.9400550127,-0.560501992702,0.473518997431,-0.285091012716,-0.0506259985268,-0.561949014664,-1.06118500233,0.0540870018303,-1.34016096592,-0.687399029732,-0.916478991508,-1.69438803196,0.240952000022,-0.479867011309,1.09125900269,-1.12742304802,-1.09119594097,-1.96966803074,-0.956250011921,-1.49931502342,0.953037977219,-0.16323299706,0.724852979183,0.39379298687,1.29755795002,-0.612791001797,-1.81923103333,0.397540003061,-1.54646003246,-1.68563294411,-0.0521980002522,-0.614935994148,0.357244998217,-0.525861978531,-1.787093997,0.337648004293,0.0471399985254,-0.473396003246,0.389402985573,-0.287303000689,1.93893694878
驱动,-0.63031899929,1.60043597221,0.257467001677,-0.276692986488,0.676384985447,0.450872004032,2.54987502098,-1.78477394581,0.417353004217,0.267619997263,-2.2236289978,-2.45782899857,-1.42597305775,-0.545432984829,-0.39014801383,-0.466114014387,0.343535006046,-0.545282006264,-0.419413000345,-0.847163975239,-1.12192499638,-0.423799008131,-0.46515199542,-0.542084991932,-1.4797949791,0.138594001532,-1.30335605145,0.546651005745,-0.233088999987,0.458357989788,-1.52007496357,0.270141988993,0.28760099411,-0.123662002385,0.0496819987893,0.118721999228,0.0520589984953,-0.447064012289,0.127085998654,1.23722696304,2.29692792892,-1.03478002548,-2.32956790924,-1.40804600716,0.309630006552,-0.0436739996076,0.388422012329,-0.426894009113,0.290839999914,-0.345829993486,1.16140794754,-0.94145399332,-1.07525801659,0.978259980679,-1.70062398911,0.0687989965081,0.658894002438,-0.382564991713,-0.79382199049,-0.300770998001,-0.251536011696,-0.0898490026593,-0.528746008873,-1.35929501057,-1.02023005486,-0.395635008812,-0.825706005096,-1.172549963,0.704275012016,-0.203317001462,-2.27789497375,-0.97731000185,1.70369696617,1.97000396252,-0.497862994671,0.94476801157,1.0786999464,-1.11159300804,0.374565005302,0.468048006296,-0.784250974655,0.308589011431,-0.197401002049,0.790278017521,1.08928501606,0.502359986305,0.33131301403,0.974086999893,-0.567773997784,1.10711705685,1.42025399208,0.0978019982576,0.545388996601,0.431825995445,0.126886993647,0.129159003496,-0.188445001841,1.09646499157,-1.14036202431,-0.248411998153,-0.0218579992652,0.0772330015898,0.467040002346,-1.23553597927,-0.229488998652,-1.16390395164,-1.02185201645,-0.217112004757,0.602669000626,-0.833267986774,0.0809340029955,-1.84159803391,-0.461982995272,-0.234364002943,-0.149334996939,0.26156899333,1.45714998245,0.733237028122,-0.196234002709,1.29633903503,-1.72238600254,-0.163196995854,1.12914705276,-1.53964304924,0.816959023476,1.0519349575,-0.912631988525,0.362810999155,-0.0714019984007,1.99056494236,-0.86233997345,-0.132692992687,-1.79698705673,1.53933405876,0.182289004326,0.234066992998,-0.845695018768,-0.372736006975,0.229510992765,-1.73522698879,0.0525869987905,0.396640002728,-0.4124520123,-0.71377402544,-0.006018999964,-0.0538350008428,-0.678318977356,-0.217340007424,-0.153739005327,-2.30560588837,1.74454796314,-0.512961983681,-0.315407007933,-0.62032097578,1.58948504925,-0.202842995524,1.21046698093,-1.11364996433,-0.566949009895,0.907135009766,-0.523304998875,0.0637120008469,-1.07085096836,0.736258983612,0.374240010977,0.0351600013673,0.665409982204,-1.31252098083,-0.83188700676,0.188848003745,1.01672494411,-1.74787604809,0.788893997669,0.505976974964,0.567115008831,0.265462011099,-0.780596017838,1.205747962,-0.436197012663,1.75028598309,-1.05438899994,0.268799990416,-1.21431696415,-0.134297996759,-1.90852403641,0.618667006493,0.472476005554,0.0150499995798,0.0186170004308,0.0386569984257,-0.142274007201,-0.590009987354,0.721315026283,0.837984025478,-1.29919803143,-1.41047096252,0.962908983231,0.144195005298,0.952844023705,0.67341697216,1.01736795902,-0.44667199254,0.0448260009289,0.449847012758,-0.973448991776,0.59419298172,-0.57397800684,0.787052989006,1.57619798183,3.08830690384,-0.412943989038,-1.15614998341,1.38253605366,-2.18403506279,1.28232896328,-0.0740149989724,-1.06205797195,0.0045130001381,-0.865984022617,-0.340719014406,0.115076996386,-0.479346990585,0.750056028366,0.810639023781,-0.0287280008197,-0.973514974117,0.442310988903,-0.709892988205,0.916297018528,-0.474079012871,0.359270989895,0.386267006397,1.39500403404,-1.77139794827,0.331046998501,-0.607129991055,-0.974507987499,-0.450210005045,2.28981494904,0.15140299499,-0.138188004494,1.42073202133,0.129600003362,0.369581997395,0.273961991072,-0.0665189996362,0.228431001306,-0.726180016994,0.53682500124,1.31071698666,-1.15202200413,0.764340996742,1.45083403587,0.58459597826,-1.33760797977,1.89462900162,0.262517005205,-1.32675004005,0.557228028774,1.34392797947,0.715857982635,0.89488697052,-0.656960010529,0.0994340032339,-0.260264009237,-1.40157401562,0.25483199954,-0.0733250007033,-1.0998339653,-0.142802000046,-0.490956008434,-1.88346004486,0.0187040008605,0.708670020103,-0.651553988457,-0.266851991415,-1.33492994308,-0.0149830002338,0.539632022381,1.17904102802,-1.6444439888,1.29846894741,0.403185993433,-0.86481398344,-3.22985100746,-0.562976002693,-0.356487005949,0.469615995884,0.0156459994614,-0.0704070031643,0.584666013718,-0.169587001204,-0.417616993189,-0.773764014244,0.302078008652,-0.802487015724,0.421864002943,-0.199318006635,-0.426183998585,-0.949826002121,-0.892741024494,0.853790998459,0.956595003605,-0.468183010817,0.649982988834,0.624472022057,-0.765631973743,0.0308989994228,-0.250423014164,0.763963997364,-0.423280000687,-0.791858017445,-0.200525000691,-1.17865097523,1.5137629509,0.934051990509,-1.29914295673,-0.918600022793,0.457022994757,0.0416480004787,0.912423014641,-0.43172198534,-1.50019097328,-0.488611012697,0.326299995184,0.300945997238,0.736621022224,-0.537890017033,0.372608006001,-0.512578010559,1.82071304321,-0.581743001938,-1.21791601181,-1.27458894253,2.32059907913,0.189541995525,-0.155318006873,0.491392999887,-0.39266499877,-0.549305975437,-0.653080999851,-2.37147402763,0.0985739976168,0.0425439998507,-0.293642014265,-1.85568904877,0.250916004181,-1.03753101826,0.751824021339,-0.916818976402,-0.310813009739,-0.072612002492,0.59121799469,1.49310100079,-0.80835300684,0.494150012732,1.03661799431,1.68475198746,-0.559095025063,1.66283500195,-0.72388201952,-1.06516301632,0.210692003369,1.05967605114,-0.0937149971724,-1.78584802151,-0.920296013355,0.537746012211,-1.08184301853,-0.268164992332,-0.206190004945,0.0338240005076,0.428409010172,0.0176010001451,-0.884275972843,0.067408002913,-2.76315689087,-0.981122016907,-1.69842898846,-0.72724801302,0.597373008728,-0.136594995856,1.46946394444,0.126914992929,-0.655687987804,-1.47283399105,0.187865003943,-0.172791004181,-1.77139294147,0.875232994556,-0.160468995571,0.325745999813,-0.930347979069,-1.23469901085,0.641569018364,-1.07452201843,0.432157993317,-0.692883014679,-0.111951999366,0.799154996872
