word,0,1,2,3,4,5,6,7,8,9,10,11,12,13,14,15,16,17,18,19,20,21,22,23,24,25,26,27,28,29,30,31,32,33,34,35,36,37,38,39,40,41,42,43,44,45,46,47,48,49,50,51,52,53,54,55,56,57,58,59,60,61,62,63,64,65,66,67,68,69,70,71,72,73,74,75,76,77,78,79,80,81,82,83,84,85,86,87,88,89,90,91,92,93,94,95,96,97,98,99,100,101,102,103,104,105,106,107,108,109,110,111,112,113,114,115,116,117,118,119,120,121,122,123,124,125,126,127,128,129,130,131,132,133,134,135,136,137,138,139,140,141,142,143,144,145,146,147,148,149,150,151,152,153,154,155,156,157,158,159,160,161,162,163,164,165,166,167,168,169,170,171,172,173,174,175,176,177,178,179,180,181,182,183,184,185,186,187,188,189,190,191,192,193,194,195,196,197,198,199,200,201,202,203,204,205,206,207,208,209,210,211,212,213,214,215,216,217,218,219,220,221,222,223,224,225,226,227,228,229,230,231,232,233,234,235,236,237,238,239,240,241,242,243,244,245,246,247,248,249,250,251,252,253,254,255,256,257,258,259,260,261,262,263,264,265,266,267,268,269,270,271,272,273,274,275,276,277,278,279,280,281,282,283,284,285,286,287,288,289,290,291,292,293,294,295,296,297,298,299,300,301,302,303,304,305,306,307,308,309,310,311,312,313,314,315,316,317,318,319,320,321,322,323,324,325,326,327,328,329,330,331,332,333,334,335,336,337,338,339,340,341,342,343,344,345,346,347,348,349,350,351,352,353,354,355,356,357,358,359,360,361,362,363,364,365,366,367,368,369,370,371,372,373,374,375,376,377,378,379,380,381,382,383,384,385,386,387,388,389,390,391,392,393,394,395,396,397,398,399
变型,-0.593245983124,0.701443970203,1.26953196526,0.196593001485,0.680383980274,-0.253980994225,-0.193206995726,-0.399062991142,0.394313007593,0.24208599329,-0.0497849993408,0.845479011536,-0.798534989357,-0.502358019352,-0.252936989069,-0.545399010181,-0.0637340024114,-0.527893006802,0.263882994652,-0.519330024719,-0.604682981968,0.224671006203,-0.587423026562,0.263794004917,0.254631012678,-0.0634550005198,0.256507009268,0.401190012693,-0.595318973064,0.684504985809,0.987812995911,-0.840285003185,-0.368108987808,-0.87104600668,0.391694992781,0.549914002419,-0.0307720005512,0.378791987896,-0.115491002798,-0.141865998507,-0.1485529989,-0.565559029579,-1.35592997074,-0.371524989605,0.931870996952,0.289936006069,-0.0383000001311,-0.919898986816,0.375898003578,-0.342081993818,1.28046894073,0.298691987991,-0.418278008699,0.654102027416,-0.0672909989953,-0.740643978119,0.647930979729,-0.366365998983,0.104557998478,-1.3124409914,-0.271299988031,0.340272009373,0.0581989996135,-0.26783901453,-0.423139989376,-0.39014300704,-0.580735981464,-0.873879015446,0.0703079998493,-0.648549973965,-0.542037010193,0.407415986061,0.620413005352,0.204883992672,-0.201655000448,1.40095496178,0.460211992264,-0.617748022079,-0.306212007999,0.103610999882,-0.45243498683,-0.686194002628,0.241904005408,0.154961004853,-0.466509014368,0.726287007332,-0.680765986443,0.133496001363,-0.158566996455,0.423256009817,0.724134027958,-0.338090986013,-0.313964992762,0.103469997644,-0.874037027359,-0.438665986061,-0.739489018917,0.638436019421,0.236373007298,-0.12742100656,0.428586006165,0.6065300107,-0.147595003247,0.267729014158,-0.516484975815,-0.40011999011,0.274356991053,0.33168399334,1.12489700317,-0.516467988491,-0.182813003659,-0.224793002009,0.0273380000144,0.609163999557,0.132726997137,0.383873999119,0.224577993155,-0.679427027702,-0.589965999126,0.447957009077,-0.235611006618,-0.122596003115,0.738665997982,-0.710327982903,0.011029000394,0.426676988602,-1.01043796539,-0.00255899992771,0.168569996953,0.185675993562,0.0314630009234,-0.0994910001755,0.153703004122,0.0188619997352,-0.324400991201,-0.442088007927,-0.57674497366,-0.184378996491,0.376392990351,0.184656992555,0.108216002584,0.0125110000372,-0.610144972801,0.858322024345,-0.0302879996598,-0.868948996067,-0.473394006491,0.107173003256,-0.121728003025,-0.245728999376,0.262564003468,-0.236911997199,0.0207139998674,0.263920992613,0.203060001135,-0.645380973816,-0.576038002968,0.0326879993081,-0.0730319991708,0.620667994022,-0.154159992933,-0.0286439992487,0.531006991863,0.262250989676,0.319424986839,-0.436221003532,-0.0855330005288,-0.0567630007863,-0.288305997849,0.0192830003798,-0.515295028687,0.410046011209,0.480300009251,0.305007994175,-0.44058200717,-0.454488992691,0.0495159998536,0.252285987139,0.0999329984188,0.508889973164,0.310353010893,-0.552031993866,-0.385044008493,0.166311994195,-0.577005982399,0.423343986273,0.792725026608,0.0352969989181,0.561896979809,1.2642660141,-0.373746007681,0.0146840000525,-0.171654000878,-0.233949005604,-0.550080001354,-0.342337012291,0.470542997122,-0.599309027195,0.22638900578,-0.869126021862,0.628893017769,-0.229068994522,0.117403000593,-0.378614008427,-1.24980998039,0.243845000863,0.82282602787,-0.129733994603,-0.560558974743,-0.0704810023308,-0.293161988258,-1.13784301281,0.618978023529,-0.663809001446,0.217857003212,-0.799934983253,-0.482082992792,0.156856998801,-0.221764996648,-0.0203879997134,0.529753029346,-0.58546602726,-0.922194004059,0.443587988615,0.670247972012,-0.24531699717,-0.279756009579,-0.0480460003018,0.479357987642,-0.390924006701,0.600905001163,0.103560999036,0.177477002144,-0.901031017303,0.574904978275,0.200788006186,0.011145000346,-0.0298129990697,0.713989019394,-0.496028989553,0.664696991444,-0.198743999004,-0.30712801218,0.607348978519,0.193901002407,-0.572320997715,0.236600995064,0.177123993635,0.414930999279,0.209487006068,-0.577941000462,-0.159257993102,0.407828986645,0.0489500015974,-0.40669798851,-0.305110991001,0.249194994569,0.487861990929,0.425321012735,0.0558580011129,-0.554755985737,-0.22363999486,0.555022001266,-0.0544469989836,-0.629813015461,0.187731996179,0.544829010963,-0.829456984997,-1.60436701775,0.231714993715,-0.148213997483,-0.998548984528,-0.601695001125,1.00181102753,-1.81648695469,0.256374001503,-0.15195800364,0.0954469963908,-0.179947003722,1.06860005856,-0.68133097887,1.18519997597,0.492341011763,-0.670175015926,-1.74444496632,-0.364051014185,-1.2481739521,-0.793708980083,-0.399632006884,-0.341524988413,0.215968996286,0.83265799284,-1.27614998817,0.532118022442,0.348668009043,-0.346823006868,-0.419389009476,-0.363893985748,0.702718019485,-0.751147985458,-0.327562987804,0.0464599989355,-0.525663018227,-0.159761995077,-0.369957000017,0.368671000004,0.228375002742,-0.876694023609,-0.318634003401,0.493759989738,-0.800009012222,0.0823550000787,0.580655992031,0.0982799977064,-0.0241560004652,0.398579001427,-0.484831988811,-0.180849000812,0.507430016994,0.0298360008746,-0.35058799386,-0.807945013046,0.0965560004115,-0.563670992851,0.0894239991903,-1.09974002838,-0.742348015308,-0.464854001999,-1.01637601852,-0.285627990961,0.887713015079,-0.31316998601,-1.64275801182,-0.00189199997112,0.728706002235,-0.909025013447,0.42858800292,-0.087990000844,-0.295076012611,0.851706027985,-0.36271199584,0.418664991856,-0.846643984318,0.317364990711,0.649487018585,0.654263973236,0.085635997355,0.772791981697,0.133206993341,-0.387676000595,0.573679983616,0.920919001102,0.319132000208,0.752795994282,0.354041993618,0.256839007139,0.912671983242,0.184313997626,-0.545442998409,1.40283203125,-0.183725997806,0.0154539998621,-0.181115999818,0.218936994672,-0.349303990602,-0.107027001679,-1.22240698338,-1.10084700584,0.779430985451,0.314960986376,0.0685539990664,0.321722000837,0.223422005773,-0.144029006362,-0.209353998303,-0.745943009853,-0.486490994692,-0.0154830003157,-0.460424005985,0.729367017746,0.712337017059,-0.111238002777,0.482948988676,0.235357001424,0.70689201355,-0.269358992577,0.293626993895,-1.22634804249,-0.533887028694,0.468607008457,0.317162007093,0.38447201252,-0.408744990826,-0.344969004393,0.169726997614,-0.771375000477,0.250501990318,0.21848000586,0.460124999285,0.245364993811
货箱,0.255681991577,0.499585986137,0.191964000463,0.455439001322,0.741885006428,-0.140039995313,0.227207005024,-0.0962250009179,0.131060004234,0.0720440000296,0.130684003234,0.280225008726,-0.204675003886,0.487354010344,-0.0579369999468,-0.162315994501,-0.310923993587,-0.656720995903,-0.0411619991064,-0.0646779984236,0.040231000632,0.13472700119,-0.060841999948,0.210620999336,-0.39170101285,0.286518990993,0.09252499789,-0.216227993369,-0.00281299999915,-0.0714029967785,0.0607150010765,-0.29706799984,-0.190469995141,-0.225989997387,-0.0909299999475,0.139190003276,-0.0246709994972,0.528294980526,0.063155002892,-0.0339239984751,-0.118081003428,-0.0952090024948,-0.153573006392,-0.160197004676,0.117527998984,0.287514001131,-0.515560984612,-0.213551998138,0.545508027077,-0.0605779998004,0.350865006447,-0.0611490011215,-0.224582001567,0.354858011007,-0.0558770000935,0.360038995743,-0.39418900013,0.122299998999,-0.232815995812,0.160589993,-0.139051005244,-0.248670995235,-0.210286006331,0.0200720001012,-0.313946008682,0.0372789986432,-0.122207000852,-0.347052007914,-0.0217770002782,-0.187783002853,-0.386601001024,0.351720005274,0.0373010002077,0.0744739994407,-0.0648799985647,0.0775810033083,0.296222001314,0.0335690006614,-0.368185997009,0.342474013567,-0.176767006516,-0.0355900004506,-0.152263998985,-0.0686310008168,0.387039005756,0.208609998226,0.427365988493,0.271916002035,0.234445005655,-0.515085995197,0.316978991032,0.306681990623,0.0321639999747,0.227119997144,0.0480029992759,-0.12429100275,0.157945007086,-0.426171988249,0.289110988379,-0.135802999139,0.514271020889,0.0310660004616,-0.225341007113,0.0784080028534,0.316938012838,-0.243708997965,0.0602300018072,-0.249065995216,-0.249734997749,0.0247099995613,-0.124574996531,-0.194547995925,-0.154646992683,-0.221396997571,0.112357996404,0.0170840006322,-0.078876003623,0.0799700021744,-0.485428988934,-0.259564012289,0.168913006783,-0.377442002296,-0.0875660032034,-0.311286985874,-0.261335998774,0.170468002558,-0.567511975765,0.0284390002489,0.168659999967,0.160206004977,0.268860012293,-0.0134190004319,-0.271607995033,-0.205947995186,-0.348257005215,-0.0967760011554,-0.717778980732,-0.0361309982836,0.0226690005511,-0.316004008055,0.612258017063,-0.229147002101,0.231608003378,0.112903997302,0.15978500247,-0.312640011311,-0.42418000102,-0.00383999990299,0.291352003813,-0.126598998904,0.254168003798,0.20191000402,0.350158005953,0.0791219994426,0.326202005148,0.111447997391,-0.103955000639,-0.543694019318,0.334259003401,-0.175476998091,-0.266142010689,0.0932789966464,-0.27411198616,-0.171559005976,0.118304997683,-0.459008991718,-0.177442997694,0.147817000747,0.315968006849,-0.568193972111,-0.167869001627,0.494996994734,0.087228000164,0.610687971115,-0.0343960002065,0.332190990448,0.0879739969969,0.0292969997972,-0.0488430000842,-0.0841950029135,-0.241916999221,0.14078900218,-0.241588994861,0.17855900526,0.16366699338,-0.152507007122,-0.182877004147,0.105076000094,0.0538869984448,-0.195297002792,0.240483000875,-0.0991209968925,-0.712382018566,0.101562999189,0.0325589999557,0.250786989927,0.00751799996942,-0.145482003689,0.0428499989212,0.12831799686,-0.283803999424,0.236398994923,0.339583992958,0.0396320000291,-0.0684679970145,0.0254570003599,-0.223732993007,0.0367599986494,0.383345007896,-0.184461995959,0.124499000609,-0.167877003551,0.114177003503,-0.0706029981375,-0.0568730011582,0.52081400156,0.116876997054,-0.0862639993429,0.416635990143,-0.0669369995594,0.116207003593,-0.38660299778,0.564631998539,-0.0456079989672,0.100125998259,-0.0169539991766,0.324005007744,-0.117004998028,0.273571997881,-0.412901997566,0.105255998671,0.0583419986069,-0.162802994251,-0.144015997648,-0.117674998939,0.0713389962912,-0.250304996967,0.0478699989617,-0.237867996097,0.0989689975977,0.172132000327,0.153101995587,0.135775998235,-0.0843529999256,-0.0202910006046,-0.161289006472,0.141065001488,0.0161659996957,0.298882007599,-0.265830993652,0.32357698679,0.174134001136,0.0997710004449,0.0296909995377,0.151821002364,-0.41474801302,-0.142083004117,-0.359838008881,-0.328361988068,0.0189570002258,-0.0729399994016,-0.19119399786,0.153573006392,-0.307801991701,-0.28442800045,-0.505990982056,0.14041300118,-0.260286986828,-0.370130002499,-0.543429970741,0.278997004032,-0.531440973282,0.178503006697,0.208245992661,-0.253055989742,0.118105001748,-0.029218999669,0.0707190036774,0.24868799746,-0.215764001012,-0.0767470002174,-0.0816290006042,-0.0778239965439,0.17341299355,0.0141150001436,-0.00974300038069,0.0250320006162,-0.0727659985423,-0.255757004023,-0.103503003716,0.0351269990206,-0.0976879969239,-0.213982999325,0.0832230001688,-0.180408000946,-0.297109007835,-0.136868998408,0.240474000573,0.146935001016,-0.0382100008428,-0.104929000139,0.10715200007,-0.371048003435,0.0230139996856,0.127017006278,0.0254529993981,-0.545796990395,-0.157860994339,0.0103000001982,0.0765149965882,0.0187219996005,0.327311992645,0.0901089981198,-0.171844005585,-0.19063000381,-0.044619999826,-0.296088993549,-0.216561004519,0.127663999796,-0.20419600606,0.0257249996066,-0.338028013706,0.22298400104,0.12926800549,0.0506669990718,-0.063165999949,-0.0564690008759,-0.144113004208,-0.0254650004208,0.228554993868,0.401508003473,-0.0757300034165,-0.0801559984684,-0.387641012669,0.219979003072,-0.0999239981174,-0.16298699379,0.101438000798,-0.33596599102,-0.270924001932,-0.0237830001861,-0.120407000184,0.556572020054,0.0647810027003,-0.110045999289,-0.052216000855,-0.124527998269,0.248538002372,0.222314998507,0.0444159992039,-0.455000013113,-0.379878014326,0.366896986961,-0.485350012779,0.0366830006242,-0.236705005169,-0.295430004597,0.419607013464,0.0309660006315,0.374428004026,-0.864610016346,0.547901988029,0.00376400002278,0.299248993397,-0.391856014729,0.0438329987228,-0.246968001127,-0.0824529975653,-0.421182990074,-0.211606994271,-0.0738980025053,0.212503001094,-0.0339969992638,-0.153605997562,-0.0524660013616,-0.324146002531,-0.26582801342,0.162431001663,-0.408428996801,0.0857380032539,0.0286149997264,-0.186839997768,0.137084007263,-0.0108139999211,-0.118300996721,-0.02363399975,0.170493006706,-0.0264309998602,-0.150103002787,-0.0339110009372,0.113348998129,-0.251165002584,-0.160953000188,-0.0525720007718,0.208846002817,-0.55303299427,-0.043914001435,-0.14940699935,-0.0517750009894,-0.248762995005
相对,-0.838786005974,3.1468091011,1.52754402161,1.51629400253,-0.0679759979248,0.257679998875,1.82857596874,-1.22615396976,-0.558672010899,0.355654001236,-0.121164001524,-0.45007699728,-2.27408099174,-0.637194991112,0.226284995675,-0.804957985878,-0.0125460000709,0.456286013126,-0.0320350006223,-0.932144999504,-1.09830594063,0.30341398716,0.0861190035939,-0.312353998423,2.18180608749,0.255481004715,0.359288990498,0.402473002672,-0.363398998976,1.2370890379,1.15185701847,-0.148206993937,0.5383669734,-1.45937001705,0.607940971851,-0.588729023933,0.116567999125,-0.0837109982967,-0.392675995827,1.71696400642,-0.641308009624,-0.110523998737,-0.738102972507,0.499668002129,0.782248020172,-0.00693800020963,-0.357389986515,-1.35817301273,0.470245987177,1.04705500603,0.478309005499,0.220556005836,0.275220006704,0.781831979752,-1.00182294846,-0.245599001646,0.940539002419,0.460065990686,-1.69710505009,1.28315103054,0.0493459999561,-1.27613401413,1.64789199829,-1.00044000149,-1.19548094273,0.293356001377,-0.90417599678,0.626012027264,1.66117596626,0.885329008102,0.362029999495,-0.957058012486,0.54460299015,1.35278296471,-0.863192021847,-0.524326980114,2.76214504242,-0.777621984482,2.30042099953,0.155368998647,-1.25617194176,1.11338794231,-0.598514974117,0.319296002388,1.60514605045,0.952262997627,1.58225595951,-0.472481995821,0.70292699337,-1.38779401779,0.365660995245,-1.62038302422,-1.74235904217,2.02192902565,0.419739991426,-1.44496405125,-1.44950294495,1.96324801445,0.548094987869,0.402482002974,0.184167996049,2.15180492401,-0.378066003323,0.865580022335,0.181771993637,-0.704096972942,1.27521896362,1.32071304321,-0.524649977684,-0.398416996002,2.61984395981,-0.641586005688,1.06387996674,-0.810851991177,1.50569200516,1.19052696228,0.495644986629,0.106526002288,-0.152740001678,-0.707346022129,0.778452992439,-1.00879502296,-0.451700985432,0.0808740034699,0.133719995618,0.29759401083,-1.38562202454,-0.805326998234,2.41973400116,0.566931009293,0.531017005444,0.0486529991031,-0.840833008289,1.78812503815,2.22459101677,0.090204000473,0.814593970776,0.254617005587,0.727729022503,0.314583003521,1.3552069664,-0.983044981956,-1.16931402683,-0.728219985962,-0.567413985729,-0.83240801096,-0.207789003849,0.102297998965,-1.45660495758,0.250955998898,1.57442903519,-1.09097504616,-0.456939995289,0.499514013529,2.73106098175,0.0970399975777,0.355987995863,-0.322461009026,-0.240366995335,-1.29575097561,-0.610014975071,-1.96102297306,1.39925396442,-1.10501503944,-0.280840992928,0.736845016479,-1.80107200146,-0.966009020805,-1.83092403412,0.255192995071,-0.369571000338,-1.17763197422,1.37598705292,1.95934903622,-0.194279000163,0.653029978275,1.17602097988,0.823472976685,-0.0294509995729,1.35156404972,0.224868997931,1.26954400539,1.46894097328,0.18381999433,0.266000002623,0.398968011141,0.231121003628,0.615786015987,-0.894922018051,1.09879899025,0.421523988247,-0.475850999355,2.76507306099,1.37962698936,1.18552196026,-0.440005004406,-0.301710993052,0.267286986113,1.05997896194,-0.619475007057,-0.822798013687,-0.57522302866,-1.06246399879,-0.71123200655,-0.776809990406,2.28211402893,-0.391290992498,1.26949799061,-0.297899007797,1.00293803215,-0.107052996755,-1.2710609436,1.10496795177,-1.10775995255,1.54653501511,1.27624094486,0.0122250001878,1.27246797085,-2.20604705811,0.95617800951,-1.33806097507,1.05017101765,2.10920906067,0.9822229743,-0.855901002884,-0.794220983982,0.0149259995669,0.0119260000065,-1.98237705231,-1.38956594467,-1.197955966,-0.207049995661,-0.440750986338,-0.891664028168,1.98926198483,0.487670987844,-1.00083303452,-1.18645298481,-0.923493027687,2.19609689713,-0.0614879988134,-0.0488229990005,0.227630004287,0.851706027985,-0.564792990685,-1.04111194611,0.0107479998842,-1.32689499855,-1.48459601402,-0.0598439984024,-1.46226298809,0.944922983646,0.573525011539,0.619621992111,0.0171799995005,0.414144992828,0.274232000113,-0.23880200088,1.63670802116,0.661269009113,0.421169012785,0.0940990000963,-0.750455021858,1.34340703487,-0.952310979366,-1.4778380394,-2.42915606499,1.17585599422,0.337484002113,0.177285000682,1.33262002468,-0.245988994837,-0.578404009342,0.608961999416,1.22330594063,1.49228799343,-0.321137011051,-1.13397502899,-1.11932599545,-0.639986991882,-0.232975006104,-2.06499791145,0.403425991535,-0.0780860036612,1.16181004047,0.202813997865,-0.646112024784,-1.1123650074,1.37300097942,0.0171269997954,-1.36419904232,-1.00526094437,-0.938489019871,-1.94252800941,2.10179591179,0.38458698988,0.184636995196,1.28700900078,-0.470393002033,-2.32884097099,-2.17248106003,-0.434918999672,-1.23570394516,0.611895978451,-0.169844001532,0.251401007175,-0.691781997681,0.0503300018609,-1.60267198086,1.2791390419,-0.5542730093,-0.463919997215,0.864832997322,-0.356316000223,-0.934449970722,2.29117798805,-1.28787600994,0.694944024086,1.85092401505,1.20316696167,-0.511318981647,0.349157005548,-1.57153594494,0.136188000441,-0.741820991039,-0.578806996346,-1.61244797707,0.282949000597,-0.583442986012,0.320389002562,0.251628994942,-0.207268998027,-1.20521700382,-0.625585973263,1.91501498222,0.237540006638,0.091769002378,-0.453424006701,-0.423994988203,1.29478800297,0.852370023727,2.27156805992,1.70952701569,1.09564304352,0.812044024467,0.333027005196,0.676635980606,2.26332092285,0.423272997141,-1.86955595016,0.813117980957,-0.48787599802,0.831129014492,-0.435690999031,-0.278447985649,-0.327755987644,0.180879995227,-0.0538179986179,-1.56833600998,-0.604426026344,1.56063902378,-2.2027349472,0.125829994678,-1.37668299675,1.6695330143,-1.97594201565,-0.517916977406,-0.864866018295,0.35883000493,-1.69625997543,-0.699778974056,0.871659994125,-0.0932480022311,-0.328557997942,-1.08032596111,-2.02045607567,-0.782881975174,0.404186993837,-0.541845977306,-0.277774006128,0.333360999823,1.77498495579,0.919323980808,0.176039993763,2.03453707695,-1.32843196392,1.60656094551,0.62914198637,-0.302475005388,0.54358202219,2.34534096718,0.901292026043,0.544764995575,0.026822000742,1.85853803158,-0.568809986115,1.94288599491,-0.668327987194,2.23113298416,-0.340678989887
构造,-1.66824197769,0.894567012787,1.62371098995,0.322219997644,2.6457669735,-0.799540996552,-0.110103003681,-2.46229410172,0.681810975075,1.32516205311,-1.01541399956,0.951713979244,-0.507525980473,0.518687009811,-0.478368014097,-0.471601009369,-0.250189989805,-0.925230026245,0.667102992535,-0.510900020599,-1.62577903271,0.485545009375,0.258982002735,1.23061394691,-0.802277982235,0.598016023636,-0.50594997406,0.380012989044,-1.18678605556,1.60249900818,0.471421003342,0.216088995337,0.0925730019808,0.47135001421,1.75411999226,-0.0638310015202,0.173805996776,-0.254202991724,1.74521994591,1.45312702656,-0.0426749996841,-1.49967300892,-1.44530904293,-0.414793998003,0.371942013502,0.617510020733,0.564267992973,-2.03284788132,0.0489739999175,-0.0584050007164,0.305399000645,-1.40518796444,0.919833004475,0.819145977497,-2.91168308258,0.509697020054,2.34153389931,0.339626014233,-1.51038300991,-0.28779399395,-0.90943801403,0.413877993822,-0.977002024651,0.140009999275,-1.11291599274,-1.1466230154,-0.713836014271,0.724418997765,1.68342399597,-1.11726903915,-0.574177026749,-0.425451993942,0.234793007374,0.911697983742,-0.286287009716,0.103745996952,0.103398002684,1.88260698318,-0.606930971146,0.501594007015,0.0803290009499,-1.29349398613,-0.254227012396,0.0947929993272,-0.158114999533,0.733229994774,0.162272006273,-1.44527995586,0.674170017242,-0.370335996151,0.0328090004623,-0.857183992863,-0.157073006034,-0.546066999435,-1.14380204678,-0.418085992336,0.737582981586,-0.0616259984672,-1.6790009737,0.477907001972,0.572875022888,-1.85700798035,0.768580019474,1.50921094418,1.61083900928,-0.877373993397,2.04616904259,0.967122972012,0.405925989151,-1.78062796593,-0.18815100193,-0.939985990524,0.616023004055,0.0816249996424,0.643694996834,1.24277698994,0.82450902462,-1.41720104218,0.256792008877,0.274203985929,-0.823791980743,1.29454898834,1.19255805016,-2.10671210289,-0.318479001522,1.26557302475,-1.09878802299,-1.7176220417,0.192465007305,-1.29893100262,-0.0127400001511,-0.65748500824,-1.53593194485,1.39271104336,0.262488991022,-0.0540620014071,-0.521369993687,-0.227836996317,-1.02507400513,-0.947013020515,0.729007005692,0.0164839997888,-0.350003004074,0.3491320014,-0.355554997921,-0.389086991549,0.442867994308,1.58843696117,-1.74958097935,-0.846192002296,1.21600496769,1.0157020092,0.73113399744,-0.747443020344,1.57411205769,-0.18148599565,0.570559978485,-0.562874019146,0.0861179977655,1.93877398968,0.745553016663,-2.00794100761,1.15079402924,-1.12549698353,-0.592767000198,0.0447009988129,0.254162013531,-0.208206996322,-1.17386102676,0.198083996773,0.0769229978323,0.106764003634,1.04612696171,0.71511900425,0.123141996562,-0.46871599555,1.30811500549,1.75512897968,0.551873981953,1.1853890419,-0.449835002422,0.733063995838,0.55782699585,0.11152099818,0.00766899995506,2.01171398163,0.795783996582,-0.0930109992623,1.20254802704,0.3945119977,-0.877534985542,-1.01424300671,0.130687996745,1.06191194057,1.04442095757,0.430406987667,-0.196572005749,-0.545912981033,-0.127415001392,0.244121000171,0.13520899415,0.617823004723,-1.32032704353,0.66589397192,-0.978330016136,0.891757011414,1.03470396996,0.719035983086,-0.882192015648,0.390859007835,0.0609680004418,-1.99158000946,1.22556400299,1.45439994335,2.68400192261,-0.107680000365,-0.838663995266,0.538441002369,0.595118999481,0.137822002172,0.785274028778,1.05807900429,0.822070002556,-0.300612986088,0.049862999469,-0.651753008366,-0.416552990675,-0.649285972118,-0.0407139994204,-0.307839989662,0.0897689983249,0.924284994602,-0.00521200010553,-0.402281999588,0.444505006075,-0.499107986689,0.324059009552,0.386173009872,0.79876601696,0.914165973663,1.51832604408,0.378735989332,0.481285005808,0.536936998367,-0.918506026268,-0.207014992833,0.107482001185,-0.660337984562,-0.438257008791,-0.0385549999774,-1.1693700552,0.133633002639,0.132246002555,-0.0728430002928,-0.310115993023,0.406715005636,-0.457410007715,-0.0684970021248,1.85891103745,1.49521899223,0.309020012617,-0.924592018127,0.0986289978027,0.693441987038,-1.06003403664,-1.01848602295,-2.03677511215,-0.344240009785,0.406857997179,0.867619991302,-0.473412007093,0.803296983242,-0.616362988949,1.93682897091,-2.22312188148,1.96747004986,-0.168852001429,0.72555398941,0.985836029053,-0.878678023815,0.756923019886,0.880527019501,1.35011601448,-0.2375870049,-0.756676018238,1.30012798309,0.115676000714,-1.50187695026,-1.62069201469,0.767049014568,0.101328000426,-0.349427998066,-1.18586301804,-0.296891003847,-0.827461004257,-0.951816022396,0.432056009769,0.674166023731,0.472333997488,-0.562767028809,0.780586004257,-0.280348002911,-1.09773898125,-0.380223989487,1.01970005035,1.2745039463,-1.0186419487,-0.331537008286,-1.40239405632,0.624558985233,-0.454737007618,-0.569779992104,0.912527024746,-0.036858998239,-0.19651299715,1.86210203171,-1.1653380394,-1.09990203381,-0.119534999132,0.206472992897,-0.519986987114,0.0179370008409,-1.23933005333,-0.159362003207,0.956691026688,-0.372752010822,0.106974996626,-1.72380697727,0.573010981083,-1.23567605019,1.55983304977,0.26498401165,-0.122929997742,0.141683995724,1.9803930521,-0.9892359972,-0.233105003834,0.114343002439,-1.32392001152,-0.76063901186,1.23049998283,-0.239705994725,-0.952724993229,-1.16846501827,1.05659294128,0.655700027943,-0.933393001556,0.382239997387,1.09533703327,-1.02516698837,0.334302008152,-0.475151002407,0.493633985519,0.206749007106,-0.469870001078,-0.188394993544,0.694905996323,1.11047399044,-1.7569899559,1.25010895729,-0.438169002533,0.480497986078,-0.666037976742,1.15834796429,0.107068002224,-2.03096199036,-1.31522202492,-1.2420129776,-0.542737007141,-0.625569999218,-1.26229596138,0.113771997392,-0.606333971024,0.934208989143,-1.42602002621,-1.85070300102,-1.21874201298,-0.638055026531,-0.543874025345,-0.483808010817,0.597478985786,0.0604659989476,0.108018003404,0.78521502018,2.57012796402,-1.64514601231,1.3482530117,-0.935871005058,-0.779525995255,0.929691016674,0.441018998623,0.167328000069,-0.123677998781,0.288120001554,0.975849986076,-0.276591986418,0.783770024776,-0.12824100256,1.16856396198,0.215889006853
卸载,0.174788996577,1.10584104061,-0.0983439981937,0.0413650013506,0.530324995518,0.546117007732,0.329250007868,-0.283917993307,0.171994000673,0.611576020718,0.434650987387,0.194050997496,-0.00194500002544,-0.0595740005374,0.34391900897,-0.510739028454,-0.337610989809,-1.07245695591,-0.201931998134,-0.381756991148,-0.19448299706,0.144493997097,0.0383769981563,0.0859159976244,0.108175002038,0.620344996452,-0.731934010983,0.603552997112,0.158163994551,0.531197011471,-0.255737990141,-0.160710006952,-0.57618701458,-0.110853001475,0.0430600009859,0.258172005415,0.226833000779,0.159235998988,-0.26496899128,-0.0554269999266,0.265462011099,-0.377110004425,-0.1941549927,0.366344004869,0.580887973309,0.400070995092,0.272736996412,0.315982013941,-0.142454996705,-0.339487999678,0.531970977783,-0.759823024273,-0.32303699851,0.734296023846,-0.0735550001264,0.422347992659,0.043765000999,-0.223361000419,0.187617003918,0.199128001928,-0.478229999542,0.652377009392,-1.0890840292,0.0432039983571,-0.12157099694,0.590458989143,-0.232264995575,-0.00437200022861,-0.219215005636,-0.375205993652,-0.690249979496,0.353529006243,0.641584992409,0.473051011562,-0.21709099412,0.95936602354,0.576412022114,-0.30365601182,-0.0990720018744,0.14511500299,0.0569409988821,0.0983280017972,-0.00769599992782,-0.836744010448,-0.3968270123,-0.395913004875,-0.201867997646,0.13563400507,0.120123997331,0.22573299706,0.0748480036855,0.510605990887,-0.157567992806,-0.394621998072,-0.0239690002054,-0.620691001415,-0.628691017628,0.640531003475,0.263635993004,-0.0487320013344,0.484088987112,-0.0628020018339,-0.104069001973,-0.202705994248,-0.454625993967,-0.338405996561,-0.0354590006173,-0.182139992714,0.158841997385,0.44373100996,-0.469006001949,-0.973448991776,-0.429037004709,0.42239099741,0.185586005449,0.642849028111,0.151390001178,-0.243031993508,0.129372000694,-0.18538300693,-0.0578979998827,0.0746000036597,0.483958005905,-0.493205994368,-0.308782994747,0.0607380010188,-0.163312003016,0.100722000003,-0.675849020481,0.626877009869,-0.0401390008628,-0.590587973595,-0.043246999383,0.171920001507,-0.133359998465,-0.30131098628,-0.537222981453,0.102728001773,0.0633450001478,0.338757008314,-0.530682981014,0.256154000759,0.106581002474,-0.17793700099,0.161664992571,-0.219870999455,-0.491501003504,0.266189008951,0.189475998282,-0.529483020306,0.385657012463,-0.598127007484,0.0480200015008,-0.312911987305,0.186405003071,0.0397670008242,0.0362810008228,0.546855986118,-0.0263889990747,-0.0261109992862,-0.275564998388,-0.00869099982083,-0.737884998322,0.0115269999951,-0.0351709984243,-0.474947988987,0.310252994299,0.144863992929,-0.1388310045,-0.182161003351,-0.34653198719,-0.145787000656,0.238961994648,0.374707013369,0.983959972858,0.607033014297,0.178660005331,0.134387001395,0.147131994367,0.155338004231,-0.174668997526,-0.554745972157,0.00730000017211,-0.562762022018,-0.136948004365,0.463138014078,0.236422002316,-0.220872998238,0.659002006054,-0.391692012548,-0.038897998631,-0.222582995892,-0.434583008289,0.0796940028667,0.312243014574,0.096389003098,0.925383985043,-0.051943000406,0.249004006386,-0.18787099421,0.404394000769,0.0993880033493,-0.549555003643,0.393905997276,-0.149362996221,0.411819010973,0.134766995907,0.19510500133,-0.0233830008656,0.00285400007851,-0.247155994177,-0.0658010020852,-0.190617993474,-0.446601986885,-0.26770401001,-0.123352997005,0.224652007222,0.145597994328,-0.0108810001984,-0.404282003641,-0.36442399025,0.128518000245,-0.0701399967074,-0.0685750022531,0.569827020168,0.41136598587,0.0753920003772,-0.474795997143,0.001408000011,0.0226639993489,0.13592299819,-0.389115005732,-0.338544011116,-0.5787140131,0.784727990627,-0.409162014723,0.807277023792,0.494854003191,0.175411000848,-0.128468006849,0.108286000788,-0.481864005327,0.083925999701,0.67714202404,-0.354948997498,0.37854000926,0.218335002661,0.158335998654,0.111170001328,-0.149434998631,0.718888998032,0.734407007694,0.1207799986,-0.0876680016518,-0.305545002222,-0.364533990622,0.0678479969501,0.022696999833,-0.0132320001721,0.272363990545,-0.385035008192,0.568931996822,0.290289998055,-0.226510003209,-0.390989989042,-0.119608998299,0.856272995472,-0.36210501194,0.127688005567,-0.0548029989004,0.295053005219,0.184359997511,-0.075066998601,0.339803993702,-0.164186999202,-0.0541919991374,-0.306198000908,-0.0178759992123,0.347357004881,0.429646998644,-0.378767997026,0.570299983025,0.25365999341,-0.0862269997597,-0.402271986008,-0.279163002968,-0.453750997782,-0.0786340013146,0.418341994286,-0.283255010843,0.226813003421,-0.0856489986181,-0.538042008877,-0.816819012165,0.67678797245,0.156756997108,-0.0238199997693,0.0568430013955,-0.191284000874,-0.37964001298,0.348093986511,-0.0609720014036,-0.472519010305,0.186217993498,-0.142896994948,0.269973993301,-0.315147995949,-0.148283004761,0.16383600235,0.0409220010042,-0.868272006512,0.169100999832,0.295623004436,-0.546961009502,0.13170799613,-0.651090979576,-0.800091028214,0.182102993131,0.0658110007644,-0.270336985588,0.2473089993,0.442708998919,-0.384229004383,0.516960024834,-0.469776988029,-0.808456003666,0.132350996137,-0.197684004903,-0.397188991308,-0.147471994162,0.478540986776,-0.189149007201,-0.194810003042,0.243667006493,0.273214012384,-0.416119992733,0.333240002394,0.179536998272,-0.0753069967031,-0.110482998192,-0.358732998371,0.213397994637,0.166608005762,-0.0837789997458,-0.0781999975443,0.0150429997593,0.0440770015121,0.100872002542,0.228184998035,-0.424190014601,-0.185369998217,0.354528993368,0.168284997344,0.0710809975863,0.240676999092,-0.481326013803,0.415935009718,0.557087004185,0.0603040009737,0.726787984371,-1.14689600468,0.0856890007854,-0.306569010019,-0.203238993883,-0.518388986588,-0.0696510002017,-0.246169000864,-0.521683990955,-0.0327670015395,-0.345643013716,-0.277168005705,0.327347010374,-0.387439996004,0.00234099989757,0.487863004208,-0.726167976856,-0.23350700736,-0.391357988119,-0.859059989452,0.318525999784,-0.305905997753,0.15185700357,0.61509001255,0.215016007423,-0.320688992739,-0.655277013779,-0.0488369986415,0.095682002604,-1.45941603184,0.675749003887,0.0928929969668,0.274365007877,0.0971729978919,-0.707535982132,0.527294993401,-0.583953976631,-0.130105003715,0.544677972794,-0.173611998558,0.434646993876
包括,-0.45458099246,0.164757996798,1.79915904999,-1.04949700832,0.733509004116,-0.782820999622,1.55502903461,0.660794019699,1.61958694458,-0.89761698246,0.535622000694,0.35279199481,-1.74530601501,-1.87399399281,0.167853996158,-1.00387001038,0.305721014738,-1.26508498192,0.240015000105,-1.57822299004,-0.263256013393,-0.918152987957,-0.410198003054,1.22108697891,2.20093798637,1.28687500954,0.667607009411,-0.836081981659,1.85371601582,0.544808983803,-1.48100399971,0.917953014374,-1.14600205421,-1.96656596661,0.953311979771,-0.30041500926,1.23065805435,-0.823512017727,-1.736956954,1.10004401207,0.61631000042,0.716252028942,-1.23382103443,-0.80795198679,1.15346395969,0.810011982918,0.159330993891,0.66695100069,-0.564612984657,-0.0291469991207,3.32593607903,-2.36165809631,0.8616309762,1.0287539959,0.046682998538,-1.57661497593,0.884683012962,-0.820316970348,-0.564092993736,1.03681397438,-0.371104985476,-1.69451105595,-0.961143016815,-0.364295989275,1.49793696404,-1.0467890501,0.293545007706,0.994126021862,0.571802973747,0.723227024078,-0.936886012554,0.921674013138,0.371354997158,-0.401280999184,-0.00771200004965,0.689547002316,1.58019697666,-0.714837014675,1.66086494923,-2.98004508018,0.240195006132,-1.89980697632,2.25126791,-0.238046005368,0.502623021603,0.565518021584,-0.0853070020676,-2.21869707108,0.220923006535,-0.717351019382,0.456472992897,-1.07067501545,-0.197669997811,0.110694997013,0.304879009724,-1.58364999294,2.15485191345,-0.491432994604,0.404356002808,0.416426986456,-0.315941005945,0.782885015011,-0.438149005175,1.05202901363,-2.2976269722,-2.66469597816,1.53348898888,-0.544652998447,0.0205060001463,-0.831881999969,-0.916168987751,1.42460298538,-1.14686894417,-0.269428998232,1.37158405781,2.41274309158,0.906876981258,0.312240988016,0.175301000476,-0.637138009071,-0.430447012186,-1.08631694317,0.951385974884,-1.15662896633,-1.15687298775,0.231864005327,-1.34062504768,-0.304652988911,0.488011002541,-0.816477000713,-0.0516530014575,-1.97015798092,-1.44315505028,0.0445979982615,0.862852990627,0.0676129981875,0.319023013115,-0.218733996153,0.254290997982,0.670490980148,1.28575205803,-0.0801850035787,0.164633005857,-0.273562014103,-1.2591329813,-0.292937010527,-0.157086998224,0.922022998333,1.58452701569,-1.22032296658,0.148820996284,0.6534730196,-2.0393679142,0.0603480003774,0.921579003334,0.998567998409,0.783999025822,0.95196801424,0.810815989971,-0.172591999173,0.497561007738,-2.43847894669,0.322001993656,1.52843701839,2.06227993965,0.242552995682,-1.35942101479,0.529434978962,-2.69018101692,1.42549800873,0.215532004833,-1.18721103668,-0.862232029438,1.12271499634,0.995172977448,0.102456003428,1.88078403473,-0.255524009466,0.278115004301,-0.617504000664,-0.024075999856,-0.295720994473,-0.526772975922,-1.73352503777,-1.01357400417,0.700094997883,-1.37312996387,1.12802600861,-0.795297980309,1.30646204948,0.748883008957,-1.38669705391,2.25542211533,0.225940003991,1.16594099998,-0.158812001348,1.01716899872,-0.115846000612,-0.998345971107,1.97673797607,-0.579613983631,-1.39214301109,-1.57517898083,-3.12755990028,-0.845227003098,-1.39766597748,0.214383006096,0.459859013557,-0.591390013695,-0.704195022583,-0.436646997929,0.625757992268,0.0283080004156,-1.20953798294,0.664031028748,0.068915002048,1.27981197834,0.00837600044906,-0.575942993164,-0.602973997593,0.226180002093,0.933906018734,-0.644033014774,0.444972991943,-0.768212974072,1.46541404724,0.508481025696,-0.906832993031,-0.159122005105,-0.415253996849,-0.607084989548,-1.975949049,1.71390104294,-1.27606701851,1.73988699913,0.337525010109,1.00392699242,0.876667976379,-1.65308201313,-0.211097002029,-0.983739972115,-0.0362740010023,0.0229870006442,-0.44423699379,-0.241473004222,-1.62508797646,0.31343999505,-0.423994988203,-0.0189789999276,-0.44366300106,0.757034003735,0.365139991045,-0.0738999992609,-1.11206996441,-1.16192305088,-0.320629000664,-1.2597630024,0.53752797842,-0.465131998062,0.544440984726,0.419093996286,0.463856011629,0.670464992523,-0.460119009018,-0.833801984787,-0.382362991571,2.18521809578,0.26867800951,-1.23650801182,-1.1147480011,0.732991993427,0.592454016209,-0.202702000737,0.813533008099,-0.106539003551,0.177596002817,-1.19238305092,1.75196099281,0.943477988243,-0.535651981831,0.558507978916,1.94003796577,0.85153901577,-0.693044006824,-0.577216982841,0.392235010862,1.05674302578,-0.630775988102,0.74019497633,0.509913980961,1.17580199242,1.82550597191,-1.17437505722,-1.27008104324,0.272271990776,0.219248995185,-1.13816094398,0.168464004993,-0.46457400918,1.19388699532,-1.39800798893,-0.00100199994631,-0.41308298707,0.356914997101,1.07615494728,-0.964807987213,-0.489504992962,0.664205014706,-0.546822011471,2.37935996056,-0.538571000099,-1.02659094334,1.98566901684,-0.77510201931,0.0225370004773,0.946175992489,-1.21878004074,1.57324898243,0.01832799986,0.902724981308,2.083081007,0.291148990393,-0.424068003893,2.19520306587,-0.750169992447,1.03171801567,0.0738869979978,-0.89485001564,-0.118777997792,1.16980195045,-0.124298997223,1.61822104454,-0.156580001116,0.307168006897,2.61532402039,0.467014998198,-0.682807028294,-0.458820998669,-0.330401986837,-1.25936794281,-1.04619801044,-0.290796995163,-0.279507011175,-1.34332501888,-0.627764999866,2.15378308296,2.02582907677,1.25430798531,-1.39620900154,1.12433302402,-1.06657505035,-0.652185976505,0.230636999011,-0.844760000706,0.0122959995642,-0.923538029194,0.647957980633,1.10619699955,-0.589318990707,1.28975200653,-1.05566096306,-0.451656997204,-0.372523993254,-0.500169992447,-0.701224029064,0.200872004032,-1.88276195526,-0.0383489988744,0.818098008633,0.56969499588,-2.27243709564,-1.01694703102,-0.596351981163,0.358373999596,-2.69290590286,-1.62794494629,-2.06400203705,0.929220974445,-0.877553999424,-2.22939395905,-0.593096017838,-0.592799007893,0.57443600893,-1.57796001434,3.57118201256,0.422749996185,-2.8557009697,0.679933011532,-1.67461001873,-0.000548999989405,0.78701198101,2.60092806816,0.774625003338,0.437391012907,0.762611985207,0.243417993188,0.965864002705,-0.330404996872,0.462238013744,-0.50283998251
邻近,-0.484322011471,1.44902598858,-2.13662099838,-0.935828983784,0.282182008028,0.0327849984169,0.636497020721,-0.284830003977,-0.965453982353,0.912528991699,0.36547100544,0.0230529997498,0.119090996683,0.13331900537,-0.167319998145,0.764710009098,0.734791994095,-0.796045005322,1.78192901611,-0.00641500018537,0.511317014694,-0.894052028656,-1.6586420536,-0.776531994343,0.862236976624,-0.0108139999211,-2.0130109787,0.00459200004116,-0.392832994461,0.158669993281,0.578805983067,-0.364223986864,0.232636004686,0.815409004688,-0.222902998328,0.16349799931,-0.252864986658,-1.03273701668,-0.453624993563,1.35553002357,-1.4646320343,0.720627009869,-0.125818997622,0.152676001191,2.51122403145,0.752735972404,-0.750376999378,0.707682013512,0.986618995667,-0.0633369982243,0.361625999212,-0.987356007099,-0.229184001684,1.17026805878,-0.814029991627,0.437234014273,0.291225999594,-0.0300420001149,-0.28790101409,-0.364472985268,-0.655363976955,-2.03054499626,-0.788655996323,-0.895364999771,-0.446364998817,0.95981502533,0.461787998676,1.79634296894,-1.0489000082,-0.0427250005305,-0.832038998604,1.63942396641,-0.798713028431,-0.01185800042,-0.138539999723,-0.124773003161,0.148846998811,0.319000989199,-0.0763259977102,-1.78732597828,0.855979979038,-2.14644503593,-0.98834502697,0.0229519996792,0.898196995258,1.25599396229,-1.77212703228,0.170313000679,1.1487749815,2.19203591347,-1.84386503696,-0.894191980362,-1.7389190197,0.217612996697,0.113109000027,-1.49152600765,-0.484553992748,-1.79749894142,0.107066996396,1.98324096203,-0.46352699399,0.521290004253,0.636108994484,2.28054690361,-0.721390008926,-1.779088974,0.514320015907,-1.23501300812,0.335911005735,0.972510993481,0.503979980946,-0.772948980331,0.184760004282,0.0875670015812,0.247437000275,-0.270563989878,0.826008021832,0.552711009979,-0.0273669995368,0.122409000993,0.212620005012,-0.099705003202,0.0583049990237,-0.186159998178,-0.656970024109,-0.341057002544,-0.275905996561,-1.4597389698,-0.214646995068,-0.529801011086,1.40693700314,-0.755549013615,0.393070995808,0.304765999317,-1.17105901241,0.28257599473,0.248365998268,0.0446369983256,1.08690595627,0.700038015842,1.97104501724,0.657535970211,-1.53906095028,0.780903995037,1.92943203449,-2.00705289841,-1.0512650013,1.01419901848,0.82126802206,-0.784258008003,-0.403302013874,-0.0200689993799,-0.16026699543,0.802040994167,1.06939005852,0.0165049992502,0.759530007839,-0.427020013332,0.405544996262,-0.230036005378,1.00105404854,-0.265276014805,-0.0945459976792,0.456333011389,1.07641601562,-1.21543896198,0.283279001713,-0.00263200001791,-0.181535005569,0.810307025909,0.816048979759,0.452217012644,0.892566978931,0.392910003662,0.146424993873,-0.681348979473,0.411630988121,0.496358007193,2.0233309269,1.17171096802,-1.74391496181,0.348040014505,2.31246590614,-0.0196809992194,0.162855997682,0.596023976803,0.363146990538,-0.056740000844,-0.428856998682,-0.438585996628,-0.512418985367,-0.201575994492,1.23586595058,0.43506398797,0.201449006796,0.0684769973159,1.24967598915,-0.1679880023,-0.177406996489,0.107014998794,1.0977139473,0.681452989578,-0.61496502161,0.342065006495,-0.560461997986,-0.20008200407,0.63317501545,0.0766509994864,0.763090014458,1.68820202351,-1.43691396713,0.65962600708,-0.145572006702,1.33012294769,0.686199009418,-0.299771994352,0.238186001778,0.940082013607,1.57617402077,-1.14242398739,-0.422369003296,0.610822021961,-0.970124006271,1.80599498749,-0.488092988729,-0.377218008041,-0.176608994603,-0.832306027412,1.42663705349,0.136464998126,-0.723710000515,-0.797765016556,-0.662566006184,1.14854097366,0.915522992611,0.494112014771,0.415894001722,-0.971920013428,-1.23335695267,1.21353399754,1.54216098785,1.26303696632,0.510918974876,0.272285997868,-0.661801993847,-0.304100006819,-0.500728011131,-0.711916983128,0.972009003162,0.623580992222,1.1753269434,0.0864590033889,0.326745003462,-0.0187129992992,1.2491979599,-0.367069989443,0.978563010693,-1.81399798393,0.375701010227,-0.1860049963,1.23848199844,0.960256993771,-0.0625649988651,0.459127992392,0.49672499299,-1.49523496628,-1.14624798298,-0.416456013918,0.533245027065,-0.75376200676,0.029633000493,1.73572003841,-0.436636000872,-1.65166497231,-0.62427598238,-0.34912699461,-0.344069987535,0.85653501749,0.277298986912,-1.24513196945,2.22218990326,-0.392031013966,1.32563698292,-0.435992985964,-0.145499005914,0.309949994087,0.326384007931,0.544632017612,-0.00942500028759,-0.296988993883,-1.06131494045,-0.23896600306,-0.0610899999738,-0.645686984062,0.870392978191,-0.157049998641,-1.0979180336,0.366730004549,1.16966402531,1.44860303402,-0.672707021236,0.476649999619,0.174225002527,-0.524230003357,-0.389991998672,-1.92178702354,-0.657262980938,0.456395000219,0.138383001089,0.248514994979,-0.815748989582,-0.479469001293,0.617636978626,-0.157381996512,-0.57707798481,1.37688696384,-0.673282980919,0.976701021194,0.837884008884,0.0589400008321,1.2256809473,0.747709989548,-0.80603402853,0.828782975674,1.12215602398,0.0046769999899,-1.29892003536,-0.375851005316,-0.462960004807,1.75645601749,-0.66443502903,-0.151842996478,0.0468319989741,-1.22577798367,2.00230002403,0.039553001523,-0.513849020004,0.417414009571,-1.47552597523,1.70147705078,0.390309989452,0.301862001419,0.322203010321,0.350024014711,0.395570993423,-0.727572977543,-0.368111997843,-0.625530004501,0.456461012363,-0.491652995348,0.556010007858,-1.15710401535,-1.51513004303,-1.38322401047,-1.33611702919,-1.15242600441,-0.573125004768,-0.457920014858,0.761416018009,-0.368625998497,0.113844998181,0.0665099993348,0.682704985142,-0.0814250037074,1.24875605106,-1.27268505096,-0.445410996675,-0.390724003315,-0.251403003931,-1.39083695412,-1.89187300205,0.258823990822,-0.68028897047,1.71871602535,1.21639204025,-2.39581298828,0.854283988476,0.210093006492,-0.829859972,-1.99340701103,-1.11749494076,1.39575695992,0.432090014219,-0.279357999563,1.75721395016,-1.93934500217,-0.151152998209,-0.499983996153,-0.981688022614,-1.04289495945,1.77218496799,-1.47137904167,0.796756029129,-0.290928989649,0.826856017113,-0.299048006535,0.967620015144,0.00720599992201,0.0762910023332,0.112678997219
部分,-1.21659600735,0.553735971451,1.19942700863,-0.252952992916,2.01499199867,0.787330985069,0.0115689998493,-0.0711409971118,0.565818011761,-0.452491998672,0.680032014847,0.928828001022,-1.61223602295,0.368241995573,-0.140461996198,-0.486775010824,-1.09776198864,0.03316700086,1.67592704296,-0.93515598774,-0.173207998276,-0.243857994676,0.895775020123,-0.00373600004241,2.28836894035,1.31753098965,0.4160400033,1.16248297691,-0.584891021252,1.14619398117,0.864771008492,-1.07601499557,-1.23340404034,-1.4323669672,-0.0237600002438,-1.03164505959,0.155935004354,-0.302861005068,-0.29023000598,1.5144200325,0.160487994552,0.780412018299,-0.210598006845,-0.243441998959,1.19792795181,0.323038995266,-0.179103001952,1.29977297783,0.477732002735,0.508603990078,0.839016020298,-0.579685986042,0.78526198864,0.910382986069,-0.725934028625,0.233190000057,1.95349895954,-1.02083301544,-0.444200009108,0.545699000359,0.159623995423,-0.502213001251,-0.775093972683,-1.24665904045,0.308297008276,0.137311995029,0.179853007197,1.62441694736,1.88984799385,-0.658083021641,-0.782311975956,-0.434249997139,0.996547996998,1.05504000187,-0.140569999814,0.422022998333,2.34048295021,-0.919777989388,1.18124198914,1.09972202778,1.40064096451,-1.04077601433,-0.573688983917,0.428811997175,1.18672299385,0.673789024353,0.434491991997,0.653517007828,1.10692095757,-1.89369797707,-0.00803000014275,0.867697000504,-2.07763195038,1.59099698067,-0.0330719985068,-1.27144098282,0.578308999538,0.247038006783,-0.280230998993,0.431672006845,0.0146669996902,0.226791992784,1.24963903427,1.49149096012,-2.48307394981,-0.132844001055,1.12558996677,0.551926970482,0.333568006754,0.533123016357,0.29467600584,-1.12312102318,-1.79805696011,-0.560778975487,-0.336111009121,2.54206204414,1.90295100212,-0.340599000454,0.827884018421,1.49566996098,-1.43541002274,-0.552622020245,-0.614643990993,-1.78076696396,-0.311664998531,1.17623400688,-0.865216016769,-1.39548194408,0.391514003277,-0.816713988781,0.478448003531,-1.54060399532,-0.930814981461,-0.396095007658,-0.284563988447,-0.30244499445,-0.758578002453,0.594119012356,-0.459491997957,0.432004988194,0.147641003132,-1.15263903141,-0.123782999814,-0.353291004896,-1.08733999729,-0.338414013386,-1.24020504951,1.61900496483,1.05056095123,-0.578068971634,-1.49896001816,0.93672901392,-0.0419140011072,0.109029002488,-1.61509001255,1.80571997166,-0.383850008249,-0.824976027012,-1.56778299809,0.687702000141,0.777702987194,-0.680594027042,1.25871694088,-0.900265991688,-0.0947960019112,0.723013997078,0.0869439989328,-0.331173986197,-1.89474904537,1.21208798885,-0.835049986839,-0.721638023853,0.0866380035877,1.04319000244,1.2461990118,-0.547412991524,1.5059980154,2.97510194778,1.13664698601,0.549733996391,0.429580003023,-0.724159002304,0.680739998817,-0.836317002773,0.915677011013,-0.181365996599,-0.468414992094,1.6582750082,-0.386577993631,1.10016596317,0.114628002048,-0.399742990732,1.87852299213,0.855328023434,-1.57862401009,-0.51492202282,1.99067103863,-1.0411939621,0.626978993416,0.122014001012,-0.525995016098,0.532977998257,-0.841898977757,-1.72815001011,-0.666431009769,1.914929986,-1.32344305515,-0.00431099999696,-1.97498500347,0.731518983841,-1.57524895668,1.14523804188,0.844857990742,0.339816987514,0.768819987774,-0.801913976669,0.224941000342,-0.353190988302,0.653990983963,-0.375946998596,1.23989295959,-0.499130994081,0.195050999522,1.08876502514,-0.190512999892,0.906939983368,0.747032999992,-0.1288869977,0.462332993746,1.04944694042,0.259223014116,-0.587440013885,1.03510701656,-1.85713005066,1.19140195847,-0.0102739995345,0.725449025631,-1.06185305119,-2.06076407433,0.896468997002,0.501457989216,1.4712729454,0.0969579964876,1.11528205872,0.221101000905,-1.58682799339,0.209186002612,-1.11200094223,0.0361989997327,0.38191100955,-0.128882005811,0.285338997841,0.376883000135,-1.60579204559,0.923304975033,2.0893099308,0.080338999629,-0.542786002159,0.438694000244,0.679018974304,1.6332269907,1.09057497978,1.26011705399,0.517683029175,-0.912912011147,-0.620230019093,0.932843029499,0.0642220005393,0.66304397583,-0.346469014883,0.279376000166,1.0322740078,-1.08974599838,1.42647004128,-0.690438985825,0.263794988394,-0.563510000706,0.700024008751,0.0452249981463,1.31659805775,0.787931025028,-1.17357599735,-0.661553025246,-0.571466982365,0.015461999923,0.0565369985998,-0.120655998588,-0.434540003538,-0.700323998928,-1.20844304562,0.937290012836,0.523796021938,-2.23282003403,-0.11589500308,-0.284586012363,0.246632993221,-0.373762995005,-0.28556099534,-1.11670899391,1.5050419569,-0.0967480018735,-0.630755007267,0.292416989803,1.41770100594,1.66416394711,-0.0746610015631,1.63031196594,-1.74722003937,-2.06795907021,0.137676998973,-0.403798997402,-0.53869998455,0.448507994413,0.474206000566,-0.283100992441,0.478038996458,-0.608685970306,0.174465000629,0.900609016418,-0.657106995583,-0.216231003404,0.20448499918,-0.94143897295,1.38407504559,-0.481160014868,0.472871005535,-0.54779702425,0.00754699995741,0.221129998565,-0.103942997754,1.21152997017,1.13556098938,0.300274014473,-0.159042999148,0.588990986347,1.28503096104,0.00129499996547,0.348506003618,-0.508589029312,0.127065002918,0.915027976036,1.06778597832,0.0144999995828,-0.0692010000348,1.19609999657,-0.205290004611,-0.553515017033,-0.524520993233,-0.316839009523,1.0752530098,1.75792503357,-0.0466680005193,0.420217990875,0.63251799345,-0.634932994843,-1.67668104172,-0.0997250005603,1.81379103661,-0.609903991222,0.550723016262,0.809864997864,-1.50065898895,0.269571006298,-0.849077999592,-0.395072996616,-1.09799098969,-0.527135014534,-1.47632598877,0.0686080008745,-1.05218696594,-0.280402004719,-1.00359404087,-0.182264000177,0.829572975636,0.379128992558,-1.39612400532,0.339735001326,1.69032001495,-1.12794995308,0.327930003405,1.29469895363,1.95014095306,0.300431996584,0.635960996151,2.15176010132,0.635330021381,-1.41625499725,-0.953710973263,-1.41704404354,0.80075097084,1.13980901241,1.80058300495,0.111400000751,-1.28771698475,1.24642205238,-0.786201000214,-0.1218990013,1.04522395134,1.40940201283,0.0620700009167
倾斜,-0.0893500000238,2.31187009811,-0.892347991467,0.153081998229,0.119520999491,-0.303357988596,1.88402295113,-0.284671992064,-0.338800013065,1.36089301109,-0.409850001335,-0.640479981899,-0.621671020985,0.35632699728,0.682793974876,-0.306266993284,0.625665009022,-0.467353999615,0.849433004856,-0.964105010033,0.524780988693,-0.00465600006282,0.0357320010662,-0.695913016796,1.38420796394,1.08692896366,0.126236006618,0.153212994337,-0.598053991795,-0.322111994028,-1.45216095448,-1.53685796261,0.661396026611,1.31066095829,0.34815299511,0.810424983501,0.0894419997931,-1.47059094906,-0.599422991276,0.476354986429,1.08172094822,0.807781994343,-1.63655400276,-0.366216003895,1.35222899914,0.226579993963,-0.569375991821,-0.963553011417,0.260838001966,0.281318992376,-0.495231986046,-0.176163002849,0.00540099991485,-0.198097005486,-1.54411303997,0.100426003337,0.342613995075,-1.19832205772,0.034196998924,1.37467396259,-0.400314986706,0.322403997183,-1.3781529665,-0.324196010828,-0.888158977032,-0.139330998063,-0.352019995451,-0.955937027931,0.0715890005231,0.943870007992,-0.52248197794,0.907109975815,0.302877992392,1.415563941,0.0674839988351,0.829258978367,-0.0683730021119,0.843555986881,0.432642996311,1.8558909893,0.132431000471,0.331304997206,-0.266694992781,0.321334987879,1.65911102295,-0.52729600668,0.34410700202,-0.662500977516,0.138074994087,-0.889037013054,1.31779694557,1.49100601673,0.774933993816,1.14867401123,-0.574090003967,-0.0815490037203,-1.00672399998,0.102701000869,-0.463605999947,0.768905997276,2.26290392876,-0.507623970509,1.05967199802,1.32559502125,0.0707129985094,0.129264995456,1.33964896202,-0.7579190135,-0.0365060009062,-1.06505298615,-0.932923018932,-1.61094903946,-0.215819999576,-1.43979597092,0.413150012493,1.11249399185,0.753498971462,-0.51109701395,-0.289424002171,0.523258984089,-1.02720999718,0.519420981407,0.468656003475,-0.158738002181,-0.00857899989933,2.23656702042,0.234208002687,-0.823130011559,0.0826570019126,-1.83504104614,0.254970014095,0.375010997057,-1.56905400753,0.837499976158,-0.969304025173,1.44386696815,-0.548868000507,-0.301173001528,0.362343996763,0.353065997362,0.542913973331,1.16244900227,-2.3503010273,-1.22875595093,1.08386802673,-0.594762980938,-1.81150603294,0.538999974728,-1.14915001392,-0.28945299983,0.379155009985,-1.08107495308,-0.0465870015323,0.298512995243,1.33348405361,-0.291469991207,0.0723859965801,-1.20555603504,-0.861355006695,0.482800990343,-0.126001000404,-1.21971297264,0.25934201479,-1.49345898628,1.5178899765,0.646534979343,1.93213605881,-0.227573007345,-1.45536398888,-0.717996001244,0.107702001929,-0.738959014416,2.23843002319,-0.226483002305,1.69816195965,0.839257001877,0.501652002335,2.05018997192,2.3058450222,0.562400996685,-1.15211701393,0.500030994415,0.504070997238,-0.639428973198,0.213345006108,1.18000805378,0.947516977787,1.71285903454,1.2882579565,-0.12535199523,0.499303996563,0.136951997876,0.35775500536,1.10018205643,-0.524936020374,0.10407999903,1.3493180275,0.118716001511,2.15665102005,0.172709003091,-0.325493991375,0.468151003122,-0.999253988266,-0.345515012741,0.89152097702,-0.27486500144,-1.55964303017,0.680082023144,-0.716282010078,1.99057495594,-0.343946009874,-0.205776005983,1.08153903484,0.301752001047,1.38480103016,-0.602683007717,-0.233335003257,0.624504983425,-1.26416897774,-0.557700991631,0.622968018055,1.29642105103,0.756273984909,0.413195997477,-0.496387988329,-0.835138976574,0.607304990292,0.262540996075,0.479117006063,-2.14621305466,-0.885473012924,1.14660894871,-0.0396029986441,-0.776516020298,1.0747590065,0.378834992647,-1.27613902092,0.0406269989908,0.226577997208,-0.345140993595,0.0389590002596,1.2603290081,-0.763435006142,0.998605012894,-0.201592996716,-1.37531602383,-0.0459740012884,-0.167349994183,-0.245105996728,0.895425975323,-0.655782997608,1.74343502522,0.383666008711,0.0818139985204,0.123971000314,1.44526302814,0.585323989391,0.447189986706,0.965210020542,3.08228588104,0.165387004614,-0.108553998172,0.565568983555,0.752056002617,-1.49866902828,-1.29337000847,-0.371324986219,-0.209713995457,-1.13515305519,-0.49614199996,-1.07818603516,-1.08597803116,-0.552009999752,0.821539998055,-0.807488024235,1.39026296139,-0.687101006508,-0.522024989128,-0.693441987038,1.17506301403,1.16672098637,0.203208997846,0.860072016716,-0.0199129991233,0.0192990005016,-1.68585205078,0.596944987774,-1.81268298626,0.356633991003,-0.643620014191,-0.249755993485,-0.237927004695,-0.280124008656,0.342180013657,0.580874979496,-0.879333019257,0.413722008467,-1.01247298717,0.0406650006771,0.418844014406,-0.784502983093,-0.91765499115,0.306546002626,0.698799014091,0.0298960004002,0.187621995807,-0.690581977367,-1.49228096008,-0.746363997459,0.503112971783,-0.632444024086,-0.930738985538,2.70573997498,-0.605069994926,-1.69193100929,1.97677397728,0.263328999281,-0.535968005657,-0.240375995636,0.688482999802,1.34388697147,0.0652939975262,-0.997417986393,-0.28076800704,-0.0979930013418,-0.292398989201,-0.295473009348,-0.497810006142,0.566033005714,0.29133400321,1.49762904644,0.906549990177,-0.499882012606,0.409157991409,0.939337015152,-0.243900001049,1.41319298744,0.228729993105,-0.0564920008183,0.349328994751,1.52522599697,-0.454194992781,0.041914999485,-0.167851999402,0.997314989567,-0.0619589984417,-0.747716009617,1.19181501865,1.62134695053,-0.346693009138,0.187058001757,0.409599989653,0.545421004295,0.545664012432,-2.16949009895,-0.725220024586,0.38710001111,-0.433104991913,-0.332884997129,0.108661003411,-1.3269649744,-1.56193494797,0.470162987709,1.49823105335,0.527043998241,-1.00666499138,1.3494310379,-1.45693802834,-1.924077034,0.362787008286,-1.37833702564,-0.638908982277,-0.441626012325,-0.376226991415,-2.1408700943,-0.664801001549,0.0367119982839,-0.345636993647,-1.85657799244,0.38232499361,-0.255035996437,-0.319602996111,0.343638002872,1.36277294159,1.11465299129,-1.73683297634,0.189802005887,-1.56445503235,-1.31836903095,-0.240795001388,1.01958394051,1.27610099316,-0.519972026348,0.46454000473,1.63869702816,1.76686298847,-1.6791510582,1.43681001663,1.28039395809,0.759896993637
布置,-0.416195988655,0.950011014938,0.0762740001082,0.555392980576,-0.332837998867,-0.625926971436,0.528621971607,-0.0589139983058,1.6973669529,0.40504899621,-0.91870200634,-0.873966991901,-0.380428999662,-1.4303239584,-0.174963995814,-0.98710000515,-1.17942500114,-1.82106399536,-0.257607996464,-1.38825500011,-0.932910978794,-0.394982010126,0.327941000462,-0.468425989151,-0.418738007545,-0.218650996685,1.0097630024,1.87954199314,-0.732225000858,1.06437695026,-0.482302010059,1.01882398129,0.074833996594,0.505599975586,1.69307303429,-1.48790705204,-1.10650002956,-1.14276194572,-1.3517049551,1.31000304222,-0.403645008802,-1.53375899792,-0.585573971272,0.735011994839,-0.332933008671,1.35435497761,1.12607002258,-0.873575985432,-0.119561001658,0.759797990322,0.158067002892,-1.02932095528,0.121265001595,0.689858019352,-1.4338940382,0.432444989681,0.720337986946,-1.193171978,1.11074304581,0.593984007835,-2.0402200222,0.949288010597,-0.411803990602,-1.05265903473,-1.99788701534,-0.442710995674,-0.670140028,-0.276295989752,0.875895023346,0.86695599556,-0.0768119990826,1.10129404068,-0.665627002716,2.26829910278,1.0707410574,0.895951986313,-0.325284004211,-0.31229698658,-0.554311990738,1.2632600069,1.30939304829,-0.343044996262,0.8872590065,0.0507799983025,-0.323583990335,-0.777498006821,-0.499861001968,-1.49750995636,0.954230010509,0.265787988901,-0.689288973808,0.321146011353,0.38002499938,-0.492303997278,0.56646001339,1.34168195724,-0.206185996532,1.17732405663,-1.00487101078,-0.0864949971437,0.289739012718,-1.40959095955,1.11543798447,0.542204022408,-3.41247701645,-0.285759985447,0.839000999928,0.145707994699,-0.542264997959,0.0236770007759,0.599727988243,-1.78936004639,-2.20067191124,-0.678798019886,1.71873497963,-0.993107020855,1.40104997158,-1.0162910223,-0.770142018795,2.25711607933,0.865382015705,0.526799976826,-0.183837994933,-0.646421015263,-0.113041996956,-0.192836001515,-1.45881104469,0.205571994185,0.132256001234,-1.43132805824,1.3723269701,-1.17960500717,-0.905300021172,1.37950801849,-0.945438981056,-0.090314000845,-0.152241006494,-0.369206011295,-0.11633399874,-0.656275987625,0.925006985664,1.24332594872,-0.51113897562,0.201723992825,0.165427997708,-0.629858016968,-0.556927978992,0.302385985851,-0.169547006488,-0.94185000658,1.54352498055,-1.76674604416,0.979840993881,-0.291054993868,1.17034304142,1.59364700317,-0.697682976723,0.266319006681,0.630666017532,-0.243476003408,0.462215006351,-0.730369985104,0.841495990753,-0.675831973553,1.07061803341,-0.255005985498,0.224087998271,-0.413132995367,0.10116700083,-0.231714993715,-0.796148002148,0.595066010952,-0.660879015923,-0.200509995222,0.224142998457,0.149485006928,1.4956870079,-0.204870000482,0.681751012802,2.48081803322,0.0807150006294,-0.492650002241,0.247771993279,0.26111599803,0.204436004162,2.60146999359,1.06774795055,0.0732519999146,0.925334990025,-0.181550994515,-1.14549803734,0.930202007294,2.06831407547,0.552776992321,0.0151319997385,-0.155992999673,1.44105005264,0.527644991875,-0.789937973022,-0.0955500006676,-0.793596029282,-0.930383980274,0.482095003128,-0.925948023796,0.357600003481,0.31972399354,0.54050797224,0.0522620007396,-0.559028029442,0.966408014297,0.746533989906,-1.11693096161,0.859493017197,0.544872999191,0.119360998273,1.01834702492,-0.20513600111,0.230186000466,0.352618992329,-0.782531023026,2.49812507629,0.483211994171,0.786543011665,-0.56931000948,-1.04839599133,-0.374386012554,-0.329158991575,0.124551996589,0.0225830003619,-1.01041400433,0.691542983055,-0.913213014603,0.423507004976,-0.887700021267,0.216746002436,-0.894028007984,-0.0455249994993,-0.101686999202,-0.57279998064,0.0665739998221,0.14725099504,0.0869190022349,1.18731701374,1.54575896263,0.00796599965543,0.511146008968,0.458974987268,0.075811997056,0.991032004356,-1.40913403034,0.239203006029,0.970791995525,-0.375126987696,1.03209102154,-0.802296996117,1.56713104248,1.5937319994,1.27946305275,0.162449002266,0.924562990665,-0.230182006955,-0.400427013636,-0.6664249897,0.468589007854,0.502282977104,-0.448996990919,-0.956155002117,-0.62175899744,0.177148997784,0.489017993212,0.00818100012839,-0.177366003394,2.34136104584,1.17704296112,-0.666006982327,1.52234494686,-0.0785709992051,0.349310994148,1.74593400955,0.419447988272,0.40670800209,0.957879006863,0.58985799551,-0.425417989492,-1.09934401512,-1.13020205498,-0.228633999825,0.158107995987,0.579204976559,0.0493820011616,-1.55894303322,0.94683599472,0.19217300415,0.669447004795,-0.123131997883,-1.25277602673,0.686251997948,1.2644610405,0.0775500014424,-0.118689000607,0.252474009991,-1.25933599472,-0.865182995796,-0.524659991264,0.706512987614,0.440120995045,-1.55663895607,-0.769163012505,-1.6580799818,0.604750990868,-0.229038000107,-0.151090994477,0.2677949965,1.35723495483,-0.464127987623,1.51719498634,-0.0710719972849,-0.322804987431,-0.944602012634,-0.602980971336,1.00518894196,-0.379137009382,-1.51480603218,1.48573005199,-0.672304987907,0.0131289996207,-1.29979598522,0.321345001459,-0.0514080002904,0.0198749992996,-0.382860004902,1.41922998428,0.10884000361,0.877296984196,0.947045981884,0.11339700222,0.460552990437,1.13462102413,0.0276209991425,0.419005006552,-0.260363012552,1.0305980444,-0.406850010157,0.707915008068,-0.933462977409,0.510318994522,0.0802259966731,0.0182770006359,0.303546011448,-0.487632006407,-0.691241979599,0.393586009741,0.145445004106,-0.660872995853,-0.371863007545,-0.287346988916,1.47758901119,1.05234694481,-0.09690400213,0.0390340015292,-1.05162000656,-1.21422302723,0.491988986731,-0.89567899704,-0.499877989292,-0.551104009151,-0.98898100853,-1.57957398891,-0.971773982048,-0.755455970764,-0.904917001724,1.05633795261,-1.45460605621,0.209229007363,-1.74550998211,-0.148717001081,0.0313029997051,-0.266144990921,-1.94534397125,0.156243994832,-1.49568498135,1.03247904778,0.651960015297,1.0620880127,2.04400706291,-0.652462005615,0.34335899353,-0.291200995445,-2.7206120491,0.966957986355,-0.100312002003,1.88044404984,1.03627800941,-0.21363799274,1.54225695133,1.38885498047,-1.00080096722,0.670786976814,0.34439098835,0.150685995817
侧,0.0335550010204,-0.612897992134,0.210811004043,-0.309543013573,-0.0889620035887,1.01467394829,-0.580008983612,-0.664211988449,0.371722012758,0.198979005218,-0.377368986607,-1.32227694988,-0.0622519999743,-0.454311013222,-0.199373006821,0.602832973003,0.880613029003,0.248211994767,0.978286981583,-0.498237997293,-1.47988498211,0.842334985733,-1.07225000858,-0.413583993912,0.314455002546,-0.284997999668,0.00363900000229,1.01555097103,-0.168190002441,0.134718000889,-1.53085696697,-0.269841998816,0.905990004539,1.19565999508,-0.00161100004334,0.762476027012,0.233997002244,-2.21722793579,0.625729978085,0.901675999165,1.06018805504,-1.11254096031,-1.50353598595,0.0738700032234,1.24502801895,-0.687662005424,-0.060123000294,0.0671150013804,0.246333003044,1.36280798912,-0.184975996614,-0.216382995248,-0.662811994553,-0.639734983444,-1.75595796108,0.142814993858,1.19213402271,-0.870052993298,0.511430025101,1.16981196404,-1.04369699955,-0.282182991505,-0.287086009979,-2.63520002365,-0.0916280001402,0.907254993916,-0.71595197916,1.07407999039,-0.249964997172,0.841620981693,0.0908610001206,-0.336901009083,0.65508300066,0.835277974606,1.26843202114,0.0942289978266,-0.570136010647,1.20490503311,0.202070996165,1.0853869915,-0.134893000126,-0.0718289986253,-1.43122196198,-0.458880990744,0.156500995159,-0.833929002285,-0.688418984413,0.736567020416,0.332314997911,-0.799040019512,-0.0485870018601,0.35353499651,0.333377987146,0.719886004925,-0.0518160015345,0.324414998293,-0.0712409988046,0.736582994461,-0.261184990406,1.34993600845,-0.0545330010355,-1.76088500023,0.539463996887,-0.475306987762,0.364730000496,-0.867362976074,1.31867897511,-0.379451990128,0.371681004763,0.470169007778,-0.280447006226,0.0635240003467,0.553586006165,-0.883145987988,0.56442797184,0.260632991791,0.259353011847,-1.04492497444,-0.303357005119,0.973329007626,-0.522454977036,0.277236998081,0.398838996887,-0.134112998843,0.800707995892,0.020535999909,-0.520474016666,-1.51995503902,0.788854002953,-1.93393194675,1.52396094799,-0.389463990927,0.147597998381,0.529473006725,-1.24336004257,0.888598978519,-0.0846759974957,-0.516447007656,0.174872994423,0.132140994072,0.252021998167,-0.0227390006185,-1.09020197392,0.0702750012279,-0.685826003551,-0.481380999088,-0.882287025452,0.732832014561,-0.870899021626,1.19292902946,-0.117537997663,0.388491004705,-1.26381504536,-0.483675003052,0.811241984367,-0.882704973221,0.596836984158,-1.45246899128,-1.41696703434,-1.04723095894,-0.335424989462,-1.47891294956,0.00062100001378,0.0903809964657,-1.39735400677,0.512426018715,0.890389978886,0.143695995212,-2.07237410545,-0.178944006562,0.529654979706,-0.675553023815,0.861863970757,1.00600302219,0.723179996014,0.923843979836,-0.0990049988031,-0.242550000548,0.586823999882,1.32776296139,-0.627852976322,0.411480009556,-0.0562009997666,0.575227975845,0.845551013947,0.235844001174,0.143255993724,-0.0755639970303,0.770774006844,-0.0621469989419,0.31884598732,1.27240395546,1.04311203957,-0.719424009323,-0.687020003796,0.229450002313,0.74118500948,-0.768634974957,1.48068797588,-0.352982014418,-1.16650903225,-0.38776499033,-0.894325017929,-0.640874028206,0.226815998554,0.386765986681,-0.298862010241,0.437115997076,-1.46372902393,-0.18592299521,1.12290000916,-0.889623999596,0.919526994228,-0.096537001431,-0.0889609977603,-0.23225800693,0.196131005883,-0.104653999209,0.442544996738,-0.327491998672,0.613283991814,1.92421901226,-0.324443995953,0.0965349972248,0.395135998726,0.491066008806,0.675270020962,-0.888783991337,0.254272013903,-0.329861998558,-0.679261982441,0.141377002001,0.109466999769,-1.27757704258,0.665684998035,0.160575002432,0.0132969999686,0.666839003563,-0.757086992264,-0.292055994272,0.209174007177,1.14427101612,0.720265984535,0.923976004124,0.737200975418,1.23570394516,-0.541905999184,0.197384998202,-1.16002202034,1.60688900948,-1.18819594383,0.660481989384,0.82312899828,-0.0787720009685,0.39467599988,1.09433495998,0.0202430002391,-0.348396986723,0.998079001904,0.219582006335,0.602514028549,0.453552007675,-0.481402009726,-0.366005003452,-0.206443995237,-0.54188400507,-1.25963199139,-0.025836000219,0.0567429997027,-0.180888995528,-0.324934989214,-0.0623929984868,0.0204579997808,-0.20809699595,-0.63888001442,1.66031801701,-0.535259008408,-0.234556004405,-0.888414978981,-0.233161002398,0.968679010868,-0.256826996803,0.0990829989314,0.894681990147,-0.986482977867,0.0556179992855,-0.346648991108,-0.167355000973,1.10421597958,-0.865554988384,0.884618997574,0.256009995937,0.986967027187,-0.297304004431,-1.40240597725,-0.926207005978,-0.750941991806,0.337837994099,1.13669204712,0.300953000784,1.00805294514,-1.1787430048,-0.0151660004631,-0.743674993515,0.821736991405,1.40972399712,-1.47905898094,-0.381788998842,-0.898760974407,0.204779997468,-0.0180089995265,-0.320266991854,0.915998995304,0.123207002878,-1.3167129755,2.02478599548,0.0243939999491,0.717961013317,0.636822998524,0.264313995838,-0.273158013821,0.0651440024376,-1.11431896687,0.0562550015748,0.97677397728,0.284361988306,-0.689459979534,-0.275245010853,-0.832647025585,1.26134598255,1.15278303623,-0.0231519993395,-0.469018012285,1.6575729847,0.111809000373,0.666462004185,-0.81456297636,1.40407502651,-1.03452301025,1.09444105625,0.547251999378,0.274524986744,-0.619799017906,-0.326362013817,1.08362197876,-0.953881978989,-0.93342602253,-0.0665019974113,0.11408200115,0.752568006516,-0.470663011074,0.28626999259,0.186315000057,-0.13246999681,-0.560000002384,-0.689888000488,0.370858997107,0.823077976704,0.215406000614,-0.255627989769,-1.9858109951,-0.663501977921,-1.25627696514,1.12349903584,1.29965603352,-1.55670702457,1.38576996326,-1.8393009901,-0.789439976215,0.174886003137,-0.506370007992,-0.0747689977288,-0.726145029068,0.758341014385,-0.0573569983244,-0.222792997956,-0.0585619993508,0.280582994223,-1.16086196899,0.668309986591,-0.896272003651,-0.711673974991,-0.0740550011396,0.36336800456,0.21638199687,-1.18426597118,1.01509094238,-0.664140999317,-1.07004499435,0.788392007351,-0.0453209988773,0.491183012724,0.253984004259,0.0455660000443,0.968599021435,-0.218566000462,-0.158548995852,-0.165464997292,1.85071098804,1.10637795925
具有,-0.0681810006499,1.40470600128,2.58015298843,-0.417515993118,1.00962400436,-1.16817700863,1.30608701706,0.617208003998,-0.418976008892,0.680073976517,0.0320670008659,-0.412878006697,-0.458056002855,-1.79766905308,-0.482612013817,-0.850849986076,-2.08274888992,-1.79438197613,-0.0770839974284,-1.89013195038,-0.18320299685,1.71037101746,-0.515230000019,1.49715602398,1.35511505604,1.70045101643,0.843391001225,0.205026000738,-0.423913002014,0.0648590028286,-1.09362101555,0.0337539985776,-0.537654995918,1.05566394329,0.0166209992021,0.806357979774,-0.569635987282,-1.49469900131,-1.22647595406,1.73556303978,0.0558639988303,0.265271008015,0.105435997248,-2.35379004478,-0.376747995615,-0.36556199193,1.25548601151,-2.27157998085,1.02639400959,0.00692400010303,2.40711808205,2.47078704834,0.168236002326,0.261465996504,-0.577809989452,-0.711461007595,1.20865595341,-1.4975039959,-1.41725695133,0.847477018833,-0.984902024269,-1.34774005413,-0.193630993366,-0.443363010883,-2.12132501602,-1.61161196232,-0.036683999002,0.0770559981465,-1.23883497715,0.370943009853,0.356952011585,0.782513022423,0.139865994453,1.46712398529,-0.828422009945,-1.27127599716,1.79189300537,0.0404720008373,-0.571823000908,-1.20284795761,0.168824002147,0.45746999979,1.38751196861,0.675350010395,0.668947994709,-0.0208540000021,-0.198296993971,-1.33238601685,-0.342359006405,0.202732995152,0.675924003124,-0.0596310012043,0.792818009853,0.174928992987,-1.06169605255,0.60242497921,2.69266796112,-0.856046020985,-0.832304000854,-0.920239984989,0.240029007196,0.79019600153,0.500250995159,1.20982801914,-0.877777993679,-1.54953205585,0.789002001286,-0.0270620007068,-0.210247993469,-1.72801196575,0.124601997435,-0.0102399997413,-1.98794603348,0.560717999935,-0.582768976688,0.270738005638,1.57074296474,-2.07348608971,-0.341502994299,-0.572614014149,0.466809004545,-2.11353111267,0.257672011852,-1.0773639679,-1.49024105072,0.523836016655,-3.8909330368,0.0322370007634,0.614049017429,1.9462389946,0.432294994593,1.02524995804,-1.23026394844,0.811007976532,0.511888027191,-0.653074979782,0.123153999448,0.644003987312,0.620209991932,0.664552986622,-0.869156002998,-1.14205598831,-0.596728980541,-1.53448200226,0.8639960289,-2.00579190254,0.358027994633,1.05628097057,-0.402871996164,-1.20546996593,2.7305688858,0.258213013411,-0.436002999544,1.54279303551,1.13282501698,0.675576984882,0.61507499218,0.13313600421,-0.850395023823,1.10713100433,-0.0807140022516,-1.68908596039,1.18916904926,0.00458300020546,1.18081700802,-0.973964989185,-0.456936985254,-1.34860599041,-0.75123000145,-0.329811006784,-0.933367013931,-0.63809800148,-0.0689800009131,0.0177490003407,0.48097500205,0.82540500164,1.90796804428,2.58681893349,1.5687019825,2.3834810257,-2.55086803436,-0.167386993766,0.528226017952,-0.517509996891,-0.928963005543,-0.0507950000465,0.0726799964905,0.476684004068,-1.01190197468,0.669575989246,2.04224491119,-0.568099021912,1.69628596306,0.644079983234,-1.3272190094,-0.755998015404,0.0239199995995,1.02561295033,-0.916594982147,1.42628097534,-0.114302001894,-1.09185600281,-0.0769499987364,0.156933993101,-2.759567976,0.32309499383,-1.16582500935,0.308063000441,0.931065022945,1.64484596252,-1.01818299294,-0.313383996487,0.829441010952,-1.02109003067,1.40923297405,0.0107589997351,-0.743929982185,1.58135902882,-0.00687099993229,0.496219992638,0.294970989227,-0.580114006996,1.24730801582,0.16482399404,-2.8324201107,-2.68248391151,-0.340782999992,0.111527003348,-1.22633004189,-0.721207022667,-1.72058594227,-0.587580025196,0.447302997112,-3.02866101265,2.18809604645,-1.44568097591,0.390179991722,0.929045975208,1.12976002693,0.0662299990654,-0.653360009193,-0.0801040008664,1.08141100407,2.45656299591,0.0704040005803,0.708298027515,-2.02672290802,-0.61773699522,-0.941561996937,-2.54302310944,1.7059930563,0.749988019466,0.789391994476,-2.20186710358,-0.992626011372,-0.356705993414,-1.1988710165,-0.155992001295,0.778155982494,0.136042997241,1.02354300022,0.391003996134,0.450367003679,0.455379992723,-0.00685400003567,-1.35155105591,-1.85231101513,1.5436270237,-1.0235029459,-1.02440702915,-1.30442500114,0.203139007092,-1.23908400536,-0.316504001617,-0.590174019337,1.33123898506,-1.30481004715,-0.494785010815,-2.10413002968,0.325338989496,-0.327114999294,0.678718984127,1.29269099236,-0.818531990051,-0.57722902298,-0.975718975067,-0.473823010921,-1.84104895592,-0.951117992401,2.53559803963,0.138503998518,0.353875011206,0.318973004818,-0.825444996357,1.61142897606,-0.528271019459,0.152013003826,-0.402534008026,0.10733500123,-2.35540103912,-1.74005305767,1.45838999748,0.552447974682,-0.745907008648,-0.173974007368,-0.78741300106,0.289137989283,1.44880998135,1.35511898994,0.996173024178,0.924515008926,-1.22544896603,2.00497603416,-0.649911999702,-1.65961098671,1.28914701939,0.331835001707,-0.15159599483,-0.958675026894,-0.141911998391,-0.348701000214,-1.57021594048,-0.838141977787,0.846167981625,-0.327657997608,0.649896025658,-2.56881904602,-0.188077002764,-1.76996803284,-2.26689600945,1.33644902706,-1.19589698315,-1.27485001087,-1.55149805546,1.99730801582,-1.57301497459,0.634286999702,-0.307164013386,-0.54387897253,0.467918008566,0.0257360003889,1.5084810257,-0.249283999205,-2.2722389698,1.70656895638,1.08219504356,-0.675953984261,2.13902211189,-1.67171704769,0.783581972122,-0.240817993879,-0.773638010025,2.44632005692,2.29708909988,0.571361005306,-0.126895993948,0.937871992588,-0.770433008671,-1.28128004074,1.86798095703,1.48265504837,0.645736992359,-2.69974303246,-0.188534006476,2.70706701279,-0.138572007418,-2.07960009575,-0.427298992872,-0.662240028381,-0.1396510005,-0.28536298871,-2.02715992928,1.39363503456,1.65049695969,-0.0658790022135,-1.30796802044,-1.70810103416,-0.0225639995188,0.366820007563,0.160209998488,-0.21618899703,-0.970288991928,-1.24033105373,0.759651005268,1.81904995441,-1.63943505287,-0.373369991779,-1.52522802353,-2.56299090385,1.27070105076,2.01581597328,1.51417005062,0.541059970856,-0.962484002113,0.908342003822,-0.727864027023,1.95490598679,-0.627606987953,-0.308317005634,-0.275135993958
方法,1.54761195183,0.990827023983,-0.327183008194,-0.37197598815,0.574606001377,0.293484985828,1.74005103111,-1.73856496811,-0.0923060029745,-1.08626294136,-2.00998902321,0.43620300293,-1.30073702335,-0.680037021637,-1.89868402481,-0.888455986977,-1.55064499378,-1.83553504944,-0.87161898613,-0.49763700366,1.3505179882,1.02813196182,0.977367997169,-0.685593008995,0.981594026089,0.820297002792,-0.019767999649,2.17246794701,-2.09062290192,0.921054005623,0.0531889982522,-1.72384095192,-1.80375099182,-0.0368960015476,1.05803000927,0.513715028763,0.650527000427,1.22783398628,-0.924503982067,0.231599003077,1.83044195175,-2.6031999588,-1.4868940115,-1.67331600189,-0.577297985554,-0.290039002895,0.916206002235,-1.91453301907,-0.3222900033,0.493548989296,-0.826098024845,-2.12019491196,0.119576998055,1.542937994,-1.59610402584,-2.09980797768,0.542051017284,-0.872945010662,-2.17070007324,-0.066049002111,0.592622995377,1.34450495243,-0.589577019215,-0.267865985632,0.706530988216,-1.27283394337,-0.9070789814,-1.12302398682,2.38728499413,0.135851994157,-1.40821802616,-0.114087000489,-0.309055000544,0.962167024612,0.749007999897,-0.971318006516,0.58653897047,0.451445996761,0.850805997849,-0.341628998518,-1.58161902428,-2.21019506454,-0.605367004871,-0.331061005592,-1.52958703041,1.44328403473,0.0525689981878,-1.52260696888,0.904465019703,-0.291063010693,-0.172297000885,0.830762028694,0.145985007286,1.28119003773,-0.951587021351,0.355823993683,-1.0988420248,0.43156298995,0.260545998812,0.507539987564,-0.556213021278,-0.377310991287,-0.335669994354,1.00732302666,-0.170641005039,-1.3868650198,-0.118118003011,0.918187975883,-0.971476018429,-0.142236992717,0.361952990294,-0.883086025715,0.642141997814,0.736922979355,-0.372038006783,2.4302508831,2.32259202003,-0.169682994485,2.13776397705,0.169532001019,1.81692302227,-0.857820987701,1.99147200584,-2.60075306892,-0.121767997742,1.94680595398,-1.22329103947,-0.314671009779,0.665113985538,0.226511999965,1.38485896587,0.885002970695,-1.09799695015,-0.258805006742,1.46639502048,0.149580001831,1.0413210392,0.864571988583,-0.439484000206,-1.37609601021,0.763579010963,-0.30814999342,-1.46359395981,0.272450000048,0.249119997025,-0.522796988487,0.986819982529,-1.36593294144,0.125927999616,-0.716952979565,1.81337594986,0.981096982956,1.33755195141,1.01201295853,0.269383013248,-0.621971011162,0.496942996979,1.27003598213,-0.540296971798,0.657710015774,0.965520977974,-1.52994799614,-1.63346099854,-1.13900303841,-0.340979009867,1.92535495758,-2.30301904678,0.669050991535,-2.27888607979,0.297719985247,-0.0883340016007,-0.803472995758,0.223496004939,1.22509002686,-0.249011993408,-0.475497990847,-0.527503013611,1.61718297005,-1.45383894444,-0.720791995525,-0.20125900209,1.33176398277,0.663972973824,-1.33441197872,-0.281639993191,-0.209653005004,-0.786939024925,-0.477647989988,0.293839007616,-1.04095602036,0.699070990086,-1.11076700687,1.50137996674,1.8093149662,-0.230093002319,0.133323997259,-1.08081698418,-0.737069010735,1.02973401546,0.759046018124,-1.20186305046,-0.468582987785,-2.13765501976,-1.18064403534,-1.27724504471,1.6062489748,0.357784986496,-0.628992974758,0.071465998888,-0.655480980873,-1.00976800919,-0.964860022068,0.0797849968076,-1.9012080431,1.64193201065,1.7102919817,-0.900614023209,0.383547991514,1.33508002758,-1.61486303806,0.595861971378,1.53740799427,0.0717620030046,0.616515994072,0.683772027493,-1.26189398766,-1.46575701237,0.736559987068,0.0272470004857,0.145538002253,-0.368102014065,0.793444991112,1.58785998821,-1.25904095173,0.393613010645,0.627433001995,1.37518894672,0.512313008308,-1.7506300211,-2.25076889992,-0.468176007271,2.17766308784,0.265704989433,-0.0733819976449,-2.29048609734,-1.94903504848,-1.08475804329,-0.355147987604,0.970629990101,-2.08790588379,-0.413760006428,0.33570098877,0.0489999987185,-0.800921976566,-1.18220996857,-0.168350994587,-0.684412002563,-0.794950008392,0.735409021378,2.28644299507,-1.1421649456,0.889887988567,0.668744981289,-1.20581102371,0.873309016228,-0.940289974213,-1.03489005566,0.00443500000983,1.43162500858,0.253740012646,-1.43924701214,1.01075601578,-0.173849999905,1.13378703594,0.18248899281,0.192969992757,-0.471195012331,0.934554994106,0.157490998507,0.700745999813,0.562454998493,-0.541743993759,-0.640058994293,1.39147102833,-1.0099350214,2.17286992073,0.484661012888,0.343795001507,0.182265996933,1.82270395756,0.175562992692,1.14155101776,0.502645015717,0.23024199903,0.866262018681,0.527486026287,2.06319999695,0.970663011074,-0.0840649977326,-0.843645989895,0.133939996362,0.608680009842,-2.18127608299,-0.166582003236,1.08671104908,0.32932600379,-0.267794013023,0.296517014503,-0.664412021637,1.57327699661,-1.22599995136,-1.11412394047,-1.24516499043,-1.86934995651,0.187838003039,-0.787149012089,1.81553697586,1.18633401394,0.724014997482,0.292082995176,-1.32906103134,-0.222615003586,-1.20019102097,0.194634005427,-0.187589004636,1.46550500393,-1.16720199585,0.886389017105,1.51330196857,-1.89611399174,-1.31618404388,1.29877495766,0.75888299942,0.454356014729,0.126384004951,-1.59117805958,0.061005000025,0.986874997616,-0.50569498539,-0.0356089994311,1.1082919836,-0.403710007668,0.985382974148,-0.959599018097,-0.243862003088,1.17414605618,1.11503303051,-0.8060759902,0.898936986923,1.22664499283,0.212603002787,-2.25270795822,1.09353494644,1.29007601738,0.601167023182,-1.58521699905,1.83563494682,0.838518977165,1.48637604713,0.45227599144,-0.140091001987,-0.129343003035,0.561307013035,2.02209591866,-0.292959004641,-1.5379639864,-0.273252010345,-0.0861750021577,0.693979024887,-0.783508002758,1.10660195351,0.758957982063,1.51381003857,0.498144000769,0.777746021748,0.0813810005784,-0.723968982697,-0.374352991581,-2.23366093636,0.248604997993,0.936631977558,0.806483983994,1.06753504276,-1.04903495312,-0.113255999982,-1.26670002937,-0.053072001785,-0.198826998472,-0.183047994971,0.608470976353,-0.615639984608,0.733832001686,-1.13778102398,-0.36121198535,-1.31007504463,-0.667675018311,1.60183000565,-0.779781997204,0.811806976795,0.956007003784
纵向,-2.32801389694,1.22976696491,0.115249998868,-0.329346001148,-0.407027989626,-0.515519976616,0.588454008102,-0.245975002646,1.75405204296,0.0136799998581,-0.837970018387,-0.798376977444,-2.13820791245,-1.07838797569,-0.115281000733,-0.141190007329,-0.310710996389,0.345322012901,-0.241839006543,-0.289234995842,0.366571009159,0.325774997473,-0.69296002388,0.443275004625,1.19297397137,0.55311602354,-0.345340013504,0.0268590003252,-1.1166690588,0.0409010015428,0.0440180003643,0.206396996975,0.6618450284,-0.650377988815,0.622663021088,1.1674489975,-0.247079998255,-1.24250602722,1.23402404785,1.2335100174,0.794067978859,-0.182831004262,-1.50657701492,-0.552056014538,1.17657899857,-0.528668999672,-0.350015997887,-0.122152000666,-0.0930579975247,1.59035599232,1.07214200497,-0.752478003502,0.84265601635,-0.175363004208,-0.520897984505,-0.118777997792,1.25522601604,-1.46667897701,-0.484733998775,-0.296249002218,-0.926622986794,-0.804150998592,0.0525380000472,-1.56091797352,-0.129739001393,0.268310010433,-0.840506017208,0.704227983952,0.763987004757,-0.554513990879,-1.18340194225,0.60452902317,-0.459371000528,1.78426504135,0.835458993912,-0.330085992813,1.53562295437,0.386115014553,0.740037977695,0.356222003698,0.205957993865,-0.702113986015,0.870778024197,1.17202794552,0.958935022354,-0.148204997182,-0.924299001694,-0.125921994448,0.1848089993,-0.609064996243,0.532353997231,1.37460899353,-0.0940700024366,0.895708024502,-0.986935973167,0.995754003525,-0.475306987762,-0.200073003769,-0.248512998223,-0.0182419996709,0.461629986763,-0.864706993103,0.254954010248,0.495974004269,-0.227513998747,-0.292398989201,0.523608028889,-0.792694985867,-0.744220972061,-0.417407989502,-0.913048028946,-1.29857504368,0.226197004318,-0.563637971878,-0.0620799995959,0.985086977482,0.560720026493,-1.12361001968,-0.757681012154,1.15791904926,0.180549994111,0.477295994759,-0.77930098772,-0.512844979763,0.500052988529,-0.0120630003512,-0.956266999245,-2.25404906273,0.442138999701,-0.208286002278,0.429995000362,0.0635719969869,-0.682941973209,0.916760027409,-1.39678394794,0.497272014618,-0.704227983952,0.535601973534,0.713162004948,-0.14390000701,0.347662001848,0.300684005022,-1.45600700378,-0.520946979523,0.149779006839,-0.752959012985,-0.5545129776,0.0889760032296,-1.21713900566,-0.97814899683,0.610976994038,-0.0406190007925,0.386768996716,1.41678905487,0.851046025753,0.255780994892,0.256761997938,-1.41067504883,0.233637005091,0.855790019035,0.155550003052,-0.811200022697,-1.04316401482,-0.484746009111,0.405784010887,-0.707943022251,0.383484005928,-1.25041699409,-1.12538099289,0.69033998251,-0.232488006353,-0.075471997261,0.449667006731,0.871958017349,-0.0524209998548,0.37607601285,0.867766976357,0.642615973949,-0.0211559999734,0.765962004662,-0.324440985918,0.813212990761,0.188302993774,0.807968020439,-0.107233002782,0.112250998616,0.550557017326,0.284981995821,0.492361992598,0.0552960000932,1.0068860054,1.59522199631,1.00042700768,0.0926600024104,-0.291779011488,-0.173142001033,0.64128100872,-0.984071016312,1.16532599926,0.624037981033,0.0104259997606,-0.723357975483,-0.787644028664,-1.14314103127,-0.349786996841,1.06971597672,0.922181010246,-0.155698999763,-0.892340004444,-0.174945995212,0.501187980175,-0.0458449982107,1.54342901707,0.811923027039,1.83471000195,0.0657759979367,0.45448499918,-1.00324296951,-0.0801879987121,-0.648387014866,1.08785295486,0.507440984249,0.394712001085,-0.636425018311,-1.67262399197,-0.729336023331,0.309392005205,-0.659299015999,0.543920993805,0.197462007403,0.365514993668,0.876459002495,-0.194796994328,-0.465323001146,0.293843001127,-0.621809005737,-0.828800976276,0.269351989031,-0.227856993675,0.260215014219,-0.981205999851,0.945743978024,0.374545991421,0.429322004318,-0.511368989944,-1.05330097675,0.716563999653,0.560030996799,-0.547083973885,0.563625991344,-0.847325026989,0.883858978748,0.543914973736,-0.612846970558,0.124113999307,0.968544006348,-0.610939979553,-0.169490993023,1.26973998547,1.13566505909,0.632730007172,-0.0525089986622,-0.204578995705,0.18563400209,0.046767000109,-0.81566798687,-1.25897395611,-0.347083985806,-0.930238008499,-0.914928019047,-0.156608998775,-1.66266703606,-0.219357997179,0.770887970924,-0.792832016945,0.0375350005925,-0.292077988386,-0.867754995823,-0.00502200005576,0.956713974476,-0.0133809996769,-0.021541999653,0.987469017506,0.783291995525,-0.859966993332,-1.32387197018,-0.0514869987965,0.767037987709,-0.886851012707,0.000615999975707,-0.0790710002184,0.926581978798,-0.45900401473,0.0130310002714,0.0165909994394,-0.880644023418,0.363059997559,-0.144290998578,0.780650019646,0.615082025528,0.0853609964252,-0.396600991488,0.330303013325,0.312588989735,0.266402006149,0.98964202404,-1.37163698673,0.461686998606,-1.07926905155,-0.0393770001829,-1.42817401886,-1.07362496853,0.387759000063,-0.936402976513,0.0364839993417,1.52707195282,-0.0658650025725,-0.334975004196,-0.305572986603,-0.555953979492,0.246675997972,-0.892598986626,-1.14797198772,-0.249700993299,0.146983996034,0.926135003567,-0.611577987671,-0.706098973751,0.41313201189,0.479162991047,0.50648099184,0.978803992271,-0.676340997219,-0.106739997864,0.826565980911,-0.758615016937,-0.399076014757,-0.329486995935,-1.11821603775,0.735550999641,-1.27727401257,-0.143814995885,0.215342998505,-0.805947005749,0.943386971951,-0.0263669993728,-0.0220480002463,2.13545489311,-0.589527010918,-0.415740996599,-0.280138999224,0.271661996841,0.717046022415,0.675468027592,-0.694028973579,-0.514563024044,1.55715596676,0.899334013462,0.599377989769,0.646974027157,-0.854166984558,0.0490880012512,0.0103059997782,0.178929999471,0.343304008245,-0.41027700901,-0.23221899569,-0.610511004925,-0.257714986801,0.354550987482,-1.26503098011,0.0485880002379,-0.622260987759,0.244450002909,-0.965735971928,-0.270732998848,-0.514721989632,-0.0541500002146,-1.02145695686,0.659700989723,-0.648169994354,0.893863976002,0.537927985191,-0.0396029986441,0.696852982044,-1.9601650238,1.29527103901,-2.01398706436,-1.60870599747,-0.170423001051,-0.534614026546,0.93710899353,-0.792131006718,0.164067998528,0.316065013409,1.02253496647,0.193441003561,-1.09864997864,2.02097797394,1.04949104786
运输工具,-0.390697002411,0.326541990042,0.472124993801,-0.451404988766,0.500850975513,0.286619991064,-0.0825190022588,-0.414808988571,0.194303005934,0.134218007326,-0.193230003119,0.0288869999349,0.127094998956,-0.0128420004621,-0.370795994997,-0.367918014526,-0.587635993958,-0.560111999512,-0.0668250024319,-0.42742601037,-0.101116001606,-0.23372399807,-0.400642991066,-0.0131470002234,-0.0328570008278,0.0843190029263,-0.0852309986949,-0.0436750017107,-0.488267987967,0.181369006634,-0.312516003847,-0.598769009113,-0.132235005498,-0.391061007977,-0.179256007075,0.0296599995345,0.511367976665,0.10562799871,-0.269100010395,0.465427994728,0.0763550028205,-0.537624001503,-0.538172006607,-0.0424840003252,0.405036985874,0.51674002409,-0.0618349984288,0.333130985498,0.282425999641,0.473969012499,0.991510987282,-0.486173987389,-0.0414399988949,0.433203011751,-0.323776006699,0.0723429992795,-0.0300309993327,0.40887799859,-0.4650169909,-0.146754994988,-0.131662994623,-0.331578999758,-0.227657005191,-0.258166998625,-0.377173990011,-0.137489005923,0.0860069990158,-0.101660996675,-0.280634999275,-0.0646110028028,-0.25908601284,-0.0106319999322,0.444581001997,0.248059004545,0.247031003237,0.140939995646,0.433872014284,-0.00251200003549,0.288266986609,-0.167002007365,0.186281993985,-0.316179007292,0.0746600031853,0.298523008823,-0.219083994627,0.555474996567,0.069059997797,0.630946993828,-0.0475779995322,-0.35045799613,0.486800998449,-0.167328998446,-0.26224398613,0.340732008219,0.0834560021758,-0.00495199998841,-0.63945800066,-0.352708011866,0.332601010799,0.229121997952,0.285842001438,0.986263990402,-0.287458002567,0.286729007959,-0.989089012146,-0.651077985764,0.480892002583,-0.74920797348,-0.0707850009203,0.535794019699,0.398077994585,-0.0983600020409,-0.919436991215,0.379878014326,0.398633003235,-0.229651004076,0.240500003099,-0.149929001927,-0.0553889982402,-0.559325993061,0.591350972652,-0.160953998566,0.0925809964538,-0.473686009645,0.0301140006632,-0.154940992594,-0.815024018288,-0.00847299955785,-0.267453014851,0.099499002099,-0.288132995367,-0.399843990803,-0.3842009902,0.182563006878,-0.405476003885,-0.366537988186,-0.18312600255,-0.14255900681,0.362116008997,-0.189064994454,0.521238982677,-0.373109012842,-0.415803998709,0.715801000595,0.129410997033,-0.22477799654,-0.0559489987791,-0.0225510001183,0.80834197998,-0.772439002991,0.765578985214,-0.37802401185,-0.424638003111,0.0291140004992,0.543667018414,-0.180785000324,0.283461004496,-0.318825989962,0.132088005543,0.17525100708,0.225278005004,-0.257046997547,-0.294539004564,0.0203629992902,0.470389008522,0.304260998964,-0.849161982536,0.0507749989629,-0.107207998633,-0.106986999512,-0.53054100275,-0.255872011185,0.17184600234,0.601089000702,0.416952997446,0.0769219994545,-0.00752199999988,0.0104830004275,0.150080993772,0.0392399989069,0.0199059993029,-0.01485699974,0.357742011547,-0.1529610008,0.543789029121,0.00896499957889,-0.0385829992592,-0.557525992393,0.307925999165,-0.179894000292,-0.414490997791,-0.184729993343,-0.532275021076,-0.138071000576,-0.479981988668,0.28971400857,0.443349003792,-0.315923988819,-0.0432580001652,-0.238938003778,0.51303601265,-0.47737300396,0.138727992773,-0.288897007704,-0.0661540031433,0.546786010265,-0.438356995583,-0.283230006695,-0.0422799997032,-0.117100000381,-0.176751002669,0.0123619996011,0.0128779998049,-0.758602023125,-0.554289996624,0.35378998518,-0.728004992008,0.314301013947,-0.128512993455,-0.27855399251,0.304542005062,0.0167309995741,0.191916003823,-0.151973992586,0.0638879984617,0.171772003174,-0.232636004686,0.208606004715,0.450280994177,-0.0109900003299,-0.309816986322,-0.605908989906,-0.0336330011487,-0.564684987068,0.697820007801,-0.173024997115,0.125330001116,-0.452850013971,-0.0729940012097,0.17070800066,0.167318999767,0.0157999992371,0.286664009094,-0.0499969981611,-0.137247994542,0.342128992081,-0.121730998158,-0.240501999855,0.486694008112,0.0591650009155,-0.41493999958,0.250541001558,-0.0427980013192,0.145316004753,0.309487998486,-0.244521006942,-0.0231059994549,-0.121783003211,0.486499011517,0.177814006805,0.121821001172,0.769375026226,-0.121288001537,0.131623998284,-0.520062029362,-0.464264988899,0.171298995614,-0.184495002031,-0.397504985332,0.153940007091,-0.82339900732,-0.26550000906,-0.0711629986763,0.0519040003419,-0.0299660004675,0.22701600194,0.223694995046,-0.216406002641,-0.100084997714,0.369938999414,0.106372997165,0.338165998459,0.199855998158,0.256933003664,-0.747677028179,-0.0393260009587,0.586386978626,-0.207191005349,0.273122012615,-0.320957988501,-0.0390969999135,0.151975005865,-0.0754069983959,-0.786278009415,0.763903021812,-0.229258999228,0.117089003325,-0.682506978512,-0.0523170009255,-0.150378003716,-0.355563014746,-0.128815993667,0.00664199981838,0.0808259993792,0.492704987526,-0.0943740010262,-0.746333003044,0.112461000681,-0.0391069985926,0.0973329991102,-0.627710998058,0.22030299902,0.234955996275,-0.574033975601,-0.0590169988573,-0.287387996912,0.122069001198,-0.788639008999,0.173984006047,-0.237829998136,-0.122509002686,0.608687996864,-0.546495974064,0.512531995773,-0.0181060004979,-0.0959710031748,-0.653672993183,-0.477387011051,-0.0577899999917,-0.343122005463,0.349862992764,0.0969270020723,-0.597545027733,-0.740531980991,-0.120773002505,-0.132726997137,0.255232989788,0.000555999984499,-0.835421979427,-0.607662022114,-0.279700011015,-0.382355004549,0.298083007336,-0.0427829995751,0.226334005594,0.472784012556,-0.0791300013661,0.102205999196,-0.202653005719,-0.654093980789,0.321215987206,-0.0661510005593,-0.318071991205,0.164046004415,-0.0432440005243,0.141222000122,0.391052007675,-0.0253819990903,0.594323992729,0.971069991589,-0.347317993641,-0.0689280033112,0.0340190008283,-0.0207749996334,-0.323559999466,0.168863996863,-0.13152000308,-0.162487998605,-0.441457003355,0.126389995217,0.0981160029769,0.635824024677,0.415371000767,-0.468917995691,0.00956599973142,-0.204726994038,-0.289476007223,-0.415271997452,-0.627794027328,0.158142998815,-0.203180998564,0.166189998388,0.516816973686,0.230116993189,0.111286997795,-0.506969988346,-0.561451017857,-0.165564000607,-0.684132993221,0.580721974373,0.219668999314,0.434172004461,0.299962997437,-0.312117010355,-0.0167270004749,-0.264894008636,-0.199971005321,-0.359995990992,-0.517064988613,0.0611440017819
货物,-0.365978986025,0.612365007401,-0.991443991661,1.29394495487,-0.378818005323,-1.54507803917,0.785771012306,-0.766928017139,1.76441299915,0.276966005564,0.0480259992182,1.2362190485,-1.59795701504,1.37163698673,0.726970016956,0.771526992321,-0.392906010151,-1.28688395023,-0.302659004927,-1.61371302605,0.305646002293,-0.763589024544,-0.156047999859,-1.24737596512,1.66645395756,2.71099996567,0.348753005266,2.19631910324,0.381740987301,2.80435609818,0.886485993862,0.0299350004643,-0.463241010904,0.296402007341,0.41656601429,0.259716004133,1.38069701195,0.884853005409,0.215272992849,-0.30545899272,-1.93793296814,-1.62567794323,-0.438939988613,0.447003990412,2.69554400444,1.68846797943,1.13612103462,0.629355013371,0.339803010225,0.95978397131,2.68359303474,-2.09544110298,0.395283997059,-1.26639795303,0.273809999228,1.58645904064,0.236385002732,-0.0832839980721,0.461876988411,0.755208015442,1.12503504753,0.348085999489,-0.479366987944,-1.14077198505,-1.80018603802,-0.0586219988763,-1.10647904873,0.53923201561,-1.00530099869,-2.17531394958,-0.842194974422,0.546774029732,-0.373878985643,0.935184001923,1.55343997478,0.544745028019,0.778831005096,0.873597979546,0.375373005867,0.777760982513,0.66875898838,-1.76595699787,-0.355298012495,0.289923995733,-0.52630597353,0.537355005741,-0.79278999567,-0.457195997238,0.359546989202,-0.973830997944,1.08614695072,0.219619005919,-0.519147992134,0.428631007671,1.04485201836,-0.964707016945,0.0389610007405,0.41464099288,-0.0660080015659,-0.217869997025,0.874244987965,-1.18402695656,-2.06126499176,1.27976799011,-0.795098006725,-1.4973269701,0.2120950073,-2.04580688477,-1.70535194874,1.87238895893,1.50165200233,-1.21736598015,-0.832805991173,-1.38416600227,0.0350309982896,0.659361004829,-0.230942994356,-1.04204905033,0.299353986979,-1.20679700375,-1.46870195866,-1.20340204239,-0.651989996433,-1.63985800743,-0.025374000892,-1.86594903469,-0.322890013456,-2.89183092117,1.1739449501,0.107222996652,-0.809884011745,-1.12269198895,-1.69727301598,-0.451420009136,-0.362080991268,-1.28512501717,-0.512678980827,0.770847022533,-1.16989505291,1.47352695465,0.630385994911,0.263906002045,1.4588830471,-1.50967204571,1.92816603184,-0.428858995438,-1.14643800259,-0.102424003184,-0.787563025951,-0.660970985889,1.18474400043,0.058109998703,-0.826483011246,-0.543555021286,0.123905003071,0.579095005989,-0.484620004892,1.37564599514,-0.307610988617,-0.649662971497,-0.587009012699,-0.455978006124,-1.93348896503,-1.54618704319,-0.12730500102,-0.0259230006486,-1.30927097797,-0.071290999651,-1.94672095776,0.0915450006723,-1.015411973,-0.655035018921,1.01726400852,2.43131399155,0.590479016304,2.11041092873,1.19927096367,-0.357284009457,0.750006020069,-0.196746006608,-1.18722105026,0.174281001091,1.17401397228,-0.104846999049,1.70093202591,2.31221199036,0.437891989946,0.608138024807,2.49820590019,-1.66244101524,-0.272439986467,-1.16922104359,-3.11156105995,0.126891002059,2.47353005409,0.433113008738,0.746747016907,-3.41858100891,0.374514013529,-0.923618018627,1.55484199524,-0.882157981396,-0.940150022507,0.808371007442,0.794605970383,0.827277004719,0.218999996781,1.8006670475,0.60121101141,-0.954549014568,-1.60145103931,1.0749130249,-1.15033102036,0.751520991325,-1.38216805458,1.67631196976,-1.17614901066,0.98004502058,0.677186012268,-0.244229003787,1.15981996059,-0.75007802248,0.151159003377,0.110500000417,1.26154005527,0.573921024799,-0.603511989117,0.91945797205,1.67873299122,-0.501411020756,-0.698482990265,-0.490348011255,0.457331001759,-0.392845988274,0.859353005886,-0.589834988117,0.486427009106,1.46178805828,-2.35040092468,0.945290982723,0.901400983334,1.39439702034,0.473776012659,1.01180398464,0.351089000702,1.81537795067,0.237219005823,-1.28877604008,-1.44579195976,-0.293924987316,0.794158995152,2.30494403839,0.111466996372,0.0456579998136,1.04070401192,-0.65035700798,-0.430693000555,-0.553682029247,0.708081007004,-0.198565006256,-0.524884998798,-0.203987002373,-0.765196979046,-2.02641797066,-1.40629994869,-1.0735989809,-1.29142594337,-1.76223099232,1.23805904388,-0.863143980503,-0.359573990107,1.93350601196,-0.847599983215,-0.318847000599,0.0551900006831,0.402334004641,-0.930510997772,1.00179100037,1.02648198605,0.726284980774,0.511146008968,1.29607605934,-1.19091999531,0.865951001644,-1.79270803928,-0.26844099164,0.55075699091,0.575681984425,0.777351975441,0.174770995975,1.37087202072,-1.73579597473,0.517482995987,-0.972139000893,2.254570961,-0.00632000016049,0.752413988113,1.43501102924,-0.195619001985,-0.42488399148,-0.407876998186,0.259380012751,-0.239542007446,0.640618979931,0.846363008022,-0.879055023193,-1.1853300333,-1.17032694817,-1.3145339489,0.469305992126,-2.14068603516,1.30730199814,1.30213201046,-1.72944498062,-0.611167013645,-1.95909202099,0.279947012663,0.545535981655,1.13894200325,-0.356240004301,-0.0217640008777,1.4055980444,-1.57769203186,1.73795604706,0.666334986687,-0.970209002495,0.558531999588,-1.48352098465,-0.776067972183,-3.21718502045,1.91178202629,-1.02130794525,-1.1887550354,-2.01878499985,0.922053992748,-0.192727997899,-0.0149929998443,2.16048789024,0.547959029675,-1.07656598091,0.344817012548,-0.43139898777,0.988444983959,-1.21560704708,-0.366313010454,-2.50853204727,-0.469756007195,0.419669002295,0.228729993105,-1.99771499634,-1.56905794144,-0.346293002367,-0.241909995675,-0.972054004669,-0.516233026981,-0.230351001024,0.530647993088,0.929786980152,0.720395982265,1.16575801373,-1.44398200512,-1.46639204025,-1.19458603859,0.719325006008,0.458292007446,-1.24695205688,1.24104404449,-1.15537798405,-2.16619491577,0.329459011555,-0.575161993504,-0.386656999588,-0.322654992342,-0.238848999143,0.428057998419,-1.56743705273,-2.18153095245,-0.694218993187,-0.736090004444,0.946308016777,-0.418417006731,0.908667981625,0.0283649992198,-1.6059230566,0.561383008957,-1.477470994,-1.084602952,-1.31824600697,-1.42932200432,0.995680987835,-0.178761005402,1.13503396511,0.829748988152,-1.77775394917,0.813750982285,-2.23196196556,-0.329272001982,-0.707606971264,0.785794973373,-0.0228649992496
