word,0,1,2,3,4,5,6,7,8,9,10,11,12,13,14,15,16,17,18,19,20,21,22,23,24,25,26,27,28,29,30,31,32,33,34,35,36,37,38,39,40,41,42,43,44,45,46,47,48,49,50,51,52,53,54,55,56,57,58,59,60,61,62,63,64,65,66,67,68,69,70,71,72,73,74,75,76,77,78,79,80,81,82,83,84,85,86,87,88,89,90,91,92,93,94,95,96,97,98,99,100,101,102,103,104,105,106,107,108,109,110,111,112,113,114,115,116,117,118,119,120,121,122,123,124,125,126,127,128,129,130,131,132,133,134,135,136,137,138,139,140,141,142,143,144,145,146,147,148,149,150,151,152,153,154,155,156,157,158,159,160,161,162,163,164,165,166,167,168,169,170,171,172,173,174,175,176,177,178,179,180,181,182,183,184,185,186,187,188,189,190,191,192,193,194,195,196,197,198,199,200,201,202,203,204,205,206,207,208,209,210,211,212,213,214,215,216,217,218,219,220,221,222,223,224,225,226,227,228,229,230,231,232,233,234,235,236,237,238,239,240,241,242,243,244,245,246,247,248,249,250,251,252,253,254,255,256,257,258,259,260,261,262,263,264,265,266,267,268,269,270,271,272,273,274,275,276,277,278,279,280,281,282,283,284,285,286,287,288,289,290,291,292,293,294,295,296,297,298,299,300,301,302,303,304,305,306,307,308,309,310,311,312,313,314,315,316,317,318,319,320,321,322,323,324,325,326,327,328,329,330,331,332,333,334,335,336,337,338,339,340,341,342,343,344,345,346,347,348,349,350,351,352,353,354,355,356,357,358,359,360,361,362,363,364,365,366,367,368,369,370,371,372,373,374,375,376,377,378,379,380,381,382,383,384,385,386,387,388,389,390,391,392,393,394,395,396,397,398,399
分析,0.553550004959,-0.408333003521,-1.07037603855,0.427219003439,2.05297589302,0.481065988541,2.04545497894,-0.628785014153,-1.41904997826,0.210022002459,-1.8704969883,0.916163980961,0.521700978279,-1.12656795979,-0.160384997725,-0.888229012489,-0.146620005369,-1.62019205093,-1.89972400665,-0.165224000812,0.959622979164,0.0326669998467,-0.908717989922,-0.915476977825,-0.263042002916,0.771363973618,1.57096302509,1.19768297672,-0.200249999762,-0.153178006411,0.869781970978,0.471805989742,-1.23969197273,-2.67781305313,0.565109014511,-0.652733981609,1.03217601776,-0.0920009985566,0.140499994159,1.39335405827,3.03971409798,0.322156012058,0.227937996387,0.666266977787,0.0806419998407,0.722841978073,1.23111402988,-0.249071002007,0.490740001202,-1.36898100376,0.737662017345,0.0538089983165,2.42253303528,0.824459016323,-0.462080001831,-0.870840013027,-0.820555984974,0.22267100215,-0.0972969979048,-0.900574982166,-1.28462696075,1.09984898567,0.6303820014,-0.224096000195,0.407402008772,-1.37819600105,-2.79959893227,-0.830226004124,-0.65022701025,-1.52214097977,0.767077028751,-0.111947998405,0.774411022663,0.0423300005496,0.552402019501,-0.207365006208,0.95752799511,-0.272114992142,-0.198707997799,0.126412004232,-1.44991803169,-1.63250696659,0.434810012579,-0.984229028225,0.211848005652,0.569617986679,0.0979219973087,-2.48499798775,-0.674709022045,-0.590206027031,0.118285000324,-2.0543820858,-0.458995014429,-0.498614996672,0.893669009209,-1.15420401096,-0.432880997658,0.720058977604,-1.10018897057,0.644164025784,0.682484984398,0.230619996786,0.814767003059,2.17622590065,0.574397981167,-0.86749702692,-0.306511998177,0.0463839992881,-0.30314001441,-0.89358997345,-0.979911983013,-1.06996798515,-0.553458988667,-0.0912939980626,0.429569989443,1.10283005238,1.87159097195,-0.534189999104,-0.452845990658,-1.06410002708,-0.321655988693,-0.123194001615,0.913299977779,-1.75372004509,-1.47308695316,1.84799301624,-1.91266596317,0.0861010029912,-0.640743017197,0.616589009762,2.01273989677,-0.513606011868,-0.994603991508,0.670589029789,0.793218016624,0.573992013931,1.92109203339,-0.273407012224,1.12036395073,0.581075012684,1.24170303345,0.0219310000539,-0.795678019524,-1.18355500698,-0.895949006081,0.382171988487,-0.784482002258,0.547114014626,-0.921636998653,-1.73159897327,0.454079002142,1.40711903572,0.738112986088,1.16832995415,0.315448999405,1.88380205631,0.295969009399,0.850605010986,-0.891674995422,0.595812022686,0.595830023289,-0.800575971603,0.475012987852,-2.04596996307,0.543659985065,0.931297004223,-0.163316994905,-0.160091996193,-0.335267990828,0.535327017307,0.841425001621,0.566838979721,0.168989002705,-0.872757017612,1.14888799191,0.380290985107,1.37974798679,2.59909009933,-1.69479000568,0.329263985157,-0.808129012585,0.161700993776,1.11593401432,0.0696230009198,0.201468005776,1.46553897858,0.861081004143,0.021740000695,-0.694235026836,1.89381897449,0.316565990448,-1.28161096573,1.36197602749,2.1040520668,-1.20983397961,-0.13787099719,0.00756799988449,0.278564989567,0.517123997211,0.469992011786,0.213935002685,0.826265990734,-2.46021103859,0.522243022919,0.0631309971213,0.666898012161,0.286440014839,0.886157989502,-0.803272008896,1.43615305424,-1.68850898743,1.49444794655,2.13898396492,-0.680404007435,1.45733201504,0.105397000909,0.0183799993247,-0.410984992981,0.256518989801,0.472535014153,0.521901011467,1.40672600269,0.53681999445,-0.223296001554,0.537874996662,-1.27973294258,-1.23436999321,0.260228008032,0.704380989075,-1.12011301517,-1.08549702168,-0.271084994078,0.603807985783,-2.03149199486,1.43700897694,-0.540565013885,0.267444998026,-0.598963022232,0.640197992325,-1.47189605236,0.142629995942,1.81897604465,-0.13656899333,1.06900298595,-0.469469994307,-1.65901601315,0.227816000581,-0.15307700634,0.520088970661,-0.408407002687,0.585430026054,-1.54300498962,0.0806519985199,-1.8510440588,-0.704232990742,0.113789997995,-0.241248995066,-0.955801010132,0.846908986568,1.87213599682,0.521791994572,-1.09437894821,-0.356321007013,0.116851001978,-1.05299198627,0.549670994282,-1.25213205814,1.01254594326,0.267239004374,-0.328009992838,-0.845073997974,0.607590973377,-0.733439028263,1.62450695038,0.725749015808,1.99937403202,-0.123359002173,-1.19772994518,0.855057001114,0.402480006218,-0.768764019012,-0.659654974937,-1.64035105705,-1.05928397179,0.82496201992,1.04354000092,0.264268010855,-0.877560973167,-1.63457405567,-0.686426997185,-0.133463993669,1.94597303867,-1.08340895176,-0.196355998516,0.507513999939,1.19420897961,0.157101005316,1.33713698387,-1.24195098877,-0.527058005333,0.690361022949,0.948625028133,-0.285207986832,0.885015010834,-0.376417011023,0.355302989483,0.0982609987259,-0.756726026535,-1.0510519743,-0.838437020779,-0.530875980854,0.423741012812,-0.352039009333,-0.954338014126,0.63201802969,-0.47785499692,0.516449987888,0.237749993801,0.74067902565,-1.27012503147,-0.138802006841,-0.32391500473,-0.241280004382,0.293675005436,-1.86628198624,-0.133885994554,-0.831359028816,-1.72868001461,0.808826982975,0.00442699994892,-2.02877306938,0.783658027649,-2.26314496994,0.326007008553,0.850084006786,-0.833378016949,0.308099985123,0.842329978943,-0.803807020187,-2.06159090996,0.643940985203,-0.539349019527,-0.300002008677,-0.642134010792,1.06069505215,0.43794798851,-0.446653991938,1.71870005131,0.18621699512,-0.654679000378,0.455527991056,-2.25809001923,1.4361499548,-0.275388985872,0.672405004501,-1.8827290535,0.65228497982,0.132695004344,-1.06819295883,1.40440905094,-0.441924005747,-1.15206801891,-0.14947900176,0.371650010347,-1.25345599651,-0.608992993832,-2.30707597733,0.872340977192,0.32487899065,-0.428467005491,-0.2834199965,-2.10727906227,0.00152000004891,0.847886025906,-1.51479494572,0.301438987255,-2.21349811554,-1.28410303593,-0.492559999228,1.09881603718,1.16010797024,0.616743981838,0.533665001392,-0.514133989811,0.567584991455,-1.1532779932,-0.834430992603,0.755231022835,-0.921612024307,-0.302213013172,-0.166871994734,1.1368470192,0.645375013351,0.580430984497,0.348704010248,-0.545026004314,-0.373304992914,-2.00982308388,-0.329129993916,1.41510796547
控制,0.345604985952,1.04134297371,0.36560100317,1.27532601357,0.755509018898,0.0652529969811,3.40584993362,-1.94924402237,2.29940009117,-1.81378996372,-0.536315977573,-0.846255004406,-0.451680988073,0.729696989059,1.27012395859,-1.63223397732,-1.02743804455,0.153926998377,-1.31453597546,-0.508243024349,-0.835780978203,0.984863996506,-1.78775703907,-1.40846097469,0.413619011641,1.66772997379,-0.697995007038,1.97853195667,-0.534842014313,1.29988503456,-0.413439005613,-0.95842397213,-0.111473999918,1.56417894363,0.102316997945,0.260488986969,0.0424229986966,-1.41774404049,-0.407476991415,0.270581007004,0.834761977196,0.372765004635,-0.589972019196,-1.63376498222,-0.650448024273,2.06843400002,0.835117995739,0.0876300036907,-0.0957259982824,-0.015072000213,-0.0871340036392,0.404009997845,-0.5107640028,0.817432999611,0.271591991186,0.136776000261,-1.16847097874,-1.4452290535,1.26580798626,1.54192495346,-0.620396018028,-0.792500972748,0.172762006521,-1.63912498951,0.53701800108,-0.380172014236,-0.346756011248,0.239673003554,-0.101925000548,0.888244986534,0.217051997781,1.12452197075,0.112093999982,-0.0403800010681,-0.430941998959,1.77414596081,1.64364504814,-2.71538996696,-0.931652009487,0.315459996462,0.907114028931,0.415295988321,0.715067028999,0.14284799993,0.132079005241,0.562088012695,1.26757001877,2.32600498199,1.18108999729,0.609023988247,0.819216012955,-1.00490295887,-0.159495994449,0.261308014393,0.918081998825,-0.999364972115,-0.564211010933,1.66471004486,-0.093135997653,-0.944495022297,0.811164975166,-1.29382801056,-1.55620598793,0.655844986439,-2.59373998642,-1.53340196609,-1.17677497864,-0.943996012211,0.645874977112,-1.78607499599,0.80257999897,-3.03844594955,-1.28415501118,0.799709022045,1.19213402271,-0.254640996456,1.88562405109,1.26632797718,-0.299814999104,0.932470023632,-1.74113595486,0.368447005749,1.83333599567,-1.41544997692,-0.764805972576,0.749558985233,-1.10601699352,-2.28707909584,-0.379642009735,-0.28482401371,-0.212704002857,-0.590804994106,-1.65364694595,1.16831099987,0.765761017799,1.20459198952,-1.0251480341,0.325242012739,1.06679701805,0.893993973732,-1.16209602356,2.33443498611,0.314799010754,-2.38077402115,0.715153992176,-1.4464520216,0.890881001949,0.292145013809,-0.753316998482,-1.45211696625,1.72512495518,-0.218722999096,-1.25304400921,0.999346017838,1.28568804264,-0.389310985804,0.416364014149,0.646677017212,-0.138835996389,1.05760002136,-1.38683497906,0.206862002611,-1.63529896736,-0.060056000948,-1.86863303185,0.901247024536,1.53492605686,-0.330383002758,-0.388983011246,1.43739104271,2.18785095215,-0.303339987993,0.550508022308,1.2121629715,0.694384992123,0.443450003862,0.216407001019,0.235375002027,-0.414415985346,0.740963995457,-0.302915006876,1.38105905056,0.57858902216,-1.37833797932,-2.259360075,0.658357977867,0.879891991615,0.0714209973812,1.20101201534,0.932179987431,-0.463452011347,-0.00461299996823,1.58623695374,0.0115809999406,-0.984076023102,-1.61346399784,0.001719999942,-1.95019102097,1.91814005375,-0.351931005716,0.848612010479,-0.199448004365,-2.45056891441,0.574141025543,-1.12775397301,-0.497942000628,-0.520085990429,0.740019977093,-0.828233003616,1.66421294212,-0.828018009663,-0.972998976707,2.43822193146,-1.29460394382,1.11772298813,0.981590986252,-0.630720973015,0.0371420010924,0.395974993706,-1.59338998795,2.26238894463,1.05570399761,2.09908008575,0.754010021687,1.77013802528,-0.217610999942,1.05524194241,-0.813903987408,-1.25270795822,-0.273925989866,-0.836811006069,-0.725911974907,0.0733750015497,-1.72741794586,0.710722982883,-0.0423149988055,0.933838009834,0.450237989426,0.703076004982,0.343560010195,1.01393294334,-0.453097999096,0.676666975021,-0.34566500783,-1.06218898296,0.670113027096,1.1044549942,0.668998003006,1.01270699501,1.31132805347,-1.78776896,2.30310702324,-0.276488989592,-0.513239979744,-2.13756108284,1.1520229578,0.654421985149,0.248113006353,0.132694005966,2.94511890411,-0.157132998109,0.483491003513,-1.10619795322,-0.0435639992356,-0.895757973194,0.382412999868,0.917473018169,0.469889998436,0.657666027546,0.541833996773,-1.07172203064,0.0357440002263,-0.434659004211,0.471486985683,-0.50245398283,1.28274095058,-0.476915001869,-0.882416009903,-0.271748006344,0.945367991924,-0.534839987755,0.349839985371,0.632116019726,0.388141989708,-1.27760899067,0.515582025051,1.46312499046,-0.447207987309,0.209829002619,-0.564593017101,-0.531790971756,0.577243983746,-1.08378696442,-2.66056394577,1.04466199875,1.90866994858,0.480497986078,1.9412779808,-0.374803006649,0.415407001972,0.0705519989133,0.877170979977,0.461082994938,0.274670988321,-0.464551985264,-1.12825095654,-0.0648489966989,0.160328999162,-1.37140202522,0.28313100338,-1.24293398857,-1.12333798409,0.88383102417,-1.00134301186,0.47452300787,-1.96262395382,-0.48530998826,-0.146149992943,1.01842701435,-0.822115004063,-0.304040014744,0.533490002155,-1.08287894726,2.3508849144,0.0416550002992,1.13085901737,-0.469312012196,-2.75041604042,0.561320006847,-0.521842002869,-0.464751005173,1.05195999146,0.0276590008289,-0.942736983299,2.73641300201,-0.465685993433,1.04988503456,0.327316999435,-1.98631000519,0.0555090010166,-1.62166905403,0.835039973259,-0.34699100256,-0.132636994123,0.525622010231,-1.23103797436,-0.512694001198,0.232936993241,-0.606809020042,-1.75456905365,-0.861948013306,0.548538982868,2.73950600624,0.262441009283,1.10501897335,-0.944737017155,-0.646673977375,1.54407298565,-1.3804910183,1.48536396027,-1.02296102047,-1.20867705345,-0.517633974552,0.198952004313,-0.427152991295,-1.32764101028,-1.45705997944,0.215110003948,0.789901971817,-0.782593011856,-0.012761999853,0.420657992363,0.261135995388,-0.0476940013468,-1.24024498463,0.0545249991119,0.188791006804,-2.11883997917,-1.21197998524,-1.3135279417,0.609218001366,0.604104995728,0.0636999979615,0.545076012611,0.48547399044,-0.851635992527,-1.3634159565,1.02166795731,-2.56673693657,0.127837002277,0.444431006908,3.55977988243,-0.547309994698,-0.112415000796,0.00014899999951,-0.970112025738,2.20011711121,1.0871809721,0.532052993774,-0.0535060018301
储能,-0.0909179970622,0.390610992908,0.0404039993882,-0.229699999094,0.18780399859,0.269185006618,-0.0296890009195,-0.274159014225,0.119709998369,0.144079998136,-0.54423302412,-0.125700995326,-0.0314810015261,0.204619005322,-0.149306997657,-0.160892993212,-0.0744019970298,-0.222715005279,-0.218088999391,-0.0955540016294,-0.0846289992332,-0.071239002049,-0.0419350005686,0.156071007252,0.0213389992714,0.0580540001392,-0.355342000723,0.310265004635,-0.226833999157,0.187215998769,0.0307439994067,-0.088319003582,0.0483650006354,0.0568769983947,0.182044997811,-0.00217600003816,0.0243790000677,0.0587709993124,0.184020996094,0.12228500098,0.386067003012,-0.0974799990654,-0.388469010592,-0.0303360000253,0.277276009321,0.0184080004692,-0.0384769998491,-0.217464998364,0.17983199656,0.266384005547,0.186945006251,-0.193009003997,0.161402001977,0.359174013138,-0.172407999635,0.130210995674,-0.153359994292,0.000338999991072,-0.119957998395,0.209759995341,-0.115685001016,0.216343998909,-0.250957995653,0.0384970009327,-0.280202001333,0.0831689983606,-0.241375997663,0.13521400094,0.0565520003438,-0.161651998758,-0.326350986958,-0.181428998709,0.0651710033417,0.147512003779,-0.19662900269,0.392989993095,0.247462004423,-0.378715991974,0.145137995481,0.0688140019774,-0.0517969988286,0.202601999044,-0.121582001448,0.138717994094,0.266205012798,-0.309841006994,-0.0473669990897,0.0429119989276,-0.0659990012646,-0.0360050015152,0.159905001521,0.143650993705,0.0729880034924,0.0266249999404,-0.21024300158,0.0906609967351,-0.173712000251,0.0105290003121,-0.279260009527,0.114263996482,0.0752149969339,-0.0129509996623,-0.111795000732,0.162452995777,0.142123997211,-0.121321000159,-0.117298997939,-0.103621996939,0.199204996228,-0.122809000313,0.0945990011096,-0.487291991711,-0.470032006502,-0.106472998857,-0.0631819963455,-0.115535996854,0.279951989651,0.130144000053,-0.00907899998128,0.0301539991051,-0.124885998666,-0.289503991604,0.0767010003328,-0.226575002074,0.0912249982357,0.134632006288,-0.136419996619,0.0562539994717,0.111844003201,0.290473014116,-0.12448400259,-0.335287004709,-0.223747000098,0.0912650004029,0.0306320004165,0.130765005946,-0.00771800009534,0.129865005612,0.135204002261,-0.28763499856,0.113434001803,0.104809001088,-0.167598992586,-0.13283200562,0.196584001184,-0.156117007136,-0.228956997395,0.120067998767,0.0678009986877,-0.418608993292,0.172977998853,-0.0802029967308,-0.0222169999033,-0.332836985588,0.145366996527,-0.0942289978266,0.348394006491,-0.132660001516,-0.012866999954,-0.125146001577,0.0813509970903,-0.101058997214,-0.296674013138,-0.0120029998943,0.444813996553,-0.302895992994,0.106215000153,-0.187399998307,-0.494585007429,-0.421099990606,0.0594049990177,-0.257515996695,-0.199072003365,-0.261139005423,-0.0406600013375,0.180326998234,0.163517996669,0.0994480028749,0.0961100012064,0.104374997318,-0.369760006666,0.253695994616,-0.255380004644,0.0152279995382,-0.217601001263,0.0824180021882,-0.180552005768,-0.125456005335,-0.0967160016298,-0.0722979977727,0.0476399995387,0.0363660007715,-0.0815970003605,0.326207995415,-0.00155799998902,0.0537250004709,0.325729012489,0.0927110016346,0.0645349994302,-0.0361439995468,0.0912770032883,0.0451619997621,-0.120587997139,0.0540260002017,-0.224010005593,0.336733013391,0.214412003756,0.253562986851,0.147686004639,0.467822998762,0.153259992599,-0.426539003849,0.439859986305,0.104157999158,-0.000784999981988,0.118449002504,-0.00284700002521,-0.189383998513,-0.128282994032,-0.300621002913,-0.100115001202,-0.0216099992394,0.202511996031,-0.117439001799,0.070624999702,-0.215827003121,0.01938899979,-0.0315049998462,0.155756995082,-0.236506000161,0.361613988876,-0.0423589982092,0.175141006708,-0.127582997084,0.232617005706,0.0237780008465,-0.289936006069,-0.116962000728,0.172405004501,-0.0208260007203,-0.35710901022,0.296265989542,-0.0165899991989,0.157443001866,-0.325289011002,-0.0577359981835,0.0798910036683,0.174520000815,0.0540760010481,-0.148689001799,-0.095689997077,0.248590007424,0.307633012533,0.268577992916,-0.186129003763,0.0052990000695,-0.0782030001283,0.187778994441,0.171625003219,0.372496008873,-0.190537005663,0.14695699513,0.0264860000461,-0.0822150036693,0.104736998677,-0.345555990934,-0.129259005189,0.0543450005352,-0.24402500689,-0.0185320004821,-0.0537390001118,-0.316453009844,-0.298292994499,0.0924049988389,0.258498996496,-0.0639609992504,-0.549211978912,-0.256907999516,0.073786996305,0.298083007336,-0.0189159996808,0.11269299686,0.178748995066,-0.057162001729,-0.10609100014,0.0705159977078,0.0297219995409,-0.218447998166,-0.228057995439,-0.0913619995117,-0.298373997211,0.0766500011086,-0.18073900044,-0.253331005573,0.102296002209,0.167859002948,-0.00270899990574,-0.0319369994104,0.0349490009248,-0.0472569987178,-0.202669993043,0.0854619964957,0.185831993818,-0.0206840001047,0.167023003101,-0.179542005062,-0.220422998071,0.0284540001303,-0.121436998248,0.0677300021052,-0.200878992677,0.0515890009701,0.018443999812,0.078180000186,0.0684690028429,0.084022000432,-0.310851991177,-0.139762997627,0.289023995399,-0.045924000442,-0.109434001148,-0.294586002827,0.0453730002046,-0.129437997937,0.232913002372,0.307824999094,-0.00637600012124,-0.0368320010602,0.0752379968762,0.516278028488,-0.0102540003136,-0.256958007812,-0.163294002414,-0.131477996707,0.209729000926,-0.106678001583,-0.20100300014,0.047460000962,0.136295005679,-0.177871003747,-0.147622004151,0.179306998849,-0.129024997354,-0.0217969994992,0.163535997272,-0.242758005857,-0.259571999311,0.0979110002518,0.0976049974561,-0.0213760007173,-0.71512901783,0.114572003484,0.152147993445,0.420170009136,-0.045556999743,-0.315854996443,0.0977249965072,0.0848639979959,0.244552999735,0.390027999878,-0.0563840009272,-0.172930002213,-0.461908996105,0.0195129998028,-0.336257994175,-0.0145370000973,-0.240685999393,0.0261170007288,-0.388415008783,-0.032919999212,-0.3684900105,0.0806400030851,0.246197998524,0.168255001307,-0.299659013748,-0.0157009996474,-0.394647985697,-0.249984994531,-0.282341003418,0.0982830002904,-0.214726999402,-0.0431290008128,0.280252993107,0.236812993884,-0.132539004087,-0.411101996899,0.288984000683,-0.0787210017443,-0.41315600276,-0.111466996372,-0.0466069988906,-0.245768994093,-0.242825001478,-0.173265993595,-0.184999004006,-0.386655986309,0.166898995638,-0.113319002092,-0.00307999993674,0.141417995095
例,0.498079001904,0.459284991026,-0.201854005456,0.50401198864,0.557851016521,1.29289805889,-0.0805730000138,-0.270597010851,-0.107441999018,-1.113270998,-0.140939995646,0.919386982918,-0.604438006878,-0.454667001963,0.632372021675,-0.0719769969583,-2.02411293983,-0.464345008135,0.783428013325,-0.601263999939,-0.259346991777,0.808302998543,-0.317764997482,-1.02064704895,0.76016998291,0.223455995321,0.535758018494,1.08765304089,-0.127242997289,-0.550204992294,1.24363100529,-0.842343986034,1.08151805401,-0.724044978619,0.678812026978,-0.636318027973,1.79247701168,0.184821993113,0.440569996834,0.449057996273,0.909286022186,0.203059002757,-0.0777480006218,-0.614066004753,0.175787001848,0.45921599865,-0.0414300002158,0.230398997664,-0.815957009792,0.929655015469,1.37309205532,-0.162754997611,1.03232395649,0.444076985121,-0.32746899128,0.854551970959,-0.412367999554,-0.228413000703,-1.13267099857,-0.0488959997892,0.1215230003,-0.426555007696,0.315611988306,-1.03314399719,-0.27752700448,-0.927120983601,-0.101787999272,1.40918397903,1.15688598156,0.124851003289,-0.0105680003762,-0.0639820024371,-0.418375998735,0.600386023521,1.1468180418,-0.010158999823,0.309199005365,0.608946025372,1.069272995,-0.348598986864,-0.538160026073,-0.0546149984002,0.703137993813,0.57799500227,0.237748995423,0.650089025497,-0.0795959979296,-0.833000004292,0.339085996151,-0.303110003471,0.659399986267,0.525779008865,0.629495978355,2.08623290062,0.126453995705,0.15977999568,1.0421680212,-0.625976979733,0.36235499382,0.835386991501,0.319146990776,-0.859865009785,0.298516988754,0.224019005895,0.205595001578,-0.470560014248,1.51025700569,-1.17699301243,-0.979444980621,-0.512857973576,0.77312797308,0.115244999528,-1.128221035,-0.729026019573,-0.554709017277,1.18158102036,0.613506019115,-0.391456991434,0.664641976357,0.399993002415,-0.44489300251,0.228925004601,0.441866993904,-0.963217020035,0.609220981598,1.05089795589,-0.854023993015,0.420507997274,-0.308631002903,1.59097504616,0.426115006208,0.475901991129,-0.495171993971,0.629643976688,1.51926100254,-0.558981001377,0.919376015663,-0.103850997984,0.88966602087,-0.922218024731,0.490377008915,-0.44384598732,-0.243070006371,-0.568352997303,1.59363996983,0.259611010551,0.31683498621,1.51580798626,0.175943002105,-0.525557994843,0.451858013868,-2.12525892258,0.467121005058,1.38003599644,0.231762006879,0.364699989557,0.737954974174,-0.286206007004,-0.788294017315,-0.495976001024,0.54506701231,-0.0472059994936,0.294458001852,-0.572054982185,-0.586803972721,0.545597016811,0.285183012486,-0.663506984711,-0.811397016048,-0.338937997818,-1.71115899086,0.025841999799,1.01482999325,0.527960002422,-0.375162005424,-0.577235996723,1.75743496418,0.194921001792,0.000373999995645,0.378430992365,0.418000012636,0.434969007969,-0.528358995914,-0.181746006012,0.430530995131,-0.563775002956,0.219137996435,-0.664461016655,-0.0290210004896,0.381669998169,0.152692005038,0.422717988491,0.693369984627,-1.04764401913,-0.111824996769,-0.436410009861,-0.836098015308,0.144957005978,0.947516977787,0.0778110027313,0.766996979713,-0.476978003979,-0.451101005077,0.0344219990075,-0.0261499993503,0.26365301013,0.804786980152,-0.810365021229,-0.74584197998,-1.11482894421,0.45127800107,0.021201999858,0.101544000208,0.17274299264,0.839725017548,-0.809405982494,-0.593016982079,-0.131145000458,0.333083003759,-0.0302360001951,-0.478706002235,1.21742999554,-0.505545020103,1.24227702618,0.712710976601,0.970405995846,-0.230035007,0.564809978008,0.192041993141,1.11103999615,0.173140004277,-0.487174004316,-0.607581973076,-0.187830999494,0.185065999627,-0.128707006574,1.31580805779,1.68025696278,-1.30935001373,-1.8350199461,0.445881009102,1.64145004749,0.517001986504,0.207140997052,-1.15718603134,-1.81011605263,-0.0651559978724,-0.028818000108,0.462536990643,-0.0605590008199,-0.581726014614,-0.391537994146,0.424611002207,-1.29663598537,-1.20487904549,1.02419197559,-0.281547009945,-0.278822004795,0.582207024097,0.774206995964,0.27512601018,0.827573001385,0.846614003181,-0.688923001289,-0.110349997878,0.101617000997,-0.69424700737,0.893742978573,0.180604994297,-0.1145690009,-1.34843301773,0.968923985958,-0.000541999994311,1.28471398354,0.367877990007,0.836308002472,-0.326133012772,-0.15031799674,-0.259983986616,-1.20468294621,-0.0152289997786,0.388265013695,-0.44126200676,0.167621999979,0.270812004805,0.483031988144,0.221984997392,-0.112570002675,0.36923199892,-0.753566980362,0.904147982597,0.526989996433,-0.639308989048,-0.977383971214,-0.702445983887,-0.28811699152,0.952980995178,0.95792901516,0.0132290003821,0.24325799942,0.580274999142,-0.415284007788,-1.5124720335,0.329941987991,-0.674956023693,-0.555337011814,-0.924063980579,0.874159991741,-0.297576993704,-1.21580803394,0.267387986183,0.291801005602,0.130963996053,-0.64723700285,0.906535983086,-0.26775598526,0.056614998728,0.613867998123,0.515945017338,-0.173319995403,-0.85962998867,0.750986993313,-0.0320199988782,0.671455979347,0.433461010456,0.2219620049,1.12009203434,0.878633022308,0.0832939967513,-0.884868979454,0.173969998956,0.72153198719,0.610267996788,1.08459794521,0.191326007247,1.1872420311,-0.0910750031471,0.296804994345,-0.619037985802,-0.0471870005131,-0.328283011913,-0.333065003157,-0.476417988539,0.818202018738,0.468181997538,1.00818097591,0.681020975113,-1.08218002319,-0.185913994908,-0.212629005313,0.256888002157,-0.970974981785,-0.717046022415,0.785462021828,-0.0248019993305,-0.269995987415,-0.67563700676,0.330018997192,-0.251408010721,0.868564009666,-0.669197022915,-0.817249000072,0.631195008755,-0.0673739984632,0.00518999993801,0.124356999993,0.197978004813,-0.302430003881,0.208682000637,0.606709003448,0.0204620007426,-0.8867380023,0.444781988859,-0.874454021454,-0.472909986973,-0.148923993111,-0.0835710018873,-0.264887005091,-0.105823002756,0.768863022327,-0.288230985403,1.06055700779,-0.549766004086,-1.24814295769,0.589936971664,-0.28202098608,-0.694855988026,-0.693063020706,-0.354371011257,-0.52258002758,-0.913941025734,0.530164003372,-0.792225003242,0.154831007123,-0.218528002501,-0.298074007034,-1.50844299793,-0.373654007912,1.11289095879,-0.345135003328
方面,1.13988304138,0.188674002886,-0.667985022068,0.840559005737,-0.628805994987,-0.12924900651,1.11208498478,-0.74830698967,1.19782400131,-0.290796995163,1.33440196514,-0.395844995975,0.974120974541,-1.70875096321,0.331438988447,-0.82702600956,-1.32034504414,-0.196518003941,-0.952444970608,-0.657012999058,0.519501984119,-0.0541049987078,-0.884100019932,-0.694826006889,2.23812294006,-0.268864989281,1.38628995419,2.28972911835,0.778549015522,0.440138012171,0.214451000094,1.07766997814,-0.186175003648,-0.0762640014291,1.41075396538,-0.684705018997,0.275233000517,-0.685223996639,0.941531002522,1.26779997349,1.68737602234,-0.722692012787,-0.963921010494,0.157894000411,-0.911046028137,-1.09439599514,-0.153549000621,0.142270997167,0.350073009729,-0.852521002293,2.25800609589,-1.24594295025,-0.039390001446,1.33392000198,0.681423008442,-0.372137010098,2.15129709244,-1.09478199482,0.50362098217,-0.035803001374,0.568216979504,-0.189032003284,0.231595993042,-1.02711296082,1.07535898685,-0.730938017368,0.752355992794,0.941241979599,-0.160422995687,-1.64284694195,0.504943013191,0.251641988754,0.40525200963,0.251825004816,1.69149196148,0.651830971241,1.37931394577,-0.176900997758,1.24991095066,-1.00434303284,0.425453990698,-0.382710009813,0.800934016705,1.38724696636,1.05881798267,-0.334125012159,-0.326642006636,-1.22410094738,0.46887999773,-2.14519906044,-0.394645005465,-0.0771569982171,-0.561535000801,0.403926998377,-0.0444509983063,-1.57167303562,0.535530984402,-0.539541006088,-0.815774977207,1.67267096043,0.0835060030222,1.48624098301,-0.235229000449,0.529792010784,-1.30831599236,1.22583794594,3.19624495506,0.620276987553,-0.926958978176,1.18194794655,0.699584007263,-0.513499975204,-1.19187796116,0.312525004148,0.735330998898,0.742410004139,-0.365438997746,-0.714977025986,1.16724705696,0.636633992195,0.657018005848,-0.246595993638,1.46527898312,-1.70521104336,0.412203013897,1.94876897335,-1.82722902298,-0.772494971752,-0.14639300108,-0.403135985136,-0.46252399683,-1.17239499092,-1.6019589901,1.2464389801,0.728115975857,1.82768297195,0.229094997048,0.958723008633,1.52697598934,-0.349543005228,-0.0656849965453,-2.13607001305,-0.679921984673,-1.21938800812,-0.861979007721,-0.405458003283,0.45013999939,1.96367299557,-0.425175011158,0.880568981171,0.223757997155,1.99128901958,-0.586273014545,0.0320720002055,0.523756980896,0.991629004478,0.494157999754,-1.2974909544,-2.25775098801,0.741786003113,-1.6109880209,-1.23844301701,1.39716994762,-0.362872004509,0.94179302454,0.242393001914,-2.49726605415,-0.487244009972,-1.16476798058,0.0618409998715,-0.26279899478,-0.476188004017,0.506774008274,1.58540797234,0.781202018261,0.160380005836,1.25130295753,0.00453600008041,-0.218436002731,-0.843711018562,-1.03232300282,-0.385457992554,0.239126995206,-1.36968302727,-1.09729504585,1.20136201382,0.344918012619,0.242752999067,-1.36358094215,0.435326993465,-0.689404010773,-0.934692025185,3.70780801773,1.5969389677,-1.73212897778,-0.425004005432,-0.296487003565,-1.68797397614,0.526349008083,1.77850198746,0.439323991537,-0.293134987354,-0.718203008175,0.59478199482,-0.34259301424,1.79014003277,-4.40565490723,2.1073179245,0.106749996543,1.85143697262,-0.236431002617,0.978147983551,1.28567898273,-1.13244998455,0.722404003143,0.369715005159,0.777330994606,0.626543998718,0.99255001545,0.421600997448,0.122312001884,1.59006500244,1.74939799309,-0.842936992645,-0.0464349985123,0.53054100275,-1.22809696198,-0.0404610000551,1.09100198746,-0.633825004101,-1.54148101807,0.305025011301,0.710470020771,-2.33040595055,2.22684788704,-0.147916004062,0.127827003598,-1.78696000576,-1.33539998531,-0.0469999983907,-0.60134100914,2.07735109329,1.72575294971,0.0636940002441,-0.732309997082,1.17897105217,-0.034821998328,-0.549620985985,-0.569983005524,-0.895886003971,2.25382089615,1.88373398781,0.559763014317,-0.866452991962,0.283098012209,0.539649009705,-2.50795102119,0.822847008705,1.77787399292,1.36651003361,2.01052498817,1.3718149662,0.1652200073,-0.232888996601,-0.703050971031,-0.323709011078,-0.767970025539,-0.990985989571,1.27704799175,0.526911973953,-0.948993980885,0.480262994766,-1.70495998859,-0.208112999797,-0.271589010954,1.38482201099,-0.0320399999619,-1.63649404049,1.53096199036,1.06397902966,0.0592279992998,-0.490615993738,-0.176596999168,0.649326980114,-0.821690022945,0.0400520004332,0.644155025482,0.965959012508,2.38246893883,0.668675005436,1.16773104668,2.74024200439,-0.892075002193,-0.556241989136,1.53267097473,-1.11249005795,0.658376991749,0.892064988613,-0.359407991171,-0.638283014297,0.847648978233,0.203883007169,-0.86657500267,1.55235695839,0.830047011375,1.00051701069,0.382324010134,-0.684413015842,-2.60525107384,0.919184029102,-2.41205596924,0.566200017929,0.396127998829,0.542841017246,-0.222653999925,-0.014251999557,-0.391227990389,-0.159318998456,0.847518026829,-1.34658205509,0.817268013954,0.159927994013,1.55889701843,0.328925013542,-0.799796998501,0.847652971745,-0.781144022942,0.270345985889,-1.58863997459,-1.01933395863,-0.359398007393,0.525403022766,-0.168565005064,-0.161797001958,0.167630001903,-0.119563996792,1.27614605427,0.897906005383,-1.73629701138,0.325872987509,0.257135003805,0.402898013592,-0.518148005009,0.490287989378,0.406805992126,-1.18893003464,0.312849998474,-0.736844003201,-0.853358983994,0.42794701457,1.06711804867,0.205957993865,1.96774601936,-0.0825219973922,-0.158582001925,-0.684508979321,0.568616986275,2.03192400932,-0.00214600004256,0.528913021088,1.69951796532,-1.1136020422,0.970504999161,0.802437007427,0.253758996725,-0.770497977734,-0.93011200428,-0.475672006607,-0.614346027374,-0.47055798769,0.201379999518,-1.3673030138,0.449806004763,-0.0996079966426,0.729793012142,0.958211004734,0.268359988928,1.74840795994,-1.09029495716,-1.08339905739,-0.181013002992,0.130456000566,-1.09409594536,-0.298559993505,1.69585096836,-1.17313802242,0.242181003094,-1.09237599373,-1.45019102097,1.03749799728,0.216727003455,1.58113205433,1.11198604107,2.35764408112,-1.24679303169,-0.920105993748,-0.137444004416,1.97758603096,0.744993984699,0.824577987194
独立,-1.09021103382,1.35491800308,0.975615978241,0.422688007355,-0.777393996716,0.690846979618,0.505975008011,-1.61676502228,0.292187005281,0.958042025566,0.753995001316,0.00525300018489,-1.63788497448,0.165296003222,0.293509989977,-1.60987699032,1.56966102123,-0.270980000496,-1.11694598198,-0.213137000799,0.454614013433,-0.727679014206,-1.18039405346,-1.32264900208,0.746703028679,0.182584002614,0.469909012318,-1.49964094162,0.652088999748,0.289292007685,1.22328901291,0.786161005497,-0.879967987537,0.761075973511,-1.47336602211,-0.244641005993,1.46614801884,-0.634177982807,0.432978987694,0.240620002151,-0.505344986916,-0.346047997475,1.20354104042,-1.29547405243,-0.772504985332,-1.90637600422,0.735768020153,-0.950990021229,0.0944219976664,0.286408990622,0.147477000952,-0.954295992851,-0.453882992268,0.06513299793,0.521414995193,1.50916099548,-2.4406080246,0.952081024647,-0.592119991779,-0.670035004616,-0.277819007635,-1.45147800446,-0.125769004226,-1.60614597797,0.53987801075,-0.158254995942,0.435391992331,1.88678300381,-0.1903360039,0.913357019424,-0.287903994322,-0.204266995192,-0.219123005867,1.57635295391,2.09733200073,0.519931018353,1.82466101646,-0.735954999924,-0.488858997822,-2.90709495544,2.38100504875,-0.985301017761,-1.16334199905,0.166380003095,0.0399429984391,-0.576375007629,-0.143868997693,0.853357970715,1.01645994186,0.860556006432,-0.415264993906,-1.13856303692,-0.681267023087,1.06679499149,-1.36079096794,0.0203789994121,-0.0925080031157,0.964124023914,-1.17509901524,-1.16766703129,1.77189695835,-1.21516001225,-0.109278999269,1.67214298248,-1.73757505417,0.202573999763,2.20120406151,0.91474199295,-0.318908989429,-2.35576605797,-1.03411900997,-1.89018905163,-0.485590010881,-0.229435995221,0.294688999653,0.779682993889,-1.19028496742,0.71854197979,-1.57070195675,1.00658798218,-1.23135602474,1.65245497227,2.3587911129,-0.650590002537,-0.248193994164,-1.09502899647,-1.91947805882,-1.04364395142,0.862922012806,-0.544924974442,-0.00765899987891,-1.36379301548,0.132930994034,2.05136799812,-0.269984006882,-0.753687024117,-0.569671988487,1.19201600552,-0.451287001371,0.998867988586,0.886886000633,-0.70778799057,-1.11254703999,2.149091959,-2.59772205353,-0.930328011513,0.436040997505,-0.965519011021,0.128388002515,0.594421029091,0.0398159995675,0.379577994347,0.539717018604,-0.538815021515,-1.42428100109,1.21032702923,0.135380998254,2.00815606117,-0.70741301775,0.393656998873,0.144592002034,-2.14027094841,-0.99979698658,0.621998012066,-0.806105017662,1.36094105244,-0.232106998563,-0.688117027283,-0.569203019142,0.133941993117,-2.21173596382,-0.627708017826,2.93707704544,1.67369699478,-1.08740496635,-0.889183998108,0.339935988188,0.607154011726,-0.508234977722,2.14414000511,-1.62526905537,-0.383805006742,0.135756000876,1.58227300644,-2.16937589645,-0.148604005575,0.615435004234,1.13178598881,-0.395337998867,0.46238899231,1.02540397644,-1.79003596306,1.50259995461,0.45493298769,-0.484270989895,-0.0315850004554,0.892702996731,-1.73958802223,1.49568796158,-0.0918340012431,1.32581305504,-0.832803010941,-1.41971099377,0.415886998177,-0.417358011007,0.0547449998558,-0.479456990957,0.568493008614,-1.05198204517,1.47074997425,-0.297441005707,0.876253008842,-0.685422003269,-0.43562400341,2.07599401474,-1.01773405075,1.79292905331,-1.94680297375,0.357870012522,-1.18309497833,-1.27709102631,0.788788974285,-0.303487986326,2.00602889061,0.203418001533,0.0483769997954,2.18431711197,1.05704498291,-0.532660007477,1.96798598766,1.01731395721,0.968455970287,2.05282497406,0.0953700020909,1.67007398605,-0.490422010422,0.410564988852,-1.91741800308,-0.772641003132,2.04986405373,-0.00586900021881,-1.42483603954,0.126673996449,-0.93224799633,0.811895012856,0.0891050025821,0.264793992043,-0.1518419981,0.822474002838,1.11948394775,1.67153596878,0.584985971451,0.414988994598,-1.713752985,-0.157596006989,1.07655394077,-0.459206998348,-0.575142025948,-0.687263011932,2.85542201996,-0.136626005173,0.502933979034,-0.443168014288,0.0287350006402,-1.14758098125,-1.75054204464,1.01960194111,1.11808097363,0.508490025997,0.882084012032,-0.599076986313,-0.905731976032,-1.49604201317,0.335435986519,-1.51735198498,0.240584999323,-0.27845698595,0.663182020187,-0.0117210000753,-0.0546040013433,0.327652007341,-1.00066697598,0.0209470000118,-1.59890401363,0.9439240098,-1.46742296219,-1.6872190237,-2.15271806717,0.210723996162,0.521328985691,-0.719897985458,0.295621991158,-0.595781028271,-1.33899700642,0.34711098671,0.899143993855,1.06236505508,2.26658701897,-0.817487001419,-2.03424811363,0.449925005436,0.841032028198,1.36887204647,1.04192900658,0.85476899147,-0.4232249856,0.213054001331,0.207460999489,-0.0676779970527,-0.249493002892,-2.20358395576,0.234277993441,-0.277671009302,-0.414927989244,-1.91135394573,-0.192608997226,-1.79885303974,-0.0253890007734,1.38656198978,-2.44195199013,-1.5418920517,0.405882000923,-0.484349012375,-2.22844290733,-0.257245987654,0.161806002259,0.676761984825,-1.84604203701,0.412295013666,-1.2145960331,2.03621506691,1.21320796013,-1.03275501728,0.938157021999,1.15240597725,0.390569001436,0.281621992588,-0.168887004256,0.547105014324,0.0977739989758,-1.0130109787,1.6628370285,0.580375015736,2.18099403381,-0.98015999794,0.256868988276,-0.370106995106,1.1472350359,-0.424295008183,0.203596994281,2.45847702026,-0.437916994095,1.82844805717,0.157764002681,-0.804050981998,-0.683526992798,0.720512986183,0.16128000617,-1.26123905182,1.15276002884,0.323585987091,-1.14707899094,0.831373989582,-0.331880986691,-0.612821996212,1.24638700485,-0.174077004194,0.225246995687,0.0247840005904,0.331274986267,0.0336520001292,-0.213771998882,-1.26348400116,-1.2637130022,1.31591904163,-0.771314024925,-1.57494795322,0.0936760008335,-0.786979019642,-2.78956103325,1.2335050106,-0.356476008892,0.944796979427,0.34955099225,0.946592986584,0.141206994653,-1.25677502155,0.0670320019126,-1.30640304089,-0.119153000414,1.05792105198,1.58082997799,0.963319003582,0.304426014423,-0.0164800006896,0.280445992947,1.19778096676,0.313944011927,0.156874999404,0.368804991245
成,0.201679006219,0.694278001785,0.256987988949,-0.905920028687,-1.31261599064,0.892831981182,-0.884747982025,-0.872918009758,1.38337099552,-2.36572909355,-1.79567503929,-0.533918023109,-1.40427398682,0.99424302578,0.514165997505,0.315840005875,0.36825799942,0.99689000845,-0.263029009104,-1.1916359663,-1.4955509901,-2.25688004494,1.37273001671,-0.307137995958,-0.207454994321,1.56184995174,0.980320990086,-0.071091003716,1.34491598606,1.51075005531,-0.716175973415,0.150179997087,1.67844295502,-1.27638101578,0.188557997346,0.356586009264,-1.43632102013,-1.28290295601,-2.43713092804,0.235510006547,-0.202471002936,-0.518118977547,0.36883699894,-1.2960139513,0.520641028881,0.784493982792,-0.552084982395,-2.02082395554,-1.16171300411,-0.316017001867,0.556441009045,-2.45059800148,-0.577629983425,1.35007202625,0.809511005878,-0.338481009007,0.906683981419,1.98853504658,-0.366800993681,0.959384977818,-0.942515015602,0.131685003638,0.746792018414,0.443984985352,1.22495305538,-0.988479971886,-2.25233101845,0.971145987511,0.203266993165,0.663191020489,0.565994024277,-0.689453005791,-0.707144975662,1.06217801571,0.781517028809,-0.640403985977,1.8867110014,0.359416991472,1.18425703049,1.57859396935,0.145560994744,-1.10711598396,-0.773055970669,-1.16850197315,2.20791006088,-1.00658905506,0.254774987698,0.250797003508,1.11630403996,0.834403991699,0.188692003489,-0.58550798893,-0.00578700006008,-0.44705298543,-2.26918506622,0.176237002015,-0.863785028458,-0.891425013542,0.75234401226,-0.998486995697,0.0279019996524,-0.284619987011,1.46762597561,2.01854705811,-0.972661972046,-0.0699450001121,1.69510495663,-0.821021020412,-0.0381250008941,-1.23908901215,-0.00805199984461,0.822273015976,-0.362616986036,0.590737998486,0.680611014366,2.41578292847,-0.409588992596,-0.875555992126,-2.36473703384,1.34009897709,0.493734002113,-0.300603985786,1.63945794106,0.0895870029926,0.629435002804,-1.04247999191,-0.34424200654,-1.09574103355,0.475941002369,0.131977006793,0.589033007622,-0.347577989101,-0.170270994306,-0.645192980766,-0.357695996761,-1.36356294155,-1.29590702057,0.362670987844,0.29823499918,0.901848018169,-0.186229005456,1.53532505035,-2.63668298721,-0.915364980698,0.670946002007,-0.374345988035,-1.38150501251,-0.402290999889,-0.866367995739,-0.51573997736,-0.232878997922,0.383536010981,1.76902198792,1.96803295612,-0.38455298543,1.39405894279,0.00664700008929,-0.286931008101,0.526895999908,-1.11101794243,1.41919696331,1.27697896957,-0.0099189998582,-1.52612495422,-0.344020009041,-0.28238299489,0.0742300003767,-1.71870303154,0.675342977047,0.65799498558,-1.51148998737,-0.526244997978,-0.24638800323,0.29992300272,1.08833003044,0.19037899375,0.695282995701,0.672008991241,-2.04138207436,1.25268101692,-0.744913995266,-1.57227802277,1.90437805653,-0.529066026211,-1.17018902302,0.405562996864,-0.410014986992,1.67632198334,2.42468595505,0.34819701314,0.645245015621,2.46126508713,-0.522459983826,1.62814998627,-1.25698494911,-0.772490978241,-1.53105902672,-1.12914204597,1.94921195507,0.136685997248,3.07593488693,-2.28293395042,-0.344747006893,-1.63824403286,0.749417006969,0.304764002562,0.404567986727,-1.6784850359,-1.13935005665,-0.398808985949,1.37684094906,-0.193936005235,1.4511859417,-0.198987007141,1.53542900085,-1.55490505695,0.464469999075,-1.39771103859,-0.546019017696,-1.22416198254,3.35479688644,-2.85373806953,0.744542002678,0.325222998857,-0.176366001368,1.68853294849,-0.507622003555,-0.79350399971,-1.04408097267,-3.51662302017,0.607439994812,0.912211000919,0.842451989651,1.75482702255,-0.456120997667,-0.193237006664,0.786412000656,1.81353998184,-0.32170599699,-0.414871007204,-0.480540990829,0.0932469964027,0.13529600203,1.98368799686,0.744593024254,-1.16453695297,0.0245430003852,0.194217994809,1.24202799797,-0.959496974945,0.869912028313,1.47291195393,0.604942977428,-0.674036026001,-0.0587330013514,-0.813251972198,-0.932426989079,-0.0519150011241,1.20517194271,3.14435505867,-1.26803100109,-0.675140976906,-1.40553498268,-1.5807570219,-0.777768015862,-0.660324990749,0.372052013874,-1.419500947,-1.49407398701,-0.0574639998376,0.960147976875,0.50422000885,-2.29494190216,0.0445149987936,-2.31197810173,0.55239200592,-0.592907011509,-1.08038902283,-0.224046006799,-0.702711999416,1.79234099388,2.02353692055,-0.553269028664,3.4646589756,-0.874119997025,1.41557097435,-0.754485011101,-1.09857797623,-0.15106099844,0.585420012474,0.524742007256,0.789467990398,-1.78965902328,0.766162991524,-0.154177993536,-1.18198502064,0.678261995316,0.645825982094,-0.918057978153,0.811855018139,0.0814950019121,-0.567353010178,0.767090976238,0.638592004776,1.33297002316,2.21978998184,1.66859197617,-1.04714000225,0.526996016502,0.540556013584,-1.07016098499,0.463573008776,1.84526395798,-1.91983497143,-0.353617995977,0.682264983654,-1.71850299835,0.1145690009,-0.305875003338,0.731436014175,0.00755999982357,0.403124004602,-1.67839801311,-1.0599770546,-1.78817403316,-2.71211600304,-0.0434050001204,0.131992995739,-1.19911503792,-0.649854004383,-3.00689697266,-0.879199981689,-0.0811759978533,0.697300970554,-1.06443703175,0.736432015896,-0.481801986694,0.845417022705,-1.27814900875,-0.926764011383,-1.02439701557,0.242013007402,-0.436773002148,-1.33836102486,0.924853980541,-1.01052296162,0.474233001471,0.58351200819,0.591579020023,1.24327397346,-0.705880999565,-0.489670991898,1.41909503937,1.67076897621,0.664855003357,-2.20429396629,-0.169680997729,1.34220802784,-1.3536440134,0.322576999664,1.97224795818,0.964446008205,1.29591202736,0.157757997513,1.96711099148,-1.77145004272,-0.513899981976,1.82025301456,1.0281829834,-0.199441999197,-1.18968403339,-0.478356003761,-0.228890001774,0.879575014114,0.37852498889,-2.05761694908,0.530000984669,2.12304210663,-0.391968011856,-1.4655059576,0.771098017693,-2.18442988396,0.670870006084,-1.37624597549,0.344283998013,2.23787593842,0.469453990459,-0.347247004509,-0.257539004087,0.120674997568,1.65141999722,-0.38382101059,1.42454004288,1.07307100296,1.58263397217,-1.6095199585,-0.3009159863,0.0828720033169,-1.64592397213,-0.602635979652
相对,-0.838786005974,3.1468091011,1.52754402161,1.51629400253,-0.0679759979248,0.257679998875,1.82857596874,-1.22615396976,-0.558672010899,0.355654001236,-0.121164001524,-0.45007699728,-2.27408099174,-0.637194991112,0.226284995675,-0.804957985878,-0.0125460000709,0.456286013126,-0.0320350006223,-0.932144999504,-1.09830594063,0.30341398716,0.0861190035939,-0.312353998423,2.18180608749,0.255481004715,0.359288990498,0.402473002672,-0.363398998976,1.2370890379,1.15185701847,-0.148206993937,0.5383669734,-1.45937001705,0.607940971851,-0.588729023933,0.116567999125,-0.0837109982967,-0.392675995827,1.71696400642,-0.641308009624,-0.110523998737,-0.738102972507,0.499668002129,0.782248020172,-0.00693800020963,-0.357389986515,-1.35817301273,0.470245987177,1.04705500603,0.478309005499,0.220556005836,0.275220006704,0.781831979752,-1.00182294846,-0.245599001646,0.940539002419,0.460065990686,-1.69710505009,1.28315103054,0.0493459999561,-1.27613401413,1.64789199829,-1.00044000149,-1.19548094273,0.293356001377,-0.90417599678,0.626012027264,1.66117596626,0.885329008102,0.362029999495,-0.957058012486,0.54460299015,1.35278296471,-0.863192021847,-0.524326980114,2.76214504242,-0.777621984482,2.30042099953,0.155368998647,-1.25617194176,1.11338794231,-0.598514974117,0.319296002388,1.60514605045,0.952262997627,1.58225595951,-0.472481995821,0.70292699337,-1.38779401779,0.365660995245,-1.62038302422,-1.74235904217,2.02192902565,0.419739991426,-1.44496405125,-1.44950294495,1.96324801445,0.548094987869,0.402482002974,0.184167996049,2.15180492401,-0.378066003323,0.865580022335,0.181771993637,-0.704096972942,1.27521896362,1.32071304321,-0.524649977684,-0.398416996002,2.61984395981,-0.641586005688,1.06387996674,-0.810851991177,1.50569200516,1.19052696228,0.495644986629,0.106526002288,-0.152740001678,-0.707346022129,0.778452992439,-1.00879502296,-0.451700985432,0.0808740034699,0.133719995618,0.29759401083,-1.38562202454,-0.805326998234,2.41973400116,0.566931009293,0.531017005444,0.0486529991031,-0.840833008289,1.78812503815,2.22459101677,0.090204000473,0.814593970776,0.254617005587,0.727729022503,0.314583003521,1.3552069664,-0.983044981956,-1.16931402683,-0.728219985962,-0.567413985729,-0.83240801096,-0.207789003849,0.102297998965,-1.45660495758,0.250955998898,1.57442903519,-1.09097504616,-0.456939995289,0.499514013529,2.73106098175,0.0970399975777,0.355987995863,-0.322461009026,-0.240366995335,-1.29575097561,-0.610014975071,-1.96102297306,1.39925396442,-1.10501503944,-0.280840992928,0.736845016479,-1.80107200146,-0.966009020805,-1.83092403412,0.255192995071,-0.369571000338,-1.17763197422,1.37598705292,1.95934903622,-0.194279000163,0.653029978275,1.17602097988,0.823472976685,-0.0294509995729,1.35156404972,0.224868997931,1.26954400539,1.46894097328,0.18381999433,0.266000002623,0.398968011141,0.231121003628,0.615786015987,-0.894922018051,1.09879899025,0.421523988247,-0.475850999355,2.76507306099,1.37962698936,1.18552196026,-0.440005004406,-0.301710993052,0.267286986113,1.05997896194,-0.619475007057,-0.822798013687,-0.57522302866,-1.06246399879,-0.71123200655,-0.776809990406,2.28211402893,-0.391290992498,1.26949799061,-0.297899007797,1.00293803215,-0.107052996755,-1.2710609436,1.10496795177,-1.10775995255,1.54653501511,1.27624094486,0.0122250001878,1.27246797085,-2.20604705811,0.95617800951,-1.33806097507,1.05017101765,2.10920906067,0.9822229743,-0.855901002884,-0.794220983982,0.0149259995669,0.0119260000065,-1.98237705231,-1.38956594467,-1.197955966,-0.207049995661,-0.440750986338,-0.891664028168,1.98926198483,0.487670987844,-1.00083303452,-1.18645298481,-0.923493027687,2.19609689713,-0.0614879988134,-0.0488229990005,0.227630004287,0.851706027985,-0.564792990685,-1.04111194611,0.0107479998842,-1.32689499855,-1.48459601402,-0.0598439984024,-1.46226298809,0.944922983646,0.573525011539,0.619621992111,0.0171799995005,0.414144992828,0.274232000113,-0.23880200088,1.63670802116,0.661269009113,0.421169012785,0.0940990000963,-0.750455021858,1.34340703487,-0.952310979366,-1.4778380394,-2.42915606499,1.17585599422,0.337484002113,0.177285000682,1.33262002468,-0.245988994837,-0.578404009342,0.608961999416,1.22330594063,1.49228799343,-0.321137011051,-1.13397502899,-1.11932599545,-0.639986991882,-0.232975006104,-2.06499791145,0.403425991535,-0.0780860036612,1.16181004047,0.202813997865,-0.646112024784,-1.1123650074,1.37300097942,0.0171269997954,-1.36419904232,-1.00526094437,-0.938489019871,-1.94252800941,2.10179591179,0.38458698988,0.184636995196,1.28700900078,-0.470393002033,-2.32884097099,-2.17248106003,-0.434918999672,-1.23570394516,0.611895978451,-0.169844001532,0.251401007175,-0.691781997681,0.0503300018609,-1.60267198086,1.2791390419,-0.5542730093,-0.463919997215,0.864832997322,-0.356316000223,-0.934449970722,2.29117798805,-1.28787600994,0.694944024086,1.85092401505,1.20316696167,-0.511318981647,0.349157005548,-1.57153594494,0.136188000441,-0.741820991039,-0.578806996346,-1.61244797707,0.282949000597,-0.583442986012,0.320389002562,0.251628994942,-0.207268998027,-1.20521700382,-0.625585973263,1.91501498222,0.237540006638,0.091769002378,-0.453424006701,-0.423994988203,1.29478800297,0.852370023727,2.27156805992,1.70952701569,1.09564304352,0.812044024467,0.333027005196,0.676635980606,2.26332092285,0.423272997141,-1.86955595016,0.813117980957,-0.48787599802,0.831129014492,-0.435690999031,-0.278447985649,-0.327755987644,0.180879995227,-0.0538179986179,-1.56833600998,-0.604426026344,1.56063902378,-2.2027349472,0.125829994678,-1.37668299675,1.6695330143,-1.97594201565,-0.517916977406,-0.864866018295,0.35883000493,-1.69625997543,-0.699778974056,0.871659994125,-0.0932480022311,-0.328557997942,-1.08032596111,-2.02045607567,-0.782881975174,0.404186993837,-0.541845977306,-0.277774006128,0.333360999823,1.77498495579,0.919323980808,0.176039993763,2.03453707695,-1.32843196392,1.60656094551,0.62914198637,-0.302475005388,0.54358202219,2.34534096718,0.901292026043,0.544764995575,0.026822000742,1.85853803158,-0.568809986115,1.94288599491,-0.668327987194,2.23113298416,-0.340678989887
数值,0.682594001293,-0.315062999725,0.985117971897,0.683827996254,0.932841002941,-0.112461999059,0.100183002651,-1.35938298702,-0.410041004419,-0.540035009384,-0.361701995134,1.93800401688,-1.44498598576,0.0230860002339,-1.16628301144,-0.289777010679,-0.765868008137,-0.447600007057,0.92583501339,-1.34598505497,0.147220000625,0.271658986807,-0.597765028477,-0.662320017815,1.37510204315,0.0774760022759,0.288062989712,0.43243598938,-1.38400495052,-0.399111002684,0.0738269984722,-0.427843004465,1.37764704227,0.423337012529,0.867072999477,0.279094010592,1.01702404022,-0.472097992897,0.100644998252,0.617578983307,1.96934700012,1.13090598583,-2.32740306854,-1.45338404179,-0.649011015892,-1.44960904121,-0.884860992432,-0.253499001265,0.690680980682,0.0721379965544,-1.14250397682,-0.750298023224,-0.0944579988718,2.48624992371,-0.132581993937,0.527707993984,0.0724119991064,-2.12285590172,-0.625738024712,-0.418767988682,0.543582975864,1.16263997555,0.482589006424,-0.301346004009,-0.435357004404,-0.329959005117,-0.362262994051,-1.67955601215,0.643525004387,-1.73182594776,-0.39878898859,-0.320537000895,0.193915992975,1.05031502247,-0.251493006945,0.754395008087,1.46610295773,0.621825993061,-0.274212002754,0.413327008486,-0.302478998899,-1.85207998753,-0.0634659975767,0.772370994091,-0.555204987526,-0.300532996655,-0.824333012104,-1.76151800156,2.14107394218,-0.868264019489,1.80827498436,-1.32066500187,-0.497117996216,-0.505680978298,0.76871997118,-0.0288110002875,-0.649542987347,1.50838196278,0.252483010292,0.526408970356,0.43244600296,0.633401989937,-1.18701899052,0.413619011641,2.46112704277,-1.26668298244,0.716624975204,1.07701003551,-0.143452003598,-0.898317992687,2.30869603157,-1.24264800549,0.845616996288,-0.88706600666,-1.50222599506,2.35747003555,1.47500002384,-0.302758008242,0.0132179995999,1.3917850256,1.27038002014,-1.51288700104,0.609727978706,-0.554156005383,-0.797104001045,0.991259992123,-0.681604027748,-1.33938002586,-1.24814605713,1.88099396229,0.790089011192,0.852306008339,0.402700006962,0.323808014393,-0.00445199990645,0.0638530030847,0.870929002762,-0.223706007004,-0.20554099977,-0.0605680011213,2.39111495018,0.171433001757,-0.0511230006814,-0.0979840010405,-0.163622006774,-0.943149983883,0.254512995481,0.447825014591,-0.867353022099,-2.7917599678,1.62281703949,0.266194999218,1.36225199699,-0.280184000731,0.775620996952,-0.10486099869,-1.18195104599,1.10575997829,-1.71458601952,0.186529994011,0.640332996845,-1.20937895775,-0.0471450015903,-1.32573199272,-0.000500000023749,0.761619985104,-2.10906291008,1.39580094814,-0.327883005142,-0.000714000023436,-0.210292994976,-0.744201004505,0.407662004232,-1.25410199165,-1.13847601414,1.7938990593,1.82061195374,1.6286740303,-0.468921005726,-0.102055996656,-2.45059204102,0.497029006481,-0.326555997133,-0.469484001398,-0.290004998446,0.340184003115,0.137759000063,-1.02053904533,0.814315974712,0.380297005177,1.00518202782,-0.157330006361,0.555939018726,1.02845597267,0.269546985626,0.0640330016613,-0.858214974403,-0.65839099884,1.5114480257,0.565053999424,0.866985023022,1.42787694931,-2.28002810478,0.297286003828,-0.0745650008321,0.328258007765,-0.227741003036,2.0643260479,-0.897346973419,2.28866004944,-0.977549016476,-0.343699991703,1.59867203236,-1.07241404057,0.969402015209,-0.349408000708,-2.01840591431,0.969601988792,-0.657898008823,-0.527483999729,0.0149400001392,1.22697198391,1.32537901402,-0.776799976826,0.696434020996,-1.01864600182,0.688480973244,-0.248574003577,0.0416840016842,-0.404269009829,-0.0725769996643,1.65017402172,-0.168402001262,-1.32048404217,1.49968504906,0.538716971874,-0.0784429982305,1.38752603531,-0.628866016865,-1.64150798321,-0.966471016407,2.01340794563,-0.292299002409,-0.655647993088,-1.11177897453,-2.22015500069,1.07375204563,-0.438216000795,-0.771377027035,-0.341641008854,-0.030813999474,0.866080999374,0.0714169964194,0.401535987854,-0.812798976898,-0.547397971153,0.72433501482,-0.924763023853,1.27934801579,0.900846004486,-1.28532195091,-0.016454000026,1.98468899727,-0.457673996687,-0.170368000865,0.113678000867,-0.700227022171,1.50088894367,-0.912096977234,0.03087499924,-0.772230029106,-1.07398295403,-1.017827034,0.706126987934,0.288561999798,0.879359006882,-1.18079900742,-0.681060016155,1.70896100998,0.23955899477,0.0823320001364,-0.212992995977,-0.994265973568,-1.42075300217,1.59509503841,0.645608007908,-0.584197998047,-0.0111659998074,-0.741219997406,0.536974012852,-1.03688800335,0.00565299997106,-2.34049701691,0.1213349998,1.05970096588,0.951349020004,2.22159790993,1.01453697681,-0.689225971699,0.033925998956,-0.553103029728,-0.365348994732,-0.303557991982,2.50166702271,0.039009001106,-0.175560995936,0.277110010386,-0.115918003023,-0.191504001617,0.879195988178,-0.459131985903,0.287396997213,0.182987004519,-0.454463005066,0.0223990008235,0.781479001045,0.23139500618,1.58634698391,1.84932303429,0.267053991556,-0.667984008789,-0.103955999017,-1.54090499878,0.820819973946,-0.0664360001683,0.535544991493,-0.0867870002985,-0.511649012566,-0.48700299859,-0.0822549983859,-0.149692997336,-0.398537009954,-0.137573003769,-0.138576000929,1.18119299412,-0.0640029981732,1.24240398407,0.948000013828,0.507565975189,0.246840000153,0.807323992252,1.58768200874,0.0437909998,-0.706758022308,-0.226265996695,0.76807397604,0.643373012543,0.737464010715,0.62519299984,0.103843003511,-1.73460400105,-0.766282021999,1.14865601063,0.132616996765,-0.415084004402,-0.605508983135,-0.285953998566,-0.176197007298,-1.33420205116,0.313286989927,0.669488012791,-0.320062994957,-0.614274978638,-0.0234600007534,0.0191559996456,-1.15820598602,-0.61923199892,0.85050201416,0.382743000984,-0.677497029305,0.891115009785,0.24442499876,0.135530993342,0.435573011637,-1.07727003098,-0.827251017094,-0.800127983093,-0.212796002626,-1.28805100918,1.66402804852,0.127939999104,1.57604396343,1.08059799671,-0.506397008896,-0.479483008385,-2.17252707481,0.474323987961,-1.20381498337,-1.12264895439,0.859826982021,-0.248217999935,0.415663987398,-0.930329024792,-1.79499900341,-0.719837009907,-2.04588699341,1.75080895424,-0.870356976986,0.682965993881,1.28219795227
使用,0.205812007189,0.918150007725,1.40357005596,-0.129114001989,0.770833015442,-1.25591504574,0.846140980721,-0.836266994476,2.88755106926,-0.176425993443,0.515686988831,0.264450013638,-0.753719985485,-0.050462000072,-0.775384008884,-0.608271002769,0.787540018559,-2.36643195152,1.78577899933,-1.83614099026,-1.60096895695,1.44774794579,-0.791536986828,-0.448868989944,2.76405310631,-0.0923229977489,1.08534097672,1.33749401569,-1.26008498669,-0.534521996975,0.350342005491,-1.30156695843,-1.11313998699,-1.87930297852,0.873085975647,0.342882990837,-0.951093971729,0.359999001026,-1.10679495335,0.996518015862,2.30724906921,-0.618956029415,-3.36177897453,0.211256995797,0.639038026333,-0.588584005833,-0.759150981903,-1.53999400139,1.39535796642,1.16727900505,1.41867399216,-1.19305801392,0.585907995701,2.3592441082,-1.29505705833,-0.623879015446,0.964594006538,0.203705996275,-0.542140007019,-0.336943000555,-0.807927012444,0.832071006298,-0.740974009037,-0.591561973095,-1.67285001278,1.57955002785,-1.01953101158,0.803717970848,0.0434230007231,1.10312199593,-1.58717501163,-2.024132967,2.2985188961,1.72250699997,-1.64134395123,0.919708013535,0.915068984032,0.424694985151,1.37067902088,0.318565011024,0.374747991562,-0.917303025723,-0.181674003601,0.036276999861,0.505528986454,0.0497409999371,0.0846169963479,-0.571721017361,1.19961094856,0.835952997208,1.27849698067,-0.0902829989791,-1.03451704979,1.8101079464,1.46747601032,0.0432699993253,-0.304457008839,0.507304012775,1.52564001083,-0.390937000513,0.733215987682,0.764267027378,-0.234561994672,0.837186992168,-1.39439404011,-0.876662015915,0.162866994739,-0.934185028076,0.524213016033,-0.817546010017,0.706795990467,-2.4684240818,-0.210582002997,2.41863298416,-0.909789979458,0.820939004421,0.912639021873,-0.97010499239,1.00029802322,-0.396665006876,-0.846700012684,1.47858095169,0.880320012569,-1.41934502125,0.176677003503,0.207626998425,-1.82072198391,-0.115115001798,-1.19052696228,2.45375204086,-0.00128500000574,-0.827723026276,0.272826999426,2.06651997566,0.712346017361,-1.04088401794,-0.883669018745,0.90053999424,0.842290997505,0.411002993584,-0.523397028446,-0.701928019524,-0.314855009317,-0.22983199358,-0.113620996475,-1.69494998455,0.493954002857,0.315412998199,-0.784065008163,-0.637282013893,1.4997010231,-0.506833016872,-0.970106005669,-0.586722016335,2.94461202621,-0.179864004254,-0.0684719979763,0.836179971695,0.0771540030837,1.3032759428,-0.173760995269,0.47228500247,1.20824599266,0.169608995318,0.887053012848,1.28516805172,-0.462218999863,-0.852595984936,1.24436402321,-1.29168903828,0.0889019966125,0.0968020036817,1.07496500015,1.26681399345,-0.479332000017,0.99035602808,2.29630494118,0.67536097765,0.578509986401,1.77895104885,-1.058349967,1.14113795757,-0.0231400001794,-1.09493398666,-0.731419980526,0.905905008316,0.403340011835,1.54134595394,0.122804999352,-0.959905028343,-0.960476994514,-2.42161107063,0.365640997887,0.37263700366,-0.805760979652,0.197469994426,1.22090804577,-1.3307390213,-1.01428496838,0.0267239995301,-0.079779997468,0.313564985991,-0.405416995287,0.180288001895,-0.305173009634,1.14937698841,1.73020505905,0.563733994961,-1.58411097527,1.59369504452,-2.31416201591,1.05981302261,1.92759597301,-2.00884103775,-0.556146979332,-0.305438011885,-2.79376292229,-1.397611022,-0.180708006024,-0.0471410006285,-0.117509000003,0.309000998735,0.0389779992402,0.0581829994917,2.30208492279,0.610006988049,0.984726011753,-0.222639992833,-0.950993001461,-1.74606704712,0.778219997883,-1.60896503925,1.34897696972,-0.425978004932,0.895303010941,0.121256999671,1.47059094906,1.11685299873,0.990266025066,-1.17889404297,-1.31559002399,-0.198954999447,-0.12661999464,-0.912949979305,0.310658991337,-0.131188005209,-0.369690001011,-0.244012996554,2.84644198418,0.0394020006061,0.255748987198,0.770829021931,0.851427972317,-2.88675999641,0.203139007092,0.278813004494,0.154382005334,0.636938989162,0.525849997997,1.51672101021,-1.45952701569,2.21250009537,-0.622126996517,-0.507659971714,-0.312350988388,-0.529649019241,0.498739004135,-0.00942100025713,-1.47319805622,-0.135584995151,0.0161060001701,-0.358895003796,-1.98141098022,1.20980894566,-1.31789398193,-0.372878998518,-1.89391994476,0.815064013004,0.219345003366,1.28485202789,-0.461863011122,0.112383000553,-2.42717504501,-0.761790990829,-1.01395404339,0.944406986237,-1.69316995144,-0.591261982918,2.13968491554,-0.0672480016947,-0.345180988312,2.53432893753,-1.42083704472,-0.670244991779,1.32604801655,2.25644302368,-1.48100197315,-0.25031799078,-0.679711997509,-0.122576996684,-0.511604011059,-0.0549760013819,0.499220997095,0.997906982899,0.123421996832,2.01783704758,0.383094996214,0.320253998041,0.660175979137,2.02246809006,-0.318668007851,1.21091294289,1.16794896126,-0.4232249856,-1.29478502274,0.238409996033,-2.57683897018,-0.329672008753,1.44105195999,-0.104670003057,-0.323127001524,-1.37092804909,-2.06700801849,1.26777398586,0.0962880030274,-1.21377694607,-1.21161699295,-0.160959005356,-2.30643796921,-1.49069297314,1.20000195503,-0.581028997898,0.187801003456,-0.18834400177,0.432007998228,0.125281006098,2.74715995789,0.122865997255,-0.392098009586,0.393532007933,-0.551633000374,1.39992201328,-0.560139000416,-0.25955298543,0.139880001545,-0.246437996626,-1.59354805946,0.918510973454,0.949985027313,-0.252631992102,1.43857204914,-0.278075009584,1.45912599564,1.06674802303,-0.221327006817,-0.977927982807,0.961561977863,1.52138900757,-0.756415009499,0.513961017132,-0.132367998362,-1.54620504379,0.634113013744,-0.467546999454,0.286736011505,-2.16878604889,-2.62142801285,-0.971617996693,-1.71126401424,-0.400099009275,-1.09295105934,0.999773979187,-0.160209998488,0.951972007751,-0.168869003654,-2.09845304489,-1.54495501518,-1.21818900108,-1.20932805538,0.894195973873,-0.266321003437,1.48003602028,0.404691010714,-0.497916013002,1.02228796482,-3.23836398125,-1.80142402649,-1.02425205708,-2.25058293343,3.45910906792,1.36306798458,1.45575499535,-0.987221002579,-1.1600279808,1.41407096386,-2.21222305298,-0.381404012442,0.813356995583,-0.822408974171,-1.3000190258
电能,-0.0362070016563,1.05050694942,-0.020306000486,0.343865990639,0.276861011982,0.367071002722,0.947350025177,-1.47969698906,0.436928004026,-0.247407004237,-0.462130993605,-0.365247994661,-0.642628014088,0.870594024658,-0.443944990635,-0.12238600105,1.35362005234,-0.796085000038,-0.766252994537,-1.14344501495,0.32664000988,-0.850355029106,-0.0171329993755,-0.339336007833,0.291494011879,-0.0481459982693,0.21394200623,0.916490972042,-0.670662999153,0.521323978901,-0.0794140025973,-0.446593999863,-0.627304017544,0.303171992302,0.62038397789,-0.242275997996,0.772776007652,0.3233320117,0.562572002411,-0.168035000563,0.863588988781,-0.0414839982986,-0.0721499994397,-0.150278002024,0.571421027184,0.601999998093,-0.856528997421,0.112943001091,0.112466000021,-0.177985996008,0.73937702179,-0.981505990028,0.873403012753,0.425319999456,-0.49967700243,1.10709404945,-0.922415971756,-0.4530569911,-0.0684799998999,0.791181027889,0.275667995214,1.11205995083,-0.425954014063,-0.624711990356,-0.194673001766,-0.189428001642,-0.389580011368,0.0337609983981,0.283744007349,-0.51492202282,-1.30520904064,-0.526489019394,1.01899695396,1.10296499729,-0.238689005375,1.60577905178,1.18161201477,-0.677560985088,-0.677025020123,-0.292477995157,-0.235263004899,0.176152005792,0.3732829988,0.604734003544,0.724034011364,-0.885572016239,-0.654004991055,0.123553000391,0.517036020756,-0.959380984306,-0.0613729991019,1.03479003906,-0.0546839982271,0.607833981514,-0.148196995258,0.469199001789,-1.39198195934,0.689674973488,-0.176179006696,0.312985002995,0.503289997578,0.748880028725,-0.292905986309,0.754103004932,-0.118087999523,-0.804289996624,0.0357579998672,-0.31208100915,0.211786001921,-0.0539890006185,0.343091011047,-1.18556404114,-1.48799800873,-0.479999005795,-0.607385993004,0.318939000368,0.344110995531,0.644325017929,0.114032000303,0.954186022282,-1.17051005363,-1.39196395874,0.397165000439,-1.09579098225,0.473109006882,0.700504004955,-0.611096978188,-0.398472011089,0.369412004948,0.942538022995,-0.658370018005,-0.30789899826,-0.643001019955,0.919323027134,0.533188998699,-0.632884979248,0.0203920006752,0.483848005533,-0.00742099992931,-0.480374008417,0.655784010887,-0.238823994994,0.219961002469,-0.0117380004376,0.568816006184,0.208664000034,-0.48657399416,0.919529020786,0.303402006626,-1.24491405487,0.728564023972,0.641633987427,-0.15858900547,-0.0167839992791,0.403860986233,-0.226824998856,0.360211014748,0.278470009565,-0.588124990463,0.258551001549,0.0776600018144,0.0210340004414,-1.02900600433,-0.684314012527,0.469206005335,0.716561973095,-0.724470019341,-0.138194993138,-1.25023496151,-0.753221988678,0.116149000823,-0.441505998373,1.09628295898,-0.380221992731,-0.0924879983068,0.169375002384,1.20567500591,1.19095396996,0.346058011055,-0.250622987747,-1.2455830574,0.580986022949,0.0648629963398,0.355026006699,-0.538818001747,0.766654014587,-0.753361999989,0.230070993304,-0.810977995396,-0.909789025784,-0.132887005806,-0.0478090010583,-0.0189810004085,0.800980985165,-0.107377998531,-0.858847022057,0.0623829998076,-0.886152029037,0.526903986931,0.321635991335,0.983501970768,-0.629208028316,-0.219091996551,-0.235651001334,-0.0241739992052,1.04292404652,0.0498789995909,0.371594011784,-0.0288490001112,1.40352594852,-0.647728025913,-0.906747996807,1.39862895012,-0.417035996914,0.506256997585,0.939653992653,-1.24950802326,-0.546845972538,0.133814007044,-1.86693000793,-0.361490011215,-0.491750001907,0.594621002674,-0.731589019299,0.705796003342,-0.797590017319,-0.093272998929,0.0836749970913,0.869473993778,-0.766934990883,0.715097010136,0.22469599545,0.144371002913,-0.832664012909,1.20485198498,0.138905003667,-0.717733025551,-0.133882001042,1.27545404434,-0.239568993449,-0.0151730002835,0.618943989277,-0.112926997244,0.406080007553,-0.249531000853,0.344718009233,0.141918003559,-0.427442997694,-0.00656200014055,0.596131980419,-0.417075008154,0.895222008228,1.09470796585,-0.0733759999275,-0.777236998081,0.805703997612,-0.55937898159,-0.626222014427,0.862730979919,0.954793989658,-0.554983019829,-0.291088014841,-0.0147719997913,-0.642561972141,-0.0754600018263,-1.23962700367,-0.249979004264,0.433926999569,0.0405469983816,-0.196237996221,-0.02362800017,-1.02201294899,-0.740086972713,-0.318805009127,0.0337909981608,-0.530580997467,-1.12877094746,-1.40236103535,-0.092373996973,0.867730975151,-0.174233004451,0.796989023685,-0.118495002389,-0.0738160014153,-0.291207998991,-0.223126992583,0.0265800002962,-0.552312016487,-0.351285994053,0.88050198555,-0.0806810036302,-0.621127009392,-0.768360972404,0.511479973793,0.198480993509,0.368537008762,0.119599997997,-0.467422008514,-0.200870007277,0.343342006207,-0.818105995655,-0.401136994362,-0.344148010015,1.11019396782,0.903631985188,-0.58235001564,0.380466014147,-0.412003993988,-0.252086997032,1.47798097134,-0.492009013891,0.0210699997842,0.559037983418,0.138105005026,-0.0473939999938,-0.750597000122,-0.165747001767,-0.872680008411,1.11119294167,0.335269004107,0.459464997053,0.726144015789,0.138185992837,-0.0766440033913,-0.0354130007327,0.842522978783,-0.484948992729,-1.0679359436,-0.628103017807,1.22098004818,0.813871026039,-1.44590198994,-0.445104002953,-0.309632003307,0.0110440002754,-0.0550969988108,-0.507547974586,0.812730014324,-0.447059988976,-1.01535797119,-0.149570003152,0.312155991793,-0.0233600009233,-1.1585149765,0.788201987743,-0.210456997156,-0.352640986443,-0.482095986605,0.47843798995,-0.201021999121,-1.15567803383,0.773374974728,0.512995004654,1.31762599945,-0.870115995407,-0.95709002018,0.820348024368,0.546926021576,0.557411015034,0.755737006664,-0.153696000576,-0.491248011589,-0.405211985111,0.198231995106,-0.816500008106,-0.698369979858,-0.0442549996078,-0.330393999815,-1.24905395508,-0.403923004866,-0.426829993725,-0.249175995588,0.360617011786,0.080634996295,-0.172137007117,0.0648690015078,-1.47774505615,-0.686864972115,-0.823684990406,0.917348027229,-0.370124012232,0.91844701767,1.34243202209,-0.499942004681,0.538920998573,-1.64280903339,-0.268070995808,-0.231306001544,-1.41745197773,0.791914999485,-0.734879970551,-0.337155014277,-1.02519702911,-0.608812987804,-0.512946009636,-1.1250590086,0.238967999816,-1.16342198849,0.629733979702,0.438814997673
包括,-0.45458099246,0.164757996798,1.79915904999,-1.04949700832,0.733509004116,-0.782820999622,1.55502903461,0.660794019699,1.61958694458,-0.89761698246,0.535622000694,0.35279199481,-1.74530601501,-1.87399399281,0.167853996158,-1.00387001038,0.305721014738,-1.26508498192,0.240015000105,-1.57822299004,-0.263256013393,-0.918152987957,-0.410198003054,1.22108697891,2.20093798637,1.28687500954,0.667607009411,-0.836081981659,1.85371601582,0.544808983803,-1.48100399971,0.917953014374,-1.14600205421,-1.96656596661,0.953311979771,-0.30041500926,1.23065805435,-0.823512017727,-1.736956954,1.10004401207,0.61631000042,0.716252028942,-1.23382103443,-0.80795198679,1.15346395969,0.810011982918,0.159330993891,0.66695100069,-0.564612984657,-0.0291469991207,3.32593607903,-2.36165809631,0.8616309762,1.0287539959,0.046682998538,-1.57661497593,0.884683012962,-0.820316970348,-0.564092993736,1.03681397438,-0.371104985476,-1.69451105595,-0.961143016815,-0.364295989275,1.49793696404,-1.0467890501,0.293545007706,0.994126021862,0.571802973747,0.723227024078,-0.936886012554,0.921674013138,0.371354997158,-0.401280999184,-0.00771200004965,0.689547002316,1.58019697666,-0.714837014675,1.66086494923,-2.98004508018,0.240195006132,-1.89980697632,2.25126791,-0.238046005368,0.502623021603,0.565518021584,-0.0853070020676,-2.21869707108,0.220923006535,-0.717351019382,0.456472992897,-1.07067501545,-0.197669997811,0.110694997013,0.304879009724,-1.58364999294,2.15485191345,-0.491432994604,0.404356002808,0.416426986456,-0.315941005945,0.782885015011,-0.438149005175,1.05202901363,-2.2976269722,-2.66469597816,1.53348898888,-0.544652998447,0.0205060001463,-0.831881999969,-0.916168987751,1.42460298538,-1.14686894417,-0.269428998232,1.37158405781,2.41274309158,0.906876981258,0.312240988016,0.175301000476,-0.637138009071,-0.430447012186,-1.08631694317,0.951385974884,-1.15662896633,-1.15687298775,0.231864005327,-1.34062504768,-0.304652988911,0.488011002541,-0.816477000713,-0.0516530014575,-1.97015798092,-1.44315505028,0.0445979982615,0.862852990627,0.0676129981875,0.319023013115,-0.218733996153,0.254290997982,0.670490980148,1.28575205803,-0.0801850035787,0.164633005857,-0.273562014103,-1.2591329813,-0.292937010527,-0.157086998224,0.922022998333,1.58452701569,-1.22032296658,0.148820996284,0.6534730196,-2.0393679142,0.0603480003774,0.921579003334,0.998567998409,0.783999025822,0.95196801424,0.810815989971,-0.172591999173,0.497561007738,-2.43847894669,0.322001993656,1.52843701839,2.06227993965,0.242552995682,-1.35942101479,0.529434978962,-2.69018101692,1.42549800873,0.215532004833,-1.18721103668,-0.862232029438,1.12271499634,0.995172977448,0.102456003428,1.88078403473,-0.255524009466,0.278115004301,-0.617504000664,-0.024075999856,-0.295720994473,-0.526772975922,-1.73352503777,-1.01357400417,0.700094997883,-1.37312996387,1.12802600861,-0.795297980309,1.30646204948,0.748883008957,-1.38669705391,2.25542211533,0.225940003991,1.16594099998,-0.158812001348,1.01716899872,-0.115846000612,-0.998345971107,1.97673797607,-0.579613983631,-1.39214301109,-1.57517898083,-3.12755990028,-0.845227003098,-1.39766597748,0.214383006096,0.459859013557,-0.591390013695,-0.704195022583,-0.436646997929,0.625757992268,0.0283080004156,-1.20953798294,0.664031028748,0.068915002048,1.27981197834,0.00837600044906,-0.575942993164,-0.602973997593,0.226180002093,0.933906018734,-0.644033014774,0.444972991943,-0.768212974072,1.46541404724,0.508481025696,-0.906832993031,-0.159122005105,-0.415253996849,-0.607084989548,-1.975949049,1.71390104294,-1.27606701851,1.73988699913,0.337525010109,1.00392699242,0.876667976379,-1.65308201313,-0.211097002029,-0.983739972115,-0.0362740010023,0.0229870006442,-0.44423699379,-0.241473004222,-1.62508797646,0.31343999505,-0.423994988203,-0.0189789999276,-0.44366300106,0.757034003735,0.365139991045,-0.0738999992609,-1.11206996441,-1.16192305088,-0.320629000664,-1.2597630024,0.53752797842,-0.465131998062,0.544440984726,0.419093996286,0.463856011629,0.670464992523,-0.460119009018,-0.833801984787,-0.382362991571,2.18521809578,0.26867800951,-1.23650801182,-1.1147480011,0.732991993427,0.592454016209,-0.202702000737,0.813533008099,-0.106539003551,0.177596002817,-1.19238305092,1.75196099281,0.943477988243,-0.535651981831,0.558507978916,1.94003796577,0.85153901577,-0.693044006824,-0.577216982841,0.392235010862,1.05674302578,-0.630775988102,0.74019497633,0.509913980961,1.17580199242,1.82550597191,-1.17437505722,-1.27008104324,0.272271990776,0.219248995185,-1.13816094398,0.168464004993,-0.46457400918,1.19388699532,-1.39800798893,-0.00100199994631,-0.41308298707,0.356914997101,1.07615494728,-0.964807987213,-0.489504992962,0.664205014706,-0.546822011471,2.37935996056,-0.538571000099,-1.02659094334,1.98566901684,-0.77510201931,0.0225370004773,0.946175992489,-1.21878004074,1.57324898243,0.01832799986,0.902724981308,2.083081007,0.291148990393,-0.424068003893,2.19520306587,-0.750169992447,1.03171801567,0.0738869979978,-0.89485001564,-0.118777997792,1.16980195045,-0.124298997223,1.61822104454,-0.156580001116,0.307168006897,2.61532402039,0.467014998198,-0.682807028294,-0.458820998669,-0.330401986837,-1.25936794281,-1.04619801044,-0.290796995163,-0.279507011175,-1.34332501888,-0.627764999866,2.15378308296,2.02582907677,1.25430798531,-1.39620900154,1.12433302402,-1.06657505035,-0.652185976505,0.230636999011,-0.844760000706,0.0122959995642,-0.923538029194,0.647957980633,1.10619699955,-0.589318990707,1.28975200653,-1.05566096306,-0.451656997204,-0.372523993254,-0.500169992447,-0.701224029064,0.200872004032,-1.88276195526,-0.0383489988744,0.818098008633,0.56969499588,-2.27243709564,-1.01694703102,-0.596351981163,0.358373999596,-2.69290590286,-1.62794494629,-2.06400203705,0.929220974445,-0.877553999424,-2.22939395905,-0.593096017838,-0.592799007893,0.57443600893,-1.57796001434,3.57118201256,0.422749996185,-2.8557009697,0.679933011532,-1.67461001873,-0.000548999989405,0.78701198101,2.60092806816,0.774625003338,0.437391012907,0.762611985207,0.243417993188,0.965864002705,-0.330404996872,0.462238013744,-0.50283998251
容量,0.111097000539,2.99821090698,1.09649395943,-0.655649006367,2.26437997818,1.83265197277,0.444680988789,-1.78553795815,0.882562994957,-0.243155002594,0.925379991531,0.370916008949,-1.9857070446,0.228174000978,-1.07913196087,-0.225887000561,-0.209448993206,0.620481014252,1.84556305408,-2.45010209084,-0.427904009819,-0.139199003577,-0.899245977402,-0.595592021942,0.46275600791,-0.271990001202,0.327980995178,-0.410786986351,0.962019979954,-0.654197990894,0.77846801281,-0.282269001007,-0.377921998501,1.75184500217,1.10492098331,-0.602060973644,0.814221978188,0.341899991035,0.330036997795,0.744874000549,1.65333902836,-0.0851690024137,0.410766988993,-0.883442997932,0.599569022655,-1.1759519577,0.140793994069,0.896921992302,-0.539516985416,-1.53280496597,1.1859010458,-0.870546996593,0.100032001734,1.91774296761,-1.65620601177,-0.807936012745,0.131846994162,-1.10192501545,-0.0437199994922,-0.0213629994541,-0.797311007977,0.228199005127,-1.14426004887,1.38181698322,0.608913004398,1.99560403824,-0.191954001784,0.627227008343,1.31207597256,-1.02438700199,1.51610696316,-0.268839001656,-0.281738996506,0.561419010162,-1.51969194412,0.817139029503,1.73960494995,0.407873004675,-0.0689300000668,-0.293222993612,0.684759020805,-0.248028993607,1.36288094521,0.590546011925,0.284415990114,-0.580687999725,-0.751594007015,-0.446711987257,2.08203411102,0.559662997723,0.676813006401,0.2765429914,0.701497972012,0.042103998363,0.0278990007937,-0.156591996551,0.46352699399,0.205328002572,1.27948594093,0.188843995333,1.64505898952,-0.137596994638,-1.22260200977,0.187454998493,0.26056599617,-0.84874099493,1.04627203941,0.970579981804,1.04455399513,1.54916596413,1.13353395462,-0.979471027851,-1.15018999577,-0.676149010658,-1.07513594627,1.25813603401,3.98223495483,0.42268499732,0.25982400775,0.900308012962,0.402260005474,-2.52120900154,-0.474150002003,-1.6687400341,1.39829695225,-0.0614009983838,-0.85807299614,-1.56934201717,0.425098985434,2.22880792618,-0.21518599987,-0.168941006064,-1.30991005898,-0.263529986143,0.596107006073,-1.90199995041,-1.87411201,-0.460418999195,0.614481985569,-0.338420003653,1.4437930584,1.18766903877,0.860850989819,-0.273223012686,1.58656203747,-0.812304973602,0.215435996652,1.30264699459,1.33271503448,0.00273000006564,1.11821901798,-1.47991895676,1.25518202782,-0.369843989611,3.00666809082,-0.35717600584,0.303131014109,0.49101999402,0.17275300622,0.454665988684,-1.47824800014,-0.562992990017,-0.364652007818,-2.26457595825,2.37032294273,1.7728869915,0.201695993543,-0.746345996857,-0.240762993693,-0.713061988354,-1.69489204884,0.0691249966621,-0.484802991152,-0.568681001663,1.00386404991,1.47270596027,1.72851395607,0.439817994833,1.68990397453,0.356460005045,-2.41627502441,0.119148001075,0.277191013098,0.315079003572,-0.0763460025191,0.375189989805,0.737434983253,0.485983997583,1.27342498302,-1.3064160347,-1.10523402691,-1.23674297333,-0.137072995305,-0.642831027508,0.818059980869,0.36673900485,0.192993998528,-0.875756978989,0.541817009449,2.22592401505,2.2745718956,0.49292498827,-0.357804000378,0.366991996765,-0.598635017872,-1.58970201015,-0.523185014725,0.722037017345,0.107800997794,1.60351097584,-0.577838003635,-0.0286580007523,0.396674007177,1.72168695927,-0.692255973816,-0.909507989883,-1.64934897423,-0.51925599575,-0.0661230012774,-1.99266898632,-0.747880995274,0.0517879985273,0.341037988663,-0.622572004795,1.60871303082,-1.82248604298,0.570225000381,1.3959800005,0.438704997301,0.187121003866,0.459899991751,-0.456122010946,0.628820002079,-0.197870999575,-0.15178899467,-1.9275649786,-1.00463199615,0.303564995527,0.664682984352,1.6306810379,-2.74601411819,-0.0415159985423,-0.476752012968,1.37466597557,-0.224501997232,-1.30033004284,2.51698708534,-0.925167024136,1.33487594128,1.10395801067,-0.343573987484,1.71254205704,0.254599988461,1.05922400951,1.39609599113,-0.275317013264,-0.876309990883,0.150321006775,1.07935094833,0.188715994358,-0.747968018055,-0.134333997965,1.86969697475,-0.854918003082,-0.887935996056,-0.959779977798,-0.394005000591,2.3109190464,1.48747205734,0.071002997458,-0.554929971695,-1.81477403641,-0.797113001347,0.0690070018172,-1.49284303188,0.340898990631,-2.46030211449,0.065939001739,-0.418540000916,-2.44879198074,0.421333998442,-0.953606009483,-0.668583989143,-1.20827698708,-1.67301094532,0.627148985863,-0.808129012585,0.937973976135,0.544762015343,-0.641483008862,-2.63246798515,0.665116012096,-0.737120985985,1.30484604836,1.38686597347,0.12480700016,0.585650026798,-1.55005097389,-1.37792503834,1.09515202045,-1.7572170496,-1.31443595886,-0.0440470017493,-0.125689998269,-0.00970899965614,0.785717010498,-0.0788799971342,-0.456696987152,0.0185860004276,1.85482501984,-0.327513992786,-1.62763595581,0.876634001732,-1.96801495552,0.778177976608,1.40955603123,-0.468679010868,-0.349343985319,0.787808001041,-0.000480999995489,0.32698699832,0.812520980835,1.68058300018,-0.501766979694,1.6355509758,-0.788290977478,-1.22369599342,-0.611572027206,-1.09005594254,2.16712093353,1.32451200485,0.129953995347,-0.729187011719,0.412155002356,1.69489598274,0.934943974018,-0.839112997055,0.541020989418,1.87702095509,0.554003000259,-0.19450199604,0.206070005894,1.12560904026,0.380894005299,2.77209401131,0.163085997105,-0.0583040006459,-0.141248002648,-0.0896650031209,-0.28659799695,-1.219004035,1.02975904942,0.999459981918,-0.12107899785,-0.641945004463,-1.74328804016,1.4936259985,0.514334022999,0.741559028625,1.05849695206,-0.126542001963,-0.704695999622,-0.448316007853,0.383455991745,-0.266451001167,0.380017995834,-0.162649005651,-2.11610794067,0.33113399148,0.477660000324,-1.26877999306,1.35659003258,1.3740799427,0.613023996353,-0.0403590016067,-1.54622399807,-1.83466398716,1.01238405704,-2.1105530262,-0.0812200009823,1.51923894882,0.346747994423,2.41799807549,0.519994020462,0.838410973549,-1.74607503414,-1.06701695919,0.0268740002066,-0.621264994144,1.02033400536,-0.619877994061,-0.343791991472,0.101585000753,-0.808084011078,1.30893397331,-2.28264689445,0.301670014858,-0.379088014364,1.33931601048,0.93814599514
产生,0.762242019176,0.201608002186,1.51922702789,-0.287707000971,3.19357395172,-0.674126982689,1.39998197556,-1.34874498844,-1.7800860405,-0.406818002462,0.0128969997168,-1.18517899513,-0.648064017296,-1.44187498093,0.940199017525,-0.689471006393,-0.167266994715,-0.428070008755,-0.323585003614,-2.33797907829,2.01655292511,0.479086995125,0.496619999409,0.403349995613,2.14651799202,1.51777005196,-0.577389001846,1.32751202583,0.0765509977937,1.98577094078,-3.24525904655,-0.404419988394,-0.361634999514,-0.978492021561,0.127391993999,-0.978335976601,-1.22816503048,-0.315133988857,-2.43916797638,1.46482801437,0.248841002584,1.94544899464,-1.91233003139,-2.88558101654,-0.340270996094,0.712719023228,0.0197979994118,-1.70407998562,0.71582198143,0.1973669976,0.315274000168,-1.58613204956,0.616536974907,0.104377001524,-1.17828905582,1.32167196274,0.465622991323,-1.81291699409,0.0439850017428,1.45149302483,0.195087999105,0.255122989416,-0.747142970562,-0.336834013462,0.290309011936,-1.42798697948,-0.497175991535,-1.52868199348,-0.096437998116,0.0230069998652,1.20593094826,-1.91413295269,0.0654380023479,2.26294708252,-0.486593008041,0.597795009613,1.73725795746,-1.08992099762,0.814997017384,-0.266054004431,1.28037297726,2.25479698181,-1.57557404041,0.705712974072,2.9349360466,0.110320001841,1.16229701042,1.37364494801,0.381200999022,0.327439010143,-0.26900100708,-1.09557700157,1.20987796783,1.28659999371,-0.734502971172,-0.196039006114,-1.23927199841,1.75092899799,-0.38861900568,-0.601797997952,-0.114339001477,0.54848498106,1.15719902515,0.951695978642,0.319579988718,-2.36243891716,-0.631039977074,-1.29348099232,0.90256601572,-0.522742986679,-0.507636010647,-1.12073600292,0.640743970871,1.10838699341,0.79855799675,1.68485403061,2.56425905228,-0.873215973377,-0.0892930030823,-0.220578998327,-1.8651059866,-0.0372180007398,0.15780800581,0.296768993139,0.131608992815,0.510428011417,-3.75314688683,1.31183004379,-1.856153965,0.105044998229,-0.0849599987268,0.943359017372,-1.24165999889,1.20698797703,-0.722795009613,-0.103468999267,0.665692985058,1.15780305862,1.8035119772,-0.514195978642,1.07155895233,0.503108978271,-1.41041994095,-2.17355799675,-0.179231002927,-0.101129002869,-0.112328998744,1.16715300083,-1.25421798229,-1.6697050333,1.26657497883,0.0591159984469,0.712244987488,-0.09720300138,1.82066595554,0.521876990795,0.868767023087,1.08227801323,-2.25147509575,0.891496002674,0.416730999947,0.583639979362,0.682006001472,-0.706673979759,1.82816398144,1.38694596291,-0.256417006254,-1.0534260273,-1.96109604836,-1.00008094311,1.27137494087,-0.384725004435,1.69629204273,-2.54659700394,0.157076001167,-0.618785023689,0.895838975906,2.58421707153,-0.631327986717,1.04566204548,-1.38960301876,0.117444999516,0.175216004252,-1.80394101143,0.276499986649,0.807750999928,0.664819002151,-0.463066995144,-0.477771997452,0.0536289997399,-1.03336501122,0.144955992699,2.62819910049,1.08473598957,0.213896006346,-1.37904596329,-1.15266895294,-1.37345194817,0.171629995108,2.79540991783,-1.52108299732,-0.901690006256,-0.763195991516,0.882109999657,-0.427370011806,-0.808324992657,-0.537899017334,0.538336992264,-0.793922007084,1.32129096985,0.321776986122,-0.359122991562,2.45125293732,-1.55250203609,-0.484396994114,0.447443991899,-1.43351495266,-0.567580997944,0.857430994511,0.11390800029,0.530246973038,-1.10405695438,0.107505999506,-0.746115982533,-1.36851501465,-2.48574709892,-1.05431902409,0.421355992556,-2.57189202309,-3.12335395813,-0.631973981857,0.480816990137,1.15969395638,-0.45581099391,1.51169896126,0.0847110003233,0.943617999554,0.0770239979029,1.5051599741,-1.32577204704,-0.504680991173,-0.316790997982,-0.232410997152,-0.00319500011392,-2.57203793526,-2.24558401108,-0.934315025806,0.801773011684,-0.0262359995395,-0.17962500453,0.437801003456,0.642304003239,0.618759989738,-1.08718895912,-1.61142802238,1.24499702454,-1.25227296352,0.303090006113,1.61906003952,1.12134301662,-1.61796605587,0.251596987247,-0.539532005787,-1.05251300335,-1.27377104759,-0.981815993786,-1.24064302444,-1.47805500031,0.272390007973,-0.8338149786,-1.82571399212,-1.22372198105,0.515875995159,0.214062005281,0.800754010677,1.38351297379,-0.813960015774,-0.982865989208,-0.309186011553,-0.846629023552,-1.76362097263,1.9666210413,0.359910011292,-0.454591989517,-0.334710985422,-0.0459939986467,-1.55228996277,-1.95768499374,-0.245875999331,0.944324970245,-0.144465997815,-1.33221304417,-0.485365986824,1.37057995796,0.466578990221,1.00544500351,0.243643000722,-0.0387570001185,-1.91920101643,-0.38335698843,-1.95464599133,0.196186006069,0.991340994835,1.73289501667,-0.00985000003129,1.65286695957,0.155043005943,-0.163047999144,-0.073686003685,0.120264001191,-0.727594017982,-0.113251999021,1.94807195663,-1.94290804863,-1.33053505421,-0.216879993677,-0.7193390131,-2.38248109818,0.276360988617,0.176946997643,0.457926988602,-0.721298992634,-0.233629003167,-0.402292013168,-0.370801985264,-2.00008296967,-0.23299600184,-0.420502990484,1.32090497017,-0.516460001469,-0.429527997971,0.479281008244,-0.132642999291,-2.07086110115,1.93308603764,-1.30497896671,-1.25125396252,0.726418972015,-2.35569810867,2.31545495987,-0.154688000679,1.60478305817,-0.245075002313,-1.36772298813,1.24921405315,-0.462045997381,1.0222350359,1.338539958,-1.65030801296,-0.292225986719,0.296530991793,-0.115494996309,2.35396194458,1.76462805271,0.742366015911,-0.129877001047,0.487567007542,-0.0109400004148,-0.649922013283,1.22753405571,0.856833994389,0.19481100142,-0.216600000858,-1.21761000156,-0.475302994251,-1.57380795479,-1.19501101971,0.506359994411,-0.135551005602,-0.407177001238,-0.874598026276,-1.65080702305,-0.259719014168,0.335384994745,-1.54173099995,-1.37397503853,-1.70568096638,-0.672015011311,-0.909207999706,-1.93542504311,0.651793003082,-0.598389983177,-0.75356900692,-0.934310019016,-0.229451999068,-0.112005002797,-1.03991794586,-1.20047795773,-0.707481980324,1.32005703449,2.57763695717,-0.430725991726,0.0275640003383,0.47903200984,1.3483890295,-0.93840098381,0.743618011475,-1.01183104515,-1.15390396118,-1.09777796268
构造,-1.66824197769,0.894567012787,1.62371098995,0.322219997644,2.6457669735,-0.799540996552,-0.110103003681,-2.46229410172,0.681810975075,1.32516205311,-1.01541399956,0.951713979244,-0.507525980473,0.518687009811,-0.478368014097,-0.471601009369,-0.250189989805,-0.925230026245,0.667102992535,-0.510900020599,-1.62577903271,0.485545009375,0.258982002735,1.23061394691,-0.802277982235,0.598016023636,-0.50594997406,0.380012989044,-1.18678605556,1.60249900818,0.471421003342,0.216088995337,0.0925730019808,0.47135001421,1.75411999226,-0.0638310015202,0.173805996776,-0.254202991724,1.74521994591,1.45312702656,-0.0426749996841,-1.49967300892,-1.44530904293,-0.414793998003,0.371942013502,0.617510020733,0.564267992973,-2.03284788132,0.0489739999175,-0.0584050007164,0.305399000645,-1.40518796444,0.919833004475,0.819145977497,-2.91168308258,0.509697020054,2.34153389931,0.339626014233,-1.51038300991,-0.28779399395,-0.90943801403,0.413877993822,-0.977002024651,0.140009999275,-1.11291599274,-1.1466230154,-0.713836014271,0.724418997765,1.68342399597,-1.11726903915,-0.574177026749,-0.425451993942,0.234793007374,0.911697983742,-0.286287009716,0.103745996952,0.103398002684,1.88260698318,-0.606930971146,0.501594007015,0.0803290009499,-1.29349398613,-0.254227012396,0.0947929993272,-0.158114999533,0.733229994774,0.162272006273,-1.44527995586,0.674170017242,-0.370335996151,0.0328090004623,-0.857183992863,-0.157073006034,-0.546066999435,-1.14380204678,-0.418085992336,0.737582981586,-0.0616259984672,-1.6790009737,0.477907001972,0.572875022888,-1.85700798035,0.768580019474,1.50921094418,1.61083900928,-0.877373993397,2.04616904259,0.967122972012,0.405925989151,-1.78062796593,-0.18815100193,-0.939985990524,0.616023004055,0.0816249996424,0.643694996834,1.24277698994,0.82450902462,-1.41720104218,0.256792008877,0.274203985929,-0.823791980743,1.29454898834,1.19255805016,-2.10671210289,-0.318479001522,1.26557302475,-1.09878802299,-1.7176220417,0.192465007305,-1.29893100262,-0.0127400001511,-0.65748500824,-1.53593194485,1.39271104336,0.262488991022,-0.0540620014071,-0.521369993687,-0.227836996317,-1.02507400513,-0.947013020515,0.729007005692,0.0164839997888,-0.350003004074,0.3491320014,-0.355554997921,-0.389086991549,0.442867994308,1.58843696117,-1.74958097935,-0.846192002296,1.21600496769,1.0157020092,0.73113399744,-0.747443020344,1.57411205769,-0.18148599565,0.570559978485,-0.562874019146,0.0861179977655,1.93877398968,0.745553016663,-2.00794100761,1.15079402924,-1.12549698353,-0.592767000198,0.0447009988129,0.254162013531,-0.208206996322,-1.17386102676,0.198083996773,0.0769229978323,0.106764003634,1.04612696171,0.71511900425,0.123141996562,-0.46871599555,1.30811500549,1.75512897968,0.551873981953,1.1853890419,-0.449835002422,0.733063995838,0.55782699585,0.11152099818,0.00766899995506,2.01171398163,0.795783996582,-0.0930109992623,1.20254802704,0.3945119977,-0.877534985542,-1.01424300671,0.130687996745,1.06191194057,1.04442095757,0.430406987667,-0.196572005749,-0.545912981033,-0.127415001392,0.244121000171,0.13520899415,0.617823004723,-1.32032704353,0.66589397192,-0.978330016136,0.891757011414,1.03470396996,0.719035983086,-0.882192015648,0.390859007835,0.0609680004418,-1.99158000946,1.22556400299,1.45439994335,2.68400192261,-0.107680000365,-0.838663995266,0.538441002369,0.595118999481,0.137822002172,0.785274028778,1.05807900429,0.822070002556,-0.300612986088,0.049862999469,-0.651753008366,-0.416552990675,-0.649285972118,-0.0407139994204,-0.307839989662,0.0897689983249,0.924284994602,-0.00521200010553,-0.402281999588,0.444505006075,-0.499107986689,0.324059009552,0.386173009872,0.79876601696,0.914165973663,1.51832604408,0.378735989332,0.481285005808,0.536936998367,-0.918506026268,-0.207014992833,0.107482001185,-0.660337984562,-0.438257008791,-0.0385549999774,-1.1693700552,0.133633002639,0.132246002555,-0.0728430002928,-0.310115993023,0.406715005636,-0.457410007715,-0.0684970021248,1.85891103745,1.49521899223,0.309020012617,-0.924592018127,0.0986289978027,0.693441987038,-1.06003403664,-1.01848602295,-2.03677511215,-0.344240009785,0.406857997179,0.867619991302,-0.473412007093,0.803296983242,-0.616362988949,1.93682897091,-2.22312188148,1.96747004986,-0.168852001429,0.72555398941,0.985836029053,-0.878678023815,0.756923019886,0.880527019501,1.35011601448,-0.2375870049,-0.756676018238,1.30012798309,0.115676000714,-1.50187695026,-1.62069201469,0.767049014568,0.101328000426,-0.349427998066,-1.18586301804,-0.296891003847,-0.827461004257,-0.951816022396,0.432056009769,0.674166023731,0.472333997488,-0.562767028809,0.780586004257,-0.280348002911,-1.09773898125,-0.380223989487,1.01970005035,1.2745039463,-1.0186419487,-0.331537008286,-1.40239405632,0.624558985233,-0.454737007618,-0.569779992104,0.912527024746,-0.036858998239,-0.19651299715,1.86210203171,-1.1653380394,-1.09990203381,-0.119534999132,0.206472992897,-0.519986987114,0.0179370008409,-1.23933005333,-0.159362003207,0.956691026688,-0.372752010822,0.106974996626,-1.72380697727,0.573010981083,-1.23567605019,1.55983304977,0.26498401165,-0.122929997742,0.141683995724,1.9803930521,-0.9892359972,-0.233105003834,0.114343002439,-1.32392001152,-0.76063901186,1.23049998283,-0.239705994725,-0.952724993229,-1.16846501827,1.05659294128,0.655700027943,-0.933393001556,0.382239997387,1.09533703327,-1.02516698837,0.334302008152,-0.475151002407,0.493633985519,0.206749007106,-0.469870001078,-0.188394993544,0.694905996323,1.11047399044,-1.7569899559,1.25010895729,-0.438169002533,0.480497986078,-0.666037976742,1.15834796429,0.107068002224,-2.03096199036,-1.31522202492,-1.2420129776,-0.542737007141,-0.625569999218,-1.26229596138,0.113771997392,-0.606333971024,0.934208989143,-1.42602002621,-1.85070300102,-1.21874201298,-0.638055026531,-0.543874025345,-0.483808010817,0.597478985786,0.0604659989476,0.108018003404,0.78521502018,2.57012796402,-1.64514601231,1.3482530117,-0.935871005058,-0.779525995255,0.929691016674,0.441018998623,0.167328000069,-0.123677998781,0.288120001554,0.975849986076,-0.276591986418,0.783770024776,-0.12824100256,1.16856396198,0.215889006853
具有,-0.0681810006499,1.40470600128,2.58015298843,-0.417515993118,1.00962400436,-1.16817700863,1.30608701706,0.617208003998,-0.418976008892,0.680073976517,0.0320670008659,-0.412878006697,-0.458056002855,-1.79766905308,-0.482612013817,-0.850849986076,-2.08274888992,-1.79438197613,-0.0770839974284,-1.89013195038,-0.18320299685,1.71037101746,-0.515230000019,1.49715602398,1.35511505604,1.70045101643,0.843391001225,0.205026000738,-0.423913002014,0.0648590028286,-1.09362101555,0.0337539985776,-0.537654995918,1.05566394329,0.0166209992021,0.806357979774,-0.569635987282,-1.49469900131,-1.22647595406,1.73556303978,0.0558639988303,0.265271008015,0.105435997248,-2.35379004478,-0.376747995615,-0.36556199193,1.25548601151,-2.27157998085,1.02639400959,0.00692400010303,2.40711808205,2.47078704834,0.168236002326,0.261465996504,-0.577809989452,-0.711461007595,1.20865595341,-1.4975039959,-1.41725695133,0.847477018833,-0.984902024269,-1.34774005413,-0.193630993366,-0.443363010883,-2.12132501602,-1.61161196232,-0.036683999002,0.0770559981465,-1.23883497715,0.370943009853,0.356952011585,0.782513022423,0.139865994453,1.46712398529,-0.828422009945,-1.27127599716,1.79189300537,0.0404720008373,-0.571823000908,-1.20284795761,0.168824002147,0.45746999979,1.38751196861,0.675350010395,0.668947994709,-0.0208540000021,-0.198296993971,-1.33238601685,-0.342359006405,0.202732995152,0.675924003124,-0.0596310012043,0.792818009853,0.174928992987,-1.06169605255,0.60242497921,2.69266796112,-0.856046020985,-0.832304000854,-0.920239984989,0.240029007196,0.79019600153,0.500250995159,1.20982801914,-0.877777993679,-1.54953205585,0.789002001286,-0.0270620007068,-0.210247993469,-1.72801196575,0.124601997435,-0.0102399997413,-1.98794603348,0.560717999935,-0.582768976688,0.270738005638,1.57074296474,-2.07348608971,-0.341502994299,-0.572614014149,0.466809004545,-2.11353111267,0.257672011852,-1.0773639679,-1.49024105072,0.523836016655,-3.8909330368,0.0322370007634,0.614049017429,1.9462389946,0.432294994593,1.02524995804,-1.23026394844,0.811007976532,0.511888027191,-0.653074979782,0.123153999448,0.644003987312,0.620209991932,0.664552986622,-0.869156002998,-1.14205598831,-0.596728980541,-1.53448200226,0.8639960289,-2.00579190254,0.358027994633,1.05628097057,-0.402871996164,-1.20546996593,2.7305688858,0.258213013411,-0.436002999544,1.54279303551,1.13282501698,0.675576984882,0.61507499218,0.13313600421,-0.850395023823,1.10713100433,-0.0807140022516,-1.68908596039,1.18916904926,0.00458300020546,1.18081700802,-0.973964989185,-0.456936985254,-1.34860599041,-0.75123000145,-0.329811006784,-0.933367013931,-0.63809800148,-0.0689800009131,0.0177490003407,0.48097500205,0.82540500164,1.90796804428,2.58681893349,1.5687019825,2.3834810257,-2.55086803436,-0.167386993766,0.528226017952,-0.517509996891,-0.928963005543,-0.0507950000465,0.0726799964905,0.476684004068,-1.01190197468,0.669575989246,2.04224491119,-0.568099021912,1.69628596306,0.644079983234,-1.3272190094,-0.755998015404,0.0239199995995,1.02561295033,-0.916594982147,1.42628097534,-0.114302001894,-1.09185600281,-0.0769499987364,0.156933993101,-2.759567976,0.32309499383,-1.16582500935,0.308063000441,0.931065022945,1.64484596252,-1.01818299294,-0.313383996487,0.829441010952,-1.02109003067,1.40923297405,0.0107589997351,-0.743929982185,1.58135902882,-0.00687099993229,0.496219992638,0.294970989227,-0.580114006996,1.24730801582,0.16482399404,-2.8324201107,-2.68248391151,-0.340782999992,0.111527003348,-1.22633004189,-0.721207022667,-1.72058594227,-0.587580025196,0.447302997112,-3.02866101265,2.18809604645,-1.44568097591,0.390179991722,0.929045975208,1.12976002693,0.0662299990654,-0.653360009193,-0.0801040008664,1.08141100407,2.45656299591,0.0704040005803,0.708298027515,-2.02672290802,-0.61773699522,-0.941561996937,-2.54302310944,1.7059930563,0.749988019466,0.789391994476,-2.20186710358,-0.992626011372,-0.356705993414,-1.1988710165,-0.155992001295,0.778155982494,0.136042997241,1.02354300022,0.391003996134,0.450367003679,0.455379992723,-0.00685400003567,-1.35155105591,-1.85231101513,1.5436270237,-1.0235029459,-1.02440702915,-1.30442500114,0.203139007092,-1.23908400536,-0.316504001617,-0.590174019337,1.33123898506,-1.30481004715,-0.494785010815,-2.10413002968,0.325338989496,-0.327114999294,0.678718984127,1.29269099236,-0.818531990051,-0.57722902298,-0.975718975067,-0.473823010921,-1.84104895592,-0.951117992401,2.53559803963,0.138503998518,0.353875011206,0.318973004818,-0.825444996357,1.61142897606,-0.528271019459,0.152013003826,-0.402534008026,0.10733500123,-2.35540103912,-1.74005305767,1.45838999748,0.552447974682,-0.745907008648,-0.173974007368,-0.78741300106,0.289137989283,1.44880998135,1.35511898994,0.996173024178,0.924515008926,-1.22544896603,2.00497603416,-0.649911999702,-1.65961098671,1.28914701939,0.331835001707,-0.15159599483,-0.958675026894,-0.141911998391,-0.348701000214,-1.57021594048,-0.838141977787,0.846167981625,-0.327657997608,0.649896025658,-2.56881904602,-0.188077002764,-1.76996803284,-2.26689600945,1.33644902706,-1.19589698315,-1.27485001087,-1.55149805546,1.99730801582,-1.57301497459,0.634286999702,-0.307164013386,-0.54387897253,0.467918008566,0.0257360003889,1.5084810257,-0.249283999205,-2.2722389698,1.70656895638,1.08219504356,-0.675953984261,2.13902211189,-1.67171704769,0.783581972122,-0.240817993879,-0.773638010025,2.44632005692,2.29708909988,0.571361005306,-0.126895993948,0.937871992588,-0.770433008671,-1.28128004074,1.86798095703,1.48265504837,0.645736992359,-2.69974303246,-0.188534006476,2.70706701279,-0.138572007418,-2.07960009575,-0.427298992872,-0.662240028381,-0.1396510005,-0.28536298871,-2.02715992928,1.39363503456,1.65049695969,-0.0658790022135,-1.30796802044,-1.70810103416,-0.0225639995188,0.366820007563,0.160209998488,-0.21618899703,-0.970288991928,-1.24033105373,0.759651005268,1.81904995441,-1.63943505287,-0.373369991779,-1.52522802353,-2.56299090385,1.27070105076,2.01581597328,1.51417005062,0.541059970856,-0.962484002113,0.908342003822,-0.727864027023,1.95490598679,-0.627606987953,-0.308317005634,-0.275135993958
