word,0,1,2,3,4,5,6,7,8,9,10,11,12,13,14,15,16,17,18,19,20,21,22,23,24,25,26,27,28,29,30,31,32,33,34,35,36,37,38,39,40,41,42,43,44,45,46,47,48,49,50,51,52,53,54,55,56,57,58,59,60,61,62,63,64,65,66,67,68,69,70,71,72,73,74,75,76,77,78,79,80,81,82,83,84,85,86,87,88,89,90,91,92,93,94,95,96,97,98,99,100,101,102,103,104,105,106,107,108,109,110,111,112,113,114,115,116,117,118,119,120,121,122,123,124,125,126,127,128,129,130,131,132,133,134,135,136,137,138,139,140,141,142,143,144,145,146,147,148,149,150,151,152,153,154,155,156,157,158,159,160,161,162,163,164,165,166,167,168,169,170,171,172,173,174,175,176,177,178,179,180,181,182,183,184,185,186,187,188,189,190,191,192,193,194,195,196,197,198,199,200,201,202,203,204,205,206,207,208,209,210,211,212,213,214,215,216,217,218,219,220,221,222,223,224,225,226,227,228,229,230,231,232,233,234,235,236,237,238,239,240,241,242,243,244,245,246,247,248,249,250,251,252,253,254,255,256,257,258,259,260,261,262,263,264,265,266,267,268,269,270,271,272,273,274,275,276,277,278,279,280,281,282,283,284,285,286,287,288,289,290,291,292,293,294,295,296,297,298,299,300,301,302,303,304,305,306,307,308,309,310,311,312,313,314,315,316,317,318,319,320,321,322,323,324,325,326,327,328,329,330,331,332,333,334,335,336,337,338,339,340,341,342,343,344,345,346,347,348,349,350,351,352,353,354,355,356,357,358,359,360,361,362,363,364,365,366,367,368,369,370,371,372,373,374,375,376,377,378,379,380,381,382,383,384,385,386,387,388,389,390,391,392,393,394,395,396,397,398,399
特别,-0.311280995607,-0.61437702179,2.8375210762,-2.02556490898,-1.03072702885,-0.382412999868,0.459697008133,-0.449144989252,1.14412903786,-0.76257699728,-1.14257097244,0.986402988434,-1.19555497169,0.376668989658,0.17878100276,0.181363999844,0.345382988453,0.485172986984,-1.75902700424,-0.088978998363,0.152854993939,0.388188004494,-0.810418009758,1.10285198689,2.23458409309,0.539314985275,1.97166001797,0.624532997608,2.36826992035,1.55889499187,2.14732909203,-0.138982996345,1.75798201561,-0.398948997259,-0.759760975838,-1.24052202702,-0.50622099638,-0.964658021927,-1.28254199028,0.557560026646,1.47328603268,-0.209208995104,1.08957397938,1.00086700916,-0.64962297678,-0.966681003571,1.38458895683,-0.096207998693,0.047293998301,0.878798007965,-0.714111983776,-0.148140996695,1.8215149641,0.368230998516,-3.54197907448,-0.0922710001469,2.01081490517,-1.58063995838,0.78318798542,0.070717997849,0.236734002829,-0.122263997793,0.973492026329,-0.922392010689,0.114110998809,-0.87907397747,-0.039893001318,-0.210014998913,1.23808395863,0.357279002666,1.37735903263,0.367601007223,-0.198257997632,2.40867209435,-0.267022997141,1.55365598202,1.55438196659,0.486016988754,0.359984993935,-0.824690997601,-0.0308090001345,-0.612271010876,-1.40985500813,1.9449930191,1.00487101078,-0.861576020718,0.113169997931,-0.816120028496,0.920238018036,0.242605000734,-2.35173392296,0.983417987823,-0.00431700004265,1.40879201889,0.0026469998993,-0.133291006088,2.15119504929,0.10793799907,1.18150603771,1.1668150425,-0.292192995548,-0.159729003906,-0.370617002249,0.272305011749,-1.60995697975,-1.83059501648,0.676342010498,0.291123002768,1.05594098568,1.74475896358,-0.505806028843,-0.917021989822,-1.12118494511,-1.80265903473,-0.727557003498,1.04411697388,1.66595995426,1.05948698521,0.163274005055,-1.46944594383,0.399100005627,0.0377420000732,0.568848013878,-1.01469194889,-0.776952981949,-0.486957997084,-0.806605994701,-0.478356003761,1.59037995338,-0.331936001778,1.56870996952,1.07004594803,0.738677024841,2.12199211121,0.512887001038,-0.321846991777,0.483931988478,-0.9273250103,-0.818883001804,2.12616205215,0.200972005725,-1.09520304203,-0.202466994524,-1.62443494797,-1.16875898838,-1.24868297577,-0.949572980404,-1.67519295216,-0.431140989065,-0.547652006149,0.0622670017183,1.88446199894,0.562996983528,0.450489997864,-0.453781992197,0.0459849983454,-0.744324982166,0.170912995934,-1.08376502991,-1.33376801014,-0.0890320017934,0.832952976227,1.29040598869,-0.273476004601,-0.446812987328,1.69235503674,0.192340999842,-0.583532989025,-1.19724094868,-1.393633008,0.667141020298,-1.54163694382,2.2628030777,-0.123957999051,1.25525999069,-0.751707971096,1.18259596825,-1.42232596874,-0.0181419998407,-0.61098498106,0.264470010996,0.873941004276,-0.772839009762,1.39445996284,0.522809028625,-0.98132699728,0.126115992665,1.35001003742,-0.751603007317,-1.15585696697,0.0104679996148,-0.747897028923,0.82345700264,1.72056698799,-0.846799015999,-1.00334596634,0.529223978519,-0.468953996897,-0.712436974049,1.08140397072,0.774182975292,-0.0677490010858,-0.205867007375,-1.2829990387,-0.545342028141,0.944760978222,-0.973124980927,0.612546980381,0.170364007354,0.152888998389,-1.74723899364,-0.158899992704,0.681410014629,-2.24187898636,0.335882991552,-0.706888020039,-0.133985996246,0.664306998253,-0.693166017532,2.27305388451,-0.456793010235,1.0355130434,1.03666102886,0.207994997501,-1.31358897686,1.24367403984,0.278007000685,-1.13390600681,1.4272660017,-0.121843002737,-1.64735996723,-0.829751014709,-0.76011800766,-1.9723290205,0.167850002646,0.260349005461,1.81654894352,-0.176208004355,0.489674001932,0.944109022617,0.0959289968014,-0.66279900074,-0.528809010983,-0.276877999306,-0.549820005894,-0.329764008522,-0.525210022926,-0.316628992558,-1.66031301022,-1.35678696632,1.03464496136,-0.720122992992,-2.23905992508,2.09899401665,-0.636330008507,1.00362300873,-1.19407594204,-0.749010026455,0.633540987968,0.00364700006321,-0.263431996107,0.979713976383,0.56696999073,0.465528011322,-0.497474998236,-0.949886023998,-0.630535006523,-0.749458014965,-1.04290997982,0.40690600872,-1.68905603886,-0.312361001968,-0.529923021793,2.14326500893,0.458822011948,0.532936990261,-0.74953097105,0.638339996338,-0.799095988274,1.98788702488,1.97197401524,0.0711549967527,-0.627359986305,-1.92987394333,-0.515838980675,2.24370908737,-1.50447201729,-2.01099205017,-0.0197810009122,1.4185860157,-1.90394699574,0.848496973515,0.129452005029,0.314007997513,1.70862197876,0.722195982933,0.452041000128,-0.172211006284,-0.680998980999,-0.649412989616,-0.886476993561,-0.337173014879,-1.35066699982,0.31587600708,-0.172585994005,0.0695979967713,0.345865011215,-1.50046098232,-0.882723987103,0.233608007431,-0.165106996894,1.32677102089,2.09286999702,0.752147018909,-0.555513978004,-1.80721104145,2.04203891754,0.89808100462,0.622409999371,-0.737160980701,-1.34016895294,-0.621022999287,1.00778794289,1.63647603989,-0.798927009106,-0.421458989382,-0.990384995937,-0.481566011906,-0.0643130019307,-0.909515023232,-0.883283019066,0.65113902092,-0.903672993183,0.557848989964,0.0936089977622,0.630750000477,0.300184011459,-0.046619001776,-0.71843701601,0.183246001601,1.16985702515,0.215808004141,-0.469944000244,0.4773440063,0.166014000773,-1.40972399712,0.789941012859,-0.371035009623,1.14532899857,1.32849299908,0.535816013813,0.677866995335,-1.34025704861,-0.659968018532,-0.830470979214,-0.264185011387,2.42609500885,-0.646049976349,-1.0122679472,0.862208008766,0.970643997192,0.0431910008192,0.20857000351,-0.206916004419,-0.72204297781,1.78862702847,-0.370703995228,-0.0246109999716,-1.5939899683,-0.609247982502,-0.995194017887,-0.819275975227,0.264607995749,-0.353408008814,0.617433011532,-0.458162009716,-1.10783803463,-2.33019089699,1.23097896576,-0.84836101532,0.0789420008659,1.60203504562,0.38828098774,0.450491011143,1.06005501747,-0.163698002696,-0.516112029552,-0.278216004372,-0.678987026215,0.521956026554,0.377999991179,2.25453591347,0.288365006447,1.35674202442,0.908767998219,-1.45648705959,-0.587633013725,2.45166397095,0.538789987564,3.37188196182
支撑,-1.12422597408,1.60420501232,-0.131382003427,0.186407998204,1.02693200111,-0.195393994451,1.59512102604,-1.16147100925,1.04014694691,0.186746999621,-1.3052469492,-1.30737698078,-1.69102704525,-0.228733003139,0.389266014099,-0.142711997032,-0.227108001709,-0.18861399591,-0.027002999559,0.269730985165,-1.07633602619,-1.28871095181,-1.81429803371,-0.075289003551,0.614057004452,0.291740000248,-0.120908997953,0.380818009377,-0.563327014446,0.0216649994254,-1.80904996395,1.10496294498,-0.743129014969,1.01219105721,0.530991017818,-0.607303023338,-0.765245974064,0.0969439968467,0.885223984718,1.77388298512,1.15376198292,-0.871267020702,-0.899789988995,-1.78632700443,0.0384129993618,0.0136500000954,0.0339189991355,-0.872731983662,-0.562080025673,0.747263014317,0.162066996098,-0.130963996053,-0.671023011208,-0.778876006603,0.894087970257,0.571874022484,0.894414007664,-1.02375102043,1.41525697708,2.53635311127,0.209643006325,0.406513005495,0.0945800021291,-1.51509702206,-0.665759980679,-0.737577021122,-1.10683298111,0.254979014397,-0.629898011684,0.0885810032487,-0.699167013168,-0.721975028515,0.163521006703,1.01213598251,-0.876246988773,1.38280200958,0.449375003576,-0.342958003283,-0.564482986927,0.473071992397,0.903240978718,-0.0769869983196,0.596750974655,0.930536985397,0.928088009357,0.119168996811,0.774946987629,-0.225927993655,-1.19524800777,-0.381446003914,-0.0592840015888,-0.49729898572,1.01298701763,-0.791355013847,1.52169895172,-0.496609002352,0.875642001629,0.673192977905,0.00954699981958,-0.589251995087,0.812963008881,-1.4188849926,-0.804616987705,0.362280011177,-0.596063971519,-0.397917002439,1.09296703339,-0.596534013748,-0.775856971741,-0.533710002899,-0.56379699707,-1.49612605572,0.737797021866,-1.93111002445,0.0221139993519,-0.439298987389,1.42409300804,0.358218997717,0.1580439955,-0.242844000459,-1.64821994305,-0.498131006956,0.833397984505,-1.00011098385,0.788163006306,0.433856010437,-1.58277094364,-0.0388199985027,0.645345985889,-0.976433992386,0.971542000771,-0.304385989904,-0.644918978214,-0.125358000398,0.238588005304,-0.13689699769,-1.53470003605,1.67303097248,0.990390002728,0.994768977165,0.766543984413,0.158235996962,-0.581817984581,-1.52043497562,0.402078002691,-1.08371198177,0.778877019882,-1.22438001633,-0.854125976562,-0.911548018456,0.872008025646,-0.322295993567,-0.195079997182,0.975346982479,1.17964601517,0.595268011093,-0.469428986311,-1.54307603836,-0.639050006866,0.905440986156,-1.11171996593,-0.160690993071,-0.42144998908,-1.28814101219,0.310995012522,1.20064997673,2.26417803764,-0.916360974312,-1.14960098267,-0.0921600013971,-0.597105026245,1.46732199192,1.00747704506,2.71774411201,0.295386999846,-0.144960001111,-0.0268619991839,0.798666000366,0.901687026024,0.277424991131,0.544520974159,0.503462970257,0.997546970844,-0.887705028057,0.963755011559,0.36232098937,1.04678797722,0.333020985126,0.862446010113,0.183966994286,1.02898800373,-0.413477003574,-0.46268299222,1.31784200668,-0.752943992615,-0.0958049967885,0.949016988277,0.100233003497,1.36434996128,0.259952992201,-0.15024100244,-0.554445981979,-0.754976987839,-0.79809898138,-1.10776901245,-0.144611001015,-1.22719204426,-0.291790008545,-0.87208199501,1.69910395145,-0.586152017117,-2.0874979496,1.99754405022,-0.32594498992,1.56426000595,0.945043981075,-0.127547994256,0.0468269996345,-0.235017001629,-0.715223014355,0.625563979149,-0.542788028717,3.02794599533,0.946051001549,0.763350009918,-0.599023997784,0.1399589926,-0.188703998923,0.852011978626,-0.414595991373,-0.474334001541,0.443215996027,0.27999201417,0.0770049989223,0.932057976723,-2.06249403954,-1.46609699726,-0.134527996182,1.51958799362,0.377813011408,0.322587996721,0.315017014742,1.20624005795,-0.301658987999,2.26968097687,0.212623998523,0.106784999371,-0.286053001881,0.938023984432,0.282106995583,-1.37344300747,1.11806499958,0.224457994103,1.25969696045,-0.877530992031,0.618754029274,1.06325697899,-0.395273000002,-0.363014996052,1.73410594463,0.629194974899,-0.301970988512,0.128690004349,0.986629009247,-0.208746001124,-1.20475697517,-0.924134016037,0.0646060034633,0.358823001385,1.13563001156,-0.0205540005118,-0.25320199132,-0.265217006207,0.4004150033,-1.42895901203,-0.499071985483,0.778980970383,-0.669902980328,-0.724044024944,0.520348012447,-0.256047010422,0.0949579998851,2.16168904305,2.3090069294,-1.16975402832,-1.27263998985,0.577696025372,-1.12283301353,0.159776002169,1.57176995277,-0.100712999701,-0.511825978756,-1.00077998638,-0.684467017651,1.25581002235,-1.06196296215,-0.443408995867,0.487899005413,-0.485433995724,-0.139716997743,-0.10051099956,0.484984993935,0.184233993292,-0.0104649998248,1.58185398579,-0.0537399984896,-0.689657986164,-1.57371199131,-0.671895027161,1.37176799774,-2.15223407745,-0.25577300787,0.547614991665,0.502587974072,0.0760260000825,1.69534003735,-1.12502300739,-1.20620894432,0.390594005585,-0.158075004816,0.150583997369,-0.722359001637,-1.46937704086,-0.125511005521,0.623600006104,0.643289029598,0.0325139984488,-1.01740098,0.106325000525,-1.31895697117,0.27678000927,0.0610809996724,-0.199304997921,1.26298701763,0.76393699646,-0.518507003784,1.02197003365,0.245175004005,-0.722833991051,0.785353004932,0.443349003792,-0.33887898922,-1.32781195641,0.153248995543,0.577309012413,0.16831600666,-0.480684012175,1.25606703758,0.320161014795,-1.14232897758,0.0336700007319,0.224720999599,0.253100007772,0.351579993963,0.0904579982162,-0.28533500433,0.915118992329,3.02771711349,0.125212997198,1.57218003273,-0.278016000986,-0.564212024212,-0.248492002487,1.03760397434,-0.139495998621,-1.1116130352,-0.348134994507,0.169865995646,-0.101260997355,-0.545704007149,-2.30251002312,0.773970007896,0.0927620008588,1.59200894833,-2.27217006683,-0.510707974434,-2.7607190609,-0.123116001487,-0.998099982738,0.475044995546,-0.122979000211,-0.123187996447,-1.55418801308,0.643694996834,1.54500603676,-0.832055985928,-1.09712600708,0.784725010395,-1.34650301933,0.423047989607,-0.0862670019269,3.14000606537,0.976895987988,-1.4352350235,0.152141004801,0.0735950022936,-0.0316389985383,0.990274012089,-1.25661695004,-0.100868999958
碰撞,-0.392134994268,1.39107096195,-0.737652003765,0.0791010037065,1.61497700214,0.649246990681,0.62207198143,0.655492007732,0.465032994747,1.07343399525,0.536159992218,0.434720009565,-0.359876990318,-0.663284003735,-0.105146996677,0.174351006746,0.624228000641,-1.79276502132,0.496010988951,-1.81493997574,0.750118970871,1.16924500465,-0.784798026085,0.325753986835,1.82672297955,1.8568199873,-0.219421997666,-0.413529992104,-0.740188002586,0.95397400856,-0.142001003027,-0.722895026207,-0.005987000186,1.22746396065,0.621993005276,0.500299990177,1.23477602005,-1.43468594551,-0.420902013779,0.469810992479,2.39988303185,-0.376845002174,-1.89659905434,-0.42123401165,1.29977500439,-0.588591992855,1.04118704796,-0.705529987812,1.76471805573,0.533712029457,0.208097994328,-0.83512699604,-0.109957002103,0.545957028866,0.380593001842,0.372568994761,-1.99224805832,-1.03713798523,-0.0513239987195,0.554549992085,0.357650995255,-0.195440992713,-0.598511993885,0.448747992516,-0.586040019989,1.79826104641,-1.40131902695,-1.08365499973,0.650241017342,-0.607152998447,0.18317900598,-0.174897998571,-0.102403998375,0.822574973106,-0.702314972878,1.33531701565,2.01898598671,-0.0872460007668,1.17455995083,-0.366649001837,0.998356997967,-0.246317997575,-0.410288989544,0.666224002838,0.632552027702,0.524001002312,1.99715197086,-0.784789025784,-1.26668703556,-1.2284129858,0.120231002569,-0.759226977825,-0.530432999134,-0.356808006763,-1.00389194489,-1.4057110548,-1.04109895229,0.295381993055,-1.43183195591,-0.17492300272,0.333795011044,-0.0480480007827,0.100919000804,2.36765909195,0.369349986315,-2.20880794525,0.185129001737,0.13699400425,-0.757421970367,0.685047984123,-1.24231398106,-0.665922999382,1.2604739666,-0.0562659986317,0.905434012413,1.83365595341,0.278757989407,0.00334300007671,-0.750488996506,1.68984997272,-0.458555996418,-0.302433997393,2.20210909843,-0.112347997725,-0.565279006958,1.17268300056,-0.22043800354,-0.88432598114,-0.214311003685,-1.39689004421,-0.543164014816,-0.818724989891,-0.690011978149,-0.300269007683,-0.199259996414,1.28405702114,0.514401972294,-0.845701992512,1.13217103481,0.182125002146,-0.473039001226,1.85429298878,-0.452666014433,0.669629991055,0.186079993844,0.145303994417,-0.745343029499,1.73176705837,-1.02807295322,-1.54247605801,1.5559899807,0.984130978584,-0.0855690017343,0.787818014622,-0.208803996444,-0.368346005678,0.182192996144,-0.183572992682,-1.0702559948,0.0490440018475,1.34292197227,0.517040014267,-0.0486450009048,-2.48364496231,0.445661991835,-0.196033999324,-0.411738991737,0.802695989609,-0.763975977898,1.37689495087,0.259131997824,-1.88181495667,1.45117998123,0.950224995613,1.41729700565,0.400673985481,-0.00447200005874,1.4412920475,0.330603003502,1.43771696091,-0.378006994724,0.729682981968,-0.417986989021,-0.223886996508,0.0749880000949,1.3600410223,-0.212560996413,-0.497772991657,-0.689311027527,-0.119576998055,-0.912656009197,-0.262737989426,0.585736989975,0.971309006214,-0.115391001105,-1.33755195141,0.931271016598,0.909847974777,2.23910498619,0.018946999684,0.0686890035868,0.243085995317,-1.07824599743,-0.413598001003,-1.25692999363,1.38185095787,-0.384119004011,0.141150996089,-0.93082600832,0.258641004562,0.0869709998369,-0.479838013649,0.397812008858,-0.250957995653,-0.209903001785,-0.331593006849,-1.50191795826,-0.0750769972801,-0.94625300169,-0.0700350031257,-1.34289205074,-0.541481971741,1.74517703056,-1.00149405003,0.410070002079,-0.496279001236,-0.238996997476,0.910494029522,0.789701998234,-0.0145399998873,-0.131457999349,1.21537399292,-0.354757994413,-0.358951002359,1.81347596645,0.440272003412,-0.679325997829,-0.0644169971347,0.366171002388,-0.858295977116,-2.05485606194,1.05130398273,0.328981995583,0.453325986862,0.69184499979,-0.711283028126,-0.321929007769,1.08928096294,-2.71214604378,0.559234976768,-0.570100009441,-0.0134990001097,0.719116985798,-0.952817976475,-0.185104995966,1.46799898148,1.45180797577,-0.769203007221,1.14060497284,2.20697402954,-0.286063998938,-1.12528300285,1.01844704151,-0.18822799623,-2.28034305573,-1.00777101517,0.506494998932,0.232143998146,-0.343434005976,-0.558595001698,-0.506138026714,0.859479010105,-0.562161982059,0.28147700429,0.523822009563,-0.781445980072,-0.892232000828,1.13018202782,0.497390002012,0.975188970566,0.844627976418,0.782764971256,0.223493993282,-0.476556003094,-1.10053396225,-0.39393299818,0.484046012163,-0.597666025162,-0.927617013454,0.457836985588,-0.32614800334,0.163537994027,-0.445199012756,-0.362500011921,-0.0743860006332,0.230924993753,0.332392990589,-1.02000701427,0.102937996387,-1.0906920433,-1.04167795181,-1.37056100368,-0.062307998538,1.4616420269,-0.753822982311,-0.205770999193,-1.13946998119,-0.162695005536,0.555727005005,0.241732999682,-0.0787220001221,-1.73421001434,1.40508103371,-1.26408803463,-0.923121988773,1.54612004757,-0.856822013855,-1.24695897102,0.0266050007194,-0.363314002752,-0.532486021519,-0.742228984833,0.410174995661,0.369318991899,-1.62865805626,-1.73088395596,0.98605298996,-1.43741798401,0.136377006769,1.01014304161,0.312730997801,-0.244991004467,-0.785121023655,-0.570079028606,1.27969801426,0.154214993119,0.391891002655,0.129293993115,0.470147997141,1.67825698853,-0.136815994978,-1.2435489893,0.437988996506,-1.47978496552,-0.594470024109,-1.41349601746,-0.67835098505,1.4955739975,1.14839398861,-0.492487996817,0.732819020748,1.08210301399,-0.211137995124,1.16151797771,-0.63499802351,-0.516988992691,0.57086700201,-0.384516000748,-1.32813596725,2.4376950264,-1.06612694263,-1.68397402763,-0.603661000729,-0.224505007267,-1.71293103695,-1.10679602623,-0.34623798728,0.136893004179,-1.15104401112,-1.95905303955,0.417429000139,-1.17493200302,-1.52541804314,0.000306000001729,-1.10158801079,-0.888593018055,-1.82329201698,-0.314191997051,-1.84426796436,-0.509202003479,-0.256700009108,1.09814703465,0.544245004654,0.333451002836,-0.887501001358,-2.28592705727,1.12413799763,-0.564033985138,-0.991495013237,-0.920563995838,0.69267898798,-0.362486988306,-0.791185975075,0.410589009523,1.64082503319,-1.08175694942,-0.244683995843,-0.23557600379,-0.0879210010171,-0.374352008104
事件,-0.258381009102,-0.318367004395,-1.29647099972,0.590524017811,1.05230200291,-1.5239739418,-0.806652009487,1.26470398903,0.342828989029,-2.24204206467,1.58101701736,-0.338081985712,-1.01738405228,-1.80822896957,0.986079990864,-0.477335989475,-0.289920985699,-1.57441401482,-0.164137005806,-0.693912982941,0.714798986912,-0.62285399437,-2.3630759716,-1.40175294876,-0.828860998154,1.54759001732,-0.304331988096,-1.29325199127,0.508506000042,1.17223405838,-1.48304998875,-1.82753002644,0.269318014383,-0.386987000704,0.374909996986,-0.809215009212,-0.219629004598,-1.78273200989,-1.04901099205,0.182024002075,-0.436908990145,0.872415006161,-0.0231699999422,1.4499900341,-0.138475999236,0.24959500134,-0.409222006798,-2.84292602539,1.18578100204,1.62670195103,-0.286251008511,-1.30746197701,-0.105209998786,0.985309004784,-0.212952002883,1.45252597332,-0.942223012447,0.237663000822,0.0663020014763,1.08057498932,-0.172177001834,-1.64732599258,0.391272991896,-1.02271795273,-0.771808028221,2.28054094315,-0.458934009075,1.11947703362,1.04457402229,0.108277998865,1.19671297073,-0.321112990379,0.762450993061,0.56553798914,1.31017100811,-1.01530098915,2.23193192482,-0.54894900322,0.199726000428,-2.01633310318,0.95215600729,-1.69243299961,0.266896009445,0.711133003235,-0.0276549998671,0.447973996401,-0.987980008125,-0.777511000633,-0.230762004852,-0.584797024727,0.601441979408,0.779628992081,-1.06145095825,2.05450201035,-0.172260001302,-0.997138977051,0.153696000576,0.549237012863,-0.627398014069,0.386409014463,1.29572403431,0.177071005106,2.29260206223,0.0923419967294,-1.9715269804,-0.667729973793,2.00214195251,-0.725978016853,0.430472999811,0.626208007336,0.628853976727,0.854403972626,-0.188620999455,-2.76209902763,-0.0791499987245,2.3605670929,0.412358999252,-0.703567028046,0.681502997875,0.658460974693,0.37977001071,0.830425024033,0.890906989574,-0.694943010807,-1.80226397514,-0.614076018333,-1.10580003262,-0.258392989635,-1.01624405384,2.22829890251,0.0131609998643,0.544466972351,1.29873204231,0.423530012369,-0.791803002357,1.53136098385,2.81034207344,0.98306697607,-0.309426993132,-0.6945130229,-0.80407500267,1.35542297363,-0.997222006321,-1.06486999989,-0.592782020569,1.39203298092,0.35016399622,0.887959003448,-0.0322169996798,1.04847300053,-0.474420011044,1.36507403851,-0.256036013365,1.73434495926,-0.583711028099,0.214671000838,-0.32362100482,0.191136002541,-0.0665329992771,0.329787999392,0.530358016491,-0.330080986023,-1.44669604301,-2.51740694046,1.71165895462,1.12454402447,-0.470126003027,-0.283771008253,1.40040695667,-0.0965289995074,1.42610096931,-2.14990210533,2.15304088593,-1.06371700764,0.719006001949,0.089781999588,-0.301533997059,0.00375299993902,-0.0294499993324,0.818877995014,1.5741289854,-1.43625700474,0.244354993105,-0.327412992716,0.0174950007349,0.686002016068,-0.524865984917,0.46417298913,1.49480903149,-1.48218202591,0.0955799967051,0.92633497715,4.42739915848,-1.33372104168,0.324716985226,1.60208296776,-0.346033990383,0.616845011711,-0.156764000654,1.44005596638,0.620738983154,0.0351690016687,-0.319047003984,0.265421003103,0.271095991135,0.487381011248,0.323992013931,-0.0436009988189,1.17912304401,-0.783092975616,0.909506976604,-2.0808300972,-0.287501007318,-1.84565794468,1.20210599899,-0.0936999991536,0.677506029606,-0.0719370022416,2.08336400986,1.38111197948,0.224252998829,0.1074699983,2.04033398628,-0.554361999035,1.91167104244,0.814271986485,-1.14685595036,1.97452700138,-0.536648988724,0.481869012117,0.663208007812,-1.01560401917,-0.644005000591,-1.69708704948,1.09802603722,0.205873996019,0.823593974113,1.06984901428,-0.469631999731,1.60089802742,0.707298994064,1.70118701458,0.410863012075,-0.555301010609,0.236928001046,0.4905770123,-1.33431100845,-0.896631002426,-1.2367169857,-1.47033202648,0.093097999692,0.755952000618,-1.3475099802,-2.88445401192,0.944525003433,-0.112236998975,3.3531370163,0.152717992663,0.242719992995,0.563557982445,1.31172096729,-1.34647595882,1.43562400341,0.511471986771,-3.31275892258,0.319227993488,1.3337110281,1.56385600567,1.34516298771,-1.05692899227,-1.94599401951,3.83065509796,-0.0766069963574,-1.40246498585,-1.42679297924,-1.81278002262,0.135677993298,1.91174602509,-1.52320301533,1.31054604053,1.48451805115,0.315046995878,-1.61020600796,0.276638001204,2.17961907387,4.10854816437,-0.485942989588,1.96690201759,-0.635635018349,0.261299014091,0.753534972668,1.17472195625,-0.90956902504,-0.443677008152,0.671509981155,-1.1958220005,0.366944998503,-2.71844601631,-0.76860499382,-0.117458999157,-1.14793896675,1.24351203442,-1.83397901058,4.3857178688,-1.42857897282,0.412970989943,0.384463995695,1.84143197536,-0.181597992778,-0.774917006493,-1.31568598747,-1.63620495796,-0.105530999601,-0.331519007683,-2.33751702309,0.345371991396,2.32258200645,-1.17863500118,1.10235202312,-2.87339901924,1.24056601524,-0.748268008232,0.467557013035,1.55378401279,-0.858280003071,-1.45975697041,-1.92585897446,1.36736094952,-1.14656198025,-0.730615973473,1.92041397095,0.514554977417,-1.42842197418,-0.265608012676,2.43399691582,-2.57650589943,-0.681441009045,0.88920801878,-0.965873003006,-0.780305981636,-0.748923003674,-0.0645459964871,0.574554026127,0.384952992201,0.271921992302,-0.703500986099,-0.591853022575,-0.693764984608,1.28651201725,-0.803905010223,2.52146911621,2.76364898682,0.770305991173,1.31567299366,-1.06743896008,0.664370000362,-0.626147985458,0.728305995464,-1.55384504795,1.52185201645,-1.05154001713,-2.59874606133,-0.800706028938,-0.73970001936,0.0754429996014,0.887821018696,1.24650096893,1.51722300053,-0.166635006666,0.552379012108,0.86787301302,-0.292735993862,-0.989140987396,-0.717365980148,0.21870200336,0.814032018185,0.0410370007157,-1.91137194633,-0.614103019238,1.48704195023,-1.02630198002,0.817811012268,1.04126799107,-1.13366997242,0.128207996488,0.124554000795,0.0826150029898,1.13195204735,-0.856571018696,-0.580015003681,0.0184630006552,0.449950993061,0.0101659996435,1.3603219986,0.76466602087,-0.0994359999895,-0.472295999527,-0.229044005275,-0.560208976269,0.247172996402
设计,-0.31146800518,2.83685302734,0.929342985153,0.889881014824,0.485713988543,0.350710988045,1.12961494923,-1.0103199482,2.73464608192,0.548708975315,-1.33047604561,1.45296394825,-1.52680897713,0.516430020332,-0.452540010214,0.366856008768,-1.2130600214,-1.27862799168,0.43076300621,-0.149914994836,-0.369076997042,0.340458005667,-0.319480001926,0.567583978176,-1.32638001442,-0.778806984425,0.901301026344,1.62536299229,-2.17999100685,0.654962003231,-2.14252901077,0.576874017715,0.275552988052,-1.44180500507,0.249762997031,0.280909985304,-1.01903998852,-1.00788795948,-1.72497498989,-0.273447006941,1.35498702526,-2.48925900459,1.22896194458,-0.043395999819,-0.189733996987,1.01240003109,1.00839996338,-1.8251529932,0.534148991108,-0.627250015736,0.906589984894,0.290019005537,0.932796001434,1.57938599586,-2.22345304489,0.840278983116,1.30987405777,-0.12699200213,-0.295626997948,-0.86411601305,-3.22787189484,1.0522069931,-1.66844701767,-0.0805850028992,-0.868694007397,-2.05222010612,0.685154020786,-0.943543970585,1.22418498993,-0.218873992562,-1.13728201389,-0.275272011757,0.767772972584,2.9485669136,0.555027008057,-0.212217003107,-0.247384995222,0.0690380036831,0.370267003775,0.181134000421,0.0999300032854,-2.37076711655,0.774650990963,1.47849905491,-1.22758805752,-0.0488669984043,-0.618166983128,-1.59754800797,0.343542993069,-1.01234102249,-1.22329497337,0.354155004025,0.219088003039,0.411740988493,0.330538988113,0.7712200284,-0.061315998435,0.551015973091,-2.87988209724,-1.06871402264,-0.178543001413,-0.963559985161,0.227446004748,0.922231972218,-0.799476027489,0.0277919992805,0.567665994167,0.126969993114,1.79352903366,-0.507713973522,0.0417170003057,-0.958607971668,-0.719803988934,-0.476229995489,-0.762367010117,-0.900026023388,0.628646016121,-0.76704198122,-0.889438986778,1.44746005535,0.842532992363,-0.446047008038,-2.05625891685,0.276567012072,-0.66540402174,0.661804020405,-2.07376790047,-0.468897998333,-0.950420975685,-1.48625600338,1.72731697559,0.288601011038,0.559464991093,1.52179098129,-0.416523993015,0.978754997253,0.175986006856,0.717280983925,0.264638990164,-0.142425999045,0.375133991241,2.36802601814,0.934278011322,2.0999109745,-0.92945599556,-1.69901096821,0.851951003075,-1.98096394539,0.939647018909,-1.5680680275,0.416267007589,0.410026997328,1.79396796227,-0.750784993172,0.750226974487,1.48308098316,0.182679995894,-0.107929997146,-0.214109003544,-0.603608012199,-0.970292985439,-1.36640095711,-0.175915002823,-1.19041597843,1.21554803848,0.705559015274,-0.555222988129,-1.23773396015,0.410088002682,-0.885124027729,-0.922326028347,1.67935502529,0.270134985447,-0.0827099978924,0.0986720025539,1.31247901917,2.43304204941,1.87704896927,1.57137799263,1.1682510376,-0.481624990702,0.77296102047,0.639325022697,0.295895010233,-0.773263990879,1.04506194592,1.12523794174,-0.00951800029725,-0.146540999413,-0.844461977482,-1.76996195316,-0.61669999361,0.201253995299,1.62412703037,-1.2272349596,2.09578704834,0.956857979298,-1.07787895203,0.0245830006897,1.4026030302,0.938072025776,0.200062006712,0.0530549995601,0.261476010084,0.883050024509,-1.59958994389,-0.764227986336,0.570554018021,0.637476027012,2.34037995338,-0.211806997657,-0.825160980225,0.0618200004101,-0.275965005159,0.930898010731,0.652963995934,-0.401015996933,-0.522855997086,-0.400537014008,0.634567022324,1.43597602844,-0.0145429996774,1.34006094933,0.722832977772,2.30268192291,-1.07460999489,-0.86275601387,-1.89466798306,0.0925500020385,-1.38949596882,-0.302383005619,-0.324133008718,2.16222596169,-2.34744405746,1.15998995304,-0.886174976826,0.325632989407,-0.683851003647,1.55163896084,-0.807412028313,1.62496995926,1.67418503761,1.0878059864,0.169045001268,1.25827002525,1.23123204708,0.85949498415,-0.309729993343,-0.483794003725,0.357501000166,-0.799570024014,0.553499996662,1.14086997509,-0.0258440002799,-0.455433994532,-0.307608008385,-0.313136994839,1.10580599308,1.28099703789,1.06161499023,1.3642359972,-1.09586799145,-0.503269016743,1.5573580265,0.15340000391,-2.09075808525,1.13627398014,-0.365819007158,0.247229993343,0.826090991497,-2.23134994507,-2.27743005753,0.315506994724,2.77852296829,-1.35670495033,0.162814006209,-0.430795013905,2.16106200218,1.58537399769,0.904752016068,-0.703858017921,0.659572005272,-0.558481991291,-0.772774994373,-2.99163508415,1.38443601131,1.28612101078,0.944766998291,-0.617114007473,-0.181504994631,-0.355946987867,1.30014395714,-1.48327505589,1.62155497074,-1.16649997234,-1.18106496334,1.64050805569,-0.360289007425,-2.27125501633,-0.0527129992843,-0.920518994331,0.807941019535,0.446155995131,-0.442068010569,0.618080019951,0.656856000423,0.175687998533,-1.17405605316,-0.0211510006338,2.60107398033,1.81611502171,-1.76472604275,0.168117001653,-0.191220000386,0.422078996897,1.17742705345,-1.78856599331,-2.31522107124,0.429675996304,-0.958509981632,2.18787407875,0.204136997461,-0.427870988846,1.24806499481,-1.96820902824,-0.718724012375,-0.00424000015482,-0.32661101222,0.427442014217,0.602141022682,1.3213789463,2.17271304131,-0.540495991707,-0.708936989307,0.507547974586,-0.783275008202,-0.583508014679,0.183311000466,-1.20526897907,-0.283735007048,0.303481012583,0.835093975067,-0.60471701622,1.41553497314,0.446512013674,-0.714666008949,-0.205319002271,0.176596999168,1.9019869566,-1.00769400597,-0.897931993008,0.306578993797,1.48822796345,-2.13151907921,0.290466010571,-0.853833019733,1.17244398594,0.562521994114,-0.851077973843,1.1328599453,-0.579253017902,-1.4063359499,-0.262840002775,-0.125501006842,-0.986088991165,-0.325724989176,-1.499573946,-1.89782702923,-0.543877005577,0.843537986279,0.343010008335,0.468575000763,-1.04323101044,0.389964997768,-2.17472791672,0.225971996784,-0.494251996279,-1.67947995663,-4.71396398544,-0.871837973595,1.11034095287,0.0184770002961,1.01844394207,-0.0623609982431,1.82607996464,-0.358249992132,-0.224139004946,-1.69708001614,-1.10658597946,-0.513903975487,-0.290556013584,0.457863003016,-1.08889198303,-0.235733002424,1.00901699066,1.3186429739,-0.636586010456,0.233333006501,1.12959599495,-0.823226988316
力,-2.57450199127,-0.793829023838,0.163360998034,-0.331914007664,-0.613919019699,0.532271981239,1.29931998253,-2.00299596786,1.82133603096,-1.96164000034,1.68046104908,-1.30045795441,-0.686483025551,-0.637467026711,-1.31759405136,-0.370052009821,-1.02663600445,-0.12758000195,-1.45769202709,-0.580429971218,1.09267497063,-0.611910998821,0.567170977592,-0.977383971214,0.0208369996399,1.24959099293,0.237413004041,0.255028992891,-2.88827204704,0.917657017708,-0.333205014467,0.682029008865,0.171696007252,0.208278998733,-1.11182594299,-0.716596007347,-1.34193694592,0.365402013063,0.941114008427,0.956627011299,1.36062395573,-0.105573996902,-0.318233013153,-0.827488005161,-0.571988999844,-0.114655002952,-0.724946022034,-1.99413895607,0.720187008381,1.05855500698,1.27460801601,-1.06188201904,-0.863156020641,0.291970998049,0.236307993531,-0.0528360009193,0.214375004172,-1.07901299,0.267697989941,0.198633000255,1.74938702583,0.906818985939,-1.10924303532,0.519174993038,-0.114687003195,-0.414256989956,-0.309053003788,-2.64622211456,-0.26791998744,1.65475904942,-0.294104009867,0.105811998248,1.12232601643,-0.309522986412,0.755990028381,-0.890419006348,1.0078599453,-0.574588000774,0.637885987759,-0.292845994234,0.22602699697,0.387264996767,1.88241803646,0.929048001766,0.542078971863,1.16244900227,-1.87201702595,-1.41366398335,1.09144103527,-1.64270496368,-0.904111981392,-0.336602002382,1.17134797573,1.09574699402,0.00823799986392,0.310748010874,0.109971001744,1.9900380373,-0.40641400218,1.49212503433,-0.315160006285,-0.328794002533,0.721700012684,1.17983198166,2.10453701019,0.184082999825,1.09378802776,1.27645003796,0.859934985638,-0.973011016846,-0.555149972439,0.308450996876,-0.202258005738,1.04649198055,-0.243544995785,-0.261774986982,-1.35498702526,1.71063399315,0.470329999924,-1.97961401939,0.850373983383,-1.62913405895,-0.22328299284,0.0482130013406,1.12350904942,0.550144970417,-1.20740401745,-1.68009305,-0.79894900322,-0.191441997886,-0.822996973991,0.589713990688,-1.29499697685,0.271227002144,-0.116129003465,1.10571300983,-0.795063018799,-1.50251603127,-1.59519195557,-1.75168395042,-0.247030004859,-0.74175798893,0.731284022331,-1.78642499447,0.0788009986281,-0.130879998207,0.450013995171,-0.397471010685,-0.169416993856,-0.840475976467,0.805900990963,1.32952296734,2.04856204987,0.219236001372,-0.665045022964,-1.58906495571,1.64039194584,-1.36092698574,-1.3076659441,-0.366964995861,-0.0452539995313,-0.410928010941,0.0576030015945,-0.789605021477,-0.253497004509,-0.279390007257,1.31442701817,-0.681729972363,-1.19413995743,0.851144015789,-1.00650799274,-1.20667600632,-1.73765301704,-0.695625007153,0.124788999557,-0.296662986279,0.862936973572,1.38799798489,0.937327980995,-0.527073979378,-0.83695101738,2.48943209648,-0.299713999033,0.160574004054,0.666303992271,1.76394605637,0.452127993107,-0.570349991322,-1.21024799347,0.00461900001392,1.66574895382,-0.367330014706,0.581486999989,2.1563000679,-0.0119540002197,-0.987861990929,-1.76351094246,-1.11020696163,-0.411006987095,-1.77709305286,1.09890794754,0.199126005173,-1.23582994938,-0.41212400794,-0.0253550000489,0.573206007481,-2.14006996155,-1.09126996994,-1.849208951,-0.395507007837,-2.23547697067,-1.33199095726,-1.00067794323,-0.0203499998897,0.944783985615,1.30243897438,-1.19251394272,-1.32347297668,-1.24265003204,0.631012022495,0.196343004704,-0.0765260010958,0.304329991341,-1.73929798603,0.767845988274,0.169719994068,0.256992012262,0.205943003297,0.931832015514,-0.114068999887,-1.29147899151,2.00988197327,0.330594986677,-2.20192909241,0.156902000308,-0.832683980465,-1.66193199158,-0.169328004122,0.500887989998,-1.0158200264,-1.95234000683,-1.16585099697,0.109107002616,-0.988855004311,-0.356557995081,1.19642996788,-0.753785014153,0.266835004091,-2.199187994,0.31908801198,1.90448701382,1.48286604881,1.35266697407,0.909837007523,-0.324914008379,0.777821004391,-0.346713989973,-1.09297394753,-0.219669997692,0.759903013706,0.534994006157,-1.53239297867,1.13507902622,0.139535993338,-0.278198003769,0.480574011803,-0.509603977203,1.01477003098,1.03271400928,1.00356602669,1.9851950407,-1.56803405285,-2.32522988319,-2.03084206581,-1.73909795284,-1.00929296017,-0.337931007147,-2.00749611855,0.447216004133,0.422235995531,0.377737998962,-1.39725697041,-0.744404017925,0.599794983864,-0.314303994179,0.703734993935,-0.0647180005908,0.221428006887,-0.527585029602,1.54773497581,0.354959994555,1.10831797123,1.15304803848,-0.309877991676,-0.0738139972091,-1.17055499554,2.72503399849,-1.90520000458,-0.0016380000161,-1.91753602028,-1.09071004391,0.38411000371,0.709574997425,0.407072991133,1.34368598461,0.857595026493,1.21823501587,-0.328505009413,-0.932776987553,1.97388994694,-0.439947992563,0.405894011259,-0.0858860015869,-1.47295403481,1.50712203979,-0.525659024715,0.0204189997166,1.23364305496,0.688714981079,-0.480664998293,0.694618999958,-1.49270796776,1.15537202358,1.54875004292,1.11482000351,-0.716548025608,-0.334861010313,-1.77275800705,-0.0668589994311,0.55245000124,-0.524425983429,0.500859975815,-0.363097012043,-0.95700699091,0.814365983009,-3.70393109322,0.334468007088,0.180139005184,-0.876565992832,-0.898379027843,-0.273620009422,0.0319540016353,1.67682301998,-0.886574983597,2.0374879837,0.429322987795,2.07154798508,0.449984997511,-0.775183022022,-1.64071798325,1.12492704391,-0.974622011185,-0.309648007154,2.68844199181,0.968505978584,1.55080699921,1.71318495274,-0.265415012836,-1.63399302959,-1.38254404068,2.31231498718,1.01195704937,-0.683335006237,0.431580990553,-0.835803985596,-0.591934025288,0.0324539989233,1.10247898102,-0.76795399189,0.145873993635,1.0773229599,-0.34557300806,-1.01042294502,1.6484760046,-0.0607700012624,-0.434442996979,-1.651466012,-0.582244992256,-1.58735895157,0.904236018658,-0.0320460014045,1.12478005886,0.0437950007617,0.390441000462,1.58212995529,-0.253300994635,0.515165984631,0.379768013954,-0.224381998181,-0.543604016304,0.565900027752,0.00429899990559,0.0937810018659,1.05829703808,1.38360202312,-1.80133497715,-1.46529400349,0.147322997451,-0.181622996926,-0.905722022057
吸收,-1.61633205414,0.312963992357,0.420006990433,0.860943973064,1.17929303646,0.213925004005,2.63114595413,-0.647867023945,0.729313015938,0.686057984829,-0.260217010975,0.302179992199,-0.359548985958,-0.220550000668,-0.645577013493,1.4780960083,1.64148497581,0.611531019211,-0.370862007141,-0.364755988121,0.206156998873,1.08359098434,0.812106013298,-0.0522649995983,1.27149999142,1.15091896057,0.459953993559,1.37393403053,-0.477600008249,0.802661001682,-0.635829985142,-0.0999889969826,-0.0937419980764,0.440012991428,-0.00489899981767,-1.51236903667,-0.636772990227,0.0323549993336,-0.721765995026,1.47828900814,0.132126003504,0.742338001728,-0.457632988691,-1.78352296352,1.33952999115,0.657837986946,-0.187350004911,-0.523554027081,1.83934295177,-0.259117007256,0.633984982967,0.0798140019178,1.12511003017,0.484551995993,-1.02336895466,-0.150395005941,-0.518137991428,-1.61604094505,0.575981020927,0.618547976017,-1.06121098995,1.49148702621,-1.50660502911,-0.386833995581,-1.81299102306,-0.705690979958,-2.86264705658,-0.744894981384,-0.548502027988,0.316047012806,0.41046500206,-2.51945996284,0.375162005424,1.89066898823,-0.295958012342,1.76820600033,1.25198495388,-1.00434398651,1.10761201382,-0.40281099081,-0.829527020454,1.09984099865,0.0542640015483,0.444389998913,0.657353997231,-0.30092599988,1.98089194298,1.03540802002,0.344336986542,-0.01640499942,0.189200997353,0.691869020462,-0.181783005595,0.0418040007353,0.302958995104,0.277640014887,-0.451936006546,1.03703403473,0.692831993103,0.511090993881,0.208856001496,0.945114016533,0.26318898797,-0.154054000974,-0.404965013266,-1.44233500957,-0.539744019508,-1.66966295242,1.26662802696,-1.80975604057,-1.6999360323,-1.08056998253,0.871252000332,0.409866988659,0.00591500010341,-0.484071999788,0.307249993086,0.509941995144,-0.000851000018883,0.741747021675,-1.25484704971,-0.888083994389,0.863605976105,-0.902574002743,0.42796599865,0.850125014782,0.198443993926,-0.419330000877,0.855252027512,0.608592987061,-0.841434001923,0.0259000007063,-0.253508001566,0.626402020454,0.619190990925,0.467763006687,-0.90772998333,0.831155002117,1.47358298302,1.93095600605,-0.0945359990001,0.684720993042,0.16300599277,-0.0410009995103,0.826049983501,-0.657240986824,-0.137747004628,1.73788702488,-1.45142805576,-2.6163380146,0.642259001732,1.64373004436,-0.219877004623,0.78695499897,0.0661970004439,0.441168993711,1.58369505405,0.99609297514,-0.0443929992616,1.90539097786,-1.06747400761,0.753060996532,1.29992496967,0.305334985256,0.691999971867,0.204199001193,0.985921978951,0.541504025459,-0.382658988237,1.58522605896,0.562638998032,-0.654354989529,1.171833992,-0.859486997128,-0.212119996548,0.0827440023422,-0.340912997723,1.10311496258,-0.349601000547,-1.23136305809,-0.998430013657,-0.307678997517,1.12351095676,0.0511879995465,0.428016990423,1.92241299152,1.27164900303,-1.02535498142,-1.84292304516,-0.352827996016,-0.583781003952,1.07092905045,1.59631502628,0.875450015068,0.209378004074,-1.14349102974,0.96454000473,0.644888997078,1.35302698612,-0.281574994326,1.34560799599,-1.66521799564,0.455478012562,0.0198149997741,-1.23350703716,0.34582901001,0.949360013008,-1.47921597958,0.0375929996371,1.13161098957,-0.140694007277,0.0154309999198,2.07465410233,-0.111276999116,0.0138769997284,-0.654574990273,-0.867495000362,-1.00820398331,-0.651579022408,-2.11557888985,0.0945930033922,-1.15117704868,0.869471013546,-0.117362000048,-0.396714985371,-0.195781007409,-0.170064002275,-0.110071003437,-1.75640499592,-2.04791903496,0.645696997643,-0.316284000874,-0.680599987507,-1.62348401546,1.98021602631,-0.28310701251,2.13690400124,1.75944197178,1.13491094112,-0.526476025581,-0.309080988169,0.0466330014169,0.111241996288,-0.597069978714,-0.958618998528,1.32254099846,1.04261100292,-0.796096980572,0.488292992115,0.158124998212,0.465559989214,1.50678396225,1.96910405159,-1.15011000633,-0.717077970505,1.02400898933,-1.78931903839,-0.160604000092,-0.0428869985044,0.843522012234,-0.355426996946,-0.709140002728,-1.23403596878,-1.41977000237,-0.145138993859,0.839313983917,1.40227794647,-1.24422299862,0.0263429991901,-1.12315297127,-1.14421701431,-0.656498014927,-1.00077199936,1.04797899723,-1.13037896156,-0.516147971153,-0.362684011459,-1.17830705643,2.15512800217,1.11755394936,-0.215088993311,0.94549202919,-1.49729597569,-0.0129880001768,-0.383698999882,1.14629995823,-0.332123994827,-1.81130599976,-0.0605400018394,0.635119020939,-0.0344879999757,-0.599168002605,-0.925800025463,0.0162170007825,1.72331798077,1.45378494263,-0.869395017624,-0.0802249982953,-0.380380004644,0.270458996296,-0.327656000853,-0.459203988314,-0.861499011517,1.61801195145,0.145122006536,0.415726989508,1.49266803265,-1.78403496742,-0.162732005119,1.30868494511,-1.60804796219,-0.784593999386,1.4107530117,-0.060871001333,0.244933992624,-1.01775300503,0.141314998269,-1.59476304054,-0.140266999602,0.869513988495,-0.0208069998771,0.183605000377,0.875864982605,0.574478983879,-1.81638097763,0.743986010551,-0.239356994629,-1.20819699764,-0.212608993053,0.182835996151,0.104002997279,-1.14146196842,-0.599317014217,0.641870975494,0.382247000933,-0.247936993837,1.23826801777,0.629881978035,-1.16998302937,1.41790699959,0.66584700346,1.25788497925,0.309787005186,-3.79373502731,2.04494404793,-0.266315996647,1.01426696777,-0.0105060003698,-0.711347997189,-0.36142501235,-0.250813007355,-0.21600599587,0.391032010317,0.76515597105,2.26587295532,-3.09618806839,-0.982743024826,1.1058139801,-0.85457700491,2.22281098366,2.19222688675,-0.0619550012052,0.923439979553,-0.515618026257,0.933995008469,-2.11874103546,-0.865377008915,0.94618999958,-0.253425002098,0.137822002172,-1.22321498394,-0.659442007542,0.587558984756,2.07104110718,0.924305021763,-0.642763018608,-1.40041005611,-1.0999840498,0.328658998013,-0.101791001856,1.17797601223,0.709270000458,-0.00265599996783,1.1292539835,2.13029003143,-0.265300005674,-0.896991014481,-0.769429028034,-1.63640904427,0.716297984123,1.28085398674,1.30644905567,-0.249956995249,-0.563516020775,-0.0923309996724,-0.144122004509,0.823840022087,-0.26545599103,-1.03624904156,-0.0142360003665
交叉,-1.10492503643,0.394454985857,-0.972922027111,-0.726235985756,-0.7563560009,0.846300005913,0.354142010212,-1.00618302822,0.484834998846,-0.248126000166,0.36761200428,-0.214449003339,-1.02750098705,-0.763954997063,-0.538555979729,-0.356211006641,0.0338479988277,-0.84363001585,0.499006986618,0.0411389991641,-0.303413003683,0.685899972916,0.38527199626,1.65105998516,1.21651601791,0.980529010296,1.13317501545,-1.06144094467,-0.23532499373,0.897249996662,-0.449640005827,-0.138418003917,0.0755459964275,-1.04909598827,1.21255898476,0.327670991421,-0.32323500514,-1.92184102535,0.688171982765,0.92589700222,1.31362199783,-0.508485972881,-0.952121019363,0.808443009853,0.412874996662,-0.81413602829,0.853896021843,-1.39977300167,0.922110974789,1.34830498695,0.297820001841,-0.733727991581,0.403605997562,1.75517904758,-1.67237901688,0.055840998888,0.957365989685,-1.71892094612,0.0200740005821,-0.641970992088,-0.623798012733,-0.252047985792,1.23511695862,-1.38538205624,-0.105065003037,1.36980199814,-1.62484204769,0.102342002094,0.318924993277,0.295868009329,-1.70259702206,-0.731058001518,-1.26692295074,1.34550797939,0.788605988026,0.662980973721,0.800996005535,-0.905494987965,1.33186495304,-0.602171003819,0.501128971577,-1.09960901737,-0.184518992901,0.426474004984,0.0693489983678,-0.332830995321,-0.137014001608,0.393817007542,0.273236989975,-0.274504989386,0.50804400444,-0.372839987278,-0.426912009716,1.16735994816,0.26915499568,-0.747062027454,0.14812399447,0.420134007931,-1.46027898788,-0.487917989492,-0.367145985365,-0.00809700042009,0.288037985563,1.25786495209,-0.0140530001372,-0.570542991161,1.11302495003,-0.728597998619,-0.550499022007,-0.651917994022,-0.341782987118,-0.634706020355,1.68853795528,0.342545002699,0.798528015614,0.903144001961,1.15250003338,-0.947605013847,-0.550814986229,0.413855999708,0.360767990351,-0.964896976948,1.32437396049,-0.110247001052,-0.249543994665,1.35182797909,-1.14605402946,-0.589164972305,0.447696000338,0.158122003078,0.41499298811,-0.823913991451,-0.333512991667,-0.875667989254,0.0790949985385,1.06120300293,0.345375001431,0.346116006374,0.190248996019,-0.0553250014782,-0.575752019882,-0.10931699723,0.302325993776,1.08710801601,-0.161572992802,-1.0497879982,0.177876994014,1.23348402977,-0.840395987034,-0.0756030008197,0.432224005461,-0.121873997152,0.290226012468,0.223082005978,1.70689499378,-0.237280994654,0.216176003218,-2.14132189751,-1.54105699062,0.819150984287,1.50638997555,-0.817848980427,1.44054102898,-0.990474998951,1.05213201046,-0.872191011906,0.387970000505,-1.15103197098,-1.01647603512,-0.0464809983969,0.886650979519,-0.37052500248,-0.146429002285,-0.532059013844,-0.130962997675,0.936739981174,0.674014985561,-0.0133929997683,-0.501581013203,1.53029894829,1.26291799545,0.243365004659,0.278306990862,-0.641617000103,-0.746674001217,0.624817013741,1.06365895271,-0.259014993906,0.423451006413,-0.919441998005,1.06356704235,1.63442099094,1.22793805599,0.736343979836,0.247465997934,1.09788298607,1.17049300671,0.185908004642,0.897925019264,0.809998989105,-0.381307005882,-0.325601011515,-1.09702396393,-0.467512995005,-1.05125296116,-0.210695996881,1.76479494572,0.211067005992,-0.151261001825,0.612468004227,1.13469600677,-0.400642991066,1.0027140379,0.0640190020204,0.545143008232,-0.164765000343,0.0596790015697,-1.59334099293,-0.534254014492,-0.890466988087,-0.0795670002699,-0.936102986336,0.113838002086,0.217904999852,-0.593029022217,-1.06403803825,-0.40718999505,-0.865077972412,0.474330991507,-0.92565202713,-0.331735998392,0.594798982143,0.46061399579,0.261732012033,-0.329371988773,0.511884987354,-1.2511459589,-0.200088992715,-0.458162009716,0.0927919968963,-1.47312903404,0.8497210145,-1.29871094227,0.955601990223,-0.067041002214,-0.04111199826,0.0295700002462,0.381754994392,0.351473987103,0.854301989079,-1.23965394497,0.0453849993646,-0.904820978642,0.43276900053,-0.65591698885,0.650377988815,0.694245994091,-0.524065971375,-0.525928020477,0.55058401823,-1.11488902569,0.254065006971,-0.660016000271,-0.479097008705,-0.647989988327,0.48664098978,-0.104841001332,0.0915850028396,0.579468011856,-0.78220897913,0.260569989681,-0.200110003352,-0.161623999476,1.70872294903,-0.127553999424,-0.500564992428,-0.429167002439,-0.592894971371,0.513059973717,-0.00653500016779,0.875509023666,0.235193997622,0.200556993484,-0.387057989836,-0.375717014074,-1.2702050209,-0.0747290030122,-0.0942469984293,-1.09140205383,0.204687997699,0.36794000864,0.960726976395,0.532181978226,-0.872636020184,1.26709496975,0.0625969991088,1.61724603176,0.528734982014,0.912344992161,0.539794027805,0.364551991224,0.779497981071,-1.4779740572,-0.0842930004001,-0.672428011894,1.33109104633,-0.866478979588,-1.41334199905,-0.583487987518,-0.411347985268,-1.14684605598,0.186094000936,0.12589199841,-1.0444149971,0.0553649999201,-0.75484597683,-0.199597001076,-0.0378019995987,-0.179175004363,0.656960010529,-0.706318020821,-2.42251801491,-2.02457690239,0.28250798583,-0.93555098772,0.477548003197,-0.182303994894,-0.893737018108,0.546683013439,0.314658999443,-0.458781003952,0.626259982586,0.358516007662,-0.899085998535,-1.38874804974,-0.67745500803,-0.830035984516,1.58245503902,0.535247981548,0.88538402319,0.403703987598,0.0733229964972,0.248449996114,-0.465451985598,0.170845001936,-2.23922801018,-0.712556004524,1.92222905159,0.00493599986658,0.875450015068,1.44104099274,0.509763002396,0.60081499815,-0.750163018703,-0.305561989546,-0.091769002378,-0.0766500011086,0.906000971794,-0.603501975536,0.995702981949,-0.383442014456,-1.38177204132,0.552268981934,0.352030992508,0.259977012873,-0.109916001558,0.520372986794,0.269495010376,-0.626204013824,-1.88317000866,0.279372006655,0.491192013025,-1.34291005135,-0.0168779995292,-0.357598006725,-0.422217011452,-2.11954498291,-0.327075004578,0.368104994297,0.229497000575,-0.543717980385,0.337139010429,1.2843619585,0.477165997028,-0.309478014708,-2.14023709297,-0.0796009972692,-1.77390098572,-1.88675200939,-0.680729985237,-0.0355109982193,0.681854009628,1.2881180048,-0.518844008446,-0.344413012266,0.270613014698,-0.369760006666,-1.46065795422,0.651809990406,0.590072989464
具有,-0.0681810006499,1.40470600128,2.58015298843,-0.417515993118,1.00962400436,-1.16817700863,1.30608701706,0.617208003998,-0.418976008892,0.680073976517,0.0320670008659,-0.412878006697,-0.458056002855,-1.79766905308,-0.482612013817,-0.850849986076,-2.08274888992,-1.79438197613,-0.0770839974284,-1.89013195038,-0.18320299685,1.71037101746,-0.515230000019,1.49715602398,1.35511505604,1.70045101643,0.843391001225,0.205026000738,-0.423913002014,0.0648590028286,-1.09362101555,0.0337539985776,-0.537654995918,1.05566394329,0.0166209992021,0.806357979774,-0.569635987282,-1.49469900131,-1.22647595406,1.73556303978,0.0558639988303,0.265271008015,0.105435997248,-2.35379004478,-0.376747995615,-0.36556199193,1.25548601151,-2.27157998085,1.02639400959,0.00692400010303,2.40711808205,2.47078704834,0.168236002326,0.261465996504,-0.577809989452,-0.711461007595,1.20865595341,-1.4975039959,-1.41725695133,0.847477018833,-0.984902024269,-1.34774005413,-0.193630993366,-0.443363010883,-2.12132501602,-1.61161196232,-0.036683999002,0.0770559981465,-1.23883497715,0.370943009853,0.356952011585,0.782513022423,0.139865994453,1.46712398529,-0.828422009945,-1.27127599716,1.79189300537,0.0404720008373,-0.571823000908,-1.20284795761,0.168824002147,0.45746999979,1.38751196861,0.675350010395,0.668947994709,-0.0208540000021,-0.198296993971,-1.33238601685,-0.342359006405,0.202732995152,0.675924003124,-0.0596310012043,0.792818009853,0.174928992987,-1.06169605255,0.60242497921,2.69266796112,-0.856046020985,-0.832304000854,-0.920239984989,0.240029007196,0.79019600153,0.500250995159,1.20982801914,-0.877777993679,-1.54953205585,0.789002001286,-0.0270620007068,-0.210247993469,-1.72801196575,0.124601997435,-0.0102399997413,-1.98794603348,0.560717999935,-0.582768976688,0.270738005638,1.57074296474,-2.07348608971,-0.341502994299,-0.572614014149,0.466809004545,-2.11353111267,0.257672011852,-1.0773639679,-1.49024105072,0.523836016655,-3.8909330368,0.0322370007634,0.614049017429,1.9462389946,0.432294994593,1.02524995804,-1.23026394844,0.811007976532,0.511888027191,-0.653074979782,0.123153999448,0.644003987312,0.620209991932,0.664552986622,-0.869156002998,-1.14205598831,-0.596728980541,-1.53448200226,0.8639960289,-2.00579190254,0.358027994633,1.05628097057,-0.402871996164,-1.20546996593,2.7305688858,0.258213013411,-0.436002999544,1.54279303551,1.13282501698,0.675576984882,0.61507499218,0.13313600421,-0.850395023823,1.10713100433,-0.0807140022516,-1.68908596039,1.18916904926,0.00458300020546,1.18081700802,-0.973964989185,-0.456936985254,-1.34860599041,-0.75123000145,-0.329811006784,-0.933367013931,-0.63809800148,-0.0689800009131,0.0177490003407,0.48097500205,0.82540500164,1.90796804428,2.58681893349,1.5687019825,2.3834810257,-2.55086803436,-0.167386993766,0.528226017952,-0.517509996891,-0.928963005543,-0.0507950000465,0.0726799964905,0.476684004068,-1.01190197468,0.669575989246,2.04224491119,-0.568099021912,1.69628596306,0.644079983234,-1.3272190094,-0.755998015404,0.0239199995995,1.02561295033,-0.916594982147,1.42628097534,-0.114302001894,-1.09185600281,-0.0769499987364,0.156933993101,-2.759567976,0.32309499383,-1.16582500935,0.308063000441,0.931065022945,1.64484596252,-1.01818299294,-0.313383996487,0.829441010952,-1.02109003067,1.40923297405,0.0107589997351,-0.743929982185,1.58135902882,-0.00687099993229,0.496219992638,0.294970989227,-0.580114006996,1.24730801582,0.16482399404,-2.8324201107,-2.68248391151,-0.340782999992,0.111527003348,-1.22633004189,-0.721207022667,-1.72058594227,-0.587580025196,0.447302997112,-3.02866101265,2.18809604645,-1.44568097591,0.390179991722,0.929045975208,1.12976002693,0.0662299990654,-0.653360009193,-0.0801040008664,1.08141100407,2.45656299591,0.0704040005803,0.708298027515,-2.02672290802,-0.61773699522,-0.941561996937,-2.54302310944,1.7059930563,0.749988019466,0.789391994476,-2.20186710358,-0.992626011372,-0.356705993414,-1.1988710165,-0.155992001295,0.778155982494,0.136042997241,1.02354300022,0.391003996134,0.450367003679,0.455379992723,-0.00685400003567,-1.35155105591,-1.85231101513,1.5436270237,-1.0235029459,-1.02440702915,-1.30442500114,0.203139007092,-1.23908400536,-0.316504001617,-0.590174019337,1.33123898506,-1.30481004715,-0.494785010815,-2.10413002968,0.325338989496,-0.327114999294,0.678718984127,1.29269099236,-0.818531990051,-0.57722902298,-0.975718975067,-0.473823010921,-1.84104895592,-0.951117992401,2.53559803963,0.138503998518,0.353875011206,0.318973004818,-0.825444996357,1.61142897606,-0.528271019459,0.152013003826,-0.402534008026,0.10733500123,-2.35540103912,-1.74005305767,1.45838999748,0.552447974682,-0.745907008648,-0.173974007368,-0.78741300106,0.289137989283,1.44880998135,1.35511898994,0.996173024178,0.924515008926,-1.22544896603,2.00497603416,-0.649911999702,-1.65961098671,1.28914701939,0.331835001707,-0.15159599483,-0.958675026894,-0.141911998391,-0.348701000214,-1.57021594048,-0.838141977787,0.846167981625,-0.327657997608,0.649896025658,-2.56881904602,-0.188077002764,-1.76996803284,-2.26689600945,1.33644902706,-1.19589698315,-1.27485001087,-1.55149805546,1.99730801582,-1.57301497459,0.634286999702,-0.307164013386,-0.54387897253,0.467918008566,0.0257360003889,1.5084810257,-0.249283999205,-2.2722389698,1.70656895638,1.08219504356,-0.675953984261,2.13902211189,-1.67171704769,0.783581972122,-0.240817993879,-0.773638010025,2.44632005692,2.29708909988,0.571361005306,-0.126895993948,0.937871992588,-0.770433008671,-1.28128004074,1.86798095703,1.48265504837,0.645736992359,-2.69974303246,-0.188534006476,2.70706701279,-0.138572007418,-2.07960009575,-0.427298992872,-0.662240028381,-0.1396510005,-0.28536298871,-2.02715992928,1.39363503456,1.65049695969,-0.0658790022135,-1.30796802044,-1.70810103416,-0.0225639995188,0.366820007563,0.160209998488,-0.21618899703,-0.970288991928,-1.24033105373,0.759651005268,1.81904995441,-1.63943505287,-0.373369991779,-1.52522802353,-2.56299090385,1.27070105076,2.01581597328,1.51417005062,0.541059970856,-0.962484002113,0.908342003822,-0.727864027023,1.95490598679,-0.627606987953,-0.308317005634,-0.275135993958
机动车辆,0.212339997292,0.347160995007,0.161537006497,0.168156996369,0.0760319977999,0.0939790010452,0.217848002911,-0.406587988138,-0.0358569994569,0.0575730018318,-0.201011002064,0.380962997675,-0.0065150000155,0.274798989296,-0.123021997511,-0.0921870023012,-0.235106006265,-0.520013988018,0.0811429992318,-0.225060001016,-0.169673994184,-0.155146002769,-0.457042008638,-0.0457599982619,0.438850998878,0.247477993369,-0.441242009401,0.280001997948,0.0849900022149,-0.0314759984612,0.191649004817,-0.275539010763,-0.0760879963636,0.119543001056,0.183295994997,0.26873499155,0.326631993055,0.0332860015333,-0.379469007254,0.28338599205,0.136484995484,-0.461075007915,-0.0912640020251,0.041547998786,0.45711299777,0.239662006497,0.0622599981725,0.0296010002494,0.0914129987359,0.179483994842,0.435452014208,-0.00348099996336,-0.103629000485,0.293321996927,0.0512429997325,0.234668001533,-0.263527005911,-0.051672000438,-0.28141900897,0.103266999125,-0.150060996413,-0.0818720012903,0.254660993814,-0.262813985348,0.229367002845,0.0238530002534,-0.0108329998329,-0.21250000596,-0.272365003824,-0.300110012293,-0.171792000532,0.036858998239,-0.165955007076,0.390253007412,0.0515320003033,0.181177005172,0.30475500226,0.206239998341,-0.21062399447,-0.223626002669,-0.0973580032587,-0.625415980816,0.00758899981156,0.127808004618,-0.20090700686,0.108271002769,-0.30971801281,-0.125980004668,0.022072000429,-0.32074201107,0.297481000423,0.325572997332,-0.105452001095,0.277022004128,0.0732010006905,-0.131412997842,-0.123093999922,-0.0797000005841,0.054907001555,0.136645004153,0.264007002115,0.26837900281,-0.0927890017629,0.084880001843,-0.318325996399,-0.323509991169,0.440154999495,-0.293128013611,-0.0196180008352,0.282608985901,0.167104005814,-0.273999989033,-0.427776008844,0.0381699986756,0.127581000328,0.243411004543,-0.115157000721,-0.119338996708,-0.115156002343,-0.0477459989488,-0.0164930000901,-0.310853004456,0.120424002409,-0.0543310008943,-0.00429400010034,-0.206703007221,-0.364771991968,-0.172331005335,0.101824998856,0.244790002704,-0.149602994323,-0.478439986706,-0.136852994561,0.139147996902,-0.141161993146,-0.11820500344,-0.08605799824,-0.0702420026064,0.167199000716,-0.125497996807,0.192606002092,-0.178090006113,-0.226160004735,0.167842999101,-0.176669001579,-0.226974993944,-0.283436000347,-0.0785140022635,0.110567003489,-0.137058004737,0.532887995243,-0.395705997944,-0.291343003511,0.0307320002466,-0.0314520001411,-0.316574007273,0.132148995996,-0.0627069994807,-0.123467996716,-0.153942003846,0.222779005766,0.155837997794,-0.2609179914,-0.039919000119,0.0797429978848,0.0384409986436,-0.414682000875,-0.234200999141,-0.389519006014,0.188061997294,-0.053844999522,-0.182261005044,0.217888996005,0.500926971436,0.398169994354,0.31415900588,0.239623993635,-0.449743002653,0.181922003627,-0.0194140002131,0.204295992851,0.0796049982309,-0.0379259996116,0.0882709994912,-0.0581360012293,-0.296368986368,-0.0383119992912,0.00232500000857,-0.0426420010626,-0.0612060017884,-0.0201539993286,-0.213239997625,-0.022840000689,-0.0153050003573,0.00240799994208,0.130910992622,0.257959991693,-0.0998110026121,0.0436609983444,-0.28033798933,0.136467993259,-0.0775310024619,-0.228668004274,-0.14381699264,0.139706000686,0.215173006058,-0.0780310034752,-0.138202995062,0.0478419996798,-0.152302995324,-0.106633998454,-0.23711399734,-0.0435779988766,-0.311657994986,-0.108404003084,0.485641986132,-0.504554986954,0.0843119993806,0.230138003826,-0.558201014996,-0.0864299982786,-0.00463199988008,0.112898997962,-0.0190409999341,-0.0465949997306,0.271809011698,0.199095994234,-0.00422499980778,0.389842987061,0.0433880016208,-0.0125569999218,-0.143545001745,-0.243465006351,-0.2747400105,0.317214012146,0.00480100000277,0.206946998835,-0.0423430018127,-0.060435000807,-0.272731006145,-0.156501993537,0.224122002721,0.371838986874,0.078983001411,0.087838999927,-0.232086002827,0.160081997514,-0.103193998337,-0.216447994113,-0.0199939999729,0.143571004272,0.0863159969449,0.120247997344,-0.0107410000637,0.0234919991344,-0.0576520003378,-0.231400996447,0.00195900001563,0.577592015266,0.0357009992003,0.413675010204,0.240823999047,0.118804000318,-0.215240001678,-0.235000997782,-0.381110996008,0.00519199995324,0.214321002364,-0.392006009817,-0.192357003689,-0.0711280032992,0.16735099256,0.112047001719,0.0205370001495,-0.0643429979682,0.16316999495,-0.0801040008664,0.0512799993157,-0.147173002362,-0.0462430007756,-0.0377559997141,0.323399990797,0.113861002028,-0.240843996406,-0.792608976364,-0.12954300642,0.00798599980772,0.0121069997549,-0.405030012131,0.200441002846,0.0598249994218,-0.0605559982359,-0.288105010986,-0.214802995324,0.245086997747,-0.0221769995987,0.147064000368,-0.246173992753,-0.117266997695,0.197035998106,-0.084358997643,-0.205296993256,-0.220992997289,0.0649039968848,0.103906996548,-0.284702003002,-0.460406988859,-0.0344990007579,-0.0178289990872,0.0470709986985,-0.388446003199,-0.0628990009427,0.0751719996333,-0.0854619964957,0.172042995691,-0.23079200089,-0.0140530001372,-0.0594130009413,0.314132988453,-0.0233369991183,-0.104101002216,0.251525998116,-0.017396999523,-0.111832998693,0.114589996636,-0.0109019996598,-0.151051998138,-0.147202000022,-0.118277996778,-0.073789998889,0.30994400382,-0.360698014498,-0.127200007439,-0.152112007141,-0.0581859983504,0.133200004697,0.0288440007716,-0.0888879969716,-0.470362007618,-0.188238993287,-0.452876001596,-0.124810002744,0.171301007271,0.0810220018029,-0.0273460000753,-0.19054299593,-0.189935997128,-0.0694459974766,-0.0732380002737,-0.402954995632,0.185672000051,-0.0654029995203,-0.162265002728,0.0582300014794,-0.113480001688,0.0282039996237,0.0888139978051,0.0950030013919,0.368997991085,0.294380009174,-0.411976993084,-0.213221997023,-0.30121999979,0.218849003315,-0.384323000908,-0.0453479997814,-0.157486006618,-0.441819995642,-0.0825629979372,0.224062994123,-0.30873799324,0.228253006935,0.291619986296,-0.616339981556,0.11252400279,-0.187478005886,-0.625639021397,-0.522740006447,-0.457455009222,0.171844005585,-0.123700000346,0.27035599947,-0.00656000012532,-0.35137501359,-0.00747699989006,-0.456310987473,-0.107104003429,-0.18191100657,-0.615761995316,0.0799959972501,0.0284160003066,-0.0283109992743,0.108497999609,-0.156210005283,0.118487998843,-0.329391986132,-0.34278601408,0.327288985252,0.33450499177,-0.340420991182
车辆,-1.22170698643,0.40252700448,1.76000094414,1.31590998173,0.0624129995704,1.68796205521,0.820315003395,-0.181292995811,1.5454980135,0.450466990471,-0.679275989532,0.732796013355,-1.40325200558,1.22540700436,0.73015999794,0.353431999683,-1.78323698044,-2.10352706909,2.39379405975,-1.43667495251,0.127608001232,-1.24063098431,-0.963186979294,-1.07081902027,0.760008990765,0.412072986364,-2.16988396645,0.533544003963,-1.65400397778,1.97462201118,-0.19486400485,-1.5894010067,-1.94733500481,0.667979001999,-0.866056978703,1.37707698345,2.03237605095,-0.910183012486,-2.30883002281,0.88733702898,-0.705379009247,-0.0619419999421,-1.48568201065,1.08094000816,0.210638001561,1.08513605595,-1.13516795635,0.578274011612,-0.934804022312,0.875571012497,0.625759005547,-0.723560988903,-0.609717011452,-0.534116029739,-1.03908002377,2.27695894241,-1.82092297077,-1.33651804924,-1.41119205952,1.25262403488,0.18323199451,-0.804211974144,-0.904688000679,-2.00904202461,-0.219009995461,2.04133796692,-2.25539708138,-1.68596994877,0.937336981297,-1.8654910326,-1.05938696861,-0.129574000835,0.332715988159,0.920747995377,0.267450004816,0.868830025196,1.79321599007,0.340112000704,-1.30863702297,0.768000006676,0.347568005323,-3.33919692039,0.953315973282,0.414196014404,-0.817698001862,0.185711994767,-1.79904699326,-1.20338094234,2.11189389229,-1.23968303204,0.765895009041,0.748435020447,-1.42326295376,1.02551698685,-0.617631018162,0.298604011536,-0.900942981243,0.694090008736,-0.559230983257,2.2516849041,0.755114972591,1.19624400139,-0.607734978199,0.141113996506,-1.67858099937,-1.5229049921,1.54865396023,-2.27912902832,0.581054985523,0.247817993164,0.173653006554,-0.737205982208,-2.17022299767,0.257367014885,1.64330005646,1.95713305473,0.23164999485,-1.79600703716,-1.31465899944,0.534416973591,-0.0417939983308,-0.66981202364,1.14639496803,-1.34561705589,0.547100007534,0.111773997545,-1.10513901711,-1.23125600815,0.230572998524,-1.30696499348,-0.326193004847,-2.88387203217,-1.57615995407,0.962503015995,-0.468863010406,-2.0241189003,-1.20255696774,0.931501984596,-0.397693008184,0.380917012691,3.73651599884,0.332127004862,-0.698666989803,0.140584006906,0.782248020172,-0.90671902895,-1.30896794796,-0.411545991898,-0.869893014431,1.07103705406,2.08907008171,-0.114716999233,-2.30660104752,-0.132293999195,0.271735012531,-0.745963990688,0.967697024345,0.404561012983,-0.451646000147,-0.515514016151,2.42663407326,0.0267750006169,-0.0842309966683,-1.55235505104,-2.57010889053,0.584291994572,-1.63589596748,-0.279125988483,0.514382004738,-0.613967001438,0.851957023144,-0.986003994942,1.14904594421,1.76085400581,1.13186502457,1.2998919487,-0.0340769998729,-0.0511169992387,-0.237471997738,0.424225986004,1.38192999363,1.21960902214,-0.247008994222,-0.168015003204,1.4341340065,1.75089395046,4.80000016978e-05,0.308310002089,-0.104341998696,-1.59481203556,-1.85867905617,1.05123996735,-0.837221026421,0.287663012743,-0.972540974617,1.64143395424,1.78187298775,-1.27244198322,1.59712696075,-0.122433997691,1.0709400177,-0.341035991907,-0.532489001751,-0.138465002179,1.07609605789,0.542952001095,-0.14930100739,0.436098992825,0.283307999372,-0.126953005791,-0.493624001741,0.472128987312,-0.870323002338,-0.567927002907,-0.266416013241,1.17770004272,-3.41066598892,-1.12644100189,0.141901001334,-1.51661801338,0.976612985134,-0.920985996723,1.45275604725,-0.376540988684,-0.260609000921,3.07641792297,0.154888004065,0.602625012398,3.96161603928,-1.22353804111,-0.986706972122,0.0994189977646,-0.173244997859,-1.77206802368,2.35775303841,-0.6229839921,1.18065500259,-1.75748300552,0.273245990276,-1.77536594868,-1.34163498878,1.03495895863,1.23550796509,0.722133994102,0.31263500452,-0.358309000731,0.628071010113,-1.63934695721,-0.107943996787,1.73462295532,0.727876007557,0.890208005905,-0.18521399796,0.488819003105,0.839460015297,0.469716995955,-1.09599304199,-0.0629409998655,2.40366601944,1.09276199341,0.511874973774,2.15436005592,0.629339993,0.201415002346,-1.31763505936,-1.68028402328,-0.642328977585,0.351121991873,-1.5652179718,-0.34520599246,-1.12769496441,-0.928754985332,-2.35054802895,1.38847994804,-0.851601004601,0.674070000648,0.115414001048,1.28990805149,-0.556096017361,1.45849001408,0.878700017929,0.977729976177,0.856706976891,-1.10388600826,-2.31577801704,-0.33768299222,-0.468035012484,1.84696900845,-0.322968989611,-0.0321759991348,0.667379021645,1.17729794979,0.0786510035396,-1.51488101482,1.19525003433,-1.29082596302,2.22902798653,-1.44311201572,0.20364099741,-0.709201991558,-0.908814013004,0.304980009794,-2.38825106621,-0.985040009022,0.53606402874,1.51065003872,-2.22043204308,-1.50455498695,-1.10472500324,-1.10570394993,-0.588522970676,-0.838885009289,1.33052003384,-0.318100005388,-1.33144104481,-1.0565199852,-0.247924998403,-0.974896013737,0.455799013376,-0.561196029186,-0.118156000972,2.28373289108,0.0954829975963,0.851082026958,-0.381415009499,0.432390987873,-0.405862987041,0.271759003401,0.388543009758,-0.574907004833,1.89564597607,0.648118019104,0.203584000468,-0.282404005527,0.517152011395,-0.587947010994,1.04943501949,0.285291999578,0.0540009997785,-1.60588502884,-1.57982897758,-1.41680800915,1.21631705761,-0.862047016621,1.19202303886,-2.46437096596,0.0241390001029,-0.00243999995291,0.532644987106,-1.70204997063,0.592055976391,-1.52358698845,-0.409606009722,-1.02798700333,-1.23600697517,0.0754560008645,0.988305985928,0.0544270016253,1.84341096878,1.28992903233,-0.0323599986732,-1.47302496433,-1.59719800949,-0.00847299955785,0.131009995937,-0.625483989716,0.197317004204,-1.60739302635,-2.33507490158,-0.642289996147,0.0218240004033,-0.135453000665,0.10261400044,-2.90187311172,0.45448499918,1.05259001255,-2.60490393639,-1.08782100677,-2.60753488541,2.39500188828,-2.38422489166,1.70553600788,2.13071107864,-2.02652192116,0.968012988567,-1.13405299187,-1.49502801895,0.0994869992137,-1.30994403362,3.17224001884,-0.459266990423,0.0939700007439,0.284188985825,-1.04577696323,1.34702694416,-0.874800026417,-1.07393801212,-0.772629022598,0.809557974339,-1.46578204632
衬板,0.002208000049,0.0480890013278,-0.0214760005474,-0.00182500004303,0.0483219996095,0.043232999742,0.04618300125,-0.0415979996324,0.0109719997272,0.0348890013993,0.0022450000979,0.0205770004541,-0.0391010008752,0.00936399959028,0.0267110001296,-0.051768001169,-0.0263539999723,-0.056710999459,-0.00872899964452,-0.00272099999711,-0.0272840000689,0.0281690005213,-0.0294470004737,-0.00865899957716,-0.0382790006697,-0.0168769992888,-0.0446589998901,0.0138109996915,-0.0316830016673,-0.0424689985812,0.0208889991045,-0.0428050011396,-0.0404869988561,0.00342500000261,0.0575970001519,0.0186989996582,-0.0151119995862,-0.00749700004235,0.01900799945,0.0232650004327,0.064480997622,0.00478499988094,0.0244050007313,-0.00341899995692,0.0345409996808,0.0123770004138,0.00569600006565,0.0468089990318,-0.0254529993981,-0.0193729996681,0.0402950011194,-0.0309689994901,-0.0571479983628,-0.0104710003361,-0.0294649992138,-0.0158399995416,0.0416239984334,-0.0514050014317,-0.0360409989953,0.00690999999642,-0.0221309997141,0.0461779981852,-0.00628900015727,0.000239999993937,-0.0198539998382,0.00641900021583,-0.0258600004017,-0.0166250001639,-0.0486040003598,0.0212110001594,-0.0446190014482,0.0132010001689,0.0366729982197,-0.0310169998556,-0.03616899997,-0.00130300002638,0.0282930005342,0.0185739994049,0.00549599993974,-0.0025490000844,-0.0244750007987,-0.00923200044781,0.0362630002201,-0.0238329991698,-0.017506999895,-0.0182760003954,0.0290690008551,0.00480199977756,-0.0362389981747,-0.0222539994866,0.0520629994571,0.0538779981434,0.0140850003809,0.0394649989903,0.00762799987569,0.0151979997754,-0.0152219999582,0.000193999992916,-0.0633689984679,-0.028751000762,0.0469399988651,-0.0346780009568,-0.0400069989264,-0.015077999793,0.00932100042701,-0.0110600003973,0.0687310025096,0.00933900009841,-0.00042699999176,-0.0248889997602,-0.0290329996496,-0.0260589998215,0.00651399977505,-0.0504060015082,-0.0284540001303,-0.000600999977905,0.0306429993361,-0.0374480001628,-0.0247499998659,0.062433000654,-0.0116189997643,-0.0254200007766,-0.0263410005718,0.00729299988598,0.0582580007613,-0.0518009997904,-0.044916998595,-0.0103649999946,0.00295899994671,-0.0279840007424,0.00303700007498,-0.00448899995536,-0.0170559994876,-0.00499799987301,0.00640599988401,-0.00712700001895,-0.0264970008284,-0.00491600017995,-0.00244199996814,-0.0378599986434,-0.00313499988988,-0.000205000003916,0.0110700000077,0.0512170009315,0.00774999987334,-0.00530700013041,-0.0218720007688,-0.0155760003254,0.032648999244,-0.022962000221,-0.0205930005759,-0.0820280015469,-0.0052049998194,-0.0266479998827,0.00766699993983,-0.0468889996409,0.0367969982326,0.00748899998143,-0.0140819996595,-0.0226019993424,0.0226819999516,-0.0203620009124,-0.0517849996686,-0.018280999735,-0.00377400009893,-0.00317799998447,0.0398360006511,-0.0232400000095,-0.0369470007718,-0.048167001456,-0.0436469987035,0.0112479999661,-0.0253170002252,0.0113490000367,0.0155210001394,0.0471629984677,0.0350279994309,-0.0148719996214,0.0284330006689,0.0386260002851,-0.0432180017233,-0.0120639996603,0.00981699954718,-0.0200440008193,0.0322289988399,0.0468510016799,0.0273189991713,-0.0251809991896,-0.0148029997945,0.020651999861,0.000104999999166,0.00243399990723,0.0127710001543,0.051249999553,0.00316699990071,0.0251369997859,0.0333259999752,0.0201880000532,0.0009710000013,-0.00940299965441,-0.00438399985433,-0.0552430003881,0.0327830016613,-0.0268290005624,-0.0664220005274,0.0570730008185,0.0461210012436,-0.00949100032449,0.0233880002052,-0.0256489999592,-0.0510560013354,-0.00925800018013,0.0756540000439,-0.0106229996309,-0.0222559999675,0.0162220001221,0.0109750004485,0.0599839985371,0.0402610003948,-0.0161739997566,0.026101000607,0.0253369994462,-0.0240080002695,-0.0344530008733,0.015180000104,-0.0324489995837,0.0147270001471,-0.0138860000297,-0.0331580005586,-0.0138889998198,-0.0381599999964,0.00979600008577,0.0384440012276,-0.0177640002221,-0.0261419992894,0.00815800018609,0.0276599992067,0.0353729985654,-0.0421309992671,-0.00692699989304,0.0813639983535,-0.0102249998599,-0.0167740006,-0.0032830000855,-0.00728000001982,0.0238450001925,-0.014572000131,0.00557699985802,-0.000483999989228,0.0123389996588,0.0112490002066,0.013356000185,0.0124230002984,0.0255500003695,0.0371830016375,-0.0491629987955,-0.0358150005341,-0.00358900008723,-0.00754600018263,-0.0711610019207,0.0606550015509,-0.000933000002988,-0.0126289995387,0.0179650001228,0.0394599996507,-0.0245980005711,-0.0135979996994,-0.00933600030839,-0.0242929998785,0.0322859995067,-0.00209200009704,-0.0266970004886,-0.0228909999132,0.00751599995419,0.00346600008197,0.0199379995465,0.0445169992745,-0.0169409997761,-0.0314470008016,0.00919799972326,0.0297970008105,0.0167260002345,0.013140999712,0.0786409974098,-0.0240310002118,-0.011045999825,-0.00121799996123,-0.031086999923,0.0133419996127,0.018805000931,-0.0012379999971,-0.0388180017471,-0.0197640005499,0.0245609991252,0.0274199992418,-0.0201459992677,-0.00572100002319,0.018667999655,0.0200919993222,0.0290569998324,0.000176000001375,0.0344909988344,-0.00527200009674,-0.0189110003412,-0.0138959996402,0.00524900015444,-0.0197930000722,-0.0386339984834,-0.0251950006932,0.0186240002513,-0.000757000001613,0.00464800000191,0.00812499970198,0.0275929998606,0.0134410001338,0.0464779995382,0.00564299989492,0.0212030000985,0.0405000001192,0.0192910004407,-0.0115160001442,0.0100060002878,0.0101370001212,-0.0384350009263,-0.0291510000825,0.0238499995321,-0.0291770007461,-0.0445040017366,-0.0466840006411,0.0172860007733,-0.000694999995176,-0.00941300019622,-0.0129829999059,-0.0199769996107,0.0122809996828,-0.0202029999346,0.0,0.00531500019133,0.0559290014207,-0.0143349999562,0.00250199995935,0.0100990002975,-0.0111870002002,-0.0053130001761,0.0302610006183,0.0189040005207,-0.0401960015297,0.00714199990034,0.0287779998034,-0.0411750003695,-0.0291179995984,-0.00523199979216,0.00135499995667,0.00260000000708,-0.0204140003771,-0.030401000753,0.0387809984386,0.00970800034702,0.0289660003036,0.0610349997878,0.0220320001245,0.0554790012538,-0.0554569996893,-0.0106819998473,-0.0229519996792,-0.00889800023288,0.0151610001922,-0.0224680006504,-0.0804629996419,-0.0192990005016,-0.05179399997,0.0126590002328,0.0384350009263,0.0352389998734,-0.0308229997754,-0.00799900013953,0.00516200019047,0.0404770001769,0.0045880000107,-0.0517870001495,-0.00920700002462,0.0177040006965,-0.0140570001677,-0.0224469993263,0.0179680008441,-0.0559540018439,-0.0373370014131,-0.0361590012908,-0.00270899990574,0.0370149984956,0.00579199986532,-0.0312060005963,0.0321229994297,0.0363949984312,-0.000251999998,-0.0586289986968,0.0107620004565,0.017216000706,-0.0360560007393,0.0076790000312
结构,-2.42835688591,1.7971559763,2.61451196671,-0.405829995871,2.17393493652,-0.321936994791,0.599795997143,-1.6702170372,0.377995014191,1.32747805119,-0.698747992516,0.107716999948,-1.2962770462,-0.435034990311,-0.697408974171,-0.431928992271,-1.14078295231,-1.79297494888,-0.347088009119,-1.0648560524,-0.0272519998252,-0.348084002733,0.0713900029659,0.646709024906,0.356077998877,1.45579099655,0.0667740032077,0.444025009871,-1.58606505394,1.22058200836,0.335258990526,-0.40721398592,-0.804570972919,0.456571996212,2.48971891403,-0.823823988438,-1.12971305847,-0.797637999058,-0.203920006752,-0.013582999818,0.679803013802,-0.214080005884,-0.840386986732,-0.41413500905,-0.293336004019,0.754859983921,-0.0514659993351,-2.13663601875,0.494320005178,-0.0538850016892,0.6842020154,-2.46908688545,1.10233700275,0.952587008476,-2.30595588684,1.11290097237,2.02344608307,0.438356995583,-1.39987003803,-0.182514995337,-0.450379997492,0.0237639993429,-0.368209987879,-0.328025013208,-1.57064700127,-1.79748702049,-2.31033396721,0.346033006907,1.13598299026,-0.760568022728,-0.465052008629,-0.399563997984,0.039404001087,1.92485797405,0.0876350030303,0.851423978806,1.01924204826,1.3123049736,-0.113711997867,0.701288998127,-1.19265794754,-2.56626605988,2.31007003784,0.661682009697,0.421148985624,1.2742279768,0.0248840004206,-1.32038199902,0.58992099762,-0.333449989557,0.536536991596,-0.485269010067,1.33403003216,-0.0436760000885,-0.142753005028,-0.72549200058,1.05154502392,-0.71778601408,-1.73489403725,0.535354018211,0.774892985821,-1.31073999405,0.536015987396,2.52102589607,-0.759218990803,-1.68054997921,1.90713405609,0.199277997017,0.386393994093,-1.87719595432,0.292881011963,-0.944337010384,0.661970019341,-0.555262029171,-0.122725002468,1.71340095997,0.952589988708,-1.21913504601,0.654906988144,1.04714095592,-0.816075026989,0.217647001147,1.27047395706,-2.02440810204,-1.39815497398,1.98313701153,-2.10503697395,-1.28587496281,1.67091298103,-0.680275022984,1.85187995434,-1.30558300018,-1.05832695961,0.310032010078,-0.534047007561,-1.78436899185,-0.407829999924,-0.112021997571,0.509638011456,-0.646955013275,2.39430999756,-0.882884025574,-0.654862999916,0.297320991755,0.647177994251,-0.104299001396,0.288049995899,0.303568005562,-0.216251000762,-0.51570802927,1.27024495602,-0.164730995893,-0.1211130023,0.454223006964,0.700429022312,1.54730904102,0.076861999929,0.11538399756,0.488575011492,2.52634000778,0.388453990221,-2.94801998138,0.348791003227,-1.86394703388,0.0980419963598,0.378641992807,-0.169044002891,-0.511548995972,-0.201734006405,0.581014990807,-0.0644309967756,-0.380407989025,0.723946988583,1.8931620121,0.761200010777,-0.317476987839,2.50127100945,1.52624797821,0.392500013113,1.63957798481,-0.178802996874,0.744632005692,0.875329017639,-0.504697024822,0.303490012884,1.09529304504,0.735707998276,-0.0271029993892,0.0549569986761,-0.327495992184,0.575838983059,-2.58888196945,1.54976701736,-0.1363620013,-0.121428996325,-0.464590013027,-0.446790009737,-0.330303013325,0.424448013306,-0.00610700016841,0.43192499876,1.41717505455,-0.832759022713,0.352721989155,-0.615989983082,1.49029898643,0.383891999722,0.614965975285,-0.707837998867,1.41202199459,-0.92421901226,-0.256274998188,1.14748001099,0.745069980621,1.0858540535,-1.14205694199,-0.908937990665,-0.391434013844,0.819562017918,-0.847102999687,0.139369994402,-0.0678799971938,1.31541705132,0.308447003365,-1.08625495434,-1.77766799927,-0.769470989704,-1.32678496838,-0.0862239971757,-0.575662016869,0.974083006382,-0.338093012571,0.290215998888,-0.230393007398,0.886793971062,-1.80847895145,-1.15656495094,-1.37339401245,1.05906605721,0.77088701725,0.951988995075,0.114508002996,-0.567654013634,1.66992795467,-0.758619010448,-0.621187984943,0.123896002769,0.444193005562,1.92571496964,-0.024244999513,-0.377517014742,1.02322900295,0.668663978577,-0.30887401104,-0.889585018158,0.691300988197,0.241087004542,-1.6612919569,2.25962400436,0.687561988831,1.12548398972,-0.0935650020838,0.00560100004077,1.2732219696,-0.149283006787,-0.324656009674,-1.12614798546,-0.144178003073,0.226665005088,-0.194169998169,-1.01255202293,-0.14130499959,-0.777918994427,2.17765188217,-2.65007805824,1.44175994396,-1.808604002,0.369639009237,0.467278003693,-1.36250495911,-0.68806797266,0.196605995297,0.236186996102,0.598609983921,-0.922173976898,0.573428988457,1.14671599865,-1.9857929945,-1.06248104572,0.0806490033865,0.17646099627,0.351292014122,-1.12906002998,-0.745510995388,-0.308097988367,-0.710385024548,0.404154986143,0.473174005747,0.3921880126,-1.13608300686,0.0160590000451,0.975856006145,-0.303501009941,-0.640564024448,0.668151974678,0.719110012054,-0.531316995621,-0.356837004423,-1.12821602821,-0.192860007286,-0.0993020012975,-1.17675900459,0.0683329999447,0.153469994664,0.751115977764,2.16758608818,-1.39037895203,-0.215825006366,0.547070980072,-0.090815000236,0.721624016762,-0.524070978165,-0.725346028805,-1.1400680542,0.421011000872,0.504842996597,-0.462754011154,-1.51936101913,0.092565998435,-1.67402994633,-0.73409897089,1.32639694214,1.04209601879,-0.156059995294,1.36061501503,0.591257989407,-0.461564004421,0.250575989485,-0.970574975014,0.192730993032,-0.106856003404,0.0996949970722,-0.0411860011518,-0.808879971504,-0.161006003618,1.85442101955,-2.09496498108,0.563489973545,0.578660011292,-1.11644804478,-0.300446003675,-1.82167303562,-1.02085995674,-0.77049601078,-0.248379006982,-1.26760494709,0.528766989708,1.20807802677,-1.78280699253,1.78174197674,0.110579997301,0.730836987495,-0.315486997366,1.6776150465,-0.535517990589,-2.9949669838,-1.32596695423,-0.80393499136,-0.0058410000056,-1.53379702568,-1.4695520401,-1.39049196243,-0.62253600359,0.373198002577,-1.36657094955,-0.0270370002836,0.0366810001433,0.147683992982,-1.53023004532,-0.968986988068,0.345452010632,1.12413597107,-1.18701696396,1.05708396435,2.07362294197,-0.883588016033,0.533590018749,-1.2218760252,-0.0787260010839,0.0395909994841,0.596129000187,0.466394007206,-0.248511999846,-0.142681002617,-0.397166013718,0.765344023705,0.94425702095,0.421954989433,1.59098303318,0.697004020214
覆盖,-1.1674259901,2.26476407051,0.682615995407,-0.338297009468,0.754944980145,-1.07030200958,3.01018595695,-3.24356198311,0.858011007309,0.33700299263,0.333784997463,-0.29401499033,-1.00682997704,-0.493472009897,-0.146691992879,0.371699988842,-1.3802959919,1.95944797993,1.11569702625,-1.32580804825,-0.923685014248,0.234141007066,0.125985994935,1.53762805462,1.83071100712,0.368916988373,-1.66813099384,0.40676099062,0.802313029766,0.951484978199,-0.429966986179,-2.14409995079,-0.331117987633,2.09782195091,0.903698980808,-0.720917999744,1.12410902977,0.302284985781,0.803933978081,1.5166759491,1.08362102509,0.815526008606,-0.857877016068,-1.5481749773,0.177515000105,0.8952460289,-1.60654294491,-0.286527007818,-0.0822160020471,-1.53681695461,1.24656903744,-1.69996798038,-0.960833013058,-0.176266998053,0.320551007986,0.602012991905,2.62438893318,-0.247026994824,0.591659009457,0.163974002004,-0.446283996105,-0.422991991043,-1.81209504604,-1.60879898071,-0.166986003518,0.401452988386,0.109127998352,-0.909017026424,-0.622677981853,-0.421317011118,-1.40399694443,-1.90362799168,1.14742803574,1.62020504475,-1.04574799538,0.507526993752,1.16714298725,-1.44030404091,0.492998987436,1.70820498466,0.64826798439,-1.06173503399,0.283022999763,-0.890048027039,0.973464012146,1.36231398582,0.716638028622,-0.864742994308,0.651579976082,0.379025995731,0.457785010338,-0.919978022575,-1.96633195877,-0.651188015938,2.11110806465,-0.459257006645,1.95377397537,-0.077414996922,2.28661298752,-0.160992994905,1.57755196095,-0.937449991703,0.357515990734,-0.263381004333,-2.81752705574,-1.27786898613,0.818148970604,0.116571001709,-0.853854000568,0.215187996626,1.1939599514,-2.05845499039,-0.131547003984,-1.27573895454,0.94956600666,2.01088094711,1.1170899868,-0.117209002376,0.413516014814,1.92147099972,-1.03121900558,-0.139592006803,0.130253002048,-0.457082986832,-0.571180999279,-0.032568000257,-1.74538397789,-0.432635992765,-0.617622971535,0.453853011131,0.336133003235,-2.088367939,-1.99342000484,0.16336299479,-0.879202008247,0.528392970562,-0.16668599844,1.37720000744,0.688745975494,1.89116001129,-1.04444205761,1.65668296814,0.679554998875,-0.171024993062,-0.242670997977,-1.75388205051,-0.259638994932,1.66815197468,-1.06834697723,-0.428838014603,0.554489016533,0.579410016537,-0.419340014458,0.539022982121,0.0740720033646,-0.324137985706,-1.2100379467,0.47668799758,0.241990998387,0.304811000824,0.437472999096,-1.42516100407,-0.635878026485,-2.24294710159,-0.0690430030227,-0.341794013977,0.621146023273,0.0787419974804,0.0454679988325,0.203806996346,0.18381999433,2.08601403236,1.29545497894,0.94215798378,1.25132596493,-1.61673402786,0.887181997299,-0.209858000278,0.719891011715,-0.7886480093,1.27476000786,0.269156992435,2.59561800957,-1.45655202866,1.56614398956,0.261236011982,0.957082986832,-0.0876329988241,-0.469603985548,1.19027805328,1.21686804295,0.426142007113,-0.574069976807,0.522637009621,0.228817000985,0.338681012392,0.966062009335,0.567921996117,1.67957699299,0.315887004137,-1.38128602505,-0.774181008339,-1.74057495594,-0.404605001211,-0.591772973537,-1.25480294228,1.73884999752,0.0194979999214,-2.31957006454,2.80261898041,-0.356682002544,-0.3399310112,2.15252399445,0.880214989185,1.23684799671,-0.5889570117,-0.853524982929,0.238331004977,0.549564003944,-0.812781989574,1.8155939579,0.147184997797,-0.187508001924,1.16436505318,-0.627117991447,0.765137016773,1.81827902794,-2.57417201996,-1.76793205738,-0.782378971577,0.934351027012,-2.45723104477,1.84459102154,-1.51082897186,-0.533470988274,-0.616186022758,0.649616003036,0.872042000294,0.581510007381,0.00525399995968,-0.340312987566,-0.82911002636,0.406343996525,0.682546973228,0.737164020538,-0.454290002584,0.151159003377,-0.824531018734,0.539918005466,1.35911405087,0.035829000175,2.12732410431,2.33543896675,-0.760138988495,-0.892121016979,1.09907603264,-0.220734998584,-0.605112016201,-0.830810010433,2.76624488831,-0.308095008135,0.213241994381,0.622738003731,0.689338982105,-1.03090298176,-2.43752002716,0.71519702673,-0.691627979279,-0.424852013588,0.152375996113,0.591849029064,0.741383016109,-0.477589011192,-1.01732599735,-0.357082992792,1.42720103264,0.435579001904,-0.319734990597,1.52313899994,-1.04676997662,0.250970989466,0.0107659995556,1.11765599251,0.848672986031,0.00948300026357,0.225035995245,-0.816287994385,-0.591587007046,0.307193011045,0.199549004436,0.279168993235,0.63200199604,-0.805683016777,-0.293536990881,2.93609690666,-0.267538011074,-0.479487985373,-1.41001498699,-1.31999003887,1.32319998741,-0.460963994265,-1.52083599567,-0.544539988041,0.459904998541,-0.278445005417,0.400678992271,0.0754339993,-1.03087699413,-0.253105014563,2.60834288597,-0.648841977119,-0.907046973705,3.98626899719,0.919694006443,0.546720027924,-0.482414990664,1.33546996117,-0.0934719964862,1.63171195984,-0.338990986347,0.307541996241,0.000560000014957,-0.0146169997752,0.229662001133,1.16963601112,0.773615002632,0.861952006817,-2.04138493538,-0.242287993431,-0.275954008102,-1.24749600887,0.330621004105,2.36690402031,0.537802994251,1.29306304455,-0.447856992483,1.38718700409,-0.414548009634,-0.632602989674,1.09823405743,-0.270291000605,-0.707377016544,-0.26747199893,-2.68095397949,1.51046395302,-0.0274010002613,-1.00978302956,1.37885797024,-0.550584971905,0.93634802103,-0.538478016853,0.324032992125,0.717163980007,-0.383358001709,2.02739596367,-1.91813004017,-1.21254301071,0.833456993103,-1.90544104576,1.39155602455,-0.789120972157,-1.00077295303,0.980355978012,0.680438995361,0.633342027664,-0.948982000351,-1.88407695293,-0.65353500843,-0.626659989357,-0.0659559965134,-1.64213001728,-0.68664598465,0.203976005316,2.72047400475,-1.98110997677,-2.19187808037,-0.73559397459,-0.683946013451,0.578749001026,-1.21091997623,0.620221972466,0.56184899807,0.425615012646,1.08373594284,1.00008094311,-0.61016702652,-2.28335905075,0.156979992986,-1.03013396263,1.12180495262,0.461122006178,1.6796900034,-1.00400400162,-1.44149696827,1.90530204773,1.90332901478,-1.45373296738,0.552797019482,0.678828001022,-0.818906009197
泡沫,-0.573737025261,0.703240990639,-0.00350100011565,0.550153970718,1.15261697769,-1.43991005421,0.660731971264,-0.505154013634,0.548178970814,0.805748999119,0.076810002327,-0.850229978561,0.163027003407,-0.253125995398,0.15033300221,-1.05378103256,0.382072001696,0.572059988976,-1.5571089983,-1.21729505062,-0.563098013401,0.423638999462,0.147469997406,0.287826001644,1.49052000046,1.22228300571,0.842765986919,-0.00479000015184,0.570336997509,2.30992102623,0.430025011301,-1.48005604744,-1.47152900696,-0.882959008217,0.945285975933,0.609445989132,-0.329672992229,0.472371995449,0.23339599371,0.435404986143,0.170196995139,0.737451016903,-1.00673604012,-0.014693999663,0.0826269984245,1.13521194458,-0.876231014729,-1.18054294586,0.986824989319,0.723187983036,-0.791224002838,-0.512268006802,1.01429402828,-1.22217905521,0.0639680027962,-0.0691210031509,-0.189184993505,0.0365590006113,1.50091195107,1.06437695026,0.85658800602,-0.697381019592,-0.012698000297,-0.347090989351,0.160744994879,-1.03381597996,-1.76192498207,-0.588198006153,0.462862014771,-0.795349001884,-0.725610971451,1.00316798687,0.315820008516,1.59681105614,-0.512279987335,0.0796229988337,1.09612500668,0.46713000536,-0.167891994119,-1.6445029974,-0.80919700861,-1.24018096924,0.917486011982,1.30573904514,0.755035996437,-0.254482001066,0.316069990396,0.613569021225,-0.0192779991776,-1.80539703369,0.0802510008216,1.90995299816,0.524645984173,0.373014986515,0.641197025776,-0.337190002203,0.169134005904,0.31591001153,-0.674250006676,0.0672480016947,0.947449028492,-0.426638990641,0.149746000767,1.80774199963,0.701120972633,-0.272060990334,0.547541975975,0.132350996137,1.4906270504,-0.383473008871,1.77900695801,-0.320234000683,1.29068398476,-0.0571240000427,-0.353385001421,-0.119046002626,-0.322147011757,-0.0792979970574,-0.158764004707,-0.411451011896,-0.477252006531,-0.255515992641,1.72672200203,-0.402772992849,0.511349022388,0.823113977909,-0.895334005356,-0.22647100687,0.170196995139,0.253895014524,0.296954989433,-0.432195991278,-0.422585994005,-1.72754704952,-1.24352097511,-0.640293002129,0.300754010677,0.155697003007,-0.204652994871,-0.146267995238,-0.473224014044,-0.0651779994369,0.292243003845,-1.4152289629,0.143873006105,0.419853001833,-0.767338991165,1.46779894829,-0.255553007126,-0.173601001501,-0.442285001278,0.124987997115,0.760847985744,0.93509298563,0.0421870015562,0.721680998802,0.628392994404,-1.09474301338,0.14158000052,0.168789997697,0.852512001991,0.964625000954,-0.795975983143,-1.09687900543,-0.169138997793,0.370052993298,1.49630498886,0.915148973465,-2.25161790848,0.133543998003,1.37733900547,-0.980580985546,2.0176460743,-0.761161029339,0.917778015137,-0.786777973175,0.453235000372,-0.00706700002775,0.0363240018487,0.14393299818,-0.375427991152,0.850207984447,-0.435384005308,-0.459493011236,-0.393319010735,0.829370975494,-1.48366904259,0.697327971458,-0.641237974167,-0.586880981922,0.148267999291,-0.740543007851,-0.0862699970603,1.35436701775,0.809548020363,-0.783138990402,0.282380014658,1.0892239809,-0.553503990173,1.55171096325,0.646493971348,0.520482003689,-1.2189899683,-0.904950976372,-0.361548990011,0.787917971611,-0.199949994683,-1.34327995777,0.0248279999942,0.0549059994519,1.16501796246,-1.01593601704,0.289728999138,-1.73415505886,0.427334010601,1.08937001228,-0.71380597353,-1.59039497375,-0.552525997162,0.0145640000701,-0.585927009583,-2.03120493889,1.15946102142,-0.420156002045,1.38463401794,-1.38473200798,-1.1600600481,0.248741000891,-0.670651972294,-0.7445499897,0.431306988001,0.588199019432,1.27843296528,-1.14244699478,0.339004993439,0.753289997578,-0.692878007889,-0.00157700001728,2.44655609131,1.09405195713,-0.293841004372,-0.190041005611,-1.46812796593,1.87272703648,0.452385991812,0.0869449973106,-1.08230602741,0.736831009388,0.664384007454,0.50609600544,0.386788994074,1.33321094513,-0.626115977764,-0.811246991158,-0.00826499983668,0.124872997403,0.126270994544,0.619803011417,0.734999001026,0.591108977795,-0.498926997185,-0.77464401722,0.116516001523,-0.417026996613,-0.826465010643,0.0690250024199,1.21552395821,0.0067159999162,-0.574492990971,0.258814007044,-0.095404997468,-0.602728009224,-0.661804974079,-0.807533025742,-0.176024004817,-0.283625006676,-0.93613499403,-1.49978899956,0.881456017494,0.0913320034742,0.744997024536,0.723132014275,0.284108012915,1.10713899136,-0.26886099577,-0.0783739984035,1.19726598263,-1.40239799023,-0.79895401001,-0.0252260006964,-0.695030987263,0.273236006498,-0.68057602644,0.902867972851,0.751368999481,1.20847404003,-0.990314006805,-0.0947519987822,-0.306003987789,0.119567997754,1.2775759697,-0.0794819965959,-1.3928630352,0.77241897583,-0.808219015598,0.168566003442,-0.425130009651,0.0272129997611,0.460350990295,-0.505635023117,-1.28870105743,0.438142985106,0.220422998071,0.395244985819,-1.22470498085,-0.875551998615,0.0458099991083,-1.30494594574,0.558341026306,-0.0990609973669,1.27641296387,-0.0779199972749,-0.88304400444,-0.0117600001395,0.729447007179,0.238714993,-0.387901008129,-0.327762007713,-0.862981021404,0.814392983913,-0.79778701067,-0.136828005314,-1.17412602901,-0.649791002274,0.291476994753,-1.13521099091,0.148127004504,1.21379101276,0.642763972282,-0.497936010361,-0.137340992689,-1.14624094963,0.760137975216,-0.667267978191,1.11522603035,-0.494230985641,0.52600300312,-0.00279500009492,1.27882897854,0.155196994543,0.194712996483,-0.451029002666,0.441408991814,1.84476101398,-0.346305012703,0.0939140021801,0.718702971935,0.0430269986391,-0.967337012291,0.86723202467,-0.836323976517,-1.9594810009,-0.0566859990358,1.02385103703,-0.813439011574,0.0243180003017,-0.227032005787,-0.157547995448,-0.900050997734,0.279659986496,0.0141730001196,-0.98749101162,1.00228202343,0.112778998911,0.00362699991092,-0.30050098896,-0.828176021576,-0.834785997868,-0.64308899641,0.148798003793,-0.150677993894,-0.261586010456,0.715542972088,-0.678924977779,-1.11694598198,-0.568813979626,-0.46724998951,-0.268916994333,-0.718434989452,-0.70027500391,-0.227682992816,-0.952310025692,-0.617461025715,0.0377259999514,0.190861001611,0.260601013899,-0.822529017925,0.585151970387,-0.0303719993681,-0.872327983379
安排,0.0544570013881,-0.422419011593,0.821500003338,0.930211007595,0.11100500077,0.669606983662,1.75834798813,-0.567247986794,0.649205982685,-0.0137750003487,-0.219499006867,-0.892431974411,-0.800668001175,-1.46026003361,-0.438493013382,0.325854986906,-0.0709419995546,-0.0882679969072,-0.291269004345,-0.231074005365,-0.0170109998435,-1.00119400024,-0.622888982296,0.144783005118,0.684532999992,0.417351990938,0.849592983723,1.62356805801,0.587108016014,0.174458995461,0.392008990049,0.439933001995,1.07172501087,0.604434013367,-0.0686459988356,-2.10962104797,-0.025399999693,-1.3046079874,-1.47514796257,0.569631993771,0.275579988956,0.876295983791,0.758939027786,0.718156993389,-0.751605987549,0.0679069980979,1.97087395191,-0.82455098629,-0.103332996368,-0.117706000805,-0.988761007786,-1.21671700478,0.00965700019151,1.36634099483,0.195592999458,-1.55254995823,0.532164990902,0.39778599143,-0.463259011507,1.24158203602,-1.38242304325,1.07857501507,-1.66402804852,-0.92957597971,-1.01714301109,-0.87053501606,0.667854011059,0.361097991467,0.83699297905,-0.432727009058,2.06913805008,0.942404985428,1.08898496628,0.985849022865,1.42849195004,1.41038894653,0.908065974712,-1.30300700665,0.950681984425,1.40194702148,1.21029603481,-1.6436239481,0.0894920006394,-0.682712972164,-0.102652996778,-0.492653012276,-0.0558609999716,-0.570822000504,1.50975894928,-0.712423026562,-0.37247800827,1.85077404976,0.430673986673,-0.568656980991,-0.0736790001392,-0.789140999317,0.0500620007515,0.575510978699,-0.247009992599,-0.161423996091,-0.771722018719,-2.20955109596,2.11188292503,-0.617161989212,-4.49572515488,-1.26521897316,-1.17938399315,-1.42491197586,-1.03785002232,1.88783502579,-0.218547001481,-0.353771001101,-2.40258193016,0.626625001431,0.456423014402,-1.80492198467,0.786203980446,-0.495326012373,1.66829299927,0.996302008629,0.765402019024,-1.51487195492,0.461852997541,-1.13059794903,0.496208995581,-0.52367401123,-1.33815205097,-0.160857006907,-0.312678009272,0.30014398694,1.08066999912,-0.165097996593,1.28923201561,0.774589002132,0.829616010189,-0.684648990631,-0.103629998863,1.83559703827,1.05191099644,0.831963002682,0.648402988911,0.149645000696,-1.1167550087,-0.669592022896,0.581160008907,-0.694230973721,0.740266025066,0.173430994153,0.0201910007745,-2.25745892525,-0.252348005772,-0.159559994936,0.875476002693,-0.24180200696,0.470600008965,1.3843460083,-0.106257997453,1.39281094074,0.0633670017123,1.70753002167,0.704342007637,-0.74371701479,-0.366373986006,-0.799149990082,-0.533544003963,1.82674598694,-0.33198300004,-1.43883502483,0.545478999615,1.62980604172,-1.02664494514,0.098706997931,1.14519000053,-0.499796003103,0.303882986307,-0.522103011608,1.09892094135,0.635146975517,-0.954337000847,-0.698701024055,0.564728975296,-0.336681991816,0.786279022694,0.417950004339,-0.220134004951,0.609378993511,0.435620993376,-0.126720994711,-0.397756010294,-1.34804904461,-0.442068010569,-0.197760000825,1.66278600693,0.112256996334,0.536387979984,1.65692698956,-1.33439803123,0.985894024372,1.84237003326,0.24155600369,-0.20610499382,-1.07185399532,0.530988991261,-0.395895004272,0.696363985538,-1.65950298309,-0.900110006332,0.421523988247,-0.248460993171,-0.161474004388,0.0194169990718,-0.918588995934,-1.23695600033,-0.642678022385,1.6476919651,0.20328399539,0.427395999432,-0.888996005058,0.253493994474,0.405151993036,1.01386296749,0.586515009403,1.62663602829,-1.12757599354,0.245956003666,0.0950919985771,-1.4658370018,0.456409007311,0.887226998806,-0.662051022053,0.696336984634,-0.0651419982314,0.979268014431,0.634060025215,0.712945997715,0.941542983055,0.172002002597,0.406134992838,-0.347784012556,-1.44142198563,1.35180902481,1.47018301487,1.23100805283,-0.262986004353,-0.0300060007721,1.57060205936,-0.555324018002,-1.75379097462,0.480159014463,-1.49988305569,-1.44744300842,0.437463998795,0.160945996642,0.854696989059,-0.411698013544,1.51311802864,-0.0693539977074,0.46272200346,0.611796975136,-0.198383003473,0.348529994488,0.478430002928,0.178731992841,-0.902311980724,-0.213494002819,-2.25325202942,-0.379655987024,0.102548003197,0.805795013905,0.108629003167,-0.231245994568,1.36509895325,0.529214024544,0.707257986069,-0.132450997829,-0.727335989475,0.45262798667,0.372132986784,0.182897001505,-0.686586976051,-0.314933985472,1.79587996006,-1.34279298782,-0.441514998674,-0.744324982166,-0.306167006493,-0.52986997366,1.14432799816,0.363554000854,0.667915999889,0.791490018368,1.39127898216,1.17177295685,-1.24666595459,-1.15157997608,0.780032992363,1.22312998772,1.18930900097,-1.366574049,0.516034007072,-1.31463503838,0.125045001507,0.472997993231,1.18025994301,1.65551102161,1.41553997993,-0.79901599884,-1.47319400311,-1.28279900551,0.883426010609,-0.877767026424,-0.283235013485,1.02042102814,1.035145998,0.484064996243,-0.184639006853,-0.31804600358,1.82060098648,-1.14515197277,-1.24255001545,-0.660202026367,-0.336412012577,0.0708979964256,1.69368696213,-1.66028702259,0.223166003823,1.27166295052,0.568619012833,-0.504276990891,1.25418198109,-0.956736981869,0.277473986149,0.466385990381,0.900838017464,-0.249795004725,0.763401985168,0.985123991966,-0.291689008474,0.0261799991131,0.548146009445,0.526995003223,0.519684970379,-0.72846198082,-0.862604022026,-0.804490983486,1.82414996624,0.527742981911,0.420785009861,0.455381989479,-1.42341601849,0.490563005209,-0.330835998058,-0.0618540011346,-1.24195504189,2.0260488987,-0.214597001672,-0.129032999277,1.03281402588,0.310636013746,1.48708295822,0.158752992749,-2.26622891426,-0.125023007393,-1.69503796101,0.338636010885,1.24830305576,0.395590007305,-0.651786029339,0.627604007721,-0.739692986012,-0.392964988947,0.403658986092,-2.33517599106,-0.145296007395,-0.318742007017,1.84724605083,1.36040997505,0.252317994833,-2.03164410591,-0.514742970467,-0.528868019581,1.02383303642,1.25616002083,-0.229098007083,0.996792972088,-0.91761302948,0.546438992023,1.2185510397,-2.46078801155,2.04374194145,1.29713797569,2.95769190788,-0.389963001013,0.0152500001714,0.372341006994,-1.05643105507,-2.19332504272,2.91252207756,0.622626006603,0.714582026005
