word,0,1,2,3,4,5,6,7,8,9,10,11,12,13,14,15,16,17,18,19,20,21,22,23,24,25,26,27,28,29,30,31,32,33,34,35,36,37,38,39,40,41,42,43,44,45,46,47,48,49,50,51,52,53,54,55,56,57,58,59,60,61,62,63,64,65,66,67,68,69,70,71,72,73,74,75,76,77,78,79,80,81,82,83,84,85,86,87,88,89,90,91,92,93,94,95,96,97,98,99,100,101,102,103,104,105,106,107,108,109,110,111,112,113,114,115,116,117,118,119,120,121,122,123,124,125,126,127,128,129,130,131,132,133,134,135,136,137,138,139,140,141,142,143,144,145,146,147,148,149,150,151,152,153,154,155,156,157,158,159,160,161,162,163,164,165,166,167,168,169,170,171,172,173,174,175,176,177,178,179,180,181,182,183,184,185,186,187,188,189,190,191,192,193,194,195,196,197,198,199,200,201,202,203,204,205,206,207,208,209,210,211,212,213,214,215,216,217,218,219,220,221,222,223,224,225,226,227,228,229,230,231,232,233,234,235,236,237,238,239,240,241,242,243,244,245,246,247,248,249,250,251,252,253,254,255,256,257,258,259,260,261,262,263,264,265,266,267,268,269,270,271,272,273,274,275,276,277,278,279,280,281,282,283,284,285,286,287,288,289,290,291,292,293,294,295,296,297,298,299,300,301,302,303,304,305,306,307,308,309,310,311,312,313,314,315,316,317,318,319,320,321,322,323,324,325,326,327,328,329,330,331,332,333,334,335,336,337,338,339,340,341,342,343,344,345,346,347,348,349,350,351,352,353,354,355,356,357,358,359,360,361,362,363,364,365,366,367,368,369,370,371,372,373,374,375,376,377,378,379,380,381,382,383,384,385,386,387,388,389,390,391,392,393,394,395,396,397,398,399
定位,-0.801294982433,0.744018018246,1.07123696804,0.260565012693,0.466082006693,0.80179297924,0.521821022034,-1.33222103119,-0.109015002847,1.60205698013,-0.178579002619,0.585169970989,-0.897134006023,-0.772570014,-0.280616998672,0.409541010857,-0.395125985146,-1.18470299244,-0.435451000929,0.0855799987912,-0.963259994984,0.0421920008957,0.0838370025158,-0.286550998688,1.03256297112,-0.344686001539,1.02628195286,0.131796002388,-1.08603596687,-1.02582800388,0.774380028248,0.207937002182,0.481979995966,-0.360760003328,1.73155605793,-0.636506974697,1.27005505562,-1.7923220396,1.31417798996,0.244145005941,0.989187002182,0.300612986088,0.349236994982,0.0178559999913,-0.756545007229,1.42348003387,0.425990998745,-0.463230997324,-0.711542010307,0.53306299448,-0.293395012617,0.0931729972363,0.328592985868,0.621674001217,-1.4071559906,0.0588739998639,1.21090698242,0.271198004484,-0.41368201375,0.248987004161,-2.2546980381,-1.13993704319,-1.93189394474,0.319225996733,-0.452944993973,-0.129219993949,-0.135996997356,0.978365004063,-0.132189005613,-0.130808994174,-1.58861994743,0.227301001549,0.662751972675,2.01096606255,-0.232467994094,-0.240659996867,0.85663998127,-0.367861002684,0.588939011097,-1.8173199892,0.244576007128,0.492475986481,0.224960997701,-0.550018012524,0.458840996027,1.38083803654,-1.83685696125,-0.662545979023,2.45313692093,0.189019992948,-0.116897001863,-0.123971998692,0.133156999946,-0.94905102253,-0.668591976166,-0.212850004435,0.175899997354,0.469231009483,-0.609731972218,-0.505271971226,1.1866300106,-0.156803995371,1.22134995461,0.784180998802,0.097347997129,-1.4053889513,0.339850008488,-1.51361596584,-0.0855259969831,-1.88300096989,-0.697160005569,-1.39101600647,-0.551853001118,1.07458603382,-0.256292998791,-1.66132998466,1.3887219429,-0.836822986603,0.352340996265,0.809069991112,1.05933594704,-0.760897994041,0.534848988056,-0.44472399354,-2.06325411797,-0.206668004394,-2.23103404045,-0.211123004556,-0.320731014013,0.331488013268,0.0324399992824,-0.781683981419,-0.00136200000998,0.258309006691,-0.56425601244,0.923413991928,0.175125002861,0.518402993679,0.430853992701,0.531435012817,0.0984100028872,1.03540802002,-1.22816598415,0.0774130001664,0.298054009676,-1.08748805523,-1.00061702728,-0.333287000656,0.648145020008,-0.0776410028338,2.2081580162,0.148522004485,1.5172380209,0.750140011311,0.285497009754,0.665935993195,0.0885529965162,-1.31929802895,-1.25079500675,0.130264997482,0.454288005829,-1.15293002129,0.154678002,-1.96634197235,-0.665261983871,0.669247984886,-0.535866975784,-0.799547016621,1.53312301636,0.448666989803,-0.996805012226,-0.085906997323,-0.320558011532,-0.226921007037,-1.06918299198,0.297104001045,1.6745159626,0.746050000191,-1.5052690506,1.5079959631,-0.822335004807,0.520487010479,1.96055495739,0.242550000548,-0.770395994186,0.269309997559,1.57892298698,-0.273788005114,0.492635011673,0.776863992214,0.220635995269,0.194230005145,-0.291749000549,0.613972008228,-1.55255401134,0.808719992638,0.621196985245,-0.780493974686,1.54285097122,-0.531727015972,1.29491102695,-1.73757004738,-0.863025009632,-0.299052000046,1.07337701321,1.15090799332,-0.564906001091,1.23925805092,0.344974011183,1.45030605793,0.2149399966,-0.528124988079,1.08297204971,-0.460132986307,0.467602014542,0.399798989296,0.458074986935,-0.0842830017209,-0.615758001804,-1.01314496994,0.543662011623,-0.261088997126,0.864965975285,-0.193121999502,-0.38439899683,-1.53007304668,-0.0493969991803,-0.658797979355,-0.694926977158,-1.51277196407,0.398472011089,-0.562668979168,-0.134510993958,-2.51840209961,1.5551879406,-0.737713992596,-0.938674986362,-0.0516830012202,0.17088599503,-0.135625004768,0.628014981747,0.48519000411,-0.868260979652,0.0730350017548,0.0587899982929,0.150350004435,1.43475699425,-1.37310004234,0.541374027729,-0.957418978214,-0.111878998578,-0.687044024467,-1.04743695259,-1.6583340168,0.404275000095,0.884311974049,0.31126499176,-0.832265973091,1.23498296738,1.45580601692,-1.26728105545,0.364232987165,-0.269351005554,1.09723496437,-0.462208002806,-0.409087985754,-0.347609013319,0.117926999927,-0.138816997409,-1.19698095322,-0.553170025349,-0.438910990953,-0.878331005573,1.02080595493,0.326498001814,0.294782996178,-0.281401991844,0.0560970008373,1.31238400936,0.442564994097,0.448911994696,0.459450006485,1.19211697578,0.00937100034207,-0.150451004505,-0.159482002258,0.0533149987459,-1.07407104969,-0.999513983727,0.488110989332,-1.29143500328,2.22941088676,0.590138971806,-0.511777997017,-0.285506993532,-0.0561939999461,1.21750700474,1.11417102814,0.124380998313,-0.1211130023,-0.683550000191,0.223646998405,-0.296368986368,1.85222697258,1.35925996304,1.37355601788,-0.57942199707,0.0022839999292,-1.06898105145,0.465799987316,-0.503476977348,0.401105999947,0.442795991898,-0.625463008881,-1.80713498592,0.431416988373,0.360036998987,0.740956008434,0.248921006918,-1.3505769968,0.935862004757,-0.011595999822,-0.256007999182,0.756080985069,-0.332278996706,-0.68612998724,-0.108705997467,-1.33909595013,-0.122832000256,0.895134985447,-0.206303998828,-0.0503490008414,-0.92693901062,0.45246899128,1.07195496559,-0.260838001966,0.503454983234,1.01937997341,-1.08182096481,-1.16376495361,1.00327396393,1.08437001705,0.079861998558,-0.111519001424,1.77178096771,0.773540019989,-1.19584202766,0.242642000318,0.942475020885,0.106420002878,0.920850992203,-1.44969904423,0.470129996538,-0.132219001651,0.0882259979844,-0.296187013388,0.353026002645,0.196557000279,-1.91487598419,0.353170990944,0.0570859983563,-1.45054399967,-0.319124996662,0.840986013412,0.910224974155,-0.246856004,0.139799997211,0.0408379994333,0.465784013271,-0.0239889994264,0.0333099998534,0.201489001513,1.34837305546,0.95369797945,-0.786346018314,-1.08268594742,-0.936515986919,-0.132578998804,-1.41707098484,0.137252002954,0.070147998631,0.461890995502,0.182989999652,1.38985896111,1.48693501949,-1.30762398243,-0.869477987289,-0.958912014961,-1.06926703453,-0.0219379998744,-0.686280012131,1.48931097984,-0.442005991936,-0.184091001749,0.0289639998227,-0.288780003786,0.787675976753,0.876846015453,1.15730404854,-0.838340997696
车厢,0.497054994106,-0.0493390001357,1.89781999588,0.725787997246,0.0208679996431,-1.45114398003,1.50107896328,0.238100007176,1.20113694668,0.703370988369,0.530933022499,-0.994075000286,-1.5044260025,-0.841940999031,0.569616019726,-0.632071971893,1.46336603165,-0.751125991344,0.998829007149,-1.33772802353,-1.90622103214,0.108905002475,0.285730987787,-2.47308301926,1.48381698132,0.909784972668,-0.845391988754,1.16535794735,1.15605795383,0.745594978333,0.559424996376,-1.03314995766,1.24597203732,0.622543990612,0.715451002121,0.553544998169,0.44579398632,0.221220999956,-0.83404302597,1.06799900532,-0.0622080005705,-1.39842295647,-1.23416304588,1.92334699631,-0.759001016617,0.102525003254,-0.324820995331,0.0683239996433,1.17029595375,1.27701997757,-1.10092198849,-1.56870102882,-0.283318012953,-1.29164600372,-3.18194699287,1.34452795982,1.48896002769,-0.300085991621,-1.89077699184,1.50826001167,-0.678278982639,-0.950228989124,-0.117000997066,-0.632768988609,-0.831345975399,1.93349599838,-1.12960898876,0.294281005859,1.30268704891,-0.926739990711,-0.10856000334,0.493519991636,0.469509989023,1.51759397984,0.472788989544,1.74189996719,0.0971259996295,0.385702997446,-1.08763194084,3.87095093727,1.56181001663,-5.00658416748,-0.314213991165,0.891728997231,0.989897012711,-2.25172901154,-0.249207004905,-0.372869998217,1.98813903332,-0.276098012924,0.378536999226,1.24510502815,-0.2360920012,0.419351011515,-0.968309998512,2.11527109146,-0.694216012955,1.25748300552,0.135603994131,0.47655698657,0.506071984768,1.0792349577,1.05966901779,2.05923604965,-3.23017406464,-0.148524001241,1.24955296516,-0.718026995659,0.249482005835,1.78258395195,-1.0272090435,-2.59781289101,-1.94203901291,0.143316999078,-0.0833069980145,3.08056998253,0.371381014585,-1.32451498508,-1.28132796288,3.60670495033,0.210491999984,-0.0303680002689,-1.34548401833,-0.833719015121,1.46662402153,0.22063100338,-1.7452930212,-0.301431000233,1.50357604027,-1.45179200172,-0.397359013557,-2.3904030323,-0.561728000641,1.05318903923,-1.36279797554,-0.418942987919,0.262147992849,-0.80821698904,0.0700450018048,-1.67886996269,3.22734904289,-0.85223698616,1.97272205353,0.216933995485,0.104443997145,-0.649671971798,-1.03741705418,0.369329988956,0.180063992739,-1.06874299049,0.483693003654,-0.343901008368,-1.48032903671,-1.26020598412,0.510115981102,0.244257003069,-1.8083729744,1.40200197697,0.228044003248,1.02425098419,1.6113140583,-0.580173015594,0.266258001328,-0.262439996004,-0.663163006306,0.85261297226,-0.938431978226,-0.951694011688,-0.247435003519,-2.61426591873,-0.114644996822,-1.87729799747,1.78173005581,0.362075001001,1.85792899132,1.60895502567,0.110945001245,0.76906400919,1.23349702358,0.922793984413,0.140297994018,0.372446000576,-2.55576896667,-0.205384001136,-0.392827987671,0.0947619974613,-0.00921100005507,0.599505007267,-1.08164095879,0.236219003797,-0.403771996498,0.38858500123,0.118809998035,0.438782989979,-0.757377028465,-0.1415989995,2.62039709091,-0.44066798687,1.18385696411,-0.908124983311,1.60257101059,-2.13830208778,0.725494027138,-0.10089699924,2.07040095329,0.65008097887,0.0069769998081,0.0335079990327,-0.892605006695,1.0169659853,0.494176000357,1.76990103722,1.19129800797,-1.75623703003,-0.352977991104,1.30989205837,-1.10741794109,-0.307359009981,1.50113105774,-0.599550008774,0.704387009144,-1.85745704174,2.35621595383,0.936372995377,1.66771495342,3.02789497375,0.382595986128,1.97428202629,0.697326004505,-1.21296095848,-0.509733021259,0.595102012157,-0.22459000349,-0.549610972404,1.27179300785,0.694821000099,-0.42342799902,0.734642982483,0.157341003418,0.504311978817,-0.767147004604,0.187878996134,0.798403024673,1.60567498207,-0.924166023731,-0.182623997331,-0.0938329994678,-0.933153986931,-0.531502008438,-0.539161980152,-1.65481901169,1.71167004108,0.15076200664,0.0761170014739,0.462891995907,0.235185995698,1.03625404835,0.122674003243,1.49051094055,0.399367004633,-0.579322993755,0.831278979778,0.08529599756,-0.114178001881,-0.843729019165,-2.84557700157,0.103702999651,0.261577993631,-1.7515360117,-0.725754022598,0.491697013378,-1.81016099453,-1.04257905483,-0.144107997417,-0.713365972042,0.249815002084,-0.563426971436,1.51717698574,1.04602301121,1.25942397118,0.271373987198,0.369711011648,2.28265190125,-1.41600394249,0.808529019356,-1.04865205288,-1.21567201614,0.990132987499,0.372253000736,0.994293987751,0.674558997154,0.608375012875,0.193130001426,-0.727122008801,1.10016798973,-1.72721898556,2.76930809021,0.555917024612,-0.297033011913,1.1112639904,0.199577003717,0.112135000527,-1.42568695545,-0.59070199728,0.827817976475,2.59832310677,-0.618498980999,-1.94678997993,-0.862919986248,0.813543975353,-1.82447695732,-0.774753987789,0.551524996758,-1.76567494869,-1.6712230444,-0.303496986628,0.761874973774,-0.904240012169,-1.17370605469,0.994273006916,1.49848997593,1.28597700596,0.872825980186,2.16119289398,1.3688069582,0.739138007164,0.479342997074,1.07895505428,-0.0435139983892,-2.00531101227,4.46966981888,-0.519616007805,-1.85217297077,0.247658997774,0.987623989582,0.903192996979,0.200890004635,0.933225989342,-0.708387970924,-1.09928095341,-2.84601998329,-1.06820201874,0.948203027248,-0.442795008421,-0.377665996552,-1.81793296337,-1.04298102856,0.0316319987178,0.517215013504,-0.910399973392,0.168174996972,0.282272994518,-0.873149991035,-0.587342023849,1.19863700867,-1.16067099571,-0.605593979359,2.11725902557,1.50844299793,4.08195495605,-0.604165017605,-0.201280996203,-0.150447994471,1.01766502857,-0.277621001005,-0.205491006374,0.527275025845,-1.55004894733,-0.466715991497,-0.126806005836,0.350461006165,-0.69384598732,0.689819991589,-1.31093895435,-1.52251505852,-0.345526009798,-1.14510703087,0.807254016399,-0.99585300684,2.51824498177,-1.07757604122,1.33682203293,4.8547000885,-0.99728500843,1.92379903793,0.243231996894,-0.444092988968,-0.561412990093,0.506596028805,1.23792099953,-0.366544008255,2.10423588753,-0.452915012836,0.0704990029335,-0.21693199873,-0.668488025665,-1.65012705326,0.636003017426,0.258309006691,-1.48175394535
车身,-0.0646480023861,-0.372938990593,3.61058998108,1.15157103539,0.456458985806,-1.07653796673,1.88624703884,-1.52682197094,1.04910504818,1.65510499477,-0.785997986794,0.051302999258,-1.37938296795,0.667129993439,0.687856018543,-0.521358013153,-0.188118994236,-1.70825397968,0.596574008465,-1.44477295876,-1.27096998692,-0.27994799614,0.531549990177,-0.812478005886,0.707814991474,0.304865986109,-1.6604039669,2.36214590073,0.644068002701,0.664932012558,0.582333028316,-0.967284023762,-0.639424026012,-1.35990202427,0.236027002335,1.59242200851,0.0297940000892,-1.64372599125,-0.399098992348,-0.456548988819,0.571560025215,-0.536774992943,-1.08430802822,-1.39096605778,-0.323240995407,-1.02137494087,-0.542196989059,-2.04568696022,-0.335595011711,-0.187043994665,1.14284694195,-0.159596994519,-0.0227499995381,0.105679996312,-2.03628802299,0.604179978371,-0.0784889981151,-0.964667975903,-1.66944396496,0.300558000803,-0.685554027557,-0.328395009041,-1.86462605,-1.44215095043,-0.89374101162,0.201993003488,0.856685996056,-0.851261019707,0.466724991798,0.281287997961,-0.81963801384,-0.2020059973,0.792905986309,1.0962189436,-1.74591803551,1.22625696659,0.0596110001206,-1.76304101944,-1.32075500488,0.350845992565,0.534895002842,-0.710394978523,1.78738296032,0.395411998034,0.445145994425,-1.01903700829,-0.946590006351,-1.12272500992,-0.155526995659,0.0831689983606,1.01729905605,1.45965003967,-1.59361696243,1.56705796719,1.14874100685,0.871482014656,0.241618007421,0.0369869992137,-0.721332013607,-0.67549598217,-0.147743999958,1.43193805218,0.752934992313,-0.110408999026,-1.85273098946,-0.998663008213,2.36144208908,-0.575605988503,0.385437995195,1.93636000156,-0.289654999971,-2.53110098839,0.0256220009178,-1.27198398113,-0.282712012529,2.1008579731,0.0785119980574,-0.144978001714,-0.358898997307,2.05953502655,-1.76701796055,-1.4935079813,-0.445405989885,-0.353379994631,2.94659090042,0.207132995129,0.133303999901,-1.55584001541,-0.743050992489,-1.36070001125,0.423422008753,-0.924930989742,-0.552451014519,0.962324023247,-0.607084989548,-1.49562096596,-1.77764701843,1.51649701595,1.80982005596,-0.711992025375,0.79610902071,-0.599964976311,1.6324429512,1.98111903667,0.323826998472,-0.791709005833,-2.20973110199,-2.41513991356,-0.584459006786,0.839609026909,0.729506015778,-0.927230000496,-0.331111997366,0.470364004374,-0.17334599793,-0.485839009285,0.59609401226,-1.41969799995,-0.574428975582,0.590456008911,-0.537144005299,-0.85261297226,0.314648002386,-0.544308006763,-1.59509694576,0.528177976608,-1.92705500126,-0.569765985012,-0.23613999784,-0.31992700696,-0.466129004955,-1.67780196667,1.15650904179,0.238738000393,2.22186899185,2.10820102692,0.587239027023,1.98159897327,0.598890006542,0.420482009649,-0.802722990513,-0.0185560006648,-1.84469103813,-0.279523998499,-1.03068494797,1.31877601147,-0.121886000037,0.207989007235,-0.0201750006527,0.147862002254,-0.299324989319,0.877506017685,-2.3391559124,0.85333698988,-2.50393295288,0.647870004177,1.32283103466,0.414128005505,1.29066896439,-1.60617697239,-0.644909024239,-0.11967100203,1.32011401653,-1.27920401096,0.445069998503,-0.890386998653,-0.513077020645,0.995800018311,2.49701499939,-0.25080999732,0.980462014675,1.27320504189,1.11758804321,-0.809089004993,-0.247400000691,0.543506979942,-1.18897402287,-0.458234012127,0.166839003563,-2.27879095078,1.97313702106,0.0175640005618,0.963801026344,0.975857973099,-0.229947000742,0.998740017414,-0.132012993097,0.028323000297,2.07123088837,-1.16025602818,-1.03900301456,1.4666800499,0.72333997488,-1.88380801678,-0.868764996529,-1.34843599796,-0.273602992296,-2.01405596733,0.681457996368,0.22601300478,0.573001980782,1.12030994892,-0.0945769995451,1.55641198158,2.52653503418,-0.590943992138,1.53298294544,0.306068986654,0.170993000269,2.22427296638,-0.467233985662,1.98070895672,1.10414600372,0.245119005442,0.909528970718,0.242091998458,-1.24381303787,0.709881007671,1.72364497185,0.615399003029,1.57485496998,-2.07260394096,-0.43023699522,0.987634003162,-2.27111291885,-4.13097906113,-0.102930001915,0.920755982399,-1.50698196888,-0.805230975151,-0.737702012062,-1.64503002167,-1.54744505882,-0.201273992658,-0.601853013039,0.248557001352,0.124039001763,0.829506993294,0.581884980202,1.68253397942,1.11330401897,-0.228186994791,0.280532002449,-0.150939002633,-2.47659397125,-0.84231698513,1.54984605312,2.11776208878,0.0642570033669,0.741761982441,0.0370340012014,0.261355012655,-1.14183604717,0.460649996996,-0.238644003868,-1.22328305244,1.37159597874,0.0549260005355,-0.0747200027108,-0.334324985743,-1.48406898975,-0.130555003881,-1.04395604134,-0.338185012341,1.68240904808,2.59010004997,-0.0501689985394,-3.4830019474,0.661248981953,1.53025305271,-0.0714019984007,-1.10246896744,1.57404601574,1.19780802727,-1.36332297325,-0.342848002911,-0.13976700604,-1.53868198395,0.547224998474,-1.65019702911,2.38345003128,2.07440304756,1.78868401051,-0.265722990036,-0.389591008425,0.730996012688,-0.0176589991897,0.474002987146,-0.232324004173,0.258947014809,0.991921007633,-0.786125004292,-0.624296009541,-0.625926017761,0.583548009396,-0.51930898428,0.140970006585,1.26327002048,-0.176071003079,1.72031497955,-1.50280594826,-1.82632899284,-0.538800001144,0.389739006758,0.746380984783,-0.449353992939,-0.461266994476,1.93141400814,0.952096998692,-2.07040905952,-1.62919604778,1.63964796066,-1.67876803875,-0.887416005135,0.771055996418,0.742838025093,0.0756049975753,0.0886079967022,0.2615840137,1.83698999882,0.790000975132,0.397487998009,0.364253014326,1.041457057,0.111662998796,-1.79768502712,-0.711211025715,-3.04456400871,-0.456901997328,0.94314801693,-0.311529994011,-1.6370010376,0.924670994282,-1.90871405602,-1.07687604427,-1.01815998554,-1.43507802486,0.355921000242,-0.889376997948,1.35889995098,-2.26610708237,2.11496591568,3.23905491829,-0.627499997616,-0.903221011162,-0.66499298811,0.656625986099,-2.14203810692,1.42790496349,1.1964969635,1.54213202,-2.15330910683,-0.779515028,-0.451534986496,2.8368999958,0.712595999241,-2.07293105125,1.27228605747,2.5524160862,0.865188002586
接到,0.276345998049,-1.10293900967,-0.687757015228,0.824836015701,0.156865999103,0.35218501091,0.325821995735,-1.12840199471,0.19121299684,-0.779626011848,0.371931999922,-0.0472470000386,-0.204741001129,-1.14706504345,-0.830929994583,-0.150609999895,1.00406002998,-0.00562100019306,1.47409403324,0.702726006508,0.218680992723,-1.49080598354,-1.88132297993,-0.674920022488,0.374740004539,0.574373006821,1.02712500095,0.830437004566,1.08360004425,-0.351034998894,-0.803546011448,-1.56790101528,0.950909018517,0.795217990875,-0.746050000191,0.0364359989762,0.668846011162,-0.514801979065,-0.919259011745,0.975069999695,-1.13931703568,1.9227720499,0.744858980179,0.406134992838,0.353184998035,-0.139374002814,-0.512921988964,-0.110134996474,-0.726104021072,-1.45789802074,-0.10884000361,-0.845252990723,0.349752992392,0.375483006239,0.0176539998502,0.0994039997458,-1.34610700607,-1.06199395657,0.443186998367,0.624647974968,0.230018004775,1.94538998604,-0.0960350036621,-0.109950996935,0.0251609999686,0.962262988091,-1.38323998451,-1.33122396469,0.743694007397,-0.718587994576,0.116810001433,0.0483620017767,-0.582054972649,1.71607899666,-0.270016014576,1.91829502583,1.16785800457,0.354750990868,-0.243542000651,-0.81231200695,0.591180026531,1.00710594654,-0.791114985943,-0.651714980602,-0.408782988787,-1.33632004261,-0.697704970837,1.00551104546,-1.29780197144,0.843403995037,0.981570005417,-0.142868995667,-0.11141499877,-1.50495505333,-0.382084012032,-2.06854605675,-1.14909100533,0.463250011206,1.27726101875,-0.757983028889,-0.651199996471,-1.93195903301,-0.212503999472,-0.0178989991546,-2.01015591621,0.62559401989,-0.638898015022,-0.371708989143,-2.32004499435,0.367208987474,-1.40704596043,0.618162989616,-1.58447599411,0.15989099443,-0.552248001099,0.654151976109,1.25039303303,1.27588403225,1.3067510128,0.460408002138,0.12010999769,0.847402989864,-0.707246005535,-0.773908019066,-0.506013989449,-0.515186011791,-0.596508979797,0.652967989445,1.01721596718,-0.988671004772,-0.373391002417,-0.78942501545,0.480031013489,-0.329156011343,-0.841455996037,1.21217095852,-1.34172105789,-0.97620600462,-0.137292996049,0.113411001861,-0.382351011038,1.19129598141,-0.783540010452,-1.92897701263,-0.0872050002217,0.320441007614,-0.780960977077,1.69492304325,-0.0406370013952,-2.59574699402,-0.805864989758,-1.29649305344,-0.560500025749,-0.909914970398,0.503880023956,0.40449899435,-0.807614028454,0.81997102499,-0.621987998486,-1.99801504612,-1.21073102951,0.619983017445,-1.3957669735,1.2202039957,1.32028496265,1.49548304081,0.11783400178,-0.198861002922,1.6098279953,1.08672595024,0.461430996656,-0.673251986504,-1.7316609621,-0.594816982746,0.713832974434,-1.48902797699,1.8046489954,-0.580497980118,-0.339978009462,-0.0248719993979,0.704595983028,-1.42313504219,-0.560793995857,-0.178343996406,0.145575001836,0.185106992722,-0.186927005649,0.153156995773,-0.0138910003006,-1.76930403709,0.0420750007033,0.248917996883,1.8546680212,-1.16796004772,1.1156899929,-0.825501978397,-1.70628905296,0.98566699028,0.314633011818,0.203002005816,-0.160556003451,-0.520196974277,0.458012998104,1.20258200169,-0.0718630030751,0.0567849986255,0.0494339987636,1.5027769804,1.09455299377,0.2385610044,0.0197390001267,1.42706501484,0.528777003288,0.42457601428,-1.2360650301,-0.366641998291,0.834410011768,-0.528150975704,0.797580003738,1.13085794449,-0.288165986538,0.4325709939,-1.28888297081,-2.50397610664,0.140092000365,0.795952022076,-0.464304000139,0.0145969996229,-0.876046001911,-0.176263004541,1.23849797249,-0.692873001099,-0.581317007542,0.0852110013366,-0.829723000526,0.163192003965,1.12697505951,1.43927502632,-0.0224099997431,-1.57283198833,-1.35699605942,0.973178982735,1.38421094418,-0.542276024818,-0.943452000618,0.940739989281,-0.958890020847,1.48972201347,0.0633599981666,-1.28341698647,2.88928794861,0.559547007084,0.652698993683,-1.23694097996,0.444371014833,-0.624763011932,0.76872497797,1.93506395817,-1.8828920126,0.783140003681,-0.685836017132,0.57456600666,1.87090504169,-0.524164974689,-1.29070997238,-0.22814899683,0.807965993881,0.288462996483,0.466156005859,0.47838100791,0.242815002799,0.567930996418,1.05275094509,0.908939003944,-0.491308987141,1.02824795246,0.511340975761,-0.885912001133,0.00547500001267,-0.252707988024,-1.2224060297,1.28689002991,0.470728009939,-0.484558999538,-0.234886005521,-0.277815014124,-1.94392204285,0.0616400018334,0.267722010612,-0.902437984943,0.144421994686,-1.33457100391,-0.429603010416,-0.326032996178,0.538547992706,-1.1207870245,2.00997400284,-0.529649972916,-0.723688006401,-1.29519200325,0.262497991323,-0.092229001224,-1.1565669775,0.434538006783,1.37696003914,-0.342516005039,-0.166621997952,0.961121022701,1.89988899231,0.991024017334,1.01289594173,-0.349678993225,1.65879702568,-0.414250999689,-0.585566997528,0.150990992785,0.318185001612,0.577919006348,-0.277431994677,-1.59015405178,0.427082002163,0.517790973186,-0.792306005955,1.08231198788,-1.91326797009,-1.87176501751,-0.939426004887,-0.722259998322,0.560636997223,-0.366427987814,-0.991424977779,-1.40999603271,0.668434977531,1.65582704544,-0.64017701149,-0.603967010975,0.79584300518,1.3096729517,-0.296979010105,-0.900297999382,0.568018972874,2.0701379776,2.36757493019,0.602131009102,-1.08498799801,-0.418388992548,-1.14822602272,-0.951849997044,0.293078005314,-0.477963000536,-0.788829028606,1.87931895256,-1.02744102478,-1.51056003571,1.88668000698,-0.408495008945,0.596104979515,-0.33181899786,-0.547318994999,0.759337007999,-0.599987983704,-1.18616104126,-0.95904302597,1.2717000246,0.611196994781,-0.607074975967,0.896713018417,0.370833009481,-0.0888409987092,0.35836198926,0.899293005466,-0.169358000159,-0.162220999599,0.467972010374,0.379287987947,1.32111597061,0.644545972347,-1.14264404774,-0.720686018467,0.897831976414,0.221465006471,0.389551997185,0.389084011316,0.336573988199,-1.59847605228,0.837405025959,0.568691015244,2.8435690403,-2.5324048996,0.934610009193,-0.150922000408,-0.648423016071,0.838757991791,1.32233905792,0.25775501132,-0.971454977989,-1.7441829443,1.96132600307,-0.620732009411,0.101822003722
包括,-0.45458099246,0.164757996798,1.79915904999,-1.04949700832,0.733509004116,-0.782820999622,1.55502903461,0.660794019699,1.61958694458,-0.89761698246,0.535622000694,0.35279199481,-1.74530601501,-1.87399399281,0.167853996158,-1.00387001038,0.305721014738,-1.26508498192,0.240015000105,-1.57822299004,-0.263256013393,-0.918152987957,-0.410198003054,1.22108697891,2.20093798637,1.28687500954,0.667607009411,-0.836081981659,1.85371601582,0.544808983803,-1.48100399971,0.917953014374,-1.14600205421,-1.96656596661,0.953311979771,-0.30041500926,1.23065805435,-0.823512017727,-1.736956954,1.10004401207,0.61631000042,0.716252028942,-1.23382103443,-0.80795198679,1.15346395969,0.810011982918,0.159330993891,0.66695100069,-0.564612984657,-0.0291469991207,3.32593607903,-2.36165809631,0.8616309762,1.0287539959,0.046682998538,-1.57661497593,0.884683012962,-0.820316970348,-0.564092993736,1.03681397438,-0.371104985476,-1.69451105595,-0.961143016815,-0.364295989275,1.49793696404,-1.0467890501,0.293545007706,0.994126021862,0.571802973747,0.723227024078,-0.936886012554,0.921674013138,0.371354997158,-0.401280999184,-0.00771200004965,0.689547002316,1.58019697666,-0.714837014675,1.66086494923,-2.98004508018,0.240195006132,-1.89980697632,2.25126791,-0.238046005368,0.502623021603,0.565518021584,-0.0853070020676,-2.21869707108,0.220923006535,-0.717351019382,0.456472992897,-1.07067501545,-0.197669997811,0.110694997013,0.304879009724,-1.58364999294,2.15485191345,-0.491432994604,0.404356002808,0.416426986456,-0.315941005945,0.782885015011,-0.438149005175,1.05202901363,-2.2976269722,-2.66469597816,1.53348898888,-0.544652998447,0.0205060001463,-0.831881999969,-0.916168987751,1.42460298538,-1.14686894417,-0.269428998232,1.37158405781,2.41274309158,0.906876981258,0.312240988016,0.175301000476,-0.637138009071,-0.430447012186,-1.08631694317,0.951385974884,-1.15662896633,-1.15687298775,0.231864005327,-1.34062504768,-0.304652988911,0.488011002541,-0.816477000713,-0.0516530014575,-1.97015798092,-1.44315505028,0.0445979982615,0.862852990627,0.0676129981875,0.319023013115,-0.218733996153,0.254290997982,0.670490980148,1.28575205803,-0.0801850035787,0.164633005857,-0.273562014103,-1.2591329813,-0.292937010527,-0.157086998224,0.922022998333,1.58452701569,-1.22032296658,0.148820996284,0.6534730196,-2.0393679142,0.0603480003774,0.921579003334,0.998567998409,0.783999025822,0.95196801424,0.810815989971,-0.172591999173,0.497561007738,-2.43847894669,0.322001993656,1.52843701839,2.06227993965,0.242552995682,-1.35942101479,0.529434978962,-2.69018101692,1.42549800873,0.215532004833,-1.18721103668,-0.862232029438,1.12271499634,0.995172977448,0.102456003428,1.88078403473,-0.255524009466,0.278115004301,-0.617504000664,-0.024075999856,-0.295720994473,-0.526772975922,-1.73352503777,-1.01357400417,0.700094997883,-1.37312996387,1.12802600861,-0.795297980309,1.30646204948,0.748883008957,-1.38669705391,2.25542211533,0.225940003991,1.16594099998,-0.158812001348,1.01716899872,-0.115846000612,-0.998345971107,1.97673797607,-0.579613983631,-1.39214301109,-1.57517898083,-3.12755990028,-0.845227003098,-1.39766597748,0.214383006096,0.459859013557,-0.591390013695,-0.704195022583,-0.436646997929,0.625757992268,0.0283080004156,-1.20953798294,0.664031028748,0.068915002048,1.27981197834,0.00837600044906,-0.575942993164,-0.602973997593,0.226180002093,0.933906018734,-0.644033014774,0.444972991943,-0.768212974072,1.46541404724,0.508481025696,-0.906832993031,-0.159122005105,-0.415253996849,-0.607084989548,-1.975949049,1.71390104294,-1.27606701851,1.73988699913,0.337525010109,1.00392699242,0.876667976379,-1.65308201313,-0.211097002029,-0.983739972115,-0.0362740010023,0.0229870006442,-0.44423699379,-0.241473004222,-1.62508797646,0.31343999505,-0.423994988203,-0.0189789999276,-0.44366300106,0.757034003735,0.365139991045,-0.0738999992609,-1.11206996441,-1.16192305088,-0.320629000664,-1.2597630024,0.53752797842,-0.465131998062,0.544440984726,0.419093996286,0.463856011629,0.670464992523,-0.460119009018,-0.833801984787,-0.382362991571,2.18521809578,0.26867800951,-1.23650801182,-1.1147480011,0.732991993427,0.592454016209,-0.202702000737,0.813533008099,-0.106539003551,0.177596002817,-1.19238305092,1.75196099281,0.943477988243,-0.535651981831,0.558507978916,1.94003796577,0.85153901577,-0.693044006824,-0.577216982841,0.392235010862,1.05674302578,-0.630775988102,0.74019497633,0.509913980961,1.17580199242,1.82550597191,-1.17437505722,-1.27008104324,0.272271990776,0.219248995185,-1.13816094398,0.168464004993,-0.46457400918,1.19388699532,-1.39800798893,-0.00100199994631,-0.41308298707,0.356914997101,1.07615494728,-0.964807987213,-0.489504992962,0.664205014706,-0.546822011471,2.37935996056,-0.538571000099,-1.02659094334,1.98566901684,-0.77510201931,0.0225370004773,0.946175992489,-1.21878004074,1.57324898243,0.01832799986,0.902724981308,2.083081007,0.291148990393,-0.424068003893,2.19520306587,-0.750169992447,1.03171801567,0.0738869979978,-0.89485001564,-0.118777997792,1.16980195045,-0.124298997223,1.61822104454,-0.156580001116,0.307168006897,2.61532402039,0.467014998198,-0.682807028294,-0.458820998669,-0.330401986837,-1.25936794281,-1.04619801044,-0.290796995163,-0.279507011175,-1.34332501888,-0.627764999866,2.15378308296,2.02582907677,1.25430798531,-1.39620900154,1.12433302402,-1.06657505035,-0.652185976505,0.230636999011,-0.844760000706,0.0122959995642,-0.923538029194,0.647957980633,1.10619699955,-0.589318990707,1.28975200653,-1.05566096306,-0.451656997204,-0.372523993254,-0.500169992447,-0.701224029064,0.200872004032,-1.88276195526,-0.0383489988744,0.818098008633,0.56969499588,-2.27243709564,-1.01694703102,-0.596351981163,0.358373999596,-2.69290590286,-1.62794494629,-2.06400203705,0.929220974445,-0.877553999424,-2.22939395905,-0.593096017838,-0.592799007893,0.57443600893,-1.57796001434,3.57118201256,0.422749996185,-2.8557009697,0.679933011532,-1.67461001873,-0.000548999989405,0.78701198101,2.60092806816,0.774625003338,0.437391012907,0.762611985207,0.243417993188,0.965864002705,-0.330404996872,0.462238013744,-0.50283998251
偏压,-0.143979996443,0.240954995155,0.109747998416,-0.201192006469,0.274654000998,0.183162003756,0.312525004148,-0.338514000177,0.124335996807,0.208216995001,-0.034212000668,-0.600035011768,-0.442750990391,-0.00180700002238,-0.194664001465,-0.0478690005839,0.27202001214,-0.0184330008924,0.394878000021,-0.369010001421,-0.0525790005922,0.0729539990425,-0.171865001321,0.0185509994626,-0.0334130004048,0.238392993808,-0.446761012077,0.297879993916,-0.467950999737,0.0209350008518,-0.49134299159,-0.189956992865,0.247940003872,0.0153700001538,0.120929002762,0.293666005135,0.207267999649,-0.235273003578,0.0625369995832,0.326056003571,0.384656012058,-0.00619600014761,-0.528950989246,-0.356837004423,-0.292005985975,-0.214870005846,-0.234761998057,-0.31097599864,0.0915270000696,-0.0380560010672,-0.151522994041,-0.228222995996,-0.0236140005291,0.238710999489,-0.247047007084,0.0275640003383,-0.241216003895,-0.56562101841,-0.207266002893,0.12355799973,0.0614940002561,0.496592998505,-0.128010004759,-0.182960003614,-0.264921993017,-0.117234997451,-0.550417006016,-0.35463899374,0.576385974884,-0.462157994509,-0.0726139992476,-0.202019006014,0.237084001303,0.662535011768,-0.382723003626,0.184019997716,0.636946976185,-0.0462139993906,0.195601001382,0.245601996779,-0.117751002312,0.246089994907,-0.0167219992727,0.488970011473,0.294842004776,-0.325668007135,0.0772870033979,-0.0833100005984,0.52407002449,-0.243138998747,0.0465949997306,0.483379989862,-0.017186999321,0.0971160009503,0.214419007301,0.105465002358,-0.475872993469,0.341854006052,-0.0603919997811,-0.160030007362,0.170001998544,-0.198529005051,-0.180371999741,0.242473006248,0.265915989876,-0.151594996452,-0.284979999065,0.0681490004063,0.212654992938,-0.245465993881,0.257149994373,-0.628135979176,0.0449969992042,-0.303001999855,-0.192927002907,0.14434799552,0.346619993448,0.206548005342,-0.0567129999399,0.561412990093,-0.0569639988244,-0.270269989967,-0.0523619987071,-0.234509006143,0.242926999927,0.499392002821,0.084959000349,-0.329881995916,0.0407299995422,-0.350318014622,-0.352288007736,-0.0121250003576,-0.144832998514,0.506757974625,-0.10861799866,0.188681006432,-0.0955369994044,-0.291155993938,0.00292299990542,-0.215938001871,0.163645997643,-0.0800170004368,-0.469994008541,-0.307691007853,0.440349012613,0.122625000775,-0.354674994946,0.468609988689,-0.488413989544,-0.674165010452,-0.120338998735,-0.0602889992297,-0.184993997216,-0.0197160001844,0.572960972786,-0.381693989038,-0.0921839997172,-0.320497989655,-0.113517001271,-0.153781995177,0.354378014803,-0.405400007963,0.169122993946,0.0226089991629,0.0948859974742,0.161151006818,-0.164152994752,0.20341899991,-0.336755990982,-0.303593993187,0.188823997974,0.127265006304,0.0709260031581,-0.0764970034361,0.0513710007071,0.134189993143,0.01563099958,0.421380996704,0.268148005009,0.305606991053,-0.514636993408,0.800089001656,-0.141607001424,-0.204582005739,0.170956999063,0.0515800006688,0.29430899024,-0.0930510014296,-0.0856050029397,-0.29869300127,-0.0286180004478,-0.0352080017328,-0.0795599967241,-0.0405460000038,-0.0953439995646,-0.137345999479,0.179068997502,-0.232414007187,0.202215999365,0.315988987684,0.134018003941,0.0843610018492,-0.402952998877,0.207686007023,0.0499400012195,0.355466991663,0.1049669981,0.383872002363,-0.18442299962,0.371600985527,-0.0280329994857,-0.193691000342,0.386887013912,-0.119006000459,0.642764985561,-0.0558510012925,-0.200914993882,0.0425379984081,-0.133691996336,-0.115703001618,0.0254779998213,-0.0498079992831,0.472140997648,-0.0869499966502,0.275593996048,-0.794601976871,-0.0308500006795,-0.249881997705,0.137410998344,-0.179315000772,0.32563701272,0.335628002882,-0.00394200021401,0.0596549995244,0.418918997049,0.00454899994656,-0.33568701148,-0.0895569995046,0.163352996111,0.0211640000343,-0.203520998359,0.587746977806,-0.102412000299,0.239409998059,-0.359705001116,-0.224445000291,0.00501399999484,0.122864000499,-0.0918219983578,0.451638996601,-0.0216129999608,0.307016998529,0.2679489851,0.21850900352,-0.392737001181,0.516919016838,0.432090014219,-0.288313001394,-0.0620380006731,0.601522982121,-0.227362006903,-0.0585529990494,-0.00626800023019,-0.103362001479,-0.169499993324,-0.413439005613,-0.486185997725,-0.0398739986122,-0.17664000392,-0.225080996752,-0.239396005869,-0.31921300292,-0.266086995602,0.141976997256,0.267457991838,0.120566003025,-0.538272023201,-0.377494007349,-0.0137999998406,-0.018371000886,-0.0915059968829,0.158429995179,0.207049995661,-0.0550509989262,-0.0449820011854,-0.086006000638,-0.227653995156,-0.259259998798,-0.423049986362,0.0784170031548,-0.0581960007548,-0.223187997937,-0.100098997355,-0.0964049994946,0.279139012098,0.331559002399,0.506285011768,0.345908999443,-0.0408280007541,0.289546012878,-0.295477986336,0.281895011663,0.0260140001774,0.126920998096,0.277837991714,-0.0815680027008,-0.197227999568,0.159445002675,-0.491506993771,0.0449279993773,0.248601004481,0.0452859997749,0.237978994846,-0.170592993498,-0.177404999733,0.207120999694,-0.0649320036173,-0.0692870020866,0.372684001923,0.203857004642,-0.181660994887,-0.121320001781,-0.35983300209,0.366383999586,0.41068598628,0.288284987211,-0.0760900005698,-0.340467005968,-0.258442014456,0.367246001959,0.148101001978,-0.390184998512,-0.281091988087,0.0314150005579,0.135217994452,-0.0591959990561,-0.34857699275,-0.0378759987652,-0.0489149987698,0.254806995392,-0.112816996872,0.315358012915,-0.225418999791,-0.653231024742,-0.282101988792,-0.202281996608,-0.242884993553,0.0482669994235,0.12444999814,-0.343970000744,-0.770416975021,-0.0400770008564,0.0941110029817,0.194392994046,-0.211814001203,-0.494783997536,0.417890012264,-0.0604469999671,-0.0420610010624,0.420985013247,0.0957409963012,-0.261548995972,-0.153136000037,0.0939370021224,0.0636869966984,-0.248243004084,-0.106205001473,-0.0917569994926,-0.155390992761,-0.120554998517,-0.235414996743,-0.0764269977808,0.0761879980564,0.257371008396,-0.420195013285,-0.145318001509,-0.397275000811,-0.285784006119,-0.226252004504,0.228029996157,-0.219696000218,0.232948005199,0.474775999784,0.286776989698,-0.262396991253,-0.730350971222,-0.0555500015616,-0.599057972431,-0.20546400547,0.201508998871,0.0485889986157,-0.262504011393,-0.325010001659,-0.492926001549,-0.438327014446,-0.543444991112,0.0114259999245,-0.689788997173,-0.0449029989541,0.208745002747
乘客,1.15915596485,0.997657001019,0.410914003849,1.3006939888,1.17062902451,-0.744472980499,2.12967300415,-0.4993250072,-0.0679709985852,2.17891192436,-0.518759012222,-0.849359989166,-0.548242986202,-1.67519497871,0.768262982368,1.75280201435,-0.103193998337,-0.670309007168,0.230991005898,-1.61526703835,0.929530024529,-0.0517169982195,-1.10809600353,-2.50908899307,3.12316298485,0.911480009556,-0.285800993443,-0.106570996344,1.10755598545,2.40893006325,1.42187297344,-0.15683400631,-0.725827991962,1.63607597351,2.29137396812,3.01875305176,2.41228699684,-1.65299201012,-1.76335895061,1.63965904713,-0.120477996767,0.0895370021462,-1.58806204796,0.461602985859,1.21790802479,0.554499983788,-0.527559995651,0.92840898037,2.42803096771,-0.460345000029,2.07245492935,-2.29974603653,-0.908042013645,1.04237103462,-1.73399305344,-0.0428389981389,0.420569002628,-0.660260021687,-1.89869499207,1.00731801987,0.707370996475,-0.677404999733,2.0532450676,-1.02750301361,-0.474032014608,1.96092498302,0.484488993883,-2.5344619751,0.120149001479,-0.981200993061,-1.23329603672,1.49023103714,-0.315059006214,0.0289730001241,1.18890297413,1.25032305717,2.40776801109,0.995572984219,-0.120100997388,3.4065759182,1.97961997986,-2.30752801895,0.513157010078,0.112130001187,-0.0748070031404,-1.62285196781,-0.83225697279,1.36124300957,1.4582669735,2.02694988251,-0.840613007545,2.54153203964,0.220529004931,1.00071394444,-0.604516983032,-0.46674901247,-0.964985013008,1.40400803089,0.219134002924,2.12382006645,0.796115994453,-0.177193000913,0.883387982845,0.655712008476,-2.45318293571,-0.757443010807,1.42966902256,-2.53908896446,0.374956011772,1.63220000267,1.67540800571,-2.37298703194,1.29161798954,0.853778004646,-0.73255199194,0.975781023502,0.436762988567,0.28267800808,1.94624400139,0.650255978107,1.05803799629,-0.879949986935,0.0472370013595,-0.76551002264,-0.136571004987,-0.517428994179,-0.556374013424,-0.116714000702,-0.131377995014,-1.20134902,0.289373993874,-0.745585024357,-0.919969022274,0.182655006647,-1.98087501526,-2.64201998711,0.0600400008261,-0.482717007399,1.17369496822,0.398003011942,1.64044499397,-0.114825002849,-0.840930998325,-2.2199780941,-0.781545996666,-1.67289996147,0.482423990965,0.911024987698,-0.724067986012,-2.39979910851,-0.97147500515,-1.1175839901,-1.39989197254,2.24110198021,1.0468569994,0.8921200037,-1.85657894611,1.94006705284,-0.138835996389,-1.3523440361,2.16728401184,-2.71172904968,-0.539379000664,-0.344071000814,-0.18344900012,0.698763012886,-1.39951896667,-0.18961699307,-1.23964500427,1.19703495502,-0.765106976032,1.51943695545,2.15122890472,0.432229012251,1.18190097809,1.49423801899,0.113199003041,0.862421989441,1.45230305195,0.494798988104,1.84352302551,0.52781701088,0.954168975353,0.494672000408,0.297066003084,2.08131194115,0.414189994335,0.313977003098,-0.153778001666,-1.07733201981,-1.66401195526,1.03347301483,-1.45541000366,0.329185992479,1.12964999676,-0.875477015972,-0.905547976494,-1.824401021,1.23377299309,0.115185000002,-0.0926520004869,-1.39597404003,1.43924701214,1.38175594807,1.63832104206,-0.84595400095,0.840708017349,1.30912899971,1.54194402695,0.466906011105,0.624575972557,1.23199796677,-2.05400109291,-1.47669994831,1.05277299881,-0.310306996107,-1.69953095913,-1.00658500195,0.451171994209,-0.624306976795,-0.157404005527,-1.41917800903,0.576054990292,1.59421503544,1.87781405449,2.95856595039,-0.802711009979,1.56744301319,3.58321499825,-1.52033305168,-2.52501893044,-1.48396396637,0.352503985167,0.450423002243,0.0226750001311,-0.387268990278,-0.012085000053,-0.22516900301,0.732370972633,1.80888497829,-0.64367800951,2.0805580616,-0.13356000185,-0.492145985365,0.54291498661,0.398445993662,-0.681658029556,0.321529000998,-1.16863894463,0.430702000856,-0.109025001526,1.08995401859,-0.392715007067,-1.24179697037,0.00802200008184,-0.852555990219,0.463411986828,1.84992098808,1.22665297985,-0.264299988747,1.27503299713,-0.174771994352,1.95111203194,-1.81174194813,-0.221175000072,-1.24836695194,-0.510488986969,0.344875991344,0.921585977077,-2.74726200104,-0.203343003988,0.979314982891,2.48902511597,0.926738023758,1.84405696392,0.810329020023,3.07658696175,-0.0219669993967,0.994807004929,1.02833902836,0.931285977364,1.50569498539,-1.6646219492,1.04042994976,0.0190880000591,1.30423498154,-0.439592987299,-0.774730026722,1.44698596001,0.835685014725,0.0782689973712,0.919354021549,0.991742014885,-1.34889602661,2.05577802658,-1.00673401356,1.07870697975,-0.619354009628,-0.629074990749,-0.797559976578,-2.10754704475,-0.949440002441,-0.670819997787,0.490033000708,-0.44210600853,1.82625901699,-1.06170201302,-0.388622999191,-0.613030016422,-0.126550003886,-0.874324023724,0.120581999421,1.01262497902,-1.03169298172,0.0737560018897,-0.56067699194,0.0254229996353,-1.09932303429,-0.885824978352,1.09835398197,0.234319001436,2.70207500458,0.214637994766,1.20762205124,1.21923398972,-0.795852005482,0.237307995558,1.27604496479,0.220783993602,-1.03760004044,2.98782706261,-0.110472001135,0.542051970959,-1.28006601334,0.621653020382,0.343849986792,-0.379819989204,0.841804981232,-0.517230987549,0.508368015289,-1.84336996078,-0.722721993923,1.02284300327,0.109502002597,0.323278993368,-2.46300697327,-0.869669020176,1.62722301483,0.825962007046,-1.22266304493,0.906727015972,0.49306499958,-0.639421999454,-0.736024975777,0.0482699982822,-0.547291994095,0.303171008825,1.17136394978,-0.599093019962,3.73746705055,-0.793591022491,-1.76653695107,-2.16872000694,0.551159977913,1.47192597389,0.528460025787,0.15544000268,-2.51063299179,-0.912973999977,-1.5995349884,-0.0992069989443,1.35714697838,0.192334994674,-1.29989397526,-1.40890705585,-0.380917012691,-2.79037499428,-0.296786010265,-1.29208695889,-0.581430971622,-2.24837994576,0.852370977402,1.69178497791,-0.678265988827,0.944356024265,-2.52403211594,-1.08442294598,-0.0571990013123,0.635380983353,0.239296004176,-1.81792604923,0.914838016033,-0.993260979652,-1.42768597603,0.509452998638,-2.69875907898,-1.94580996037,1.04149603844,1.211591959,0.158977001905
基准,-0.585087001324,0.429015994072,0.275909990072,-0.728070020676,1.1545419693,0.280115991831,0.104013003409,-1.62448501587,-0.346693992615,-0.052131999284,-0.525484025478,0.535148978233,-0.841145992279,1.89546501637,-0.949434995651,-1.60854995251,-1.2405589819,-0.413787007332,0.524196028709,-0.0542990006506,-0.51866799593,0.546644985676,-0.266512006521,-0.891346991062,-0.104511000216,-0.144813999534,-0.0841759964824,0.218429997563,-0.619037985802,-0.19106900692,0.890034019947,-0.842170000076,1.42733299732,0.818298995495,1.65311896801,-0.429740011692,1.46626794338,-0.370463013649,-0.176434993744,0.436374008656,0.320589005947,-0.118933998048,-1.35623300076,-0.289133012295,-0.654564976692,1.34642505646,-0.313075989485,-0.911670029163,0.54492598772,-0.0143680004403,0.431371986866,-0.530417025089,0.318462014198,0.121004000306,-0.702740013599,1.03070294857,0.230825006962,-0.0333219990134,-0.578410983086,-0.333624988794,-1.50011003017,1.12727499008,-0.104492999613,0.462498992682,-0.0530040003359,-1.39562094212,-0.520757973194,0.136423006654,0.394492000341,-0.524344027042,-0.716719985008,-0.564869999886,0.137657999992,1.1712449789,0.209918007255,-0.663583993912,0.703274011612,1.05550503731,-0.351790010929,1.03359901905,-0.114316999912,-0.527068972588,0.575568974018,-0.639154016972,0.164202004671,0.606912016869,-0.163481995463,-0.440993010998,1.29066002369,-0.498257011175,-0.484064012766,-0.318646013737,1.0790220499,-0.439512997866,1.02226495743,-0.451880007982,1.01123905182,0.431293994188,-0.778375029564,0.052338000387,0.00896700005978,-0.478852003813,0.471408009529,0.317604988813,1.82876598835,-1.53120005131,1.65358197689,0.130322992802,-0.683010995388,-0.832540988922,1.21762704849,-0.158039003611,-0.939383983612,0.922304987907,-2.1400411129,0.843581974506,0.168350994587,-0.00786400027573,0.280746012926,0.808802008629,1.31007099152,-1.16758096218,-0.0897099971771,-0.385778993368,-0.762359023094,-0.711969017982,-0.491409987211,-1.19884502888,0.376186996698,-0.304921001196,0.310413986444,-0.768202006817,-1.4237049818,1.33479201794,0.879535973072,0.344738006592,0.0537719987333,0.506953001022,0.0660940036178,-0.239302992821,1.67360901833,-0.267554998398,0.0900200009346,0.11437600106,0.815492987633,0.00615100003779,0.90054500103,-1.01587104797,1.04166603088,-0.687694013119,2.22493195534,-0.801536023617,1.0925539732,1.25397801399,-0.0247850008309,0.399688005447,0.486346006393,-0.774164021015,-0.468167990446,0.123299002647,-0.641094982624,-0.676755011082,0.922290027142,-1.24262905121,0.352086991072,1.56668400764,-0.637494981289,0.335357993841,-0.0488080009818,0.00282800011337,-0.552765011787,0.0266629997641,0.134114995599,0.27768099308,-0.610906004906,1.16154301167,1.94624602795,-0.800787985325,-1.54461300373,0.743897020817,-1.27879595757,0.269192993641,1.1274780035,0.00238700001501,0.8401709795,0.0623070001602,-0.68691599369,0.0415909998119,1.44898104668,-0.0866929963231,0.140991002321,-0.281574010849,-0.983566999435,1.04698097706,-0.837781012058,0.745073974133,0.559472024441,-0.331387013197,0.730440020561,0.0653679966927,1.51689696312,-0.266092985868,-2.15615105629,0.32906499505,1.89752399921,-0.584053993225,-0.678062021732,1.21915900707,-0.243992000818,1.22295403481,-0.748555004597,0.011598999612,1.74117994308,0.128971993923,0.595930993557,-0.172321006656,-1.61687195301,0.0210050009191,0.0991249978542,0.102819003165,0.573234975338,1.66362500191,0.239245995879,0.801047027111,0.900650978088,-0.322528988123,0.914955973625,-1.20590996742,-0.126111000776,0.893510997295,0.266072005033,0.0130409998819,0.0619649998844,-0.739612996578,0.279585003853,-1.29203999043,0.63953101635,1.54647099972,-1.25587904453,-1.11527001858,0.821228027344,0.508001029491,-0.457228004932,-0.723396003246,-0.229883000255,-1.48812901974,-0.181410998106,-0.544128000736,-0.0124399997294,-0.123563997447,-0.193952992558,0.972025990486,1.06832301617,-0.252667993307,-1.02601599693,0.29252499342,-0.0771799981594,-0.0776610001922,1.34830403328,0.466598004103,-0.0565260015428,0.544911026955,0.635881006718,-0.706484973431,-0.674973011017,0.276686996222,-0.30919700861,-0.118804998696,-0.138396993279,-1.65143895149,-0.541269004345,-1.37561702728,-0.723568022251,1.01423096657,-0.955093979836,1.56623899937,-0.688512980938,0.125558003783,1.04007303715,0.775210976601,0.0684999972582,-1.97379696369,0.0254319999367,-0.699231982231,-0.0908690020442,0.27016299963,-0.616662979126,0.856262028217,-0.108493998647,0.799503982067,-0.922836005688,1.13681304455,0.0306240003556,-1.70601499081,-0.535570979118,0.838092982769,1.20239400864,0.646929979324,-0.272682011127,-0.619756996632,0.012082000263,-0.14740100503,-0.714442014694,2.00461101532,-0.427657008171,-0.898280978203,-0.504842996597,0.837150990963,-1.42994999886,-0.673929989338,-0.764069020748,-0.350697010756,-0.749786973,0.381181001663,-0.829685986042,-0.44404900074,0.534510016441,0.869958996773,1.02542495728,0.760003983974,-0.105683997273,-0.274589002132,-0.485401004553,0.747340977192,0.334053009748,-0.334643989801,0.26822000742,1.14376401901,0.274002999067,0.190853998065,0.961642026901,-0.153220996261,-1.21422803402,-0.527577996254,0.505985021591,0.287245005369,-0.0327089987695,-0.23842099309,0.165206000209,-0.84939801693,1.42755997181,-0.507357001305,-1.12452995777,1.79702794552,1.02198398113,0.148920997977,0.487430989742,1.13597500324,0.490893006325,-0.552923977375,0.545216977596,-1.30011200905,0.34346601367,1.39783704281,-0.186369001865,-1.6941280365,0.361140996218,0.445199012756,-0.15070399642,0.201208993793,0.442696005106,-1.15019798279,0.521836996078,0.401957988739,0.176494002342,-0.966798007488,0.573309004307,-0.0266890004277,-0.264878004789,-0.0127950003371,0.155837997794,-0.27681401372,0.533482015133,-0.597187995911,-0.806879997253,-0.610201001167,-0.682439029217,-0.204664006829,-0.848345994949,-0.591319024563,-0.0819249972701,1.56566596031,-0.26430401206,-1.09450495243,0.33908700943,-1.75215697289,-0.822659015656,-1.6434700489,-0.508462011814,0.120422996581,-1.32834804058,0.125980004668,-0.154568001628,-0.764482021332,1.03784894943,-1.89071798325,0.653527021408,-1.02382600307,1.82627594471,0.000213000006624
具有,-0.0681810006499,1.40470600128,2.58015298843,-0.417515993118,1.00962400436,-1.16817700863,1.30608701706,0.617208003998,-0.418976008892,0.680073976517,0.0320670008659,-0.412878006697,-0.458056002855,-1.79766905308,-0.482612013817,-0.850849986076,-2.08274888992,-1.79438197613,-0.0770839974284,-1.89013195038,-0.18320299685,1.71037101746,-0.515230000019,1.49715602398,1.35511505604,1.70045101643,0.843391001225,0.205026000738,-0.423913002014,0.0648590028286,-1.09362101555,0.0337539985776,-0.537654995918,1.05566394329,0.0166209992021,0.806357979774,-0.569635987282,-1.49469900131,-1.22647595406,1.73556303978,0.0558639988303,0.265271008015,0.105435997248,-2.35379004478,-0.376747995615,-0.36556199193,1.25548601151,-2.27157998085,1.02639400959,0.00692400010303,2.40711808205,2.47078704834,0.168236002326,0.261465996504,-0.577809989452,-0.711461007595,1.20865595341,-1.4975039959,-1.41725695133,0.847477018833,-0.984902024269,-1.34774005413,-0.193630993366,-0.443363010883,-2.12132501602,-1.61161196232,-0.036683999002,0.0770559981465,-1.23883497715,0.370943009853,0.356952011585,0.782513022423,0.139865994453,1.46712398529,-0.828422009945,-1.27127599716,1.79189300537,0.0404720008373,-0.571823000908,-1.20284795761,0.168824002147,0.45746999979,1.38751196861,0.675350010395,0.668947994709,-0.0208540000021,-0.198296993971,-1.33238601685,-0.342359006405,0.202732995152,0.675924003124,-0.0596310012043,0.792818009853,0.174928992987,-1.06169605255,0.60242497921,2.69266796112,-0.856046020985,-0.832304000854,-0.920239984989,0.240029007196,0.79019600153,0.500250995159,1.20982801914,-0.877777993679,-1.54953205585,0.789002001286,-0.0270620007068,-0.210247993469,-1.72801196575,0.124601997435,-0.0102399997413,-1.98794603348,0.560717999935,-0.582768976688,0.270738005638,1.57074296474,-2.07348608971,-0.341502994299,-0.572614014149,0.466809004545,-2.11353111267,0.257672011852,-1.0773639679,-1.49024105072,0.523836016655,-3.8909330368,0.0322370007634,0.614049017429,1.9462389946,0.432294994593,1.02524995804,-1.23026394844,0.811007976532,0.511888027191,-0.653074979782,0.123153999448,0.644003987312,0.620209991932,0.664552986622,-0.869156002998,-1.14205598831,-0.596728980541,-1.53448200226,0.8639960289,-2.00579190254,0.358027994633,1.05628097057,-0.402871996164,-1.20546996593,2.7305688858,0.258213013411,-0.436002999544,1.54279303551,1.13282501698,0.675576984882,0.61507499218,0.13313600421,-0.850395023823,1.10713100433,-0.0807140022516,-1.68908596039,1.18916904926,0.00458300020546,1.18081700802,-0.973964989185,-0.456936985254,-1.34860599041,-0.75123000145,-0.329811006784,-0.933367013931,-0.63809800148,-0.0689800009131,0.0177490003407,0.48097500205,0.82540500164,1.90796804428,2.58681893349,1.5687019825,2.3834810257,-2.55086803436,-0.167386993766,0.528226017952,-0.517509996891,-0.928963005543,-0.0507950000465,0.0726799964905,0.476684004068,-1.01190197468,0.669575989246,2.04224491119,-0.568099021912,1.69628596306,0.644079983234,-1.3272190094,-0.755998015404,0.0239199995995,1.02561295033,-0.916594982147,1.42628097534,-0.114302001894,-1.09185600281,-0.0769499987364,0.156933993101,-2.759567976,0.32309499383,-1.16582500935,0.308063000441,0.931065022945,1.64484596252,-1.01818299294,-0.313383996487,0.829441010952,-1.02109003067,1.40923297405,0.0107589997351,-0.743929982185,1.58135902882,-0.00687099993229,0.496219992638,0.294970989227,-0.580114006996,1.24730801582,0.16482399404,-2.8324201107,-2.68248391151,-0.340782999992,0.111527003348,-1.22633004189,-0.721207022667,-1.72058594227,-0.587580025196,0.447302997112,-3.02866101265,2.18809604645,-1.44568097591,0.390179991722,0.929045975208,1.12976002693,0.0662299990654,-0.653360009193,-0.0801040008664,1.08141100407,2.45656299591,0.0704040005803,0.708298027515,-2.02672290802,-0.61773699522,-0.941561996937,-2.54302310944,1.7059930563,0.749988019466,0.789391994476,-2.20186710358,-0.992626011372,-0.356705993414,-1.1988710165,-0.155992001295,0.778155982494,0.136042997241,1.02354300022,0.391003996134,0.450367003679,0.455379992723,-0.00685400003567,-1.35155105591,-1.85231101513,1.5436270237,-1.0235029459,-1.02440702915,-1.30442500114,0.203139007092,-1.23908400536,-0.316504001617,-0.590174019337,1.33123898506,-1.30481004715,-0.494785010815,-2.10413002968,0.325338989496,-0.327114999294,0.678718984127,1.29269099236,-0.818531990051,-0.57722902298,-0.975718975067,-0.473823010921,-1.84104895592,-0.951117992401,2.53559803963,0.138503998518,0.353875011206,0.318973004818,-0.825444996357,1.61142897606,-0.528271019459,0.152013003826,-0.402534008026,0.10733500123,-2.35540103912,-1.74005305767,1.45838999748,0.552447974682,-0.745907008648,-0.173974007368,-0.78741300106,0.289137989283,1.44880998135,1.35511898994,0.996173024178,0.924515008926,-1.22544896603,2.00497603416,-0.649911999702,-1.65961098671,1.28914701939,0.331835001707,-0.15159599483,-0.958675026894,-0.141911998391,-0.348701000214,-1.57021594048,-0.838141977787,0.846167981625,-0.327657997608,0.649896025658,-2.56881904602,-0.188077002764,-1.76996803284,-2.26689600945,1.33644902706,-1.19589698315,-1.27485001087,-1.55149805546,1.99730801582,-1.57301497459,0.634286999702,-0.307164013386,-0.54387897253,0.467918008566,0.0257360003889,1.5084810257,-0.249283999205,-2.2722389698,1.70656895638,1.08219504356,-0.675953984261,2.13902211189,-1.67171704769,0.783581972122,-0.240817993879,-0.773638010025,2.44632005692,2.29708909988,0.571361005306,-0.126895993948,0.937871992588,-0.770433008671,-1.28128004074,1.86798095703,1.48265504837,0.645736992359,-2.69974303246,-0.188534006476,2.70706701279,-0.138572007418,-2.07960009575,-0.427298992872,-0.662240028381,-0.1396510005,-0.28536298871,-2.02715992928,1.39363503456,1.65049695969,-0.0658790022135,-1.30796802044,-1.70810103416,-0.0225639995188,0.366820007563,0.160209998488,-0.21618899703,-0.970288991928,-1.24033105373,0.759651005268,1.81904995441,-1.63943505287,-0.373369991779,-1.52522802353,-2.56299090385,1.27070105076,2.01581597328,1.51417005062,0.541059970856,-0.962484002113,0.908342003822,-0.727864027023,1.95490598679,-0.627606987953,-0.308317005634,-0.275135993958
车辆,-1.22170698643,0.40252700448,1.76000094414,1.31590998173,0.0624129995704,1.68796205521,0.820315003395,-0.181292995811,1.5454980135,0.450466990471,-0.679275989532,0.732796013355,-1.40325200558,1.22540700436,0.73015999794,0.353431999683,-1.78323698044,-2.10352706909,2.39379405975,-1.43667495251,0.127608001232,-1.24063098431,-0.963186979294,-1.07081902027,0.760008990765,0.412072986364,-2.16988396645,0.533544003963,-1.65400397778,1.97462201118,-0.19486400485,-1.5894010067,-1.94733500481,0.667979001999,-0.866056978703,1.37707698345,2.03237605095,-0.910183012486,-2.30883002281,0.88733702898,-0.705379009247,-0.0619419999421,-1.48568201065,1.08094000816,0.210638001561,1.08513605595,-1.13516795635,0.578274011612,-0.934804022312,0.875571012497,0.625759005547,-0.723560988903,-0.609717011452,-0.534116029739,-1.03908002377,2.27695894241,-1.82092297077,-1.33651804924,-1.41119205952,1.25262403488,0.18323199451,-0.804211974144,-0.904688000679,-2.00904202461,-0.219009995461,2.04133796692,-2.25539708138,-1.68596994877,0.937336981297,-1.8654910326,-1.05938696861,-0.129574000835,0.332715988159,0.920747995377,0.267450004816,0.868830025196,1.79321599007,0.340112000704,-1.30863702297,0.768000006676,0.347568005323,-3.33919692039,0.953315973282,0.414196014404,-0.817698001862,0.185711994767,-1.79904699326,-1.20338094234,2.11189389229,-1.23968303204,0.765895009041,0.748435020447,-1.42326295376,1.02551698685,-0.617631018162,0.298604011536,-0.900942981243,0.694090008736,-0.559230983257,2.2516849041,0.755114972591,1.19624400139,-0.607734978199,0.141113996506,-1.67858099937,-1.5229049921,1.54865396023,-2.27912902832,0.581054985523,0.247817993164,0.173653006554,-0.737205982208,-2.17022299767,0.257367014885,1.64330005646,1.95713305473,0.23164999485,-1.79600703716,-1.31465899944,0.534416973591,-0.0417939983308,-0.66981202364,1.14639496803,-1.34561705589,0.547100007534,0.111773997545,-1.10513901711,-1.23125600815,0.230572998524,-1.30696499348,-0.326193004847,-2.88387203217,-1.57615995407,0.962503015995,-0.468863010406,-2.0241189003,-1.20255696774,0.931501984596,-0.397693008184,0.380917012691,3.73651599884,0.332127004862,-0.698666989803,0.140584006906,0.782248020172,-0.90671902895,-1.30896794796,-0.411545991898,-0.869893014431,1.07103705406,2.08907008171,-0.114716999233,-2.30660104752,-0.132293999195,0.271735012531,-0.745963990688,0.967697024345,0.404561012983,-0.451646000147,-0.515514016151,2.42663407326,0.0267750006169,-0.0842309966683,-1.55235505104,-2.57010889053,0.584291994572,-1.63589596748,-0.279125988483,0.514382004738,-0.613967001438,0.851957023144,-0.986003994942,1.14904594421,1.76085400581,1.13186502457,1.2998919487,-0.0340769998729,-0.0511169992387,-0.237471997738,0.424225986004,1.38192999363,1.21960902214,-0.247008994222,-0.168015003204,1.4341340065,1.75089395046,4.80000016978e-05,0.308310002089,-0.104341998696,-1.59481203556,-1.85867905617,1.05123996735,-0.837221026421,0.287663012743,-0.972540974617,1.64143395424,1.78187298775,-1.27244198322,1.59712696075,-0.122433997691,1.0709400177,-0.341035991907,-0.532489001751,-0.138465002179,1.07609605789,0.542952001095,-0.14930100739,0.436098992825,0.283307999372,-0.126953005791,-0.493624001741,0.472128987312,-0.870323002338,-0.567927002907,-0.266416013241,1.17770004272,-3.41066598892,-1.12644100189,0.141901001334,-1.51661801338,0.976612985134,-0.920985996723,1.45275604725,-0.376540988684,-0.260609000921,3.07641792297,0.154888004065,0.602625012398,3.96161603928,-1.22353804111,-0.986706972122,0.0994189977646,-0.173244997859,-1.77206802368,2.35775303841,-0.6229839921,1.18065500259,-1.75748300552,0.273245990276,-1.77536594868,-1.34163498878,1.03495895863,1.23550796509,0.722133994102,0.31263500452,-0.358309000731,0.628071010113,-1.63934695721,-0.107943996787,1.73462295532,0.727876007557,0.890208005905,-0.18521399796,0.488819003105,0.839460015297,0.469716995955,-1.09599304199,-0.0629409998655,2.40366601944,1.09276199341,0.511874973774,2.15436005592,0.629339993,0.201415002346,-1.31763505936,-1.68028402328,-0.642328977585,0.351121991873,-1.5652179718,-0.34520599246,-1.12769496441,-0.928754985332,-2.35054802895,1.38847994804,-0.851601004601,0.674070000648,0.115414001048,1.28990805149,-0.556096017361,1.45849001408,0.878700017929,0.977729976177,0.856706976891,-1.10388600826,-2.31577801704,-0.33768299222,-0.468035012484,1.84696900845,-0.322968989611,-0.0321759991348,0.667379021645,1.17729794979,0.0786510035396,-1.51488101482,1.19525003433,-1.29082596302,2.22902798653,-1.44311201572,0.20364099741,-0.709201991558,-0.908814013004,0.304980009794,-2.38825106621,-0.985040009022,0.53606402874,1.51065003872,-2.22043204308,-1.50455498695,-1.10472500324,-1.10570394993,-0.588522970676,-0.838885009289,1.33052003384,-0.318100005388,-1.33144104481,-1.0565199852,-0.247924998403,-0.974896013737,0.455799013376,-0.561196029186,-0.118156000972,2.28373289108,0.0954829975963,0.851082026958,-0.381415009499,0.432390987873,-0.405862987041,0.271759003401,0.388543009758,-0.574907004833,1.89564597607,0.648118019104,0.203584000468,-0.282404005527,0.517152011395,-0.587947010994,1.04943501949,0.285291999578,0.0540009997785,-1.60588502884,-1.57982897758,-1.41680800915,1.21631705761,-0.862047016621,1.19202303886,-2.46437096596,0.0241390001029,-0.00243999995291,0.532644987106,-1.70204997063,0.592055976391,-1.52358698845,-0.409606009722,-1.02798700333,-1.23600697517,0.0754560008645,0.988305985928,0.0544270016253,1.84341096878,1.28992903233,-0.0323599986732,-1.47302496433,-1.59719800949,-0.00847299955785,0.131009995937,-0.625483989716,0.197317004204,-1.60739302635,-2.33507490158,-0.642289996147,0.0218240004033,-0.135453000665,0.10261400044,-2.90187311172,0.45448499918,1.05259001255,-2.60490393639,-1.08782100677,-2.60753488541,2.39500188828,-2.38422489166,1.70553600788,2.13071107864,-2.02652192116,0.968012988567,-1.13405299187,-1.49502801895,0.0994869992137,-1.30994403362,3.17224001884,-0.459266990423,0.0939700007439,0.284188985825,-1.04577696323,1.34702694416,-0.874800026417,-1.07393801212,-0.772629022598,0.809557974339,-1.46578204632
结构,-2.42835688591,1.7971559763,2.61451196671,-0.405829995871,2.17393493652,-0.321936994791,0.599795997143,-1.6702170372,0.377995014191,1.32747805119,-0.698747992516,0.107716999948,-1.2962770462,-0.435034990311,-0.697408974171,-0.431928992271,-1.14078295231,-1.79297494888,-0.347088009119,-1.0648560524,-0.0272519998252,-0.348084002733,0.0713900029659,0.646709024906,0.356077998877,1.45579099655,0.0667740032077,0.444025009871,-1.58606505394,1.22058200836,0.335258990526,-0.40721398592,-0.804570972919,0.456571996212,2.48971891403,-0.823823988438,-1.12971305847,-0.797637999058,-0.203920006752,-0.013582999818,0.679803013802,-0.214080005884,-0.840386986732,-0.41413500905,-0.293336004019,0.754859983921,-0.0514659993351,-2.13663601875,0.494320005178,-0.0538850016892,0.6842020154,-2.46908688545,1.10233700275,0.952587008476,-2.30595588684,1.11290097237,2.02344608307,0.438356995583,-1.39987003803,-0.182514995337,-0.450379997492,0.0237639993429,-0.368209987879,-0.328025013208,-1.57064700127,-1.79748702049,-2.31033396721,0.346033006907,1.13598299026,-0.760568022728,-0.465052008629,-0.399563997984,0.039404001087,1.92485797405,0.0876350030303,0.851423978806,1.01924204826,1.3123049736,-0.113711997867,0.701288998127,-1.19265794754,-2.56626605988,2.31007003784,0.661682009697,0.421148985624,1.2742279768,0.0248840004206,-1.32038199902,0.58992099762,-0.333449989557,0.536536991596,-0.485269010067,1.33403003216,-0.0436760000885,-0.142753005028,-0.72549200058,1.05154502392,-0.71778601408,-1.73489403725,0.535354018211,0.774892985821,-1.31073999405,0.536015987396,2.52102589607,-0.759218990803,-1.68054997921,1.90713405609,0.199277997017,0.386393994093,-1.87719595432,0.292881011963,-0.944337010384,0.661970019341,-0.555262029171,-0.122725002468,1.71340095997,0.952589988708,-1.21913504601,0.654906988144,1.04714095592,-0.816075026989,0.217647001147,1.27047395706,-2.02440810204,-1.39815497398,1.98313701153,-2.10503697395,-1.28587496281,1.67091298103,-0.680275022984,1.85187995434,-1.30558300018,-1.05832695961,0.310032010078,-0.534047007561,-1.78436899185,-0.407829999924,-0.112021997571,0.509638011456,-0.646955013275,2.39430999756,-0.882884025574,-0.654862999916,0.297320991755,0.647177994251,-0.104299001396,0.288049995899,0.303568005562,-0.216251000762,-0.51570802927,1.27024495602,-0.164730995893,-0.1211130023,0.454223006964,0.700429022312,1.54730904102,0.076861999929,0.11538399756,0.488575011492,2.52634000778,0.388453990221,-2.94801998138,0.348791003227,-1.86394703388,0.0980419963598,0.378641992807,-0.169044002891,-0.511548995972,-0.201734006405,0.581014990807,-0.0644309967756,-0.380407989025,0.723946988583,1.8931620121,0.761200010777,-0.317476987839,2.50127100945,1.52624797821,0.392500013113,1.63957798481,-0.178802996874,0.744632005692,0.875329017639,-0.504697024822,0.303490012884,1.09529304504,0.735707998276,-0.0271029993892,0.0549569986761,-0.327495992184,0.575838983059,-2.58888196945,1.54976701736,-0.1363620013,-0.121428996325,-0.464590013027,-0.446790009737,-0.330303013325,0.424448013306,-0.00610700016841,0.43192499876,1.41717505455,-0.832759022713,0.352721989155,-0.615989983082,1.49029898643,0.383891999722,0.614965975285,-0.707837998867,1.41202199459,-0.92421901226,-0.256274998188,1.14748001099,0.745069980621,1.0858540535,-1.14205694199,-0.908937990665,-0.391434013844,0.819562017918,-0.847102999687,0.139369994402,-0.0678799971938,1.31541705132,0.308447003365,-1.08625495434,-1.77766799927,-0.769470989704,-1.32678496838,-0.0862239971757,-0.575662016869,0.974083006382,-0.338093012571,0.290215998888,-0.230393007398,0.886793971062,-1.80847895145,-1.15656495094,-1.37339401245,1.05906605721,0.77088701725,0.951988995075,0.114508002996,-0.567654013634,1.66992795467,-0.758619010448,-0.621187984943,0.123896002769,0.444193005562,1.92571496964,-0.024244999513,-0.377517014742,1.02322900295,0.668663978577,-0.30887401104,-0.889585018158,0.691300988197,0.241087004542,-1.6612919569,2.25962400436,0.687561988831,1.12548398972,-0.0935650020838,0.00560100004077,1.2732219696,-0.149283006787,-0.324656009674,-1.12614798546,-0.144178003073,0.226665005088,-0.194169998169,-1.01255202293,-0.14130499959,-0.777918994427,2.17765188217,-2.65007805824,1.44175994396,-1.808604002,0.369639009237,0.467278003693,-1.36250495911,-0.68806797266,0.196605995297,0.236186996102,0.598609983921,-0.922173976898,0.573428988457,1.14671599865,-1.9857929945,-1.06248104572,0.0806490033865,0.17646099627,0.351292014122,-1.12906002998,-0.745510995388,-0.308097988367,-0.710385024548,0.404154986143,0.473174005747,0.3921880126,-1.13608300686,0.0160590000451,0.975856006145,-0.303501009941,-0.640564024448,0.668151974678,0.719110012054,-0.531316995621,-0.356837004423,-1.12821602821,-0.192860007286,-0.0993020012975,-1.17675900459,0.0683329999447,0.153469994664,0.751115977764,2.16758608818,-1.39037895203,-0.215825006366,0.547070980072,-0.090815000236,0.721624016762,-0.524070978165,-0.725346028805,-1.1400680542,0.421011000872,0.504842996597,-0.462754011154,-1.51936101913,0.092565998435,-1.67402994633,-0.73409897089,1.32639694214,1.04209601879,-0.156059995294,1.36061501503,0.591257989407,-0.461564004421,0.250575989485,-0.970574975014,0.192730993032,-0.106856003404,0.0996949970722,-0.0411860011518,-0.808879971504,-0.161006003618,1.85442101955,-2.09496498108,0.563489973545,0.578660011292,-1.11644804478,-0.300446003675,-1.82167303562,-1.02085995674,-0.77049601078,-0.248379006982,-1.26760494709,0.528766989708,1.20807802677,-1.78280699253,1.78174197674,0.110579997301,0.730836987495,-0.315486997366,1.6776150465,-0.535517990589,-2.9949669838,-1.32596695423,-0.80393499136,-0.0058410000056,-1.53379702568,-1.4695520401,-1.39049196243,-0.62253600359,0.373198002577,-1.36657094955,-0.0270370002836,0.0366810001433,0.147683992982,-1.53023004532,-0.968986988068,0.345452010632,1.12413597107,-1.18701696396,1.05708396435,2.07362294197,-0.883588016033,0.533590018749,-1.2218760252,-0.0787260010839,0.0395909994841,0.596129000187,0.466394007206,-0.248511999846,-0.142681002617,-0.397166013718,0.765344023705,0.94425702095,0.421954989433,1.59098303318,0.697004020214
附,0.0484189987183,-0.337348014116,-0.023785000667,0.0107190003619,0.722514986992,-0.578552007675,0.0737159997225,-0.393929004669,0.692586004734,0.537477016449,0.300354003906,1.15269398689,-0.304033011198,-0.799109995365,1.57258605957,0.1755400002,0.0380150005221,-0.266193002462,-0.210454002023,0.383753985167,0.0232900008559,2.10960292816,0.279018014669,0.24162299931,-1.46802604198,0.784008979797,-1.31695997715,0.732110023499,0.773003995419,-0.567261993885,-0.830254018307,0.383186995983,0.0677520036697,-0.852285027504,-0.498098999262,0.0898630023003,0.0812470018864,1.2452069521,-0.132908001542,0.188829004765,0.512449026108,-1.43362498283,-0.433921009302,-1.03198003769,1.14010000229,0.652177989483,-0.0295480005443,1.25201296806,-0.971297025681,1.90819895267,0.351422995329,-0.0212820004672,-0.598719000816,0.294663995504,-0.820134997368,1.72673499584,0.673729002476,0.497770994902,0.232546001673,-0.0119350003079,-0.440403997898,-0.786813020706,0.305635005236,-0.404603987932,0.228957995772,2.21974492073,-0.993342995644,0.241580992937,0.127300992608,0.435763001442,-1.61484897137,0.507134020329,0.182799994946,0.75862801075,0.0998890027404,1.09002494812,-0.541990995407,-0.506546974182,-0.293265014887,1.41761803627,0.55369502306,-0.564347982407,-0.689795970917,-0.401207000017,0.565200984478,-0.995500028133,-0.623372018337,0.167044997215,0.273317009211,1.20862400532,-0.430804997683,-0.0345880016685,1.07733905315,1.05073702335,-0.340485990047,0.792419016361,0.396400004625,0.71816599369,-0.766571998596,-0.599610984325,1.35839498043,-0.347822993994,1.1117670536,-0.426205992699,0.434767007828,0.456647008657,0.799929976463,0.546081006527,-0.243882000446,-0.669498980045,-0.479784995317,-0.112228997052,-0.0898040011525,1.7954210043,-0.16760699451,0.712759971619,0.908243000507,-0.301827996969,0.225502997637,1.69310104847,0.0713780000806,0.517596006393,-0.504472017288,0.181341007352,-0.898998022079,0.223651006818,-0.836574971676,1.62630999088,-0.57813000679,0.0638300031424,1.0493350029,-1.43550801277,-0.0953439995646,1.00274598598,-0.198770999908,-1.82287502289,0.747246026993,1.36137700081,0.709581017494,-0.961851000786,-1.65121400356,0.474790990353,0.750091016293,-0.522472977638,0.847518026829,-0.643447995186,1.00786805153,1.6776239872,-0.169023007154,-1.1484940052,0.611342012882,0.326386988163,-1.21981799603,-0.125422999263,1.19328904152,-0.838268995285,0.0654599964619,0.920256018639,-0.4924480021,1.06880605221,-0.494619011879,0.393566995859,1.07080900669,-0.452814996243,1.47294104099,-1.24210500717,0.453431993723,-2.1743850708,-0.307880997658,0.336968004704,-0.0861290022731,-0.832240998745,0.405277013779,-0.10687699914,0.748516976833,-0.501743018627,1.69452095032,-0.356215000153,-0.0606030002236,0.218088001013,-0.313585013151,0.125777006149,-1.31951701641,0.63400799036,-0.820433020592,0.255665004253,-0.0363220013678,0.087149001658,0.445410996675,1.79886603355,0.295513004065,0.655490994453,-0.267192006111,0.351334005594,0.698126018047,-0.179444000125,-0.212100997567,0.280440986156,0.674202024937,-0.90457701683,-0.529407024384,-1.42433905602,-0.30450001359,-0.0131470002234,0.518419981003,1.96206796169,0.458236992359,-1.30183696747,-0.280589014292,0.462264001369,0.338524997234,-0.396477997303,1.90169203281,0.232400998473,0.514442026615,-2.11941790581,1.48333001137,0.0347080007195,-0.119517996907,-0.182266995311,0.154759004712,1.0048019886,-0.782819986343,0.429682999849,-0.753884971142,0.316112995148,1.22885096073,-1.4608989954,-1.67778503895,0.207234993577,0.638189971447,0.422172993422,-0.760927021503,-1.6957410574,0.926687002182,-0.893324971199,1.26704502106,1.89240801334,-1.55401599407,-0.678411006927,-0.191435992718,0.808396995068,0.533290982246,-0.132012993097,-0.267874002457,0.671096980572,1.1695920229,-0.221018999815,-0.0966899991035,-0.0119390003383,1.00856494904,0.412225991488,-0.89200001955,0.808175981045,0.591418981552,0.567385017872,-0.388222008944,0.434612989426,0.817833006382,-0.451694011688,-0.0773319974542,1.78377604485,0.999727010727,-0.199050992727,0.581368029118,-1.12744998932,-0.325805008411,1.08348202705,-1.21686303616,-0.481299996376,-1.51065003872,-0.562547028065,-0.565369009972,-1.27209997177,0.0690800026059,0.62317097187,-0.354144990444,0.566197991371,-0.420967012644,-0.901053011417,-0.398425012827,-0.0691109970212,-0.264093995094,-1.82188594341,0.92771500349,0.501033008099,-0.146917000413,1.06044304371,-0.141729995608,-0.861919999123,-0.0955889970064,0.459248006344,0.836592018604,-0.211831003428,0.00740400003269,-0.819728016853,-0.0461429990828,0.00477899983525,0.353098988533,0.320742994547,0.748862028122,-1.22762405872,1.70331394672,-1.98432397842,-0.26436200738,0.883749008179,-0.157394006848,0.246346995234,-0.390359997749,-1.75044202805,-0.414402008057,-0.3118250072,-0.0107039995492,0.142881006002,1.13162195683,0.38457301259,-0.631376981735,1.46581196785,1.17171895504,-1.14339804649,-0.29853400588,0.925077974796,0.755226016045,0.195029005408,1.02416300774,0.0345579981804,0.568504989147,0.539057016373,0.110082000494,-2.3543419838,1.03117704391,-0.169171005487,0.0559509992599,1.22296595573,0.0669030025601,0.256258010864,1.305554986,1.60323798656,-0.541064023972,0.508314013481,-0.641798973083,-0.127822995186,-1.3448690176,-0.824590027332,-0.412254989147,-0.364854007959,-0.555855989456,-0.0619350001216,-1.10164701939,0.171930000186,-1.33081698418,0.997731983662,-0.465395987034,0.157276004553,1.1819460392,-0.429865986109,0.234088003635,0.472997993231,-0.238355994225,-0.0720380023122,-0.361799001694,0.974361002445,-0.684516012669,-1.21793699265,0.628663003445,0.940428972244,0.0864979997277,1.49664998055,-1.30717802048,-0.979884028435,-0.611723005772,-0.989539980888,-0.295359998941,1.05499994755,-0.264256000519,-0.388442993164,-0.864284992218,0.135659992695,-0.36443901062,1.25512897968,0.191294997931,0.347436010838,0.0813260003924,0.969480991364,0.0206279996783,-0.704706013203,0.635845005512,0.528998970985,-1.34628105164,0.415894001722,-0.0606490001082,1.03210699558,-0.165851995349,0.0278179999441,1.88093400002,-1.05699300766,-2.27991890907,-1.03618204594,0.912887990475,0.501524984837
配置,-1.839220047,1.58960795403,1.52071905136,0.942802011967,0.595574021339,1.08220303059,0.664561986923,-1.6345089674,1.51474297047,1.01177299023,-1.44243597984,-0.231452003121,-0.617855012417,-0.627794981003,-0.393512010574,-0.927354991436,-1.11271500587,-1.78273999691,1.45138895512,-0.324220001698,-1.19321894646,0.24535100162,0.432633012533,0.920746028423,-0.145092993975,1.97961997986,-0.307052999735,0.746990025043,-1.07540404797,0.983781993389,-0.865029990673,-0.355181992054,-0.484066009521,-0.0705889984965,0.570671975613,-1.40044701099,0.734031975269,-1.6707700491,-2.14332509041,0.877434015274,1.48705804348,-2.04380106926,-1.85871899128,0.785306990147,0.808032989502,0.319095999002,0.653558015823,-0.565506994724,-1.0023059845,0.216427996755,0.471365988255,-0.326741993427,-0.856269001961,1.30698204041,-1.43980705738,0.541490972042,0.435624986887,-0.977802991867,-0.710770010948,-0.228379994631,-1.94976198673,-2.28931999207,-1.31346094608,-0.415109992027,-2.42525196075,0.161464005709,-0.622870028019,0.780126988888,0.193316996098,-0.431291997433,-0.918649017811,-0.829934000969,1.12913203239,1.97107005119,0.534690976143,1.18010997772,0.0946040004492,0.633123993874,1.02960300446,-0.28626999259,0.58222001791,-0.525343000889,0.884504020214,0.295868009329,-0.0458390004933,-0.0287449993193,-0.997909009457,-0.616231024265,-0.0934009999037,0.474866002798,0.769940018654,-0.620645999908,1.10049700737,0.324699014425,0.555926978588,-0.93271201849,-1.17327594757,1.27786195278,-0.470391005278,1.19071400166,1.79025399685,0.562066018581,0.807793974876,-0.490155011415,-0.928799986839,1.20807301998,0.349637985229,-0.38809299469,0.571089029312,0.0322780013084,1.05884504318,-1.53153800964,0.00769100012258,1.32149994373,1.27229702473,-0.209950998425,0.858125984669,-1.75012505054,1.47174704075,1.95568597317,-0.462422996759,-0.00442699994892,1.22625601292,0.337702006102,1.42123699188,0.29474401474,-0.822646975517,-0.405941009521,-0.0869219973683,-0.0902300029993,-0.41919401288,-1.21596705914,0.678331017494,2.34591603279,1.01295304298,-1.22364401817,-0.397195994854,-0.119110003114,-0.268467009068,1.13243198395,0.185503005981,0.146935999393,1.08442997932,0.99896299839,-0.243497997522,-0.445816993713,-0.175529003143,0.341906994581,-1.39313101768,-1.38165700436,1.62798404694,0.192515999079,0.674179017544,-0.425130993128,0.423251003027,-0.0190069992095,-0.322398006916,0.266330003738,-0.501164972782,0.292750000954,0.462040007114,-1.58453905582,-0.178698003292,0.0198989994824,0.41047000885,0.772545993328,-0.949693977833,-0.478455007076,-1.05765402317,0.142388001084,-0.81008797884,0.133900001645,0.0788139998913,0.485446989536,0.52967697382,1.89454603195,2.970058918,-0.324106007814,0.136212006211,0.646423995495,-0.86811798811,-0.919435977936,0.239747002721,0.200532004237,-0.708518028259,1.08580696583,0.752002000809,0.986706018448,1.03058004379,0.634259998798,-0.160030007362,-0.946843028069,1.08242404461,0.117480002344,-1.02523195744,-0.581013023853,-0.423644006252,0.210602000356,0.2919459939,-0.562655985355,-1.51627600193,-1.13881504536,-0.601043999195,0.675432026386,0.00299599999562,1.63365995884,0.638022005558,2.37960910797,-0.862673997879,1.17248094082,-0.0127429999411,0.0818300023675,0.828674018383,0.160669997334,0.202083006501,-0.695145010948,0.534992992878,0.0983830019832,-0.376262009144,-1.21871900558,0.540214002132,1.35956501961,1.26555204391,-0.940707027912,1.49554502964,1.07642996311,1.98066103458,-0.638218998909,0.734925985336,-0.990189015865,0.802514970303,-0.7804210186,0.880934000015,-1.16527497768,1.00306403637,0.493939995766,0.314707994461,-0.752990007401,0.666902005672,-0.242884993553,-0.777544975281,-0.712240993977,1.29416799545,2.71885704994,-0.324027001858,0.696748018265,1.07500898838,-0.771529018879,1.04188096523,1.0813369751,0.386175006628,0.713548004627,0.241335004568,2.36268210411,0.225958004594,0.76367598772,0.442303001881,0.632529973984,1.27759599686,-0.245664998889,0.024606000632,0.198434993625,-1.40702104568,0.14005599916,-0.136685997248,-1.19003200531,-0.490027993917,0.314716994762,-0.604637026787,-0.33457800746,0.17584399879,-0.981392025948,-0.261323988438,1.61349403858,-1.46142697334,0.714335024357,-1.1603089571,-0.332314014435,1.54916000366,0.456804007292,-0.375714987516,0.455480992794,0.863987982273,-0.504433989525,-0.439397990704,-0.210699006915,-1.25225698948,0.184299007058,1.03283405304,-2.39784097672,-1.01996600628,1.25738596916,0.604602992535,-0.627413988113,0.211368992925,-0.615622997284,0.605408012867,-0.0464549995959,0.50487601757,-0.912127017975,-0.432431012392,0.442936003208,-1.34936094284,0.742843985558,0.647140979767,0.998718976974,-2.35642409325,-1.38049304485,-0.776243984699,0.957382023335,-0.464973986149,-1.86939096451,1.53464496136,-0.601791977882,-0.0873500034213,1.21043002605,-1.89656603336,0.125660002232,0.73158800602,-1.33274996281,0.265686988831,0.974188029766,-0.809201002121,0.771628022194,-0.0835570022464,0.395747005939,0.00751700019464,0.686387002468,-1.36708402634,-0.152682006359,0.183432996273,0.196637004614,-1.38134002686,0.824849009514,2.21019792557,0.366760998964,-0.820401012897,1.75424194336,0.0296209994704,0.0207519996911,0.0150739997625,1.49945402145,-0.410757988691,-0.382524996996,0.198117002845,0.79558801651,0.71648901701,0.87498497963,0.192957997322,-0.331254988909,-0.224197998643,0.348623007536,0.510776996613,0.0193900000304,-0.0516519993544,0.488950014114,1.72818803787,0.081382997334,-1.23050904274,1.26090204716,-0.65171200037,0.646890997887,-0.653869986534,-0.414503008127,0.719666004181,-0.337895989418,-1.3231420517,-0.508862018585,-1.79111504555,-0.911493003368,-0.273667007685,1.6303139925,-0.171176999807,-1.43681395054,-1.25608897209,-0.460936993361,-1.01139998436,-0.249083995819,-0.520605027676,1.0883179903,0.107277996838,0.393559008837,0.0400569997728,-0.352982014418,1.12202203274,-2.04907393456,-0.051617000252,-0.0717530027032,-1.23507905006,2.49797201157,-0.317369014025,0.756295979023,0.185569003224,-0.703894019127,1.37139594555,0.180829003453,0.188747003675,0.495534986258,1.46408998966,-0.120472997427
邻接,-0.313488006592,0.304926991463,-0.999318003654,-0.0762619972229,0.616025984287,-0.333528012037,-0.597944974899,-1.47652494907,0.744970977306,0.149578005075,0.0276389997452,-0.826498985291,0.385823994875,-0.589196026325,-0.358554005623,1.02724194527,0.113807998598,-0.138118997216,1.69110405445,0.744719028473,-0.168650999665,-0.0354060009122,-1.18886995316,0.814558982849,0.334010004997,-0.192271992564,-1.24626302719,0.109967000782,-0.635420978069,0.559184014797,0.226484999061,-0.387430995703,0.786674022675,0.585660994053,-0.0671809986234,0.267190992832,0.765168011189,-0.726456999779,0.758341014385,0.94261598587,-0.756385982037,-0.494471997023,-0.207169994712,0.336517006159,0.101635999978,-0.771771013737,-0.0998999997973,0.659498989582,0.270377010107,1.03464996815,-0.0445629991591,-0.653880000114,-0.463615000248,0.850452005863,-0.127042993903,1.09772098064,0.964510023594,-0.430936008692,-0.0429229997098,0.296158999205,-0.965891003609,-0.372548997402,-0.931114971638,-0.349337995052,-1.14901900291,0.503675997257,-0.329553991556,1.6080520153,-0.21818099916,-0.709963977337,-0.847450017929,1.10319399834,0.000218000001041,0.409260004759,-0.411940991879,-0.398066014051,-0.220387995243,1.33199596405,-0.210868000984,0.488788992167,0.202784001827,-1.40181899071,-1.2645150423,-0.206891998649,-0.130413994193,0.849381029606,-0.209855005145,0.24609400332,-0.0799140036106,0.644681990147,-0.772013008595,0.0674649998546,-1.05263698101,0.547747015953,-0.287802010775,-0.822444975376,0.204005002975,-0.763076007366,0.201722994447,0.378167003393,0.905071973801,-1.13367795944,0.684825003147,0.393036991358,0.42692899704,-0.325525999069,0.768930017948,-0.16741399467,0.82028901577,-0.195173993707,0.00453600008041,-0.338761001825,0.694985985756,-0.130853995681,0.700944006443,-0.0427340008318,0.240165993571,0.363131999969,-0.117271997035,0.364879995584,-0.171191006899,0.559617996216,-0.347373008728,-0.472952991724,-0.695262014866,-0.670477986336,-0.44070699811,-0.984905004501,0.338369011879,-0.803714990616,0.10779800266,-0.921905994415,-0.556402027607,0.210051998496,-1.3214199543,0.614149987698,-0.579896986485,-0.057431999594,0.481736004353,0.732343018055,1.12198495865,-0.287292987108,-0.707032978535,0.516614019871,0.304984003305,-1.31847000122,0.349528998137,0.61084997654,-0.584703028202,-0.0370279997587,-0.164716005325,0.092191003263,-0.321550995111,0.602101027966,1.13619303703,-0.18404699862,0.512480974197,0.025026999414,0.103228002787,-0.0762820020318,0.62304598093,-0.652369022369,0.372745007277,0.480913996696,0.482703000307,-0.0752900019288,-0.359001010656,-0.118963003159,-0.112984001637,-0.30429199338,0.47601801157,0.964688003063,0.775301992893,-0.0249739997089,0.879091978073,-0.443509012461,0.825896024704,0.236816003919,0.0568239986897,0.644658982754,-1.01966404915,0.281554013491,1.33904504776,0.645317971706,-0.379173010588,0.236595004797,0.800127029419,0.318428009748,0.133816003799,-0.231931999326,0.427830010653,-0.242489993572,0.228295996785,0.170928001404,0.00145800004248,0.673218011856,0.533205986023,-0.0124460002407,-0.271441996098,-0.219917997718,-0.180482000113,-0.0695480033755,-0.597905993462,0.917922019958,-0.456636995077,0.0593109987676,0.194197997451,0.80153799057,0.324458003044,1.10804402828,-1.14572894573,-0.0909420028329,0.158005997539,0.646992981434,1.06285500526,-0.691371977329,0.472130000591,0.605044007301,0.587795972824,-0.0682419985533,0.0840239971876,1.20600295067,0.0253890007734,0.995709002018,-0.47934499383,-0.0649000033736,-0.0124450000003,-0.999710977077,0.579903006554,0.13312099874,-0.369735985994,-0.466948986053,0.603579998016,0.458981007338,-0.384786009789,-0.279525011778,0.310019999743,-0.169225007296,-0.767170011997,0.470140993595,0.198090001941,-0.0704929977655,0.249649003148,1.19756102562,-0.77092397213,-0.169688999653,0.381132990122,-0.131788998842,-0.475461006165,0.87071198225,-0.472279012203,0.256164014339,-0.508370995522,0.705745995045,-0.00789100024849,0.583036005497,0.582125008106,-1.17142605782,0.695125997066,-0.0201919991523,-0.161054998636,0.742974996567,0.440385013819,-0.150595992804,0.287369012833,-0.204076007009,0.125660002232,-0.969039976597,0.821869015694,-0.693673014641,-0.0187769997865,-0.089222997427,-0.119941003621,0.215909004211,0.0308030005544,0.793969988823,-0.561357975006,-0.152574002743,0.0718209967017,-0.791996002197,1.79661905766,-0.419075995684,0.587953984737,-0.0964670032263,-0.035950999707,-0.0936580002308,-0.50349098444,0.0793149992824,-0.0558860003948,-0.116423003376,-0.708657026291,-1.28276801109,0.26044100523,-0.298622012138,0.503982007504,-0.298161000013,0.0945200026035,0.68412899971,1.52421998978,-0.417468011379,0.0330119989812,-0.377117007971,-0.863152980804,0.0417990013957,-0.371408998966,-0.646776020527,-0.596446990967,0.173776999116,-1.29636001587,0.00714900018647,-0.137172996998,-0.0749299973249,0.42171600461,0.536302983761,-1.11092495918,0.259319007397,0.682578027248,0.461111992598,0.233266994357,0.649206995964,-0.109491996467,0.307698011398,-1.52730298042,0.564067006111,0.486889988184,0.689862012863,-0.746869027615,-0.305602997541,0.0149060003459,0.778532028198,-0.629494011402,-0.711175978184,0.144955992699,0.717598974705,0.83610701561,0.32488900423,-0.52231502533,-0.0353070013225,0.0888929963112,1.09650194645,0.849496006966,-0.220028996468,-0.255456000566,-0.108736000955,0.824205994606,-1.35571098328,-0.548611998558,0.275734990835,-0.86889398098,-0.566012978554,-0.499173998833,-0.728161990643,-0.673193991184,-0.50938898325,-0.718343019485,-0.852357983589,0.716651022434,-0.0737309977412,-0.0606769993901,-0.1774020046,-0.790341973305,0.492031991482,-0.145294994116,-0.0914240032434,0.982942998409,-0.784884989262,-0.29493701458,0.0532650016248,-0.448188006878,-0.857744991779,-0.782289028168,0.0665900036693,-0.640680015087,0.504827022552,-0.22860699892,-1.16419804096,0.249858006835,-0.704656004906,-0.523312985897,-1.33968305588,-0.516946971416,0.519833981991,-0.00257400004193,0.664902985096,0.948189973831,-1.19259595871,-0.0301690008491,-0.284653991461,-0.869687974453,0.501546978951,0.0877360031009,-0.234285995364,-0.21252900362,0.218839004636,0.722995996475,-1.14762198925,0.632560014725,-0.75150001049,0.606927990913,0.0142729999498
表面,-0.455702006817,0.8247590065,1.2869399786,0.290692001581,-0.00417099986225,-0.776935994625,0.672231972218,-0.680577993393,-0.265460014343,0.304921001196,-0.159904003143,0.293976992369,-2.08326506615,1.02790105343,-2.17870688438,-0.301375985146,0.886577010155,0.55413299799,-1.29016697407,-1.98894298077,-0.54297798872,1.28438603878,0.471249997616,-0.966004014015,-0.49299800396,1.4344420433,-0.110073000193,1.15083301067,-1.9530390501,1.58294796944,1.02660501003,-0.137492999434,-1.00578999519,-0.0421440005302,1.54951405525,0.253895998001,-0.238639995456,1.17956495285,-1.04393100739,-0.444142013788,1.34187304974,0.138591006398,-2.09173297882,0.0746150016785,-1.10364294052,1.92923104763,-1.1609890461,-1.19921004772,0.386254012585,-0.767320990562,0.258736014366,0.496466994286,1.63278305531,1.2728780508,-1.04183804989,0.609444022179,1.08377301693,-0.668703019619,0.0550719983876,3.56103610992,-0.288513988256,-0.950618982315,-1.14748799801,-0.0885120034218,-0.154774993658,-0.542578995228,-1.09784901142,-0.0077680000104,-0.117985002697,1.04583895206,0.0795100033283,-0.950879991055,0.760751008987,1.24250495434,-1.42280495167,0.124902002513,2.63975000381,-1.46275794506,0.470764994621,1.70255100727,-0.118987999856,-0.890206992626,1.01494896412,0.331445008516,1.03081798553,-2.02674889565,1.0812920332,-1.5841230154,0.319366008043,-0.642383992672,1.34338796139,1.24956798553,-0.974289000034,-0.250878989697,-0.150259003043,-0.537732005119,0.435743004084,0.978275001049,-1.28291702271,0.0852980017662,0.817534983158,-0.457789987326,-1.15244305134,2.14244508743,-0.986290991306,0.403266996145,0.160125002265,0.932853996754,-0.153496995568,-0.687560975552,-1.29500997066,-1.89078295231,0.812123000622,-2.14894104004,-0.03471500054,0.113610997796,1.45384800434,0.829117000103,1.63487899303,1.87274801731,-0.269163995981,-0.612055003643,0.304872989655,1.96150803566,-0.0199989993125,1.58941996098,-1.71895802021,-0.33606800437,1.18949794769,1.07309901714,1.81105399132,0.515286982059,-0.328844994307,1.88969302177,0.201890006661,-1.28784203529,-0.0900989994407,1.27869105339,0.680772006512,0.145669996738,0.993062973022,0.82189399004,-2.49810409546,-1.21664500237,0.296790987253,-0.0511890016496,-0.193623006344,-0.497070997953,-3.19304203987,-1.08828997612,0.268399000168,0.16228300333,-0.181603997946,0.319175988436,0.087186999619,-1.98257696629,0.0588430017233,0.750213980675,-1.3368730545,0.809956014156,0.981289982796,-2.05723190308,0.746636986732,-1.52969098091,0.297637999058,0.172998994589,-0.105911001563,1.30633699894,-2.80827999115,-0.620835006237,-1.70786297321,-0.431172013283,1.01573300362,0.625289022923,0.00212599989027,0.488467991352,0.630741000175,-0.367707014084,0.661280989647,0.260176002979,0.295300990343,1.80871903896,-0.241907998919,-0.861671984196,0.432990014553,1.22864294052,-1.0165450573,-0.0261240005493,-0.469177991152,-1.45416605473,1.01001095772,0.00562199996784,1.70403897762,0.89315700531,-0.419539004564,0.360345989466,1.87048494816,-0.942616999149,0.266728013754,0.602780997753,0.37859800458,-0.274818003178,-1.26295900345,-1.43582999706,-0.86761200428,-0.875569999218,-0.825299978256,0.858285009861,-1.81973695755,0.871026992798,0.853012025356,-0.704958021641,0.583414971828,0.583267986774,2.38460898399,1.05998599529,-1.35913801193,0.0725030004978,-1.55932796001,-0.117895998061,0.674616992474,-1.98207199574,0.32754701376,-1.20762705803,-1.40486896038,-2.28916501999,-0.320331007242,-1.36988997459,-0.564785003662,0.104819998145,0.37882399559,0.14852899313,0.601212024689,-1.67840898037,-0.135994002223,-1.52846503258,-0.734382987022,0.43079200387,0.092102997005,-0.175804004073,-0.480774998665,0.0504929982126,0.755658984184,-0.741396009922,-0.810014009476,0.897189021111,-0.110439002514,-1.13371503353,-1.17250299454,0.0101929996163,-0.333703011274,0.965189993382,0.245287999511,-0.974485993385,-0.0346099995077,0.593529999256,0.749107003212,-0.0459069982171,-0.436206996441,-0.039781998843,0.143972992897,-1.64669597149,0.606828987598,-0.532386004925,-1.27482104301,-2.04850506783,0.141182005405,-1.5412800312,0.96882802248,0.0517969988286,-0.817510008812,0.0677049979568,-0.932887017727,-1.60102403164,-0.750111997128,0.568138003349,0.749539971352,-0.56586098671,-0.617850005627,1.7110209465,1.07838201523,-0.167867004871,-0.439538985491,0.895910978317,-0.168708994985,1.60578203201,-2.00745201111,-0.355482012033,-1.12710797787,-0.46551400423,0.846029996872,-0.18388299644,-0.39162799716,0.0918380022049,2.24155688286,0.144485995173,1.27628004551,1.69798696041,0.859516978264,-1.90242004395,0.818295001984,0.800674974918,-0.0769160017371,-0.176530003548,-0.401838988066,0.0534950010478,0.720883011818,-1.16212797165,0.209365993738,1.32106697559,-1.4213269949,-0.124204002321,0.33593198657,-0.363671988249,0.735617995262,0.277139991522,0.570894002914,0.802775025368,1.34719204903,-0.5625680089,0.773944020271,-0.606790006161,0.602358996868,-0.452903002501,0.562373995781,0.261729001999,-0.443535000086,0.437730997801,1.2289390564,0.0245859995484,1.49759495258,-0.556379973888,-0.380414992571,-0.575991988182,2.34675693512,-0.432516992092,1.89518094063,0.202692002058,0.750036001205,0.707261025906,1.22655296326,0.362421989441,-0.268249005079,-2.12154006958,0.449458003044,-0.115771003067,0.971100986004,2.16799211502,-0.819848001003,-0.0221779998392,0.167480006814,-0.593110978603,-0.77695697546,-0.268435001373,-0.387010991573,-1.30043697357,0.217356994748,0.332834988832,-3.45524692535,0.239708006382,-0.51006102562,0.225729003549,-0.774351000786,1.15107500553,-1.65600395203,-1.24042797089,0.0387220010161,-0.767066001892,0.439673006535,-0.0568769983947,1.37088000774,0.366194993258,-0.527881026268,0.875648975372,-0.903563976288,0.483520001173,1.11172699928,0.046034000814,3.27095007896,-0.321538001299,-0.612830996513,-0.252357006073,-1.70258295536,0.110711999238,0.803133010864,-1.81192600727,1.05715298653,-0.517066001892,-0.697394013405,0.0105360001326,1.11909794807,-0.932789981365,-0.493636995554,-0.942170977592,-0.115285001695,-1.43997299671,-0.705820024014,2.34331989288,1.47542500496,0.868636012077
面板,-0.771571993828,0.809933006763,0.854151010513,0.283603012562,1.18882405758,0.4780189991,0.452078014612,-0.957190990448,0.913443028927,-0.143537998199,-1.61881303787,0.8075709939,-0.779766023159,-0.114946998656,-0.0937170013785,-1.24210703373,0.274480998516,-0.00870199967176,-0.109357997775,-0.477896004915,-2.27350902557,0.0781209990382,0.315014988184,0.593527019024,-0.625760018826,0.708158016205,-0.734169006348,0.863210022449,-0.755465984344,0.43843498826,-0.526475012302,0.398512005806,-0.157174006104,-1.16702198982,0.949325978756,1.37765800953,-0.0418009981513,-0.748313009739,0.0158210005611,0.0262739993632,1.25130796432,-1.00622797012,-0.591893017292,-0.732025027275,0.0824609994888,0.890398025513,0.553219974041,-0.209006994963,-0.394591987133,0.167594999075,-0.0959850028157,0.38125500083,0.500851988792,0.347075998783,-0.803285002708,1.1930090189,0.602239012718,-0.670758008957,-0.562797009945,0.667329013348,-0.691109001637,0.020367000252,-1.22704994678,-0.438125997782,-0.0843089967966,0.491676986217,0.0136860003695,-0.567803025246,0.629278004169,-0.669974982738,-1.76641404629,-0.064580000937,0.811435997486,0.991567015648,-0.441790997982,0.181069999933,1.13207995892,-0.629024028778,0.07364500314,0.179479002953,-0.463817000389,-0.936541974545,-0.0322489999235,-0.0501740016043,0.581264019012,-1.18008100986,0.280936002731,0.120320998132,0.630541980267,-0.382573008537,0.481117993593,0.489921987057,0.442663997412,0.954207003117,0.210956007242,-0.0914200022817,0.310330986977,0.822789013386,-0.532814979553,-0.262650996447,0.645476996899,0.389528006315,-0.613505005836,0.618153989315,-0.44726100564,0.0854210034013,0.858206987381,-0.0218829996884,-0.0773409977555,-0.30745100975,-0.19308899343,-1.72140204906,-0.310505986214,0.18805000186,-1.0497469902,1.44014000893,1.02844405174,-0.467705011368,0.659528970718,0.323435992002,0.113788001239,-1.04415297508,-0.317750006914,-0.180820003152,0.281545996666,0.742556989193,-1.40529298782,0.0486299991608,-0.108511000872,-0.123159997165,0.186234995723,-1.42154502869,-1.02870798111,-0.156238004565,-0.200126007199,0.053300999105,-0.390854001045,-0.313546001911,0.398658007383,0.0742029994726,-0.170576006174,-0.222395002842,0.663233995438,-0.226841002703,0.293354988098,-0.368045002222,-0.307482004166,-0.887646019459,0.162526994944,-0.67362600565,-0.281208008528,0.377957999706,0.053993999958,-0.237085998058,-0.22265599668,0.0295690000057,0.76036798954,0.125832006335,-1.3975110054,-0.21991699934,-0.701656997204,-1.27702605724,-0.421867996454,-0.452239990234,-0.0570520013571,0.300686985254,0.281859010458,-0.107520997524,-1.32158899307,-1.30133199692,-0.922423005104,0.02208600007,-1.01283502579,0.551567018032,1.57583498955,1.14285194874,1.45257496834,0.613920986652,0.37077999115,0.661980986595,-0.68586397171,0.0708879977465,-0.784542024136,-0.896472990513,-0.309069007635,0.321096986532,0.206126004457,0.284051001072,0.150778993964,-0.20279699564,0.332590997219,-0.111446000636,-0.582507014275,0.703836977482,-0.460667997599,-0.879088997841,0.674498975277,-0.265087008476,0.0743800029159,1.03517997265,-0.492399990559,-0.346423000097,-0.052149001509,-0.319173008204,-0.0892930030823,1.15728795528,0.548252999783,0.0219960007817,-0.174465000629,1.48424100876,0.129393994808,-0.144302994013,1.46009194851,-0.152549996972,0.944378018379,0.430094987154,0.049088999629,-0.0346020013094,1.32597696781,-1.27084100246,-0.436021000147,-0.439262002707,-0.436762005091,-0.628040015697,0.419436991215,-0.918067991734,1.11445200443,0.281516999006,-0.76342099905,-0.0862590000033,0.0310219991952,0.675926983356,0.478974014521,-1.20039200783,0.440991014242,-0.683775007725,-0.0954639986157,-0.67577201128,-0.0401600003242,-0.173677995801,-0.46846601367,-0.112681999803,-0.299093991518,0.979606986046,-0.111918002367,0.371619999409,0.239471003413,0.0556120015681,0.413448989391,0.0640790015459,-0.429361999035,0.556728005409,1.09346103668,0.372180998325,-0.0036689999979,-0.35184699297,0.678763985634,0.0635539963841,0.647418022156,1.4096750021,0.192625999451,0.491367995739,0.25840100646,0.413430005312,-0.604686975479,-0.897853016853,0.568626999855,-0.194269999862,-0.83258998394,0.865464985371,0.711160004139,-1.5665730238,-0.336820989847,0.707598984241,-0.173737004399,0.229111999273,-0.827346980572,-0.296108007431,0.572534024715,0.0518239997327,-0.150910004973,0.704685986042,0.632831990719,0.350995987654,-0.534860014915,0.684487998486,0.100350998342,-0.137398004532,-0.454100012779,0.349983990192,-1.02809298038,0.523622989655,-0.936613976955,0.230871006846,0.571651995182,0.418361008167,-0.0851579979062,-0.726163029671,0.673435986042,0.638435006142,1.02291703224,0.418213993311,-0.34197100997,0.733550012112,-0.257865995169,0.967436015606,-1.11371695995,-0.652661979198,0.260482996702,1.49755704403,-0.417726010084,-0.530633985996,0.358343988657,-0.245488002896,0.184798002243,0.00920199975371,0.290311008692,0.220249995589,0.661997020245,0.557170987129,0.0564530007541,0.278952002525,-1.00839602947,-0.805476009846,0.0521240010858,0.820640027523,0.0858220010996,-0.171011000872,-0.106643997133,0.46569699049,0.655475974083,0.449901014566,-0.896978974342,-0.161680996418,0.651000022888,-0.51738101244,-0.41710498929,1.39689695835,1.09530603886,0.399109989405,0.315999001265,0.885079026222,0.536471009254,0.453119009733,0.415435999632,0.0224900003523,-0.394888013601,0.50725799799,0.484355986118,0.957131028175,-0.277188003063,0.624293982983,0.742200016975,-0.112947002053,0.011106999591,-0.631718993187,0.473852008581,0.140580996871,-0.413161993027,0.932223021984,-0.375710994005,-0.884221971035,-0.888132989407,0.527276992798,-0.203586995602,-1.24798905849,0.0673329979181,-0.969027996063,-0.301596999168,-0.365815013647,-0.350165009499,0.349810987711,0.488573998213,0.492774993181,-0.690883994102,0.0751850008965,-0.449133008718,-0.442003011703,-0.907051980495,0.425756007433,-0.107121996582,-0.452594012022,1.32567799091,0.515774011612,-0.917160987854,-1.20895195007,0.136460006237,-0.948861002922,-1.01195502281,0.170424997807,-0.730820000172,-0.655857980251,-0.0550980009139,0.0713810026646,1.52169299126,0.0254379995167,-0.706407010555,0.63109600544,0.765895009041,0.176080003381
