word,0,1,2,3,4,5,6,7,8,9,10,11,12,13,14,15,16,17,18,19,20,21,22,23,24,25,26,27,28,29,30,31,32,33,34,35,36,37,38,39,40,41,42,43,44,45,46,47,48,49,50,51,52,53,54,55,56,57,58,59,60,61,62,63,64,65,66,67,68,69,70,71,72,73,74,75,76,77,78,79,80,81,82,83,84,85,86,87,88,89,90,91,92,93,94,95,96,97,98,99,100,101,102,103,104,105,106,107,108,109,110,111,112,113,114,115,116,117,118,119,120,121,122,123,124,125,126,127,128,129,130,131,132,133,134,135,136,137,138,139,140,141,142,143,144,145,146,147,148,149,150,151,152,153,154,155,156,157,158,159,160,161,162,163,164,165,166,167,168,169,170,171,172,173,174,175,176,177,178,179,180,181,182,183,184,185,186,187,188,189,190,191,192,193,194,195,196,197,198,199,200,201,202,203,204,205,206,207,208,209,210,211,212,213,214,215,216,217,218,219,220,221,222,223,224,225,226,227,228,229,230,231,232,233,234,235,236,237,238,239,240,241,242,243,244,245,246,247,248,249,250,251,252,253,254,255,256,257,258,259,260,261,262,263,264,265,266,267,268,269,270,271,272,273,274,275,276,277,278,279,280,281,282,283,284,285,286,287,288,289,290,291,292,293,294,295,296,297,298,299,300,301,302,303,304,305,306,307,308,309,310,311,312,313,314,315,316,317,318,319,320,321,322,323,324,325,326,327,328,329,330,331,332,333,334,335,336,337,338,339,340,341,342,343,344,345,346,347,348,349,350,351,352,353,354,355,356,357,358,359,360,361,362,363,364,365,366,367,368,369,370,371,372,373,374,375,376,377,378,379,380,381,382,383,384,385,386,387,388,389,390,391,392,393,394,395,396,397,398,399
处于,0.533671975136,-0.186492994428,0.385670989752,-0.505394995213,0.290354013443,-1.27431297302,0.236323997378,-0.0226930007339,0.692156970501,0.683655977249,0.603287994862,-1.51413595676,-0.621318995953,-2.55701088905,2.74450802803,-1.36659002304,-0.114715002477,0.855764985085,0.744911015034,-1.15441405773,-0.356871008873,0.588910996914,-0.448256999254,0.0830970034003,2.91683006287,-2.93425011635,-0.923412024975,0.707041025162,-0.415618002415,-0.713587999344,-0.288747996092,-1.40446197987,-3.04086709023,-0.741427004337,-0.962527990341,0.214770004153,1.37323594093,-0.178662002087,-0.443569004536,1.01894402504,-2.12631511688,0.553735971451,-1.22039103508,-1.19511699677,0.60269600153,-0.0414559990168,0.106265000999,-1.01385402679,-0.000968999986071,-0.37079000473,-0.0859140008688,-1.68725204468,-0.235183000565,0.811285018921,0.998796999454,-0.698469996452,0.0563290007412,-0.568987011909,0.294447988272,1.28854203224,0.575511991978,-0.32503798604,-0.917098999023,0.290661007166,-0.823759019375,-0.584743022919,-0.79206097126,0.479285985231,-0.239543005824,0.598842978477,1.82420194149,0.40881100297,-1.08309602737,-0.82798397541,-0.685371994972,-0.8325330019,1.8045539856,0.538589000702,-0.809828996658,-1.26197195053,0.20324100554,-0.874370992184,-1.25885796547,-0.571610987186,0.0518379993737,0.909012019634,0.851080000401,-0.0810849964619,-1.34440803528,1.76375102997,0.889783978462,1.90653002262,-0.149393007159,-0.107323996723,-1.14903199673,-2.00527596474,1.30279099941,-0.333885997534,-1.22954297066,-0.530336976051,0.981041014194,0.400472998619,-0.764087021351,1.66713094711,-1.97807705402,-2.07221508026,-0.121788002551,0.029633000493,1.16347098351,0.185311004519,2.77729701996,-0.125042006373,-2.04216790199,-0.46123701334,2.8979640007,-1.33220005035,-0.170535996556,-0.4256080091,-1.49936795235,0.43795800209,-0.475219994783,-1.79064905643,-0.678438007832,-0.0493590012193,-0.575272023678,-0.50724697113,-0.768306970596,-1.24688601494,-0.513965010643,-0.929352998734,-1.38554596901,0.452600985765,-0.891022980213,-0.26355099678,0.214103996754,-0.0479199998081,-0.696579992771,-1.30986702442,0.961076974869,0.243077993393,2.05515503883,0.670980989933,-1.47551894188,0.267852991819,1.37860703468,-2.37790608406,1.84634304047,1.03415894508,-0.484277009964,-1.14894497395,0.659186005592,-0.549149990082,-1.17470097542,2.22066092491,1.89764797688,-1.30648601055,-1.66250300407,0.473549991846,0.111147001386,-0.934130012989,0.740833997726,-0.241358995438,-0.840070009232,0.0960199981928,-0.0807730033994,0.585156977177,0.790997028351,0.479539990425,0.287945985794,1.06790304184,2.13710403442,-0.200670003891,0.991900980473,0.678496003151,-0.971521019936,-1.44978797436,0.870657026768,1.26366198063,1.56597101688,2.15940189362,0.292782992125,2.47673106194,1.18410801888,-0.76849001646,-0.748834013939,-0.447026997805,0.303903996944,1.35592198372,-0.451011002064,0.798367023468,0.759616017342,1.68652403355,2.59984707832,0.227629005909,0.0761879980564,0.58233499527,1.08860397339,0.205373004079,0.281114012003,-0.322894990444,1.4571210146,-1.18136894703,-1.48366200924,0.86488199234,0.135658994317,-0.781992971897,-1.25390803814,0.636406004429,0.0986789986491,2.53769397736,1.3491820097,-0.0252269990742,1.36508595943,1.04546296597,2.467015028,0.488213002682,-0.493481010199,1.50659096241,-0.817139983177,0.404107987881,-2.54811811447,0.156807005405,1.82416796684,-2.17990589142,-0.662459015846,-1.36032104492,-0.347734987736,0.717402994633,-1.3107830286,-0.634121000767,-1.80906999111,1.36900794506,0.236264005303,0.716370999813,0.433176994324,0.490500003099,0.277150005102,-0.253587990999,-0.0280740000308,0.480621010065,-0.179012000561,2.02060890198,0.500690996647,0.229339003563,0.473659992218,0.989623010159,-0.834976017475,-0.557465016842,-1.42310798168,-0.00180099997669,1.68073904514,0.387921988964,-1.89221704006,-1.63353395462,-0.852989017963,2.48147702217,-0.148249998689,0.301690995693,0.119722999632,2.49776005745,-1.05577003956,0.161712005734,-0.23550799489,1.77676796913,-1.91370797157,-1.10802197456,-0.341241985559,1.56439900398,-0.807645022869,-0.164136007428,1.91756296158,0.736947000027,-1.7026720047,2.25468611717,-0.227164998651,0.459024995565,-1.08421194553,-1.99232494831,-0.0159019995481,-1.56381201744,0.272426009178,-1.55663204193,1.12777495384,1.54456996918,1.67539298534,-0.478136986494,-1.0774589777,0.0231780000031,-0.10021699965,0.177149996161,0.224164992571,0.478150010109,-0.476469993591,-0.843796014786,0.533895015717,1.29034304619,-0.288953989744,2.36499500275,-0.067930996418,1.06217396259,-0.483498990536,1.75250196457,-0.0331659987569,-1.04633700848,-0.380452990532,-2.71646595001,-1.98656201363,-0.821617007256,0.409074991941,-0.0680039972067,0.375046014786,-1.17552304268,2.25371694565,-0.730048000813,-2.03155303001,0.834846973419,-2.8027279377,0.344574004412,-0.501892983913,-1.69353103638,-0.405717998743,-0.472202986479,-0.628096997738,1.37367105484,0.649618983269,0.698355019093,0.140229001641,-0.175374999642,-3.28714799881,1.44733595848,-0.370855987072,-2.01462101936,-0.855720996857,-0.0299200005829,1.68709599972,1.16303300858,-0.808786988258,-0.539195001125,0.0164420008659,-0.75273001194,1.07990002632,0.811489999294,0.301589995623,-0.69185000658,1.37000000477,-0.629198014736,-1.65720105171,2.60278511047,0.966771006584,1.09384596348,-0.619195997715,-0.323484003544,-0.225314006209,-0.165130004287,-1.13271403313,-1.62021100521,-0.0853179991245,-0.181029006839,-1.83407902718,0.214168995619,-0.669470012188,0.0140490001068,-2.97750711441,0.927758991718,0.00741400010884,-3.17862296104,-1.25230300426,0.105800002813,-0.213956996799,-1.25991499424,0.0149720003828,0.239320993423,0.347678005695,0.284918010235,-2.24938011169,-2.17514896393,-0.550125002861,-1.86407697201,-0.781237006187,-1.44764697552,0.271445989609,1.5297369957,-0.139386996627,1.05472397804,0.598462998867,-1.88601195812,-2.47019290924,-0.402949005365,0.518934011459,2.99333405495,2.29306697845,-0.0582939982414,1.34856700897,-0.110063999891,1.64880597591,-3.4310541153,0.967476010323,-0.640904009342,0.842298984528,-0.68923997879
控制,0.345604985952,1.04134297371,0.36560100317,1.27532601357,0.755509018898,0.0652529969811,3.40584993362,-1.94924402237,2.29940009117,-1.81378996372,-0.536315977573,-0.846255004406,-0.451680988073,0.729696989059,1.27012395859,-1.63223397732,-1.02743804455,0.153926998377,-1.31453597546,-0.508243024349,-0.835780978203,0.984863996506,-1.78775703907,-1.40846097469,0.413619011641,1.66772997379,-0.697995007038,1.97853195667,-0.534842014313,1.29988503456,-0.413439005613,-0.95842397213,-0.111473999918,1.56417894363,0.102316997945,0.260488986969,0.0424229986966,-1.41774404049,-0.407476991415,0.270581007004,0.834761977196,0.372765004635,-0.589972019196,-1.63376498222,-0.650448024273,2.06843400002,0.835117995739,0.0876300036907,-0.0957259982824,-0.015072000213,-0.0871340036392,0.404009997845,-0.5107640028,0.817432999611,0.271591991186,0.136776000261,-1.16847097874,-1.4452290535,1.26580798626,1.54192495346,-0.620396018028,-0.792500972748,0.172762006521,-1.63912498951,0.53701800108,-0.380172014236,-0.346756011248,0.239673003554,-0.101925000548,0.888244986534,0.217051997781,1.12452197075,0.112093999982,-0.0403800010681,-0.430941998959,1.77414596081,1.64364504814,-2.71538996696,-0.931652009487,0.315459996462,0.907114028931,0.415295988321,0.715067028999,0.14284799993,0.132079005241,0.562088012695,1.26757001877,2.32600498199,1.18108999729,0.609023988247,0.819216012955,-1.00490295887,-0.159495994449,0.261308014393,0.918081998825,-0.999364972115,-0.564211010933,1.66471004486,-0.093135997653,-0.944495022297,0.811164975166,-1.29382801056,-1.55620598793,0.655844986439,-2.59373998642,-1.53340196609,-1.17677497864,-0.943996012211,0.645874977112,-1.78607499599,0.80257999897,-3.03844594955,-1.28415501118,0.799709022045,1.19213402271,-0.254640996456,1.88562405109,1.26632797718,-0.299814999104,0.932470023632,-1.74113595486,0.368447005749,1.83333599567,-1.41544997692,-0.764805972576,0.749558985233,-1.10601699352,-2.28707909584,-0.379642009735,-0.28482401371,-0.212704002857,-0.590804994106,-1.65364694595,1.16831099987,0.765761017799,1.20459198952,-1.0251480341,0.325242012739,1.06679701805,0.893993973732,-1.16209602356,2.33443498611,0.314799010754,-2.38077402115,0.715153992176,-1.4464520216,0.890881001949,0.292145013809,-0.753316998482,-1.45211696625,1.72512495518,-0.218722999096,-1.25304400921,0.999346017838,1.28568804264,-0.389310985804,0.416364014149,0.646677017212,-0.138835996389,1.05760002136,-1.38683497906,0.206862002611,-1.63529896736,-0.060056000948,-1.86863303185,0.901247024536,1.53492605686,-0.330383002758,-0.388983011246,1.43739104271,2.18785095215,-0.303339987993,0.550508022308,1.2121629715,0.694384992123,0.443450003862,0.216407001019,0.235375002027,-0.414415985346,0.740963995457,-0.302915006876,1.38105905056,0.57858902216,-1.37833797932,-2.259360075,0.658357977867,0.879891991615,0.0714209973812,1.20101201534,0.932179987431,-0.463452011347,-0.00461299996823,1.58623695374,0.0115809999406,-0.984076023102,-1.61346399784,0.001719999942,-1.95019102097,1.91814005375,-0.351931005716,0.848612010479,-0.199448004365,-2.45056891441,0.574141025543,-1.12775397301,-0.497942000628,-0.520085990429,0.740019977093,-0.828233003616,1.66421294212,-0.828018009663,-0.972998976707,2.43822193146,-1.29460394382,1.11772298813,0.981590986252,-0.630720973015,0.0371420010924,0.395974993706,-1.59338998795,2.26238894463,1.05570399761,2.09908008575,0.754010021687,1.77013802528,-0.217610999942,1.05524194241,-0.813903987408,-1.25270795822,-0.273925989866,-0.836811006069,-0.725911974907,0.0733750015497,-1.72741794586,0.710722982883,-0.0423149988055,0.933838009834,0.450237989426,0.703076004982,0.343560010195,1.01393294334,-0.453097999096,0.676666975021,-0.34566500783,-1.06218898296,0.670113027096,1.1044549942,0.668998003006,1.01270699501,1.31132805347,-1.78776896,2.30310702324,-0.276488989592,-0.513239979744,-2.13756108284,1.1520229578,0.654421985149,0.248113006353,0.132694005966,2.94511890411,-0.157132998109,0.483491003513,-1.10619795322,-0.0435639992356,-0.895757973194,0.382412999868,0.917473018169,0.469889998436,0.657666027546,0.541833996773,-1.07172203064,0.0357440002263,-0.434659004211,0.471486985683,-0.50245398283,1.28274095058,-0.476915001869,-0.882416009903,-0.271748006344,0.945367991924,-0.534839987755,0.349839985371,0.632116019726,0.388141989708,-1.27760899067,0.515582025051,1.46312499046,-0.447207987309,0.209829002619,-0.564593017101,-0.531790971756,0.577243983746,-1.08378696442,-2.66056394577,1.04466199875,1.90866994858,0.480497986078,1.9412779808,-0.374803006649,0.415407001972,0.0705519989133,0.877170979977,0.461082994938,0.274670988321,-0.464551985264,-1.12825095654,-0.0648489966989,0.160328999162,-1.37140202522,0.28313100338,-1.24293398857,-1.12333798409,0.88383102417,-1.00134301186,0.47452300787,-1.96262395382,-0.48530998826,-0.146149992943,1.01842701435,-0.822115004063,-0.304040014744,0.533490002155,-1.08287894726,2.3508849144,0.0416550002992,1.13085901737,-0.469312012196,-2.75041604042,0.561320006847,-0.521842002869,-0.464751005173,1.05195999146,0.0276590008289,-0.942736983299,2.73641300201,-0.465685993433,1.04988503456,0.327316999435,-1.98631000519,0.0555090010166,-1.62166905403,0.835039973259,-0.34699100256,-0.132636994123,0.525622010231,-1.23103797436,-0.512694001198,0.232936993241,-0.606809020042,-1.75456905365,-0.861948013306,0.548538982868,2.73950600624,0.262441009283,1.10501897335,-0.944737017155,-0.646673977375,1.54407298565,-1.3804910183,1.48536396027,-1.02296102047,-1.20867705345,-0.517633974552,0.198952004313,-0.427152991295,-1.32764101028,-1.45705997944,0.215110003948,0.789901971817,-0.782593011856,-0.012761999853,0.420657992363,0.261135995388,-0.0476940013468,-1.24024498463,0.0545249991119,0.188791006804,-2.11883997917,-1.21197998524,-1.3135279417,0.609218001366,0.604104995728,0.0636999979615,0.545076012611,0.48547399044,-0.851635992527,-1.3634159565,1.02166795731,-2.56673693657,0.127837002277,0.444431006908,3.55977988243,-0.547309994698,-0.112415000796,0.00014899999951,-0.970112025738,2.20011711121,1.0871809721,0.532052993774,-0.0535060018301
传感器,-0.238477006555,1.42622005939,0.833492994308,-0.39571800828,1.70277202129,0.231702998281,0.870696008205,-1.81065201759,0.47410300374,-0.275299996138,-1.53605401516,1.1684499979,-0.594742000103,0.0929699987173,-0.629351973534,-1.33627998829,-0.0793519988656,-0.55036598444,-1.21240103245,-1.05127501488,-0.784192025661,0.0509309992194,-0.866014003754,0.261045992374,0.259014993906,0.265935987234,-0.403373986483,1.05368494987,-1.24408495426,0.056154999882,-0.662333011627,-0.385634988546,-0.11967100203,-0.160040006042,0.433160007,1.03168094158,0.296916991472,0.0957140028477,0.111532002687,0.522307991982,1.36757099628,-0.796177983284,-1.55255401134,0.00406799977645,0.329827010632,0.825555026531,-0.20610499382,-0.469442009926,0.382450997829,0.018764000386,1.08758401871,-0.576888978481,-0.28037700057,0.0376969985664,-1.29865503311,0.830799996853,0.741280019283,0.0114120002836,-1.60061395168,0.683107018471,-1.10907399654,-0.125405997038,-1.02251303196,-0.339208990335,0.5776039958,0.621267020702,-0.501617014408,-0.688790023327,0.712531983852,0.616500020027,-1.15983498096,-0.0669569969177,0.32271900773,0.835023999214,-0.722109019756,1.14397203922,1.44079101086,-0.287609010935,-0.511346995831,-0.0404670014977,-0.522390007973,-0.743435025215,0.236852005124,0.349429994822,0.152591004968,-0.129747003317,-0.888764977455,-0.227975994349,0.672437012196,-0.883379995823,0.718533992767,-0.416954010725,0.157211005688,0.810782015324,0.81482899189,-0.162269994617,-0.186807006598,1.71255004406,-0.599933028221,1.21686804295,1.13509702682,0.347773998976,-0.0927700027823,0.364275991917,0.11456400156,-1.25762403011,0.00645099999383,-0.761790990829,0.74611800909,0.273070991039,0.187202006578,-1.50548100471,-0.77443999052,0.660812020302,-0.299943000078,0.733590006828,1.48125398159,-0.258183985949,0.393992990255,0.4854170084,0.139480993152,-1.94381999969,0.475243002176,-0.0618930011988,0.431746989489,1.68840897083,-1.0215959549,0.212733000517,0.206826999784,-0.087938003242,0.118432000279,-0.998964011669,-1.13779997826,0.323612987995,-0.96219098568,0.500117003918,-0.13091699779,-0.509009003639,0.23424500227,0.752681016922,0.199009999633,-0.309991002083,-0.861644983292,0.417376995087,0.0890460014343,-1.19179403782,-0.788958013058,0.0226039998233,-0.0694629997015,-1.81807696819,0.907178997993,-0.174741998315,0.270399987698,-0.419503003359,0.181161001325,-0.204348996282,0.0674920007586,-0.0265970006585,-0.479534000158,1.06599199772,-0.396827995777,-2.21285295486,-1.02866101265,-0.891582012177,0.746599972248,-0.307419002056,-0.514256000519,-0.266613006592,-1.49692797661,-1.70809805393,-0.25859901309,-0.348894000053,-0.689150989056,-0.771595001221,0.404911011457,0.495353013277,0.151877000928,-0.343089997768,0.252903997898,0.954141020775,-0.820209026337,0.588065981865,-1.09260594845,-1.3394010067,-0.998368024826,0.264414012432,0.124022997916,0.141827002168,0.199029996991,-0.625369012356,1.22262394428,0.0448459982872,0.150002002716,0.959770023823,-0.259216010571,-0.182346999645,0.56579297781,-0.046578001231,0.629137992859,0.601535022259,-0.0572400018573,0.0744149982929,-0.597339987755,-0.548699021339,-0.215059995651,0.658661007881,0.791015982628,1.58927702904,0.000409000000218,1.97458004951,0.0375320017338,-0.306632995605,1.63543105125,-0.64437097311,0.931059002876,0.334116995335,-0.4455049932,-0.439141005278,0.775609016418,-1.13667500019,0.187285006046,0.641071975231,0.782325983047,-0.939287006855,0.416065990925,-1.0858219862,0.00781800039113,-0.632869005203,-0.44142600894,0.000407000014093,-0.605931997299,0.130505993962,0.856073021889,-2.05689692497,0.719142973423,-0.504846990108,-1.08113396168,-0.440017014742,0.289570003748,-0.634483993053,-1.13213896751,0.405584990978,0.637006998062,0.317844003439,-0.787878990173,0.124885998666,0.105025999248,-0.184773996472,-0.425509005785,-0.700640022755,-0.0341829992831,0.669057011604,0.929472029209,-0.261072009802,0.174144998193,-0.593573987484,1.02071201801,-0.251601994038,1.42675101757,1.58306705952,-0.172638997436,-0.585918009281,0.308346986771,0.23015999794,-0.416536986828,-1.05308103561,0.639304995537,1.02442097664,-1.04789495468,0.309567004442,0.136085003614,-1.71630394459,-0.707077980042,0.387232005596,0.788775980473,1.04816401005,-1.10782396793,-0.535243988037,0.760201990604,-0.414566993713,-0.474637985229,0.0385899990797,0.916749000549,0.588631987572,-0.0786139965057,0.29618498683,0.0756060034037,-0.991447985172,-0.529992997646,0.265707999468,-0.161909997463,0.969581007957,-0.691440999508,-0.258311003447,0.843075990677,0.605708003044,0.676922023296,-0.473531007767,-0.385455995798,0.934157013893,-0.000887000001967,-0.149857997894,-0.610370993614,-0.734686017036,0.190998002887,0.215324997902,-0.998188018799,-0.0625839978456,-0.185477003455,0.921805977821,-1.20288705826,-0.53956502676,-0.0181799996644,-1.07964599133,-0.34988000989,0.277042001486,-0.554480016232,-0.802488982677,0.682905972004,0.722477972507,0.104235000908,0.127039000392,0.637567996979,-0.275902986526,0.520164012909,-0.147841006517,0.11885599792,-0.561689972878,-0.389243990183,0.484659999609,0.365810006857,-0.740916013718,-0.944805026054,-1.12767601013,0.84249997139,-1.05616700649,-0.315418988466,0.611537992954,0.746281981468,-0.650767028332,-0.0394699983299,0.387066990137,0.519030988216,-0.792843997478,0.223401993513,0.16627599299,0.0402880012989,0.526817977428,0.312709987164,-0.438630998135,-0.329041004181,0.984706997871,0.490559011698,-0.269917011261,-0.509460985661,-0.932339012623,0.860357999802,0.765736997128,-0.655197024345,0.705914974213,-0.256790012121,-0.391229003668,-1.48450505733,0.947566986084,-0.184466004372,-1.3097820282,-0.212070003152,0.161109000444,-0.281933009624,-0.460061013699,-0.774362027645,0.451256990433,1.01855897903,1.32615399361,-0.357874006033,-0.866347014904,-1.3304040432,-0.503889977932,-0.870788991451,-0.376870989799,-0.723397016525,0.15756200254,1.27620398998,0.605049014091,-0.291238993406,-2.45216989517,0.5904520154,-1.72822201252,-2.52030706406,0.516553997993,0.437988013029,-0.511765003204,-0.638602018356,0.305900990963,-1.0792529583,-0.0695270001888,1.63601100445,0.550162017345,-0.192911997437,0.531009972095
油门,-0.111313000321,0.483538001776,0.317117005587,0.352252990007,0.843819022179,0.287600010633,0.833305001259,-0.395862996578,0.412003010511,0.596324026585,0.100639000535,-0.135382995009,-0.353127986193,0.137314006686,0.101804003119,-0.350008994341,-0.494040995836,0.100235000253,0.112444996834,-0.909143984318,-0.218569993973,0.23891800642,-0.197233006358,0.129794001579,0.530048012733,1.03458094597,-0.736003994942,0.540871024132,-0.690155029297,0.158665001392,-0.261707991362,-0.491412013769,0.571022987366,0.263832986355,0.0772520005703,0.956993997097,-0.0400810018182,-0.911071002483,0.130163997412,0.145625993609,0.8453130126,-0.111993998289,-0.498145997524,-0.175208002329,0.38656899333,-0.0584309995174,0.0504189990461,-0.00552000012249,0.0648299977183,-0.129776000977,-0.0171370003372,-0.335191994905,-0.0524410009384,0.599654972553,-0.319065988064,-0.432260006666,-0.129855006933,-0.691398978233,-0.287086009979,0.528778970242,-0.173631995916,0.281783998013,-0.380988001823,-0.0959270000458,0.128564998507,0.407454013824,0.215084001422,-0.984831988811,-0.0310190003365,-0.0929550006986,-0.136926993728,0.233829006553,0.153019994497,0.257041990757,-0.357948988676,0.630788981915,0.536261022091,-0.312837004662,0.304123014212,0.402720987797,0.00860099960119,-0.0063280002214,0.0130719998851,0.389057993889,0.376441985369,-0.482643008232,-0.12184099853,-0.000615000026301,-0.0859190002084,-0.362199991941,0.899765014648,0.673681020737,-0.0517949983478,0.538411021233,-0.00976500008255,-0.362632006407,-1.09725403786,0.766183018684,-0.637374997139,0.265399008989,0.146735996008,-0.153684005141,0.0492240004241,-0.0257879998535,-0.37230399251,-0.121834002435,0.0400919988751,-0.179505005479,0.112021997571,0.177603006363,-0.187940999866,-0.959706008434,0.121601998806,0.559835970402,-0.0264630001038,-0.136136993766,0.693603992462,-0.535956025124,0.092335999012,0.348758012056,-0.228410005569,-0.526530981064,0.284348011017,-0.324640989304,0.461468011141,0.61268901825,0.201906993985,-0.19285300374,-0.173860996962,-0.400644987822,-0.550468027592,-0.195019006729,-0.191028997302,0.315275996923,-0.231206998229,-0.0937670022249,-0.409543007612,-0.584568023682,0.527907013893,-0.392127990723,-0.104284003377,0.289258003235,-0.111208997667,-0.334174007177,0.0533509999514,-0.040082000196,-0.809691011906,-0.282738000154,0.0282029993832,-0.720892012119,0.194769993424,-0.572412014008,0.454984009266,0.335676014423,0.571331977844,-0.113558001816,0.0839819982648,-0.464345991611,-0.660420000553,-0.0726419985294,0.163682997227,-0.448832988739,-0.770977020264,-0.500424981117,-0.595107018948,0.72330302,-0.202994003892,-0.103090003133,-0.620391011238,0.224544003606,-0.0735120028257,-0.409036010504,0.154422998428,0.355554014444,1.0916030407,0.746761977673,0.283212989569,0.924808979034,0.138779997826,0.714190006256,-0.211384996772,0.248668000102,-0.534918010235,-0.186239004135,-0.588792026043,0.594045996666,0.287598013878,-0.0125050004572,0.191982999444,-0.046808000654,0.69391900301,0.0586199983954,-0.222995996475,0.120443999767,-0.0842700004578,-0.321642011404,0.302668988705,-0.820191979408,0.122417002916,-0.402052998543,0.766294002533,0.437931001186,-0.0800620019436,0.164625003934,-0.219714000821,0.137526005507,-0.11032500118,0.65813100338,-0.103830002248,0.349047005177,0.446215987206,-0.359611004591,-0.151532992721,-0.248584002256,0.292971998453,0.191192999482,-0.273927986622,-0.081715002656,-0.176705002785,-0.454109013081,-0.277961999178,-0.23688800633,0.523954987526,-0.485374003649,0.742031991482,-0.468957006931,-0.08195900172,-0.348398000002,0.033996000886,-0.389427989721,-0.044376000762,0.85159099102,-0.0594240017235,0.139239996672,0.639653980732,-0.0356499999762,-0.973695993423,-0.256464987993,0.0168130006641,-0.105907998979,-0.749397993088,0.416803985834,0.130279004574,0.0848869979382,-0.278243005276,0.146566003561,0.339980989695,0.218651995063,-0.271008014679,0.273734986782,0.0725829973817,0.678183019161,0.196338996291,-0.136123999953,-0.578715026379,0.491369009018,0.031849000603,0.14363899827,0.661623001099,0.308456987143,-0.363651990891,0.193026006222,0.225795000792,0.252467989922,-0.147517994046,-0.967960000038,0.151574000716,0.512731015682,-0.822694003582,-0.434630990028,0.319258987904,-0.371138989925,-0.38242200017,0.115915998816,0.367747008801,-0.179844006896,-0.754280984402,-0.35616800189,0.130021005869,0.567516028881,0.161928996444,0.761373996735,0.237929999828,0.161531001329,-0.31927600503,-0.276697993279,-0.0370809994638,-0.105331003666,0.0851349979639,-0.103000000119,0.179866999388,0.651571989059,0.0711759999394,-0.332242995501,-0.00282700010575,0.131941005588,0.408232986927,0.28647300601,0.0454120002687,-0.481164008379,0.0999889969826,0.0241119991988,-0.320232003927,0.0722120031714,0.894888997078,0.235127002001,-0.538675010204,-0.148846000433,-0.198639005423,-0.0754960030317,-0.491035997868,-0.455731004477,0.189447000623,-0.204692006111,-0.403293013573,0.0889689996839,0.226921007037,0.28863799572,-0.0696669965982,-0.125359997153,0.0545400008559,-0.18341499567,0.289793998003,0.447566986084,-0.134308993816,-0.0597900003195,-0.0766069963574,-0.601244986057,0.0727699995041,0.436435014009,0.580789029598,-0.744924008846,-0.555993020535,-0.151415005326,-0.292766988277,-0.4084880054,0.16845099628,0.560938000679,-0.0628430023789,0.122386999428,-0.500513017178,0.0970640033484,0.249101996422,0.3792540133,0.160211995244,-0.547766983509,-0.721216976643,0.360224992037,0.765119016171,-0.539816975594,-0.0901549980044,0.474640995264,-0.445311993361,0.735458016396,-0.541814982891,0.309754014015,0.595140993595,0.292281001806,-0.0350340008736,0.377279013395,-0.356195002794,-0.231609001756,-0.46519100666,0.462473005056,-0.55473202467,-0.18878300488,0.210403993726,0.125007003546,-0.119631998241,-0.187571004033,-0.0917190015316,0.315692007542,0.266591995955,-0.439267009497,0.0295400004834,-0.352034986019,-0.66494601965,-0.0838140025735,-0.96212297678,0.245443999767,-0.531535983086,-0.055636998266,0.742775976658,0.495101004839,-0.27710300684,-0.69734197855,0.195938006043,-0.271380007267,-0.793502986431,-0.152355000377,-0.0830219984055,-0.533937990665,0.206147000194,0.350874006748,0.311549991369,-0.651968002319,-0.202295005322,-0.0943839997053,0.502743005753,0.622680008411
检测,0.549852013588,1.72791194916,-1.07272398472,0.663006007671,2.22873497009,1.09652602673,1.09767794609,-0.513899981976,-1.61115598679,1.03357601166,-2.34521007538,1.27504396439,0.0760409981012,-1.20511901379,1.07919895649,-0.853226006031,-1.27776396275,-1.46277105808,0.590216994286,0.101772002876,-1.46172094345,1.20789802074,-0.491371005774,0.0804539993405,0.405333012342,1.66364502907,1.1391299963,0.842876017094,-1.40816104412,0.954645991325,0.924750983715,0.123966999352,-0.484892010689,-0.344357013702,0.588024020195,-0.00242800009437,1.59123301506,0.643552005291,-0.489369988441,0.562902987003,1.34775602818,-0.473637998104,-1.60932302475,0.292477995157,0.725834012032,-0.487901002169,-0.591295003891,-0.436700999737,0.831945002079,-0.626794993877,1.08739602566,0.437880009413,0.788394987583,0.660184979439,-0.683824002743,-0.0296739991754,-0.0287250000983,-0.790158987045,-1.29241502285,0.310212999582,-0.292308986187,1.1625289917,-1.39231097698,-0.0807820037007,0.221963003278,-1.06759595871,-0.571664988995,-0.214739993215,-0.999276995659,-0.728681981564,0.205860003829,-1.38677704334,0.632135987282,0.276073008776,-0.482811003923,1.72990298271,1.21399199963,0.406910985708,0.321411013603,-0.338997006416,0.473753988743,-1.22274398804,-0.237854003906,-0.866060018539,0.476397007704,-0.0163889992982,1.14579999447,-2.34656596184,1.1606400013,0.846533000469,0.281291007996,-1.97691595554,-0.326840013266,-0.81995600462,1.48925304413,-0.83143299818,0.121578998864,0.87636500597,0.386543005705,1.70173704624,1.19115400314,0.729611992836,-0.266914993525,1.35148799419,-0.09383200109,-1.74765396118,0.801728010178,-0.474770009518,0.953842997551,-0.304369986057,-0.940150022507,-2.96431899071,-0.793269991875,1.50222802162,-0.172217994928,0.608171999454,2.19262695312,0.271055996418,0.667734980583,1.6579400301,-0.361851990223,-0.313380002975,1.33524096012,-1.75579094887,-0.855035007,1.54167795181,-1.11301195621,-0.913739025593,-0.178489997983,1.29495799541,0.669421970844,-1.16350197792,-1.57148599625,0.348444014788,-0.0291460007429,2.60285401344,0.709349989891,0.102926000953,2.03475689888,0.000908999994863,1.4745579958,-0.15594600141,-0.8962200284,0.996887981892,-0.130624994636,1.64259505272,-0.845638990402,-0.514302015305,0.275873988867,-2.39841890335,0.526625990868,-1.09899604321,-0.536020994186,-0.507499992847,-0.0593839995563,0.723111987114,-0.0092470003292,2.02920103073,-1.32102501392,-0.771036982536,0.724128007889,0.248106002808,0.0609650015831,-2.54981708527,0.195864006877,0.1868250072,1.03736805916,0.776987016201,-0.702315986156,-1.26512694359,0.793326020241,-0.849870026112,0.723508000374,0.0835110023618,0.372128009796,0.77533197403,0.96934401989,1.07886195183,-0.863695979118,1.43891096115,0.269827008247,1.13012504578,0.0386309996247,-1.50865995884,1.06888794899,0.420037001371,0.220690995455,-1.01496303082,-0.998978972435,2.24394106865,1.2139070034,-0.0746570006013,1.32874798775,-0.455350995064,-1.16984295845,1.14452004433,0.805028021336,-0.826355993748,0.22693400085,0.626039028168,1.03258395195,-0.314628005028,-2.34108400345,0.125219002366,0.4940969944,-0.312451988459,1.27838802338,0.503966987133,0.0797199979424,1.63587605953,-0.772879004478,-0.82301402092,0.767436981201,-1.3988699913,0.265145003796,-0.596692979336,-0.772113978863,-0.321534991264,0.342779994011,-0.613095998764,0.866010010242,1.36558997631,0.624418020248,-1.03000104427,0.65320700407,-0.591189980507,-1.12028098106,0.0335489995778,0.746806025505,0.375546008348,-0.505558013916,0.470950007439,0.0535500012338,-1.43319702148,2.10086393356,-1.42521905899,-0.039374999702,0.231801003218,-0.0812250003219,-0.864859998226,0.241283997893,0.217607006431,0.0462879985571,0.727244019508,-1.18502402306,-0.0850289985538,-0.0816010013223,-0.683336019516,-0.389544010162,0.306095004082,0.812942028046,-0.239013001323,0.883412003517,-1.18731200695,-1.27440595627,-0.0162199996412,1.62341201305,-1.11107695103,0.820070028305,2.2349319458,-1.6611109972,0.422329992056,0.788097977638,-1.4632409811,-2.67797589302,-0.0889860019088,0.161377996206,-0.458451002836,0.259402990341,-0.781045019627,0.326229006052,1.3975110054,-0.407997012138,2.8005259037,0.60547798872,1.58318400383,-0.478255987167,-0.749673008919,-0.687129020691,0.167143002152,-1.55019199848,-0.310472011566,-0.285879999399,-0.724138021469,-0.786279976368,0.911544024944,0.108469001949,1.10489404202,-1.2185959816,-0.918704986572,-0.756287992001,0.980027019978,-0.797590017319,-1.10100698471,0.402657002211,1.88517796993,0.562501013279,-0.897849023342,-1.39751601219,0.123618997633,-0.170250996947,-1.06888699532,-0.725337028503,0.413058012724,-0.424495995045,-0.0840950012207,-0.373228013515,-0.62025898695,0.243365004659,1.06137394905,-0.0062339999713,-0.233161002398,0.15239199996,-1.04936599731,0.812012970448,-1.29247105122,1.26080596447,0.118707001209,0.950636982918,0.282887995243,0.279852002859,1.04117000103,1.02271902561,0.785695016384,-0.549902975559,-1.51867198944,0.0396310016513,-0.277826011181,-0.592952013016,1.22500097752,-0.230401992798,-1.50082802773,-1.5126760006,-0.636461019516,0.201855003834,-0.514438986778,1.18792104721,0.510260999203,0.831017971039,-0.806755006313,0.891290009022,1.29590904713,-1.6168589592,-0.484517008066,1.28168594837,-0.498001992702,-0.172464996576,1.94102799892,-0.467698007822,-0.520989000797,-0.713522017002,0.0988089963794,1.1721919775,0.0345119982958,0.948907971382,-1.00039100647,-0.492493003607,-0.415955990553,-2.56907105446,3.0569729805,-1.03944003582,-0.83086502552,-1.22990894318,0.94443500042,-1.07246994972,-1.80281102657,-0.963518023491,-0.149590998888,-0.22573299706,-1.27218699455,-0.357219994068,-1.39738595486,0.324180990458,1.40247499943,-0.869917988777,-0.210516005754,-1.56173801422,-2.27049088478,-0.156549006701,-0.385708004236,-0.0537559986115,0.758099019527,1.74814605713,-0.407249987125,0.907186985016,-0.265363991261,0.16271699965,-0.611078023911,-2.17900109291,-1.15847694874,-0.539726018906,-0.317016988993,-0.77866101265,-0.0134920002893,-0.668734014034,-0.735876023769,-0.565946996212,1.0024420023,-0.0584059990942,0.678578019142
使能,-0.168688997626,0.0212600007653,-0.072035998106,-0.115552000701,0.0443979986012,0.0839980021119,0.152596995234,-0.00651799980551,0.175387993455,-0.0856000036001,-0.117632001638,0.0262109991163,-0.0136399995536,0.0338959991932,-0.181317001581,-0.0118640000001,-0.0336360000074,0.0270259995013,0.0273899994791,-0.200969994068,0.00932500045747,-0.0884450003505,0.0969310030341,0.004834999796,0.187381997705,0.0736770033836,-0.236710995436,0.139321997762,-0.158961996436,-0.0778530016541,-0.0686340034008,0.121609002352,-0.190997004509,0.125128999352,-0.0417240001261,0.162912994623,0.0762580037117,-0.276145011187,0.15791900456,-0.0426530018449,0.0756879970431,-0.0528310015798,-0.0431969985366,-0.173638001084,-0.0852970033884,-0.116109997034,-0.115415997803,0.103629998863,-0.00696700019762,0.0316760018468,0.0372149981558,-0.18620300293,-0.134531006217,0.270442008972,-0.0304790008813,-0.00892100017518,0.0864349976182,-0.110735997558,-0.165782004595,0.267141997814,-0.0595720000565,0.0308570005,0.12282499671,-0.206817999482,-0.0900690034032,0.103990003467,-0.0862770006061,-0.201277002692,-0.0127370003611,-0.0108470004052,-0.0112020000815,-0.0579870007932,0.0606769993901,-0.158480003476,-0.0186030007899,-0.30547401309,0.0447890013456,-0.244173005223,0.0516230016947,0.199579000473,-0.171939000487,-0.17714099586,0.08643899858,0.115411996841,0.209575995803,-0.0769969969988,0.0111859999597,0.00419700006023,0.0296199992299,-0.269028991461,0.0765229985118,0.0724150016904,-0.0152599997818,0.257681012154,0.0641570016742,0.00520400004461,-0.0244280006737,0.00916699972004,-0.148232996464,-0.0995090007782,0.277581006289,-0.0488820001483,0.123058997095,0.0169229991734,0.0759169980884,-0.1270249933,0.0655430033803,0.152443006635,-0.16842199862,-0.025606000796,0.0484590008855,-0.425370007753,-0.00185200001579,-0.101714000106,0.063763000071,0.0413389988244,0.077991001308,-0.0316619984806,0.112462997437,0.019701000303,0.114171996713,-0.112855002284,-0.136617004871,-0.18299600482,-0.094656996429,-0.00370400003158,0.106755003333,0.072694003582,-0.0433269999921,0.00912499986589,-0.0544820018113,-0.222451001406,-0.0764160007238,-0.00754499994218,0.00635599996895,-0.127478003502,-0.0257890000939,-0.251064002514,0.113222002983,-0.0310689993203,-0.195267006755,0.00448800018057,0.00189700000919,-0.0130369998515,0.0332060009241,-0.168816998601,-0.0840319991112,-0.379087001085,-0.0416649989784,0.0466080009937,0.0816660001874,-0.0242459997535,0.00359799992293,0.0350570008159,0.153708994389,0.0430880002677,0.00693899998441,-0.0272199995816,-0.295704007149,0.012361000292,0.0148769998923,-0.222480997443,-0.0273100007325,-0.0911879986525,-0.087468996644,0.0721220001578,0.0528730005026,0.0155360000208,0.0710199996829,-0.149459004402,-0.18722499907,0.238818004727,-0.096952997148,0.171691000462,0.164597004652,0.0736540034413,0.00367100001313,0.163975998759,-0.0313519984484,-0.0094889998436,-0.225372999907,0.0736609995365,-0.00773400021717,0.0821510031819,-0.0225220005959,0.0591260008514,0.102084003389,0.0816499963403,0.014019000344,0.024095999077,0.177470996976,0.0499220006168,0.107780002058,0.18366099894,0.107837997377,-0.12569899857,-0.12705899775,0.0411010012031,0.029851000756,0.0963670015335,0.0280259996653,-0.101250000298,0.104096002877,0.0438180007041,-0.00967899989337,0.250784993172,0.0612599998713,0.173090994358,0.079786002636,0.0628010034561,-0.145916998386,0.0618809983134,0.00575699983165,0.171407997608,0.0176890008152,-0.048833001405,-0.0728709995747,-0.0728589966893,-0.0134880002588,-0.200253993273,0.0688289999962,0.0345220007002,0.133111998439,0.144718006253,0.119340002537,-0.0676420032978,0.0600619986653,-0.0588809996843,0.0845459997654,0.0243519991636,-0.0716810002923,0.0352890007198,-0.144884005189,-0.0825389996171,0.12732000649,-0.022779000923,-0.00159100000747,-0.203531995416,0.171728000045,0.0499930009246,0.0579329989851,0.140744000673,0.0654139965773,0.186607003212,-0.293541997671,-0.1157310009,0.00987599976361,-0.0553059987724,-0.127155005932,-0.143050998449,-0.106324002147,0.126704007387,-0.127684995532,0.0738580003381,-0.156035006046,0.117564000189,0.0234949998558,0.0240649990737,0.284741014242,0.0326049998403,-0.104578003287,0.00415399996564,5.99999984843e-05,-0.187934994698,0.0864970013499,-0.215102002025,-0.13349199295,0.11293400079,0.0171559993178,-0.313268005848,-0.00176100002136,-0.22759899497,-0.073738001287,-0.0173369999975,-0.130831003189,-0.12596000731,-0.2295909971,-0.332296013832,-0.131546005607,0.0146570000798,-0.0795930027962,-0.0192879997194,0.0748889967799,0.300485998392,-0.0193850006908,0.0705389976501,0.0766799971461,-0.0142160002142,-0.0747969970107,-0.0146549995989,0.0368259996176,0.0948150008917,0.0751509964466,-0.172254994512,0.200657993555,0.0469910018146,0.185960993171,0.00933299958706,0.256532013416,0.165193006396,-0.069780997932,0.197925999761,-0.101663000882,0.102733001113,0.172325000167,-0.0637509971857,0.0961159989238,0.014909000136,-0.156100004911,0.264313995838,-0.370418012142,0.021751999855,0.101038999856,0.0281210001558,0.129473000765,-0.159840002656,-0.160316005349,0.113868996501,0.0750859975815,-0.0411499999464,-0.0504969991744,0.0278619993478,-0.169608995318,-0.0657140016556,0.120195999742,0.171515002847,-0.0341899991035,-0.0698070004582,-0.0243200007826,0.339617997408,-0.0738039985299,-0.119065001607,-0.0304070003331,0.0842059999704,0.236085996032,-0.0214579999447,-0.0894720032811,0.0741230025887,-0.171070992947,-0.11913099885,-0.0158869996667,-0.00510000018403,0.134150996804,-0.204822003841,-0.0825930014253,-0.159219995141,-0.0971700027585,-0.0801310017705,0.0946360006928,0.0167570002377,-0.162738993764,-0.169075995684,0.00793899968266,0.000142000004416,0.077462002635,-0.0836699977517,0.197022005916,0.0804160013795,0.115575999022,0.0877420008183,-0.0596829988062,0.215076997876,0.0222319997847,-0.0753170028329,-0.116235002875,-0.0845640003681,-0.0855339989066,-0.209062993526,-0.230788007379,0.0699630007148,-0.0669270008802,-0.0966240018606,-0.0372049994767,0.00996599998325,0.0324769988656,-0.0469329990447,-0.289198994637,-0.178822994232,-0.0799620002508,-0.0941350013018,-0.0780389979482,-0.0931319966912,0.303158998489,0.11214800179,0.18624599278,-0.14522600174,0.00332999997772,0.0399029999971,-0.122091002762,0.0465120002627,-0.099616996944,0.108014002442,0.118699997663,-0.129968002439,-0.211789995432,-0.00233200006187,0.27607101202,-0.128279998899,0.0159910004586,0.318803995848
刹车,0.0908769965172,1.38172698021,0.907289028168,-0.0443379990757,1.57208395004,-0.136316999793,1.05524396896,-0.565504014492,0.499067991972,1.34558999538,-0.94794100523,-0.372566014528,-0.778236985207,-0.170477002859,0.0781240016222,-0.0687149986625,-0.200593993068,-0.202207997441,0.114497996867,-1.49529004097,-0.577051997185,-0.159937992692,-0.460471987724,-0.325437992811,0.229284003377,1.41675400734,-0.536872982979,0.907962024212,-0.969048023224,0.917979001999,-0.0143459998071,-1.34237194061,0.336748987436,-0.109373003244,0.066742002964,1.03586602211,0.452610999346,-1.29066801071,-0.00626499997452,0.532274007797,1.05361700058,-0.543920993805,-1.41728198528,0.38096600771,0.425610989332,-0.517382025719,-0.264692008495,-0.741011977196,0.169955000281,-0.197504997253,0.597146987915,-0.0364100001752,-0.113176003098,0.823695003986,-0.629903972149,-0.74119502306,-0.693216979504,-0.562138020992,-0.488541990519,1.48528802395,-0.364124000072,-0.360985994339,-0.805438995361,-0.360036998987,-0.971467971802,0.790902018547,0.162836998701,-1.51494204998,0.170194998384,-0.144186004996,-0.758195996284,0.256825000048,0.0216480009258,0.470807999372,-0.511375010014,1.77547299862,0.152841001749,0.0765059962869,0.665983974934,0.767889976501,-0.393362998962,0.31788700819,0.100653998554,0.686670005322,1.14144301414,-1.38359904289,0.212075993419,-0.221869006753,-0.721450984478,-1.26970100403,0.500566005707,0.966504991055,0.126117005944,0.599982976913,0.514537990093,-0.197412997484,-1.20306503773,0.798987984657,-1.1608300209,0.752745985985,0.0506549999118,-0.0913980007172,-0.702683985233,0.841113984585,-0.952646970749,-0.450408011675,0.355809986591,-0.696667015553,0.848300993443,0.705470979214,-0.725374996662,-1.63813102245,-0.168666005135,-0.232087999582,0.0519779995084,0.00857600010931,1.07192802429,-0.453236013651,0.208298996091,0.751833975315,-0.570554971695,-0.401012986898,0.27670699358,-0.348641008139,0.719744980335,0.837123990059,-0.40806800127,0.0115940002725,0.153139993548,-0.316404014826,0.315571993589,-0.557830989361,-0.42249199748,0.356409013271,-0.594429016113,0.263837993145,-0.193378001451,-0.807000994682,1.36265599728,-0.708396017551,-0.0897990018129,0.0557750016451,0.236845001578,0.416335999966,-0.0796639993787,-0.626268029213,-1.53288805485,-0.100198000669,-0.225851997733,-1.16705799103,0.440571010113,-1.01783597469,0.0519599989057,0.126379996538,0.923833012581,-0.727641999722,0.51081097126,-0.587556004524,-0.474070012569,-0.00154500000644,0.647346019745,-0.359438985586,-0.942211985588,-0.0931660011411,0.00483400002122,0.204870000482,-0.319402992725,-0.586272001266,-1.31861996651,-0.364919990301,0.149243995547,-1.1914639473,0.692224979401,0.737434983253,1.72302997112,1.3015999794,0.61029702425,0.833257973194,0.0547679997981,1.149345994,-0.081670999527,0.642428994179,-0.752878010273,0.334643006325,-0.723891019821,0.936423003674,0.238407999277,0.109958998859,0.0220870003104,-0.167853996158,0.994877994061,0.258543998003,-0.383962988853,0.0876960009336,-0.306075006723,-0.451905995607,0.680433988571,-0.72537201643,0.404720008373,-0.0674109980464,-0.448199003935,0.61000597477,-0.961502015591,-0.0609619989991,-0.690007984638,0.115053996444,-0.434801012278,0.354050993919,0.364917010069,0.53230202198,1.4286750555,-0.0050409999676,0.198240995407,-1.25376403332,0.554650008678,0.552909970284,-0.981495022774,-0.492038995028,0.196798995137,-0.880019009113,-0.600369989872,-0.391938000917,0.672152996063,-0.995117008686,0.660187005997,-0.49028301239,-0.15029899776,0.14617100358,0.831282019615,-0.783644974232,-0.250180006027,0.746280014515,0.332318991423,-0.802879989147,0.719370007515,-0.418422013521,-0.798039019108,-0.699178993702,-0.0391130000353,0.125327005982,-1.14944601059,0.260165989399,0.509519994259,0.287732988596,-0.198593005538,0.0775810033083,0.665811002254,0.75273501873,-0.509395003319,0.487455993891,-0.306158989668,0.44696700573,0.233106002212,0.13377200067,-0.18492500484,1.17328596115,0.317582011223,0.0565179996192,0.647022008896,1.2563380003,-0.428323000669,0.639183998108,0.653199017048,0.0727329999208,-0.923732995987,-1.9557299614,0.449526011944,0.481821000576,-1.35357904434,0.190399006009,-0.00354800000787,-0.480792999268,-0.427331000566,0.393655002117,0.234353005886,-0.297423005104,-0.855651974678,-0.126181006432,0.528006017208,1.23152804375,0.431939005852,1.08222997189,0.15621599555,0.113945998251,-1.08396697044,-0.227121993899,0.6883289814,0.310274004936,0.343353003263,-0.00111800001469,0.328772991896,1.33679902554,0.0747250020504,-1.26977002621,0.180959001184,-0.144837006927,0.119957998395,-0.107508003712,0.311506986618,-0.175934001803,0.473924010992,-0.385129004717,0.0457380004227,-0.433809995651,1.05603194237,0.419750005007,-1.5187599659,-0.714448988438,-0.213953003287,0.313008993864,-0.924677014351,-0.558794975281,1.12221002579,-0.269035995007,0.0942030027509,0.500927984715,-0.528620004654,-0.594558000565,-0.0122250001878,-0.187979996204,0.108181998134,-0.679388999939,0.0414690002799,0.309157013893,-0.15732100606,-0.124660000205,0.328280001879,-0.0884829983115,0.71777099371,-0.272448986769,0.620096981525,-1.04293000698,-0.746747970581,-0.459535002708,0.159367993474,-0.336551010609,-0.088079996407,0.962661027908,0.574442028999,-0.223829999566,-1.04218196869,-0.22301800549,0.41637301445,-0.168026000261,-0.125098004937,-0.75770097971,-1.434450984,0.566510975361,1.04923605919,-0.726006984711,0.784766018391,1.10995900631,-0.861054003239,0.645134985447,-0.01446999982,0.328608006239,0.897248983383,0.825079977512,-0.209966003895,0.854734003544,-0.583963990211,-0.177073001862,-0.869700014591,0.167616993189,-1.18847501278,-0.867160022259,-0.254880994558,0.541257023811,-0.649677991867,-0.65559899807,-0.353542000055,0.161625996232,0.0557949990034,-0.709232985973,0.307868003845,-0.816847026348,-1.82421398163,-1.36835503578,-1.93333899975,-0.139216005802,-0.571024000645,0.305963009596,1.52836203575,0.261967003345,-0.0431630015373,-0.71798402071,0.0162819996476,-0.134551003575,-1.63546597958,-0.0909589976072,-0.471778988838,-0.689647972584,-0.180536001921,-0.285674989223,0.259909003973,-1.12713301182,-0.687036991119,-0.00420500012115,0.232540994883,0.250779986382
踏板,-0.281639009714,0.656769990921,0.921813011169,0.389705985785,1.64099705219,0.567934989929,0.818435013294,-0.641368985176,0.565549015999,0.0722429975867,-0.78424602747,-0.219904005527,-0.303981989622,-0.209225997329,-0.163693994284,-0.362221002579,0.00588099984452,0.143830001354,0.3954859972,-0.662873983383,-0.500136017799,-0.125522002578,-0.463281005621,0.141852006316,0.0266430005431,0.984772980213,-0.575721025467,0.696559011936,-0.966575026512,0.467188000679,-0.827709019184,-0.425292998552,0.782432019711,-0.567829012871,0.190821006894,0.933981001377,-0.788748025894,-0.749790012836,1.12578296661,0.364304989576,0.50854498148,-0.779911994934,-0.383641004562,-0.536405980587,0.0712110027671,-0.0416750013828,-0.172018006444,-0.232749000192,0.243245005608,0.24396699667,0.207026004791,-0.271517008543,-0.420174002647,0.540731012821,-0.719204008579,-0.337756991386,0.392021000385,-1.04665505886,-0.4101369977,0.756168007851,-1.1643550396,-0.123713001609,-0.245919004083,-0.372022986412,-0.489753007889,1.36979103088,0.336207002401,-0.690966010094,1.49803602695,0.35626500845,-0.898455023766,0.457161009312,0.481337994337,0.660764992237,-0.260681003332,0.912734985352,0.654655992985,-0.626675009727,-0.0311079993844,0.595836997032,0.239765003324,-0.359030008316,0.161312997341,0.261871993542,0.29482498765,-0.877068996429,0.108240999281,0.296232014894,0.572463989258,-0.365305989981,0.743430018425,1.14847898483,0.00975299999118,0.873735010624,0.240660995245,0.264822006226,-0.398687005043,0.746299982071,-0.494767993689,0.0799729973078,-0.163248002529,-0.788996994495,-0.0753609985113,1.02081894875,-0.685585975647,-0.306327998638,0.663546979427,-0.665829002857,0.403537005186,-0.0604030005634,-0.727558016777,-1.32268595695,0.269142001867,0.156762003899,-0.220753997564,0.218761995435,0.417941004038,-1.1363710165,0.137193992734,0.612941026688,-0.320715993643,-0.0334159992635,0.467739999294,0.0328590013087,0.565092980862,1.05362200737,-0.264147013426,-0.611985981464,0.522520005703,-0.0944309979677,0.238503992558,-1.0281380415,-0.358801007271,0.0675619989634,-0.81692302227,-0.424181014299,0.0610839985311,-0.507152974606,0.000638999976218,-0.448615014553,-0.451335012913,-0.692147016525,0.22386200726,0.11790599674,-0.343620985746,-7.9999997979e-05,-0.81704801321,-0.451406002045,-0.249532997608,-0.514670014381,0.5107640028,-0.362958014011,0.23424500227,0.43175598979,0.740877985954,-0.335166990757,0.730636000633,-0.594883978367,-0.718674004078,-0.210749000311,-0.0719209983945,-0.989422976971,-0.402803987265,-0.394589990377,-0.454048007727,-0.287766009569,-0.182343006134,-0.424865007401,-0.943566977978,-0.791082978249,-0.800406992435,-0.488680005074,-0.204279005527,0.0130690000951,1.37627899647,0.570554018021,0.208950996399,0.267181992531,0.752406001091,0.311767995358,-0.173500999808,0.24636900425,-0.666514992714,0.494897007942,-0.850208997726,-0.0879150032997,0.064003996551,0.756438970566,0.616186976433,-0.297598004341,1.03799402714,-0.187652006745,-0.793083012104,0.628764986992,0.463683992624,-0.0612430013716,0.731355011463,-0.818333983421,0.0471829995513,0.0584920011461,-0.199511006474,0.122542001307,0.0111180003732,0.235752001405,-0.871434986591,0.00377600011416,-0.124067001045,0.10214100033,-0.00372999999672,0.56958001852,0.27806198597,-0.166216999292,0.827328979969,-1.19281899929,0.137415006757,0.794035971165,-0.23883600533,-0.00680600013584,0.69488298893,-0.427242010832,-0.023484999314,-0.505804002285,1.11801195145,-0.432494997978,0.564055979252,-0.173309996724,0.105663001537,-0.05673699826,0.0297860000283,0.269887000322,-0.774357974529,1.00037503242,-0.235682994127,-0.333272010088,0.19505700469,-0.283944010735,-0.542527973652,-0.0779419988394,0.352526992559,-0.301876008511,-0.922971010208,0.555530011654,0.00370100000873,0.54647397995,0.0397440008819,0.473845988512,-0.117325998843,-0.0441490001976,0.171087995172,0.179826006293,-0.628535985947,0.340348988771,0.505657017231,0.105434000492,-0.0976319983602,-0.153418004513,0.199763998389,0.178549006581,0.910411000252,0.578085005283,-0.102549001575,0.612879991531,-0.178460001945,-0.350901991129,-0.115120001137,-0.884202003479,0.475928008556,0.430002987385,-0.756901979446,0.508144021034,0.6065300107,-1.05088496208,-0.277848988771,0.28396499157,-0.0885120034218,-0.73885601759,-0.506695985794,-0.0635199993849,0.652266979218,0.0225319992751,0.188011005521,0.893757998943,0.524778008461,0.0821940004826,-0.412205994129,-0.745815992355,-0.0247029997408,-0.162622004747,0.649094998837,0.139206007123,-0.201719999313,1.02056896687,0.119280003011,-0.0846889987588,0.209343001246,-0.270817995071,-0.434879004955,-0.389443010092,0.0386839993298,-0.142747998238,0.28539198637,-0.348558992147,-0.300161987543,-0.162108004093,0.561398983002,0.764379024506,-1.0501459837,0.0462200008333,0.168158993125,0.571712970734,-0.985912024975,-0.68400901556,0.47319200635,-0.0541110001504,-0.30344799161,0.170175001025,-0.227751001716,0.44265499711,-0.0254369992763,-0.279289990664,-0.0783979967237,-0.516201019287,-0.0848070010543,-0.576466023922,-0.101462997496,-0.134381994605,-0.115277998149,-0.306881010532,0.251791000366,-0.418453991413,0.849336981773,0.00325200008228,-0.339632987976,-0.232071995735,-0.467611014843,-0.346249014139,-0.332195013762,0.881869018078,0.106553003192,0.414905011654,-0.520980000496,0.227684006095,0.0744580030441,0.254453986883,0.472822993994,-0.368061989546,-0.361203014851,0.236157000065,0.891045987606,0.0377740003169,0.147835001349,0.75512701273,-0.578853011131,0.708196997643,-0.139443993568,-0.130062997341,-0.0180050004274,0.643764972687,-0.0902549996972,0.765956997871,-0.868058979511,-0.300884991884,-0.758633971214,0.11725500226,-0.34769898653,-0.792005002499,0.462879002094,-0.0813380032778,-0.520961999893,-0.279715001583,-0.527158021927,0.221882998943,0.395579993725,-0.107230000198,-0.460188001394,-0.719953000546,-1.04689204693,-0.303947001696,-1.04141902924,0.415107995272,-1.11727702618,-0.0305320005864,1.34030401707,0.273894995451,0.0653619989753,-1.00155103207,0.274464011192,-0.445787012577,-1.0335329771,0.570806980133,-0.234945997596,0.128364995122,-0.329028993845,0.405494004488,0.180618003011,-0.624974012375,-0.0369639992714,0.0494179986417,-0.115073002875,0.207695007324
添加,-0.119205996394,1.53572297096,0.502991974354,0.573575019836,1.62454903126,0.771513998508,-0.41220998764,-0.679992973804,0.711928009987,0.459659993649,-0.461663007736,-0.354512006044,-1.34593105316,-0.63648301363,0.309224009514,-0.859259009361,-0.139125004411,0.0579920001328,0.936334013939,-1.0802680254,-0.00704200007021,-0.135521993041,1.97630000114,1.99850296974,1.11500298977,3.22223210335,0.524685978889,1.5842499733,-0.0444269999862,1.02428996563,-1.89292597771,-0.249529004097,-0.0669469982386,-0.925427019596,-0.218094006181,-0.631462991238,-1.30824196339,0.0614250004292,-0.477999985218,0.84762597084,1.01873195171,0.20234900713,-1.41593003273,-0.661612987518,1.07084798813,1.39753496647,0.976827025414,-0.765802979469,-0.572077989578,0.449831992388,1.85932004452,-0.126862004399,-0.236311003566,1.45627605915,-1.03661894798,1.29312002659,0.137088000774,-0.723376989365,-0.958750009537,0.544722020626,-2.0926220417,1.94541096687,-0.878288984299,0.491867005825,0.41152998805,0.196557998657,0.0583189986646,0.104788996279,0.444231987,0.880796015263,-1.55059397221,-0.283710002899,2.68994307518,1.15924704075,-0.853280007839,1.10517394543,0.456470996141,-0.894416987896,0.370743989944,-0.704999983311,-1.73427295685,-0.660992980003,1.02754604816,-1.2746360302,1.15507400036,0.280306994915,0.0250460002571,0.0624510012567,1.50993704796,0.243723005056,0.0399589985609,0.238903999329,0.8243060112,0.131451994181,1.00876700878,-0.0933550000191,-0.315411001444,0.802429020405,-0.498703986406,-0.637036979198,1.81347203255,0.84032702446,0.0559640005231,0.283105999231,-0.467552006245,-1.89807105064,1.59216797352,0.669542014599,0.238407999277,-0.698104977608,-0.834506988525,-1.87493097782,0.904501020908,1.23824799061,-1.32505905628,0.991473019123,1.87254405022,-0.197062000632,1.55792701244,2.08989810944,-0.418713986874,-0.590777993202,-0.182463005185,0.638787984848,-1.79708397388,0.564494013786,-1.87097501755,1.04005801678,-0.594336986542,1.41995501518,-0.0133199999109,-1.27675104141,1.43303704262,1.57362401485,-1.0442019701,-0.23986800015,-0.182605996728,0.639940023422,1.76807296276,0.447672992945,1.01886701584,0.193090006709,0.651557981968,-0.650672018528,0.0187660008669,1.47918999195,0.0119709996507,-0.0983750000596,-1.24261498451,-1.07367002964,1.37956094742,0.908205986023,0.720746994019,0.286877989769,0.69469499588,0.708904981613,1.34680998325,2.35339689255,-0.927606999874,-1.67996096611,-0.636133015156,-0.8517370224,0.483186990023,1.42536997795,0.737935006618,-0.206015005708,0.293105989695,0.681598007679,-0.811990976334,-1.2868219614,-0.705944001675,-1.45164704323,0.828468978405,0.288055002689,1.43083798885,1.39818096161,0.766194999218,-0.135663002729,-0.855391979218,-0.428817987442,-1.45458698273,-1.67072296143,0.196960002184,-0.748821020126,-0.340732991695,0.882516980171,-0.176241993904,1.73362994194,0.443616002798,-0.254700988531,0.267201006413,-0.134340003133,0.0172259993851,0.381603986025,-0.191384002566,0.964219987392,-0.16030600667,-0.642373979092,-0.543609976768,1.07937705517,-0.357241004705,-1.71573698521,-0.973164975643,-1.11655402184,-1.55491399765,0.683233976364,1.38345694542,-0.980324983597,-0.108083002269,0.973671019077,-1.62906801701,0.116636998951,1.42240595818,-0.784577012062,0.0384170003235,-1.39217400551,-1.08196699619,-1.37840998173,-0.2695119977,-0.760807991028,0.530770003796,0.248998999596,-0.112998001277,0.25962600112,1.16867101192,-0.757794976234,0.931622982025,-0.37422901392,-2.06115603447,-0.729405999184,1.08277499676,1.12121498585,-0.199066996574,-1.37533295155,0.901210010052,-1.38732802868,-0.0640200003982,1.76376903057,-0.088330000639,-0.237814992666,0.417270004749,-0.358512014151,-0.751447975636,0.815620005131,0.744511008263,0.503920018673,-1.38298094273,0.356310009956,1.58391702175,-0.400245010853,0.500133991241,-0.125414997339,-0.0452039986849,-1.08041596413,0.386296004057,0.361301988363,-0.656832993031,0.339011013508,-0.13326600194,0.323359012604,-0.509097993374,0.136700004339,-0.229139000177,-0.118055000901,-1.02779495716,-0.173657000065,1.37543094158,0.438244998455,-0.794026017189,-0.168630003929,1.45012903214,-1.82039499283,0.0218800008297,1.60431396961,-1.43235695362,-0.190849006176,-0.20195800066,0.911189973354,1.96694600582,-1.02647197247,-0.0110719995573,1.84463405609,-0.434810012579,-0.170671001077,1.39714705944,0.00851199962199,-0.183293998241,0.114321000874,1.50338602066,-0.565424978733,-0.826254010201,1.00830805302,-0.902693986893,0.126855000854,2.07851290703,1.5497699976,0.591620981693,-0.574223995209,-1.3762960434,-0.441668003798,-0.73807901144,-0.939558982849,-0.349864989519,2.104626894,0.460067987442,1.76464903355,-0.561438977718,-0.806261003017,0.758512020111,1.14039301872,-0.868108987808,1.23695898056,1.01088297367,-0.933189988136,-0.0824059993029,0.0178239997476,-0.984892010689,-0.397404998541,0.219216004014,-0.590929985046,1.17747294903,-0.724400997162,-1.43873405457,1.17882204056,0.252099007368,0.679885983467,0.0513879992068,0.619293987751,-0.486781001091,-1.77254295349,0.468771994114,-0.138735994697,-0.285499989986,1.08087694645,0.5711119771,1.27702105045,1.70228898525,1.19079399109,0.552083015442,0.406017005444,-0.0376869998872,1.933177948,0.630248010159,-0.545475006104,0.801353991032,-0.961907982826,1.57869899273,0.833486020565,-1.41687703133,2.01404309273,0.110471002758,-1.05708003044,0.824598014355,-0.58765399456,1.40598702431,-0.502726972103,-1.32682597637,0.940297007561,-0.116313003004,2.87848305702,1.39184594154,0.17334599793,0.455193012953,-1.12598598003,0.0364309996367,-1.17399096489,0.322854012251,-0.0929860025644,1.72405302525,0.323197007179,-1.86252701283,-1.64055204391,-1.13406205177,1.2674870491,-0.624121010303,-1.62577104568,-0.656540989876,0.26368701458,-0.878933012486,-0.219519004226,-0.136740997434,0.533703029156,1.31830000877,-0.291987001896,0.808196008205,-0.678569972515,-0.348641991615,-0.334706008434,-2.00821805,1.48660004139,0.235404998064,-0.688589990139,-2.37104201317,-0.479568988085,1.95667004585,-0.975176990032,-0.777631998062,1.75264203548,0.130045995116,1.22052800655
时间,-1.9424020052,-0.562210977077,0.274946004152,0.222663000226,0.74525398016,0.0126329995692,1.44361495972,-0.956932008266,1.42428994179,0.0193789992481,-0.119508996606,0.387338995934,-0.975732982159,0.373724997044,-1.52946901321,-1.65555298328,-0.19443500042,0.443179994822,0.868210017681,-2.35262393951,0.539134979248,-0.700012028217,0.410557985306,-0.71797400713,0.259077996016,-2.555519104,0.429926007986,2.64215111732,0.0130030000582,-0.850479006767,2.30365610123,0.0937839969993,-0.925278007984,1.56189095974,1.19390702248,0.210628002882,1.38732802868,-1.16788899899,1.63159096241,-0.914588987827,1.97740995884,2.12319493294,-0.294436007738,0.0517660006881,2.09110403061,-0.514436006546,0.770467996597,-0.0427480004728,0.314323991537,-0.5437489748,0.268523007631,-1.42261302471,-0.442990988493,1.95093202591,-0.713288009167,-0.884248018265,-0.35519400239,-2.84815001488,-2.24193811417,-0.393319010735,0.555519998074,-0.0496580004692,1.46263504028,-1.51033198833,1.24631798267,0.160588994622,-0.160177007318,0.541360974312,0.910631000996,-0.43519499898,-1.46640396118,0.564491987228,0.3017359972,1.20486199856,1.09847700596,0.345712006092,2.09044790268,0.799651026726,-0.43384501338,-0.583378016949,1.32435500622,-1.8186160326,-1.14289498329,1.16511201859,1.04351401329,-0.950807988644,-0.260275989771,-0.674390017986,1.1188069582,0.0988679975271,0.943619012833,-0.505518019199,1.86997401714,-0.548529028893,-0.982582986355,-0.163512006402,0.406672000885,2.87321710587,-0.107321001589,0.954856991768,-1.72634804249,-0.352459013462,-0.0908159986138,-0.371859997511,-0.250652998686,-1.45517802238,0.336953014135,0.859270989895,-2.57886600494,-0.197197005153,0.264654010534,-0.22419500351,-1.96236097813,-1.71444797516,-0.348028987646,1.75053703785,1.9426419735,-0.892265021801,-1.43160605431,0.380948990583,-0.430088996887,-1.46234703064,0.950559020042,0.013682000339,0.425040006638,-0.455763995647,0.735346019268,-0.481476008892,0.685307025909,0.117330998182,-0.904829978943,1.46815097332,-1.53563499451,0.801191985607,-0.296824991703,-1.17706298828,0.726621985435,0.0670399963856,1.0329990387,0.393216013908,-0.213065996766,0.442117005587,-1.23936498165,-0.982725977898,-1.90834796429,1.67506301403,-0.398241013288,1.92141604424,-0.423299998045,-0.0485230013728,1.20026504993,1.09350204468,1.52858805656,0.903980016708,-0.407034009695,0.591696023941,-1.73020601273,1.23816096783,2.02842402458,-0.167560994625,-0.867784976959,-0.350427985191,2.67605996132,-1.13345503807,-0.648836016655,3.30062389374,-0.299842000008,2.30634403229,-0.15274900198,0.83427298069,-0.609175980091,0.728492021561,1.30979895592,-0.850688993931,1.04774296284,-0.86668998003,2.9305639267,1.33372795582,-1.62313294411,0.81574100256,0.79255002737,-1.43770503998,2.08867692947,1.41189002991,0.693032979965,0.693359971046,0.0194600000978,0.56834000349,-2.29316401482,-0.412452995777,-0.0262989997864,-0.649842023849,0.340274989605,-1.86794996262,2.89234089851,0.60231000185,1.84622204304,-0.541501998901,-1.07961905003,1.03309500217,1.04132604599,1.42643404007,0.181714996696,-1.05014896393,1.36879599094,-0.152067005634,-0.959783017635,-1.29349303246,0.130507007241,0.32494199276,-1.97972500324,-0.485929012299,0.468241989613,0.363828003407,-1.11143696308,0.291029006243,-2.0750670433,-1.62407696247,0.338638007641,-0.289178997278,-0.595559000969,1.24134397507,1.06229102612,1.85776698589,0.598614990711,-0.247171998024,0.203442007303,0.400983989239,0.939584970474,0.137784004211,-1.00931501389,2.06887388229,1.4126060009,0.0807460024953,1.85436999798,1.05617702007,-1.31507301331,3.30796909332,-1.26380896568,-0.711256027222,-2.23693203926,-0.625492990017,-0.207129001617,-0.508589982986,-1.32263195515,-0.497364997864,-0.825349986553,-1.64396703243,-0.108612000942,-0.113842003047,-0.907101988792,3.26896309853,-0.303220003843,0.542266011238,0.650672018528,2.7361600399,0.790901005268,0.25777900219,0.80684697628,-2.08436393738,-0.812537014484,1.75369501114,3.24312901497,0.97652900219,0.0956939980388,-2.0445098877,-0.0744690001011,0.345337003469,0.0754019990563,-0.826084017754,-1.07353305817,-0.395489990711,-1.21977305412,1.45013105869,-1.16454803944,0.543035984039,1.41247200966,0.564411997795,0.588844001293,0.379007995129,0.850441992283,0.339004993439,-2.80950689316,0.975695014,-1.34172296524,-0.529600977898,-0.126974001527,0.221705004573,-1.59170401096,0.792110025883,-0.710416972637,1.58066797256,-0.250066012144,1.18082296848,0.673053979874,2.34430003166,-0.998154997826,0.575098991394,-1.7029299736,-0.703595995903,-1.86949896812,0.220715001225,-1.12570202351,1.61632800102,-1.67361998558,-2.15639996529,-0.913724005222,-0.0039889998734,1.33432304859,1.83713805676,-0.615312993526,-0.580072999001,1.16648101807,-2.70763301849,-0.75027602911,-1.26904797554,0.289048999548,0.340683996677,-1.05794405937,-0.624149024487,0.141619995236,-0.392814010382,1.29385495186,-0.338019996881,-1.39402103424,1.6063400507,-0.49984100461,0.513966023922,0.110880002379,1.16583001614,-0.918006002903,-1.13241004944,1.10115003586,-0.597395002842,-0.744979023933,0.160910993814,0.155040994287,-2.73611903191,-0.501941025257,-0.281129986048,-0.355181992054,1.7331609726,1.38667297363,-2.55649995804,-1.67286300659,-1.21925294399,-0.766336977482,1.93186604977,-0.30529499054,-2.73466801643,1.25392699242,-1.57220196724,1.38264000416,0.497745007277,-0.590744018555,-1.35540699959,1.29299294949,2.88283395767,-0.57665002346,-2.44704294205,0.874621987343,-0.430988997221,2.00252509117,-1.8024289608,-1.58554005623,0.23860900104,2.23686099052,-0.737545013428,0.833383023739,-2.39097189903,-0.107487000525,-0.147587001324,1.78922402859,-0.559756994247,1.46417498589,-0.144485995173,-1.73243296146,-0.738677024841,-1.75875902176,1.55660903454,0.677616000175,1.51518595219,2.86046004295,1.34317994118,0.19230799377,-1.86792004108,-0.600072979927,-1.44275403023,-0.956999003887,0.214785993099,-0.646475970745,1.66483700275,0.193121001124,0.658511996269,0.551081001759,-1.697453022,1.12774705887,0.455395996571,2.30251693726,0.00352000002749
信号,0.080664999783,0.425112992525,-0.542874991894,1.36512100697,0.862091004848,0.250654995441,1.1234010458,-1.81978797913,-0.161125004292,-0.878140985966,-1.21439695358,-0.224417999387,-0.0752430036664,-1.77799904346,0.521288990974,-0.96293002367,-1.59760594368,-0.350728988647,-0.372265994549,-0.307677000761,-1.46494102478,-1.41977596283,-0.800357997417,-0.250162988901,1.5296690464,-0.367386013269,-0.748939990997,0.421745985746,-0.837180972099,1.66954302788,0.831679999828,-0.848932981491,1.4017829895,0.580609977245,-1.97179496288,0.831359982491,1.38639998436,-1.45074999332,-0.620142996311,0.341939002275,-1.39573204517,1.15102803707,-1.29899001122,0.547680020332,-1.73790597916,-0.342202991247,-1.99451899529,1.56208598614,1.37026798725,0.174278005958,0.133405998349,-3.07296705246,-1.1391479969,-1.0383399725,-1.77458095551,0.495974987745,0.149600997567,-0.231434002519,-2.43530011177,-1.28572499752,0.629288971424,0.619611024857,-0.90970402956,-0.496078014374,0.138664007187,-0.253755986691,-1.63625705242,-0.247565999627,-0.127935007215,-1.87386596203,-1.08370804787,-2.25869202614,1.78929400444,3.16059708595,0.487251013517,2.55029702187,2.45449709892,0.767054975033,-0.0411369986832,1.16580295563,0.986657977104,-1.77108097076,0.633320987225,-0.801671028137,-1.13245296478,-1.2191940546,-1.00268399715,0.63058000803,2.80666804314,-0.360395997763,-0.248976007104,-0.941594004631,-0.762115001678,-0.604349970818,0.880326986313,-1.43114101887,-1.29174399376,3.02267193794,0.717646002769,0.384353995323,-0.0915480032563,0.00418899999931,0.727692008018,1.02269995213,0.791474997997,-2.93673801422,-1.17929804325,-1.86415100098,-0.16016100347,0.341679990292,0.143389001489,-2.24779105186,-1.70680296421,-0.296532988548,-1.9745080471,1.49085605145,2.48926401138,0.355744987726,0.217825993896,0.433797001839,1.97699201107,0.177307993174,-0.464502006769,-2.4559431076,0.871016025543,1.12597501278,-0.479835003614,-2.15216898918,-0.689633011818,-0.948073029518,0.36129501462,-2.03073310852,-2.42663502693,2.30441308022,-0.176003992558,-0.0837310031056,0.154631003737,0.887673974037,0.34582400322,-0.514340996742,-0.109857000411,1.39224696159,0.122052997351,0.0225089993328,-0.40877699852,-0.929827988148,-2.1637840271,3.03324198723,-1.55063199997,-1.3621519804,0.369163006544,0.225458994508,-0.862185001373,0.328509986401,-1.07920598984,-1.47766697407,-2.54738211632,-0.568853974342,-1.20517599583,0.145160004497,-1.17522501945,-3.10109496117,-0.264239013195,-1.81622695923,-0.168135002255,0.150562003255,-1.78296196461,2.13629293442,0.959792017937,-1.60138702393,-0.535638988018,-1.93287098408,-0.745644986629,-0.0462130010128,1.21699404716,-0.636871993542,1.68092596531,0.299441993237,1.14508104324,0.220125004649,-0.36611700058,0.492821991444,0.0886830016971,-0.34663900733,-0.721915006638,0.744181990623,1.25473105907,-0.905182003975,0.416482001543,-2.06667399406,1.08948302269,1.99470496178,0.382077991962,0.0169769991189,0.436740994453,2.28829908371,0.187056005001,-0.0772510021925,0.0342539995909,0.641664028168,-0.254833012819,-0.158381998539,-1.64240598679,1.43401098251,-0.950914978981,0.384371995926,0.465393990278,3.46103906631,0.0249039996415,1.13608598709,0.786970019341,1.37229704857,2.26507902145,-0.816066980362,-0.545818984509,-0.466255992651,-1.13360595703,-1.65234696865,1.91419994831,0.558396995068,0.438753008842,-0.368712991476,0.822250008583,-0.393068999052,1.22441494465,-1.95719301701,0.120627999306,-0.145717993379,0.971239984035,-0.176118001342,1.57910203934,-0.81690299511,0.49276599288,0.182438999414,0.787398993969,1.03926002979,-0.285097002983,-0.106320001185,-0.724641025066,-1.49486398697,-0.268323004246,-0.0510249994695,-1.55006098747,0.425143003464,-0.85676497221,1.37119102478,-2.38060188293,0.277859002352,0.653532028198,-0.214840993285,-0.11295799911,1.89226698875,0.701403021812,-1.61762905121,-0.51424998045,2.52815294266,0.772040009499,-0.056329999119,2.00876688957,2.63681006432,-1.0172239542,-1.46030294895,2.6473441124,0.555276989937,-0.253800004721,-0.982123970985,-0.0396700017154,0.250842988491,0.926917016506,-1.39584195614,-1.33866500854,0.191596001387,-0.882034003735,1.4173129797,1.5427210331,1.04316997528,-3.47920608521,1.62426805496,-0.442766010761,0.555211007595,-2.62554192543,-1.72189104557,0.303465992212,-0.41231200099,-0.891210019588,0.331194996834,0.577431976795,0.121209003031,0.246669992805,0.400454998016,1.30944299698,-1.07451200485,0.216348007321,-0.119882002473,1.82131004333,-1.88797998428,0.539119005203,1.02096199989,1.27471399307,2.52043890953,-0.226643994451,0.861620008945,-0.401372998953,1.58234298229,0.391283005476,-1.50064098835,0.908336997032,-0.939895987511,-2.26303100586,2.19423389435,0.473636001348,0.358835011721,2.18014192581,-1.19071102142,-1.0113979578,-0.0247840005904,1.70783495903,0.55187702179,0.58537197113,-0.0374890007079,-2.95524907112,-0.0340929999948,-1.33151698112,0.810711026192,0.167676001787,-0.541390001774,0.161013007164,-2.67531490326,-0.0510520003736,-2.16020989418,1.50302195549,-0.85438400507,0.0701240003109,-1.92953598499,0.0236959997565,-0.687175989151,-1.63213503361,1.66631805897,0.00338399992324,1.08944702148,1.04928398132,-0.219708994031,-0.32824999094,-1.93293297291,-1.64736902714,0.0374340005219,-0.559149026871,-0.345739006996,0.319200009108,-1.00678801537,-0.916733980179,1.97277605534,-0.106159999967,1.0835570097,0.0234779994935,-1.52497696877,-0.0669739991426,-0.810387015343,-0.443244993687,-0.17492300272,1.18199300766,1.0038369894,-1.10983896255,1.75122594833,-0.14793600142,-0.882974028587,0.833510994911,2.18051409721,-1.40380096436,-1.56328296661,-1.37170696259,-0.0583520010114,1.33173000813,1.82241201401,-0.301964014769,-1.13074994087,1.14261102676,-2.04015398026,-2.7118999958,0.866008996964,-1.40353798866,0.212436005473,2.88111209869,-0.230459004641,0.919782996178,-2.86670994759,-0.484088003635,0.0627899989486,-2.7156059742,-0.177231997252,0.29739099741,-0.553313970566,-3.01716089249,-2.289675951,-0.10345800221,-1.42079603672,0.297058999538,-1.64910900593,1.16449999809,-2.59421205521
一定,0.173170998693,1.56948900223,-0.111277997494,1.79359304905,-0.147802993655,1.10743999481,-0.0602330006659,0.498611986637,-0.577513992786,0.918492019176,1.37515103817,-0.829652011395,-0.124831996858,0.693022012711,-2.03866410255,-0.0606519989669,0.452628999949,0.53176599741,0.798341989517,0.172647997737,2.12472510338,-0.00377100007609,0.854938983917,-1.93677401543,1.88494801521,1.15886104107,0.574452996254,0.554252028465,0.4842210114,0.769174993038,0.858554005623,0.588198006153,0.0812619999051,0.10867100209,1.27609705925,0.775400996208,0.132297992706,-0.703354001045,-1.26066195965,0.279338002205,2.04919505119,-0.140727996826,0.040341001004,-1.33375799656,0.757843017578,-1.72414195538,1.08352696896,-1.0348290205,1.49943399429,0.305938005447,-0.311320006847,-0.88685297966,1.35218799114,-0.536876022816,-1.02221000195,1.3503869772,-0.570405006409,-1.86387300491,-0.174362003803,1.05520403385,0.17309500277,1.88601195812,-0.38085898757,0.480491995811,0.519663989544,-0.647871017456,0.0921949967742,0.0519790016115,-1.09898495674,0.506398975849,-0.0199319999665,-0.871865987778,-0.58311098814,-1.4980340004,-1.75440096855,0.401598006487,2.63723397255,0.902554988861,0.44674000144,-0.207718998194,-0.251307010651,-2.00082492828,2.32862997055,0.154402002692,1.63470101357,-3.0158560276,-1.6509180069,-0.957858979702,2.11652803421,-1.59932398796,-0.795267999172,1.46230995655,-1.30514895916,1.49850797653,0.461315989494,0.955033004284,0.0992079973221,0.0344289988279,-0.839531004429,1.5734770298,-0.141719996929,0.0345089994371,-0.494194000959,-0.618623018265,-1.09342801571,-0.0831189975142,0.394230991602,-0.0967689976096,-1.17809796333,-0.343975991011,1.13540804386,0.090825997293,0.282137989998,0.573078989983,1.37103497982,-0.310800999403,1.56069099903,0.83244997263,2.05087995529,0.0343930013478,-0.228826001287,-0.721168994904,1.46312594414,0.472865998745,0.684233009815,-0.539581000805,0.696080982685,-0.51115500927,-1.210029006,0.662901997566,0.0540880002081,1.00862503052,0.319305986166,0.895071983337,-0.188139006495,0.30672699213,1.1054199934,0.534142017365,1.06228399277,1.21861600876,-1.20810198784,-0.378232985735,-0.264598995447,-1.45855498314,1.44569396973,-0.308275997639,-0.87797999382,0.559140026569,-1.4348859787,-0.540793001652,2.16007304192,0.661279022694,0.075152002275,2.57056498528,-0.105658002198,1.57703197002,0.763648986816,1.82507801056,-1.14858400822,2.53319692612,0.595724999905,-0.160972997546,1.36894798279,1.43312799931,-0.328455001116,-0.125150993466,-0.62498497963,-0.354721993208,-1.12531399727,-0.244273006916,1.18161201477,0.0634969994426,1.96559596062,0.623040020466,-0.824842989445,2.60695195198,3.56648302078,2.53701996803,-0.802268028259,-0.0437080003321,0.675796985626,0.583993971348,0.37335601449,2.15466094017,0.0647459998727,-0.119528003037,-1.13264203072,-0.949451029301,-1.49596095085,0.523612976074,-0.46927601099,0.952018022537,1.05440604687,1.86990201473,-0.192719995975,0.488577991724,-0.151800006628,-0.281046003103,-0.334405988455,-0.512727975845,0.394059985876,1.32038700581,-1.50660097599,-0.453866004944,-1.75854599476,0.863030016422,-0.709330022335,2.08971810341,-0.268121004105,1.15946996212,-0.954899013042,0.564797997475,0.394226014614,-0.999891996384,2.22860598564,-0.535687029362,-0.866891026497,0.110662996769,-1.02303695679,1.02351200581,-0.739884972572,0.73192101717,0.786122024059,0.3292529881,-0.886061012745,-1.78943097591,-0.921757996082,0.217460006475,-0.139579996467,-0.395190000534,-1.27070701122,0.825887978077,1.75953102112,-1.30883204937,0.717325985432,-1.48872196674,-0.929190993309,-0.797554016113,-0.653131008148,0.242477998137,0.577782988548,0.656830012798,0.324467986822,-0.300971001387,-1.18184900284,-0.400525987148,-0.659976005554,-0.704056024551,-0.749228000641,-0.757407009602,-0.381437987089,0.00328100007027,-1.68522298336,-0.153727993369,0.141971006989,1.70313501358,0.750042021275,1.0235029459,-0.750544011593,0.237512007356,-0.232245996594,1.32867395878,-0.172812998295,0.514163970947,-1.04389500618,-1.6347899437,0.191192001104,0.484916001558,-0.132172003388,-0.661801993847,0.470245987177,0.562480986118,-1.33986198902,0.854027986526,0.0701669976115,-1.66197502613,-0.0560929998755,-0.558375000954,-0.672679007053,0.749987006187,-1.32336604595,0.720382988453,-2.19233703613,2.50050401688,0.93686401844,0.391835987568,-2.5304980278,-1.13290596008,-0.589850008488,0.963445007801,-1.0086029768,-0.555715024471,-2.18156909943,1.56628704071,1.00341904163,-0.233316004276,-0.0868289992213,2.01998090744,-0.581863999367,-0.786907017231,0.387748986483,-0.0810339972377,-1.18430697918,-0.828949987888,-0.538109004498,0.454883992672,0.967540025711,-1.54021501541,-1.29044902325,-0.498059004545,-2.47399306297,-0.237792998552,1.36114704609,0.413022011518,-0.241051003337,-0.203843995929,0.230568006635,0.401448994875,1.75762605667,0.265058994293,0.144674003124,-1.95140898228,-2.2996199131,0.966784000397,0.00319200009108,0.221939995885,-0.700913012028,0.14479200542,-0.472636014223,-1.17227303982,0.0224270001054,0.596351981163,-1.7469830513,0.965281009674,0.760119974613,-0.419162005186,1.00831699371,1.72258901596,-2.20229005814,-0.571523010731,-1.00588595867,1.13426804543,0.125703006983,0.0158769991249,-0.0211869999766,0.211625993252,0.6943770051,-0.275456011295,-0.706294000149,-1.92935597897,0.0373429991305,0.133581995964,1.73275303841,2.09023594856,-0.938458025455,-1.48097801208,0.559862971306,0.847791016102,0.435873985291,0.654224991798,0.218709006906,-0.509311020374,0.0434460006654,0.677307009697,-2.92617511749,0.391705989838,-0.264816999435,0.574437022209,1.3627409935,-0.0350069999695,0.396779000759,-0.768239974976,0.435737013817,1.7154109478,-0.283993989229,-0.180212005973,0.340860009193,0.493230998516,-0.102032996714,0.831206023693,-0.976095974445,0.832692980766,-0.499197989702,0.424149990082,1.40613901615,0.725185990334,-0.504074990749,0.723650991917,-3.13650202751,0.0521779991686,0.645707011223,1.61563205719,1.76070702076,1.32039105892,0.782904028893,-1.54508900642,-0.175683006644,0.0909869968891,1.44355404377,-1.71162796021
手刹,0.00865400023758,0.0279070008546,-0.0100750001147,-0.0798460021615,0.0107819996774,-0.00414300011471,0.0340109989047,-0.132906004786,0.0177909992635,0.0309319999069,-0.00688300002366,-0.00607400014997,-0.0169949997216,-0.0246029999107,0.0314240008593,-0.0413889996707,-0.0331359989941,-0.0221660006791,-0.0114679997787,-0.0400369986892,-0.0624900013208,0.0256910007447,0.0336439982057,0.00641500018537,0.0188549999148,0.00623800000176,-0.0436259992421,0.0556569993496,-0.0968180000782,0.0561719983816,-0.0130380000919,0.00872999988496,0.0689620003104,0.0188689995557,-0.0101749999449,-0.00678799999878,-0.0104130003601,0.0693409964442,-0.0151530001312,0.051658000797,0.017385000363,-0.0554680004716,-0.0350859984756,-0.035976998508,0.0276640001684,0.0282419994473,-0.0245840009302,-0.01254399959,0.0123939998448,-0.00790499988943,-0.0228840000927,-0.025128999725,0.00969900004566,0.0315140001476,-0.00613299990073,-0.0188619997352,-0.0564870014787,-0.0528189986944,-0.0111889997497,0.0265480000526,-0.0115419998765,0.0254720002413,-0.0061079999432,-0.0114449998364,-0.0283029992133,0.0413670018315,-0.0159699991345,-0.0710130035877,0.00112300005276,-0.0357289984822,-0.00616700015962,0.0101819997653,0.0763060003519,0.0106109995395,-0.0286229997873,0.00774599984288,0.0572180002928,0.00588000006974,-0.0297580007464,0.064662002027,-0.0191980004311,-0.0665000006557,0.034825000912,0.0130489999428,-0.0536400005221,-0.00822800025344,0.0128570003435,0.0547549985349,0.0443269982934,0.0280310008675,0.0592739991844,0.0291859991848,-0.0323509983718,0.0498300008476,0.00285600009374,0.040093999356,-0.0789500027895,-0.00162200001068,-0.0282019991428,-0.0482840016484,0.0243480000645,-0.0542690008879,-0.0159399993718,-0.0207470003515,0.00317099993117,-0.0228480007499,0.0650319978595,0.0222859997302,-0.000296000012895,0.0430280007422,0.0236620008945,-0.0533699989319,0.0363090001047,0.0191169995815,-0.016821000725,0.00235600001179,0.0141629995778,0.00515499990433,0.0485179983079,0.0355629995465,-0.0366219989955,0.0467949993908,-0.0117469998077,0.0411770008504,0.0593379996717,-0.0123460004106,0.00168700003996,0.0298050008714,-0.0269830003381,0.00027799999225,-0.00268099992536,-0.013977999799,0.0147890001535,0.0534589998424,-0.0182479992509,0.0491219982505,-0.0217550005764,0.0152390003204,0.00024900000426,0.00751399993896,0.0185630004853,0.0226450003684,-0.002623999957,-0.0473759993911,0.067271001637,-0.00649699987844,-0.0307279992849,0.0675709992647,-0.012308999896,-0.0530560016632,0.05910500139,-0.0906720012426,-0.0167289990932,-0.0397149994969,-0.0310769993812,-0.0460570007563,0.0600490011275,0.0134039996192,0.00490000005811,-0.0337789990008,0.0227400008589,-0.00496899988502,0.00488399993628,-0.0416989997029,0.0367689989507,-0.00387999997474,0.0166800003499,0.00344499992207,-0.0149140004069,-0.0325089991093,-0.0115080000833,-0.0392780005932,-0.0213729999959,0.00212000007741,0.106402002275,0.0547510012984,0.0349370017648,0.0403800010681,0.0363980010152,0.0655359998345,-0.0318140015006,0.0573889985681,0.000623999978416,-0.00688399979845,0.0202569998801,0.0301179997623,0.00181299995165,0.000822999980301,0.0474690012634,-0.0486759990454,-0.0202350001782,0.023028999567,-0.00390799995512,0.0229899995029,0.0259140003473,-0.012477000244,-0.0108570000157,-0.0285279992968,0.0142590003088,0.0056259999983,0.0373230017722,-0.0201459992677,0.000813000020571,0.00653100013733,-0.0461079999804,0.0280930008739,6.90000015311e-05,-0.0618439987302,0.0326419994235,-0.0766450017691,-0.00346700008959,0.0214740000665,-0.000880000006873,0.0642779991031,0.00455099996179,0.0227669999003,0.0398770011961,-0.00417000008747,0.0393150001764,-0.0148210003972,0.00230999989435,0.016984000802,0.0227269995958,0.0259360000491,-0.00943399965763,0.00596799980849,-0.0645980015397,-0.0533280000091,-0.0292119998485,-0.0281489994377,0.017797999084,-0.0270860008895,0.00505900010467,-0.0343869999051,-0.0124239996076,0.00084799999604,0.00517100002617,-0.020447999239,-0.0190179999918,-0.00306500005536,0.0263979993761,-0.0116579998285,0.0025579999201,0.0184690002352,-0.00354800000787,-0.0105609996244,-0.0239669997245,0.0178249999881,-0.0174540001899,-0.052893999964,0.017838999629,0.0354270003736,-0.0519189983606,0.00393600016832,-0.0582260005176,-0.0384900011122,-0.0508369989693,0.0373429991305,-0.00940200034529,-0.0332770012319,-0.035624999553,0.00558499991894,0.0500909984112,-0.000923999992665,0.0189079996198,-0.0369389988482,-0.0233999993652,0.016628999263,-0.0580930002034,0.00462900009006,-0.0241609998047,-0.0688420012593,0.0237489994615,0.0310469996184,0.0569389984012,0.0152049995959,-0.0117579996586,0.00985199958086,-0.0721599981189,-0.0182620007545,0.000304999994114,-0.000808999990113,0.0554019995034,0.0680970028043,-0.0441210009158,0.00935999955982,0.00635700020939,0.0510680004954,-0.024197999388,-0.0255210008472,0.00916600041091,0.00609999988228,-0.000742000003811,0.0560230016708,0.00548199983314,-0.0389139987528,0.0124450000003,-0.0693110004067,0.0169890001416,-0.0425850003958,-0.00147500005551,-0.0110820000991,-0.0106640001759,0.000494999985676,0.0302089992911,0.00654600001872,-0.0681279972196,-0.00775199988857,0.0276149995625,-0.0251509994268,-0.0958150029182,-0.0233919993043,0.0645129978657,0.0227290000767,0.0415240004659,0.0235990006477,-0.00192900002003,-0.0302060004324,0.0370349995792,0.0165829993784,0.0230260007083,0.0104440003633,0.015732999891,-0.0559259988368,0.0396590009332,0.0286640003324,0.00772299990058,0.0262400005013,0.0371659994125,0.0217579994351,-0.00738700013608,-0.0406549982727,0.0325930006802,-0.0329010002315,-0.0147460000589,-0.00794100016356,0.0516749992967,0.0369249992073,0.0281830001622,-0.00698299985379,-0.0722030028701,-0.00315300002694,-0.0171249993145,-0.0167759992182,-0.00201199995354,-0.0890510007739,-0.0183019991964,-0.0672499984503,-0.0196679998189,-0.0148579999804,-0.0231410004199,0.0378599986434,-0.0404659993947,0.0219080001116,0.011711999774,0.0238390006125,-0.0300430003554,-0.0156999994069,0.0110700000077,0.0362850017846,0.04049000144,0.0395950004458,0.00636400002986,-0.0044619999826,0.00415199995041,0.00764100020751,-0.0130780003965,0.0212249998003,-0.0312189999968,-0.00294800009578,-0.0415389984846,0.0380380004644,0.0329100005329,0.0742719992995,0.000243000002229,-0.0470350012183,0.00817700009793,-0.0139849996194,-0.0772880017757,-0.0321800000966,-0.0230519995093,-0.0164850000292,0.0866020023823,-0.00264899991453,-0.0536219999194,-0.0385380014777,0.0275730006397,0.0069450000301,-0.0785190016031,0.000562999979593,0.0102819995955,-0.00545400008559,0.0110600003973,0.0178890004754,-0.0123800002038,-0.0171370003372,-0.0281540006399,0.00560599984601,0.0102709997445,0.0225970000029
无需,-0.0200919993222,1.97904896736,-0.177600994706,-0.576111018658,1.66199195385,1.24691402912,1.51417899132,-0.0476879999042,-1.13679099083,-0.00277199991979,0.177272006869,-0.0229380000383,-0.193905994296,0.279332995415,-0.129416003823,0.395170986652,-0.663048028946,-0.795195996761,-0.355953991413,-1.98146796227,-0.214839994907,1.10120105743,0.633050024509,-0.369928002357,1.13785004616,0.607082009315,0.40541601181,0.331227988005,-0.577826976776,1.7765879631,-0.246110007167,-0.220084995031,-0.456833004951,-0.599667012691,-0.0631259977818,1.03210604191,1.30771505833,-1.40989100933,0.137413993478,-0.0205940008163,1.77573597431,-0.77412301302,0.981166005135,-1.42499399185,0.123309001327,0.886556982994,-0.343039005995,-0.553143024445,-0.890664994717,0.0226050000638,-0.355129003525,-0.512082993984,-0.858033001423,0.753790020943,-0.530749022961,0.530538976192,0.795526981354,-0.00494399992749,-0.808798015118,0.758014023304,-1.29596602917,1.74898898602,-0.139143005013,-2.22237110138,1.50288796425,1.70564699173,-0.581223011017,1.52567195892,0.113021999598,1.04838395119,-1.03219401836,0.635294020176,1.84606599808,0.940994977951,1.31067705154,0.839928984642,1.79351294041,-0.705852985382,0.271771013737,0.733829021454,0.605777025223,-0.597118020058,-0.753661990166,-0.745167016983,0.914996027946,-0.939383983612,-1.54643297195,0.0822260007262,1.23339700699,0.147706001997,0.25249800086,0.33468401432,0.315674990416,0.11331500113,-0.581835985184,0.387567996979,-0.875675976276,0.640350997448,-1.132791996,-1.61531794071,0.358117997646,0.585232973099,0.611751973629,-0.558637976646,-0.349976986647,-0.145627006888,1.09546399117,-0.609791994095,-0.263168007135,0.808821976185,1.10135197639,-0.42288801074,-0.747650980949,0.217674002051,0.673202991486,-0.527621984482,1.396468997,-0.688507974148,0.101644001901,0.118810996413,1.58189404011,-1.28921496868,0.0536380000412,-1.48453402519,-0.291494995356,-0.357690006495,-0.491876989603,-0.26931899786,-0.0692149996758,0.122470997274,0.394854992628,-0.46615499258,0.282716006041,1.43843901157,-0.711332023144,0.191357001662,-0.773813009262,1.0167440176,1.15016305447,-0.372772008181,-0.951716005802,-0.748920977116,-0.508764028549,-2.24453902245,1.18049800396,-1.49575400352,0.347851991653,0.266530007124,0.114266000688,0.225722998381,0.230367004871,0.0152559997514,0.372492998838,-0.403371989727,1.20567297935,-0.534147024155,1.06078696251,0.922662973404,0.930785000324,-0.388031005859,0.779604971409,-0.82819801569,-0.36167499423,-0.752976000309,0.810754001141,1.00242900848,-0.260695010424,-0.593150019646,-0.792917013168,-0.355376005173,-0.628350973129,-1.77695095539,1.43564903736,1.99264204502,1.10919296741,1.20011603832,2.16697788239,1.30369198322,-0.0546789988875,0.458523988724,0.0308340005577,-0.159039005637,-0.0314049981534,-1.43043196201,-0.16584199667,-0.486842989922,0.342878013849,-0.0490240007639,-0.534593999386,-1.25639402866,0.514558970928,-0.497548997402,1.25241601467,0.75257897377,0.849756002426,0.788832008839,0.453747004271,-0.494560986757,1.24762201309,0.928900003433,0.789718985558,-0.632368981838,0.247525006533,-0.879297971725,-0.776356995106,1.20606398582,-2.09633302689,-0.0207170005888,-0.623579978943,-0.365128010511,-1.78276503086,1.30495595932,-0.137648001313,0.365877985954,1.37734699249,0.481561988592,-1.40026497841,0.0171429999173,-0.362489014864,-0.990933001041,-0.28355500102,0.626532971859,-0.867119014263,-1.06773102283,1.39189302921,-1.60212600231,-1.72734594345,-0.346893996,1.37332296371,0.0262150000781,-1.04372799397,0.417548000813,0.656426012516,-0.00335299992003,-0.124491997063,-0.104957997799,0.658461987972,-0.303460985422,0.531100988388,-0.787896990776,0.688260018826,0.618139028549,-1.24218702316,0.833876013756,-1.01723694801,0.707135021687,-2.11062908173,-0.397567003965,-0.570783019066,-0.0605369992554,-0.603076994419,0.127784997225,1.54016900063,-1.17754495144,-1.547549963,-0.235440999269,-0.423092991114,-0.048737000674,0.7936450243,-1.09863495827,-0.0142280003056,1.33098101616,0.922183990479,0.243849992752,-0.672100007534,-1.11946201324,0.271162986755,-0.995033979416,0.511695027351,0.681044995785,0.16714400053,0.509625017643,-0.782751977444,0.668893992901,0.354815989733,0.580366015434,0.438241004944,0.995061993599,-0.266948014498,1.8965369463,0.160042002797,-0.103217996657,0.993248999119,0.631161987782,0.107312001288,0.982770979404,-0.794439017773,0.975884020329,-0.380679994822,0.23106700182,0.970676004887,1.39398300648,-0.153878003359,-1.20554995537,1.22899901867,0.584909021854,1.16974198818,0.891194999218,0.469675987959,-0.217599004507,0.603429019451,0.372193992138,0.0132609996945,-0.645124018192,0.826264977455,-0.184747993946,0.489930003881,1.00694799423,-0.0997989997268,1.21659302711,0.0829129964113,-0.941160023212,0.782239019871,-1.53980398178,2.00106501579,0.135220006108,0.401643007994,0.738182008266,-0.112191997468,-1.16805696487,-0.77080398798,-0.127023994923,-0.115942999721,2.01604890823,-1.68947601318,-0.984238982201,-0.158234998584,0.738619983196,0.0356200002134,-0.227846994996,1.03753602505,0.27537599206,-0.680211007595,0.0841720029712,-0.433840990067,-0.28067201376,0.495379000902,-0.394464999437,-1.11065495014,-0.204289004207,0.743631005287,0.420578986406,1.23184001446,0.293911010027,0.831734001637,-0.361402004957,-0.616375982761,-0.23038199544,0.67600697279,-0.256855994463,0.520758986473,-1.09238803387,0.428368985653,0.456108003855,-0.748988986015,-1.33192300797,0.739580988884,0.113668002188,0.417612999678,1.03010904789,0.188148006797,0.251405000687,-0.483074009418,-0.889985024929,-0.13874399662,-0.779096007347,2.18208193779,-1.28749799728,0.944460988045,-0.112351998687,-0.297960013151,-1.21760702133,0.680806994438,0.407074004412,1.42395496368,-0.349664002657,-0.158598005772,-0.591003000736,-2.04194188118,-0.314193993807,0.431861996651,1.63091301918,0.439916998148,0.683196008205,-0.527463018894,-1.12320899963,0.127683997154,-1.09244894981,-1.00714302063,1.26793801785,0.311554998159,0.455978989601,0.66861397028,-1.5956530571,-0.00235099997371,-1.07692599297,0.575112998486,0.388844996691,-0.580133974552,0.534196019173
开度,-0.00930299982429,0.0522660017014,0.0437779985368,-0.0822750031948,0.0619210004807,-0.0119479997084,0.0295289997011,-0.0270649995655,-0.00222599995323,0.0221030004323,-0.0151119995862,0.0213079992682,-0.0175630003214,0.0528969988227,-0.0303479991853,-0.0189839992672,-0.0902639999986,-0.00852099992335,-0.0362659990788,-0.0437869988382,-0.0349749997258,0.0407209992409,-0.0124530000612,0.0425300002098,-0.0167309995741,0.0399620011449,-0.035758998245,0.095068000257,0.0046160002239,0.0379289984703,-0.0438539981842,0.025673000142,0.0237799994648,0.0265170000494,-0.0214540008456,0.0398110002279,0.00663999980316,-0.00911100022495,-0.00974300038069,0.00172599998768,0.0376319997013,-0.106682002544,-0.0407290011644,-0.0433389991522,-0.0171039998531,-0.0498659983277,0.00348700000905,-0.00575499981642,-0.00451500015333,-0.0253439992666,0.0443570017815,-0.0204119998962,-0.0279179997742,0.0185589995235,-0.00526699982584,-0.00640999991447,0.05179399997,-0.0555909983814,0.022528000176,0.0311239995062,-0.0497619993985,0.0639460012317,-0.0278549995273,-0.0375390015543,-0.00820100028068,0.00992999970913,0.00364100001752,-0.0451640002429,0.00574500020593,-0.0287449993193,-0.0222720000893,-0.0215799994767,-0.0106250001118,0.0153860002756,-0.0256619993597,0.0395330004394,0.0381090007722,-0.00884400028735,0.033978998661,0.0323060005903,-0.00375999999233,-0.0120740002021,-0.0163780003786,-0.0366399995983,0.0381250008941,-0.0315140001476,-0.0133859999478,-0.00527299987152,-0.012701000087,0.0391240008175,0.023288000375,0.0267859995365,0.019212000072,0.0190779995173,0.0217000003904,0.0639970004559,0.0363559983671,0.0462329983711,0.00661400007084,0.0152420001104,0.0889720022678,-0.00205500004813,-0.0319049991667,-0.0266919992864,0.0446339994669,0.007366000209,0.00904200039804,-0.0279500000179,0.0487210005522,0.0175039991736,0.0229240003973,-0.0204900000244,0.00137099996209,0.00497899996117,-0.0336069986224,0.01253800001,0.046590000391,-0.0464639998972,0.0225329995155,0.0464060008526,-0.0191639997065,-0.0110820000991,-0.0569619983435,-0.0253480002284,0.00909500010312,0.0470470003784,0.0317040011287,-0.0379979982972,0.0157960001379,-0.0175059996545,-0.0100670000538,-0.0245559997857,-0.0650940015912,0.0199270006269,0.00257400004193,0.0064489999786,-0.0835520029068,-0.0367200002074,0.0112770004198,-0.0300009995699,0.0165689997375,-0.00887800008059,-0.0194329991937,0.0365610010922,0.0464369989932,-0.0245990008116,-0.0573350004852,-0.0331460013986,-0.0164819993079,0.0514170005918,0.0562330000103,-0.0494210012257,-0.0307279992849,-0.0544480010867,-0.00592500017956,-0.0610969997942,-0.0139480000362,-0.0488409996033,-0.0178670007735,0.0142240002751,0.0379140004516,-0.0206819996238,0.0163000002503,-0.0133969997987,-0.0203009992838,-0.0156769994646,0.0462169982493,-0.00146199995652,-0.00800899975002,-0.093653999269,0.00275900005363,0.0242950003594,0.0113899996504,0.00949699990451,-0.0355970002711,0.0312669984996,0.0717779994011,-0.0353609994054,0.00606400007382,0.00949500035495,-0.0141540002078,-0.0151519998908,-0.0290079992265,-5.29999997525e-05,-0.0168660003692,0.0819950029254,0.0355309993029,-0.0197909995914,-0.0078889997676,-0.017976000905,0.0607639998198,0.0281319990754,-0.0277919992805,0.00689199985936,-0.0182160008699,-0.0177040006965,0.0469920001924,-0.0037720000837,-0.00704099982977,-0.00391499977559,0.00498500000685,-0.00305699999444,0.00203300011344,0.0401119999588,0.0293659996241,0.0227480009198,-0.00342099997215,0.0539189986885,0.0107479998842,0.0536339990795,0.0570890009403,0.017457999289,-0.0237370003015,-0.0223350003362,0.01147700008,0.0380510017276,0.0103380000219,0.0371659994125,0.0129060000181,-0.0337020009756,-0.0384170003235,0.019369000569,0.024686999619,-0.0253699999303,0.0555839985609,0.0207390002906,0.0627209991217,0.00492200022563,0.0224769990891,-0.0237690005451,0.0229690000415,0.0256440006196,0.0192809998989,-0.0385779999197,-0.000468000012916,-0.0597580000758,-0.0208630003035,-0.0251080002636,0.0385040007532,-0.0638500005007,-0.0219810009003,0.0488660000265,0.0298689994961,0.0230739992112,-0.0158530008048,-0.0463320016861,0.0966769978404,-0.0314729996026,-0.0296550001949,0.0178849995136,-0.0217630006373,0.00442099990323,5.09999990754e-05,0.00147599994671,-0.0291949994862,-0.043032001704,0.00497299991548,0.0152660002932,0.0387610010803,-0.00880200043321,-0.00467299995944,0.0279619991779,0.0182549990714,-0.0115909995511,-0.015746999532,-0.103136003017,0.0125150000677,0.0488660000265,-0.0523159988225,0.00559900002554,0.0287599992007,-0.0181370005012,0.0159380007535,0.0221289992332,0.00609500007704,0.0244319997728,-0.0485090017319,-0.0376259982586,0.0733899995685,0.0143689997494,0.0407559983432,-0.0370090007782,0.0407389998436,0.0214009992778,0.000859000021592,0.0393260009587,0.00999299995601,-0.00823100004345,0.0133180003613,0.00518900016323,-0.00358800007962,-0.0348890013993,-0.0328329987824,-0.0308510009199,-0.00426599988714,-0.00510099995881,-0.033874001354,0.0185490008444,0.0216249991208,-0.00603399984539,0.0234430003911,-0.00783899985254,0.0116849998012,-0.0392760001123,0.0265500005335,-0.0162000004202,-0.0116839995608,-0.00296199996956,-0.0150049999356,-0.00668000010774,-0.0187299996614,-0.0155210001394,-0.0194109994918,0.0299970004708,0.0136259999126,0.0157299991697,-0.00617599999532,0.0280019994825,0.00635599996895,-0.0069360001944,-0.00768399983644,0.00583000015467,0.0264020003378,-0.0384600013494,0.0230260007083,0.0146979996935,-0.0299629997462,0.0518480017781,-0.0308120008558,0.0745109990239,0.0765509977937,0.00631600013003,-0.046845998615,0.0455950014293,0.0194749999791,-0.00238900003023,-0.00295000011101,0.018921000883,0.0119420001283,-0.0143219996244,-0.033234000206,-0.0192089993507,-0.0222740005702,-0.00475100008771,0.0409739986062,-0.0157970003784,-0.0429980009794,0.0529970005155,0.0102059999481,-0.0425649993122,-0.0343610011041,-0.00536700012162,-0.0168750006706,0.00774799985811,0.0118960002437,0.0191779993474,0.0692199990153,0.0148989995942,-0.00561399990693,0.032772000879,-0.0544370003045,-0.00403599999845,-0.0509570017457,0.0118859997019,-0.0162070002407,-0.0880680009723,0.0191440004855,0.0191140007228,-0.0748649984598,-0.0348559990525,-0.0139929996803,-0.0225990004838,0.0407529994845,0.00368799990974,0.0118460003287,0.0282249990851,-0.0804470032454,0.00514400005341,-0.0643310025334,0.0259750001132,-0.0473660007119,-0.0241320002824,0.0301869995892,0.015567000024,0.00579900015146,-0.100928999484,0.0110659999773,-0.0102500002831,-0.0775320008397,0.0286159999669,-0.000216000000364,0.00191400002223,0.0118850003928,0.0310789998621,0.0297899991274,-0.00594099983573,0.039101999253,-0.0571129992604,0.0383209995925,-0.00980100035667
